{"learner":{"attributes":{"best_iteration":"99","best_ntree_limit":"100","scikit_learn":"{\"n_estimators\": 100, \"objective\": \"reg:squarederror\", \"max_depth\": null, \"max_leaves\": null, \"max_bin\": null, \"grow_policy\": null, \"learning_rate\": null, \"verbosity\": null, \"booster\": null, \"tree_method\": null, \"gamma\": null, \"min_child_weight\": null, \"max_delta_step\": null, \"subsample\": null, \"sampling_method\": null, \"colsample_bytree\": null, \"colsample_bylevel\": null, \"colsample_bynode\": null, \"reg_alpha\": null, \"reg_lambda\": null, \"scale_pos_weight\": null, \"base_score\": null, \"missing\": NaN, \"num_parallel_tree\": null, \"random_state\": null, \"n_jobs\": null, \"monotone_constraints\": null, \"interaction_constraints\": null, \"importance_type\": null, \"gpu_id\": null, \"validate_parameters\": null, \"predictor\": null, \"enable_categorical\": false, \"feature_types\": null, \"max_cat_to_onehot\": null, \"max_cat_threshold\": null, \"eval_metric\": null, \"early_stopping_rounds\": null, \"callbacks\": null, \"_estimator_type\": \"regressor\"}"},"feature_names":[],"feature_types":[],"gradient_booster":{"model":{"gbtree_model_param":{"num_parallel_tree":"1","num_trees":"100","size_leaf_vector":"0"},"tree_info":[0,0,0,0,0,0,0,0,0,0,0,0,0,0,0,0,0,0,0,0,0,0,0,0,0,0,0,0,0,0,0,0,0,0,0,0,0,0,0,0,0,0,0,0,0,0,0,0,0,0,0,0,0,0,0,0,0,0,0,0,0,0,0,0,0,0,0,0,0,0,0,0,0,0,0,0,0,0,0,0,0,0,0,0,0,0,0,0,0,0,0,0,0,0,0,0,0,0,0,0],"trees":[{"base_weights":[1.4945921E2,8.592357E1,2.2744048E2,4.873718E1,1.2110625E2,1.8256863E2,2.545592E2,2.8355263E1,6.6439026E1,1.014079E2,1.3569768E2,2.256E1,3.667857E1,5.2725E1,7.588636E1],"categories":[],"categories_nodes":[],"categories_segments":[],"categories_sizes":[],"default_left":[1,1,1,1,1,0,0,1,1,0,0,0,0,0,0],"id":0,"left_children":[1,3,5,7,9,-1,-1,11,13,-1,-1,-1,-1,-1,-1],"loss_changes":[1.377652E6,1.9950338E5,1.06851E5,2.6258312E4,9.233375E3,0E0,0E0,1.00549023E3,1.3108906E3,0E0,0E0,0E0,0E0,0E0,0E0],"parents":[2147483647,0,0,1,1,2,2,3,3,4,4,7,7,8,8],"right_children":[2,4,6,8,10,-1,-1,12,14,-1,-1,-1,-1,-1,-1],"split_conditions":[1.8E1,1E1,2.4E1,6E0,1.4E1,5.477059E1,7.636777E1,4E0,8E0,3.042237E1,4.0709305E1,6.768E0,1.10035715E1,1.58175E1,2.276591E1],"split_indices":[0,0,0,0,0,0,0,0,0,0,0,0,0,0,0],"split_type":[0,0,0,0,0,0,0,0,0,0,0,0,0,0,0],"sum_hessian":[2.81E2,1.56E2,1.25E2,7.7E1,7.9E1,5E1,7.5E1,3.7E1,4E1,3.7E1,4.2E1,2.4E1,1.3E1,1.9E1,2.1E1],"tree_param":{"num_deleted":"0","num_feature":"2","num_nodes":"15","size_leaf_vector":"0"}},{"base_weights":[1.0553856E2,5.3683743E1,1.5347398E2,2.6771738E1,7.195905E1,1.2785195E2,1.8708089E2,1.6062721E1,3.4073364E1,5.8916298E1,8.211507E1,1.08400734E2,1.3848543E2],"categories":[],"categories_nodes":[],"categories_segments":[],"categories_sizes":[],"default_left":[1,1,1,1,1,1,0,0,0,0,0,0,0],"id":1,"left_children":[1,3,5,7,9,11,-1,-1,-1,-1,-1,-1,-1],"loss_changes":[6.927235E5,6.5453594E4,1.017985E5,3.9097031E3,5.8915625E3,2.77575E3,0E0,0E0,0E0,0E0,0E0,0E0,0E0],"parents":[2147483647,0,0,1,1,2,2,3,3,4,4,5,5],"right_children":[2,4,6,8,10,12,-1,-1,-1,-1,-1,-1,-1],"split_conditions":[1.6E1,8E0,2.6E1,4E0,1.2E1,2E1,5.6124268E1,4.8188167E0,1.022201E1,1.767489E1,2.4634521E1,3.252022E1,4.154563E1],"split_indices":[0,0,0,0,0,0,0,0,0,0,0,0,0],"split_type":[0,0,0,0,0,0,0,0,0,0,0,0,0],"sum_hessian":[2.81E2,1.36E2,1.45E2,5.6E1,8E1,8.5E1,6E1,2.4E1,3.2E1,3.8E1,4.2E1,3.4E1,5.1E1],"tree_param":{"num_deleted":"0","num_feature":"2","num_nodes":"13","size_leaf_vector":"0"}},{"base_weights":[7.454203E1,3.7997234E1,1.083235E2,1.900409E1,5.0893677E1,9.2688644E1,1.392844E2,1.377589E1,2.7987465E1,4.169461E1,5.805344E1,8.069995E1,1.0554816E2,1.1436656E1,1.6969103E1],"categories":[],"categories_nodes":[],"categories_segments":[],"categories_sizes":[],"default_left":[1,1,1,1,1,1,0,1,0,0,0,0,0,0,0],"id":2,"left_children":[1,3,5,7,9,11,-1,13,-1,-1,-1,-1,-1,-1,-1],"loss_changes":[3.440235E5,3.2590125E4,5.7763875E4,2.2915605E3,2.9144219E3,6.899125E3,0E0,8.977783E1,0E0,0E0,0E0,0E0,0E0,0E0,0E0],"parents":[2147483647,0,0,1,1,2,2,3,3,4,4,5,5,7,7],"right_children":[2,4,6,8,10,12,-1,14,-1,-1,-1,-1,-1,-1,-1],"split_conditions":[1.6E1,8E0,2.8E1,6E0,1.2E1,2.2E1,4.178532E1,4E0,8.39624E0,1.2508384E1,1.7416033E1,2.4209986E1,3.1664448E1,3.430997E0,5.090731E0],"split_indices":[0,0,0,0,0,0,0,0,0,0,0,0,0,0,0],"split_type":[0,0,0,0,0,0,0,0,0,0,0,0,0,0,0],"sum_hessian":[2.81E2,1.36E2,1.45E2,5.6E1,8E1,9.9E1,4.6E1,3.7E1,1.9E1,3.8E1,4.2E1,5.5E1,4.4E1,2.4E1,1.3E1],"tree_param":{"num_deleted":"0","num_feature":"2","num_nodes":"15","size_leaf_vector":"0"}},{"base_weights":[5.2691837E1,2.6939978E1,7.649535E1,1.35996685E1,3.599501E1,6.773389E1,1.0811522E2,9.867379E0,2.0011034E1,2.534396E1,3.930048E1,5.692229E1,7.6406715E1,8.142899E0,1.2241995E1],"categories":[],"categories_nodes":[],"categories_segments":[],"categories_sizes":[],"default_left":[1,1,1,1,1,1,0,1,0,0,0,0,0,0,0],"id":3,"left_children":[1,3,5,7,9,11,-1,13,-1,-1,-1,-1,-1,-1,-1],"loss_changes":[1.7080094E5,1.6059648E4,3.3124188E4,1.166501E3,1.8557188E3,6.6215E3,0E0,5.5923584E1,0E0,0E0,0E0,0E0,0E0,0E0,0E0],"parents":[2147483647,0,0,1,1,2,2,3,3,4,4,5,5,7,7],"right_children":[2,4,6,8,10,12,-1,14,-1,-1,-1,-1,-1,-1,-1],"split_conditions":[1.6E1,8E0,3E1,6E0,1E1,2.2E1,3.2434566E1,4E0,6.0033107E0,7.603188E0,1.1790144E1,1.7076689E1,2.2922016E1,2.4428697E0,3.6725986E0],"split_indices":[0,0,0,0,0,0,0,0,0,0,0,0,0,0,0],"split_type":[0,0,0,0,0,0,0,0,0,0,0,0,0,0,0],"sum_hessian":[2.81E2,1.36E2,1.45E2,5.6E1,8E1,1.16E2,2.9E1,3.7E1,1.9E1,2.1E1,5.9E1,5.5E1,6.1E1,2.4E1,1.3E1],"tree_param":{"num_deleted":"0","num_feature":"2","num_nodes":"15","size_leaf_vector":"0"}},{"base_weights":[3.7252888E1,2.2804955E1,5.897917E1,1.2213407E1,3.1351078E1,5.184112E1,7.67618E1,7.0680985E0,1.6684341E1,2.467132E1,3.525423E1,5.7977433E0,8.831726E0],"categories":[],"categories_nodes":[],"categories_segments":[],"categories_sizes":[],"default_left":[1,1,1,1,1,0,0,1,0,0,0,0,0],"id":4,"left_children":[1,3,5,7,9,-1,-1,11,-1,-1,-1,-1,-1],"loss_changes":[8.717475E4,1.5095445E4,1.0237125E4,1.6764111E3,1.5810156E3,0E0,0E0,3.3932373E1,0E0,0E0,0E0,0E0,0E0],"parents":[2147483647,0,0,1,1,2,2,3,3,4,4,7,7],"right_children":[2,4,6,8,10,-1,-1,12,-1,-1,-1,-1,-1],"split_conditions":[2E1,1E1,3E1,6E0,1.4E1,1.5552337E1,2.3028542E1,4E0,5.0053024E0,7.4013963E0,1.0576269E1,1.739323E0,2.649518E0],"split_indices":[0,0,0,0,0,0,0,0,0,0,0,0,0],"split_type":[0,0,0,0,0,0,0,0,0,0,0,0,0],"sum_hessian":[2.81E2,1.7E2,1.11E2,7.7E1,9.3E1,8.2E1,2.9E1,3.7E1,4E1,3.7E1,5.6E1,2.4E1,1.3E1],"tree_param":{"num_deleted":"0","num_feature":"2","num_nodes":"13","size_leaf_vector":"0"}},{"base_weights":[2.6310894E1,1.5033612E1,4.0153927E1,8.669822E0,2.1050388E1,3.5302773E1,5.450087E1,5.063165E0,1.1801117E1,1.4830434E1,2.2493385E1,2.8724659E1,3.855292E1,4.1279936E0,6.37146E0,9.552852E0,1.3308579E1],"categories":[],"categories_nodes":[],"categories_segments":[],"categories_sizes":[],"default_left":[1,1,1,1,1,1,0,1,1,0,0,0,0,0,0,0,0],"id":5,"left_children":[1,3,5,7,9,11,-1,13,15,-1,-1,-1,-1,-1,-1,-1,-1],"loss_changes":[4.3419875E4,5.828949E3,6.8454688E3,8.211426E2,3.844453E2,9.664219E2,0E0,2.0190857E1,1.1821289E1,0E0,0E0,0E0,0E0,0E0,0E0,0E0,0E0],"parents":[2147483647,0,0,1,1,2,2,3,3,4,4,5,5,7,7,8,8],"right_children":[2,4,6,8,10,12,-1,14,16,-1,-1,-1,-1,-1,-1,-1,-1],"split_conditions":[1.8E1,1E1,3E1,6E0,1.2E1,2.2E1,1.6350262E1,4E0,8E0,4.4491305E0,6.748016E0,8.617398E0,1.1565877E1,1.2383981E0,1.9114381E0,2.8658557E0,3.992574E0],"split_indices":[0,0,0,0,0,0,0,0,0,0,0,0,0,0,0,0,0],"split_type":[0,0,0,0,0,0,0,0,0,0,0,0,0,0,0,0,0],"sum_hessian":[2.81E2,1.56E2,1.25E2,7.7E1,7.9E1,9.6E1,2.9E1,3.7E1,4E1,1.7E1,6.2E1,3.5E1,6.1E1,2.4E1,1.3E1,1.9E1,2.1E1],"tree_param":{"num_deleted":"0","num_feature":"2","num_nodes":"17","size_leaf_vector":"0"}},{"base_weights":[1.8622374E1,9.344592E0,2.7200687E1,4.8146634E0,1.2416954E1,2.2803308E1,3.5978077E1,2.939132E0,6.0896215E0,1.0263007E1,1.4081766E1,2.0101233E1,2.5659151E1,3.1373098E1,4.5608543E1,4.5965533E0,6.8302884E0],"categories":[],"categories_nodes":[],"categories_segments":[],"categories_sizes":[],"default_left":[1,1,1,1,1,1,1,0,1,0,0,0,0,0,0,0,0],"id":6,"left_children":[1,3,5,7,9,11,13,-1,15,-1,-1,-1,-1,-1,-1,-1,-1],"loss_changes":[2.2189555E4,1.8469248E3,4.8148203E3,1.1840161E2,1.4593848E2,2.5588672E2,6.5347656E2,0E0,5.0977783E0,0E0,0E0,0E0,0E0,0E0,0E0,0E0,0E0],"parents":[2147483647,0,0,1,1,2,2,3,3,4,4,5,5,6,6,8,8],"right_children":[2,4,6,8,10,12,14,-1,16,-1,-1,-1,-1,-1,-1,-1,-1],"split_conditions":[1.6E1,8E0,2.8E1,4E0,1.2E1,2.2E1,3.2E1,8.817396E-1,6E0,3.0789022E0,4.22453E0,6.03037E0,7.697746E0,9.41193E0,1.3682564E1,1.3789661E0,2.0490866E0],"split_indices":[0,0,0,0,0,0,0,0,0,0,0,0,0,0,0,0,0],"split_type":[0,0,0,0,0,0,0,0,0,0,0,0,0,0,0,0,0],"sum_hessian":[2.81E2,1.36E2,1.45E2,5.6E1,8E1,9.9E1,4.6E1,2.4E1,3.2E1,3.8E1,4.2E1,5.5E1,4.4E1,3.4E1,1.2E1,1.3E1,1.9E1],"tree_param":{"num_deleted":"0","num_feature":"2","num_nodes":"17","size_leaf_vector":"0"}},{"base_weights":[1.320742E1,8.0241E0,2.1003315E1,4.3679805E0,1.0972539E1,1.9236511E1,3.2978477E1,2.5984657E0,5.9014826E0,8.321868E0,1.25471525E1,1.7357552E1,2.2230078E1,2.0926611E0,3.3160837E0],"categories":[],"categories_nodes":[],"categories_segments":[],"categories_sizes":[],"default_left":[1,1,1,1,1,1,0,1,0,0,0,0,0,0,0],"id":7,"left_children":[1,3,5,7,9,11,-1,13,-1,-1,-1,-1,-1,-1,-1],"loss_changes":[1.1226699E4,1.7954258E3,1.7352773E3,1.9632239E2,2.8791895E2,1.7661719E2,0E0,6.8535767E0,0E0,0E0,0E0,0E0,0E0,0E0,0E0],"parents":[2147483647,0,0,1,1,2,2,3,3,4,4,5,5,7,7],"right_children":[2,4,6,8,10,12,-1,14,-1,-1,-1,-1,-1,-1,-1],"split_conditions":[2E1,1E1,3.2E1,6E0,1.4E1,2.8E1,9.893543E0,4E0,1.7704449E0,2.4965606E0,3.7641459E0,5.207266E0,6.6690235E0,6.277984E-1,9.948251E-1],"split_indices":[0,0,0,0,0,0,0,0,0,0,0,0,0,0,0],"split_type":[0,0,0,0,0,0,0,0,0,0,0,0,0,0,0],"sum_hessian":[2.81E2,1.7E2,1.11E2,7.7E1,9.3E1,9.9E1,1.2E1,3.7E1,4E1,3.7E1,5.6E1,6.5E1,3.4E1,2.4E1,1.3E1],"tree_param":{"num_deleted":"0","num_feature":"2","num_nodes":"15","size_leaf_vector":"0"}},{"base_weights":[9.356626E0,4.6259694E0,1.373158E1,2.3645005E0,6.1602626E0,1.1967798E1,2.0152609E1,1.489975E0,2.9553683E0,5.2214894E0,6.8684464E0,9.940456E0,1.3605916E1,1.6365595E1,2.3845966E1],"categories":[],"categories_nodes":[],"categories_segments":[],"categories_sizes":[],"default_left":[1,1,1,1,1,1,1,0,0,0,0,0,0,0,0],"id":8,"left_children":[1,3,5,7,9,11,13,-1,-1,-1,-1,-1,-1,-1,-1],"loss_changes":[5.7728633E3,4.6079077E2,1.4123125E3,2.505014E1,1.798706E1,2.5331055E2,2.934961E1,0E0,0E0,0E0,0E0,0E0,0E0,0E0,0E0],"parents":[2147483647,0,0,1,1,2,2,3,3,4,4,5,5,6,6],"right_children":[2,4,6,8,10,12,14,-1,-1,-1,-1,-1,-1,-1,-1],"split_conditions":[1.6E1,8E0,3E1,4E0,1.2E1,2.2E1,3.2E1,4.4699252E-1,8.866105E-1,1.5664469E0,2.060534E0,2.982137E0,4.081775E0,4.9096785E0,7.15379E0],"split_indices":[0,0,0,0,0,0,0,0,0,0,0,0,0,0,0],"split_type":[0,0,0,0,0,0,0,0,0,0,0,0,0,0,0],"sum_hessian":[2.81E2,1.36E2,1.45E2,5.6E1,8E1,1.16E2,2.9E1,2.4E1,3.2E1,3.8E1,4.2E1,5.5E1,6.1E1,1.7E1,1.2E1],"tree_param":{"num_deleted":"0","num_feature":"2","num_nodes":"15","size_leaf_vector":"0"}},{"base_weights":[6.6350594E0,4.3814554E0,1.1317003E1,2.8339841E0,6.6068115E0,1.0198672E1,1.724248E1,1.678546E0,3.9022212E0,5.3340435E0,7.0115767E0,9.049864E0,1.1384321E1,1.2760015E0,2.3594532E0,1.1711569E1,7.328625E0,1.0608618E0,1.5690365E0],"categories":[],"categories_nodes":[],"categories_segments":[],"categories_sizes":[],"default_left":[1,1,1,1,1,1,0,1,0,0,0,1,0,1,0,0,0,0,0],"id":9,"left_children":[1,3,5,7,9,11,-1,13,-1,-1,-1,15,-1,17,-1,-1,-1,-1,-1],"loss_changes":[2.9258672E3,6.424619E2,4.2717285E2,1.353924E2,2.7834473E0,4.578125E0,0E0,1.2612778E1,0E0,0E0,0E0,1.2033496E2,0E0,7.3112106E-1,0E0,0E0,0E0,0E0,0E0],"parents":[2147483647,0,0,1,1,2,2,3,3,4,4,5,5,7,7,11,11,13,13],"right_children":[2,4,6,8,10,12,-1,14,-1,-1,-1,16,-1,18,-1,-1,-1,-1,-1],"split_conditions":[2.2E1,1.4E1,3.2E1,8E0,1.6E1,2.8E1,5.172744E0,6E0,1.1706665E0,1.6002132E0,2.1034732E0,2.4E1,3.4152966E0,4E0,7.07836E-1,3.513471E0,2.1985877E0,3.1825855E-1,4.7071096E-1],"split_indices":[0,0,0,0,0,0,0,0,0,0,0,0,0,0,0,0,0,0,0],"split_type":[0,0,0,0,0,0,0,0,0,0,0,0,0,0,0,0,0,0,0],"sum_hessian":[2.81E2,1.91E2,9E1,1.14E2,7.7E1,7.8E1,1.2E1,5.6E1,5.8E1,2.2E1,5.5E1,4.4E1,3.4E1,3.7E1,1.9E1,1.5E1,2.9E1,2.4E1,1.3E1],"tree_param":{"num_deleted":"0","num_feature":"2","num_nodes":"19","size_leaf_vector":"0"}},{"base_weights":[4.7178445E0,2.817262E0,7.5775037E0,1.5140988E0,3.8686392E0,6.4282455E0,1.0504534E1,9.139636E-1,2.0333922E0,2.9658768E0,4.40261E0,5.158501E0,6.775119E0,8.503141E0,1.2467651E1,7.5533384E-1,1.1319479E0,8.417687E0,6.071795E0,4.4030285E0,6.7164345E0],"categories":[],"categories_nodes":[],"categories_segments":[],"categories_sizes":[],"default_left":[1,1,1,1,1,1,1,1,0,0,0,0,1,0,0,0,0,0,1,0,0],"id":10,"left_children":[1,3,5,7,9,11,13,15,-1,-1,-1,-1,17,-1,-1,-1,-1,-1,19,-1,-1],"loss_changes":[1.5113276E3,2.2843225E2,3.0923242E2,2.2449966E1,3.2255005E1,1.6066895E0,1.1854736E1,4.589939E-1,0E0,0E0,0E0,0E0,2.051538E1,0E0,0E0,0E0,0E0,0E0,2.0987793E1,0E0,0E0],"parents":[2147483647,0,0,1,1,2,2,3,3,4,4,5,5,6,6,7,7,12,12,18,18],"right_children":[2,4,6,8,10,12,14,16,-1,-1,-1,-1,18,-1,-1,-1,-1,-1,20,-1,-1],"split_conditions":[2E1,1E1,3E1,6E0,1.4E1,2.2E1,3.2E1,4E0,6.1001766E-1,8.8976306E-1,1.320783E0,1.5475504E0,2.4E1,2.5509424E0,3.7402956E0,2.2660016E-1,3.3958438E-1,2.5253062E0,2.6E1,1.3209085E0,2.0149305E0],"split_indices":[0,0,0,0,0,0,0,0,0,0,0,0,0,0,0,0,0,0,0,0,0],"split_type":[0,0,0,0,0,0,0,0,0,0,0,0,0,0,0,0,0,0,0,0,0],"sum_hessian":[2.81E2,1.7E2,1.11E2,7.7E1,9.3E1,8.2E1,2.9E1,3.7E1,4E1,3.7E1,5.6E1,2.1E1,6.1E1,1.7E1,1.2E1,2.4E1,1.3E1,1.5E1,4.6E1,1.5E1,3.1E1],"tree_param":{"num_deleted":"0","num_feature":"2","num_nodes":"21","size_leaf_vector":"0"}},{"base_weights":[3.363084E0,1.9918884E0,5.4265785E0,1.0749494E0,2.7315624E0,4.5890384E0,7.5628867E0,6.546738E-1,1.4382548E0,2.3033857E0,3.3875349E0,3.681298E0,4.8371234E0,6.0939264E0,9.015071E0,5.377972E-1,8.166196E-1,1.1074938E0,1.6735715E0,6.0502195E0,4.3212366E0,3.602567E0,5.278951E0],"categories":[],"categories_nodes":[],"categories_segments":[],"categories_sizes":[],"default_left":[1,1,1,1,1,1,1,1,1,0,0,0,1,0,0,0,0,0,0,0,1,0,0],"id":11,"left_children":[1,3,5,7,9,11,13,15,17,-1,-1,-1,19,-1,-1,-1,-1,-1,-1,-1,21,-1,-1],"loss_changes":[7.870969E2,1.1304205E2,1.6568896E2,1.0968109E1,1.8599182E1,8.843994E-1,9.058838E0,2.8007317E-1,1.3377151E0,0E0,0E0,0E0,1.2656494E1,0E0,0E0,0E0,0E0,0E0,0E0,0E0,1.333136E1,0E0,0E0],"parents":[2147483647,0,0,1,1,2,2,3,3,4,4,5,5,6,6,7,7,8,8,12,12,20,20],"right_children":[2,4,6,8,10,12,14,16,18,-1,-1,-1,20,-1,-1,-1,-1,-1,-1,-1,22,-1,-1],"split_conditions":[2E1,1E1,3E1,6E0,1.6E1,2.2E1,3.2E1,4E0,8E0,6.910157E-1,1.0162605E0,1.1043894E0,2.4E1,1.828178E0,2.7045214E0,1.6133916E-1,2.4498588E-1,3.3224815E-1,5.0207144E-1,1.815066E0,2.8E1,1.0807701E0,1.5836854E0],"split_indices":[0,0,0,0,0,0,0,0,0,0,0,0,0,0,0,0,0,0,0,0,0,0,0],"split_type":[0,0,0,0,0,0,0,0,0,0,0,0,0,0,0,0,0,0,0,0,0,0,0],"sum_hessian":[2.81E2,1.7E2,1.11E2,7.7E1,9.3E1,8.2E1,2.9E1,3.7E1,4E1,5.9E1,3.4E1,2.1E1,6.1E1,1.7E1,1.2E1,2.4E1,1.3E1,1.9E1,2.1E1,1.5E1,4.6E1,2.9E1,1.7E1],"tree_param":{"num_deleted":"0","num_feature":"2","num_nodes":"23","size_leaf_vector":"0"}},{"base_weights":[2.4004862E0,1.411559E0,3.8889332E0,8.7429863E-1,2.0560808E0,3.5081894E0,6.518583E0,5.904875E-1,1.2666816E0,1.7280823E0,2.4003053E0,3.0925584E0,4.1917167E0,3.8291198E-1,7.298481E-1,3.4425411E0,2.5578277E0,2.627112E0,4.3485975E0],"categories":[],"categories_nodes":[],"categories_segments":[],"categories_sizes":[],"default_left":[1,1,1,1,1,1,0,1,0,0,0,1,0,0,0,1,0,0,0],"id":12,"left_children":[1,3,5,7,9,11,-1,13,-1,-1,-1,15,-1,-1,-1,17,-1,-1,-1],"loss_changes":[4.0960498E2,5.7415558E1,8.926843E1,9.831497E0,4.5457764E0,1.5446411E1,0E0,1.3694191E0,0E0,0E0,0E0,3.5462036E0,0E0,0E0,0E0,1.5912262E1,0E0,0E0,0E0],"parents":[2147483647,0,0,1,1,2,2,3,3,4,4,5,5,7,7,11,11,15,15],"right_children":[2,4,6,8,10,12,-1,14,-1,-1,-1,16,-1,-1,-1,18,-1,-1,-1],"split_conditions":[2E1,1.2E1,3.2E1,8E0,1.6E1,2.8E1,1.9555749E0,4E0,3.800045E-1,5.184247E-1,7.200916E-1,2.4E1,1.2575151E0,1.14873596E-1,2.1895443E-1,2.2E1,7.6734835E-1,7.881336E-1,1.3045793E0],"split_indices":[0,0,0,0,0,0,0,0,0,0,0,0,0,0,0,0,0,0,0],"split_type":[0,0,0,0,0,0,0,0,0,0,0,0,0,0,0,0,0,0,0],"sum_hessian":[2.81E2,1.7E2,1.11E2,9.4E1,7.6E1,9.9E1,1.2E1,5.6E1,3.8E1,4.2E1,3.4E1,6.5E1,3.4E1,2.4E1,3.2E1,3.6E1,2.9E1,2.1E1,1.5E1],"tree_param":{"num_deleted":"0","num_feature":"2","num_nodes":"19","size_leaf_vector":"0"}},{"base_weights":[1.7087995E0,9.9950784E-1,2.7764785E0,6.919564E-1,1.6024711E0,2.3187582E0,3.950289E0,4.1919687E-1,9.4374174E-1,3.1796603E0,4.7134447E0,3.215062E-1,5.838493E-1,2.7263305E-1,3.8581493E-1],"categories":[],"categories_nodes":[],"categories_segments":[],"categories_sizes":[],"default_left":[1,1,1,1,0,0,1,1,0,0,0,1,0,0,0],"id":13,"left_children":[1,3,5,7,-1,-1,9,11,-1,-1,-1,13,-1,-1,-1],"loss_changes":[2.1078235E2,3.0601791E1,5.1015198E1,7.502224E0,0E0,0E0,2.656128E0,7.2913456E-1,0E0,0E0,0E0,1.4246941E-2,0E0,0E0,0E0],"parents":[2147483647,0,0,1,1,2,2,3,3,6,6,7,7,11,11],"right_children":[2,4,6,8,-1,-1,10,12,-1,-1,-1,14,-1,-1,-1],"split_conditions":[2E1,1.4E1,3E1,8E0,4.8074135E-1,6.956275E-1,3.2E1,6E0,2.8312254E-1,9.5389813E-1,1.4140334E0,4E0,1.751548E-1,8.178992E-2,1.1574449E-1],"split_indices":[0,0,0,0,0,0,0,0,0,0,0,0,0,0,0],"split_type":[0,0,0,0,0,0,0,0,0,0,0,0,0,0,0],"sum_hessian":[2.81E2,1.7E2,1.11E2,1.14E2,5.6E1,8.2E1,2.9E1,5.6E1,5.8E1,1.7E1,1.2E1,3.7E1,1.9E1,2.4E1,1.3E1],"tree_param":{"num_deleted":"0","num_feature":"2","num_nodes":"15","size_leaf_vector":"0"}},{"base_weights":[1.211053E0,7.6778704E-1,2.132987E0,4.900738E-1,1.1673926E0,1.8961446E0,3.4081843E0,2.9997608E-1,6.654212E-1,9.2334646E-1,1.2467796E0,2.4733973E0,1.7222042E0,2.3025282E-1,4.1745147E-1,7.7991486E-1,1.9947435E0,1.941156E-1,2.7833694E-1,1.4553142E0,2.1689348E0],"categories":[],"categories_nodes":[],"categories_segments":[],"categories_sizes":[],"default_left":[1,1,1,1,1,1,0,1,0,0,0,0,1,1,0,0,1,0,0,0,0],"id":14,"left_children":[1,3,5,7,9,11,-1,13,-1,-1,-1,-1,15,17,-1,-1,19,-1,-1,-1,-1],"loss_changes":[1.1360498E2,2.073523E1,2.1021484E1,3.6336994E0,3.599701E-1,3.6725159E0,0E0,3.7075424E-1,0E0,0E0,0E0,0E0,1.4880157E1,1.2000084E-2,0E0,0E0,1.4477539E0,0E0,0E0,0E0,0E0],"parents":[2147483647,0,0,1,1,2,2,3,3,4,4,5,5,7,7,12,12,13,13,16,16],"right_children":[2,4,6,8,10,12,-1,14,-1,-1,-1,-1,16,18,-1,-1,20,-1,-1,-1,-1],"split_conditions":[2.2E1,1.4E1,3.2E1,8E0,1.6E1,2.4E1,1.0224553E0,6E0,1.9962637E-1,2.7700394E-1,3.7403387E-1,7.420192E-1,2.6E1,4E0,1.2523545E-1,2.3397447E-1,2.8E1,5.823468E-2,8.3501086E-2,4.3659428E-1,6.506805E-1],"split_indices":[0,0,0,0,0,0,0,0,0,0,0,0,0,0,0,0,0,0,0,0,0],"split_type":[0,0,0,0,0,0,0,0,0,0,0,0,0,0,0,0,0,0,0,0,0],"sum_hessian":[2.81E2,1.91E2,9E1,1.14E2,7.7E1,7.8E1,1.2E1,5.6E1,5.8E1,2.2E1,5.5E1,1.5E1,6.3E1,3.7E1,1.9E1,1.5E1,4.8E1,2.4E1,1.3E1,1.4E1,3.4E1],"tree_param":{"num_deleted":"0","num_feature":"2","num_nodes":"21","size_leaf_vector":"0"}},{"base_weights":[8.626427E-1,5.4327184E-1,1.5270005E0,3.471105E-1,8.255191E-1,1.35342E0,2.4643743E0,2.1466666E-1,4.691815E-1,6.5838957E-1,8.7942016E-1,1.7777538E0,1.2261894E0,1.6490695E-1,2.984768E-1,3.707865E-1,5.1380014E-1,5.605602E-1,1.4185134E0,1.3820983E-1,2.008013E-1,1.047821E0,1.5368526E0],"categories":[],"categories_nodes":[],"categories_segments":[],"categories_sizes":[],"default_left":[1,1,1,1,1,1,0,1,1,0,0,0,1,1,0,0,0,0,1,0,0,0,0],"id":15,"left_children":[1,3,5,7,9,11,-1,13,15,-1,-1,-1,17,19,-1,-1,-1,-1,21,-1,-1,-1,-1],"loss_changes":[5.9004196E1,1.03437195E1,1.1471252E1,1.7585516E0,1.2366104E-1,2.085205E0,0E0,1.8848991E-1,6.8514824E-2,0E0,0E0,0E0,7.397888E0,8.661747E-3,0E0,0E0,0E0,0E0,5.3915405E-1,0E0,0E0,0E0,0E0],"parents":[2147483647,0,0,1,1,2,2,3,3,4,4,5,5,7,7,8,8,12,12,13,13,18,18],"right_children":[2,4,6,8,10,12,-1,14,16,-1,-1,-1,18,20,-1,-1,-1,-1,22,-1,-1,-1,-1],"split_conditions":[2.2E1,1.4E1,3.2E1,8E0,1.6E1,2.4E1,7.393123E-1,6E0,1E1,1.9751687E-1,2.6382607E-1,5.3332615E-1,2.6E1,4E0,8.954304E-2,1.11235954E-1,1.5414006E-1,1.6816807E-1,2.8E1,4.146295E-2,6.024039E-2,3.143463E-1,4.610558E-1],"split_indices":[0,0,0,0,0,0,0,0,0,0,0,0,0,0,0,0,0,0,0,0,0,0,0],"split_type":[0,0,0,0,0,0,0,0,0,0,0,0,0,0,0,0,0,0,0,0,0,0,0],"sum_hessian":[2.81E2,1.91E2,9E1,1.14E2,7.7E1,7.8E1,1.2E1,5.6E1,5.8E1,2.2E1,5.5E1,1.5E1,6.3E1,3.7E1,1.9E1,2.1E1,3.7E1,1.5E1,4.8E1,2.4E1,1.3E1,1.4E1,3.4E1],"tree_param":{"num_deleted":"0","num_feature":"2","num_nodes":"23","size_leaf_vector":"0"}},{"base_weights":[6.1496395E-1,3.850722E-1,1.0932523E0,2.149086E-1,5.460974E-1,8.742331E-1,1.5094503E0,1.18110254E-1,2.746229E-1,4.3675268E-1,6.2030685E-1,1.2777615E0,7.1826106E-1,1.2288039E0,1.781926E0,9.840454E-2,1.4486258E-1,2.1341152E-1,2.989717E-1,4.0290356E-1,8.5349417E-1],"categories":[],"categories_nodes":[],"categories_segments":[],"categories_sizes":[],"default_left":[1,1,1,1,1,1,1,1,1,0,0,0,1,0,0,0,0,0,0,0,0],"id":16,"left_children":[1,3,5,7,9,11,13,15,17,-1,-1,-1,19,-1,-1,-1,-1,-1,-1,-1,-1],"loss_changes":[3.0586205E1,5.1435604E0,6.9755173E0,5.1668787E-1,5.24292E-1,2.984459E0,1.0443878E-1,5.7774186E-3,2.2640705E-2,0E0,0E0,0E0,1.6605206E0,0E0,0E0,0E0,0E0,0E0,0E0,0E0,0E0],"parents":[2147483647,0,0,1,1,2,2,3,3,4,4,5,5,6,6,7,7,8,8,12,12],"right_children":[2,4,6,8,10,12,14,16,18,-1,-1,-1,20,-1,-1,-1,-1,-1,-1,-1,-1],"split_conditions":[2.2E1,1.2E1,3E1,6E0,1.6E1,2.4E1,3.2E1,4E0,8E0,1.310258E-1,1.8609206E-1,3.8332847E-1,2.6E1,3.6864117E-1,5.3457785E-1,2.9521363E-2,4.3458775E-2,6.402346E-2,8.969152E-2,1.20871074E-1,2.5604826E-1],"split_indices":[0,0,0,0,0,0,0,0,0,0,0,0,0,0,0,0,0,0,0,0,0],"split_type":[0,0,0,0,0,0,0,0,0,0,0,0,0,0,0,0,0,0,0,0,0],"sum_hessian":[2.81E2,1.91E2,9E1,9.4E1,9.7E1,6.1E1,2.9E1,3.7E1,5.7E1,4.2E1,5.5E1,1.5E1,4.6E1,1.7E1,1.2E1,2.4E1,1.3E1,1.9E1,3.8E1,1.5E1,3.1E1],"tree_param":{"num_deleted":"0","num_feature":"2","num_nodes":"21","size_leaf_vector":"0"}},{"base_weights":[4.3830132E-1,2.7238166E-1,7.835571E-1,1.7287312E-1,4.156009E-1,6.2422895E-1,1.0867168E0,8.459794E-2,2.1366265E-1,9.1838837E-1,5.108081E-1,8.8063216E-1,1.288471E0,7.006348E-2,1.0450963E-1,1.7047882E-1,2.5463304E-1,2.8959274E-1,6.05453E-1],"categories":[],"categories_nodes":[],"categories_segments":[],"categories_sizes":[],"default_left":[1,1,1,1,0,1,1,1,1,0,1,0,0,0,0,0,0,0,0],"id":17,"left_children":[1,3,5,7,-1,9,11,13,15,-1,17,-1,-1,-1,-1,-1,-1,-1,-1],"loss_changes":[1.5940861E1,2.6644497E0,3.7171135E0,3.960054E-1,0E0,1.5994339E0,1.1268234E-1,3.6751032E-3,9.459257E-2,0E0,8.0870056E-1,0E0,0E0,0E0,0E0,0E0,0E0,0E0,0E0],"parents":[2147483647,0,0,1,1,2,2,3,3,5,5,6,6,7,7,8,8,10,10],"right_children":[2,4,6,8,-1,10,12,14,16,-1,18,-1,-1,-1,-1,-1,-1,-1,-1],"split_conditions":[2.2E1,1.4E1,3E1,6E0,1.2468027E-1,2.4E1,3.2E1,4E0,1E1,2.755165E-1,2.6E1,2.6418966E-1,3.865413E-1,2.1019045E-2,3.135289E-2,5.114365E-2,7.6389916E-2,8.687782E-2,1.8163592E-1],"split_indices":[0,0,0,0,0,0,0,0,0,0,0,0,0,0,0,0,0,0,0],"split_type":[0,0,0,0,0,0,0,0,0,0,0,0,0,0,0,0,0,0,0],"sum_hessian":[2.81E2,1.91E2,9E1,1.14E2,7.7E1,6.1E1,2.9E1,3.7E1,7.7E1,1.5E1,4.6E1,1.7E1,1.2E1,2.4E1,1.3E1,4E1,3.7E1,1.5E1,3.1E1],"tree_param":{"num_deleted":"0","num_feature":"2","num_nodes":"19","size_leaf_vector":"0"}},{"base_weights":[3.1212682E-1,1.922528E-1,5.6161785E-1,1.2257385E-1,2.9251978E-1,4.4573212E-1,7.823944E-1,7.689051E-2,1.6463108E-1,2.2487077E-1,3.1508064E-1,6.600952E-1,3.6327377E-1,6.311188E-1,9.316688E-1,4.9885254E-2,9.501902E-2,1.3016926E-1,1.8025027E-1,2.0813942E-1,4.2948866E-1],"categories":[],"categories_nodes":[],"categories_segments":[],"categories_sizes":[],"default_left":[1,1,1,1,1,1,1,1,1,0,0,0,1,0,0,0,0,0,0,0,0],"id":18,"left_children":[1,3,5,7,9,11,13,15,17,-1,-1,-1,19,-1,-1,-1,-1,-1,-1,-1,-1],"loss_changes":[8.325941E0,1.3055525E0,1.9794827E0,2.0829272E-1,4.81925E-2,8.561182E-1,8.945465E-2,2.3165137E-2,8.294582E-3,0E0,0E0,0E0,3.9339972E-1,0E0,0E0,0E0,0E0,0E0,0E0,0E0,0E0],"parents":[2147483647,0,0,1,1,2,2,3,3,4,4,5,5,6,6,7,7,8,8,12,12],"right_children":[2,4,6,8,10,12,14,16,18,-1,-1,-1,20,-1,-1,-1,-1,-1,-1,-1,-1],"split_conditions":[2.2E1,1.4E1,3E1,8E0,1.6E1,2.4E1,3.2E1,4E0,1E1,6.746124E-2,9.45242E-2,1.9802858E-1,2.6E1,1.8933564E-1,2.7950066E-1,1.4965577E-2,2.8505707E-2,3.905078E-2,5.4075085E-2,6.244183E-2,1.288466E-1],"split_indices":[0,0,0,0,0,0,0,0,0,0,0,0,0,0,0,0,0,0,0,0,0],"split_type":[0,0,0,0,0,0,0,0,0,0,0,0,0,0,0,0,0,0,0,0,0],"sum_hessian":[2.81E2,1.91E2,9E1,1.14E2,7.7E1,6.1E1,2.9E1,5.6E1,5.8E1,2.2E1,5.5E1,1.5E1,4.6E1,1.7E1,1.2E1,2.4E1,3.2E1,2.1E1,3.7E1,1.5E1,3.1E1],"tree_param":{"num_deleted":"0","num_feature":"2","num_nodes":"21","size_leaf_vector":"0"}},{"base_weights":[2.2259007E-1,1.3613097E-1,4.0256324E-1,8.6989164E-2,2.0683837E-1,3.1829318E-1,5.6330264E-1,4.1392677E-2,1.0808759E-1,1.780211E-1,2.3551348E-1,4.7444344E-1,2.5836343E-1,4.5230612E-1,6.736591E-1,8.737015E-2,1.275962E-1,1.926239E-1,3.5357583E-1,1.4960289E-1,2.2567138E-1],"categories":[],"categories_nodes":[],"categories_segments":[],"categories_sizes":[],"default_left":[1,1,1,1,1,1,1,0,1,0,0,0,1,0,0,0,0,1,0,0,0],"id":19,"left_children":[1,3,5,7,9,11,13,-1,15,-1,-1,-1,17,-1,-1,-1,-1,19,-1,-1,-1],"loss_changes":[4.333208E0,6.491475E-1,1.0533466E0,1.061576E-1,2.2527933E-2,4.5762014E-1,6.277466E-2,0E0,2.037704E-2,0E0,0E0,0E0,2.2607589E-1,0E0,0E0,0E0,0E0,8.890986E-3,0E0,0E0,0E0],"parents":[2147483647,0,0,1,1,2,2,3,3,4,4,5,5,6,6,8,8,12,12,17,17],"right_children":[2,4,6,8,10,12,14,-1,16,-1,-1,-1,18,-1,-1,-1,-1,20,-1,-1,-1],"split_conditions":[2.2E1,1.4E1,3E1,6E0,1.8E1,2.4E1,3.2E1,1.24178035E-2,1E1,5.340633E-2,7.065405E-2,1.4233303E-1,2.8E1,1.3569184E-1,2.0209773E-1,2.6211046E-2,3.8278863E-2,2.6E1,1.0607275E-1,4.4880867E-2,6.7701414E-2],"split_indices":[0,0,0,0,0,0,0,0,0,0,0,0,0,0,0,0,0,0,0,0,0],"split_type":[0,0,0,0,0,0,0,0,0,0,0,0,0,0,0,0,0,0,0,0,0],"sum_hessian":[2.81E2,1.91E2,9E1,1.14E2,7.7E1,6.1E1,2.9E1,3.7E1,7.7E1,4.2E1,3.5E1,1.5E1,4.6E1,1.7E1,1.2E1,4E1,3.7E1,2.9E1,1.7E1,1.5E1,1.4E1],"tree_param":{"num_deleted":"0","num_feature":"2","num_nodes":"21","size_leaf_vector":"0"}},{"base_weights":[1.5900527E-1,9.633958E-2,2.8947565E-1,6.1561186E-2,1.463803E-1,2.2862637E-1,4.0558165E-1,3.7787586E-2,8.348549E-2,1.09260894E-1,1.5901184E-1,3.4100533E-1,1.8550532E-1,3.241628E-1,4.8711687E-1,2.35968E-2,4.7393106E-2,6.7873865E-2,9.032681E-2,1.38591E-1,2.5338998E-1,1.0753155E-1,1.624817E-1],"categories":[],"categories_nodes":[],"categories_segments":[],"categories_sizes":[],"default_left":[1,1,1,1,1,1,1,1,1,0,0,0,1,0,0,0,0,0,0,1,0,0,0],"id":20,"left_children":[1,3,5,7,9,11,13,15,17,-1,-1,-1,19,-1,-1,-1,-1,-1,-1,21,-1,-1,-1],"loss_changes":[2.2777486E0,3.251332E-1,5.501857E-1,5.6785554E-2,1.9198537E-2,2.3718762E-1,4.1249752E-2,6.6513345E-3,1.705885E-4,0E0,0E0,0E0,1.1456621E-1,0E0,0E0,0E0,0E0,0E0,0E0,4.788995E-3,0E0,0E0,0E0],"parents":[2147483647,0,0,1,1,2,2,3,3,4,4,5,5,6,6,7,7,8,8,12,12,19,19],"right_children":[2,4,6,8,10,12,14,16,18,-1,-1,-1,20,-1,-1,-1,-1,-1,-1,22,-1,-1,-1],"split_conditions":[2.2E1,1.4E1,3E1,8E0,1.6E1,2.4E1,3.2E1,4E0,1E1,3.277827E-2,4.7703553E-2,1.02301605E-1,2.8E1,9.7248845E-2,1.4613506E-1,7.0790406E-3,1.4217933E-2,2.0362161E-2,2.7098043E-2,2.6E1,7.6017E-2,3.2259464E-2,4.874451E-2],"split_indices":[0,0,0,0,0,0,0,0,0,0,0,0,0,0,0,0,0,0,0,0,0,0,0],"split_type":[0,0,0,0,0,0,0,0,0,0,0,0,0,0,0,0,0,0,0,0,0,0,0],"sum_hessian":[2.81E2,1.91E2,9E1,1.14E2,7.7E1,6.1E1,2.9E1,5.6E1,5.8E1,2.2E1,5.5E1,1.5E1,4.6E1,1.7E1,1.2E1,2.4E1,3.2E1,2.1E1,3.7E1,2.9E1,1.7E1,1.5E1,1.4E1],"tree_param":{"num_deleted":"0","num_feature":"2","num_nodes":"23","size_leaf_vector":"0"}},{"base_weights":[1.1361527E-1,6.8216406E-2,2.0815335E-1,3.767459E-2,9.712718E-2,1.6422099E-1,2.9200846E-1,1.996713E-2,4.862647E-2,8.225601E-2,1.2045373E-1,2.4510384E-1,1.3319235E-1,2.3230658E-1,3.522104E-1,1.6801758E-2,2.4193356E-2,3.851547E-2,5.2564766E-2,9.971161E-2,1.81594E-1,7.7290535E-2,1.1697998E-1],"categories":[],"categories_nodes":[],"categories_segments":[],"categories_sizes":[],"default_left":[1,1,1,1,1,1,1,1,1,0,0,0,1,0,0,0,0,0,0,1,0,0,0],"id":21,"left_children":[1,3,5,7,9,11,13,15,17,-1,-1,-1,19,-1,-1,-1,-1,-1,-1,21,-1,-1,-1],"loss_changes":[1.1961224E0,1.6587442E-1,2.872858E-1,1.7452419E-2,2.4087489E-2,1.2295449E-1,2.6004314E-2,1.0185689E-4,2.850145E-4,0E0,0E0,0E0,5.8057547E-2,0E0,0E0,0E0,0E0,0E0,0E0,2.5738478E-3,0E0,0E0,0E0],"parents":[2147483647,0,0,1,1,2,2,3,3,4,4,5,5,6,6,7,7,8,8,12,12,19,19],"right_children":[2,4,6,8,10,12,14,16,18,-1,-1,-1,20,-1,-1,-1,-1,-1,-1,22,-1,-1,-1],"split_conditions":[2.2E1,1.2E1,3E1,6E0,1.8E1,2.4E1,3.2E1,4E0,8E0,2.4676805E-2,3.613612E-2,7.353115E-2,2.8E1,6.969198E-2,1.0566313E-1,5.0405273E-3,7.258007E-3,1.1554642E-2,1.5769431E-2,2.6E1,5.4478202E-2,2.318716E-2,3.5093997E-2],"split_indices":[0,0,0,0,0,0,0,0,0,0,0,0,0,0,0,0,0,0,0,0,0,0,0],"split_type":[0,0,0,0,0,0,0,0,0,0,0,0,0,0,0,0,0,0,0,0,0,0,0],"sum_hessian":[2.81E2,1.91E2,9E1,9.4E1,9.7E1,6.1E1,2.9E1,3.7E1,5.7E1,6.2E1,3.5E1,1.5E1,4.6E1,1.7E1,1.2E1,2.4E1,1.3E1,1.9E1,3.8E1,2.9E1,1.7E1,1.5E1,1.4E1],"tree_param":{"num_deleted":"0","num_feature":"2","num_nodes":"23","size_leaf_vector":"0"}},{"base_weights":[8.116991E-2,4.827599E-2,1.4968051E-1,3.040672E-2,7.400278E-2,1.1795856E-1,2.1024984E-1,1.4299794E-2,3.7863854E-2,5.4309346E-2,8.076967E-2,1.7616749E-1,9.5633E-2,1.6647679E-1,2.546856E-1,1.1962281E-2,1.7452512E-2,3.1346485E-2,4.3899335E-2,7.173716E-2,1.3014644E-1,5.554676E-2,8.422445E-2],"categories":[],"categories_nodes":[],"categories_segments":[],"categories_sizes":[],"default_left":[1,1,1,1,1,1,1,1,1,0,0,0,1,0,0,0,0,0,0,1,0,0,0],"id":22,"left_children":[1,3,5,7,9,11,13,15,17,-1,-1,-1,19,-1,-1,-1,-1,-1,-1,21,-1,-1,-1],"loss_changes":[6.282841E-1,8.601579E-2,1.5004468E-1,1.32713765E-2,6.008059E-3,6.372446E-2,1.5953422E-2,7.1269926E-5,1.6920716E-3,0E0,0E0,0E0,2.942589E-2,0E0,0E0,0E0,0E0,0E0,0E0,1.3868362E-3,0E0,0E0,0E0],"parents":[2147483647,0,0,1,1,2,2,3,3,4,4,5,5,6,6,7,7,8,8,12,12,19,19],"right_children":[2,4,6,8,10,12,14,16,18,-1,-1,-1,20,-1,-1,-1,-1,-1,-1,22,-1,-1,-1],"split_conditions":[2.2E1,1.4E1,3E1,6E0,1.6E1,2.4E1,3.2E1,4E0,1E1,1.6292805E-2,2.4230903E-2,5.285025E-2,2.8E1,4.9943037E-2,7.640569E-2,3.5886844E-3,5.235754E-3,9.403946E-3,1.3169801E-2,2.6E1,3.9043933E-2,1.6664028E-2,2.5267335E-2],"split_indices":[0,0,0,0,0,0,0,0,0,0,0,0,0,0,0,0,0,0,0,0,0,0,0],"split_type":[0,0,0,0,0,0,0,0,0,0,0,0,0,0,0,0,0,0,0,0,0,0,0],"sum_hessian":[2.81E2,1.91E2,9E1,1.14E2,7.7E1,6.1E1,2.9E1,3.7E1,7.7E1,2.2E1,5.5E1,1.5E1,4.6E1,1.7E1,1.2E1,2.4E1,1.3E1,4E1,3.7E1,2.9E1,1.7E1,1.5E1,1.4E1],"tree_param":{"num_deleted":"0","num_feature":"2","num_nodes":"23","size_leaf_vector":"0"}},{"base_weights":[5.799433E-2,3.416713E-2,1.076298E-1,2.1557352E-2,5.2320432E-2,9.367583E-2,1.8414776E-1,1.3355456E-2,2.9115839E-2,4.3195147E-2,6.176673E-2,1.2661457E-1,8.397746E-2,8.516235E-3,1.6616821E-2,8.30424E-2,4.4453014E-2,5.161387E-2,1.0931832E-1,1.2589046E-2,1.8605422E-2,3.9925575E-2,6.064046E-2],"categories":[],"categories_nodes":[],"categories_segments":[],"categories_sizes":[],"default_left":[1,1,1,1,1,1,0,1,0,0,1,0,1,0,1,0,0,1,0,0,0,0,0],"id":23,"left_children":[1,3,5,7,9,11,-1,13,-1,-1,15,-1,17,-1,19,-1,-1,21,-1,-1,-1,-1,-1],"loss_changes":[3.2983667E-1,4.2822614E-2,7.991314E-2,6.740451E-3,4.0556043E-3,1.4603972E-2,0E0,7.580882E-4,0E0,0E0,9.569511E-3,0E0,4.6845436E-2,0E0,3.0092895E-5,0E0,0E0,7.440597E-4,0E0,0E0,0E0,0E0,0E0],"parents":[2147483647,0,0,1,1,2,2,3,3,4,4,5,5,7,7,10,10,12,12,14,14,17,17],"right_children":[2,4,6,8,10,12,-1,14,-1,-1,16,-1,18,-1,20,-1,-1,22,-1,-1,-1,-1,-1],"split_conditions":[2.2E1,1.4E1,3.2E1,8E0,1.8E1,2.4E1,5.524433E-2,4E0,8.734752E-3,1.2958544E-2,2E1,3.798437E-2,2.8E1,2.5548707E-3,6E0,2.491272E-2,1.3335905E-2,2.6E1,3.27955E-2,3.776714E-3,5.5816267E-3,1.19776735E-2,1.8192139E-2],"split_indices":[0,0,0,0,0,0,0,0,0,0,0,0,0,0,0,0,0,0,0,0,0,0,0],"split_type":[0,0,0,0,0,0,0,0,0,0,0,0,0,0,0,0,0,0,0,0,0,0,0],"sum_hessian":[2.81E2,1.91E2,9E1,1.14E2,7.7E1,7.8E1,1.2E1,5.6E1,5.8E1,4.2E1,3.5E1,1.5E1,6.3E1,2.4E1,3.2E1,1.4E1,2.1E1,2.9E1,3.4E1,1.3E1,1.9E1,1.5E1,1.4E1],"tree_param":{"num_deleted":"0","num_feature":"2","num_nodes":"23","size_leaf_vector":"0"}},{"base_weights":[4.140474E-2,2.429074E-2,7.70584E-2,1.307618E-2,3.4914132E-2,5.9542503E-2,1.1068929E-1,7.3358635E-3,1.6611625E-2,2.602759E-2,4.1114263E-2,9.100914E-2,4.7563594E-2,8.831109E-2,1.3315994E-1,6.064453E-3,9.082249E-3,1.3303566E-2,1.7882127E-2,4.5842633E-2,3.1723022E-2,2.869606E-2,5.5510998E-2,3.3700127E-2,5.978597E-2],"categories":[],"categories_nodes":[],"categories_segments":[],"categories_sizes":[],"default_left":[1,1,1,1,1,1,1,1,1,0,1,0,1,0,0,0,0,0,0,1,0,0,0,0,0],"id":24,"left_children":[1,3,5,7,9,11,13,15,17,-1,19,-1,21,-1,-1,-1,-1,-1,-1,23,-1,-1,-1,-1,-1],"loss_changes":[1.70198E-1,2.2417702E-2,4.701513E-2,1.8061232E-3,4.3294653E-3,1.9041315E-2,3.3260882E-3,2.9295217E-5,5.87292E-6,0E0,1.0324344E-3,0E0,5.4546E-3,0E0,0E0,0E0,0E0,0E0,0E0,3.9109513E-3,0E0,0E0,0E0,0E0,0E0],"parents":[2147483647,0,0,1,1,2,2,3,3,4,4,5,5,6,6,7,7,8,8,10,10,12,12,19,19],"right_children":[2,4,6,8,10,12,14,16,18,-1,20,-1,22,-1,-1,-1,-1,-1,-1,24,-1,-1,-1,-1,-1],"split_conditions":[2.2E1,1.2E1,3E1,6E0,1.6E1,2.4E1,3.2E1,4E0,8E0,7.8082774E-3,2E1,2.7302744E-2,2.6E1,2.6493328E-2,3.9947983E-2,1.819336E-3,2.724675E-3,3.9910697E-3,5.3646383E-3,1.8E1,9.516907E-3,8.608818E-3,1.66533E-2,1.0110038E-2,1.7935792E-2],"split_indices":[0,0,0,0,0,0,0,0,0,0,0,0,0,0,0,0,0,0,0,0,0,0,0,0,0],"split_type":[0,0,0,0,0,0,0,0,0,0,0,0,0,0,0,0,0,0,0,0,0,0,0,0,0],"sum_hessian":[2.81E2,1.91E2,9E1,9.4E1,9.7E1,6.1E1,2.9E1,3.7E1,5.7E1,4.2E1,5.5E1,1.5E1,4.6E1,1.7E1,1.2E1,2.4E1,1.3E1,1.9E1,3.8E1,3.4E1,2.1E1,1.5E1,3.1E1,2E1,1.4E1],"tree_param":{"num_deleted":"0","num_feature":"2","num_nodes":"25","size_leaf_vector":"0"}},{"base_weights":[2.9617107E-2,1.7312625E-2,5.5252746E-2,1.222566E-2,2.9448373E-2,4.25324E-2,7.969971E-2,8.086522E-3,1.7402776E-2,3.28901E-2,2.2634333E-2,6.541729E-2,3.3836853E-2,6.329346E-2,9.6285306E-2,5.254846E-3,1.0513771E-2,2.406529E-2,4.3052163E-2,2.5065104E-2,4.6576604E-2,4.317627E-3,6.553105E-3],"categories":[],"categories_nodes":[],"categories_segments":[],"categories_sizes":[],"default_left":[1,1,1,1,1,1,1,1,0,1,0,0,1,0,0,1,0,0,0,0,0,0,0],"id":25,"left_children":[1,3,5,7,9,11,13,15,-1,17,-1,-1,19,-1,-1,21,-1,-1,-1,-1,-1,-1,-1],"loss_changes":[8.799562E-2,1.1492927E-2,2.4908781E-2,2.7950201E-3,5.688742E-4,1.0124281E-2,2.0689964E-3,4.8086E-4,0E0,2.1026768E-3,0E0,0E0,4.0847994E-3,0E0,0E0,1.7942744E-5,0E0,0E0,0E0,0E0,0E0,0E0,0E0],"parents":[2147483647,0,0,1,1,2,2,3,3,4,4,5,5,6,6,7,7,9,9,12,12,15,15],"right_children":[2,4,6,8,10,12,14,16,-1,18,-1,-1,20,-1,-1,22,-1,-1,-1,-1,-1,-1,-1],"split_conditions":[2.2E1,1.6E1,3E1,1E1,2E1,2.4E1,3.2E1,6E0,5.220833E-3,1.8E1,6.7903004E-3,1.9625187E-2,2.8E1,1.8988037E-2,2.8885594E-2,4E0,3.1541316E-3,7.219587E-3,1.2915649E-2,7.5195315E-3,1.3972982E-2,1.2952881E-3,1.9659316E-3],"split_indices":[0,0,0,0,0,0,0,0,0,0,0,0,0,0,0,0,0,0,0,0,0,0,0],"split_type":[0,0,0,0,0,0,0,0,0,0,0,0,0,0,0,0,0,0,0,0,0,0,0],"sum_hessian":[2.81E2,1.91E2,9E1,1.36E2,5.5E1,6.1E1,2.9E1,7.7E1,5.9E1,3.4E1,2.1E1,1.5E1,4.6E1,1.7E1,1.2E1,3.7E1,4E1,2E1,1.4E1,2.9E1,1.7E1,2.4E1,1.3E1],"tree_param":{"num_deleted":"0","num_feature":"2","num_nodes":"23","size_leaf_vector":"0"}},{"base_weights":[2.1184867E-2,1.2321532E-2,3.965273E-2,7.525071E-3,1.9235268E-2,3.04339E-2,5.738322E-2,4.7961455E-3,1.00339465E-2,1.5812363E-2,2.2789426E-2,4.7020912E-2,2.4139728E-2,4.5366075E-2,6.960825E-2,3.0743408E-3,5.955205E-3,8.684794E-3,1.206171E-2,3.1003825E-2,1.6152816E-2,1.7793274E-2,3.3376057E-2,1.3575554E-2,2.1105956E-2],"categories":[],"categories_nodes":[],"categories_segments":[],"categories_sizes":[],"default_left":[1,1,1,1,1,1,1,1,1,0,1,0,1,0,0,0,0,0,0,0,0,1,0,0,0],"id":26,"left_children":[1,3,5,7,9,11,13,15,17,-1,19,-1,21,-1,-1,-1,-1,-1,-1,-1,-1,23,-1,-1,-1],"loss_changes":[4.567112E-2,6.2222574E-3,1.3127968E-2,7.3922705E-4,5.8855675E-4,5.3378195E-3,1.24944E-3,9.544531E-5,5.6656543E-5,0E0,1.4617685E-3,0E0,2.1611731E-3,0E0,0E0,0E0,0E0,0E0,0E0,0E0,0E0,1.326343E-4,0E0,0E0,0E0],"parents":[2147483647,0,0,1,1,2,2,3,3,4,4,5,5,6,6,7,7,8,8,10,10,12,12,21,21],"right_children":[2,4,6,8,10,12,14,16,18,-1,20,-1,22,-1,-1,-1,-1,-1,-1,-1,-1,24,-1,-1,-1],"split_conditions":[2.2E1,1.4E1,3E1,8E0,1.8E1,2.4E1,3.2E1,4E0,1.2E1,4.743709E-3,2E1,1.4106275E-2,2.8E1,1.3609823E-2,2.0882476E-2,9.2230225E-4,1.7865616E-3,2.6054385E-3,3.618513E-3,9.301148E-3,4.845845E-3,2.6E1,1.0012818E-2,4.072666E-3,6.331787E-3],"split_indices":[0,0,0,0,0,0,0,0,0,0,0,0,0,0,0,0,0,0,0,0,0,0,0,0,0],"split_type":[0,0,0,0,0,0,0,0,0,0,0,0,0,0,0,0,0,0,0,0,0,0,0,0,0],"sum_hessian":[2.81E2,1.91E2,9E1,1.14E2,7.7E1,6.1E1,2.9E1,5.6E1,5.8E1,4.2E1,3.5E1,1.5E1,4.6E1,1.7E1,1.2E1,2.4E1,3.2E1,3.8E1,2E1,1.4E1,2.1E1,2.9E1,1.7E1,1.5E1,1.4E1],"tree_param":{"num_deleted":"0","num_feature":"2","num_nodes":"25","size_leaf_vector":"0"}},{"base_weights":[1.5172201E-2,8.767982E-3,2.851767E-2,6.052031E-3,1.5255792E-2,2.1862645E-2,4.13208E-2,4.024848E-3,8.586502E-3,1.7167445E-2,1.152108E-2,3.3802986E-2,1.7332686E-2,3.2511394E-2,5.033992E-2,2.5710056E-3,5.2741445E-3,6.650713E-3,9.197147E-3,1.2672061E-2,2.2316488E-2,1.2801107E-2,2.3922391E-2,9.756088E-3,1.5195719E-2],"categories":[],"categories_nodes":[],"categories_segments":[],"categories_sizes":[],"default_left":[1,1,1,1,1,1,1,1,1,1,0,0,1,0,0,0,0,0,0,0,0,1,0,0,0],"id":27,"left_children":[1,3,5,7,9,11,13,15,17,19,-1,-1,21,-1,-1,-1,-1,-1,-1,-1,-1,23,-1,-1,-1],"loss_changes":[2.3851737E-2,3.2908209E-3,6.8502873E-3,6.6932384E-4,2.0202342E-4,2.7676392E-3,7.4696913E-4,1.2810994E-4,9.757467E-6,5.273456E-4,0E0,0E0,1.0972684E-3,0E0,0E0,5.5652345E-7,0E0,0E0,0E0,0E0,0E0,7.0498325E-5,0E0,0E0,0E0],"parents":[2147483647,0,0,1,1,2,2,3,3,4,4,5,5,6,6,7,7,8,8,9,9,12,12,21,21],"right_children":[2,4,6,8,10,12,14,16,18,20,-1,-1,22,-1,-1,-1,-1,-1,-1,-1,-1,24,-1,-1,-1],"split_conditions":[2.2E1,1.6E1,3E1,1E1,2E1,2.4E1,3.2E1,6E0,1.2E1,1.8E1,3.456324E-3,1.0140896E-2,2.8E1,9.753419E-3,1.5101976E-2,7.7130174E-4,1.5822434E-3,1.995214E-3,2.7591442E-3,3.8016185E-3,6.6949464E-3,2.6E1,7.1767177E-3,2.9268265E-3,4.558716E-3],"split_indices":[0,0,0,0,0,0,0,0,0,0,0,0,0,0,0,0,0,0,0,0,0,0,0,0,0],"split_type":[0,0,0,0,0,0,0,0,0,0,0,0,0,0,0,0,0,0,0,0,0,0,0,0,0],"sum_hessian":[2.81E2,1.91E2,9E1,1.36E2,5.5E1,6.1E1,2.9E1,7.7E1,5.9E1,3.4E1,2.1E1,1.5E1,4.6E1,1.7E1,1.2E1,3.7E1,4E1,1.7E1,4.2E1,2E1,1.4E1,2.9E1,1.7E1,1.5E1,1.4E1],"tree_param":{"num_deleted":"0","num_feature":"2","num_nodes":"25","size_leaf_vector":"0"}},{"base_weights":[1.0869101E-2,6.245891E-3,2.0504124E-2,4.2875526E-3,1.0925293E-2,1.570228E-2,2.9744467E-2,2.848503E-3,6.086858E-3,1.2316895E-2,8.214777E-3,2.4290085E-2,1.2444679E-2,2.3288302E-2,3.6395732E-2,1.8207148E-3,3.7316112E-3,4.7628614E-3,6.4995345E-3,9.053548E-3,1.6064454E-2,9.207154E-3,1.7149184E-2,1.4483642E-3,2.3555756E-3,7.009506E-3,1.09375E-2],"categories":[],"categories_nodes":[],"categories_segments":[],"categories_sizes":[],"default_left":[1,1,1,1,1,1,1,1,1,1,0,0,1,0,0,1,0,0,0,0,0,1,0,0,0,0,0],"id":28,"left_children":[1,3,5,7,9,11,13,15,17,19,-1,-1,21,-1,-1,23,-1,-1,-1,-1,-1,25,-1,-1,-1,-1,-1],"loss_changes":[1.24335475E-2,1.712617E-3,3.5706796E-3,3.373942E-4,1.100488E-4,1.4322074E-3,4.406534E-4,6.400235E-5,1.8265564E-6,2.825954E-4,0E0,0E0,5.5796E-4,0E0,0E0,4.1561725E-6,0E0,0E0,0E0,0E0,0E0,3.7414255E-5,0E0,0E0,0E0,0E0,0E0],"parents":[2147483647,0,0,1,1,2,2,3,3,4,4,5,5,6,6,7,7,8,8,9,9,12,12,15,15,21,21],"right_children":[2,4,6,8,10,12,14,16,18,20,-1,-1,22,-1,-1,24,-1,-1,-1,-1,-1,26,-1,-1,-1,-1,-1],"split_conditions":[2.2E1,1.6E1,3E1,1E1,2E1,2.4E1,3.2E1,6E0,1.2E1,1.8E1,2.4644332E-3,7.287026E-3,2.8E1,6.986491E-3,1.091872E-2,4E0,1.1194834E-3,1.4288585E-3,1.9498604E-3,2.7160645E-3,4.8193363E-3,2.6E1,5.1447554E-3,4.3450927E-4,7.0667267E-4,2.1028519E-3,3.2812501E-3],"split_indices":[0,0,0,0,0,0,0,0,0,0,0,0,0,0,0,0,0,0,0,0,0,0,0,0,0,0,0],"split_type":[0,0,0,0,0,0,0,0,0,0,0,0,0,0,0,0,0,0,0,0,0,0,0,0,0,0,0],"sum_hessian":[2.81E2,1.91E2,9E1,1.36E2,5.5E1,6.1E1,2.9E1,7.7E1,5.9E1,3.4E1,2.1E1,1.5E1,4.6E1,1.7E1,1.2E1,3.7E1,4E1,1.7E1,4.2E1,2E1,1.4E1,2.9E1,1.7E1,2.4E1,1.3E1,1.5E1,1.4E1],"tree_param":{"num_deleted":"0","num_feature":"2","num_nodes":"27","size_leaf_vector":"0"}},{"base_weights":[7.788719E-3,4.4520297E-3,1.4743176E-2,3.041678E-3,7.822854E-3,1.2653013E-2,2.6310848E-2,1.6606649E-3,3.9759506E-3,8.836146E-3,5.8552134E-3,1.745224E-2,1.1255503E-2,1.0308838E-3,2.0874485E-3,3.1949556E-3,4.591831E-3,6.46682E-3,1.1564127E-2,6.623332E-3,1.4904349E-2,5.0354004E-3,7.87557E-3],"categories":[],"categories_nodes":[],"categories_segments":[],"categories_sizes":[],"default_left":[1,1,1,1,1,1,0,1,1,1,0,0,1,0,0,0,0,0,0,1,0,0,0],"id":29,"left_children":[1,3,5,7,9,11,-1,13,15,17,-1,-1,19,-1,-1,-1,-1,-1,-1,21,-1,-1,-1],"loss_changes":[6.4781345E-3,8.8898255E-4,1.8673148E-3,1.7016055E-4,5.9914775E-5,3.3341628E-4,0E0,1.31685665E-5,2.429029E-5,1.5143864E-4,0E0,0E0,9.830175E-4,0E0,0E0,0E0,0E0,0E0,0E0,1.9997358E-5,0E0,0E0,0E0],"parents":[2147483647,0,0,1,1,2,2,3,3,4,4,5,5,7,7,8,8,9,9,12,12,19,19],"right_children":[2,4,6,8,10,12,-1,14,16,18,-1,-1,20,-1,-1,-1,-1,-1,-1,22,-1,-1,-1],"split_conditions":[2.2E1,1.6E1,3.2E1,8E0,2E1,2.4E1,7.893255E-3,4E0,1.2E1,1.8E1,1.7565641E-3,5.235672E-3,2.8E1,3.0926513E-4,6.2623457E-4,9.5848675E-4,1.3775494E-3,1.9400461E-3,3.4692383E-3,2.6E1,4.471305E-3,1.5106202E-3,2.362671E-3],"split_indices":[0,0,0,0,0,0,0,0,0,0,0,0,0,0,0,0,0,0,0,0,0,0,0],"split_type":[0,0,0,0,0,0,0,0,0,0,0,0,0,0,0,0,0,0,0,0,0,0,0],"sum_hessian":[2.81E2,1.91E2,9E1,1.36E2,5.5E1,7.8E1,1.2E1,5.6E1,8E1,3.4E1,2.1E1,1.5E1,6.3E1,2.4E1,3.2E1,3.8E1,4.2E1,2E1,1.4E1,2.9E1,3.4E1,1.5E1,1.4E1],"tree_param":{"num_deleted":"0","num_feature":"2","num_nodes":"23","size_leaf_vector":"0"}},{"base_weights":[5.5636954E-3,4.338532E-3,1.5710449E-2,2.1514336E-3,6.862412E-3,1.2451172E-2,1.9014798E-2,1.4123183E-3,3.0764262E-3,5.6067877E-3,7.885841E-3,8.9545E-4,1.8569202E-3,6.3432967E-3,4.180215E-3,1.2545586E-2,6.131761E-3,4.6212333E-3,8.331299E-3,3.619194E-3,7.1964264E-3],"categories":[],"categories_nodes":[],"categories_segments":[],"categories_sizes":[],"default_left":[1,1,1,1,1,0,0,1,0,1,1,0,0,1,0,0,1,0,0,0,0],"id":30,"left_children":[1,3,5,7,9,-1,-1,11,-1,13,15,-1,-1,17,-1,-1,19,-1,-1,-1,-1],"loss_changes":[3.4375032E-3,1.3817893E-3,8.633733E-5,8.9318724E-5,1.0613585E-4,0E0,0E0,1.6261678E-5,0E0,3.23219E-5,4.2983447E-4,5.495658E-7,0E0,8.1320526E-5,0E0,0E0,9.968167E-5,0E0,0E0,0E0,0E0],"parents":[2147483647,0,0,1,1,2,2,3,3,4,4,7,7,9,9,10,10,13,13,16,16],"right_children":[2,4,6,8,10,-1,-1,12,-1,14,16,-1,-1,18,-1,-1,20,-1,-1,-1,-1],"split_conditions":[3E1,1.6E1,3.2E1,1E1,2.2E1,3.7353516E-3,5.7044397E-3,6E0,9.229279E-4,2E1,2.4E1,2.6863502E-4,5.5707607E-4,1.8E1,1.2540645E-3,3.763676E-3,2.6E1,1.38637E-3,2.4993897E-3,1.0857582E-3,2.158928E-3],"split_indices":[0,0,0,0,0,0,0,0,0,0,0,0,0,0,0,0,0,0,0,0,0],"split_type":[0,0,0,0,0,0,0,0,0,0,0,0,0,0,0,0,0,0,0,0,0],"sum_hessian":[2.81E2,2.52E2,2.9E1,1.36E2,1.16E2,1.7E1,1.2E1,7.7E1,5.9E1,5.5E1,6.1E1,3.7E1,4E1,3.4E1,2.1E1,1.5E1,4.6E1,2E1,1.4E1,1.5E1,3.1E1],"tree_param":{"num_deleted":"0","num_feature":"2","num_nodes":"21","size_leaf_vector":"0"}},{"base_weights":[3.9785667E-3,3.0925586E-3,1.1317953E-2,1.5188064E-3,4.908896E-3,8.9348685E-3,1.37469955E-2,9.994507E-4,2.1686554E-3,4.016059E-3,5.6361537E-3,4.7607423E-4,1.2232462E-3,1.8429003E-3,2.61257E-3,4.548863E-3,2.9858677E-3,9.012222E-3,4.3669357E-3,3.2988049E-3,5.9956866E-3,3.2185873E-3,6.038242E-3],"categories":[],"categories_nodes":[],"categories_segments":[],"categories_sizes":[],"default_left":[1,1,1,1,1,0,0,1,1,1,1,0,0,0,0,1,0,0,1,0,0,0,0],"id":31,"left_children":[1,3,5,7,9,-1,-1,11,13,15,17,-1,-1,-1,-1,19,-1,-1,21,-1,-1,-1,-1],"loss_changes":[1.7987764E-3,7.157356E-4,5.0830655E-5,4.4070417E-5,5.3335913E-5,0E0,0E0,8.553725E-6,3.861758E-6,1.7155486E-5,2.2631208E-4,0E0,5.713591E-7,0E0,0E0,4.3522916E-5,0E0,0E0,7.076975E-5,0E0,0E0,0E0,0E0],"parents":[2147483647,0,0,1,1,2,2,3,3,4,4,7,7,8,8,9,9,10,10,15,15,18,18],"right_children":[2,4,6,8,10,-1,-1,12,14,16,18,-1,-1,-1,-1,20,-1,-1,22,-1,-1,-1,-1],"split_conditions":[3E1,1.6E1,3.2E1,1E1,2.2E1,2.6804607E-3,4.124099E-3,4E0,1.4E1,2E1,2.4E1,1.4282227E-4,3.669739E-4,5.528701E-4,7.8377104E-4,1.8E1,8.957603E-4,2.7036667E-3,2.8E1,9.896415E-4,1.798706E-3,9.655762E-4,1.8114727E-3],"split_indices":[0,0,0,0,0,0,0,0,0,0,0,0,0,0,0,0,0,0,0,0,0,0,0],"split_type":[0,0,0,0,0,0,0,0,0,0,0,0,0,0,0,0,0,0,0,0,0,0,0],"sum_hessian":[2.81E2,2.52E2,2.9E1,1.36E2,1.16E2,1.7E1,1.2E1,7.7E1,5.9E1,5.5E1,6.1E1,2.4E1,5.3E1,3.7E1,2.2E1,3.4E1,2.1E1,1.5E1,4.6E1,2E1,1.4E1,2.9E1,1.7E1],"tree_param":{"num_deleted":"0","num_feature":"2","num_nodes":"23","size_leaf_vector":"0"}},{"base_weights":[2.848226E-3,2.2085137E-3,8.148193E-3,1.0775267E-3,3.5139557E-3,6.398519E-3,9.944036E-3,5.5373344E-4,1.4328192E-3,2.874102E-3,4.035211E-3,3.3874513E-4,6.9982355E-4,1.1193691E-3,1.6837897E-3,3.261893E-3,2.1265203E-3,6.480217E-3,3.1170135E-3,2.3542133E-3,4.3151854E-3,2.289327E-3,4.3233237E-3,1.7023087E-3,2.762858E-3],"categories":[],"categories_nodes":[],"categories_segments":[],"categories_sizes":[],"default_left":[1,1,1,1,1,0,0,1,1,1,1,0,0,0,0,1,0,0,1,0,0,1,0,0,0],"id":32,"left_children":[1,3,5,7,9,-1,-1,11,13,15,17,-1,-1,-1,-1,19,-1,-1,21,-1,-1,23,-1,-1,-1],"loss_changes":[9.381131E-4,3.697524E-4,3.063702E-5,2.4702269E-5,2.7425005E-5,0E0,0E0,1.5531768E-6,4.487214E-6,9.298237E-6,1.1899101E-4,0E0,4.5316483E-8,0E0,0E0,2.3302971E-5,0E0,0E0,3.7029473E-5,0E0,0E0,3.6359124E-6,0E0,0E0,0E0],"parents":[2147483647,0,0,1,1,2,2,3,3,4,4,7,7,8,8,9,9,10,10,15,15,18,18,21,21],"right_children":[2,4,6,8,10,-1,-1,12,14,16,18,-1,-1,-1,-1,20,-1,-1,22,-1,-1,24,-1,-1,-1],"split_conditions":[3E1,1.6E1,3.2E1,8E0,2.2E1,1.9195558E-3,2.9832108E-3,4E0,1.2E1,2E1,2.4E1,1.0162354E-4,2.0994707E-4,3.3581074E-4,5.051369E-4,1.8E1,6.379561E-4,1.9440652E-3,2.8E1,7.06264E-4,1.2945556E-3,2.6E1,1.2969972E-3,5.106926E-4,8.288575E-4],"split_indices":[0,0,0,0,0,0,0,0,0,0,0,0,0,0,0,0,0,0,0,0,0,0,0,0,0],"split_type":[0,0,0,0,0,0,0,0,0,0,0,0,0,0,0,0,0,0,0,0,0,0,0,0,0],"sum_hessian":[2.81E2,2.52E2,2.9E1,1.36E2,1.16E2,1.7E1,1.2E1,5.6E1,8E1,5.5E1,6.1E1,2.4E1,3.2E1,3.8E1,4.2E1,3.4E1,2.1E1,1.5E1,4.6E1,2E1,1.4E1,2.9E1,1.7E1,1.5E1,1.4E1],"tree_param":{"num_deleted":"0","num_feature":"2","num_nodes":"25","size_leaf_vector":"0"}},{"base_weights":[2.0415664E-3,1.5804305E-3,5.862427E-3,7.6332927E-4,2.5236993E-3,4.582723E-3,7.1833683E-3,3.933823E-4,1.0142386E-3,2.0588466E-3,2.9028615E-3,2.829903E-4,5.8345794E-4,8.547508E-4,1.3792618E-3,2.3420062E-3,1.5147816E-3,4.6634674E-3,2.2417433E-3,1.6857329E-3,3.1046548E-3,1.6530355E-3,3.098382E-3,1.2302399E-3,1.9938152E-3],"categories":[],"categories_nodes":[],"categories_segments":[],"categories_sizes":[],"default_left":[1,1,1,1,1,0,0,1,1,1,1,0,0,0,0,1,0,0,1,0,0,1,0,0,0],"id":33,"left_children":[1,3,5,7,9,-1,-1,11,13,15,17,-1,-1,-1,-1,19,-1,-1,21,-1,-1,23,-1,-1,-1],"loss_changes":[4.876007E-4,1.9307237E-4,1.779315E-5,1.23177815E-5,1.4645222E-5,0E0,0E0,1.0309086E-6,3.536632E-6,5.0795643E-6,6.1711704E-5,2.6423095E-9,0E0,0E0,0E0,1.2284087E-5,0E0,0E0,1.8580831E-5,0E0,0E0,1.8695355E-6,0E0,0E0,0E0],"parents":[2147483647,0,0,1,1,2,2,3,3,4,4,7,7,8,8,9,9,10,10,15,15,18,18,21,21],"right_children":[2,4,6,8,10,-1,-1,12,14,16,18,-1,-1,-1,-1,20,-1,-1,22,-1,-1,24,-1,-1,-1],"split_conditions":[3E1,1.6E1,3.2E1,8E0,2.2E1,1.374817E-3,2.1550106E-3,6E0,1.4E1,2E1,2.4E1,8.4897096E-5,1.7503739E-4,2.5642526E-4,4.1377856E-4,1.8E1,4.544345E-4,1.3990402E-3,2.8E1,5.0571986E-4,9.313965E-4,2.6E1,9.295146E-4,3.69072E-4,5.981446E-4],"split_indices":[0,0,0,0,0,0,0,0,0,0,0,0,0,0,0,0,0,0,0,0,0,0,0,0,0],"split_type":[0,0,0,0,0,0,0,0,0,0,0,0,0,0,0,0,0,0,0,0,0,0,0,0,0],"sum_hessian":[2.81E2,2.52E2,2.9E1,1.36E2,1.16E2,1.7E1,1.2E1,5.6E1,8E1,5.5E1,6.1E1,3.7E1,1.9E1,5.8E1,2.2E1,3.4E1,2.1E1,1.5E1,4.6E1,2E1,1.4E1,2.9E1,1.7E1,1.5E1,1.4E1],"tree_param":{"num_deleted":"0","num_feature":"2","num_nodes":"25","size_leaf_vector":"0"}},{"base_weights":[1.4622735E-3,1.1297837E-3,4.217529E-3,5.4001634E-4,1.8107096E-3,3.2857258E-3,5.1832935E-3,3.8925975E-4,8.605247E-4,1.474653E-3,2.0850396E-3,2.0007083E-4,5.064997E-4,1.6819545E-3,1.0778253E-3,3.3473969E-3,1.6109386E-3,1.206171E-3,2.2359213E-3,1.19222E-3,2.219306E-3],"categories":[],"categories_nodes":[],"categories_segments":[],"categories_sizes":[],"default_left":[1,1,1,1,1,0,0,1,0,1,1,0,0,1,0,0,1,0,0,0,0],"id":34,"left_children":[1,3,5,7,9,-1,-1,11,-1,13,15,-1,-1,17,-1,-1,19,-1,-1,-1,-1],"loss_changes":[2.5357382E-4,1.006239E-4,9.966199E-6,6.2846993E-6,7.711555E-6,0E0,0E0,2.0058123E-6,2.7865826E-7,2.7938731E-6,3.171363E-5,4.9454457E-8,0E0,6.527982E-6,0E0,0E0,9.326643E-6,0E0,0E0,9.790019E-7,0E0],"parents":[2147483647,0,0,1,1,2,2,3,3,4,4,7,7,9,9,10,10,13,13,16,16],"right_children":[2,4,6,8,10,-1,-1,12,-1,14,16,-1,-1,18,-1,-1,20,-1,-1,-1,-1],"split_conditions":[3E1,1.6E1,3.2E1,1.2E1,2.2E1,9.857178E-4,1.5549881E-3,6E0,2.5815744E-4,2E1,2.4E1,6.002125E-5,1.5194992E-4,1.8E1,3.233476E-4,1.004219E-3,2.8E1,3.618513E-4,6.707764E-4,3.5766602E-4,6.6579186E-4],"split_indices":[0,0,0,0,0,0,0,0,0,0,0,0,0,0,0,0,0,0,0,0,0],"split_type":[0,0,0,0,0,0,0,0,0,0,0,0,0,0,0,0,0,0,0,0,0],"sum_hessian":[2.81E2,2.52E2,2.9E1,1.36E2,1.16E2,1.7E1,1.2E1,9.4E1,4.2E1,5.5E1,6.1E1,3.7E1,5.7E1,3.4E1,2.1E1,1.5E1,4.6E1,2E1,1.4E1,2.9E1,1.7E1],"tree_param":{"num_deleted":"0","num_feature":"2","num_nodes":"21","size_leaf_vector":"0"}},{"base_weights":[1.0465527E-3,8.05851E-4,3.0415852E-3,3.8085715E-4,1.2966058E-3,2.3634168E-3,3.7466197E-3,3.063036E-4,7.3706586E-4,1.0558537E-3,1.4931463E-3,1.4184651E-4,3.8249677E-4,1.2041364E-3,7.71956E-4,2.4032593E-3,1.1515516E-3,8.573986E-4,1.6092936E-3,5.578995E-4,1.4123917E-3],"categories":[],"categories_nodes":[],"categories_segments":[],"categories_sizes":[],"default_left":[1,1,1,1,1,0,0,1,0,1,1,0,0,1,0,0,1,0,0,0,0],"id":35,"left_children":[1,3,5,7,9,-1,-1,11,-1,13,15,-1,-1,17,-1,-1,19,-1,-1,-1,-1],"loss_changes":[1.3296751E-4,5.2273812E-5,5.489128E-6,3.4124896E-6,3.95962E-6,0E0,0E0,1.386753E-6,0E0,1.4278994E-6,1.6507693E-5,6.900723E-8,1.5563819E-7,3.5371122E-6,0E0,0E0,6.4898923E-6,0E0,0E0,0E0,0E0],"parents":[2147483647,0,0,1,1,2,2,3,3,4,4,7,7,9,9,10,10,13,13,16,16],"right_children":[2,4,6,8,10,-1,-1,12,-1,14,16,-1,-1,18,-1,-1,20,-1,-1,-1,-1],"split_conditions":[3E1,1.6E1,3.2E1,1.4E1,2.2E1,7.090251E-4,1.123986E-3,6E0,2.2111977E-4,2E1,2.4E1,4.2553955E-5,1.1474903E-4,1.8E1,2.315868E-4,7.209778E-4,2.6E1,2.572196E-4,4.827881E-4,1.6736984E-4,4.2371752E-4],"split_indices":[0,0,0,0,0,0,0,0,0,0,0,0,0,0,0,0,0,0,0,0,0],"split_type":[0,0,0,0,0,0,0,0,0,0,0,0,0,0,0,0,0,0,0,0,0],"sum_hessian":[2.81E2,2.52E2,2.9E1,1.36E2,1.16E2,1.7E1,1.2E1,1.14E2,2.2E1,5.5E1,6.1E1,3.7E1,7.7E1,3.4E1,2.1E1,1.5E1,4.6E1,2E1,1.4E1,1.5E1,3.1E1],"tree_param":{"num_deleted":"0","num_feature":"2","num_nodes":"21","size_leaf_vector":"0"}},{"base_weights":[7.4845174E-4,5.743004E-4,2.1921794E-3,2.6967403E-4,9.260911E-4,1.7005072E-3,2.704327E-3,1.6085307E-4,4.0664672E-4,7.5531006E-4,1.065408E-3,1.7309189E-3,8.161829E-4,5.6966144E-4,1.1817084E-3],"categories":[],"categories_nodes":[],"categories_segments":[],"categories_sizes":[],"default_left":[1,1,1,1,1,0,0,0,0,0,1,0,1,0,0],"id":36,"left_children":[1,3,5,7,9,-1,-1,-1,-1,-1,11,-1,13,-1,-1],"loss_changes":[6.964347E-5,2.686293E-5,2.9555376E-6,1.976644E-6,1.9790314E-6,0E0,0E0,3.154721E-7,4.1842577E-7,7.136805E-7,8.870702E-6,0E0,3.5619923E-6,4.3733326E-7,0E0],"parents":[2147483647,0,0,1,1,2,2,3,3,4,4,10,10,12,12],"right_children":[2,4,6,8,10,-1,-1,-1,-1,-1,12,-1,14,-1,-1],"split_conditions":[3E1,1.6E1,3.2E1,1E1,2.2E1,5.101522E-4,8.1129814E-4,4.8255923E-5,1.21994024E-4,2.2659302E-4,2.4E1,5.1927567E-4,2.8E1,1.7089843E-4,3.5451254E-4],"split_indices":[0,0,0,0,0,0,0,0,0,0,0,0,0,0,0],"split_type":[0,0,0,0,0,0,0,0,0,0,0,0,0,0,0],"sum_hessian":[2.81E2,2.52E2,2.9E1,1.36E2,1.16E2,1.7E1,1.2E1,7.7E1,5.9E1,5.5E1,6.1E1,1.5E1,4.6E1,2.9E1,1.7E1],"tree_param":{"num_deleted":"0","num_feature":"2","num_nodes":"15","size_leaf_vector":"0"}},{"base_weights":[5.3282664E-4,4.079012E-4,1.5686036E-3,2.1840964E-4,7.103989E-4,1.2105306E-3,1.9437349E-3,1.4479263E-4,4.1021302E-4],"categories":[],"categories_nodes":[],"categories_segments":[],"categories_sizes":[],"default_left":[1,1,1,1,0,0,0,0,0],"id":37,"left_children":[1,3,5,7,-1,-1,-1,-1,-1],"loss_changes":[3.584951E-5,1.4346995E-5,1.6767881E-6,2.1574424E-6,7.467861E-7,0E0,0E0,4.9374285E-7,0E0],"parents":[2147483647,0,0,1,1,2,2,3,3],"right_children":[2,4,6,8,-1,-1,-1,-1,-1],"split_conditions":[3E1,1.8E1,3.2E1,1.4E1,2.1311968E-4,3.631592E-4,5.831205E-4,4.343779E-5,1.2306392E-4],"split_indices":[0,0,0,0,0,0,0,0,0],"split_type":[0,0,0,0,0,0,0,0,0],"sum_hessian":[2.81E2,2.52E2,2.9E1,1.56E2,9.6E1,1.7E1,1.2E1,1.14E2,4.2E1],"tree_param":{"num_deleted":"0","num_feature":"2","num_nodes":"9","size_leaf_vector":"0"}},{"base_weights":[3.7726274E-4,2.5779917E-4,9.6909545E-4,1.0087386E-4,4.0360747E-4,7.7819824E-4,1.4085036E-3,4.6465473E-4,2.009074E-4,3.3980148E-4,1.0442734E-3,4.1439658E-4,1.3108687E-4,2.9098155E-4,7.405599E-4],"categories":[],"categories_nodes":[],"categories_segments":[],"categories_sizes":[],"default_left":[1,1,1,0,1,0,0,1,0,1,0,1,0,0,0],"id":38,"left_children":[1,3,5,-1,7,-1,-1,9,-1,11,-1,13,-1,-1,-1],"loss_changes":[1.9688254E-5,5.3592066E-6,2.846351E-6,4.929559E-7,1.4163106E-6,0E0,0E0,6.3753105E-6,7.200043E-7,1.1600678E-6,0E0,2.0789576E-6,0E0,0E0,0E0],"parents":[2147483647,0,0,1,1,2,2,4,4,7,7,9,9,11,11],"right_children":[2,4,6,-1,8,-1,-1,10,-1,12,-1,14,-1,-1,-1],"split_conditions":[2.8E1,1.4E1,3.2E1,3.026216E-5,2.4E1,2.3345948E-4,4.225511E-4,2.2E1,6.027222E-5,2E1,3.13282E-4,1.8E1,3.9326063E-5,8.7294466E-5,2.2216798E-4],"split_indices":[0,0,0,0,0,0,0,0,0,0,0,0,0,0,0],"split_type":[0,0,0,0,0,0,0,0,0,0,0,0,0,0,0],"sum_hessian":[2.81E2,2.35E2,4.6E1,1.14E2,1.21E2,3.4E1,1.2E1,9.2E1,2.9E1,7.7E1,1.5E1,5.6E1,2.1E1,4.2E1,1.4E1],"tree_param":{"num_deleted":"0","num_feature":"2","num_nodes":"15","size_leaf_vector":"0"}},{"base_weights":[2.6709645E-4,2.0049023E-4,8.199056E-4,7.062166E-5,3.0649308E-4],"categories":[],"categories_nodes":[],"categories_segments":[],"categories_sizes":[],"default_left":[1,1,0,0,0],"id":39,"left_children":[1,3,-1,-1,-1],"loss_changes":[1.0219004E-5,3.461264E-6,4.3962973E-7,4.9255294E-7,6.5211225E-7],"parents":[2147483647,0,0,1,1],"right_children":[2,4,-1,-1,-1],"split_conditions":[3E1,1.4E1,2.459717E-4,2.1186499E-5,9.194793E-5],"split_indices":[0,0,0,0,0],"split_type":[0,0,0,0,0],"sum_hessian":[2.81E2,2.52E2,2.9E1,1.14E2,1.38E2],"tree_param":{"num_deleted":"0","num_feature":"2","num_nodes":"5","size_leaf_vector":"0"}},{"base_weights":[1.8809704E-4,8.942684E-5,3.9421333E-4,3.2429755E-4,7.88762E-4,6.580353E-4,2.3579597E-4,-1.001358E-4,3.4067582E-4],"categories":[],"categories_nodes":[],"categories_segments":[],"categories_sizes":[],"default_left":[1,0,1,1,0,0,1,0,0],"id":40,"left_children":[1,-1,3,5,-1,-1,7,-1,-1],"loss_changes":[5.6999334E-6,9.014227E-7,2.2544582E-6,2.178207E-6,0E0,0E0,2.2889922E-6,0E0,1.9606432E-7],"parents":[2147483647,0,0,2,2,3,3,6,6],"right_children":[2,-1,4,6,-1,-1,8,-1,-1],"split_conditions":[2.2E1,2.6828053E-5,3.2E1,2.4E1,2.366286E-4,1.974106E-4,2.6E1,-3.0040743E-5,1.0220275E-4],"split_indices":[0,0,0,0,0,0,0,0,0],"split_type":[0,0,0,0,0,0,0,0,0],"sum_hessian":[2.81E2,1.91E2,9E1,7.8E1,1.2E1,1.5E1,6.3E1,1.5E1,4.8E1],"tree_param":{"num_deleted":"0","num_feature":"2","num_nodes":"9","size_leaf_vector":"0"}},{"base_weights":[1.3160706E-4,8.33576E-5,3.7108077E-4,-4.330016E-5,1.230028E-4],"categories":[],"categories_nodes":[],"categories_segments":[],"categories_sizes":[],"default_left":[1,1,0,0,0],"id":41,"left_children":[1,3,-1,-1,-1],"loss_changes":[3.2274293E-6,1.1903696E-6,5.786783E-7,1.4675757E-7,3.701996E-7],"parents":[2147483647,0,0,1,1],"right_children":[2,4,-1,-1,-1],"split_conditions":[2.8E1,8E0,1.1132423E-4,-1.2990048E-5,3.690084E-5],"split_indices":[0,0,0,0,0],"split_type":[0,0,0,0,0],"sum_hessian":[2.81E2,2.35E2,4.6E1,5.6E1,1.79E2],"tree_param":{"num_deleted":"0","num_feature":"2","num_nodes":"5","size_leaf_vector":"0"}},{"base_weights":[9.3514194E-5,1.9267865E-5,1.852853E-4],"categories":[],"categories_nodes":[],"categories_segments":[],"categories_sizes":[],"default_left":[1,0,0],"id":42,"left_children":[1,-1,-1],"loss_changes":[1.9178844E-6,3.3989008E-7,9.975661E-7],"parents":[2147483647,0,0],"right_children":[2,-1,-1],"split_conditions":[1.8E1,5.78036E-6,5.558559E-5],"split_indices":[0,0,0],"split_type":[0,0,0],"sum_hessian":[2.81E2,1.56E2,1.25E2],"tree_param":{"num_deleted":"0","num_feature":"2","num_nodes":"3","size_leaf_vector":"0"}},{"base_weights":[6.2942505E-5,4.6751233E-5,3.94381E-4],"categories":[],"categories_nodes":[],"categories_segments":[],"categories_sizes":[],"default_left":[1,0,0],"id":43,"left_children":[1,-1,-1],"loss_changes":[1.4948901E-6,5.3733004E-7,0E0],"parents":[2147483647,0,0],"right_children":[2,-1,-1],"split_conditions":[3.2E1,1.4025371E-5,1.183143E-4],"split_indices":[0,0,0],"split_type":[0,0,0],"sum_hessian":[2.81E2,2.69E2,1.2E1],"tree_param":{"num_deleted":"0","num_feature":"2","num_nodes":"3","size_leaf_vector":"0"}},{"base_weights":[4.427484E-5],"categories":[],"categories_nodes":[],"categories_segments":[],"categories_sizes":[],"default_left":[0],"id":44,"left_children":[-1],"loss_changes":[9.0521524E-7],"parents":[2147483647],"right_children":[-1],"split_conditions":[1.32824525E-5],"split_indices":[0],"split_type":[0],"sum_hessian":[2.81E2],"tree_param":{"num_deleted":"0","num_feature":"2","num_nodes":"1","size_leaf_vector":"0"}},{"base_weights":[3.1234526E-5,1.0087085E-5,2.0853679E-4],"categories":[],"categories_nodes":[],"categories_segments":[],"categories_sizes":[],"default_left":[1,0,0],"id":45,"left_children":[1,-1,-1],"loss_changes":[1.0552524E-6,4.61813E-7,1.0081362E-7],"parents":[2147483647,0,0],"right_children":[2,-1,-1],"split_conditions":[3E1,3.0261256E-6,6.256104E-5],"split_indices":[0,0,0],"split_type":[0,0,0],"sum_hessian":[2.81E2,2.52E2,2.9E1],"tree_param":{"num_deleted":"0","num_feature":"2","num_nodes":"3","size_leaf_vector":"0"}},{"base_weights":[2.4200332E-5],"categories":[],"categories_nodes":[],"categories_segments":[],"categories_sizes":[],"default_left":[0],"id":46,"left_children":[-1],"loss_changes":[6.0636194E-7],"parents":[2147483647],"right_children":[-1],"split_conditions":[7.2600997E-6],"split_indices":[0],"split_type":[0],"sum_hessian":[2.81E2],"tree_param":{"num_deleted":"0","num_feature":"2","num_nodes":"1","size_leaf_vector":"0"}},{"base_weights":[2.0520907E-5],"categories":[],"categories_nodes":[],"categories_segments":[],"categories_sizes":[],"default_left":[0],"id":47,"left_children":[-1],"loss_changes":[6.956737E-7],"parents":[2147483647],"right_children":[-1],"split_conditions":[6.1562723E-6],"split_indices":[0],"split_type":[0],"sum_hessian":[2.81E2],"tree_param":{"num_deleted":"0","num_feature":"2","num_nodes":"1","size_leaf_vector":"0"}},{"base_weights":[1.700381E-5],"categories":[],"categories_nodes":[],"categories_segments":[],"categories_sizes":[],"default_left":[0],"id":48,"left_children":[-1],"loss_changes":[7.86728E-7],"parents":[2147483647],"right_children":[-1],"split_conditions":[5.101143E-6],"split_indices":[0],"split_type":[0],"sum_hessian":[2.81E2],"tree_param":{"num_deleted":"0","num_feature":"2","num_nodes":"1","size_leaf_vector":"0"}},{"base_weights":[1.3919587E-5],"categories":[],"categories_nodes":[],"categories_segments":[],"categories_sizes":[],"default_left":[0],"id":49,"left_children":[-1],"loss_changes":[8.7114694E-7],"parents":[2147483647],"right_children":[-1],"split_conditions":[4.1758763E-6],"split_indices":[0],"split_type":[0],"sum_hessian":[2.81E2],"tree_param":{"num_deleted":"0","num_feature":"2","num_nodes":"1","size_leaf_vector":"0"}},{"base_weights":[1.1592892E-5],"categories":[],"categories_nodes":[],"categories_segments":[],"categories_sizes":[],"default_left":[0],"id":50,"left_children":[-1],"loss_changes":[9.4440645E-7],"parents":[2147483647],"right_children":[-1],"split_conditions":[3.477868E-6],"split_indices":[0],"split_type":[0],"sum_hessian":[2.81E2],"tree_param":{"num_deleted":"0","num_feature":"2","num_nodes":"1","size_leaf_vector":"0"}},{"base_weights":[1.0835363E-5],"categories":[],"categories_nodes":[],"categories_segments":[],"categories_sizes":[],"default_left":[0],"id":51,"left_children":[-1],"loss_changes":[9.700759E-7],"parents":[2147483647],"right_children":[-1],"split_conditions":[3.250609E-6],"split_indices":[0],"split_type":[0],"sum_hessian":[2.81E2],"tree_param":{"num_deleted":"0","num_feature":"2","num_nodes":"1","size_leaf_vector":"0"}},{"base_weights":[1.0077835E-5],"categories":[],"categories_nodes":[],"categories_segments":[],"categories_sizes":[],"default_left":[0],"id":52,"left_children":[-1],"loss_changes":[9.960879E-7],"parents":[2147483647],"right_children":[-1],"split_conditions":[3.0233507E-6],"split_indices":[0],"split_type":[0],"sum_hessian":[2.81E2],"tree_param":{"num_deleted":"0","num_feature":"2","num_nodes":"1","size_leaf_vector":"0"}},{"base_weights":[9.320306E-6,-5.276534E-5,6.751491E-5],"categories":[],"categories_nodes":[],"categories_segments":[],"categories_sizes":[],"default_left":[1,0,0],"id":53,"left_children":[1,-1,-1],"loss_changes":[1.0224426E-6,3.2275537E-7,3.528648E-7],"parents":[2147483647,0,0],"right_children":[2,-1,-1],"split_conditions":[1.6E1,-1.5829602E-5,2.0254474E-5],"split_indices":[0,0,0],"split_type":[0,0,0],"sum_hessian":[2.81E2,1.36E2,1.45E2],"tree_param":{"num_deleted":"0","num_feature":"2","num_nodes":"3","size_leaf_vector":"0"}},{"base_weights":[7.2641574E-6],"categories":[],"categories_nodes":[],"categories_segments":[],"categories_sizes":[],"default_left":[0],"id":54,"left_children":[-1],"loss_changes":[6.293624E-7],"parents":[2147483647],"right_children":[-1],"split_conditions":[2.1792473E-6],"split_indices":[0],"split_type":[0],"sum_hessian":[2.81E2],"tree_param":{"num_deleted":"0","num_feature":"2","num_nodes":"1","size_leaf_vector":"0"}},{"base_weights":[6.6689568E-6],"categories":[],"categories_nodes":[],"categories_segments":[],"categories_sizes":[],"default_left":[0],"id":55,"left_children":[-1],"loss_changes":[6.6128894E-7],"parents":[2147483647],"right_children":[-1],"split_conditions":[2.0006871E-6],"split_indices":[0],"split_type":[0],"sum_hessian":[2.81E2],"tree_param":{"num_deleted":"0","num_feature":"2","num_nodes":"1","size_leaf_vector":"0"}},{"base_weights":[6.0737557E-6],"categories":[],"categories_nodes":[],"categories_segments":[],"categories_sizes":[],"default_left":[0],"id":56,"left_children":[-1],"loss_changes":[6.9400414E-7],"parents":[2147483647],"right_children":[-1],"split_conditions":[1.8221268E-6],"split_indices":[0],"split_type":[0],"sum_hessian":[2.81E2],"tree_param":{"num_deleted":"0","num_feature":"2","num_nodes":"1","size_leaf_vector":"0"}},{"base_weights":[5.911428E-6],"categories":[],"categories_nodes":[],"categories_segments":[],"categories_sizes":[],"default_left":[0],"id":57,"left_children":[-1],"loss_changes":[7.030633E-7],"parents":[2147483647],"right_children":[-1],"split_conditions":[1.7734285E-6],"split_indices":[0],"split_type":[0],"sum_hessian":[2.81E2],"tree_param":{"num_deleted":"0","num_feature":"2","num_nodes":"1","size_leaf_vector":"0"}},{"base_weights":[5.7491006E-6],"categories":[],"categories_nodes":[],"categories_segments":[],"categories_sizes":[],"default_left":[0],"id":58,"left_children":[-1],"loss_changes":[7.121812E-7],"parents":[2147483647],"right_children":[-1],"split_conditions":[1.7247303E-6],"split_indices":[0],"split_type":[0],"sum_hessian":[2.81E2],"tree_param":{"num_deleted":"0","num_feature":"2","num_nodes":"1","size_leaf_vector":"0"}},{"base_weights":[5.586773E-6],"categories":[],"categories_nodes":[],"categories_segments":[],"categories_sizes":[],"default_left":[0],"id":59,"left_children":[-1],"loss_changes":[7.213577E-7],"parents":[2147483647],"right_children":[-1],"split_conditions":[1.676032E-6],"split_indices":[0],"split_type":[0],"sum_hessian":[2.81E2],"tree_param":{"num_deleted":"0","num_feature":"2","num_nodes":"1","size_leaf_vector":"0"}},{"base_weights":[5.4244456E-6],"categories":[],"categories_nodes":[],"categories_segments":[],"categories_sizes":[],"default_left":[0],"id":60,"left_children":[-1],"loss_changes":[7.3059294E-7],"parents":[2147483647],"right_children":[-1],"split_conditions":[1.6273337E-6],"split_indices":[0],"split_type":[0],"sum_hessian":[2.81E2],"tree_param":{"num_deleted":"0","num_feature":"2","num_nodes":"1","size_leaf_vector":"0"}},{"base_weights":[5.262118E-6],"categories":[],"categories_nodes":[],"categories_segments":[],"categories_sizes":[],"default_left":[0],"id":61,"left_children":[-1],"loss_changes":[7.3988684E-7],"parents":[2147483647],"right_children":[-1],"split_conditions":[1.5786355E-6],"split_indices":[0],"split_type":[0],"sum_hessian":[2.81E2],"tree_param":{"num_deleted":"0","num_feature":"2","num_nodes":"1","size_leaf_vector":"0"}},{"base_weights":[5.0997905E-6],"categories":[],"categories_nodes":[],"categories_segments":[],"categories_sizes":[],"default_left":[0],"id":62,"left_children":[-1],"loss_changes":[7.492393E-7],"parents":[2147483647],"right_children":[-1],"split_conditions":[1.5299372E-6],"split_indices":[0],"split_type":[0],"sum_hessian":[2.81E2],"tree_param":{"num_deleted":"0","num_feature":"2","num_nodes":"1","size_leaf_vector":"0"}},{"base_weights":[4.9374626E-6],"categories":[],"categories_nodes":[],"categories_segments":[],"categories_sizes":[],"default_left":[0],"id":63,"left_children":[-1],"loss_changes":[7.586506E-7],"parents":[2147483647],"right_children":[-1],"split_conditions":[1.4812389E-6],"split_indices":[0],"split_type":[0],"sum_hessian":[2.81E2],"tree_param":{"num_deleted":"0","num_feature":"2","num_nodes":"1","size_leaf_vector":"0"}},{"base_weights":[4.775135E-6],"categories":[],"categories_nodes":[],"categories_segments":[],"categories_sizes":[],"default_left":[0],"id":64,"left_children":[-1],"loss_changes":[7.6812034E-7],"parents":[2147483647],"right_children":[-1],"split_conditions":[1.4325406E-6],"split_indices":[0],"split_type":[0],"sum_hessian":[2.81E2],"tree_param":{"num_deleted":"0","num_feature":"2","num_nodes":"1","size_leaf_vector":"0"}},{"base_weights":[4.6128075E-6],"categories":[],"categories_nodes":[],"categories_segments":[],"categories_sizes":[],"default_left":[0],"id":65,"left_children":[-1],"loss_changes":[7.776489E-7],"parents":[2147483647],"right_children":[-1],"split_conditions":[1.3838423E-6],"split_indices":[0],"split_type":[0],"sum_hessian":[2.81E2],"tree_param":{"num_deleted":"0","num_feature":"2","num_nodes":"1","size_leaf_vector":"0"}},{"base_weights":[4.45048E-6],"categories":[],"categories_nodes":[],"categories_segments":[],"categories_sizes":[],"default_left":[0],"id":66,"left_children":[-1],"loss_changes":[7.8723616E-7],"parents":[2147483647],"right_children":[-1],"split_conditions":[1.335144E-6],"split_indices":[0],"split_type":[0],"sum_hessian":[2.81E2],"tree_param":{"num_deleted":"0","num_feature":"2","num_nodes":"1","size_leaf_vector":"0"}},{"base_weights":[4.2881525E-6],"categories":[],"categories_nodes":[],"categories_segments":[],"categories_sizes":[],"default_left":[0],"id":67,"left_children":[-1],"loss_changes":[7.96882E-7],"parents":[2147483647],"right_children":[-1],"split_conditions":[1.2864458E-6],"split_indices":[0],"split_type":[0],"sum_hessian":[2.81E2],"tree_param":{"num_deleted":"0","num_feature":"2","num_nodes":"1","size_leaf_vector":"0"}},{"base_weights":[4.125825E-6],"categories":[],"categories_nodes":[],"categories_segments":[],"categories_sizes":[],"default_left":[0],"id":68,"left_children":[-1],"loss_changes":[8.065865E-7],"parents":[2147483647],"right_children":[-1],"split_conditions":[1.2377475E-6],"split_indices":[0],"split_type":[0],"sum_hessian":[2.81E2],"tree_param":{"num_deleted":"0","num_feature":"2","num_nodes":"1","size_leaf_vector":"0"}},{"base_weights":[3.9634974E-6],"categories":[],"categories_nodes":[],"categories_segments":[],"categories_sizes":[],"default_left":[0],"id":69,"left_children":[-1],"loss_changes":[8.163496E-7],"parents":[2147483647],"right_children":[-1],"split_conditions":[1.1890493E-6],"split_indices":[0],"split_type":[0],"sum_hessian":[2.81E2],"tree_param":{"num_deleted":"0","num_feature":"2","num_nodes":"1","size_leaf_vector":"0"}},{"base_weights":[3.80117E-6],"categories":[],"categories_nodes":[],"categories_segments":[],"categories_sizes":[],"default_left":[0],"id":70,"left_children":[-1],"loss_changes":[8.3095233E-7],"parents":[2147483647],"right_children":[-1],"split_conditions":[1.1403511E-6],"split_indices":[0],"split_type":[0],"sum_hessian":[2.81E2],"tree_param":{"num_deleted":"0","num_feature":"2","num_nodes":"1","size_leaf_vector":"0"}},{"base_weights":[3.6388424E-6],"categories":[],"categories_nodes":[],"categories_segments":[],"categories_sizes":[],"default_left":[0],"id":71,"left_children":[-1],"loss_changes":[8.469671E-7],"parents":[2147483647],"right_children":[-1],"split_conditions":[1.0916527E-6],"split_indices":[0],"split_type":[0],"sum_hessian":[2.81E2],"tree_param":{"num_deleted":"0","num_feature":"2","num_nodes":"1","size_leaf_vector":"0"}},{"base_weights":[3.4765148E-6],"categories":[],"categories_nodes":[],"categories_segments":[],"categories_sizes":[],"default_left":[0],"id":72,"left_children":[-1],"loss_changes":[8.6313463E-7],"parents":[2147483647],"right_children":[-1],"split_conditions":[1.0429545E-6],"split_indices":[0],"split_type":[0],"sum_hessian":[2.81E2],"tree_param":{"num_deleted":"0","num_feature":"2","num_nodes":"1","size_leaf_vector":"0"}},{"base_weights":[3.3141873E-6],"categories":[],"categories_nodes":[],"categories_segments":[],"categories_sizes":[],"default_left":[0],"id":73,"left_children":[-1],"loss_changes":[8.794549E-7],"parents":[2147483647],"right_children":[-1],"split_conditions":[9.942562E-7],"split_indices":[0],"split_type":[0],"sum_hessian":[2.81E2],"tree_param":{"num_deleted":"0","num_feature":"2","num_nodes":"1","size_leaf_vector":"0"}},{"base_weights":[3.1518598E-6],"categories":[],"categories_nodes":[],"categories_segments":[],"categories_sizes":[],"default_left":[0],"id":74,"left_children":[-1],"loss_changes":[8.9592794E-7],"parents":[2147483647],"right_children":[-1],"split_conditions":[9.45558E-7],"split_indices":[0],"split_type":[0],"sum_hessian":[2.81E2],"tree_param":{"num_deleted":"0","num_feature":"2","num_nodes":"1","size_leaf_vector":"0"}},{"base_weights":[3.1518598E-6],"categories":[],"categories_nodes":[],"categories_segments":[],"categories_sizes":[],"default_left":[0],"id":75,"left_children":[-1],"loss_changes":[8.9592794E-7],"parents":[2147483647],"right_children":[-1],"split_conditions":[9.45558E-7],"split_indices":[0],"split_type":[0],"sum_hessian":[2.81E2],"tree_param":{"num_deleted":"0","num_feature":"2","num_nodes":"1","size_leaf_vector":"0"}},{"base_weights":[3.1518598E-6],"categories":[],"categories_nodes":[],"categories_segments":[],"categories_sizes":[],"default_left":[0],"id":76,"left_children":[-1],"loss_changes":[8.9592794E-7],"parents":[2147483647],"right_children":[-1],"split_conditions":[9.45558E-7],"split_indices":[0],"split_type":[0],"sum_hessian":[2.81E2],"tree_param":{"num_deleted":"0","num_feature":"2","num_nodes":"1","size_leaf_vector":"0"}},{"base_weights":[3.1518598E-6],"categories":[],"categories_nodes":[],"categories_segments":[],"categories_sizes":[],"default_left":[0],"id":77,"left_children":[-1],"loss_changes":[8.9592794E-7],"parents":[2147483647],"right_children":[-1],"split_conditions":[9.45558E-7],"split_indices":[0],"split_type":[0],"sum_hessian":[2.81E2],"tree_param":{"num_deleted":"0","num_feature":"2","num_nodes":"1","size_leaf_vector":"0"}},{"base_weights":[3.1518598E-6],"categories":[],"categories_nodes":[],"categories_segments":[],"categories_sizes":[],"default_left":[0],"id":78,"left_children":[-1],"loss_changes":[8.9592794E-7],"parents":[2147483647],"right_children":[-1],"split_conditions":[9.45558E-7],"split_indices":[0],"split_type":[0],"sum_hessian":[2.81E2],"tree_param":{"num_deleted":"0","num_feature":"2","num_nodes":"1","size_leaf_vector":"0"}},{"base_weights":[3.1518598E-6],"categories":[],"categories_nodes":[],"categories_segments":[],"categories_sizes":[],"default_left":[0],"id":79,"left_children":[-1],"loss_changes":[8.9592794E-7],"parents":[2147483647],"right_children":[-1],"split_conditions":[9.45558E-7],"split_indices":[0],"split_type":[0],"sum_hessian":[2.81E2],"tree_param":{"num_deleted":"0","num_feature":"2","num_nodes":"1","size_leaf_vector":"0"}},{"base_weights":[3.1518598E-6],"categories":[],"categories_nodes":[],"categories_segments":[],"categories_sizes":[],"default_left":[0],"id":80,"left_children":[-1],"loss_changes":[8.9592794E-7],"parents":[2147483647],"right_children":[-1],"split_conditions":[9.45558E-7],"split_indices":[0],"split_type":[0],"sum_hessian":[2.81E2],"tree_param":{"num_deleted":"0","num_feature":"2","num_nodes":"1","size_leaf_vector":"0"}},{"base_weights":[3.1518598E-6],"categories":[],"categories_nodes":[],"categories_segments":[],"categories_sizes":[],"default_left":[0],"id":81,"left_children":[-1],"loss_changes":[8.9592794E-7],"parents":[2147483647],"right_children":[-1],"split_conditions":[9.45558E-7],"split_indices":[0],"split_type":[0],"sum_hessian":[2.81E2],"tree_param":{"num_deleted":"0","num_feature":"2","num_nodes":"1","size_leaf_vector":"0"}},{"base_weights":[3.1518598E-6],"categories":[],"categories_nodes":[],"categories_segments":[],"categories_sizes":[],"default_left":[0],"id":82,"left_children":[-1],"loss_changes":[8.9592794E-7],"parents":[2147483647],"right_children":[-1],"split_conditions":[9.45558E-7],"split_indices":[0],"split_type":[0],"sum_hessian":[2.81E2],"tree_param":{"num_deleted":"0","num_feature":"2","num_nodes":"1","size_leaf_vector":"0"}},{"base_weights":[3.1518598E-6],"categories":[],"categories_nodes":[],"categories_segments":[],"categories_sizes":[],"default_left":[0],"id":83,"left_children":[-1],"loss_changes":[8.9592794E-7],"parents":[2147483647],"right_children":[-1],"split_conditions":[9.45558E-7],"split_indices":[0],"split_type":[0],"sum_hessian":[2.81E2],"tree_param":{"num_deleted":"0","num_feature":"2","num_nodes":"1","size_leaf_vector":"0"}},{"base_weights":[3.1518598E-6],"categories":[],"categories_nodes":[],"categories_segments":[],"categories_sizes":[],"default_left":[0],"id":84,"left_children":[-1],"loss_changes":[8.9592794E-7],"parents":[2147483647],"right_children":[-1],"split_conditions":[9.45558E-7],"split_indices":[0],"split_type":[0],"sum_hessian":[2.81E2],"tree_param":{"num_deleted":"0","num_feature":"2","num_nodes":"1","size_leaf_vector":"0"}},{"base_weights":[3.1518598E-6],"categories":[],"categories_nodes":[],"categories_segments":[],"categories_sizes":[],"default_left":[0],"id":85,"left_children":[-1],"loss_changes":[8.9592794E-7],"parents":[2147483647],"right_children":[-1],"split_conditions":[9.45558E-7],"split_indices":[0],"split_type":[0],"sum_hessian":[2.81E2],"tree_param":{"num_deleted":"0","num_feature":"2","num_nodes":"1","size_leaf_vector":"0"}},{"base_weights":[3.1518598E-6],"categories":[],"categories_nodes":[],"categories_segments":[],"categories_sizes":[],"default_left":[0],"id":86,"left_children":[-1],"loss_changes":[8.9592794E-7],"parents":[2147483647],"right_children":[-1],"split_conditions":[9.45558E-7],"split_indices":[0],"split_type":[0],"sum_hessian":[2.81E2],"tree_param":{"num_deleted":"0","num_feature":"2","num_nodes":"1","size_leaf_vector":"0"}},{"base_weights":[3.1518598E-6],"categories":[],"categories_nodes":[],"categories_segments":[],"categories_sizes":[],"default_left":[0],"id":87,"left_children":[-1],"loss_changes":[8.9592794E-7],"parents":[2147483647],"right_children":[-1],"split_conditions":[9.45558E-7],"split_indices":[0],"split_type":[0],"sum_hessian":[2.81E2],"tree_param":{"num_deleted":"0","num_feature":"2","num_nodes":"1","size_leaf_vector":"0"}},{"base_weights":[3.1518598E-6],"categories":[],"categories_nodes":[],"categories_segments":[],"categories_sizes":[],"default_left":[0],"id":88,"left_children":[-1],"loss_changes":[8.9592794E-7],"parents":[2147483647],"right_children":[-1],"split_conditions":[9.45558E-7],"split_indices":[0],"split_type":[0],"sum_hessian":[2.81E2],"tree_param":{"num_deleted":"0","num_feature":"2","num_nodes":"1","size_leaf_vector":"0"}},{"base_weights":[3.1518598E-6],"categories":[],"categories_nodes":[],"categories_segments":[],"categories_sizes":[],"default_left":[0],"id":89,"left_children":[-1],"loss_changes":[8.9592794E-7],"parents":[2147483647],"right_children":[-1],"split_conditions":[9.45558E-7],"split_indices":[0],"split_type":[0],"sum_hessian":[2.81E2],"tree_param":{"num_deleted":"0","num_feature":"2","num_nodes":"1","size_leaf_vector":"0"}},{"base_weights":[3.1518598E-6],"categories":[],"categories_nodes":[],"categories_segments":[],"categories_sizes":[],"default_left":[0],"id":90,"left_children":[-1],"loss_changes":[8.9592794E-7],"parents":[2147483647],"right_children":[-1],"split_conditions":[9.45558E-7],"split_indices":[0],"split_type":[0],"sum_hessian":[2.81E2],"tree_param":{"num_deleted":"0","num_feature":"2","num_nodes":"1","size_leaf_vector":"0"}},{"base_weights":[3.1518598E-6],"categories":[],"categories_nodes":[],"categories_segments":[],"categories_sizes":[],"default_left":[0],"id":91,"left_children":[-1],"loss_changes":[8.9592794E-7],"parents":[2147483647],"right_children":[-1],"split_conditions":[9.45558E-7],"split_indices":[0],"split_type":[0],"sum_hessian":[2.81E2],"tree_param":{"num_deleted":"0","num_feature":"2","num_nodes":"1","size_leaf_vector":"0"}},{"base_weights":[3.1518598E-6],"categories":[],"categories_nodes":[],"categories_segments":[],"categories_sizes":[],"default_left":[0],"id":92,"left_children":[-1],"loss_changes":[8.9592794E-7],"parents":[2147483647],"right_children":[-1],"split_conditions":[9.45558E-7],"split_indices":[0],"split_type":[0],"sum_hessian":[2.81E2],"tree_param":{"num_deleted":"0","num_feature":"2","num_nodes":"1","size_leaf_vector":"0"}},{"base_weights":[3.1518598E-6],"categories":[],"categories_nodes":[],"categories_segments":[],"categories_sizes":[],"default_left":[0],"id":93,"left_children":[-1],"loss_changes":[8.9592794E-7],"parents":[2147483647],"right_children":[-1],"split_conditions":[9.45558E-7],"split_indices":[0],"split_type":[0],"sum_hessian":[2.81E2],"tree_param":{"num_deleted":"0","num_feature":"2","num_nodes":"1","size_leaf_vector":"0"}},{"base_weights":[3.1518598E-6],"categories":[],"categories_nodes":[],"categories_segments":[],"categories_sizes":[],"default_left":[0],"id":94,"left_children":[-1],"loss_changes":[8.9592794E-7],"parents":[2147483647],"right_children":[-1],"split_conditions":[9.45558E-7],"split_indices":[0],"split_type":[0],"sum_hessian":[2.81E2],"tree_param":{"num_deleted":"0","num_feature":"2","num_nodes":"1","size_leaf_vector":"0"}},{"base_weights":[3.1518598E-6],"categories":[],"categories_nodes":[],"categories_segments":[],"categories_sizes":[],"default_left":[0],"id":95,"left_children":[-1],"loss_changes":[8.9592794E-7],"parents":[2147483647],"right_children":[-1],"split_conditions":[9.45558E-7],"split_indices":[0],"split_type":[0],"sum_hessian":[2.81E2],"tree_param":{"num_deleted":"0","num_feature":"2","num_nodes":"1","size_leaf_vector":"0"}},{"base_weights":[3.1518598E-6],"categories":[],"categories_nodes":[],"categories_segments":[],"categories_sizes":[],"default_left":[0],"id":96,"left_children":[-1],"loss_changes":[8.9592794E-7],"parents":[2147483647],"right_children":[-1],"split_conditions":[9.45558E-7],"split_indices":[0],"split_type":[0],"sum_hessian":[2.81E2],"tree_param":{"num_deleted":"0","num_feature":"2","num_nodes":"1","size_leaf_vector":"0"}},{"base_weights":[3.1518598E-6],"categories":[],"categories_nodes":[],"categories_segments":[],"categories_sizes":[],"default_left":[0],"id":97,"left_children":[-1],"loss_changes":[8.9592794E-7],"parents":[2147483647],"right_children":[-1],"split_conditions":[9.45558E-7],"split_indices":[0],"split_type":[0],"sum_hessian":[2.81E2],"tree_param":{"num_deleted":"0","num_feature":"2","num_nodes":"1","size_leaf_vector":"0"}},{"base_weights":[3.1518598E-6],"categories":[],"categories_nodes":[],"categories_segments":[],"categories_sizes":[],"default_left":[0],"id":98,"left_children":[-1],"loss_changes":[8.9592794E-7],"parents":[2147483647],"right_children":[-1],"split_conditions":[9.45558E-7],"split_indices":[0],"split_type":[0],"sum_hessian":[2.81E2],"tree_param":{"num_deleted":"0","num_feature":"2","num_nodes":"1","size_leaf_vector":"0"}},{"base_weights":[3.1518598E-6],"categories":[],"categories_nodes":[],"categories_segments":[],"categories_sizes":[],"default_left":[0],"id":99,"left_children":[-1],"loss_changes":[8.9592794E-7],"parents":[2147483647],"right_children":[-1],"split_conditions":[9.45558E-7],"split_indices":[0],"split_type":[0],"sum_hessian":[2.81E2],"tree_param":{"num_deleted":"0","num_feature":"2","num_nodes":"1","size_leaf_vector":"0"}}]},"name":"gbtree"},"learner_model_param":{"base_score":"5E-1","boost_from_average":"1","num_class":"0","num_feature":"2","num_target":"1"},"objective":{"name":"reg:squarederror","reg_loss_param":{"scale_pos_weight":"1"}}},"version":[1,7,2]}