{"learner":{"attributes":{"best_iteration":"99","best_ntree_limit":"100","scikit_learn":"{\"n_estimators\": 100, \"objective\": \"reg:squarederror\", \"max_depth\": null, \"max_leaves\": null, \"max_bin\": null, \"grow_policy\": null, \"learning_rate\": null, \"verbosity\": null, \"booster\": null, \"tree_method\": null, \"gamma\": null, \"min_child_weight\": null, \"max_delta_step\": null, \"subsample\": null, \"sampling_method\": null, \"colsample_bytree\": null, \"colsample_bylevel\": null, \"colsample_bynode\": null, \"reg_alpha\": null, \"reg_lambda\": null, \"scale_pos_weight\": null, \"base_score\": null, \"missing\": NaN, \"num_parallel_tree\": null, \"random_state\": null, \"n_jobs\": null, \"monotone_constraints\": null, \"interaction_constraints\": null, \"importance_type\": null, \"gpu_id\": null, \"validate_parameters\": null, \"predictor\": null, \"enable_categorical\": false, \"feature_types\": null, \"max_cat_to_onehot\": null, \"max_cat_threshold\": null, \"eval_metric\": null, \"early_stopping_rounds\": null, \"callbacks\": null, \"_estimator_type\": \"regressor\"}"},"feature_names":[],"feature_types":[],"gradient_booster":{"model":{"gbtree_model_param":{"num_parallel_tree":"1","num_trees":"100","size_leaf_vector":"0"},"tree_info":[0,0,0,0,0,0,0,0,0,0,0,0,0,0,0,0,0,0,0,0,0,0,0,0,0,0,0,0,0,0,0,0,0,0,0,0,0,0,0,0,0,0,0,0,0,0,0,0,0,0,0,0,0,0,0,0,0,0,0,0,0,0,0,0,0,0,0,0,0,0,0,0,0,0,0,0,0,0,0,0,0,0,0,0,0,0,0,0,0,0,0,0,0,0,0,0,0,0,0,0],"trees":[{"base_weights":[-4.985015E-1],"categories":[],"categories_nodes":[],"categories_segments":[],"categories_sizes":[],"default_left":[0],"id":0,"left_children":[-1],"loss_changes":[0E0],"parents":[2147483647],"right_children":[-1],"split_conditions":[-1.4955045E-1],"split_indices":[0],"split_type":[0],"sum_hessian":[1E3],"tree_param":{"num_deleted":"0","num_feature":"7","num_nodes":"1","size_leaf_vector":"0"}},{"base_weights":[-3.4910047E-1],"categories":[],"categories_nodes":[],"categories_segments":[],"categories_sizes":[],"default_left":[0],"id":1,"left_children":[-1],"loss_changes":[0E0],"parents":[2147483647],"right_children":[-1],"split_conditions":[-1.04730144E-1],"split_indices":[0],"split_type":[0],"sum_hessian":[1E3],"tree_param":{"num_deleted":"0","num_feature":"7","num_nodes":"1","size_leaf_vector":"0"}},{"base_weights":[-2.4447495E-1,-1.6786195E-1,-2.4547021E-1,3.4244626E-3,-2.252428E-1,-1.8428956E-1,3.7714028E-1],"categories":[],"categories_nodes":[],"categories_segments":[],"categories_sizes":[],"default_left":[1,1,0,1,0,0,0],"id":2,"left_children":[1,3,-1,5,-1,-1,-1],"loss_changes":[3.5121918E-2,1.5802827E-1,0E0,4.2026153E-1,0E0,0E0,0E0],"parents":[2147483647,0,0,1,1,3,3],"right_children":[2,4,-1,6,-1,-1,-1],"split_conditions":[1.5E0,1.6E1,-7.364107E-2,1.45E1,-6.757284E-2,-5.528687E-2,1.1314209E-1],"split_indices":[4,3,0,3,0,0,0],"split_type":[0,0,0,0,0,0,0],"sum_hessian":[1E3,1.5E1,9.85E2,4E0,1.1E1,3E0,1E0],"tree_param":{"num_deleted":"0","num_feature":"7","num_nodes":"7","size_leaf_vector":"0"}},{"base_weights":[-1.7121573E-1,-1.1811072E-1,-1.7190382E-1,1.396817E-2,-1.6330102E-1,-1.4282441E-1,3.2056925E-1],"categories":[],"categories_nodes":[],"categories_segments":[],"categories_sizes":[],"default_left":[1,1,0,1,0,0,0],"id":3,"left_children":[1,3,-1,5,-1,-1,-1],"loss_changes":[1.6273499E-2,9.777999E-2,0E0,2.86149E-1,0E0,0E0,0E0],"parents":[2147483647,0,0,1,1,3,3],"right_children":[2,4,-1,6,-1,-1,-1],"split_conditions":[1.5E0,1.6E1,-5.157115E-2,1.45E1,-4.899031E-2,-4.2847324E-2,9.6170776E-2],"split_indices":[4,3,0,3,0,0,0],"split_type":[0,0,0,0,0,0,0],"sum_hessian":[1E3,1.5E1,9.85E2,4E0,1.1E1,3E0,1E0],"tree_param":{"num_deleted":"0","num_feature":"7","num_nodes":"7","size_leaf_vector":"0"}},{"base_weights":[-1.198982E-1,-8.240668E-2,-1.20384976E-1,2.0442406E-2,-1.1839324E-1,-1.10688925E-1,2.7248386E-1],"categories":[],"categories_nodes":[],"categories_segments":[],"categories_sizes":[],"default_left":[1,1,0,1,0,0,0],"id":4,"left_children":[1,3,-1,5,-1,-1,-1],"loss_changes":[8.348465E-3,6.1639205E-2,0E0,1.9541359E-1,0E0,0E0,0E0],"parents":[2147483647,0,0,1,1,3,3],"right_children":[2,4,-1,6,-1,-1,-1],"split_conditions":[1.5E0,1.6E1,-3.6115494E-2,1.45E1,-3.5517976E-2,-3.320668E-2,8.174516E-2],"split_indices":[4,3,0,3,0,0,0],"split_type":[0,0,0,0,0,0,0],"sum_hessian":[1E3,1.5E1,9.85E2,4E0,1.1E1,3E0,1E0],"tree_param":{"num_deleted":"0","num_feature":"7","num_nodes":"7","size_leaf_vector":"0"}},{"base_weights":[-8.395181E-2,-5.687089E-2,-8.4306106E-2,2.4017382E-2,-8.58351E-2,-8.5783914E-2,2.3161128E-1],"categories":[],"categories_nodes":[],"categories_segments":[],"categories_sizes":[],"default_left":[1,1,0,1,0,0,0],"id":5,"left_children":[1,3,-1,5,-1,-1,-1],"loss_changes":[4.8098564E-3,3.954737E-2,0E0,1.338389E-1,0E0,0E0,0E0],"parents":[2147483647,0,0,1,1,3,3],"right_children":[2,4,-1,6,-1,-1,-1],"split_conditions":[1.5E0,1.6E1,-2.5291832E-2,1.45E1,-2.575053E-2,-2.5735175E-2,6.9483384E-2],"split_indices":[4,3,0,3,0,0,0],"split_type":[0,0,0,0,0,0,0],"sum_hessian":[1E3,1.5E1,9.85E2,4E0,1.1E1,3E0,1E0],"tree_param":{"num_deleted":"0","num_feature":"7","num_nodes":"7","size_leaf_vector":"0"}},{"base_weights":[-5.877355E-2,-3.8684763E-2,-5.9039928E-2,2.556181E-2,-6.223044E-2,-6.648253E-2,1.9686958E-1],"categories":[],"categories_nodes":[],"categories_segments":[],"categories_sizes":[],"default_left":[1,1,0,1,0,0,0],"id":6,"left_children":[1,3,-1,5,-1,-1,-1],"loss_changes":[3.0725002E-3,2.5794387E-2,0E0,9.1927946E-2,0E0,0E0,0E0],"parents":[2147483647,0,0,1,1,3,3],"right_children":[2,4,-1,6,-1,-1,-1],"split_conditions":[1.5E0,1.6E1,-1.7711978E-2,1.45E1,-1.8669134E-2,-1.994476E-2,5.9060875E-2],"split_indices":[4,3,0,3,0,0,0],"split_type":[0,0,0,0,0,0,0],"sum_hessian":[1E3,1.5E1,9.85E2,4E0,1.1E1,3E0,1E0],"tree_param":{"num_deleted":"0","num_feature":"7","num_nodes":"7","size_leaf_vector":"0"}},{"base_weights":[-4.1138753E-2,-2.5801396E-2,-4.1345913E-2,-4.8286017E-2,1.9720638E-2,8.865989E-2,-3.691396E-2,-3.4349307E-2,1.6733915E-1],"categories":[],"categories_nodes":[],"categories_segments":[],"categories_sizes":[],"default_left":[1,1,0,0,1,1,0,0,0],"id":7,"left_children":[1,3,-1,-1,5,7,-1,-1,-1],"loss_changes":[2.1135807E-3,1.732896E-2,0E0,0E0,2.6698872E-2,3.4782805E-2,0E0,0E0,0E0],"parents":[2147483647,0,0,1,1,4,4,5,5],"right_children":[2,4,-1,-1,6,8,-1,-1,-1],"split_conditions":[1.5E0,2.4E1,-1.2403774E-2,-1.4485805E-2,7.35E1,2.85E1,-1.1074189E-2,-1.0304793E-2,5.0201748E-2],"split_indices":[4,0,0,0,2,2,0,0,0],"split_type":[0,0,0,0,0,0,0,0,0],"sum_hessian":[1E3,1.5E1,9.85E2,1E1,5E0,2E0,3E0,1E0,1E0],"tree_param":{"num_deleted":"0","num_feature":"7","num_nodes":"9","size_leaf_vector":"0"}},{"base_weights":[-2.8795196E-2,-1.7164918E-2,-2.8954718E-2,-3.51171E-2,1.8608235E-2,7.53609E-2,-2.8608322E-2,-2.919691E-2,1.4223826E-1],"categories":[],"categories_nodes":[],"categories_segments":[],"categories_sizes":[],"default_left":[1,1,0,0,1,1,0,0,0],"id":8,"left_children":[1,3,-1,-1,5,7,-1,-1,-1],"loss_changes":[1.3601184E-3,1.0928766E-2,0E0,0E0,1.8233942E-2,2.5130568E-2,0E0,0E0,0E0],"parents":[2147483647,0,0,1,1,4,4,5,5],"right_children":[2,4,-1,-1,6,8,-1,-1,-1],"split_conditions":[1.5E0,2.4E1,-8.686416E-3,-1.053513E-2,7.35E1,2.85E1,-8.582497E-3,-8.759074E-3,4.267148E-2],"split_indices":[4,0,0,0,2,2,0,0,0],"split_type":[0,0,0,0,0,0,0,0,0],"sum_hessian":[1E3,1.5E1,9.85E2,1E1,5E0,2E0,3E0,1E0,1E0],"tree_param":{"num_deleted":"0","num_feature":"7","num_nodes":"9","size_leaf_vector":"0"}},{"base_weights":[-2.0150535E-2,-1.109077E-2,-2.0277113E-2,-2.553971E-2,1.7247412E-2,6.4056754E-2,-2.2171449E-2,-2.4817374E-2,1.2090251E-1],"categories":[],"categories_nodes":[],"categories_segments":[],"categories_sizes":[],"default_left":[1,1,0,0,1,1,0,0,0],"id":9,"left_children":[1,3,-1,-1,5,7,-1,-1,-1],"loss_changes":[9.230077E-4,6.991801E-3,0E0,0E0,1.2491257E-2,1.8156834E-2,0E0,0E0,0E0],"parents":[2147483647,0,0,1,1,4,4,5,5],"right_children":[2,4,-1,-1,6,8,-1,-1,-1],"split_conditions":[1.5E0,2.4E1,-6.083134E-3,-7.661913E-3,7.35E1,2.85E1,-6.651435E-3,-7.4452125E-3,3.6270753E-2],"split_indices":[4,0,0,0,2,2,0,0,0],"split_type":[0,0,0,0,0,0,0,0,0],"sum_hessian":[1E3,1.5E1,9.85E2,1E1,5E0,2E0,3E0,1E0,1E0],"tree_param":{"num_deleted":"0","num_feature":"7","num_nodes":"9","size_leaf_vector":"0"}},{"base_weights":[-1.4096953E-2,-6.8565267E-3,-1.4200148E-2,-1.8574335E-2,1.5768876E-2,5.4448247E-2,-1.7182872E-2,-2.1094767E-2,1.0276714E-1],"categories":[],"categories_nodes":[],"categories_segments":[],"categories_sizes":[],"default_left":[1,1,0,0,1,1,0,0,0],"id":10,"left_children":[1,3,-1,-1,5,7,-1,-1,-1],"loss_changes":[6.505549E-4,4.534818E-3,0E0,0E0,8.582896E-3,1.3118315E-2,0E0,0E0,0E0],"parents":[2147483647,0,0,1,1,4,4,5,5],"right_children":[2,4,-1,-1,6,8,-1,-1,-1],"split_conditions":[1.5E0,2.4E1,-4.2600445E-3,-5.5723004E-3,7.35E1,2.85E1,-5.1548616E-3,-6.3284305E-3,3.0830143E-2],"split_indices":[4,0,0,0,2,2,0,0,0],"split_type":[0,0,0,0,0,0,0,0,0],"sum_hessian":[1E3,1.5E1,9.85E2,1E1,5E0,2E0,3E0,1E0,1E0],"tree_param":{"num_deleted":"0","num_feature":"7","num_nodes":"9","size_leaf_vector":"0"}},{"base_weights":[-9.858362E-3,-3.9386596E-3,-9.944424E-3,-1.3508607E-2,1.4262687E-2,-2.0295644E-2,-9.7453045E-3,4.628101E-2,-1.3316726E-2,-1.7930552E-2,8.735207E-2],"categories":[],"categories_nodes":[],"categories_segments":[],"categories_sizes":[],"default_left":[1,1,0,1,1,0,0,1,0,0,0],"id":11,"left_children":[1,3,-1,5,7,-1,-1,9,-1,-1,-1],"loss_changes":[4.708022E-4,2.979644E-3,0E0,8.3171064E-5,5.9145913E-3,0E0,0E0,9.47798E-3,0E0,0E0,0E0],"parents":[2147483647,0,0,1,1,3,3,4,4,7,7],"right_children":[2,4,-1,6,8,-1,-1,10,-1,-1,-1],"split_conditions":[1.5E0,2.4E1,-2.9833273E-3,1.35E1,7.35E1,-6.0886936E-3,-2.9235915E-3,2.85E1,-3.995018E-3,-5.379166E-3,2.6205622E-2],"split_indices":[4,0,0,3,2,0,0,2,0,0,0],"split_type":[0,0,0,0,0,0,0,0,0,0,0],"sum_hessian":[1E3,1.5E1,9.85E2,1E1,5E0,2E0,8E0,2E0,3E0,1E0,1E0],"tree_param":{"num_deleted":"0","num_feature":"7","num_nodes":"11","size_leaf_vector":"0"}},{"base_weights":[-6.8960222E-3,-2.2683637E-3,-6.9641224E-3,-1.0275324E-2,1.2789125E-2,-1.6236516E-2,-7.1465573E-3,3.9338864E-2,-1.0320462E-2,-1.5240969E-2,7.424927E-2],"categories":[],"categories_nodes":[],"categories_segments":[],"categories_sizes":[],"default_left":[1,1,0,1,1,0,0,1,0,0,0],"id":12,"left_children":[1,3,-1,5,7,-1,-1,9,-1,-1,-1],"loss_changes":[2.9966608E-4,2.0604478E-3,0E0,8.91278E-5,4.087317E-3,0E0,0E0,6.847843E-3,0E0,0E0,0E0],"parents":[2147483647,0,0,1,1,3,3,4,4,7,7],"right_children":[2,4,-1,6,8,-1,-1,10,-1,-1,-1],"split_conditions":[1.5E0,2.4E1,-2.0892369E-3,1.35E1,7.35E1,-4.870955E-3,-2.1439672E-3,2.85E1,-3.0961388E-3,-4.572291E-3,2.2274781E-2],"split_indices":[4,0,0,3,2,0,0,2,0,0,0],"split_type":[0,0,0,0,0,0,0,0,0,0,0],"sum_hessian":[1E3,1.5E1,9.85E2,1E1,5E0,2E0,8E0,2E0,3E0,1E0,1E0],"tree_param":{"num_deleted":"0","num_feature":"7","num_nodes":"11","size_leaf_vector":"0"}},{"base_weights":[-4.8217187E-3,-1.113391E-3,-4.8770043E-3,-7.8304475E-3,1.1386777E-2,-1.2989213E-2,-5.2408087E-3,3.343803E-2,-7.998358E-3,-1.2954824E-2,6.311187E-2],"categories":[],"categories_nodes":[],"categories_segments":[],"categories_sizes":[],"default_left":[1,1,0,1,1,0,0,1,0,0,0],"id":13,"left_children":[1,3,-1,5,7,-1,-1,9,-1,-1,-1],"loss_changes":[1.9979104E-4,1.4325929E-3,0E0,7.887877E-5,2.832249E-3,0E0,0E0,4.9475655E-3,0E0,0E0,0E0],"parents":[2147483647,0,0,1,1,3,3,4,4,7,7],"right_children":[2,4,-1,6,8,-1,-1,10,-1,-1,-1],"split_conditions":[1.5E0,2.4E1,-1.4631014E-3,1.35E1,7.35E1,-3.896764E-3,-1.5722427E-3,2.85E1,-2.3995077E-3,-3.8864473E-3,1.8933563E-2],"split_indices":[4,0,0,3,2,0,0,2,0,0,0],"split_type":[0,0,0,0,0,0,0,0,0,0,0],"sum_hessian":[1E3,1.5E1,9.85E2,1E1,5E0,2E0,8E0,2E0,3E0,1E0,1E0],"tree_param":{"num_deleted":"0","num_feature":"7","num_nodes":"11","size_leaf_vector":"0"}},{"base_weights":[-3.3694934E-3,-3.307094E-4,-3.4153871E-3,-5.9784953E-3,1.0078683E-2,-1.039137E-2,-3.8432595E-3,2.8422335E-2,-6.1987275E-3,-1.10116005E-2,5.3645104E-2],"categories":[],"categories_nodes":[],"categories_segments":[],"categories_sizes":[],"default_left":[1,1,0,1,1,0,0,1,0,0,0],"id":14,"left_children":[1,3,-1,5,7,-1,-1,9,-1,-1,-1],"loss_changes":[1.384709E-4,1.0008956E-3,0E0,6.371108E-5,1.967705E-3,0E0,0E0,3.574618E-3,0E0,0E0,0E0],"parents":[2147483647,0,0,1,1,3,3,4,4,7,7],"right_children":[2,4,-1,6,8,-1,-1,10,-1,-1,-1],"split_conditions":[1.5E0,2.4E1,-1.0246162E-3,1.35E1,7.35E1,-3.1174112E-3,-1.1529779E-3,2.85E1,-1.8596184E-3,-3.3034803E-3,1.6093532E-2],"split_indices":[4,0,0,3,2,0,0,2,0,0,0],"split_type":[0,0,0,0,0,0,0,0,0,0,0],"sum_hessian":[1E3,1.5E1,9.85E2,1E1,5E0,2E0,8E0,2E0,3E0,1E0,1E0],"tree_param":{"num_deleted":"0","num_feature":"7","num_nodes":"11","size_leaf_vector":"0"}},{"base_weights":[-2.3530156E-3,1.8475484E-4,-2.39181E-3,-4.573164E-3,8.876814E-3,-8.313096E-3,-2.8183903E-3,2.4158979E-2,-4.8040138E-3,-9.359861E-3,4.5598328E-2],"categories":[],"categories_nodes":[],"categories_segments":[],"categories_sizes":[],"default_left":[1,1,0,1,1,0,0,1,0,0,0],"id":15,"left_children":[1,3,-1,5,7,-1,-1,9,-1,-1,-1],"loss_changes":[9.899167E-5,7.0229283E-4,0E0,4.876053E-5,1.3704961E-3,0E0,0E0,2.58266E-3,0E0,0E0,0E0],"parents":[2147483647,0,0,1,1,3,3,4,4,7,7],"right_children":[2,4,-1,6,8,-1,-1,10,-1,-1,-1],"split_conditions":[1.5E0,2.4E1,-7.1754307E-4,1.35E1,7.35E1,-2.493929E-3,-8.455171E-4,2.85E1,-1.4412042E-3,-2.8079583E-3,1.3679499E-2],"split_indices":[4,0,0,3,2,0,0,2,0,0,0],"split_type":[0,0,0,0,0,0,0,0,0,0,0],"sum_hessian":[1E3,1.5E1,9.85E2,1E1,5E0,2E0,8E0,2E0,3E0,1E0,1E0],"tree_param":{"num_deleted":"0","num_feature":"7","num_nodes":"11","size_leaf_vector":"0"}},{"base_weights":[-1.6417429E-3,5.100086E-4,-1.6749947E-3,-3.5048006E-3,7.7854907E-3,-6.650477E-3,-2.0668197E-3,2.053513E-2,-3.7231108E-3,-7.955882E-3,3.8758576E-2],"categories":[],"categories_nodes":[],"categories_segments":[],"categories_sizes":[],"default_left":[1,1,0,1,1,0,0,1,0,0,0],"id":16,"left_children":[1,3,-1,5,7,-1,-1,9,-1,-1,-1],"loss_changes":[7.247552E-5,4.9464137E-4,0E0,3.6012323E-5,9.5683755E-4,0E0,0E0,1.8659718E-3,0E0,0E0,0E0],"parents":[2147483647,0,0,1,1,3,3,4,4,7,7],"right_children":[2,4,-1,6,8,-1,-1,10,-1,-1,-1],"split_conditions":[1.5E0,2.4E1,-5.024984E-4,1.35E1,7.35E1,-1.9951432E-3,-6.2004593E-4,2.85E1,-1.1169333E-3,-2.3867646E-3,1.16275735E-2],"split_indices":[4,0,0,3,2,0,0,2,0,0,0],"split_type":[0,0,0,0,0,0,0,0,0,0,0],"sum_hessian":[1E3,1.5E1,9.85E2,1E1,5E0,2E0,8E0,2E0,3E0,1E0,1E0],"tree_param":{"num_deleted":"0","num_feature":"7","num_nodes":"11","size_leaf_vector":"0"}},{"base_weights":[-1.1442188E-3,7.013001E-4,-1.173006E-3,-2.6911048E-3,6.803826E-3,-5.3203814E-3,-1.5156677E-3,1.7454866E-2,-2.8854108E-3,-6.7624995E-3,3.29448E-2],"categories":[],"categories_nodes":[],"categories_segments":[],"categories_sizes":[],"default_left":[1,1,0,1,1,0,0,1,0,0,0],"id":17,"left_children":[1,3,-1,5,7,-1,-1,9,-1,-1,-1],"loss_changes":[5.4002856E-5,3.4954562E-4,0E0,2.593211E-5,6.6956715E-4,0E0,0E0,1.3481653E-3,0E0,0E0,0E0],"parents":[2147483647,0,0,1,1,3,3,4,4,7,7],"right_children":[2,4,-1,6,8,-1,-1,10,-1,-1,-1],"split_conditions":[1.5E0,2.4E1,-3.519018E-4,1.35E1,7.35E1,-1.5961145E-3,-4.5470032E-4,2.85E1,-8.656233E-4,-2.02875E-3,9.88344E-3],"split_indices":[4,0,0,3,2,0,0,2,0,0,0],"split_type":[0,0,0,0,0,0,0,0,0,0,0],"sum_hessian":[1E3,1.5E1,9.85E2,1E1,5E0,2E0,8E0,2E0,3E0,1E0,1E0],"tree_param":{"num_deleted":"0","num_feature":"7","num_nodes":"11","size_leaf_vector":"0"}},{"base_weights":[-7.9637143E-4,7.995494E-4,-8.21461E-4,-2.070211E-3,5.9275185E-3,-4.256305E-3,-1.1114896E-3,1.2510737E-2,-4.8259464E-3,2.8003067E-2,-1.9877274E-3],"categories":[],"categories_nodes":[],"categories_segments":[],"categories_sizes":[],"default_left":[1,1,0,1,1,0,0,1,0,0,0],"id":18,"left_children":[1,3,-1,5,7,-1,-1,9,-1,-1,-1],"loss_changes":[4.0737912E-5,2.477279E-4,0E0,1.8323568E-5,4.851307E-4,0E0,0E0,9.541224E-4,6.575283E-7,0E0,0E0],"parents":[2147483647,0,0,1,1,3,3,4,4,7,7],"right_children":[2,4,-1,6,8,-1,-1,10,-1,-1,-1],"split_conditions":[1.5E0,2.4E1,-2.464383E-4,1.35E1,2.4E1,-1.2768914E-3,-3.334469E-4,7.35E1,-1.447784E-3,8.400921E-3,-5.963182E-4],"split_indices":[4,0,0,3,5,0,0,2,0,0,0],"split_type":[0,0,0,0,0,0,0,0,0,0,0],"sum_hessian":[1E3,1.5E1,9.85E2,1E1,5E0,2E0,8E0,3E0,2E0,1E0,2E0],"tree_param":{"num_deleted":"0","num_feature":"7","num_nodes":"11","size_leaf_vector":"0"}},{"base_weights":[-5.5296445E-4,8.5633976E-4,-5.7527266E-4,-5.0658993E-3,2.6126949E-3,2.3802608E-2,-1.136682E-3],"categories":[],"categories_nodes":[],"categories_segments":[],"categories_sizes":[],"default_left":[1,1,0,0,1,0,0],"id":19,"left_children":[1,3,-1,-1,5,-1,-1],"loss_changes":[3.1963136E-5,1.7966052E-4,0E0,0E0,1.0598926E-3,0E0,4.1104613E-7],"parents":[2147483647,0,0,1,1,4,4],"right_children":[2,4,-1,-1,6,-1,-1],"split_conditions":[1.5E0,1.45E1,-1.725818E-4,-1.5197699E-3,1.6E1,7.1407827E-3,-3.410046E-4],"split_indices":[4,3,0,0,3,0,0],"split_type":[0,0,0,0,0,0,0],"sum_hessian":[1E3,1.5E1,9.85E2,3E0,1.2E1,1E0,1.1E1],"tree_param":{"num_deleted":"0","num_feature":"7","num_nodes":"7","size_leaf_vector":"0"}},{"base_weights":[-3.8197276E-4,9.294401E-4,-4.028659E-4,-3.9260713E-3,2.3519483E-3,2.023223E-2,-8.2409446E-4,-5.119772E-4,-1.3203347E-3],"categories":[],"categories_nodes":[],"categories_segments":[],"categories_sizes":[],"default_left":[1,1,0,0,1,0,1,0,0],"id":20,"left_children":[1,3,-1,-1,5,-1,7,-1,-1],"loss_changes":[2.7801376E-5,1.1974601E-4,0E0,0E0,7.5492426E-4,0E0,1.1826414E-6,0E0,0E0],"parents":[2147483647,0,0,1,1,4,4,6,6],"right_children":[2,4,-1,-1,6,-1,8,-1,-1],"split_conditions":[1.5E0,1.45E1,-1.20859775E-4,-1.1778214E-3,1.6E1,6.0696695E-3,2.4E1,-1.5359317E-4,-3.9610043E-4],"split_indices":[4,3,0,0,3,0,0,0,0],"split_type":[0,0,0,0,0,0,0,0,0],"sum_hessian":[1E3,1.5E1,9.85E2,3E0,1.2E1,1E0,1.1E1,8E0,3E0],"tree_param":{"num_deleted":"0","num_feature":"7","num_nodes":"9","size_leaf_vector":"0"}},{"base_weights":[-2.6316385E-4,9.219932E-4,-2.8212872E-4,4.4447957E-3,-6.226739E-4,-3.0427056E-3,1.71974E-2],"categories":[],"categories_nodes":[],"categories_segments":[],"categories_sizes":[],"default_left":[1,1,0,1,0,0,0],"id":21,"left_children":[1,3,-1,5,-1,-1,-1],"loss_changes":[2.2758933E-5,8.9832574E-5,0E0,5.2975235E-4,8.0422933E-7,0E0,0E0],"parents":[2147483647,0,0,1,1,3,3],"right_children":[2,4,-1,6,-1,-1,-1],"split_conditions":[1.5E0,1.6E1,-8.463862E-5,1.45E1,-1.8680218E-4,-9.128117E-4,5.15922E-3],"split_indices":[4,3,0,3,0,0,0],"split_type":[0,0,0,0,0,0,0],"sum_hessian":[1E3,1.5E1,9.85E2,4E0,1.1E1,3E0,1E0],"tree_param":{"num_deleted":"0","num_feature":"7","num_nodes":"7","size_leaf_vector":"0"}},{"base_weights":[-1.8024366E-4,8.99122E-4,-1.9757592E-4,3.960643E-3,-4.5143857E-4,-2.358097E-3,1.4617801E-2,-2.0940356E-4,-8.831577E-4,-9.981085E-4,-3.2190308E-3],"categories":[],"categories_nodes":[],"categories_segments":[],"categories_sizes":[],"default_left":[1,1,0,1,1,1,0,0,0,0,0],"id":22,"left_children":[1,3,-1,5,7,9,-1,-1,-1,-1,-1],"loss_changes":[1.8904193E-5,6.794429E-5,0E0,3.7116924E-4,1.0689573E-6,1.4704983E-6,0E0,0E0,0E0,0E0,0E0],"parents":[2147483647,0,0,1,1,3,3,4,4,5,5],"right_children":[2,4,-1,6,8,10,-1,-1,-1,-1,-1],"split_conditions":[1.5E0,1.6E1,-5.9272777E-5,1.45E1,2.4E1,2.4E1,4.3853405E-3,-6.282107E-5,-2.6494733E-4,-2.9943258E-4,-9.657093E-4],"split_indices":[4,3,0,3,0,0,0,0,0,0,0],"split_type":[0,0,0,0,0,0,0,0,0,0,0],"sum_hessian":[1E3,1.5E1,9.85E2,4E0,1.1E1,3E0,1E0,8E0,3E0,2E0,1E0],"tree_param":{"num_deleted":"0","num_feature":"7","num_nodes":"11","size_leaf_vector":"0"}},{"base_weights":[-1.2344016E-4,8.039115E-4,-1.3836326E-4,3.3964873E-3,-3.4332104E-4,-1.9669533E-3,1.2425125E-2,-7.984869E-4,-2.7361761E-3],"categories":[],"categories_nodes":[],"categories_segments":[],"categories_sizes":[],"default_left":[1,1,0,1,0,1,0,0,0],"id":23,"left_children":[1,3,-1,5,-1,7,-1,-1,-1],"loss_changes":[1.3964041E-5,4.8754682E-5,0E0,2.6656245E-4,6.716733E-7,1.4104444E-6,0E0,0E0,0E0],"parents":[2147483647,0,0,1,1,3,3,5,5],"right_children":[2,4,-1,6,-1,8,-1,-1,-1],"split_conditions":[1.5E0,1.6E1,-4.150898E-5,1.45E1,-1.0299632E-4,2.4E1,3.7275376E-3,-2.3954608E-4,-8.208529E-4],"split_indices":[4,3,0,3,0,0,0,0,0],"split_type":[0,0,0,0,0,0,0,0,0],"sum_hessian":[1E3,1.5E1,9.85E2,4E0,1.1E1,3E0,1E0,2E0,1E0],"tree_param":{"num_deleted":"0","num_feature":"7","num_nodes":"9","size_leaf_vector":"0"}},{"base_weights":[-8.388801E-5,7.2299584E-4,-9.689638E-5,2.9109651E-3,-2.4890775E-4,-1.641967E-3,1.0561347E-2,-6.387895E-4,-2.3257497E-3],"categories":[],"categories_nodes":[],"categories_segments":[],"categories_sizes":[],"default_left":[1,1,0,1,0,1,0,0,0],"id":24,"left_children":[1,3,-1,5,-1,7,-1,-1,-1],"loss_changes":[1.0576796E-5,3.4748486E-5,0E0,1.9149974E-4,7.6591397E-7,1.2581577E-6,0E0,0E0,0E0],"parents":[2147483647,0,0,1,1,3,3,5,5],"right_children":[2,4,-1,6,-1,8,-1,-1,-1],"split_conditions":[1.5E0,1.6E1,-2.9068915E-5,1.45E1,-7.467232E-5,2.4E1,3.1684043E-3,-1.9163686E-4,-6.977249E-4],"split_indices":[4,3,0,3,0,0,0,0,0],"split_type":[0,0,0,0,0,0,0,0,0],"sum_hessian":[1E3,1.5E1,9.85E2,4E0,1.1E1,3E0,1E0,2E0,1E0],"tree_param":{"num_deleted":"0","num_feature":"7","num_nodes":"9","size_leaf_vector":"0"}},{"base_weights":[-5.6548477E-5,6.438702E-4,-6.785695E-5,2.4934842E-3,-1.8045811E-4,-1.3717173E-3,8.977145E-3,-5.110316E-4,-1.9768872E-3],"categories":[],"categories_nodes":[],"categories_segments":[],"categories_sizes":[],"default_left":[1,1,0,1,0,1,0,0,0],"id":25,"left_children":[1,3,-1,5,-1,7,-1,-1,-1],"loss_changes":[7.972274E-6,2.4844994E-5,0E0,1.3761739E-4,8.246568E-7,1.0731928E-6,0E0,0E0,0E0],"parents":[2147483647,0,0,1,1,3,3,5,5],"right_children":[2,4,-1,6,-1,8,-1,-1,-1],"split_conditions":[1.5E0,1.6E1,-2.0357085E-5,1.45E1,-5.4137436E-5,2.4E1,2.6931437E-3,-1.5330949E-4,-5.930662E-4],"split_indices":[4,3,0,3,0,0,0,0,0],"split_type":[0,0,0,0,0,0,0,0,0],"sum_hessian":[1E3,1.5E1,9.85E2,4E0,1.1E1,3E0,1E0,2E0,1E0],"tree_param":{"num_deleted":"0","num_feature":"7","num_nodes":"9","size_leaf_vector":"0"}},{"base_weights":[-3.7713504E-5,5.6900026E-4,-4.752051E-5,2.1347979E-3,-1.3083212E-4,-1.146796E-3,7.6305866E-3],"categories":[],"categories_nodes":[],"categories_segments":[],"categories_sizes":[],"default_left":[1,1,0,1,0,0,0],"id":26,"left_children":[1,3,-1,5,-1,-1,-1],"loss_changes":[5.9830336E-6,1.7812034E-5,0E0,9.8925455E-5,8.622091E-7,8.880302E-7,0E0],"parents":[2147483647,0,0,1,1,3,3],"right_children":[2,4,-1,6,-1,-1,-1],"split_conditions":[1.5E0,1.6E1,-1.4256153E-5,1.45E1,-3.9249637E-5,-3.4403882E-4,2.289176E-3],"split_indices":[4,3,0,3,0,0,0],"split_type":[0,0,0,0,0,0,0],"sum_hessian":[1E3,1.5E1,9.85E2,4E0,1.1E1,3E0,1E0],"tree_param":{"num_deleted":"0","num_feature":"7","num_nodes":"7","size_leaf_vector":"0"}},{"base_weights":[-2.4509713E-5,5.1741814E-4,-3.3278815E-5,1.8833859E-3,-9.485329E-5,-8.8876684E-4,6.4859986E-3,-1.7946605E-4,-1.5083347E-3],"categories":[],"categories_nodes":[],"categories_segments":[],"categories_sizes":[],"default_left":[1,1,0,1,0,1,0,0,0],"id":27,"left_children":[1,3,-1,5,-1,7,-1,-1,-1],"loss_changes":[4.774193E-6,1.3560134E-5,0E0,6.956027E-5,8.867871E-7,1.487145E-6,0E0,0E0,0E0],"parents":[2147483647,0,0,1,1,3,3,5,5],"right_children":[2,4,-1,6,-1,8,-1,-1,-1],"split_conditions":[1.5E0,1.6E1,-9.983645E-6,1.45E1,-2.8455988E-5,2.4E1,1.9457997E-3,-5.3839816E-5,-4.5250042E-4],"split_indices":[4,3,0,3,0,0,0,0,0],"split_type":[0,0,0,0,0,0,0,0,0],"sum_hessian":[1E3,1.5E1,9.85E2,4E0,1.1E1,3E0,1E0,2E0,1E0],"tree_param":{"num_deleted":"0","num_feature":"7","num_nodes":"9","size_leaf_vector":"0"}},{"base_weights":[-1.5757172E-5,4.503808E-4,-2.3305296E-5,1.6062632E-3,-6.8768626E-5,-7.487219E-4,5.513102E-3,-1.4357285E-4,-1.2820845E-3],"categories":[],"categories_nodes":[],"categories_segments":[],"categories_sizes":[],"default_left":[1,1,0,1,0,1,0,0,0],"id":28,"left_children":[1,3,-1,5,-1,7,-1,-1,-1],"loss_changes":[3.532482E-6,9.711673E-6,0E0,5.0130515E-5,9.0321487E-7,1.1069831E-6,0E0,0E0,0E0],"parents":[2147483647,0,0,1,1,3,3,5,5],"right_children":[2,4,-1,6,-1,8,-1,-1,-1],"split_conditions":[1.5E0,1.6E1,-6.991589E-6,1.45E1,-2.0630589E-5,2.4E1,1.6539306E-3,-4.3071857E-5,-3.8462537E-4],"split_indices":[4,3,0,3,0,0,0,0,0],"split_type":[0,0,0,0,0,0,0,0,0],"sum_hessian":[1E3,1.5E1,9.85E2,4E0,1.1E1,3E0,1E0,2E0,1E0],"tree_param":{"num_deleted":"0","num_feature":"7","num_nodes":"9","size_leaf_vector":"0"}},{"base_weights":[-9.8325845E-6,3.9061802E-4,-1.6320797E-5,1.3696351E-3,-4.985726E-5,-6.310296E-4,4.686147E-3],"categories":[],"categories_nodes":[],"categories_segments":[],"categories_sizes":[],"default_left":[1,1,0,1,0,0,0],"id":29,"left_children":[1,3,-1,5,-1,-1,-1],"loss_changes":[2.607182E-6,6.96801E-6,0E0,3.6133242E-5,9.143936E-7,8.2198926E-7,0E0],"parents":[2147483647,0,0,1,1,3,3],"right_children":[2,4,-1,6,-1,-1,-1],"split_conditions":[1.5E0,1.6E1,-4.8962393E-6,1.45E1,-1.4957178E-5,-1.8930889E-4,1.4058441E-3],"split_indices":[4,3,0,3,0,0,0],"split_type":[0,0,0,0,0,0,0],"sum_hessian":[1E3,1.5E1,9.85E2,4E0,1.1E1,3E0,1E0],"tree_param":{"num_deleted":"0","num_feature":"7","num_nodes":"7","size_leaf_vector":"0"}},{"base_weights":[-5.687314E-6,3.485318E-4,-1.14295235E-5,1.2020534E-3,-3.6146517E-5,-4.8904796E-4,3.9832294E-3,1.1347661E-5,-9.951175E-4],"categories":[],"categories_nodes":[],"categories_segments":[],"categories_sizes":[],"default_left":[1,1,0,1,0,1,0,0,0],"id":30,"left_children":[1,3,-1,5,-1,7,-1,-1,-1],"loss_changes":[2.0400178E-6,5.29675E-6,0E0,2.5464244E-5,9.221137E-7,1.024232E-6,0E0,0E0,0E0],"parents":[2147483647,0,0,1,1,3,3,5,5],"right_children":[2,4,-1,6,-1,8,-1,-1,-1],"split_conditions":[1.5E0,1.6E1,-3.428857E-6,1.45E1,-1.0843955E-5,2.4E1,1.1949688E-3,3.4042985E-6,-2.9853525E-4],"split_indices":[4,3,0,3,0,0,0,0,0],"split_type":[0,0,0,0,0,0,0,0,0],"sum_hessian":[1E3,1.5E1,9.85E2,4E0,1.1E1,3E0,1E0,2E0,1E0],"tree_param":{"num_deleted":"0","num_feature":"7","num_nodes":"9","size_leaf_vector":"0"}},{"base_weights":[-3.0964247E-6,2.995353E-4,-8.004144E-6,1.0214079E-3,-2.6206224E-5,-4.1611632E-4,3.3857524E-3],"categories":[],"categories_nodes":[],"categories_segments":[],"categories_sizes":[],"default_left":[1,1,0,1,0,0,0],"id":31,"left_children":[1,3,-1,5,-1,-1,-1],"loss_changes":[1.4891143E-6,3.7890695E-6,0E0,1.840288E-5,9.2750867E-7,7.3856E-7,0E0],"parents":[2147483647,0,0,1,1,3,3],"right_children":[2,4,-1,6,-1,-1,-1],"split_conditions":[1.5E0,1.6E1,-2.4012431E-6,1.45E1,-7.861868E-6,-1.248349E-4,1.0157258E-3],"split_indices":[4,3,0,3,0,0,0],"split_type":[0,0,0,0,0,0,0],"sum_hessian":[1E3,1.5E1,9.85E2,4E0,1.1E1,3E0,1E0],"tree_param":{"num_deleted":"0","num_feature":"7","num_nodes":"7","size_leaf_vector":"0"}},{"base_weights":[-1.2877462E-6,2.648642E-4,-5.605336E-6,8.931643E-4,-1.8999513E-5,-3.2249014E-4,2.877891E-3],"categories":[],"categories_nodes":[],"categories_segments":[],"categories_sizes":[],"default_left":[1,1,0,1,0,0,0],"id":32,"left_children":[1,3,-1,5,-1,-1,-1],"loss_changes":[1.1517687E-6,2.8705954E-6,0E0,1.2991801E-5,9.313138E-7,8.3709165E-7,0E0],"parents":[2147483647,0,0,1,1,3,3],"right_children":[2,4,-1,6,-1,-1,-1],"split_conditions":[1.5E0,1.6E1,-1.6816008E-6,1.45E1,-5.6998542E-6,-9.674705E-5,8.6336734E-4],"split_indices":[4,3,0,3,0,0,0],"split_type":[0,0,0,0,0,0,0],"sum_hessian":[1E3,1.5E1,9.85E2,4E0,1.1E1,3E0,1E0],"tree_param":{"num_deleted":"0","num_feature":"7","num_nodes":"7","size_leaf_vector":"0"}},{"base_weights":[-1.4294791E-7],"categories":[],"categories_nodes":[],"categories_segments":[],"categories_sizes":[],"default_left":[0],"id":33,"left_children":[-1],"loss_changes":[8.8351436E-7],"parents":[2147483647],"right_children":[-1],"split_conditions":[-4.2884373E-8],"split_indices":[0],"split_type":[0],"sum_hessian":[1E3],"tree_param":{"num_deleted":"0","num_feature":"7","num_nodes":"1","size_leaf_vector":"0"}},{"base_weights":[-1.0008957E-7],"categories":[],"categories_nodes":[],"categories_segments":[],"categories_sizes":[],"default_left":[0],"id":34,"left_children":[-1],"loss_changes":[8.8350254E-7],"parents":[2147483647],"right_children":[-1],"split_conditions":[-3.002687E-8],"split_indices":[0],"split_type":[0],"sum_hessian":[1E3],"tree_param":{"num_deleted":"0","num_feature":"7","num_nodes":"1","size_leaf_vector":"0"}},{"base_weights":[-7.0063095E-8],"categories":[],"categories_nodes":[],"categories_segments":[],"categories_sizes":[],"default_left":[0],"id":35,"left_children":[-1],"loss_changes":[8.8350254E-7],"parents":[2147483647],"right_children":[-1],"split_conditions":[-2.1018929E-8],"split_indices":[0],"split_type":[0],"sum_hessian":[1E3],"tree_param":{"num_deleted":"0","num_feature":"7","num_nodes":"1","size_leaf_vector":"0"}},{"base_weights":[-4.9086232E-8],"categories":[],"categories_nodes":[],"categories_segments":[],"categories_sizes":[],"default_left":[0],"id":36,"left_children":[-1],"loss_changes":[8.834831E-7],"parents":[2147483647],"right_children":[-1],"split_conditions":[-1.472587E-8],"split_indices":[0],"split_type":[0],"sum_hessian":[1E3],"tree_param":{"num_deleted":"0","num_feature":"7","num_nodes":"1","size_leaf_vector":"0"}},{"base_weights":[-3.4389622E-8],"categories":[],"categories_nodes":[],"categories_segments":[],"categories_sizes":[],"default_left":[0],"id":37,"left_children":[-1],"loss_changes":[8.834694E-7],"parents":[2147483647],"right_children":[-1],"split_conditions":[-1.0316887E-8],"split_indices":[0],"split_type":[0],"sum_hessian":[1E3],"tree_param":{"num_deleted":"0","num_feature":"7","num_nodes":"1","size_leaf_vector":"0"}},{"base_weights":[-2.4093362E-8],"categories":[],"categories_nodes":[],"categories_segments":[],"categories_sizes":[],"default_left":[0],"id":38,"left_children":[-1],"loss_changes":[8.834599E-7],"parents":[2147483647],"right_children":[-1],"split_conditions":[-7.228009E-9],"split_indices":[0],"split_type":[0],"sum_hessian":[1E3],"tree_param":{"num_deleted":"0","num_feature":"7","num_nodes":"1","size_leaf_vector":"0"}},{"base_weights":[-1.687981E-8],"categories":[],"categories_nodes":[],"categories_segments":[],"categories_sizes":[],"default_left":[0],"id":39,"left_children":[-1],"loss_changes":[8.834532E-7],"parents":[2147483647],"right_children":[-1],"split_conditions":[-5.063943E-9],"split_indices":[0],"split_type":[0],"sum_hessian":[1E3],"tree_param":{"num_deleted":"0","num_feature":"7","num_nodes":"1","size_leaf_vector":"0"}},{"base_weights":[-1.1826144E-8],"categories":[],"categories_nodes":[],"categories_segments":[],"categories_sizes":[],"default_left":[0],"id":40,"left_children":[-1],"loss_changes":[8.8344854E-7],"parents":[2147483647],"right_children":[-1],"split_conditions":[-3.5478431E-9],"split_indices":[0],"split_type":[0],"sum_hessian":[1E3],"tree_param":{"num_deleted":"0","num_feature":"7","num_nodes":"1","size_leaf_vector":"0"}},{"base_weights":[-8.2853155E-9],"categories":[],"categories_nodes":[],"categories_segments":[],"categories_sizes":[],"default_left":[0],"id":41,"left_children":[-1],"loss_changes":[8.8344524E-7],"parents":[2147483647],"right_children":[-1],"split_conditions":[-2.4855948E-9],"split_indices":[0],"split_type":[0],"sum_hessian":[1E3],"tree_param":{"num_deleted":"0","num_feature":"7","num_nodes":"1","size_leaf_vector":"0"}},{"base_weights":[-5.8046123E-9],"categories":[],"categories_nodes":[],"categories_segments":[],"categories_sizes":[],"default_left":[0],"id":42,"left_children":[-1],"loss_changes":[8.834429E-7],"parents":[2147483647],"right_children":[-1],"split_conditions":[-1.7413838E-9],"split_indices":[0],"split_type":[0],"sum_hessian":[1E3],"tree_param":{"num_deleted":"0","num_feature":"7","num_nodes":"1","size_leaf_vector":"0"}},{"base_weights":[-4.0665746E-9],"categories":[],"categories_nodes":[],"categories_segments":[],"categories_sizes":[],"default_left":[0],"id":43,"left_children":[-1],"loss_changes":[8.834414E-7],"parents":[2147483647],"right_children":[-1],"split_conditions":[-1.2199725E-9],"split_indices":[0],"split_type":[0],"sum_hessian":[1E3],"tree_param":{"num_deleted":"0","num_feature":"7","num_nodes":"1","size_leaf_vector":"0"}},{"base_weights":[-2.849178E-9],"categories":[],"categories_nodes":[],"categories_segments":[],"categories_sizes":[],"default_left":[0],"id":44,"left_children":[-1],"loss_changes":[8.8344024E-7],"parents":[2147483647],"right_children":[-1],"split_conditions":[-8.5475343E-10],"split_indices":[0],"split_type":[0],"sum_hessian":[1E3],"tree_param":{"num_deleted":"0","num_feature":"7","num_nodes":"1","size_leaf_vector":"0"}},{"base_weights":[-1.9961521E-9],"categories":[],"categories_nodes":[],"categories_segments":[],"categories_sizes":[],"default_left":[0],"id":45,"left_children":[-1],"loss_changes":[8.834394E-7],"parents":[2147483647],"right_children":[-1],"split_conditions":[-5.9884564E-10],"split_indices":[0],"split_type":[0],"sum_hessian":[1E3],"tree_param":{"num_deleted":"0","num_feature":"7","num_nodes":"1","size_leaf_vector":"0"}},{"base_weights":[-1.3985201E-9],"categories":[],"categories_nodes":[],"categories_segments":[],"categories_sizes":[],"default_left":[0],"id":46,"left_children":[-1],"loss_changes":[8.834389E-7],"parents":[2147483647],"right_children":[-1],"split_conditions":[-4.1955603E-10],"split_indices":[0],"split_type":[0],"sum_hessian":[1E3],"tree_param":{"num_deleted":"0","num_feature":"7","num_nodes":"1","size_leaf_vector":"0"}},{"base_weights":[-9.79807E-10],"categories":[],"categories_nodes":[],"categories_segments":[],"categories_sizes":[],"default_left":[0],"id":47,"left_children":[-1],"loss_changes":[8.834385E-7],"parents":[2147483647],"right_children":[-1],"split_conditions":[-2.9394212E-10],"split_indices":[0],"split_type":[0],"sum_hessian":[1E3],"tree_param":{"num_deleted":"0","num_feature":"7","num_nodes":"1","size_leaf_vector":"0"}},{"base_weights":[-6.8638073E-10],"categories":[],"categories_nodes":[],"categories_segments":[],"categories_sizes":[],"default_left":[0],"id":48,"left_children":[-1],"loss_changes":[8.834382E-7],"parents":[2147483647],"right_children":[-1],"split_conditions":[-2.0591423E-10],"split_indices":[0],"split_type":[0],"sum_hessian":[1E3],"tree_param":{"num_deleted":"0","num_feature":"7","num_nodes":"1","size_leaf_vector":"0"}},{"base_weights":[-4.807345E-10],"categories":[],"categories_nodes":[],"categories_segments":[],"categories_sizes":[],"default_left":[0],"id":49,"left_children":[-1],"loss_changes":[8.83438E-7],"parents":[2147483647],"right_children":[-1],"split_conditions":[-1.4422036E-10],"split_indices":[0],"split_type":[0],"sum_hessian":[1E3],"tree_param":{"num_deleted":"0","num_feature":"7","num_nodes":"1","size_leaf_vector":"0"}},{"base_weights":[-3.3693667E-10],"categories":[],"categories_nodes":[],"categories_segments":[],"categories_sizes":[],"default_left":[0],"id":50,"left_children":[-1],"loss_changes":[8.8343785E-7],"parents":[2147483647],"right_children":[-1],"split_conditions":[-1.01081005E-10],"split_indices":[0],"split_type":[0],"sum_hessian":[1E3],"tree_param":{"num_deleted":"0","num_feature":"7","num_nodes":"1","size_leaf_vector":"0"}},{"base_weights":[-2.359053E-10],"categories":[],"categories_nodes":[],"categories_segments":[],"categories_sizes":[],"default_left":[0],"id":51,"left_children":[-1],"loss_changes":[8.834378E-7],"parents":[2147483647],"right_children":[-1],"split_conditions":[-7.077159E-11],"split_indices":[0],"split_type":[0],"sum_hessian":[1E3],"tree_param":{"num_deleted":"0","num_feature":"7","num_nodes":"1","size_leaf_vector":"0"}},{"base_weights":[-1.6529203E-10],"categories":[],"categories_nodes":[],"categories_segments":[],"categories_sizes":[],"default_left":[0],"id":52,"left_children":[-1],"loss_changes":[8.834378E-7],"parents":[2147483647],"right_children":[-1],"split_conditions":[-4.9587612E-11],"split_indices":[0],"split_type":[0],"sum_hessian":[1E3],"tree_param":{"num_deleted":"0","num_feature":"7","num_nodes":"1","size_leaf_vector":"0"}},{"base_weights":[-1.15914466E-10],"categories":[],"categories_nodes":[],"categories_segments":[],"categories_sizes":[],"default_left":[0],"id":53,"left_children":[-1],"loss_changes":[8.834377E-7],"parents":[2147483647],"right_children":[-1],"split_conditions":[-3.477434E-11],"split_indices":[0],"split_type":[0],"sum_hessian":[1E3],"tree_param":{"num_deleted":"0","num_feature":"7","num_nodes":"1","size_leaf_vector":"0"}},{"base_weights":[-8.124077E-11],"categories":[],"categories_nodes":[],"categories_segments":[],"categories_sizes":[],"default_left":[0],"id":54,"left_children":[-1],"loss_changes":[8.834376E-7],"parents":[2147483647],"right_children":[-1],"split_conditions":[-2.4372232E-11],"split_indices":[0],"split_type":[0],"sum_hessian":[1E3],"tree_param":{"num_deleted":"0","num_feature":"7","num_nodes":"1","size_leaf_vector":"0"}},{"base_weights":[-5.6985385E-11],"categories":[],"categories_nodes":[],"categories_segments":[],"categories_sizes":[],"default_left":[0],"id":55,"left_children":[-1],"loss_changes":[8.834376E-7],"parents":[2147483647],"right_children":[-1],"split_conditions":[-1.7095617E-11],"split_indices":[0],"split_type":[0],"sum_hessian":[1E3],"tree_param":{"num_deleted":"0","num_feature":"7","num_nodes":"1","size_leaf_vector":"0"}},{"base_weights":[-4.00423E-11],"categories":[],"categories_nodes":[],"categories_segments":[],"categories_sizes":[],"default_left":[0],"id":56,"left_children":[-1],"loss_changes":[8.834375E-7],"parents":[2147483647],"right_children":[-1],"split_conditions":[-1.201269E-11],"split_indices":[0],"split_type":[0],"sum_hessian":[1E3],"tree_param":{"num_deleted":"0","num_feature":"7","num_nodes":"1","size_leaf_vector":"0"}},{"base_weights":[-2.8026928E-11],"categories":[],"categories_nodes":[],"categories_segments":[],"categories_sizes":[],"default_left":[0],"id":57,"left_children":[-1],"loss_changes":[8.834375E-7],"parents":[2147483647],"right_children":[-1],"split_conditions":[-8.408079E-12],"split_indices":[0],"split_type":[0],"sum_hessian":[1E3],"tree_param":{"num_deleted":"0","num_feature":"7","num_nodes":"1","size_leaf_vector":"0"}},{"base_weights":[-1.9595022E-11],"categories":[],"categories_nodes":[],"categories_segments":[],"categories_sizes":[],"default_left":[0],"id":58,"left_children":[-1],"loss_changes":[8.8343756E-7],"parents":[2147483647],"right_children":[-1],"split_conditions":[-5.878507E-12],"split_indices":[0],"split_type":[0],"sum_hessian":[1E3],"tree_param":{"num_deleted":"0","num_feature":"7","num_nodes":"1","size_leaf_vector":"0"}},{"base_weights":[-1.3772349E-11],"categories":[],"categories_nodes":[],"categories_segments":[],"categories_sizes":[],"default_left":[0],"id":59,"left_children":[-1],"loss_changes":[8.834375E-7],"parents":[2147483647],"right_children":[-1],"split_conditions":[-4.131705E-12],"split_indices":[0],"split_type":[0],"sum_hessian":[1E3],"tree_param":{"num_deleted":"0","num_feature":"7","num_nodes":"1","size_leaf_vector":"0"}},{"base_weights":[-9.7404975E-12],"categories":[],"categories_nodes":[],"categories_segments":[],"categories_sizes":[],"default_left":[0],"id":60,"left_children":[-1],"loss_changes":[8.8343745E-7],"parents":[2147483647],"right_children":[-1],"split_conditions":[-2.9221493E-12],"split_indices":[0],"split_type":[0],"sum_hessian":[1E3],"tree_param":{"num_deleted":"0","num_feature":"7","num_nodes":"1","size_leaf_vector":"0"}},{"base_weights":[-6.8291605E-12],"categories":[],"categories_nodes":[],"categories_segments":[],"categories_sizes":[],"default_left":[0],"id":61,"left_children":[-1],"loss_changes":[8.8343745E-7],"parents":[2147483647],"right_children":[-1],"split_conditions":[-2.0487483E-12],"split_indices":[0],"split_type":[0],"sum_hessian":[1E3],"tree_param":{"num_deleted":"0","num_feature":"7","num_nodes":"1","size_leaf_vector":"0"}},{"base_weights":[-4.8136894E-12],"categories":[],"categories_nodes":[],"categories_segments":[],"categories_sizes":[],"default_left":[0],"id":62,"left_children":[-1],"loss_changes":[8.8343745E-7],"parents":[2147483647],"right_children":[-1],"split_conditions":[-1.4441069E-12],"split_indices":[0],"split_type":[0],"sum_hessian":[1E3],"tree_param":{"num_deleted":"0","num_feature":"7","num_nodes":"1","size_leaf_vector":"0"}},{"base_weights":[-3.4694361E-12],"categories":[],"categories_nodes":[],"categories_segments":[],"categories_sizes":[],"default_left":[0],"id":63,"left_children":[-1],"loss_changes":[8.8343745E-7],"parents":[2147483647],"right_children":[-1],"split_conditions":[-1.0408308E-12],"split_indices":[0],"split_type":[0],"sum_hessian":[1E3],"tree_param":{"num_deleted":"0","num_feature":"7","num_nodes":"1","size_leaf_vector":"0"}},{"base_weights":[-2.3498308E-12],"categories":[],"categories_nodes":[],"categories_segments":[],"categories_sizes":[],"default_left":[0],"id":64,"left_children":[-1],"loss_changes":[8.8343745E-7],"parents":[2147483647],"right_children":[-1],"split_conditions":[-7.049493E-13],"split_indices":[0],"split_type":[0],"sum_hessian":[1E3],"tree_param":{"num_deleted":"0","num_feature":"7","num_nodes":"1","size_leaf_vector":"0"}},{"base_weights":[-1.6777043E-12],"categories":[],"categories_nodes":[],"categories_segments":[],"categories_sizes":[],"default_left":[0],"id":65,"left_children":[-1],"loss_changes":[8.834374E-7],"parents":[2147483647],"right_children":[-1],"split_conditions":[-5.033113E-13],"split_indices":[0],"split_type":[0],"sum_hessian":[1E3],"tree_param":{"num_deleted":"0","num_feature":"7","num_nodes":"1","size_leaf_vector":"0"}},{"base_weights":[-1.229317E-12],"categories":[],"categories_nodes":[],"categories_segments":[],"categories_sizes":[],"default_left":[0],"id":66,"left_children":[-1],"loss_changes":[8.834374E-7],"parents":[2147483647],"right_children":[-1],"split_conditions":[-3.687951E-13],"split_indices":[0],"split_type":[0],"sum_hessian":[1E3],"tree_param":{"num_deleted":"0","num_feature":"7","num_nodes":"1","size_leaf_vector":"0"}},{"base_weights":[-7.8183835E-13],"categories":[],"categories_nodes":[],"categories_segments":[],"categories_sizes":[],"default_left":[0],"id":67,"left_children":[-1],"loss_changes":[8.834374E-7],"parents":[2147483647],"right_children":[-1],"split_conditions":[-2.3455153E-13],"split_indices":[0],"split_type":[0],"sum_hessian":[1E3],"tree_param":{"num_deleted":"0","num_feature":"7","num_nodes":"1","size_leaf_vector":"0"}},{"base_weights":[-5.5809903E-13],"categories":[],"categories_nodes":[],"categories_segments":[],"categories_sizes":[],"default_left":[0],"id":68,"left_children":[-1],"loss_changes":[8.834374E-7],"parents":[2147483647],"right_children":[-1],"split_conditions":[-1.6742971E-13],"split_indices":[0],"split_type":[0],"sum_hessian":[1E3],"tree_param":{"num_deleted":"0","num_feature":"7","num_nodes":"1","size_leaf_vector":"0"}},{"base_weights":[-3.3435968E-13],"categories":[],"categories_nodes":[],"categories_segments":[],"categories_sizes":[],"default_left":[0],"id":69,"left_children":[-1],"loss_changes":[8.834374E-7],"parents":[2147483647],"right_children":[-1],"split_conditions":[-1.0030791E-13],"split_indices":[0],"split_type":[0],"sum_hessian":[1E3],"tree_param":{"num_deleted":"0","num_feature":"7","num_nodes":"1","size_leaf_vector":"0"}},{"base_weights":[-3.3435968E-13],"categories":[],"categories_nodes":[],"categories_segments":[],"categories_sizes":[],"default_left":[0],"id":70,"left_children":[-1],"loss_changes":[8.834374E-7],"parents":[2147483647],"right_children":[-1],"split_conditions":[-1.0030791E-13],"split_indices":[0],"split_type":[0],"sum_hessian":[1E3],"tree_param":{"num_deleted":"0","num_feature":"7","num_nodes":"1","size_leaf_vector":"0"}},{"base_weights":[-3.3435968E-13],"categories":[],"categories_nodes":[],"categories_segments":[],"categories_sizes":[],"default_left":[0],"id":71,"left_children":[-1],"loss_changes":[8.834374E-7],"parents":[2147483647],"right_children":[-1],"split_conditions":[-1.0030791E-13],"split_indices":[0],"split_type":[0],"sum_hessian":[1E3],"tree_param":{"num_deleted":"0","num_feature":"7","num_nodes":"1","size_leaf_vector":"0"}},{"base_weights":[-3.3435968E-13],"categories":[],"categories_nodes":[],"categories_segments":[],"categories_sizes":[],"default_left":[0],"id":72,"left_children":[-1],"loss_changes":[8.834374E-7],"parents":[2147483647],"right_children":[-1],"split_conditions":[-1.0030791E-13],"split_indices":[0],"split_type":[0],"sum_hessian":[1E3],"tree_param":{"num_deleted":"0","num_feature":"7","num_nodes":"1","size_leaf_vector":"0"}},{"base_weights":[-3.3435968E-13],"categories":[],"categories_nodes":[],"categories_segments":[],"categories_sizes":[],"default_left":[0],"id":73,"left_children":[-1],"loss_changes":[8.834374E-7],"parents":[2147483647],"right_children":[-1],"split_conditions":[-1.0030791E-13],"split_indices":[0],"split_type":[0],"sum_hessian":[1E3],"tree_param":{"num_deleted":"0","num_feature":"7","num_nodes":"1","size_leaf_vector":"0"}},{"base_weights":[-3.3435968E-13],"categories":[],"categories_nodes":[],"categories_segments":[],"categories_sizes":[],"default_left":[0],"id":74,"left_children":[-1],"loss_changes":[8.834374E-7],"parents":[2147483647],"right_children":[-1],"split_conditions":[-1.0030791E-13],"split_indices":[0],"split_type":[0],"sum_hessian":[1E3],"tree_param":{"num_deleted":"0","num_feature":"7","num_nodes":"1","size_leaf_vector":"0"}},{"base_weights":[-3.3435968E-13],"categories":[],"categories_nodes":[],"categories_segments":[],"categories_sizes":[],"default_left":[0],"id":75,"left_children":[-1],"loss_changes":[8.834374E-7],"parents":[2147483647],"right_children":[-1],"split_conditions":[-1.0030791E-13],"split_indices":[0],"split_type":[0],"sum_hessian":[1E3],"tree_param":{"num_deleted":"0","num_feature":"7","num_nodes":"1","size_leaf_vector":"0"}},{"base_weights":[-3.3435968E-13],"categories":[],"categories_nodes":[],"categories_segments":[],"categories_sizes":[],"default_left":[0],"id":76,"left_children":[-1],"loss_changes":[8.834374E-7],"parents":[2147483647],"right_children":[-1],"split_conditions":[-1.0030791E-13],"split_indices":[0],"split_type":[0],"sum_hessian":[1E3],"tree_param":{"num_deleted":"0","num_feature":"7","num_nodes":"1","size_leaf_vector":"0"}},{"base_weights":[-3.3435968E-13],"categories":[],"categories_nodes":[],"categories_segments":[],"categories_sizes":[],"default_left":[0],"id":77,"left_children":[-1],"loss_changes":[8.834374E-7],"parents":[2147483647],"right_children":[-1],"split_conditions":[-1.0030791E-13],"split_indices":[0],"split_type":[0],"sum_hessian":[1E3],"tree_param":{"num_deleted":"0","num_feature":"7","num_nodes":"1","size_leaf_vector":"0"}},{"base_weights":[-3.3435968E-13],"categories":[],"categories_nodes":[],"categories_segments":[],"categories_sizes":[],"default_left":[0],"id":78,"left_children":[-1],"loss_changes":[8.834374E-7],"parents":[2147483647],"right_children":[-1],"split_conditions":[-1.0030791E-13],"split_indices":[0],"split_type":[0],"sum_hessian":[1E3],"tree_param":{"num_deleted":"0","num_feature":"7","num_nodes":"1","size_leaf_vector":"0"}},{"base_weights":[-3.3435968E-13],"categories":[],"categories_nodes":[],"categories_segments":[],"categories_sizes":[],"default_left":[0],"id":79,"left_children":[-1],"loss_changes":[8.834374E-7],"parents":[2147483647],"right_children":[-1],"split_conditions":[-1.0030791E-13],"split_indices":[0],"split_type":[0],"sum_hessian":[1E3],"tree_param":{"num_deleted":"0","num_feature":"7","num_nodes":"1","size_leaf_vector":"0"}},{"base_weights":[-3.3435968E-13],"categories":[],"categories_nodes":[],"categories_segments":[],"categories_sizes":[],"default_left":[0],"id":80,"left_children":[-1],"loss_changes":[8.834374E-7],"parents":[2147483647],"right_children":[-1],"split_conditions":[-1.0030791E-13],"split_indices":[0],"split_type":[0],"sum_hessian":[1E3],"tree_param":{"num_deleted":"0","num_feature":"7","num_nodes":"1","size_leaf_vector":"0"}},{"base_weights":[-3.3435968E-13],"categories":[],"categories_nodes":[],"categories_segments":[],"categories_sizes":[],"default_left":[0],"id":81,"left_children":[-1],"loss_changes":[8.834374E-7],"parents":[2147483647],"right_children":[-1],"split_conditions":[-1.0030791E-13],"split_indices":[0],"split_type":[0],"sum_hessian":[1E3],"tree_param":{"num_deleted":"0","num_feature":"7","num_nodes":"1","size_leaf_vector":"0"}},{"base_weights":[-3.3435968E-13],"categories":[],"categories_nodes":[],"categories_segments":[],"categories_sizes":[],"default_left":[0],"id":82,"left_children":[-1],"loss_changes":[8.834374E-7],"parents":[2147483647],"right_children":[-1],"split_conditions":[-1.0030791E-13],"split_indices":[0],"split_type":[0],"sum_hessian":[1E3],"tree_param":{"num_deleted":"0","num_feature":"7","num_nodes":"1","size_leaf_vector":"0"}},{"base_weights":[-3.3435968E-13],"categories":[],"categories_nodes":[],"categories_segments":[],"categories_sizes":[],"default_left":[0],"id":83,"left_children":[-1],"loss_changes":[8.834374E-7],"parents":[2147483647],"right_children":[-1],"split_conditions":[-1.0030791E-13],"split_indices":[0],"split_type":[0],"sum_hessian":[1E3],"tree_param":{"num_deleted":"0","num_feature":"7","num_nodes":"1","size_leaf_vector":"0"}},{"base_weights":[-3.3435968E-13],"categories":[],"categories_nodes":[],"categories_segments":[],"categories_sizes":[],"default_left":[0],"id":84,"left_children":[-1],"loss_changes":[8.834374E-7],"parents":[2147483647],"right_children":[-1],"split_conditions":[-1.0030791E-13],"split_indices":[0],"split_type":[0],"sum_hessian":[1E3],"tree_param":{"num_deleted":"0","num_feature":"7","num_nodes":"1","size_leaf_vector":"0"}},{"base_weights":[-3.3435968E-13],"categories":[],"categories_nodes":[],"categories_segments":[],"categories_sizes":[],"default_left":[0],"id":85,"left_children":[-1],"loss_changes":[8.834374E-7],"parents":[2147483647],"right_children":[-1],"split_conditions":[-1.0030791E-13],"split_indices":[0],"split_type":[0],"sum_hessian":[1E3],"tree_param":{"num_deleted":"0","num_feature":"7","num_nodes":"1","size_leaf_vector":"0"}},{"base_weights":[-3.3435968E-13],"categories":[],"categories_nodes":[],"categories_segments":[],"categories_sizes":[],"default_left":[0],"id":86,"left_children":[-1],"loss_changes":[8.834374E-7],"parents":[2147483647],"right_children":[-1],"split_conditions":[-1.0030791E-13],"split_indices":[0],"split_type":[0],"sum_hessian":[1E3],"tree_param":{"num_deleted":"0","num_feature":"7","num_nodes":"1","size_leaf_vector":"0"}},{"base_weights":[-3.3435968E-13],"categories":[],"categories_nodes":[],"categories_segments":[],"categories_sizes":[],"default_left":[0],"id":87,"left_children":[-1],"loss_changes":[8.834374E-7],"parents":[2147483647],"right_children":[-1],"split_conditions":[-1.0030791E-13],"split_indices":[0],"split_type":[0],"sum_hessian":[1E3],"tree_param":{"num_deleted":"0","num_feature":"7","num_nodes":"1","size_leaf_vector":"0"}},{"base_weights":[-3.3435968E-13],"categories":[],"categories_nodes":[],"categories_segments":[],"categories_sizes":[],"default_left":[0],"id":88,"left_children":[-1],"loss_changes":[8.834374E-7],"parents":[2147483647],"right_children":[-1],"split_conditions":[-1.0030791E-13],"split_indices":[0],"split_type":[0],"sum_hessian":[1E3],"tree_param":{"num_deleted":"0","num_feature":"7","num_nodes":"1","size_leaf_vector":"0"}},{"base_weights":[-3.3435968E-13],"categories":[],"categories_nodes":[],"categories_segments":[],"categories_sizes":[],"default_left":[0],"id":89,"left_children":[-1],"loss_changes":[8.834374E-7],"parents":[2147483647],"right_children":[-1],"split_conditions":[-1.0030791E-13],"split_indices":[0],"split_type":[0],"sum_hessian":[1E3],"tree_param":{"num_deleted":"0","num_feature":"7","num_nodes":"1","size_leaf_vector":"0"}},{"base_weights":[-3.3435968E-13],"categories":[],"categories_nodes":[],"categories_segments":[],"categories_sizes":[],"default_left":[0],"id":90,"left_children":[-1],"loss_changes":[8.834374E-7],"parents":[2147483647],"right_children":[-1],"split_conditions":[-1.0030791E-13],"split_indices":[0],"split_type":[0],"sum_hessian":[1E3],"tree_param":{"num_deleted":"0","num_feature":"7","num_nodes":"1","size_leaf_vector":"0"}},{"base_weights":[-3.3435968E-13],"categories":[],"categories_nodes":[],"categories_segments":[],"categories_sizes":[],"default_left":[0],"id":91,"left_children":[-1],"loss_changes":[8.834374E-7],"parents":[2147483647],"right_children":[-1],"split_conditions":[-1.0030791E-13],"split_indices":[0],"split_type":[0],"sum_hessian":[1E3],"tree_param":{"num_deleted":"0","num_feature":"7","num_nodes":"1","size_leaf_vector":"0"}},{"base_weights":[-3.3435968E-13],"categories":[],"categories_nodes":[],"categories_segments":[],"categories_sizes":[],"default_left":[0],"id":92,"left_children":[-1],"loss_changes":[8.834374E-7],"parents":[2147483647],"right_children":[-1],"split_conditions":[-1.0030791E-13],"split_indices":[0],"split_type":[0],"sum_hessian":[1E3],"tree_param":{"num_deleted":"0","num_feature":"7","num_nodes":"1","size_leaf_vector":"0"}},{"base_weights":[-3.3435968E-13],"categories":[],"categories_nodes":[],"categories_segments":[],"categories_sizes":[],"default_left":[0],"id":93,"left_children":[-1],"loss_changes":[8.834374E-7],"parents":[2147483647],"right_children":[-1],"split_conditions":[-1.0030791E-13],"split_indices":[0],"split_type":[0],"sum_hessian":[1E3],"tree_param":{"num_deleted":"0","num_feature":"7","num_nodes":"1","size_leaf_vector":"0"}},{"base_weights":[-3.3435968E-13],"categories":[],"categories_nodes":[],"categories_segments":[],"categories_sizes":[],"default_left":[0],"id":94,"left_children":[-1],"loss_changes":[8.834374E-7],"parents":[2147483647],"right_children":[-1],"split_conditions":[-1.0030791E-13],"split_indices":[0],"split_type":[0],"sum_hessian":[1E3],"tree_param":{"num_deleted":"0","num_feature":"7","num_nodes":"1","size_leaf_vector":"0"}},{"base_weights":[-3.3435968E-13],"categories":[],"categories_nodes":[],"categories_segments":[],"categories_sizes":[],"default_left":[0],"id":95,"left_children":[-1],"loss_changes":[8.834374E-7],"parents":[2147483647],"right_children":[-1],"split_conditions":[-1.0030791E-13],"split_indices":[0],"split_type":[0],"sum_hessian":[1E3],"tree_param":{"num_deleted":"0","num_feature":"7","num_nodes":"1","size_leaf_vector":"0"}},{"base_weights":[-3.3435968E-13],"categories":[],"categories_nodes":[],"categories_segments":[],"categories_sizes":[],"default_left":[0],"id":96,"left_children":[-1],"loss_changes":[8.834374E-7],"parents":[2147483647],"right_children":[-1],"split_conditions":[-1.0030791E-13],"split_indices":[0],"split_type":[0],"sum_hessian":[1E3],"tree_param":{"num_deleted":"0","num_feature":"7","num_nodes":"1","size_leaf_vector":"0"}},{"base_weights":[-3.3435968E-13],"categories":[],"categories_nodes":[],"categories_segments":[],"categories_sizes":[],"default_left":[0],"id":97,"left_children":[-1],"loss_changes":[8.834374E-7],"parents":[2147483647],"right_children":[-1],"split_conditions":[-1.0030791E-13],"split_indices":[0],"split_type":[0],"sum_hessian":[1E3],"tree_param":{"num_deleted":"0","num_feature":"7","num_nodes":"1","size_leaf_vector":"0"}},{"base_weights":[-3.3435968E-13],"categories":[],"categories_nodes":[],"categories_segments":[],"categories_sizes":[],"default_left":[0],"id":98,"left_children":[-1],"loss_changes":[8.834374E-7],"parents":[2147483647],"right_children":[-1],"split_conditions":[-1.0030791E-13],"split_indices":[0],"split_type":[0],"sum_hessian":[1E3],"tree_param":{"num_deleted":"0","num_feature":"7","num_nodes":"1","size_leaf_vector":"0"}},{"base_weights":[-3.3435968E-13],"categories":[],"categories_nodes":[],"categories_segments":[],"categories_sizes":[],"default_left":[0],"id":99,"left_children":[-1],"loss_changes":[8.834374E-7],"parents":[2147483647],"right_children":[-1],"split_conditions":[-1.0030791E-13],"split_indices":[0],"split_type":[0],"sum_hessian":[1E3],"tree_param":{"num_deleted":"0","num_feature":"7","num_nodes":"1","size_leaf_vector":"0"}}]},"name":"gbtree"},"learner_model_param":{"base_score":"5E-1","boost_from_average":"1","num_class":"0","num_feature":"7","num_target":"1"},"objective":{"name":"reg:squarederror","reg_loss_param":{"scale_pos_weight":"1"}}},"version":[1,7,2]}