{"learner":{"attributes":{"best_iteration":"99","best_ntree_limit":"100","scikit_learn":"{\"n_estimators\": 100, \"objective\": \"reg:squarederror\", \"max_depth\": null, \"max_leaves\": null, \"max_bin\": null, \"grow_policy\": null, \"learning_rate\": null, \"verbosity\": null, \"booster\": null, \"tree_method\": null, \"gamma\": null, \"min_child_weight\": null, \"max_delta_step\": null, \"subsample\": null, \"sampling_method\": null, \"colsample_bytree\": null, \"colsample_bylevel\": null, \"colsample_bynode\": null, \"reg_alpha\": null, \"reg_lambda\": null, \"scale_pos_weight\": null, \"base_score\": null, \"missing\": NaN, \"num_parallel_tree\": null, \"random_state\": null, \"n_jobs\": null, \"monotone_constraints\": null, \"interaction_constraints\": null, \"importance_type\": null, \"gpu_id\": null, \"validate_parameters\": null, \"predictor\": null, \"enable_categorical\": false, \"feature_types\": null, \"max_cat_to_onehot\": null, \"max_cat_threshold\": null, \"eval_metric\": null, \"early_stopping_rounds\": null, \"callbacks\": null, \"_estimator_type\": \"regressor\"}"},"feature_names":[],"feature_types":[],"gradient_booster":{"model":{"gbtree_model_param":{"num_parallel_tree":"1","num_trees":"100","size_leaf_vector":"0"},"tree_info":[0,0,0,0,0,0,0,0,0,0,0,0,0,0,0,0,0,0,0,0,0,0,0,0,0,0,0,0,0,0,0,0,0,0,0,0,0,0,0,0,0,0,0,0,0,0,0,0,0,0,0,0,0,0,0,0,0,0,0,0,0,0,0,0,0,0,0,0,0,0,0,0,0,0,0,0,0,0,0,0,0,0,0,0,0,0,0,0,0,0,0,0,0,0,0,0,0,0,0,0],"trees":[{"base_weights":[1.1218082E2,7.7269516E1,1.8522292E2,4.02973E1,1.12527374E2,9.879085E1,2.614737E2,2.38E1,5.820126E1,6.2941936E1,1.5176685E2,4.7676056E1,1.413253E2,1.4822353E2,3.6911493E2,1.5616667E1,3.2087208E1,3.4228916E1,8.328571E1,3.880625E1,8.751974E1,1.02666664E2,1.9547525E2,2.9083334E1,7.211667E1,8.448718E1,1.8744444E2,8.335135E1,1.9418367E2,3.102439E2,4.1261703E2,9.268292E0,2.051E1,2.046875E1,4.5564102E1,2.7745098E1,4.321212E1,5.909756E1,1.0783784E2,2.8420454E1,5.010811E1,5.9069443E1,1.1036585E2,8.9322914E1,1.14358696E2,1.6429465E2,2.2918478E2,8.90625E0,3.9962963E1,3.8733334E1,9.890625E1,6.825E1,9.9638885E1,6.825E1,9.890625E1,1.6675E2,2.25625E2,3.5196295E2,4.709524E2,1.6896551E1,2.434091E1,1.6875E1,2.4285715E1,3.163889E1,5.4886364E1,2.262963E1,3.216E1,2.2325E1,3.216E1,3.646154E1,5.52E1,1.3722223E2,1.8318333E2],"categories":[],"categories_nodes":[],"categories_segments":[],"categories_sizes":[],"default_left":[1,1,1,1,1,1,1,1,1,1,1,1,1,1,1,1,1,1,1,1,1,1,1,1,1,1,0,1,1,0,1,0,1,1,1,1,0,0,0,1,1,0,0,0,0,1,0,0,0,0,0,0,0,0,0,0,0,0,0,0,0,0,0,0,0,0,0,0,0,0,0,0,0],"id":0,"left_children":[1,3,5,7,9,11,13,15,17,19,21,23,25,27,29,31,33,35,37,39,41,43,45,47,49,51,-1,53,55,-1,57,-1,59,61,63,65,-1,-1,-1,67,69,-1,-1,-1,-1,71,-1,-1,-1,-1,-1,-1,-1,-1,-1,-1,-1,-1,-1,-1,-1,-1,-1,-1,-1,-1,-1,-1,-1,-1,-1,-1,-1],"loss_changes":[2.538233E6,8.805835E5,2.102904E6,9.6972E4,6.656075E5,3.259055E5,2.029846E6,1.1366883E4,9.276119E4,8.855E4,3.941265E5,3.016625E4,2.0173338E5,2.37245E5,9.4795E4,2.6057324E3,1.25333125E4,3.6354453E3,3.9355125E4,7.966203E3,4.2879125E4,4.294625E3,6.850575E4,8.863883E3,2.2998797E4,2.7944688E3,0E0,1.9409531E3,4.642125E3,0E0,5.41E2,0E0,2.8086133E2,2.4860547E2,3.326211E3,4.2403125E2,0E0,0E0,0E0,2.8497656E2,5.5833594E2,0E0,0E0,0E0,0E0,3.4995E3,0E0,0E0,0E0,0E0,0E0,0E0,0E0,0E0,0E0,0E0,0E0,0E0,0E0,0E0,0E0,0E0,0E0,0E0,0E0,0E0,0E0,0E0,0E0,0E0,0E0,0E0,0E0],"parents":[2147483647,0,0,1,1,2,2,3,3,4,4,5,5,6,6,7,7,8,8,9,9,10,10,11,11,12,12,13,13,14,14,15,15,16,16,17,17,18,18,19,19,20,20,21,21,22,22,23,23,24,24,25,25,27,27,28,28,30,30,32,32,33,33,34,34,35,35,39,39,40,40,45,45],"right_children":[2,4,6,8,10,12,14,16,18,20,22,24,26,28,30,32,34,36,38,40,42,44,46,48,50,52,-1,54,56,-1,58,-1,60,62,64,66,-1,-1,-1,68,70,-1,-1,-1,-1,72,-1,-1,-1,-1,-1,-1,-1,-1,-1,-1,-1,-1,-1,-1,-1,-1,-1,-1,-1,-1,-1,-1,-1,-1,-1,-1,-1],"split_conditions":[2.4E1,2.5E0,2.5E0,2.5E0,2.5E0,2.5E0,2.5E0,1.5E0,1.5E0,1.5E0,1.2E1,1.5E0,1.5E0,1.5E0,3.5E0,1.5E0,1.5E0,1.2E1,1.2E1,1.2E1,1.2E1,3.5E0,3.5E0,1.5E0,1.5E0,3.5E0,5.6233334E1,3.5E0,3.5E0,9.307317E1,3.5E0,2.7804878E0,1.2E1,1.2E1,1.2E1,3.5E0,1.2963636E1,1.7729269E1,3.2351353E1,3.5E0,3.5E0,1.7720833E1,3.3109756E1,2.6796875E1,3.430761E1,3.5E0,6.875544E1,2.671875E0,1.198889E1,1.1620001E1,2.9671877E1,2.0475E1,2.9891666E1,2.0475E1,2.9671877E1,5.0025E1,6.76875E1,1.0558889E2,1.4128572E2,5.0689654E0,7.3022733E0,5.0625E0,7.2857146E0,9.491667E0,1.646591E1,6.788889E0,9.648001E0,6.6975007E0,9.648001E0,1.0938462E1,1.6560001E1,4.116667E1,5.4955E1],"split_indices":[0,2,3,3,3,2,2,2,2,3,0,2,3,2,2,3,3,0,0,0,0,2,2,3,3,2,0,3,3,0,3,0,0,0,0,3,0,0,0,2,2,0,0,0,0,3,0,0,0,0,0,0,0,0,0,0,0,0,0,0,0,0,0,0,0,0,0,0,0,0,0,0,0],"split_type":[0,0,0,0,0,0,0,0,0,0,0,0,0,0,0,0,0,0,0,0,0,0,0,0,0,0,0,0,0,0,0,0,0,0,0,0,0,0,0,0,0,0,0,0,0,0,0,0,0,0,0,0,0,0,0,0,0,0,0,0,0,0,0,0,0,0,0,0,0,0,0,0,0],"sum_hessian":[1E3,6.78E2,3.22E2,3.32E2,3.46E2,1.52E2,1.7E2,1.74E2,1.58E2,1.54E2,1.92E2,7E1,8.2E1,8.4E1,8.6E1,8.9E1,8.5E1,8.2E1,7.6E1,7.9E1,7.5E1,9.2E1,1E2,4.1E1,2.9E1,3.8E1,4.4E1,3.6E1,4.8E1,4E1,4.6E1,4E1,4.9E1,4.7E1,3.8E1,5E1,3.2E1,4E1,3.6E1,4.3E1,3.6E1,3.5E1,4E1,4.7E1,4.5E1,5.5E1,4.5E1,1.5E1,2.6E1,1.4E1,1.5E1,2.1E1,1.7E1,2.1E1,1.5E1,2.9E1,1.9E1,2.6E1,2E1,2.8E1,2.1E1,2.7E1,2E1,1.7E1,2.1E1,2.6E1,2.4E1,1.9E1,2.4E1,1.2E1,2.4E1,2.6E1,2.9E1],"tree_param":{"num_deleted":"0","num_feature":"4","num_nodes":"73","size_leaf_vector":"0"}},{"base_weights":[7.964941E1,5.475669E1,1.3173145E2,3.930739E1,9.7367226E1,7.021603E1,1.860012E2,2.1863396E1,5.811395E1,5.232729E1,1.2690933E2,3.4161304E1,1.0021204E2,1.05731285E2,2.622879E2,1.1009985E1,2.7226826E1,2.7712423E1,7.2859344E1,2.8625742E1,7.116542E1,8.429836E1,1.583588E2,2.07074E1,5.1858063E1,6.043248E1,1.3246074E2,5.9701267E1,1.3833087E2,2.1928139E2,3.051908E2,6.5556216E0,1.4585379E1,1.7929762E1,3.8979225E1,2.0265806E1,3.581888E1,5.1909306E1,9.290988E1,2.2897919E1,4.0082726E1,4.9182194E1,8.8713E1,1.3006017E2,1.7994005E2,6.401367E0,2.8418106E1,2.7887999E1,7.108887E1,4.8705685E1,7.1407875E1,1.1263333E2,1.6831905E2,4.8705685E1,7.108887E1,1.183925E2,1.6132187E2,1.6897792E2,2.5028476E2,1.1993303E1,1.7346937E1,1.4228324E1,2.2055304E1,2.9187872E1,4.800248E1,1.5962375E1,2.2897919E1,2.6364498E1,3.93024E1,4.184086E1,5.86605E1,7.806365E1,1.05490005E2],"categories":[],"categories_nodes":[],"categories_segments":[],"categories_sizes":[],"default_left":[1,1,1,1,1,1,1,1,1,1,1,1,1,1,1,1,1,1,1,1,1,0,1,1,1,1,1,1,1,1,0,0,1,1,1,1,1,1,1,0,0,0,0,0,0,0,0,0,0,0,0,0,0,0,0,0,0,0,0,0,0,0,0,0,0,0,0,0,0,0,0,0,0],"id":1,"left_children":[1,3,5,7,9,11,13,15,17,19,21,23,25,27,29,31,33,35,37,39,41,-1,43,45,47,49,51,53,55,57,-1,-1,59,61,63,65,67,69,71,-1,-1,-1,-1,-1,-1,-1,-1,-1,-1,-1,-1,-1,-1,-1,-1,-1,-1,-1,-1,-1,-1,-1,-1,-1,-1,-1,-1,-1,-1,-1,-1,-1,-1],"loss_changes":[1.290546E6,4.4316062E5,1.0652515E6,1.6276012E5,2.3286262E5,1.6204588E5,1.0193915E6,1.48934375E4,1.05568625E5,3.0556797E4,1.313805E5,1.5830578E4,9.847069E4,1.19289125E5,9.3601E4,1.3058818E3,1.8312844E4,4.1033516E3,6.280675E4,1.3133887E3,1.1067E4,0E0,1.3850875E4,4.45109E3,1.1846383E4,1.5415625E3,1.3035625E4,1.1704531E3,3.3624375E3,3.10075E4,0E0,0E0,1.3554395E2,1.1979629E3,5.313508E3,1.3288867E2,1.8238672E2,3.0515E3,6.89325E3,0E0,0E0,0E0,0E0,0E0,0E0,0E0,0E0,0E0,0E0,0E0,0E0,0E0,0E0,0E0,0E0,0E0,0E0,0E0,0E0,0E0,0E0,0E0,0E0,0E0,0E0,0E0,0E0,0E0,0E0,0E0,0E0,0E0,0E0],"parents":[2147483647,0,0,1,1,2,2,3,3,4,4,5,5,6,6,7,7,8,8,9,9,10,10,11,11,12,12,13,13,14,14,15,15,16,16,17,17,18,18,19,19,20,20,22,22,23,23,24,24,25,25,26,26,27,27,28,28,29,29,32,32,33,33,34,34,35,35,36,36,37,37,38,38],"right_children":[2,4,6,8,10,12,14,16,18,20,22,24,26,28,30,32,34,36,38,40,42,-1,44,46,48,50,52,54,56,58,-1,-1,60,62,64,66,68,70,72,-1,-1,-1,-1,-1,-1,-1,-1,-1,-1,-1,-1,-1,-1,-1,-1,-1,-1,-1,-1,-1,-1,-1,-1,-1,-1,-1,-1,-1,-1,-1,-1,-1,-1],"split_conditions":[2.4E1,3.5E0,2.5E0,2.5E0,2.5E0,2.5E0,2.5E0,1.5E0,1.5E0,1.5E0,1.2E1,1.5E0,1.5E0,1.5E0,3.5E0,1.5E0,1.5E0,1.2E1,1.2E1,1.2E1,1.2E1,2.528951E1,3.5E0,1.5E0,1.5E0,3.5E0,3.5E0,3.5E0,3.5E0,3.5E0,9.155724E1,1.9666866E0,1.2E1,1.2E1,1.2E1,3.5E0,3.5E0,2.5E0,2.5E0,6.8693757E0,1.2024818E1,1.4754659E1,2.6613901E1,3.901805E1,5.3982018E1,1.9204103E0,8.525433E0,8.3664E0,2.132666E1,1.4611706E1,2.1422363E1,3.379E1,5.0495716E1,1.4611706E1,2.132666E1,3.5517754E1,4.8396564E1,5.069338E1,7.5085434E1,3.5979912E0,5.2040815E0,4.2684975E0,6.6165915E0,8.756362E0,1.4400744E1,4.7887125E0,6.8693757E0,7.90935E0,1.179072E1,1.25522585E1,1.759815E1,2.3419096E1,3.1647003E1],"split_indices":[0,3,3,2,2,2,2,3,3,2,0,2,3,2,3,2,2,0,0,0,0,0,2,3,3,2,2,3,3,2,0,0,0,0,0,2,2,3,3,0,0,0,0,0,0,0,0,0,0,0,0,0,0,0,0,0,0,0,0,0,0,0,0,0,0,0,0,0,0,0,0,0,0],"split_type":[0,0,0,0,0,0,0,0,0,0,0,0,0,0,0,0,0,0,0,0,0,0,0,0,0,0,0,0,0,0,0,0,0,0,0,0,0,0,0,0,0,0,0,0,0,0,0,0,0,0,0,0,0,0,0,0,0,0,0,0,0,0,0,0,0,0,0,0,0,0,0,0,0],"sum_hessian":[1E3,6.78E2,3.22E2,4.99E2,1.79E2,1.52E2,1.7E2,2.6E2,2.39E2,7.2E1,1.07E2,7E1,8.2E1,8.4E1,8.6E1,8.7E1,1.73E2,7.9E1,1.6E2,3.3E1,3.9E1,4.7E1,6E1,4.1E1,2.9E1,3.8E1,4.4E1,3.6E1,4.8E1,4.6E1,4E1,4E1,4.7E1,9.8E1,7.5E1,4.3E1,3.6E1,8E1,8E1,2.4E1,9E0,1.9E1,2E1,2.9E1,3.1E1,1.5E1,2.6E1,1.4E1,1.5E1,2.1E1,1.7E1,3.1E1,1.3E1,2.1E1,1.5E1,2.9E1,1.9E1,2E1,2.6E1,2.7E1,2E1,5.4E1,4.4E1,3.8E1,3.7E1,1.9E1,2.4E1,1.2E1,2.4E1,3.5E1,4.5E1,4E1,4E1],"tree_param":{"num_deleted":"0","num_feature":"4","num_nodes":"73","size_leaf_vector":"0"}},{"base_weights":[5.659133E1,3.883033E1,9.375272E1,2.7837942E1,6.914901E1,5.019997E1,1.3217271E2,1.5476067E1,4.1165493E1,3.7454617E1,8.99318E1,2.4478249E1,7.159807E1,7.542193E1,1.8609964E2,1.1310414E1,2.3677366E1,1.9790672E1,5.1530834E1,2.059373E1,5.0850006E1,5.9535717E1,1.1237574E2,1.4743889E1,3.7290413E1,4.3226685E1,9.4595535E1,4.276219E1,9.854414E1,1.5005026E2,2.1358742E2,7.354088E0,1.531924E1,1.5633255E1,3.3638638E1,1.4451021E1,2.5605646E1,3.670874E1,6.571674E1,1.630332E1,2.926039E1,3.5165268E1,6.3366425E1,4.7583477E1,7.14982E1,9.234271E1,1.27644966E2,4.6009827E0,2.0208431E1,2.007936E1,5.1095123E1,3.475814E1,5.117564E1,7.989928E1,1.2143017E2,3.475814E1,5.1095123E1,8.405867E1,1.1534514E2,1.2069852E2,1.7225674E2,1.7798029E2,2.4919719E2,4.6369033E0,9.435097E0,1.0393143E1,2.0989328E1,1.1981776E1,1.9089783E1,2.4831898E1,4.305685E1,1.1413097E1,1.630332E1,1.9063557E1,2.7983307E1,2.790722E1,4.4217125E1,5.521575E1,7.461488E1],"categories":[],"categories_nodes":[],"categories_segments":[],"categories_sizes":[],"default_left":[1,1,1,1,1,1,1,1,1,1,1,1,1,1,1,1,1,1,1,1,1,1,1,1,1,1,1,1,1,1,1,1,1,1,1,1,1,1,1,0,0,0,0,0,0,0,0,0,0,0,0,0,0,0,0,0,0,0,0,0,0,0,0,0,0,0,0,0,0,0,0,0,0,0,0,0,0,0,0],"id":2,"left_children":[1,3,5,7,9,11,13,15,17,19,21,23,25,27,29,31,33,35,37,39,41,43,45,47,49,51,53,55,57,59,61,63,65,67,69,71,73,75,77,-1,-1,-1,-1,-1,-1,-1,-1,-1,-1,-1,-1,-1,-1,-1,-1,-1,-1,-1,-1,-1,-1,-1,-1,-1,-1,-1,-1,-1,-1,-1,-1,-1,-1,-1,-1,-1,-1,-1,-1],"loss_changes":[6.5704325E5,2.2436856E5,5.3383975E5,8.173966E4,1.1519725E5,8.245797E4,5.0929175E5,8.648949E3,5.2153906E4,1.5440453E4,6.698806E4,8.3051875E3,5.006597E4,5.9975094E4,5.416075E4,2.6628809E3,6.4453906E3,2.1139688E3,3.1440281E4,7.871992E2,5.624375E3,3.4608281E3,6.872125E3,2.2349277E3,6.1018516E3,8.465547E2,8.0444375E3,6.918281E2,2.229375E3,5.932625E3,1.5242E4,4.651538E2,2.183955E3,4.0234277E2,2.0826797E3,6.152246E1,4.2066406E1,4.118922E3,3.4486562E3,0E0,0E0,0E0,0E0,0E0,0E0,0E0,0E0,0E0,0E0,0E0,0E0,0E0,0E0,0E0,0E0,0E0,0E0,0E0,0E0,0E0,0E0,0E0,0E0,0E0,0E0,0E0,0E0,0E0,0E0,0E0,0E0,0E0,0E0,0E0,0E0,0E0,0E0,0E0,0E0],"parents":[2147483647,0,0,1,1,2,2,3,3,4,4,5,5,6,6,7,7,8,8,9,9,10,10,11,11,12,12,13,13,14,14,15,15,16,16,17,17,18,18,19,19,20,20,21,21,22,22,23,23,24,24,25,25,26,26,27,27,28,28,29,29,30,30,31,31,32,32,33,33,34,34,35,35,36,36,37,37,38,38],"right_children":[2,4,6,8,10,12,14,16,18,20,22,24,26,28,30,32,34,36,38,40,42,44,46,48,50,52,54,56,58,60,62,64,66,68,70,72,74,76,78,-1,-1,-1,-1,-1,-1,-1,-1,-1,-1,-1,-1,-1,-1,-1,-1,-1,-1,-1,-1,-1,-1,-1,-1,-1,-1,-1,-1,-1,-1,-1,-1,-1,-1,-1,-1,-1,-1,-1,-1],"split_conditions":[2.4E1,3.5E0,2.5E0,2.5E0,2.5E0,2.5E0,2.5E0,2.5E0,1.5E0,1.5E0,1.2E1,1.5E0,1.5E0,1.5E0,3.5E0,1.5E0,1.5E0,1.2E1,1.2E1,1.2E1,1.2E1,3.5E0,3.5E0,1.5E0,1.5E0,3.5E0,3.5E0,3.5E0,3.5E0,3.5E0,3.5E0,1.5E0,1.5E0,1.2E1,1.2E1,3.5E0,3.5E0,3.5E0,2.5E0,4.890996E0,8.778117E0,1.0549581E1,1.9009928E1,1.42750435E1,2.1449461E1,2.7702814E1,3.829349E1,1.3802948E0,6.0625296E0,6.023808E0,1.5328538E1,1.0427443E1,1.5352693E1,2.3969784E1,3.642905E1,1.0427443E1,1.5328538E1,2.5217602E1,3.4603542E1,3.6209557E1,5.1677025E1,5.339409E1,7.475916E1,1.3910711E0,2.8305292E0,3.117943E0,6.2967987E0,3.594533E0,5.726935E0,7.4495697E0,1.2917056E1,3.4239295E0,4.890996E0,5.719067E0,8.394993E0,8.372167E0,1.3265138E1,1.6564726E1,2.2384466E1],"split_indices":[0,3,3,2,2,2,2,3,3,2,0,2,3,2,2,2,2,0,0,0,0,2,2,3,3,2,2,3,3,3,3,3,3,0,0,2,2,2,3,0,0,0,0,0,0,0,0,0,0,0,0,0,0,0,0,0,0,0,0,0,0,0,0,0,0,0,0,0,0,0,0,0,0,0,0,0,0,0,0],"split_type":[0,0,0,0,0,0,0,0,0,0,0,0,0,0,0,0,0,0,0,0,0,0,0,0,0,0,0,0,0,0,0,0,0,0,0,0,0,0,0,0,0,0,0,0,0,0,0,0,0,0,0,0,0,0,0,0,0,0,0,0,0,0,0,0,0,0,0,0,0,0,0,0,0,0,0,0,0,0,0],"sum_hessian":[1E3,6.78E2,3.22E2,4.99E2,1.79E2,1.52E2,1.7E2,2.6E2,2.39E2,7.2E1,1.07E2,7E1,8.2E1,8.4E1,8.6E1,1.74E2,8.6E1,7.9E1,1.6E2,3.3E1,3.9E1,4.7E1,6E1,4.1E1,2.9E1,3.8E1,4.4E1,3.6E1,4.8E1,4E1,4.6E1,8.9E1,8.5E1,4.9E1,3.7E1,4.3E1,3.6E1,8E1,8E1,2.4E1,9E0,1.9E1,2E1,2.6E1,2.1E1,2.9E1,3.1E1,1.5E1,2.6E1,1.4E1,1.5E1,2.1E1,1.7E1,3.1E1,1.3E1,2.1E1,1.5E1,2.9E1,1.9E1,2E1,2E1,2.6E1,2E1,4E1,4.9E1,4.7E1,3.8E1,2.6E1,2.3E1,2.1E1,1.6E1,1.9E1,2.4E1,1.2E1,2.4E1,3.9E1,4.1E1,4E1,4E1],"tree_param":{"num_deleted":"0","num_feature":"4","num_nodes":"79","size_leaf_vector":"0"}},{"base_weights":[4.0301125E1,2.7580772E1,6.691666E1,1.9739239E1,4.9209583E1,3.589144E1,9.428474E1,1.0999241E1,2.9161741E1,2.6810406E1,6.389412E1,1.754034E1,5.1156948E1,5.380214E1,1.3275298E2,7.995212E0,1.69154E1,1.4133834E1,3.6447895E1,1.4817646E1,3.6333992E1,4.241926E1,7.974493E1,1.0497932E1,2.6815033E1,3.0919704E1,6.755907E1,3.062964E1,7.020174E1,1.07178764E2,1.5223785E2,5.4678383E0,1.1215504E1,1.1129707E1,2.4083008E1,1.030469E1,1.8305414E1,2.5963245E1,4.648257E1,1.1607964E1,2.1360086E1,2.5143167E1,4.526173E1,3.3837135E1,5.1023716E1,6.556333E1,9.054815E1,3.3069563E0,1.437044E1,1.4457139E1,3.672462E1,2.4804672E1,3.667587E1,5.6678543E1,8.7603195E1,2.4804672E1,3.672462E1,5.9681652E1,8.247177E1,8.6213234E1,1.2304054E2,1.2656376E2,1.7799799E2,4.2868495E0,6.816005E0,6.4990153E0,1.4878875E1,8.520374E0,1.360147E1,1.7720945E1,3.0899618E1,8.160364E0,1.1607964E1,1.9744358E1,3.1267824E1,3.6212967E1,5.6103592E1],"categories":[],"categories_nodes":[],"categories_segments":[],"categories_sizes":[],"default_left":[1,1,1,1,1,1,1,1,1,1,1,1,1,1,1,1,1,1,1,1,1,1,1,1,1,1,1,1,1,1,1,1,1,1,1,1,0,1,1,0,0,0,0,0,0,0,0,0,0,0,0,0,0,0,0,0,0,0,0,0,0,0,0,0,0,0,0,0,0,0,0,0,0,0,0,0,0],"id":3,"left_children":[1,3,5,7,9,11,13,15,17,19,21,23,25,27,29,31,33,35,37,39,41,43,45,47,49,51,53,55,57,59,61,63,65,67,69,71,-1,73,75,-1,-1,-1,-1,-1,-1,-1,-1,-1,-1,-1,-1,-1,-1,-1,-1,-1,-1,-1,-1,-1,-1,-1,-1,-1,-1,-1,-1,-1,-1,-1,-1,-1,-1,-1,-1,-1,-1],"loss_changes":[3.3705175E5,1.14189125E5,2.708755E5,4.085558E4,5.7492844E4,4.1963938E4,2.5915488E5,4.503328E3,2.5763797E4,7.799246E3,3.3379812E4,4.3559453E3,2.5461578E4,3.0151406E4,2.7036375E4,1.3629795E3,3.3398164E3,1.0892549E3,1.5731969E4,4.660244E2,2.8583281E3,1.8180391E3,3.4089688E3,1.1220557E3,3.142916E3,4.6303125E2,4.8488594E3,4.0266797E2,1.4029531E3,3.0268125E3,8.55625E3,1.299978E2,1.2164482E3,2.0659277E2,1.1004023E3,2.823877E1,0E0,2.0547148E3,5.9714688E3,0E0,0E0,0E0,0E0,0E0,0E0,0E0,0E0,0E0,0E0,0E0,0E0,0E0,0E0,0E0,0E0,0E0,0E0,0E0,0E0,0E0,0E0,0E0,0E0,0E0,0E0,0E0,0E0,0E0,0E0,0E0,0E0,0E0,0E0,0E0,0E0,0E0,0E0],"parents":[2147483647,0,0,1,1,2,2,3,3,4,4,5,5,6,6,7,7,8,8,9,9,10,10,11,11,12,12,13,13,14,14,15,15,16,16,17,17,18,18,19,19,20,20,21,21,22,22,23,23,24,24,25,25,26,26,27,27,28,28,29,29,30,30,31,31,32,32,33,33,34,34,35,35,37,37,38,38],"right_children":[2,4,6,8,10,12,14,16,18,20,22,24,26,28,30,32,34,36,38,40,42,44,46,48,50,52,54,56,58,60,62,64,66,68,70,72,-1,74,76,-1,-1,-1,-1,-1,-1,-1,-1,-1,-1,-1,-1,-1,-1,-1,-1,-1,-1,-1,-1,-1,-1,-1,-1,-1,-1,-1,-1,-1,-1,-1,-1,-1,-1,-1,-1,-1,-1],"split_conditions":[2.4E1,3.5E0,2.5E0,2.5E0,2.5E0,2.5E0,2.5E0,2.5E0,1.5E0,1.5E0,1.2E1,1.5E0,1.5E0,1.5E0,3.5E0,1.2E1,1.5E0,1.2E1,1.2E1,1.2E1,1.2E1,3.5E0,3.5E0,1.5E0,1.5E0,3.5E0,3.5E0,3.5E0,3.5E0,3.5E0,3.5E0,1.5E0,1.5E0,1.2E1,1.2E1,3.5E0,5.4916244E0,3.5E0,3.5E0,3.4823892E0,6.408026E0,7.5429506E0,1.357852E1,1.0151141E1,1.5307116E1,1.9669E1,2.7164446E1,9.9208695E-1,4.311132E0,4.337142E0,1.1017386E1,7.441402E0,1.1002761E1,1.7003563E1,2.628096E1,7.441402E0,1.1017386E1,1.7904497E1,2.4741533E1,2.5863972E1,3.6912163E1,3.7969128E1,5.33994E1,1.2860548E0,2.0448017E0,1.9497046E0,4.4636626E0,2.5561123E0,4.080441E0,5.3162837E0,9.269886E0,2.4481094E0,3.4823892E0,5.9233074E0,9.380347E0,1.0863891E1,1.6831078E1],"split_indices":[0,3,3,2,2,2,2,3,3,2,0,2,3,2,2,0,2,0,0,0,0,2,2,3,3,2,2,3,3,3,3,2,2,0,0,2,0,2,2,0,0,0,0,0,0,0,0,0,0,0,0,0,0,0,0,0,0,0,0,0,0,0,0,0,0,0,0,0,0,0,0,0,0,0,0,0,0],"split_type":[0,0,0,0,0,0,0,0,0,0,0,0,0,0,0,0,0,0,0,0,0,0,0,0,0,0,0,0,0,0,0,0,0,0,0,0,0,0,0,0,0,0,0,0,0,0,0,0,0,0,0,0,0,0,0,0,0,0,0,0,0,0,0,0,0,0,0,0,0,0,0,0,0,0,0,0,0],"sum_hessian":[1E3,6.78E2,3.22E2,4.99E2,1.79E2,1.52E2,1.7E2,2.6E2,2.39E2,7.2E1,1.07E2,7E1,8.2E1,8.4E1,8.6E1,1.74E2,8.6E1,7.9E1,1.6E2,3.3E1,3.9E1,4.7E1,6E1,4.1E1,2.9E1,3.8E1,4.4E1,3.6E1,4.8E1,4E1,4.6E1,9.9E1,7.5E1,4.9E1,3.7E1,4.3E1,3.6E1,8E1,8E1,2.4E1,9E0,1.9E1,2E1,2.6E1,2.1E1,2.9E1,3.1E1,1.5E1,2.6E1,1.4E1,1.5E1,2.1E1,1.7E1,3.1E1,1.3E1,2.1E1,1.5E1,2.9E1,1.9E1,2E1,2E1,2.6E1,2E1,5.5E1,4.4E1,3.4E1,4.1E1,2.6E1,2.3E1,2.1E1,1.6E1,1.9E1,2.4E1,3.9E1,4.1E1,4.1E1,3.9E1],"tree_param":{"num_deleted":"0","num_feature":"4","num_nodes":"77","size_leaf_vector":"0"}},{"base_weights":[2.8696629E1,1.4886915E1,4.1391014E1,9.830535E0,2.5662483E1,2.8671186E1,6.725808E1,6.2345295E0,1.9166962E1,1.2569192E1,3.6553585E1,1.5423862E1,3.943623E1,3.8380375E1,9.469885E1,3.6722906E0,7.7303095E0,1.1692361E1,2.7238785E1,7.4748197E0,1.928234E1,2.211672E1,4.825323E1,9.141286E0,2.199568E1,2.7027044E1,5.0472054E1,2.1939634E1,5.0011543E1,7.655625E1,1.085105E2,1.8146476E0,5.1221123E0,5.542225E0,1.0023759E1,8.26487E0,1.4652158E1,1.5660234E1,3.4207058E1,2.376875E0,1.0218979E1,1.0409139E1,2.6395819E1,1.7701515E1,2.6284374E1,4.020635E1,6.3199448E1,7.2590775E0,1.1773145E1,1.5555271E1,2.8537872E1,2.2201513E1,3.1474834E1,4.1855106E1,5.9865025E1,1.7701515E1,2.6395819E1,4.2373974E1,5.896732E1,6.1580883E1,8.788609E1,9.000089E1,1.271414E2,2.0015676E0,1.3111895E0,3.9064372E0,6.4917693E0,4.3300962E0,7.187224E0,7.2289486E0,1.2472122E1,6.0589333E0,8.26487E0,9.691049E0,1.5592861E1,1.2646311E1,1.7977365E1,2.217502E1,3.2329807E1,2.5870804E1,3.641238E1,3.508841E1,4.6549965E1],"categories":[],"categories_nodes":[],"categories_segments":[],"categories_sizes":[],"default_left":[1,1,1,1,1,1,1,1,1,1,1,1,1,1,1,1,1,1,1,1,1,1,1,1,1,1,1,1,1,1,1,1,1,1,1,0,0,0,0,0,0,0,0,0,0,0,0,1,1,1,1,0,1,1,0,0,0,0,0,0,0,0,0,0,0,0,0,0,0,0,0,0,0,0,0,0,0,0,0,0,0,0,0],"id":4,"left_children":[1,3,5,7,9,11,13,15,17,19,21,23,25,27,29,31,33,35,37,39,41,43,45,47,49,51,53,55,57,59,61,63,65,67,69,-1,-1,-1,-1,-1,-1,-1,-1,-1,-1,-1,-1,71,73,75,77,-1,79,81,-1,-1,-1,-1,-1,-1,-1,-1,-1,-1,-1,-1,-1,-1,-1,-1,-1,-1,-1,-1,-1,-1,-1,-1,-1,-1,-1,-1,-1],"loss_changes":[1.7486494E5,2.595518E4,1.6949344E5,1.0926297E4,2.1358406E4,4.9447188E4,1.3187031E5,8.875908E2,5.171879E3,2.2840156E3,1.2952016E4,6.363715E3,2.5066406E4,1.5156891E4,1.349325E4,2.3309778E2,6.971846E2,3.759912E2,2.9336523E3,5.6327295E2,1.6188223E3,2.5236719E2,2.8711562E3,3.256953E2,2.8004336E3,1.2972656E3,5.6691406E3,2.3153125E2,8.529375E2,1.5443125E3,4.765125E3,1.2339325E0,5.7893066E1,1.26400635E2,4.0251465E2,0E0,0E0,0E0,0E0,0E0,0E0,0E0,0E0,0E0,0E0,0E0,0E0,1.148584E1,1.1133838E2,6.152832E1,1.7580469E2,0E0,3.308086E2,1.4567188E2,0E0,0E0,0E0,0E0,0E0,0E0,0E0,0E0,0E0,0E0,0E0,0E0,0E0,0E0,0E0,0E0,0E0,0E0,0E0,0E0,0E0,0E0,0E0,0E0,0E0,0E0,0E0,0E0,0E0],"parents":[2147483647,0,0,1,1,2,2,3,3,4,4,5,5,6,6,7,7,8,8,9,9,10,10,11,11,12,12,13,13,14,14,15,15,16,16,17,17,18,18,19,19,20,20,21,21,22,22,23,23,24,24,25,25,26,26,27,27,28,28,29,29,30,30,31,31,32,32,33,33,34,34,47,47,48,48,49,49,50,50,52,52,53,53],"right_children":[2,4,6,8,10,12,14,16,18,20,22,24,26,28,30,32,34,36,38,40,42,44,46,48,50,52,54,56,58,60,62,64,66,68,70,-1,-1,-1,-1,-1,-1,-1,-1,-1,-1,-1,-1,72,74,76,78,-1,80,82,-1,-1,-1,-1,-1,-1,-1,-1,-1,-1,-1,-1,-1,-1,-1,-1,-1,-1,-1,-1,-1,-1,-1,-1,-1,-1,-1,-1,-1],"split_conditions":[2.5E0,2.4E1,2.4E1,3.5E0,2.5E0,2.5E0,2.5E0,1.5E0,1.5E0,1.5E0,1.5E0,1.5E0,1.2E1,1.5E0,3.5E0,1.5E0,1.5E0,1.2E1,1.2E1,1.5E0,1.5E0,3.5E0,3.5E0,1.2E1,1.2E1,3.5E0,3.5E0,3.5E0,3.5E0,3.5E0,3.5E0,1.2E1,1.2E1,2.5E0,1.2E1,2.479461E0,4.3956475E0,4.6980705E0,1.0262117E1,7.130625E-1,3.0656939E0,3.1227417E0,7.918746E0,5.310455E0,7.8853126E0,1.2061905E1,1.8959835E1,3.5E0,3.5E0,3.5E0,3.5E0,6.6604543E0,3.5E0,3.5E0,1.7959509E1,5.310455E0,7.918746E0,1.2712193E1,1.7690197E1,1.8474266E1,2.636583E1,2.7000269E1,3.814242E1,6.004703E-1,3.933569E-1,1.1719311E0,1.9475309E0,1.2990289E0,2.1561673E0,2.1686847E0,3.7416368E0,1.81768E0,2.479461E0,2.9073148E0,4.6778584E0,3.7938933E0,5.39321E0,6.6525064E0,9.698942E0,7.7612414E0,1.0923715E1,1.0526524E1,1.396499E1],"split_indices":[3,0,0,2,2,2,2,2,3,2,3,2,0,2,2,3,3,0,0,3,3,2,2,0,0,2,2,3,3,3,3,0,0,2,0,0,0,0,0,0,0,0,0,0,0,0,0,3,3,3,3,0,3,3,0,0,0,0,0,0,0,0,0,0,0,0,0,0,0,0,0,0,0,0,0,0,0,0,0,0,0,0,0],"split_type":[0,0,0,0,0,0,0,0,0,0,0,0,0,0,0,0,0,0,0,0,0,0,0,0,0,0,0,0,0,0,0,0,0,0,0,0,0,0,0,0,0,0,0,0,0,0,0,0,0,0,0,0,0,0,0,0,0,0,0,0,0,0,0,0,0,0,0,0,0,0,0,0,0,0,0,0,0,0,0,0,0,0,0],"sum_hessian":[1E3,4.8E2,5.2E2,3.28E2,1.52E2,3.5E2,1.7E2,2.38E2,9E1,7E1,8.2E1,1.58E2,1.92E2,8.4E1,8.6E1,8.9E1,1.49E2,4.8E1,4.2E1,4.1E1,2.9E1,3.8E1,4.4E1,8.2E1,7.6E1,9.2E1,1E2,3.6E1,4.8E1,4E1,4.6E1,4E1,4.9E1,7.8E1,7.1E1,2.4E1,2.4E1,1.7E1,2.5E1,1.5E1,2.6E1,1.4E1,1.5E1,2.1E1,1.7E1,3.1E1,1.3E1,5E1,3.2E1,4E1,3.6E1,4.7E1,4.5E1,5.5E1,4.5E1,2.1E1,1.5E1,2.9E1,1.9E1,2E1,2E1,2.6E1,2E1,2.7E1,1.3E1,2.8E1,2.1E1,4.7E1,3.1E1,3.5E1,3.6E1,2.6E1,2.4E1,2.3E1,9E0,2.1E1,1.9E1,1.6E1,2E1,2.4E1,2.1E1,2.6E1,2.9E1],"tree_param":{"num_deleted":"0","num_feature":"4","num_nodes":"83","size_leaf_vector":"0"}},{"base_weights":[2.044047E1,1.3916074E1,3.4092556E1,9.81532E0,2.5229744E1,1.8349606E1,4.7978985E1,5.627408E0,1.4328776E1,1.3739259E1,3.276285E1,9.00717E0,2.6120249E1,2.7379576E1,6.755336E1,2.2711868E0,7.292466E0,1.020428E1,2.1595848E1,7.674782E0,1.8550583E1,2.1836992E1,4.0823154E1,5.3223433E0,1.3865686E1,1.5820055E1,3.4466633E1,1.5715289E1,3.5628536E1,5.4683033E1,7.734336E1,1.2944926E0,3.0581303E0,4.6913314E0,1.0584833E1,5.2137346E0,1.3656821E1,1.6013704E1,2.7332014E1,5.884587E0,1.1382791E1,1.2853814E1,2.3092716E1,1.7648195E1,2.5985197E1,3.305047E1,4.6834324E1,1.7083786E0,7.2668285E0,7.4945803E0,1.8971994E1,1.2632444E1,1.8837132E1,2.8521378E1,4.5593884E1,1.2632444E1,1.8971994E1,3.0085524E1,4.216163E1,4.398635E1,6.2775764E1,6.4000626E1,9.0815285E1,1.4225425E0,9.4592917E-1,2.292816E0,3.9329238E0,3.5782566E0,5.9475036E0,7.157841E0,1.3823461E1,8.32496E0,1.9415062E1,1.2551364E1,1.8420015E1],"categories":[],"categories_nodes":[],"categories_segments":[],"categories_sizes":[],"default_left":[1,1,1,1,1,1,1,1,1,1,1,1,1,1,1,1,1,1,1,1,1,1,1,1,1,1,1,1,1,1,1,1,1,1,1,0,1,1,0,0,0,0,0,0,0,0,0,0,0,0,0,0,0,0,0,0,0,0,0,0,0,0,0,0,0,0,0,0,0,0,0,0,0,0,0],"id":5,"left_children":[1,3,5,7,9,11,13,15,17,19,21,23,25,27,29,31,33,35,37,39,41,43,45,47,49,51,53,55,57,59,61,63,65,67,69,-1,71,73,-1,-1,-1,-1,-1,-1,-1,-1,-1,-1,-1,-1,-1,-1,-1,-1,-1,-1,-1,-1,-1,-1,-1,-1,-1,-1,-1,-1,-1,-1,-1,-1,-1,-1,-1,-1,-1],"loss_changes":[8.868628E4,3.1254281E4,6.973169E4,9.37034E3,1.5130492E4,1.0872031E4,6.7101125E4,1.4419844E3,6.9731562E3,1.9876338E3,8.619641E3,1.1973003E3,6.5901875E3,7.618633E3,6.7326875E3,6.3678345E1,1.4404609E3,2.599456E3,2.316043E3,1.5871106E2,7.381904E2,3.7545898E2,1.3022031E3,2.8273206E2,8.3379736E2,1.3711523E2,1.6765469E3,1.3181348E2,5.0598438E2,7.8791406E2,2.636125E3,4.8434448E-1,2.3118164E1,1.1714136E2,7.445586E2,0E0,2.6322656E3,1.5205176E2,0E0,0E0,0E0,0E0,0E0,0E0,0E0,0E0,0E0,0E0,0E0,0E0,0E0,0E0,0E0,0E0,0E0,0E0,0E0,0E0,0E0,0E0,0E0,0E0,0E0,0E0,0E0,0E0,0E0,0E0,0E0,0E0,0E0,0E0,0E0,0E0,0E0],"parents":[2147483647,0,0,1,1,2,2,3,3,4,4,5,5,6,6,7,7,8,8,9,9,10,10,11,11,12,12,13,13,14,14,15,15,16,16,17,17,18,18,19,19,20,20,21,21,22,22,23,23,24,24,25,25,26,26,27,27,28,28,29,29,30,30,31,31,32,32,33,33,34,34,36,36,37,37],"right_children":[2,4,6,8,10,12,14,16,18,20,22,24,26,28,30,32,34,36,38,40,42,44,46,48,50,52,54,56,58,60,62,64,66,68,70,-1,72,74,-1,-1,-1,-1,-1,-1,-1,-1,-1,-1,-1,-1,-1,-1,-1,-1,-1,-1,-1,-1,-1,-1,-1,-1,-1,-1,-1,-1,-1,-1,-1,-1,-1,-1,-1,-1,-1],"split_conditions":[2.4E1,3.5E0,2.5E0,2.5E0,2.5E0,2.5E0,2.5E0,1.5E0,2.5E0,1.5E0,1.2E1,1.5E0,1.5E0,1.5E0,3.5E0,1.5E0,1.5E0,3.5E0,1.2E1,1.2E1,1.2E1,3.5E0,3.5E0,1.5E0,1.5E0,3.5E0,3.5E0,3.5E0,3.5E0,3.5E0,3.5E0,1.2E1,1.2E1,1.2E1,1.2E1,1.5641204E0,1.5E0,3.5E0,8.199605E0,1.7653761E0,3.4148374E0,3.8561444E0,6.927815E0,5.294459E0,7.7955594E0,9.915141E0,1.4050298E1,5.125136E-1,2.1800487E0,2.2483742E0,5.6915984E0,3.7897334E0,5.6511397E0,8.556414E0,1.3678165E1,3.7897334E0,5.6915984E0,9.025658E0,1.2648489E1,1.3195906E1,1.883273E1,1.9200188E1,2.7244587E1,4.2676276E-1,2.8377876E-1,6.878448E-1,1.1798772E0,1.073477E0,1.7842511E0,2.1473525E0,4.1470385E0,2.497488E0,5.8245187E0,3.7654092E0,5.526005E0],"split_indices":[0,3,3,2,2,2,2,3,3,2,0,2,3,2,2,2,2,2,0,0,0,2,2,3,3,2,2,3,3,3,3,0,0,0,0,0,3,2,0,0,0,0,0,0,0,0,0,0,0,0,0,0,0,0,0,0,0,0,0,0,0,0,0,0,0,0,0,0,0,0,0,0,0,0,0],"split_type":[0,0,0,0,0,0,0,0,0,0,0,0,0,0,0,0,0,0,0,0,0,0,0,0,0,0,0,0,0,0,0,0,0,0,0,0,0,0,0,0,0,0,0,0,0,0,0,0,0,0,0,0,0,0,0,0,0,0,0,0,0,0,0,0,0,0,0,0,0,0,0,0,0,0,0],"sum_hessian":[1E3,6.78E2,3.22E2,4.99E2,1.79E2,1.52E2,1.7E2,2.6E2,2.39E2,7.2E1,1.07E2,7E1,8.2E1,8.4E1,8.6E1,8.7E1,1.73E2,1.54E2,8.5E1,3.3E1,3.9E1,4.7E1,6E1,4.1E1,2.9E1,3.8E1,4.4E1,3.6E1,4.8E1,4E1,4.6E1,4E1,4.7E1,9.8E1,7.5E1,6.4E1,9E1,4.5E1,4E1,2.4E1,9E0,1.9E1,2E1,2.6E1,2.1E1,2.9E1,3.1E1,1.5E1,2.6E1,1.4E1,1.5E1,2.1E1,1.7E1,3.1E1,1.3E1,2.1E1,1.5E1,2.9E1,1.9E1,2E1,2E1,2.6E1,2E1,2.7E1,1.3E1,2.7E1,2E1,5.4E1,4.4E1,3.8E1,3.7E1,4.8E1,4.2E1,2.1E1,2.4E1],"tree_param":{"num_deleted":"0","num_feature":"4","num_nodes":"75","size_leaf_vector":"0"}},{"base_weights":[1.4552148E1,7.4713593E0,2.1061375E1,4.821194E0,1.3121247E1,1.45876465E1,3.422639E1,2.9619722E0,9.651226E0,6.4547725E0,1.8665806E1,8.105508E0,1.985227E1,1.9532236E1,4.818934E1,1.6969918E0,3.701214E0,4.5279794E0,1.3761728E1,3.7897484E0,9.970647E0,1.13161125E1,2.4620747E1,4.8306055E0,1.1530332E1,1.3674685E1,2.5343985E1,1.1256954E1,2.5382301E1,3.9059307E1,5.512853E1,9.2347515E-1,2.2973356E0,2.576997E0,4.983599E0,3.4869983E0,5.7222323E0,8.034748E0,1.8739143E1,1.2278974E0,5.167521E0,5.3960967E0,1.3636122E1,9.014972E0,1.3499946E1,2.0232353E1,3.2892735E1,3.787584E0,6.2961655E0,8.225907E0,1.488036E1,1.116462E1,1.5996606E1,2.0794329E1,3.0331741E1,9.014972E0,1.3636122E1,2.1360714E1,3.0145569E1,3.141882E1,4.4839825E1,4.551155E1,6.486805E1,1.0110215E0,6.8241996E-1,1.738457E0,2.929615E0,1.9496756E0,3.3244166E0,3.8681319E0,5.8437834E0,5.194962E0,8.309437E0,8.957108E0,1.254983E1,1.3115054E1,1.8543978E1,1.7055836E1,2.3465828E1,2.2141388E1,3.3223103E1],"categories":[],"categories_nodes":[],"categories_segments":[],"categories_sizes":[],"default_left":[1,1,1,1,1,1,1,1,1,1,1,1,1,1,1,1,1,1,1,1,1,1,1,1,1,1,1,1,1,1,1,1,1,1,1,0,0,0,0,0,0,0,0,0,0,0,0,0,1,0,0,1,1,1,1,0,0,0,0,0,0,0,0,0,0,0,0,0,0,0,0,0,0,0,0,0,0,0,0,0,0],"id":6,"left_children":[1,3,5,7,9,11,13,15,17,19,21,23,25,27,29,31,33,35,37,39,41,43,45,47,49,51,53,55,57,59,61,63,65,67,69,-1,-1,-1,-1,-1,-1,-1,-1,-1,-1,-1,-1,-1,71,-1,-1,73,75,77,79,-1,-1,-1,-1,-1,-1,-1,-1,-1,-1,-1,-1,-1,-1,-1,-1,-1,-1,-1,-1,-1,-1,-1,-1,-1,-1],"loss_changes":[4.5979188E4,7.1388164E3,4.3903844E4,2.9258667E3,5.5348027E3,1.18173125E4,3.4143438E4,2.1721411E2,1.8540674E3,6.274758E2,3.3540488E3,1.7276396E3,6.2010625E3,3.8292031E3,3.3586094E3,3.9672302E1,2.0340918E2,3.2260803E1,1.2747129E3,1.4190002E2,4.2945508E2,7.4285645E1,9.6803516E2,1.03027466E2,7.299785E2,3.6342383E2,1.6612227E3,7.4430664E1,2.9470703E2,4.019922E2,1.45E3,1.7530441E-1,1.2575378E1,3.1966003E1,4.360144E1,0E0,0E0,0E0,0E0,0E0,0E0,0E0,0E0,0E0,0E0,0E0,0E0,0E0,2.9994507E1,0E0,0E0,3.4367676E1,9.4453125E1,1.5906445E2,3.5373438E2,0E0,0E0,0E0,0E0,0E0,0E0,0E0,0E0,0E0,0E0,0E0,0E0,0E0,0E0,0E0,0E0,0E0,0E0,0E0,0E0,0E0,0E0,0E0,0E0,0E0,0E0],"parents":[2147483647,0,0,1,1,2,2,3,3,4,4,5,5,6,6,7,7,8,8,9,9,10,10,11,11,12,12,13,13,14,14,15,15,16,16,17,17,18,18,19,19,20,20,21,21,22,22,23,23,24,24,25,25,26,26,27,27,28,28,29,29,30,30,31,31,32,32,33,33,34,34,48,48,51,51,52,52,53,53,54,54],"right_children":[2,4,6,8,10,12,14,16,18,20,22,24,26,28,30,32,34,36,38,40,42,44,46,48,50,52,54,56,58,60,62,64,66,68,70,-1,-1,-1,-1,-1,-1,-1,-1,-1,-1,-1,-1,-1,72,-1,-1,74,76,78,80,-1,-1,-1,-1,-1,-1,-1,-1,-1,-1,-1,-1,-1,-1,-1,-1,-1,-1,-1,-1,-1,-1,-1,-1,-1,-1],"split_conditions":[2.5E0,2.4E1,2.4E1,3.5E0,2.5E0,2.5E0,2.5E0,1.5E0,1.2E1,1.5E0,1.5E0,1.5E0,1.2E1,1.5E0,3.5E0,1.5E0,1.2E1,1.5E0,1.5E0,1.5E0,1.5E0,3.5E0,3.5E0,1.2E1,1.2E1,3.5E0,3.5E0,3.5E0,3.5E0,3.5E0,3.5E0,1.2E1,1.2E1,1.5E0,1.5E0,1.0460995E0,1.7166698E0,2.4104245E0,5.621743E0,3.6836922E-1,1.5502564E0,1.6188291E0,4.0908365E0,2.7044916E0,4.049984E0,6.0697064E0,9.867821E0,1.1362753E0,3.5E0,2.4677722E0,4.464108E0,3.5E0,3.5E0,3.5E0,3.5E0,2.7044916E0,4.0908365E0,6.4082146E0,9.043671E0,9.425646E0,1.3451948E1,1.3653466E1,1.9460415E1,3.0330646E-1,2.04726E-1,5.215371E-1,8.7888455E-1,5.849027E-1,9.97325E-1,1.1604396E0,1.7531351E0,1.5584887E0,2.4928312E0,2.6871324E0,3.7649493E0,3.9345164E0,5.5631933E0,5.1167507E0,7.0397487E0,6.6424165E0,9.966931E0],"split_indices":[3,0,0,2,2,2,2,2,0,2,3,2,0,2,2,3,0,3,3,3,3,2,2,0,0,2,2,3,3,3,3,0,0,3,3,0,0,0,0,0,0,0,0,0,0,0,0,0,3,0,0,3,3,3,3,0,0,0,0,0,0,0,0,0,0,0,0,0,0,0,0,0,0,0,0,0,0,0,0,0,0],"split_type":[0,0,0,0,0,0,0,0,0,0,0,0,0,0,0,0,0,0,0,0,0,0,0,0,0,0,0,0,0,0,0,0,0,0,0,0,0,0,0,0,0,0,0,0,0,0,0,0,0,0,0,0,0,0,0,0,0,0,0,0,0,0,0,0,0,0,0,0,0,0,0,0,0,0,0,0,0,0,0,0,0],"sum_hessian":[1E3,4.8E2,5.2E2,3.28E2,1.52E2,3.5E2,1.7E2,2.38E2,9E1,7E1,8.2E1,1.58E2,1.92E2,8.4E1,8.6E1,8.9E1,1.49E2,4.1E1,4.9E1,4.1E1,2.9E1,3.8E1,4.4E1,8.2E1,7.6E1,9.2E1,1E2,3.6E1,4.8E1,4E1,4.6E1,4E1,4.9E1,8.1E1,6.8E1,2.4E1,1.7E1,2.4E1,2.5E1,1.5E1,2.6E1,1.4E1,1.5E1,2.1E1,1.7E1,3.1E1,1.3E1,5E1,3.2E1,4E1,3.6E1,4.7E1,4.5E1,5.5E1,4.5E1,2.1E1,1.5E1,2.9E1,1.9E1,2E1,2E1,2.6E1,2E1,2.7E1,1.3E1,2.8E1,2.1E1,4.6E1,3.5E1,3.2E1,3.6E1,2.3E1,9E0,2.1E1,2.6E1,2.4E1,2.1E1,2.6E1,2.9E1,1.4E1,3.1E1],"tree_param":{"num_deleted":"0","num_feature":"4","num_nodes":"81","size_leaf_vector":"0"}},{"base_weights":[1.0368915E1,7.0228863E0,1.7370722E1,4.9005837E0,1.2879155E1,9.383045E0,2.4416008E1,2.7376957E0,7.232306E0,8.203233E0,1.746393E1,4.6257825E0,1.3339462E1,1.3934296E1,3.4376118E1,1.0526308E0,3.5741785E0,5.129547E0,1.0938065E1,4.8726563E0,1.108536E1,1.0592245E1,2.0557154E1,2.6985064E0,7.169776E0,8.09447E0,1.758869E1,8.063524E0,1.8082952E1,2.8619232E1,4.013703E1,6.5882343E-1,1.367078E0,2.3183737E0,5.1630006E0,2.891182E0,7.3594346E0,8.132054E0,1.381949E1,3.0990014E0,6.8460927E0,8.924327E0,1.3233657E1,6.0658884E0,1.224326E1,1.6660736E1,2.3567635E1,8.825514E-1,3.674683E0,3.8851907E0,9.800963E0,6.4334087E0,9.674964E0,1.4352329E1,2.372975E1,6.4334087E0,9.800963E0,1.5166102E1,2.1554081E1,2.2442017E1,3.236376E1,3.202846E1,4.6334316E1,7.185472E-1,4.9231705E-1,1.0655242E0,1.7040507E0,1.6361426E0,2.9542375E0,3.302016E0,6.93709E0,2.2037086E0,3.6511166E0,2.7494195E0,9.793854E0,6.392116E0,9.337917E0],"categories":[],"categories_nodes":[],"categories_segments":[],"categories_sizes":[],"default_left":[1,1,1,1,1,1,1,1,1,1,1,1,1,1,1,1,1,1,1,1,1,1,1,1,1,1,1,1,1,1,1,1,1,1,1,1,1,1,0,0,0,0,0,0,0,0,0,0,0,0,0,0,0,0,0,0,0,0,0,0,0,0,0,0,0,0,0,0,0,0,0,0,0,0,0,0,0],"id":7,"left_children":[1,3,5,7,9,11,13,15,17,19,21,23,25,27,29,31,33,35,37,39,41,43,45,47,49,51,53,55,57,59,61,63,65,67,69,71,73,75,-1,-1,-1,-1,-1,-1,-1,-1,-1,-1,-1,-1,-1,-1,-1,-1,-1,-1,-1,-1,-1,-1,-1,-1,-1,-1,-1,-1,-1,-1,-1,-1,-1,-1,-1,-1,-1,-1,-1],"loss_changes":[2.332968E4,8.376023E3,1.7947883E4,2.5018281E3,3.7155898E3,2.8180156E3,1.7373219E4,3.641244E2,1.8140488E3,8.1950684E2,1.6952617E3,3.2876355E2,1.7074648E3,1.9244316E3,1.7366641E3,9.996521E0,3.3520386E2,7.5237427E2,5.829551E2,1.3279248E2,1.0474072E2,1.4992603E2,3.228828E2,7.121002E1,2.2119226E2,4.01438E1,5.537832E2,4.1739014E1,1.6922168E2,3.6083594E2,5.7627344E2,5.3966522E-2,3.0618286E0,3.811322E1,2.2801147E2,3.322638E1,8.372217E2,3.6824707E1,0E0,0E0,0E0,0E0,0E0,0E0,0E0,0E0,0E0,0E0,0E0,0E0,0E0,0E0,0E0,0E0,0E0,0E0,0E0,0E0,0E0,0E0,0E0,0E0,0E0,0E0,0E0,0E0,0E0,0E0,0E0,0E0,0E0,0E0,0E0,0E0,0E0,0E0,0E0],"parents":[2147483647,0,0,1,1,2,2,3,3,4,4,5,5,6,6,7,7,8,8,9,9,10,10,11,11,12,12,13,13,14,14,15,15,16,16,17,17,18,18,19,19,20,20,21,21,22,22,23,23,24,24,25,25,26,26,27,27,28,28,29,29,30,30,31,31,32,32,33,33,34,34,35,35,36,36,37,37],"right_children":[2,4,6,8,10,12,14,16,18,20,22,24,26,28,30,32,34,36,38,40,42,44,46,48,50,52,54,56,58,60,62,64,66,68,70,72,74,76,-1,-1,-1,-1,-1,-1,-1,-1,-1,-1,-1,-1,-1,-1,-1,-1,-1,-1,-1,-1,-1,-1,-1,-1,-1,-1,-1,-1,-1,-1,-1,-1,-1,-1,-1,-1,-1,-1,-1],"split_conditions":[2.4E1,3.5E0,2.5E0,2.5E0,1.2E1,2.5E0,2.5E0,1.5E0,2.5E0,2.5E0,2.5E0,1.5E0,1.5E0,1.5E0,3.5E0,1.5E0,1.5E0,1.2E1,1.2E1,1.5E0,3.5E0,1.5E0,3.5E0,1.5E0,1.5E0,3.5E0,3.5E0,3.5E0,3.5E0,3.5E0,3.5E0,1.2E1,1.2E1,2.5E0,1.2E1,1.5E0,3.5E0,3.5E0,4.1458473E0,9.2970043E-1,2.053828E0,2.677298E0,3.9700973E0,1.8197666E0,3.6729782E0,4.998221E0,7.0702906E0,2.647654E-1,1.102405E0,1.1655573E0,2.940289E0,1.9300227E0,2.9024892E0,4.305699E0,7.118925E0,1.9300227E0,2.940289E0,4.549831E0,6.4662247E0,6.7326055E0,9.709129E0,9.608539E0,1.3900295E1,2.1556418E-1,1.4769512E-1,3.1965727E-1,5.112152E-1,4.908428E-1,8.862713E-1,9.906048E-1,2.0811272E0,6.611126E-1,1.095335E0,8.248259E-1,2.9381561E0,1.9176348E0,2.8013754E0],"split_indices":[0,3,3,2,0,2,2,3,3,2,2,2,3,2,3,2,2,0,0,2,2,2,2,3,3,2,2,3,3,2,2,0,0,3,0,3,2,2,0,0,0,0,0,0,0,0,0,0,0,0,0,0,0,0,0,0,0,0,0,0,0,0,0,0,0,0,0,0,0,0,0,0,0,0,0,0,0],"split_type":[0,0,0,0,0,0,0,0,0,0,0,0,0,0,0,0,0,0,0,0,0,0,0,0,0,0,0,0,0,0,0,0,0,0,0,0,0,0,0,0,0,0,0,0,0,0,0,0,0,0,0,0,0,0,0,0,0,0,0,0,0,0,0,0,0,0,0,0,0,0,0,0,0,0,0,0,0],"sum_hessian":[1E3,6.78E2,3.22E2,4.99E2,1.79E2,1.52E2,1.7E2,2.6E2,2.39E2,9E1,8.9E1,7E1,8.2E1,8.4E1,8.6E1,8.7E1,1.73E2,1.54E2,8.5E1,4.3E1,4.7E1,2.9E1,6E1,4.1E1,2.9E1,3.8E1,4.4E1,3.6E1,4.8E1,4.6E1,4E1,4E1,4.7E1,9.8E1,7.5E1,7.8E1,7.6E1,4.5E1,4E1,2.4E1,1.9E1,2.6E1,2.1E1,9E0,2E1,2.9E1,3.1E1,1.5E1,2.6E1,1.4E1,1.5E1,2.1E1,1.7E1,3.1E1,1.3E1,2.1E1,1.5E1,2.9E1,1.9E1,2E1,2.6E1,2E1,2E1,2.7E1,1.3E1,2.7E1,2E1,4.9E1,4.9E1,3.8E1,3.7E1,4.3E1,3.5E1,2.7E1,4.9E1,2.1E1,2.4E1],"tree_param":{"num_deleted":"0","num_feature":"4","num_nodes":"77","size_leaf_vector":"0"}},{"base_weights":[7.382901E0,3.762951E0,1.0710757E1,2.3809273E0,6.710159E0,7.412741E0,1.7417734E1,1.4067118E0,4.913418E0,3.3151312E0,9.533494E0,4.18592E0,1.0032699E1,9.940905E0,2.4522476E1,9.3519276E-1,2.0202205E0,2.4225452E0,7.6375885E0,1.9215057E0,5.1557026E0,5.7900395E0,1.2565966E1,2.4545515E0,5.9978375E0,6.9428663E0,1.2778459E1,5.7760954E0,1.2882885E1,2.0383282E1,2.86693E1,6.7880577E-1,1.585285E0,1.1617038E0,2.4264214E0,1.8480762E0,2.9001124E0,3.066447E0,1.05084715E1,6.343335E-1,2.6131074E0,2.7973368E0,7.0444393E0,4.5911136E0,6.933725E0,1.0181188E1,1.7119318E1,1.7842581E0,3.4160788E0,4.3591685E0,7.651556E0,5.6604857E0,8.130071E0,1.0259892E1,1.5566747E1,4.5911136E0,7.0444393E0,1.0767928E1,1.5411176E1,1.6030012E1,2.3014221E1,2.2877459E1,3.3095936E1,1.1166732E0,1.9951245E0,3.551712E-1,1.6221472E0,2.6835637E0,1.9540501E0,1.3272203E0,2.2064886E0,2.8520675E0,4.4280977E0,5.850514E0,8.745183E0,4.5616484E0,6.346187E0,6.6485963E0,9.4440155E0,8.136299E0,1.1829129E1],"categories":[],"categories_nodes":[],"categories_segments":[],"categories_sizes":[],"default_left":[1,1,1,1,1,1,1,1,1,1,1,1,1,1,1,1,1,1,1,1,1,1,1,1,1,1,1,1,1,1,1,0,1,1,1,0,0,0,0,0,0,0,0,0,0,0,0,1,1,0,1,1,1,1,0,0,0,0,0,0,0,0,0,0,0,0,0,0,0,0,0,0,0,0,0,0,0,0,0,0,0],"id":8,"left_children":[1,3,5,7,9,11,13,15,17,19,21,23,25,27,29,31,33,35,37,39,41,43,45,47,49,51,53,55,57,59,61,-1,63,65,67,-1,-1,-1,-1,-1,-1,-1,-1,-1,-1,-1,-1,69,71,-1,73,75,77,79,-1,-1,-1,-1,-1,-1,-1,-1,-1,-1,-1,-1,-1,-1,-1,-1,-1,-1,-1,-1,-1,-1,-1,-1,-1,-1,-1],"loss_changes":[1.2018414E4,1.94319E3,1.1395262E4,8.047942E2,1.4349453E3,2.9254062E3,8.839906E3,6.72489E1,5.989839E2,1.7221307E2,8.6945166E2,4.8407617E2,1.5486816E3,9.6707324E2,9.089375E2,2.17584E1,3.3100403E1,8.083405E0,5.320742E2,3.5731262E1,1.1392432E2,2.1642944E1,3.1434814E2,4.7398804E1,1.7530762E2,9.556738E1,5.495586E2,2.3267944E1,9.606787E1,1.6938281E2,2.9402344E2,0E0,5.0702133E0,1.2421551E1,3.1373901E0,0E0,0E0,0E0,0E0,0E0,0E0,0E0,0E0,0E0,0E0,0E0,0E0,6.9132385E0,6.2068787E0,0E0,2.1713867E1,7.2176514E0,2.675293E1,9.036963E1,0E0,0E0,0E0,0E0,0E0,0E0,0E0,0E0,0E0,0E0,0E0,0E0,0E0,0E0,0E0,0E0,0E0,0E0,0E0,0E0,0E0,0E0,0E0,0E0,0E0,0E0,0E0],"parents":[2147483647,0,0,1,1,2,2,3,3,4,4,5,5,6,6,7,7,8,8,9,9,10,10,11,11,12,12,13,13,14,14,15,15,16,16,17,17,18,18,19,19,20,20,21,21,22,22,23,23,24,24,25,25,26,26,27,27,28,28,29,29,30,30,32,32,33,33,34,34,47,47,48,48,50,50,51,51,52,52,53,53],"right_children":[2,4,6,8,10,12,14,16,18,20,22,24,26,28,30,32,34,36,38,40,42,44,46,48,50,52,54,56,58,60,62,-1,64,66,68,-1,-1,-1,-1,-1,-1,-1,-1,-1,-1,-1,-1,70,72,-1,74,76,78,80,-1,-1,-1,-1,-1,-1,-1,-1,-1,-1,-1,-1,-1,-1,-1,-1,-1,-1,-1,-1,-1,-1,-1,-1,-1,-1,-1],"split_conditions":[2.5E0,2.4E1,2.4E1,3.5E0,2.5E0,2.5E0,2.5E0,1.2E1,1.5E0,1.5E0,1.5E0,1.5E0,1.2E1,1.5E0,3.5E0,2.5E0,1.5E0,1.2E1,1.2E1,1.5E0,1.5E0,3.5E0,3.5E0,1.2E1,1.2E1,3.5E0,3.5E0,3.5E0,3.5E0,3.5E0,3.5E0,2.0364174E-1,1.5E0,1.5E0,2.5E0,5.544229E-1,8.7003374E-1,9.1993415E-1,3.1525416E0,1.9030006E-1,7.8393227E-1,8.392011E-1,2.1133318E0,1.3773341E0,2.0801175E0,3.0543563E0,5.1357956E0,3.5E0,3.5E0,1.3077506E0,3.5E0,3.5E0,3.5E0,3.5E0,4.6700244E0,1.3773341E0,2.1133318E0,3.2303786E0,4.623353E0,4.809004E0,6.904267E0,6.863238E0,9.9287815E0,3.3500198E-1,5.985374E-1,1.06551364E-1,4.8664418E-1,8.0506915E-1,5.86215E-1,3.9816612E-1,6.619466E-1,8.5562027E-1,1.3284293E0,1.7551543E0,2.623555E0,1.3684945E0,1.9038562E0,1.994579E0,2.8332047E0,2.4408898E0,3.548739E0],"split_indices":[3,0,0,2,2,2,2,0,3,2,3,2,0,2,3,2,2,0,0,3,3,2,2,0,0,2,2,3,3,2,2,0,3,3,2,0,0,0,0,0,0,0,0,0,0,0,0,3,3,0,3,3,3,3,0,0,0,0,0,0,0,0,0,0,0,0,0,0,0,0,0,0,0,0,0,0,0,0,0,0,0],"split_type":[0,0,0,0,0,0,0,0,0,0,0,0,0,0,0,0,0,0,0,0,0,0,0,0,0,0,0,0,0,0,0,0,0,0,0,0,0,0,0,0,0,0,0,0,0,0,0,0,0,0,0,0,0,0,0,0,0,0,0,0,0,0,0,0,0,0,0,0,0,0,0,0,0,0,0,0,0,0,0,0,0],"sum_hessian":[1E3,4.8E2,5.2E2,3.28E2,1.52E2,3.5E2,1.7E2,2.38E2,9E1,7E1,8.2E1,1.58E2,1.92E2,8.4E1,8.6E1,1.36E2,1.02E2,4.8E1,4.2E1,4.1E1,2.9E1,3.8E1,4.4E1,8.2E1,7.6E1,9.2E1,1E2,3.6E1,4.8E1,4.6E1,4E1,9.9E1,3.7E1,3.4E1,6.8E1,2.4E1,2.4E1,1.7E1,2.5E1,1.5E1,2.6E1,1.4E1,1.5E1,2.1E1,1.7E1,3.1E1,1.3E1,5E1,3.2E1,4E1,3.6E1,4.7E1,4.5E1,5.5E1,4.5E1,2.1E1,1.5E1,2.9E1,1.9E1,2E1,2.6E1,2E1,2E1,1.9E1,1.8E1,1.3E1,2.1E1,4.1E1,2.7E1,2.6E1,2.4E1,2.3E1,9E0,1.6E1,2E1,2.1E1,2.6E1,2.4E1,2.1E1,2.6E1,2.9E1],"tree_param":{"num_deleted":"0","num_feature":"4","num_nodes":"81","size_leaf_vector":"0"}},{"base_weights":[5.259672E0,3.543368E0,8.851346E0,2.4356482E0,6.6006823E0,4.7989044E0,1.2425453E1,1.361954E0,3.5931423E0,4.2026954E0,8.951972E0,2.3758976E0,6.813779E0,7.092097E0,1.7493383E1,4.2673874E-1,1.827109E0,2.5836728E0,5.3707547E0,1.5710193E0,5.1219378E0,7.041751E0,1.2194194E1,1.3682503E0,3.7074075E0,4.1416807E0,8.97818E0,4.1376076E0,9.178301E0,1.4517521E1,2.047807E1,3.0214638E-1,5.2427095E-1,1.0974221E0,2.6323988E0,1.4627208E0,3.7001863E0,4.129631E0,6.632241E0,4.236931E0,6.739591E0,3.2325108E0,7.6627636E0,4.5592725E-1,1.8582102E0,2.0140808E0,5.063188E0,3.2763853E0,4.9691706E0,7.2222843E0,1.2350357E1,3.2763853E0,5.063188E0,7.645231E0,1.1018991E1,1.1450021E1,1.636567E1,1.634103E1,2.3639963E1,5.046449E-1,1.6426373E0,1.6497339E0,3.7268074E0,1.1105485E0,1.8525224E0,1.3887724E0,4.920574E0,3.2553604E0,4.7338037E0],"categories":[],"categories_nodes":[],"categories_segments":[],"categories_sizes":[],"default_left":[1,1,1,1,1,1,1,1,1,1,1,1,1,1,1,1,1,1,1,0,1,1,0,1,1,1,1,1,1,1,1,0,0,1,1,1,1,1,0,0,0,0,0,0,0,0,0,0,0,0,0,0,0,0,0,0,0,0,0,0,0,0,0,0,0,0,0,0,0],"id":9,"left_children":[1,3,5,7,9,11,13,15,17,19,21,23,25,27,29,31,33,35,37,-1,39,41,-1,43,45,47,49,51,53,55,57,-1,-1,59,61,63,65,67,-1,-1,-1,-1,-1,-1,-1,-1,-1,-1,-1,-1,-1,-1,-1,-1,-1,-1,-1,-1,-1,-1,-1,-1,-1,-1,-1,-1,-1,-1,-1],"loss_changes":[6.139203E3,2.283457E3,4.61866E3,6.165039E2,9.772832E2,7.307654E2,4.4979062E3,1.1276059E2,4.1679077E2,2.120957E2,4.715337E2,9.01875E1,4.4284546E2,4.8593555E2,4.7544727E2,9.109516E-1,9.9355225E1,1.8857922E2,1.072583E2,0E0,6.736438E1,1.14799805E2,0E0,1.7926857E1,5.867569E1,1.1643982E1,1.7725586E2,1.2904907E1,5.4030273E1,7.906543E1,1.5001367E2,0E0,0E0,2.9227829E1,8.203754E1,8.787582E0,2.1036975E2,8.88739E0,0E0,0E0,0E0,0E0,0E0,0E0,0E0,0E0,0E0,0E0,0E0,0E0,0E0,0E0,0E0,0E0,0E0,0E0,0E0,0E0,0E0,0E0,0E0,0E0,0E0,0E0,0E0,0E0,0E0,0E0,0E0],"parents":[2147483647,0,0,1,1,2,2,3,3,4,4,5,5,6,6,7,7,8,8,9,9,10,10,11,11,12,12,13,13,14,14,15,15,16,16,17,17,18,18,20,20,21,21,23,23,24,24,25,25,26,26,27,27,28,28,29,29,30,30,33,33,34,34,35,35,36,36,37,37],"right_children":[2,4,6,8,10,12,14,16,18,20,22,24,26,28,30,32,34,36,38,-1,40,42,-1,44,46,48,50,52,54,56,58,-1,-1,60,62,64,66,68,-1,-1,-1,-1,-1,-1,-1,-1,-1,-1,-1,-1,-1,-1,-1,-1,-1,-1,-1,-1,-1,-1,-1,-1,-1,-1,-1,-1,-1,-1,-1],"split_conditions":[2.4E1,3.5E0,2.5E0,2.5E0,1.2E1,2.5E0,2.5E0,1.5E0,2.5E0,1.5E0,3.5E0,1.5E0,1.5E0,1.5E0,3.5E0,1.5E0,1.2E1,1.2E1,1.2E1,4.7130582E-1,3.5E0,1.5E0,3.6582582E0,1.5E0,1.5E0,3.5E0,3.5E0,3.5E0,3.5E0,3.5E0,3.5E0,9.064391E-2,1.572813E-1,2.5E0,1.5E0,1.5E0,3.5E0,3.5E0,1.9896723E0,1.2710793E0,2.0218775E0,9.6975327E-1,2.298829E0,1.3677818E-1,5.574631E-1,6.0422426E-1,1.5189565E0,9.8291564E-1,1.4907513E0,2.1666853E0,3.7051072E0,9.8291564E-1,1.5189565E0,2.2935693E0,3.3056977E0,3.4350064E0,4.909701E0,4.9023094E0,7.091989E0,1.5139347E-1,4.927912E-1,4.949202E-1,1.1180422E0,3.3316457E-1,5.5575675E-1,4.1663173E-1,1.4761723E0,9.7660816E-1,1.4201412E0],"split_indices":[0,3,3,2,0,2,2,3,3,2,2,2,3,2,3,2,0,0,0,0,2,2,0,3,3,2,2,3,3,2,2,0,0,3,2,3,2,2,0,0,0,0,0,0,0,0,0,0,0,0,0,0,0,0,0,0,0,0,0,0,0,0,0,0,0,0,0,0,0],"split_type":[0,0,0,0,0,0,0,0,0,0,0,0,0,0,0,0,0,0,0,0,0,0,0,0,0,0,0,0,0,0,0,0,0,0,0,0,0,0,0,0,0,0,0,0,0,0,0,0,0,0,0,0,0,0,0,0,0,0,0,0,0,0,0,0,0,0,0,0,0],"sum_hessian":[1E3,6.78E2,3.22E2,4.99E2,1.79E2,1.52E2,1.7E2,2.6E2,2.39E2,9E1,8.9E1,7E1,8.2E1,8.4E1,8.6E1,8.7E1,1.73E2,1.54E2,8.5E1,2.4E1,6.6E1,5.8E1,3.1E1,4.1E1,2.9E1,3.8E1,4.4E1,3.6E1,4.8E1,4.6E1,4E1,4E1,4.7E1,9.2E1,8.1E1,7.8E1,7.6E1,4.5E1,4E1,4.5E1,2.1E1,9E0,4.9E1,1.5E1,2.6E1,1.4E1,1.5E1,2.1E1,1.7E1,3.1E1,1.3E1,2.1E1,1.5E1,2.9E1,1.9E1,2E1,2.6E1,2E1,2E1,4.5E1,4.7E1,4.4E1,3.7E1,4.3E1,3.5E1,2.7E1,4.9E1,2.1E1,2.4E1],"tree_param":{"num_deleted":"0","num_feature":"4","num_nodes":"69","size_leaf_vector":"0"}},{"base_weights":[3.741678E0,2.510349E0,6.318553E0,1.7243001E0,4.679872E0,3.4321916E0,8.864137E0,1.2401443E0,3.1071038E0,2.543343E0,6.080675E0,1.7028091E0,4.870191E0,5.059777E0,1.2479154E1,6.6602004E-1,2.2548873E0,8.3864546E-1,4.441022E0,1.7469455E0,3.6266146E0,4.0543838E0,7.575451E0,9.743039E-1,2.665956E0,2.9626017E0,6.415209E0,2.963941E0,6.5390854E0,1.0339816E1,1.4627194E1,4.4512203E-1,9.533696E-1,1.0011443E0,2.9658551E0,9.9599123E-1,6.477539E-1,2.7231174E0,6.133796E0,1.1185657E0,2.445073E0,2.3597329E0,4.0571957E0,3.2888427E0,4.809621E0,6.176483E0,8.65025E0,3.27698E-1,1.3213925E0,1.4501374E0,3.639164E0,2.3381455E0,3.5612369E0,5.1233063E0,8.909899E0,2.3381455E0,3.639164E0,5.4281187E0,7.878581E0,8.178595E0,1.1637811E1,1.167216E1,1.6885696E1,3.421334E-1,7.0443106E-1,4.9952072E-1,1.1697658E0,4.6926004E-1,1.5577998E0,2.1889427E0,3.673794E0,1.6727371E0,3.3704662E0],"categories":[],"categories_nodes":[],"categories_segments":[],"categories_sizes":[],"default_left":[1,1,1,1,1,1,1,1,1,1,1,1,1,1,1,1,1,1,1,1,1,1,1,1,1,1,1,1,1,1,1,1,1,1,1,0,0,1,0,0,0,0,0,0,0,0,0,0,0,0,0,0,0,0,0,0,0,0,0,0,0,0,0,0,0,0,0,0,0,0,0,0,0],"id":10,"left_children":[1,3,5,7,9,11,13,15,17,19,21,23,25,27,29,31,33,35,37,39,41,43,45,47,49,51,53,55,57,59,61,63,65,67,69,-1,-1,71,-1,-1,-1,-1,-1,-1,-1,-1,-1,-1,-1,-1,-1,-1,-1,-1,-1,-1,-1,-1,-1,-1,-1,-1,-1,-1,-1,-1,-1,-1,-1,-1,-1,-1,-1],"loss_changes":[3.16029E3,1.1498638E3,2.3428125E3,3.308932E2,5.23249E2,3.721952E2,2.2885918E3,2.1522107E2,3.8662146E2,5.664267E1,2.964021E2,4.7220245E1,2.256167E2,2.4415137E2,2.4855469E2,1.474614E1,1.1647449E2,8.2660294E-1,2.1884692E2,1.6567352E1,6.7909546E0,1.1933899E1,3.8292236E1,8.993023E0,3.0220032E1,6.2523193E0,9.9382324E1,7.125519E0,3.0152588E1,3.6666504E1,7.653906E1,3.417698E0,9.531433E0,1.40728035E1,3.87088E1,0E0,0E0,2.2920502E1,0E0,0E0,0E0,0E0,0E0,0E0,0E0,0E0,0E0,0E0,0E0,0E0,0E0,0E0,0E0,0E0,0E0,0E0,0E0,0E0,0E0,0E0,0E0,0E0,0E0,0E0,0E0,0E0,0E0,0E0,0E0,0E0,0E0,0E0,0E0],"parents":[2147483647,0,0,1,1,2,2,3,3,4,4,5,5,6,6,7,7,8,8,9,9,10,10,11,11,12,12,13,13,14,14,15,15,16,16,17,17,18,18,19,19,20,20,21,21,22,22,23,23,24,24,25,25,26,26,27,27,28,28,29,29,30,30,31,31,32,32,33,33,34,34,37,37],"right_children":[2,4,6,8,10,12,14,16,18,20,22,24,26,28,30,32,34,36,38,40,42,44,46,48,50,52,54,56,58,60,62,64,66,68,70,-1,-1,72,-1,-1,-1,-1,-1,-1,-1,-1,-1,-1,-1,-1,-1,-1,-1,-1,-1,-1,-1,-1,-1,-1,-1,-1,-1,-1,-1,-1,-1,-1,-1,-1,-1,-1,-1],"split_conditions":[2.4E1,3.5E0,2.5E0,3.5E0,2.5E0,2.5E0,2.5E0,2.5E0,1.5E0,1.2E1,1.2E1,1.5E0,1.5E0,1.5E0,3.5E0,1.2E1,1.5E0,1.2E1,1.2E1,1.5E0,1.5E0,3.5E0,3.5E0,1.5E0,1.5E0,3.5E0,3.5E0,3.5E0,3.5E0,3.5E0,3.5E0,2.5E0,1.5E0,1.2E1,1.2E1,2.9879737E-1,1.9432618E-1,2.5E0,1.8401389E0,3.355697E-1,7.335219E-1,7.079199E-1,1.2171588E0,9.8665285E-1,1.4428864E0,1.852945E0,2.5950751E0,9.8309405E-2,3.9641777E-1,4.3504122E-1,1.0917492E0,7.014437E-1,1.068371E0,1.536992E0,2.6729698E0,7.014437E-1,1.0917492E0,1.6284357E0,2.3635745E0,2.4535785E0,3.4913433E0,3.5016482E0,5.065709E0,1.02640025E-1,2.1132933E-1,1.4985622E-1,3.5092977E-1,1.4077802E-1,4.6733996E-1,6.5668285E-1,1.1021383E0,5.0182116E-1,1.0111399E0],"split_indices":[0,3,3,2,2,2,2,3,3,0,0,2,3,2,3,0,2,0,0,2,2,2,2,3,3,2,2,3,3,2,2,2,2,0,0,0,0,3,0,0,0,0,0,0,0,0,0,0,0,0,0,0,0,0,0,0,0,0,0,0,0,0,0,0,0,0,0,0,0,0,0,0,0],"split_type":[0,0,0,0,0,0,0,0,0,0,0,0,0,0,0,0,0,0,0,0,0,0,0,0,0,0,0,0,0,0,0,0,0,0,0,0,0,0,0,0,0,0,0,0,0,0,0,0,0,0,0,0,0,0,0,0,0,0,0,0,0,0,0,0,0,0,0,0,0,0,0,0,0],"sum_hessian":[1E3,6.78E2,3.22E2,4.99E2,1.79E2,1.52E2,1.7E2,3.71E2,1.28E2,7.2E1,1.07E2,7E1,8.2E1,8.4E1,8.6E1,2.38E2,1.33E2,4.8E1,8E1,4.3E1,2.9E1,4.7E1,6E1,4.1E1,2.9E1,3.8E1,4.4E1,3.6E1,4.8E1,4.6E1,4E1,1.36E2,1.02E2,4.9E1,8.4E1,2.4E1,2.4E1,4.1E1,3.9E1,2.4E1,1.9E1,9E0,2E1,2.6E1,2.1E1,2.9E1,3.1E1,1.5E1,2.6E1,1.4E1,1.5E1,2.1E1,1.7E1,3.1E1,1.3E1,2.1E1,1.5E1,2.9E1,1.9E1,2E1,2.6E1,2E1,2E1,9.9E1,3.7E1,3.4E1,6.8E1,2.6E1,2.3E1,4.2E1,4.2E1,1.7E1,2.4E1],"tree_param":{"num_deleted":"0","num_feature":"4","num_nodes":"73","size_leaf_vector":"0"}},{"base_weights":[2.6643279E0,1.7821331E0,4.5106E0,1.2210661E0,3.3307517E0,3.418066E0,7.956644E0,8.76654E-1,2.2047887E0,1.8213569E0,4.3201504E0,1.948448E0,4.8368254E0,2.5522165E0,9.445361E0,4.696232E-1,1.5960847E0,5.971163E-1,3.1501117E0,1.2471591E0,2.6028016E0,2.8886821E0,5.37573E0,6.937908E-1,2.5673156E0,2.1232212E0,5.910607E0,7.835904E0,1.2061215E1,3.1387728E-1,6.7222095E-1,7.1296424E-1,2.0967898E0,7.091455E-1,4.6120238E-1,1.9422046E0,4.339661E0,7.9641724E-1,1.7482284E0,1.7226048E0,2.898E0,2.3387294E0,3.4323204E0,4.3852973E0,6.136269E0,2.3553282E-1,9.396552E-1,1.4547315E0,3.3648841E0,1.6685829E0,2.6156473E0,4.658832E0,7.262469E0,2.4051997E-1,4.986629E-1,3.5394576E-1,8.239225E-1,3.3369642E-1,1.1099337E0,1.5475312E0,2.5972857E0,1.1987928E0,2.399773E0,1.0441004E0,1.6685829E0,3.8539667E0,5.6331887E0,5.8418493E0,8.337257E0],"categories":[],"categories_nodes":[],"categories_segments":[],"categories_sizes":[],"default_left":[1,1,1,1,1,1,1,1,1,1,1,1,1,0,1,1,1,1,1,1,1,1,1,1,1,1,1,0,0,1,1,1,1,0,0,1,0,0,0,0,0,0,0,0,0,0,0,1,0,0,0,1,1,0,0,0,0,0,0,0,0,0,0,0,0,0,0,0,0],"id":11,"left_children":[1,3,5,7,9,11,13,15,17,19,21,23,25,-1,27,29,31,33,35,37,39,41,43,45,47,49,51,-1,-1,53,55,57,59,-1,-1,61,-1,-1,-1,-1,-1,-1,-1,-1,-1,-1,-1,63,-1,-1,-1,65,67,-1,-1,-1,-1,-1,-1,-1,-1,-1,-1,-1,-1,-1,-1,-1,-1],"loss_changes":[1.6223628E3,5.8590186E2,1.1888726E3,1.6747015E2,2.6094214E2,5.0557935E2,5.9540967E2,1.0818338E2,1.9416925E2,2.9509262E1,1.4766235E2,9.372421E1,3.516775E2,0E0,1.580957E2,7.3303604E0,5.775757E1,4.1902924E-1,1.0795758E2,8.545212E0,2.8028717E0,6.323517E0,1.903955E1,4.510792E0,6.786865E1,3.9189758E0,1.1677368E2,0E0,0E0,1.7371483E0,4.681507E0,7.157505E0,1.934729E1,0E0,0E0,1.1409958E1,0E0,0E0,0E0,0E0,0E0,0E0,0E0,0E0,0E0,0E0,0E0,1.4191284E0,0E0,0E0,0E0,1.6716919E1,1.3896484E1,0E0,0E0,0E0,0E0,0E0,0E0,0E0,0E0,0E0,0E0,0E0,0E0,0E0,0E0,0E0,0E0],"parents":[2147483647,0,0,1,1,2,2,3,3,4,4,5,5,6,6,7,7,8,8,9,9,10,10,11,11,12,12,14,14,15,15,16,16,17,17,18,18,19,19,20,20,21,21,22,22,23,23,24,24,25,25,26,26,29,29,30,30,31,31,32,32,35,35,47,47,51,51,52,52],"right_children":[2,4,6,8,10,12,14,16,18,20,22,24,26,-1,28,30,32,34,36,38,40,42,44,46,48,50,52,-1,-1,54,56,58,60,-1,-1,62,-1,-1,-1,-1,-1,-1,-1,-1,-1,-1,-1,64,-1,-1,-1,66,68,-1,-1,-1,-1,-1,-1,-1,-1,-1,-1,-1,-1,-1,-1,-1,-1],"split_conditions":[2.4E1,3.5E0,3.5E0,3.5E0,2.5E0,2.5E0,1.5E0,2.5E0,1.5E0,1.2E1,1.2E1,1.5E0,1.5E0,7.65665E-1,3.5E0,1.2E1,1.5E0,1.2E1,1.2E1,1.5E0,1.5E0,3.5E0,3.5E0,1.5E0,1.5E0,3.5E0,2.5E0,2.3507714E0,3.6183648E0,2.5E0,1.5E0,1.2E1,1.2E1,2.1274365E-1,1.3836072E-1,2.5E0,1.3018984E0,2.3892517E-1,5.2446854E-1,5.1678145E-1,8.694E-1,7.0161885E-1,1.0296961E0,1.3155892E0,1.8408808E0,7.0659846E-2,2.8189656E-1,2.5E0,1.0094653E0,5.005749E-1,7.8469425E-1,3.5E0,3.5E0,7.2156E-2,1.4959887E-1,1.0618373E-1,2.4717677E-1,1.0010893E-1,3.3298013E-1,4.642594E-1,7.791858E-1,3.5963786E-1,7.199319E-1,3.1323013E-1,5.005749E-1,1.15619E0,1.6899567E0,1.7525549E0,2.5011773E0],"split_indices":[0,3,2,2,2,3,3,3,3,0,0,2,2,0,3,0,2,0,0,2,2,2,2,3,3,3,2,0,0,2,2,0,0,0,0,3,0,0,0,0,0,0,0,0,0,0,0,2,0,0,0,3,3,0,0,0,0,0,0,0,0,0,0,0,0,0,0,0,0],"split_type":[0,0,0,0,0,0,0,0,0,0,0,0,0,0,0,0,0,0,0,0,0,0,0,0,0,0,0,0,0,0,0,0,0,0,0,0,0,0,0,0,0,0,0,0,0,0,0,0,0,0,0,0,0,0,0,0,0,0,0,0,0,0,0,0,0,0,0,0,0],"sum_hessian":[1E3,6.78E2,3.22E2,4.99E2,1.79E2,2.46E2,7.6E1,3.71E2,1.28E2,7.2E1,1.07E2,1.22E2,1.24E2,1.7E1,5.9E1,2.38E2,1.33E2,4.8E1,8E1,4.3E1,2.9E1,4.7E1,6E1,4.1E1,8.1E1,3.6E1,8.8E1,3.9E1,2E1,1.36E2,1.02E2,4.9E1,8.4E1,2.4E1,2.4E1,4.1E1,3.9E1,2.4E1,1.9E1,9E0,2E1,2.6E1,2.1E1,2.9E1,3.1E1,1.5E1,2.6E1,3.5E1,4.6E1,2.1E1,1.5E1,4.8E1,4E1,9.9E1,3.7E1,3.4E1,6.8E1,2.6E1,2.3E1,4.2E1,4.2E1,1.7E1,2.4E1,1.4E1,2.1E1,2.9E1,1.9E1,2E1,2E1],"tree_param":{"num_deleted":"0","num_feature":"4","num_nodes":"69","size_leaf_vector":"0"}},{"base_weights":[1.8943177E0,1.2651985E0,3.2109668E0,8.6471504E-1,2.3706236E0,1.7143202E0,4.531294E0,6.1971045E-1,1.5645368E0,1.3043962E0,3.069364E0,8.272493E-1,2.4524853E0,2.5755403E0,6.390004E0,3.311424E-1,1.1297704E0,4.251485E-1,2.234481E0,8.9036125E-1,1.8681674E0,2.0581458E0,3.8147593E0,4.94049E-1,1.2661548E0,1.5159085E0,3.2096856E0,1.5209947E0,3.3192677E0,5.318166E0,7.462843E0,2.213327E-1,4.7398502E-1,5.077362E-1,1.4823816E0,5.0491333E-1,3.283777E-1,1.3852483E0,3.0703135E0,5.670483E-1,1.2499844E0,1.257502E0,2.0700002E0,1.6630933E0,2.449431E0,3.1135676E0,4.3529153E0,1.6928941E-1,6.68201E-1,7.5175375E-1,1.669271E0,1.190764E0,1.8290901E0,2.656435E0,4.244995E0,1.190764E0,1.8799996E0,2.7363174E0,4.02773E0,4.172741E0,6.0120826E0,5.955171E0,8.615141E0,1.6908522E-1,3.5300153E-1,2.5079557E-1,5.803277E-1,2.3729508E-1,7.908268E-1,1.0940698E0,1.8362193E0,8.591381E-1,1.7086377E0],"categories":[],"categories_nodes":[],"categories_segments":[],"categories_sizes":[],"default_left":[1,1,1,1,1,1,1,1,1,1,1,1,1,1,1,1,1,1,1,1,1,1,1,1,1,1,1,1,1,1,1,1,1,1,1,0,0,1,0,0,0,0,0,0,0,0,0,0,0,0,0,0,0,0,0,0,0,0,0,0,0,0,0,0,0,0,0,0,0,0,0,0,0],"id":12,"left_children":[1,3,5,7,9,11,13,15,17,19,21,23,25,27,29,31,33,35,37,39,41,43,45,47,49,51,53,55,57,59,61,63,65,67,69,-1,-1,71,-1,-1,-1,-1,-1,-1,-1,-1,-1,-1,-1,-1,-1,-1,-1,-1,-1,-1,-1,-1,-1,-1,-1,-1,-1,-1,-1,-1,-1,-1,-1,-1,-1,-1,-1],"loss_changes":[8.25095E2,2.985464E2,6.305E2,8.4760254E1,1.300993E2,9.815634E1,6.0515796E2,5.437944E1,9.7519135E1,1.5376381E1,7.355444E1,9.75774E0,5.3996033E1,6.1616394E1,6.0353516E1,3.6439266E0,2.8638397E1,2.1242428E-1,5.3241974E1,4.4071083E0,1.0945282E0,3.346115E0,9.465332E0,2.2622967E0,4.9660225E0,1.7933197E0,1.449881E1,2.1478806E0,9.215759E0,1.2270264E1,1.9924072E1,8.827858E-1,2.2991161E0,3.6403074E0,9.669998E0,0E0,0E0,5.6778564E0,0E0,0E0,0E0,0E0,0E0,0E0,0E0,0E0,0E0,0E0,0E0,0E0,0E0,0E0,0E0,0E0,0E0,0E0,0E0,0E0,0E0,0E0,0E0,0E0,0E0,0E0,0E0,0E0,0E0,0E0,0E0,0E0,0E0,0E0,0E0],"parents":[2147483647,0,0,1,1,2,2,3,3,4,4,5,5,6,6,7,7,8,8,9,9,10,10,11,11,12,12,13,13,14,14,15,15,16,16,17,17,18,18,19,19,20,20,21,21,22,22,23,23,24,24,25,25,26,26,27,27,28,28,29,29,30,30,31,31,32,32,33,33,34,34,37,37],"right_children":[2,4,6,8,10,12,14,16,18,20,22,24,26,28,30,32,34,36,38,40,42,44,46,48,50,52,54,56,58,60,62,64,66,68,70,-1,-1,72,-1,-1,-1,-1,-1,-1,-1,-1,-1,-1,-1,-1,-1,-1,-1,-1,-1,-1,-1,-1,-1,-1,-1,-1,-1,-1,-1,-1,-1,-1,-1,-1,-1,-1,-1],"split_conditions":[2.4E1,3.5E0,2.5E0,3.5E0,2.5E0,2.5E0,2.5E0,2.5E0,1.5E0,1.2E1,1.2E1,1.5E0,1.5E0,1.5E0,3.5E0,1.2E1,1.5E0,1.2E1,1.2E1,1.5E0,1.5E0,3.5E0,3.5E0,1.5E0,1.5E0,3.5E0,3.5E0,3.5E0,3.5E0,3.5E0,3.5E0,2.5E0,1.5E0,1.2E1,1.2E1,1.51474E-1,9.851331E-2,2.5E0,9.2109406E-1,1.701145E-1,3.7499532E-1,3.772506E-1,6.2100005E-1,4.98928E-1,7.348293E-1,9.340703E-1,1.3058746E0,5.0786827E-2,2.0046031E-1,2.2552614E-1,5.007813E-1,3.572292E-1,5.4872704E-1,7.9693055E-1,1.2734985E0,3.572292E-1,5.639999E-1,8.2089525E-1,1.2083191E0,1.2518224E0,1.8036249E0,1.7865514E0,2.5845423E0,5.0725568E-2,1.0590047E-1,7.5238675E-2,1.7409831E-1,7.1188524E-2,2.3724805E-1,3.2822096E-1,5.508658E-1,2.5774142E-1,5.1259136E-1],"split_indices":[0,3,3,2,2,2,2,3,3,0,0,2,3,2,3,0,2,0,0,2,2,2,2,3,3,2,2,3,3,2,2,2,2,0,0,0,0,3,0,0,0,0,0,0,0,0,0,0,0,0,0,0,0,0,0,0,0,0,0,0,0,0,0,0,0,0,0,0,0,0,0,0,0],"split_type":[0,0,0,0,0,0,0,0,0,0,0,0,0,0,0,0,0,0,0,0,0,0,0,0,0,0,0,0,0,0,0,0,0,0,0,0,0,0,0,0,0,0,0,0,0,0,0,0,0,0,0,0,0,0,0,0,0,0,0,0,0,0,0,0,0,0,0,0,0,0,0,0,0],"sum_hessian":[1E3,6.78E2,3.22E2,4.99E2,1.79E2,1.52E2,1.7E2,3.71E2,1.28E2,7.2E1,1.07E2,7E1,8.2E1,8.4E1,8.6E1,2.38E2,1.33E2,4.8E1,8E1,4.3E1,2.9E1,4.7E1,6E1,4.1E1,2.9E1,3.8E1,4.4E1,3.6E1,4.8E1,4.6E1,4E1,1.36E2,1.02E2,4.9E1,8.4E1,2.4E1,2.4E1,4.1E1,3.9E1,2.4E1,1.9E1,9E0,2E1,2.6E1,2.1E1,2.9E1,3.1E1,1.5E1,2.6E1,1.4E1,1.5E1,2.1E1,1.7E1,3.1E1,1.3E1,2.1E1,1.5E1,2.9E1,1.9E1,2E1,2.6E1,2E1,2E1,9.9E1,3.7E1,3.4E1,6.8E1,2.6E1,2.3E1,4.2E1,4.2E1,1.7E1,2.4E1],"tree_param":{"num_deleted":"0","num_feature":"4","num_nodes":"73","size_leaf_vector":"0"}},{"base_weights":[1.3488822E0,8.982336E-1,2.2920446E0,6.123698E-1,1.6873095E0,1.225866E0,3.2325904E0,3.2474393E-1,9.226113E-1,9.3422E-1,2.1807191E0,5.928444E-1,1.7525969E0,1.8375906E0,4.558365E0,-6.1294805E-2,5.181156E-1,6.330466E-1,1.4337732E0,6.35644E-1,1.3409907E0,1.4664059E0,2.707052E0,3.5181743E-1,9.105207E-1,1.0843637E0,2.2927856E0,1.089592E0,2.364904E0,3.787725E0,5.330602E0,1.0243971E-1,-3.2435668E-1,2.5152224E-1,8.1415296E-1,2.5050458E-1,8.993343E-1,1.110663E0,1.7613168E0,4.0374023E-1,8.937416E-1,9.179764E-1,1.4785694E0,1.1826477E0,1.7479997E0,2.2106364E0,3.0878463E0,1.21676624E-1,4.751669E-1,5.412638E-1,1.1997914E0,8.497706E-1,1.3108461E0,1.8844032E0,3.0624607E0,8.497706E-1,1.3512468E0,1.9427882E0,2.8798325E0,2.980521E0,4.2752643E0,4.2536855E0,6.153681E0,9.438924E-3,1.9178192E-1,-1.3555452E-1,-4.3477923E-1,1.3592397E-1,3.5706386E-1,4.8090312E-1,1.1873658E0,7.593508E-1,-2.3577724E-1,3.027051E-1,1.5582994E0],"categories":[],"categories_nodes":[],"categories_segments":[],"categories_sizes":[],"default_left":[1,1,1,1,1,1,1,1,1,1,1,1,1,1,1,1,1,1,1,1,1,1,1,1,1,1,1,1,1,1,1,1,1,1,1,1,1,0,0,0,0,0,0,0,0,0,0,0,0,0,0,0,0,0,0,0,0,0,0,0,0,0,0,0,0,0,0,0,0,0,0,0,0,0,0],"id":13,"left_children":[1,3,5,7,9,11,13,15,17,19,21,23,25,27,29,31,33,35,37,39,41,43,45,47,49,51,53,55,57,59,61,63,65,67,69,71,73,-1,-1,-1,-1,-1,-1,-1,-1,-1,-1,-1,-1,-1,-1,-1,-1,-1,-1,-1,-1,-1,-1,-1,-1,-1,-1,-1,-1,-1,-1,-1,-1,-1,-1,-1,-1,-1,-1],"loss_changes":[4.2340125E2,1.5212756E2,3.1993823E2,4.431714E1,6.484741E1,4.9976074E1,3.078805E2,1.9515131E1,3.4615814E1,8.013599E0,3.6634766E1,5.1160297E0,2.7474457E1,3.0949738E1,3.158435E1,3.8235898E0,1.352758E1,1.5563984E1,7.1453857E0,2.2727299E0,3.8864136E-1,1.7681503E0,4.704834E0,1.1344686E0,2.5550537E0,9.5819855E-1,8.373566E0,1.1735153E0,5.0556946E0,5.7539673E0,1.0166016E1,4.551791E-1,6.498966E-1,1.0861058E0,9.627583E0,1.626281E1,3.5305664E1,0E0,0E0,0E0,0E0,0E0,0E0,0E0,0E0,0E0,0E0,0E0,0E0,0E0,0E0,0E0,0E0,0E0,0E0,0E0,0E0,0E0,0E0,0E0,0E0,0E0,0E0,0E0,0E0,0E0,0E0,0E0,0E0,0E0,0E0,0E0,0E0,0E0,0E0],"parents":[2147483647,0,0,1,1,2,2,3,3,4,4,5,5,6,6,7,7,8,8,9,9,10,10,11,11,12,12,13,13,14,14,15,15,16,16,17,17,18,18,19,19,20,20,21,21,22,22,23,23,24,24,25,25,26,26,27,27,28,28,29,29,30,30,31,31,32,32,33,33,34,34,35,35,36,36],"right_children":[2,4,6,8,10,12,14,16,18,20,22,24,26,28,30,32,34,36,38,40,42,44,46,48,50,52,54,56,58,60,62,64,66,68,70,72,74,-1,-1,-1,-1,-1,-1,-1,-1,-1,-1,-1,-1,-1,-1,-1,-1,-1,-1,-1,-1,-1,-1,-1,-1,-1,-1,-1,-1,-1,-1,-1,-1,-1,-1,-1,-1,-1,-1],"split_conditions":[2.4E1,3.5E0,2.5E0,2.5E0,2.5E0,2.5E0,2.5E0,1.5E0,2.5E0,1.2E1,1.2E1,1.5E0,1.5E0,1.5E0,3.5E0,1.2E1,1.2E1,3.5E0,1.2E1,1.5E0,1.5E0,3.5E0,3.5E0,1.5E0,1.5E0,3.5E0,3.5E0,3.5E0,3.5E0,3.5E0,3.5E0,1.5E0,1.5E0,2.5E0,1.5E0,1.5E0,1.5E0,3.3319893E-1,5.2839506E-1,1.2112207E-1,2.681225E-1,2.7539292E-1,4.4357082E-1,3.5479432E-1,5.2439994E-1,6.6319096E-1,9.2635393E-1,3.6502987E-2,1.4255007E-1,1.6237915E-1,3.5993743E-1,2.5493118E-1,3.9325383E-1,5.6532097E-1,9.1873825E-1,2.5493118E-1,4.0537408E-1,5.828365E-1,8.639498E-1,8.9415634E-1,1.2825793E0,1.2761056E0,1.8461043E0,2.8316772E-3,5.753458E-2,-4.0666357E-2,-1.3043377E-1,4.077719E-2,1.07119165E-1,1.4427094E-1,3.5620975E-1,2.2780524E-1,-7.0733175E-2,9.0811536E-2,4.6748984E-1],"split_indices":[0,3,3,2,2,2,2,3,3,0,0,2,3,2,3,0,0,2,0,2,2,2,2,3,3,2,2,3,3,2,2,2,2,3,2,3,3,0,0,0,0,0,0,0,0,0,0,0,0,0,0,0,0,0,0,0,0,0,0,0,0,0,0,0,0,0,0,0,0,0,0,0,0,0,0],"split_type":[0,0,0,0,0,0,0,0,0,0,0,0,0,0,0,0,0,0,0,0,0,0,0,0,0,0,0,0,0,0,0,0,0,0,0,0,0,0,0,0,0,0,0,0,0,0,0,0,0,0,0,0,0,0,0,0,0,0,0,0,0,0,0,0,0,0,0,0,0,0,0,0,0,0,0],"sum_hessian":[1E3,6.78E2,3.22E2,4.99E2,1.79E2,1.52E2,1.7E2,2.6E2,2.39E2,7.2E1,1.07E2,7E1,8.2E1,8.4E1,8.6E1,8.7E1,1.73E2,1.54E2,8.5E1,4.3E1,2.9E1,4.7E1,6E1,4.1E1,2.9E1,3.8E1,4.4E1,3.6E1,4.8E1,4.6E1,4E1,5.4E1,3.3E1,9.2E1,8.1E1,6.4E1,9E1,4.5E1,4E1,2.4E1,1.9E1,9E0,2E1,2.6E1,2.1E1,2.9E1,3.1E1,1.5E1,2.6E1,1.4E1,1.5E1,2.1E1,1.7E1,3.1E1,1.3E1,2.1E1,1.5E1,2.9E1,1.9E1,2E1,2.6E1,2E1,2E1,2.7E1,2.7E1,1.3E1,2E1,4.5E1,4.7E1,4.4E1,3.7E1,3.1E1,3.3E1,4.8E1,4.2E1],"tree_param":{"num_deleted":"0","num_feature":"4","num_nodes":"75","size_leaf_vector":"0"}},{"base_weights":[9.60132E-1,6.37145E-1,1.636132E0,4.3288764E-1,1.200987E0,8.7662613E-1,2.3061218E0,3.0272257E-1,8.048916E-1,6.691354E-1,1.549359E0,4.248684E-1,1.2525078E0,1.3111018E0,3.251761E0,1.6837113E-1,5.400903E-1,2.1374574E-1,1.1525614E0,4.5379934E-1,9.6265703E-1,1.0447994E0,1.92099E0,2.505346E-1,6.547735E-1,7.756747E-1,1.6379297E0,7.805625E-1,1.6849558E0,2.6977098E0,3.8075814E0,1.0848521E-1,2.4639052E-1,3.5842115E-1,8.5811377E-1,2.7231812E-1,1.4662354E-1,6.083939E-1,1.6951233E0,2.874646E-1,6.390278E-1,6.701214E-1,1.056119E0,8.4099096E-1,1.2474372E0,1.56955E0,2.190434E0,8.745521E-2,3.3789515E-1,3.8970897E-1,8.623481E-1,6.064297E-1,9.394366E-1,1.3367467E0,2.2093527E0,6.064297E-1,9.7121E-1,1.3793762E0,2.0590775E0,2.1289353E0,3.0401747E0,3.0383592E0,4.39549E0,6.007285E-3,2.2528023E-1,1.06248066E-1,3.139064E-1,2.395179E-1,5.0544065E-1,6.21796E-1,1.018887E0,1.7419392E-1,8.9668214E-1],"categories":[],"categories_nodes":[],"categories_segments":[],"categories_sizes":[],"default_left":[1,1,1,1,1,1,1,1,1,1,1,1,1,1,1,1,1,1,1,1,1,1,1,1,1,1,1,1,1,1,1,1,1,1,1,0,0,1,0,0,0,0,0,0,0,0,0,0,0,0,0,0,0,0,0,0,0,0,0,0,0,0,0,0,0,0,0,0,0,0,0,0,0],"id":14,"left_children":[1,3,5,7,9,11,13,15,17,19,21,23,25,27,29,31,33,35,37,39,41,43,45,47,49,51,53,55,57,59,61,63,65,67,69,-1,-1,71,-1,-1,-1,-1,-1,-1,-1,-1,-1,-1,-1,-1,-1,-1,-1,-1,-1,-1,-1,-1,-1,-1,-1,-1,-1,-1,-1,-1,-1,-1,-1,-1,-1,-1,-1],"loss_changes":[2.1751514E2,7.767978E1,1.6234064E2,2.39673E1,3.2314056E1,2.5448402E1,1.5663556E2,1.1772404E1,2.626619E1,4.17717E0,1.824405E1,2.681652E0,1.3983398E1,1.5544052E1,1.6520203E1,1.0899415E0,7.434288E0,1.5271544E-1,2.2883507E1,1.1719398E0,1.1249924E-1,9.3328476E-1,2.3382874E0,5.688107E-1,1.3145561E0,5.112171E-1,4.7912827E0,6.393566E-1,2.7616425E0,2.6825867E0,5.1864624E0,1.6383876E0,9.412184E-1,1.3997936E0,1.190155E0,0E0,0E0,5.101142E0,0E0,0E0,0E0,0E0,0E0,0E0,0E0,0E0,0E0,0E0,0E0,0E0,0E0,0E0,0E0,0E0,0E0,0E0,0E0,0E0,0E0,0E0,0E0,0E0,0E0,0E0,0E0,0E0,0E0,0E0,0E0,0E0,0E0,0E0,0E0],"parents":[2147483647,0,0,1,1,2,2,3,3,4,4,5,5,6,6,7,7,8,8,9,9,10,10,11,11,12,12,13,13,14,14,15,15,16,16,17,17,18,18,19,19,20,20,21,21,22,22,23,23,24,24,25,25,26,26,27,27,28,28,29,29,30,30,31,31,32,32,33,33,34,34,37,37],"right_children":[2,4,6,8,10,12,14,16,18,20,22,24,26,28,30,32,34,36,38,40,42,44,46,48,50,52,54,56,58,60,62,64,66,68,70,-1,-1,72,-1,-1,-1,-1,-1,-1,-1,-1,-1,-1,-1,-1,-1,-1,-1,-1,-1,-1,-1,-1,-1,-1,-1,-1,-1,-1,-1,-1,-1,-1,-1,-1,-1,-1,-1],"split_conditions":[2.4E1,3.5E0,2.5E0,3.5E0,2.5E0,2.5E0,2.5E0,2.5E0,1.5E0,1.2E1,1.2E1,1.5E0,1.5E0,1.5E0,3.5E0,1.2E1,2.5E0,1.2E1,1.2E1,1.5E0,1.5E0,3.5E0,3.5E0,1.5E0,1.5E0,3.5E0,3.5E0,3.5E0,3.5E0,3.5E0,3.5E0,1.5E0,1.5E0,1.5E0,1.2E1,8.169544E-2,4.398706E-2,2.5E0,5.08537E-1,8.623938E-2,1.9170834E-1,2.0103642E-1,3.168357E-1,2.522973E-1,3.742312E-1,4.7086504E-1,6.5713024E-1,2.6236566E-2,1.01368554E-1,1.1691269E-1,2.5870442E-1,1.8192892E-1,2.81831E-1,4.01024E-1,6.6280586E-1,1.8192892E-1,2.91363E-1,4.1381288E-1,6.177233E-1,6.3868064E-1,9.1205245E-1,9.115078E-1,1.3186471E0,1.8021856E-3,6.758407E-2,3.1874422E-2,9.417193E-2,7.185537E-2,1.516322E-1,1.8653882E-1,3.0566612E-1,5.225818E-2,2.6900464E-1],"split_indices":[0,3,3,2,2,2,2,3,3,0,0,2,3,2,3,0,2,0,0,2,2,2,2,3,3,2,2,3,3,2,2,3,2,2,0,0,0,3,0,0,0,0,0,0,0,0,0,0,0,0,0,0,0,0,0,0,0,0,0,0,0,0,0,0,0,0,0,0,0,0,0,0,0],"split_type":[0,0,0,0,0,0,0,0,0,0,0,0,0,0,0,0,0,0,0,0,0,0,0,0,0,0,0,0,0,0,0,0,0,0,0,0,0,0,0,0,0,0,0,0,0,0,0,0,0,0,0,0,0,0,0,0,0,0,0,0,0,0,0,0,0,0,0,0,0,0,0,0,0],"sum_hessian":[1E3,6.78E2,3.22E2,4.99E2,1.79E2,1.52E2,1.7E2,3.71E2,1.28E2,7.2E1,1.07E2,7E1,8.2E1,8.4E1,8.6E1,2.38E2,1.33E2,4.8E1,8E1,4.3E1,2.9E1,4.7E1,6E1,4.1E1,2.9E1,3.8E1,4.4E1,3.6E1,4.8E1,4.6E1,4E1,1.36E2,1.02E2,8.6E1,4.7E1,2.4E1,2.4E1,4.1E1,3.9E1,2.4E1,1.9E1,9E0,2E1,2.6E1,2.1E1,2.9E1,3.1E1,1.5E1,2.6E1,1.4E1,1.5E1,2.1E1,1.7E1,3.1E1,1.3E1,2.1E1,1.5E1,2.9E1,1.9E1,2E1,2.6E1,2E1,2E1,7.3E1,6.3E1,3.4E1,6.8E1,4.9E1,3.7E1,2.1E1,2.6E1,1.7E1,2.4E1],"tree_param":{"num_deleted":"0","num_feature":"4","num_nodes":"73","size_leaf_vector":"0"}},{"base_weights":[6.83814E-1,4.5250607E-1,1.1679448E0,3.0675465E-1,8.5485715E-1,6.2690955E-1,1.645199E0,2.1435513E-1,5.708312E-1,4.792966E-1,1.1007929E0,3.0449554E-1,8.951563E-1,9.3547255E-1,2.3196993E0,1.1867719E-1,3.834049E-1,1.521868E-1,8.170379E-1,3.2397547E-1,6.911243E-1,7.444102E-1,1.3631794E0,1.784128E-1,4.7086155E-1,5.5486315E-1,1.1701846E0,5.5918306E-1,1.2005183E0,1.9213971E0,2.7197118E0,7.644555E-2,1.7369716E-1,2.534641E-1,6.1093503E-1,1.9389038E-1,1.04395755E-1,4.3352345E-1,1.1993021E0,2.0467529E-1,4.5690194E-1,4.8919028E-1,7.543727E-1,5.9803885E-1,8.902109E-1,1.1143748E0,1.5538344E0,6.285846E-2,2.4028157E-1,2.8059033E-1,6.19812E-1,4.3276873E-1,6.7326397E-1,9.4824743E-1,1.5938852E0,4.3276873E-1,6.9805384E-1,9.793518E-1,1.472242E0,1.5206764E0,2.161906E0,2.1702647E0,3.1396484E0,4.2291977E-3,1.5875125E-1,7.528468E-2,2.2109918E-1,1.4691599E-1,3.7498522E-1,4.4373634E-1,7.245438E-1,1.2483597E-1,6.384375E-1],"categories":[],"categories_nodes":[],"categories_segments":[],"categories_sizes":[],"default_left":[1,1,1,1,1,1,1,1,1,1,1,1,1,1,1,1,1,1,1,1,1,1,1,1,1,1,1,1,1,1,1,1,1,1,1,0,0,1,0,0,0,0,0,0,0,0,0,0,0,0,0,0,0,0,0,0,0,0,0,0,0,0,0,0,0,0,0,0,0,0,0,0,0],"id":15,"left_children":[1,3,5,7,9,11,13,15,17,19,21,23,25,27,29,31,33,35,37,39,41,43,45,47,49,51,53,55,57,59,61,63,65,67,69,-1,-1,71,-1,-1,-1,-1,-1,-1,-1,-1,-1,-1,-1,-1,-1,-1,-1,-1,-1,-1,-1,-1,-1,-1,-1,-1,-1,-1,-1,-1,-1,-1,-1,-1,-1,-1,-1],"loss_changes":[1.1156677E2,3.9556534E1,8.237088E1,1.2077915E1,1.609787E1,1.2959866E1,7.9689545E1,5.9713516E0,1.3172081E1,2.1778889E0,9.084305E0,1.4052806E0,7.118698E0,7.806076E0,8.635681E0,5.420582E-1,3.806919E0,7.7418566E-2,1.135498E1,6.042423E-1,1.4127731E-2,4.9198914E-1,1.1620407E0,2.851627E-1,6.7631626E-1,2.7241993E-1,2.720169E0,3.4744835E-1,1.5028687E0,1.242157E0,2.6461487E0,8.1363165E-1,4.638443E-1,1.0713716E0,5.902653E-1,0E0,0E0,2.5769854E0,0E0,0E0,0E0,0E0,0E0,0E0,0E0,0E0,0E0,0E0,0E0,0E0,0E0,0E0,0E0,0E0,0E0,0E0,0E0,0E0,0E0,0E0,0E0,0E0,0E0,0E0,0E0,0E0,0E0,0E0,0E0,0E0,0E0,0E0,0E0],"parents":[2147483647,0,0,1,1,2,2,3,3,4,4,5,5,6,6,7,7,8,8,9,9,10,10,11,11,12,12,13,13,14,14,15,15,16,16,17,17,18,18,19,19,20,20,21,21,22,22,23,23,24,24,25,25,26,26,27,27,28,28,29,29,30,30,31,31,32,32,33,33,34,34,37,37],"right_children":[2,4,6,8,10,12,14,16,18,20,22,24,26,28,30,32,34,36,38,40,42,44,46,48,50,52,54,56,58,60,62,64,66,68,70,-1,-1,72,-1,-1,-1,-1,-1,-1,-1,-1,-1,-1,-1,-1,-1,-1,-1,-1,-1,-1,-1,-1,-1,-1,-1,-1,-1,-1,-1,-1,-1,-1,-1,-1,-1,-1,-1],"split_conditions":[2.4E1,3.5E0,2.5E0,3.5E0,2.5E0,2.5E0,2.5E0,2.5E0,1.5E0,1.2E1,1.2E1,1.5E0,1.5E0,1.5E0,3.5E0,1.2E1,2.5E0,1.2E1,1.2E1,1.5E0,1.5E0,3.5E0,3.5E0,1.5E0,1.5E0,3.5E0,3.5E0,3.5E0,3.5E0,3.5E0,3.5E0,1.5E0,1.5E0,1.2E1,1.2E1,5.8167115E-2,3.1318728E-2,2.5E0,3.5979062E-1,6.140259E-2,1.3707058E-1,1.467571E-1,2.2631182E-1,1.7941166E-1,2.670633E-1,3.3431244E-1,4.6615034E-1,1.8857539E-2,7.208447E-2,8.41771E-2,1.859436E-1,1.2983063E-1,2.019792E-1,2.8447425E-1,4.7816557E-1,1.2983063E-1,2.0941617E-1,2.9380557E-1,4.4167262E-1,4.5620292E-1,6.4857185E-1,6.510794E-1,9.418946E-1,1.2687594E-3,4.7625378E-2,2.2585405E-2,6.6329755E-2,4.4074796E-2,1.1249557E-1,1.3312091E-1,2.1736315E-1,3.745079E-2,1.9153126E-1],"split_indices":[0,3,3,2,2,2,2,3,3,0,0,2,3,2,3,0,2,0,0,2,2,2,2,3,3,2,2,3,3,2,2,3,2,0,0,0,0,3,0,0,0,0,0,0,0,0,0,0,0,0,0,0,0,0,0,0,0,0,0,0,0,0,0,0,0,0,0,0,0,0,0,0,0],"split_type":[0,0,0,0,0,0,0,0,0,0,0,0,0,0,0,0,0,0,0,0,0,0,0,0,0,0,0,0,0,0,0,0,0,0,0,0,0,0,0,0,0,0,0,0,0,0,0,0,0,0,0,0,0,0,0,0,0,0,0,0,0,0,0,0,0,0,0,0,0,0,0,0,0],"sum_hessian":[1E3,6.78E2,3.22E2,4.99E2,1.79E2,1.52E2,1.7E2,3.71E2,1.28E2,7.2E1,1.07E2,7E1,8.2E1,8.4E1,8.6E1,2.38E2,1.33E2,4.8E1,8E1,4.3E1,2.9E1,4.7E1,6E1,4.1E1,2.9E1,3.8E1,4.4E1,3.6E1,4.8E1,4.6E1,4E1,1.36E2,1.02E2,8.6E1,4.7E1,2.4E1,2.4E1,4.1E1,3.9E1,2.4E1,1.9E1,9E0,2E1,2.6E1,2.1E1,2.9E1,3.1E1,1.5E1,2.6E1,1.4E1,1.5E1,2.1E1,1.7E1,3.1E1,1.3E1,2.1E1,1.5E1,2.9E1,1.9E1,2E1,2.6E1,2E1,2E1,7.3E1,6.3E1,3.4E1,6.8E1,4.7E1,3.9E1,2.1E1,2.6E1,1.7E1,2.4E1],"tree_param":{"num_deleted":"0","num_feature":"4","num_nodes":"73","size_leaf_vector":"0"}},{"base_weights":[4.8703113E-1,3.2138112E-1,8.337473E-1,2.1737511E-1,6.085012E-1,4.483503E-1,1.1737006E0,1.5178238E-1,4.0484115E-1,3.4333813E-1,7.820976E-1,2.1823114E-1,6.3979745E-1,6.674751E-1,1.6547978E0,8.365064E-2,2.7216822E-1,1.0835733E-1,5.791975E-1,2.3129463E-1,4.9622396E-1,5.303898E-1,9.673414E-1,1.2705295E-1,3.3860627E-1,3.9691222E-1,8.3608025E-1,4.005964E-1,8.553738E-1,1.3684887E0,1.9426448E0,3.797014E-2,1.10501274E-1,9.443344E-2,3.7351614E-1,1.3805054E-1,7.432983E-2,3.0891928E-1,8.485098E-1,1.4572997E-1,3.2668573E-1,4.2527092E-1,6.352907E-1,7.9119873E-1,1.1022458E0,4.517913E-2,1.7086509E-1,2.0202331E-1,4.4548988E-1,3.0884066E-1,4.8250452E-1,6.726675E-1,1.149875E0,3.0884066E-1,5.017233E-1,6.953374E-1,1.0526596E0,1.0861933E0,1.5373671E0,1.5501767E0,2.242606E0,-4.810138E-2,1.0778938E-1,7.109493E-2,1.5573053E-1,-4.6044383E-2,2.4853627E-1,2.860752E-1,4.349586E-1,8.946398E-2,4.5457032E-1],"categories":[],"categories_nodes":[],"categories_segments":[],"categories_sizes":[],"default_left":[1,1,1,1,1,1,1,1,1,1,1,1,1,1,1,1,1,1,1,1,0,1,1,1,1,1,1,1,1,1,1,1,1,1,1,0,0,1,0,0,0,0,0,0,0,0,0,0,0,0,0,0,0,0,0,0,0,0,0,0,0,0,0,0,0,0,0,0,0,0,0],"id":16,"left_children":[1,3,5,7,9,11,13,15,17,19,21,23,25,27,29,31,33,35,37,39,-1,41,43,45,47,49,51,53,55,57,59,61,63,65,67,-1,-1,69,-1,-1,-1,-1,-1,-1,-1,-1,-1,-1,-1,-1,-1,-1,-1,-1,-1,-1,-1,-1,-1,-1,-1,-1,-1,-1,-1,-1,-1,-1,-1,-1,-1],"loss_changes":[5.7223007E1,2.0144173E1,4.1792267E1,6.0867558E0,8.017113E0,6.600893E0,4.0541443E1,3.0284128E0,6.605747E0,1.1357069E0,4.522682E0,7.362459E-1,3.6251068E0,3.9197655E0,4.5114594E0,2.8894973E-1,2.3784761E0,3.9247572E-2,5.633808E0,3.1152487E-1,0E0,2.5912762E-1,5.7740784E-1,1.429373E-1,3.47955E-1,1.4497471E-1,1.534029E0,1.8836975E-1,8.151207E-1,5.707855E-1,1.3503113E0,5.460352E-1,2.5627625E-1,1.0938452E0,3.3223915E-1,0E0,0E0,1.301816E0,0E0,0E0,0E0,0E0,0E0,0E0,0E0,0E0,0E0,0E0,0E0,0E0,0E0,0E0,0E0,0E0,0E0,0E0,0E0,0E0,0E0,0E0,0E0,0E0,0E0,0E0,0E0,0E0,0E0,0E0,0E0,0E0,0E0],"parents":[2147483647,0,0,1,1,2,2,3,3,4,4,5,5,6,6,7,7,8,8,9,9,10,10,11,11,12,12,13,13,14,14,15,15,16,16,17,17,18,18,19,19,21,21,22,22,23,23,24,24,25,25,26,26,27,27,28,28,29,29,30,30,31,31,32,32,33,33,34,34,37,37],"right_children":[2,4,6,8,10,12,14,16,18,20,22,24,26,28,30,32,34,36,38,40,-1,42,44,46,48,50,52,54,56,58,60,62,64,66,68,-1,-1,70,-1,-1,-1,-1,-1,-1,-1,-1,-1,-1,-1,-1,-1,-1,-1,-1,-1,-1,-1,-1,-1,-1,-1,-1,-1,-1,-1,-1,-1,-1,-1,-1,-1],"split_conditions":[2.4E1,3.5E0,2.5E0,3.5E0,2.5E0,2.5E0,2.5E0,2.5E0,1.5E0,1.2E1,1.2E1,1.5E0,1.5E0,1.5E0,3.5E0,1.5E0,1.5E0,1.2E1,1.2E1,1.5E0,1.4886719E-1,3.5E0,3.5E0,1.5E0,1.5E0,3.5E0,3.5E0,3.5E0,3.5E0,3.5E0,3.5E0,1.5E0,1.2E1,1.2E1,2.5E0,4.1415162E-2,2.229895E-2,2.5E0,2.5455296E-1,4.3718994E-2,9.800572E-2,1.2758128E-1,1.9058721E-1,2.3735963E-1,3.3067375E-1,1.35537395E-2,5.125953E-2,6.0606997E-2,1.3364697E-1,9.26522E-2,1.4475136E-1,2.0180026E-1,3.4496254E-1,9.26522E-2,1.5051699E-1,2.0860124E-1,3.157979E-1,3.25858E-1,4.6121016E-1,4.6505305E-1,6.727818E-1,-1.4430415E-2,3.2336816E-2,2.1328479E-2,4.671916E-2,-1.3813316E-2,7.456089E-2,8.582257E-2,1.3048759E-1,2.6839195E-2,1.363711E-1],"split_indices":[0,3,3,2,2,2,2,3,3,0,0,2,3,2,3,2,2,0,0,2,0,2,2,3,3,2,2,3,3,2,2,3,0,0,2,0,0,3,0,0,0,0,0,0,0,0,0,0,0,0,0,0,0,0,0,0,0,0,0,0,0,0,0,0,0,0,0,0,0,0,0],"split_type":[0,0,0,0,0,0,0,0,0,0,0,0,0,0,0,0,0,0,0,0,0,0,0,0,0,0,0,0,0,0,0,0,0,0,0,0,0,0,0,0,0,0,0,0,0,0,0,0,0,0,0,0,0,0,0,0,0,0,0,0,0,0,0,0,0,0,0,0,0,0,0],"sum_hessian":[1E3,6.78E2,3.22E2,4.99E2,1.79E2,1.52E2,1.7E2,3.71E2,1.28E2,7.2E1,1.07E2,7E1,8.2E1,8.4E1,8.6E1,2.38E2,1.33E2,4.8E1,8E1,4.3E1,2.9E1,4.7E1,6E1,4.1E1,2.9E1,3.8E1,4.4E1,3.6E1,4.8E1,4.6E1,4E1,8.9E1,1.49E2,4.9E1,8.4E1,2.4E1,2.4E1,4.1E1,3.9E1,2.4E1,1.9E1,2.6E1,2.1E1,2.9E1,3.1E1,1.5E1,2.6E1,1.4E1,1.5E1,2.1E1,1.7E1,3.1E1,1.3E1,2.1E1,1.5E1,2.9E1,1.9E1,2E1,2.6E1,2E1,2E1,4E1,4.9E1,8.1E1,6.8E1,2.6E1,2.3E1,3.7E1,4.7E1,1.7E1,2.4E1],"tree_param":{"num_deleted":"0","num_feature":"4","num_nodes":"71","size_leaf_vector":"0"}},{"base_weights":[3.466726E-1,2.2794342E-1,5.951879E-1,1.5385129E-1,4.3248853E-1,3.2066536E-1,8.373327E-1,1.07223056E-1,2.8712144E-1,2.443171E-1,5.5567396E-1,1.5641162E-1,4.573081E-1,4.7626227E-1,1.1804781E0,5.8915045E-2,1.925842E-1,7.714906E-2,4.1059706E-1,1.6512594E-1,3.5232022E-1,3.779049E-1,6.864484E-1,9.048117E-2,2.4350052E-1,2.8392577E-1,5.9741044E-1,2.8698874E-1,6.0946345E-1,9.746834E-1,1.3875971E0,2.6777692E-2,7.780469E-2,6.731766E-2,2.640047E-1,9.829102E-2,5.2921142E-2,2.2013092E-1,6.003216E-1,1.03758544E-1,2.3357888E-1,2.2312889E-1,3.9706275E-1,3.0241734E-1,4.5337123E-1,5.617452E-1,7.819061E-1,3.247261E-2,1.21505454E-1,1.4545593E-1,3.2019854E-1,2.2040072E-1,3.4579384E-1,4.771762E-1,8.295593E-1,2.2040072E-1,3.6061049E-1,4.9368796E-1,7.526535E-1,7.7584404E-1,1.0932368E0,1.1072649E0,1.6018531E0,-3.4023285E-2,7.609894E-2,5.0027058E-2,1.0968819E-1,-3.274296E-2,1.7708094E-1,2.0111369E-1,3.2075608E-1,6.411489E-2,3.236572E-1],"categories":[],"categories_nodes":[],"categories_segments":[],"categories_sizes":[],"default_left":[1,1,1,1,1,1,1,1,1,1,1,1,1,1,1,1,1,1,1,1,1,1,1,1,1,1,1,1,1,1,1,1,1,1,1,0,0,1,0,0,0,0,0,0,0,0,0,0,0,0,0,0,0,0,0,0,0,0,0,0,0,0,0,0,0,0,0,0,0,0,0,0,0],"id":17,"left_children":[1,3,5,7,9,11,13,15,17,19,21,23,25,27,29,31,33,35,37,39,41,43,45,47,49,51,53,55,57,59,61,63,65,67,69,-1,-1,71,-1,-1,-1,-1,-1,-1,-1,-1,-1,-1,-1,-1,-1,-1,-1,-1,-1,-1,-1,-1,-1,-1,-1,-1,-1,-1,-1,-1,-1,-1,-1,-1,-1,-1,-1],"loss_changes":[2.9399864E1,1.0223831E1,2.120266E1,3.0762892E0,4.0366325E0,3.3624163E0,2.0624626E1,1.5226431E0,3.3128376E0,5.6618404E-1,2.2513351E0,3.856362E-1,1.8465557E0,1.9680634E0,2.3558273E0,1.430046E-1,1.1810722E0,1.9897372E-2,2.7948751E0,1.605984E-1,8.481407E-2,1.3633776E-1,2.869053E-1,7.164073E-2,1.7902017E-1,7.706332E-2,8.602047E-1,1.01907015E-1,4.407425E-1,2.5975418E-1,6.888962E-1,2.7247933E-1,1.2735993E-1,5.549473E-1,2.3886919E-1,0E0,0E0,6.576228E-1,0E0,0E0,0E0,0E0,0E0,0E0,0E0,0E0,0E0,0E0,0E0,0E0,0E0,0E0,0E0,0E0,0E0,0E0,0E0,0E0,0E0,0E0,0E0,0E0,0E0,0E0,0E0,0E0,0E0,0E0,0E0,0E0,0E0,0E0,0E0],"parents":[2147483647,0,0,1,1,2,2,3,3,4,4,5,5,6,6,7,7,8,8,9,9,10,10,11,11,12,12,13,13,14,14,15,15,16,16,17,17,18,18,19,19,20,20,21,21,22,22,23,23,24,24,25,25,26,26,27,27,28,28,29,29,30,30,31,31,32,32,33,33,34,34,37,37],"right_children":[2,4,6,8,10,12,14,16,18,20,22,24,26,28,30,32,34,36,38,40,42,44,46,48,50,52,54,56,58,60,62,64,66,68,70,-1,-1,72,-1,-1,-1,-1,-1,-1,-1,-1,-1,-1,-1,-1,-1,-1,-1,-1,-1,-1,-1,-1,-1,-1,-1,-1,-1,-1,-1,-1,-1,-1,-1,-1,-1,-1,-1],"split_conditions":[2.4E1,3.5E0,2.5E0,3.5E0,2.5E0,2.5E0,2.5E0,2.5E0,1.5E0,1.2E1,1.2E1,1.5E0,1.5E0,1.5E0,3.5E0,1.5E0,1.5E0,1.2E1,1.2E1,1.5E0,1.5E0,3.5E0,3.5E0,1.5E0,1.5E0,3.5E0,3.5E0,3.5E0,3.5E0,3.5E0,3.5E0,1.5E0,1.2E1,1.2E1,1.2E1,2.9487306E-2,1.5876343E-2,2.5E0,1.8009648E-1,3.1127565E-2,7.0073664E-2,6.693867E-2,1.1911883E-1,9.0725206E-2,1.3601138E-1,1.6852358E-1,2.3457184E-1,9.741783E-3,3.6451638E-2,4.363678E-2,9.605957E-2,6.612022E-2,1.0373816E-1,1.4315286E-1,2.4886781E-1,6.612022E-2,1.0818315E-1,1.481064E-1,2.2579606E-1,2.3275322E-1,3.2797104E-1,3.321795E-1,4.8055595E-1,-1.0206986E-2,2.2829683E-2,1.5008118E-2,3.2906458E-2,-9.822888E-3,5.3124286E-2,6.033411E-2,9.622683E-2,1.9234467E-2,9.7097166E-2],"split_indices":[0,3,3,2,2,2,2,3,3,0,0,2,3,2,3,2,2,0,0,2,2,2,2,3,3,2,2,3,3,2,2,3,0,0,0,0,0,3,0,0,0,0,0,0,0,0,0,0,0,0,0,0,0,0,0,0,0,0,0,0,0,0,0,0,0,0,0,0,0,0,0,0,0],"split_type":[0,0,0,0,0,0,0,0,0,0,0,0,0,0,0,0,0,0,0,0,0,0,0,0,0,0,0,0,0,0,0,0,0,0,0,0,0,0,0,0,0,0,0,0,0,0,0,0,0,0,0,0,0,0,0,0,0,0,0,0,0,0,0,0,0,0,0,0,0,0,0,0,0],"sum_hessian":[1E3,6.78E2,3.22E2,4.99E2,1.79E2,1.52E2,1.7E2,3.71E2,1.28E2,7.2E1,1.07E2,7E1,8.2E1,8.4E1,8.6E1,2.38E2,1.33E2,4.8E1,8E1,4.3E1,2.9E1,4.7E1,6E1,4.1E1,2.9E1,3.8E1,4.4E1,3.6E1,4.8E1,4.6E1,4E1,8.9E1,1.49E2,4.9E1,8.4E1,2.4E1,2.4E1,4.1E1,3.9E1,2.4E1,1.9E1,9E0,2E1,2.6E1,2.1E1,2.9E1,3.1E1,1.5E1,2.6E1,1.4E1,1.5E1,2.1E1,1.7E1,3.1E1,1.3E1,2.1E1,1.5E1,2.9E1,1.9E1,2E1,2.6E1,2E1,2E1,4E1,4.9E1,8.1E1,6.8E1,2.6E1,2.3E1,4.2E1,4.2E1,1.7E1,2.4E1],"tree_param":{"num_deleted":"0","num_feature":"4","num_nodes":"73","size_leaf_vector":"0"}},{"base_weights":[2.4685462E-1,1.617978E-1,4.24894E-1,1.0890041E-1,3.0783612E-1,2.2935101E-1,5.973687E-1,7.575677E-2,2.0363322E-1,1.7495638E-1,3.9480266E-1,1.1210534E-1,3.2688224E-1,3.3983263E-1,8.421182E-1,4.1494243E-2,1.3630147E-1,5.492977E-2,2.9107562E-1,1.17886975E-1,2.528263E-1,2.6925278E-1,4.8712385E-1,6.443566E-2,1.7510605E-1,2.0310192E-1,4.2689446E-1,2.0560022E-1,4.342564E-1,6.9420606E-1,9.911365E-1,2.5966136E-2,6.1745275E-2,8.377207E-2,2.2867139E-1,6.998291E-2,3.7679445E-2,1.5686053E-1,4.2472458E-1,7.387573E-2,1.6700669E-1,1.6288261E-1,2.836173E-1,2.150489E-1,3.2353696E-1,3.988444E-1,5.546632E-1,2.3339689E-2,8.640233E-2,1.047287E-1,2.3014069E-1,1.572824E-1,2.4782011E-1,3.3849192E-1,5.9846497E-1,1.572824E-1,2.5918722E-1,3.5052288E-1,5.3814393E-1,5.5417013E-1,7.774116E-1,7.908994E-1,1.1441767E0,-1.0620594E-2,6.786382E-2,1.016956E-1,-4.8896518E-2,4.798874E-2,1.2865086E-1,1.3452426E-1,2.9691455E-1,4.5949724E-2,2.304419E-1],"categories":[],"categories_nodes":[],"categories_segments":[],"categories_sizes":[],"default_left":[1,1,1,1,1,1,1,1,1,1,1,1,1,1,1,1,1,1,1,1,1,1,1,1,1,1,1,1,1,1,1,1,1,1,1,0,0,1,0,0,0,0,0,0,0,0,0,0,0,0,0,0,0,0,0,0,0,0,0,0,0,0,0,0,0,0,0,0,0,0,0,0,0],"id":18,"left_children":[1,3,5,7,9,11,13,15,17,19,21,23,25,27,29,31,33,35,37,39,41,43,45,47,49,51,53,55,57,59,61,63,65,67,69,-1,-1,71,-1,-1,-1,-1,-1,-1,-1,-1,-1,-1,-1,-1,-1,-1,-1,-1,-1,-1,-1,-1,-1,-1,-1,-1,-1,-1,-1,-1,-1,-1,-1,-1,-1,-1,-1],"loss_changes":[1.5089851E1,5.2117844E0,1.0756565E1,1.5544682E0,2.0110207E0,1.7129269E0,1.049226E1,7.660265E-1,1.661397E0,2.9460645E-1,1.1206608E0,2.0194578E-1,9.407997E-1,9.8806953E-1,1.2295647E0,7.35527E-2,6.3102984E-1,1.0086998E-2,1.3863311E0,8.278233E-2,3.688717E-2,7.16598E-2,1.4247799E-1,3.589855E-2,9.209347E-2,4.093194E-2,4.799509E-1,5.5035114E-2,2.3761272E-1,1.1681175E-1,3.5149384E-1,2.1072794E-1,4.6025068E-1,1.3354063E-1,2.6845312E-1,0E0,0E0,3.321718E-1,0E0,0E0,0E0,0E0,0E0,0E0,0E0,0E0,0E0,0E0,0E0,0E0,0E0,0E0,0E0,0E0,0E0,0E0,0E0,0E0,0E0,0E0,0E0,0E0,0E0,0E0,0E0,0E0,0E0,0E0,0E0,0E0,0E0,0E0,0E0],"parents":[2147483647,0,0,1,1,2,2,3,3,4,4,5,5,6,6,7,7,8,8,9,9,10,10,11,11,12,12,13,13,14,14,15,15,16,16,17,17,18,18,19,19,20,20,21,21,22,22,23,23,24,24,25,25,26,26,27,27,28,28,29,29,30,30,31,31,32,32,33,33,34,34,37,37],"right_children":[2,4,6,8,10,12,14,16,18,20,22,24,26,28,30,32,34,36,38,40,42,44,46,48,50,52,54,56,58,60,62,64,66,68,70,-1,-1,72,-1,-1,-1,-1,-1,-1,-1,-1,-1,-1,-1,-1,-1,-1,-1,-1,-1,-1,-1,-1,-1,-1,-1,-1,-1,-1,-1,-1,-1,-1,-1,-1,-1,-1,-1],"split_conditions":[2.4E1,3.5E0,2.5E0,3.5E0,2.5E0,2.5E0,2.5E0,2.5E0,1.5E0,1.2E1,1.2E1,1.5E0,1.5E0,1.5E0,3.5E0,1.2E1,2.5E0,1.2E1,1.2E1,1.5E0,1.5E0,3.5E0,3.5E0,1.5E0,1.5E0,3.5E0,3.5E0,3.5E0,3.5E0,3.5E0,3.5E0,1.5E0,2.5E0,1.5E0,1.2E1,2.0994874E-2,1.1303834E-2,2.5E0,1.2741739E-1,2.216272E-2,5.0102007E-2,4.8864786E-2,8.508519E-2,6.4514674E-2,9.706109E-2,1.1965332E-1,1.6639896E-1,7.001907E-3,2.5920698E-2,3.141861E-2,6.9042206E-2,4.718472E-2,7.4346036E-2,1.0154758E-1,1.795395E-1,4.718472E-2,7.775617E-2,1.0515687E-1,1.6144319E-1,1.6625105E-1,2.3322348E-1,2.3726983E-1,3.4325302E-1,-3.1861784E-3,2.0359147E-2,3.050868E-2,-1.46689555E-2,1.4396622E-2,3.859526E-2,4.0357277E-2,8.9074366E-2,1.3784918E-2,6.9132574E-2],"split_indices":[0,3,3,2,2,2,2,3,3,0,0,2,3,2,3,0,2,0,0,2,2,2,2,3,3,2,2,3,3,2,2,3,2,2,0,0,0,3,0,0,0,0,0,0,0,0,0,0,0,0,0,0,0,0,0,0,0,0,0,0,0,0,0,0,0,0,0,0,0,0,0,0,0],"split_type":[0,0,0,0,0,0,0,0,0,0,0,0,0,0,0,0,0,0,0,0,0,0,0,0,0,0,0,0,0,0,0,0,0,0,0,0,0,0,0,0,0,0,0,0,0,0,0,0,0,0,0,0,0,0,0,0,0,0,0,0,0,0,0,0,0,0,0,0,0,0,0,0,0],"sum_hessian":[1E3,6.78E2,3.22E2,4.99E2,1.79E2,1.52E2,1.7E2,3.71E2,1.28E2,7.2E1,1.07E2,7E1,8.2E1,8.4E1,8.6E1,2.38E2,1.33E2,4.8E1,8E1,4.3E1,2.9E1,4.7E1,6E1,4.1E1,2.9E1,3.8E1,4.4E1,3.6E1,4.8E1,4.6E1,4E1,1.36E2,1.02E2,8.6E1,4.7E1,2.4E1,2.4E1,4.1E1,3.9E1,2.4E1,1.9E1,9E0,2E1,2.6E1,2.1E1,2.9E1,3.1E1,1.5E1,2.6E1,1.4E1,1.5E1,2.1E1,1.7E1,3.1E1,1.3E1,2.1E1,1.5E1,2.9E1,1.9E1,2E1,2.6E1,2E1,2E1,7.3E1,6.3E1,7.5E1,2.7E1,4.9E1,3.7E1,2.1E1,2.6E1,1.7E1,2.4E1],"tree_param":{"num_deleted":"0","num_feature":"4","num_nodes":"73","size_leaf_vector":"0"}},{"base_weights":[1.7581384E-1,1.1489558E-1,3.033299E-1,7.7146E-2,2.1911721E-1,1.6404842E-1,4.2617634E-1,5.3608052E-2,1.4442486E-1,1.418862E-1,2.947717E-1,8.0351666E-2,2.3366795E-1,2.4248683E-1,6.007445E-1,2.9184014E-2,9.677027E-2,3.9109834E-2,2.0635092E-1,8.41628E-2,1.9184335E-1,1.8144442E-1,3.456741E-1,4.588874E-2,1.2592138E-1,1.452848E-1,3.0507407E-1,1.4729412E-1,3.0941835E-1,4.944445E-1,7.0794827E-1,1.981608E-3,4.53109E-2,5.9248738E-2,1.62762E-1,4.982666E-2,2.6828613E-2,1.1177753E-1,3.004942E-1,5.259888E-2,1.1940956E-1,1.5292415E-1,2.3088767E-1,1.1890297E-1,2.0258586E-1,2.8317362E-1,3.93466E-1,1.677543E-2,6.1441492E-2,7.5405374E-2,1.6541004E-1,1.1223949E-1,1.7760213E-1,2.4011803E-1,4.3175396E-1,1.1223949E-1,1.8628836E-1,2.4886474E-1,3.8477784E-1,3.9582753E-1,5.5283386E-1,5.6492394E-1,8.1726074E-1,-3.1640403E-2,2.9512024E-2,2.8299006E-2,6.487125E-2,2.7934154E-2,9.534502E-2,9.5999286E-2,2.1113303E-1,3.2929316E-2,1.6407715E-1],"categories":[],"categories_nodes":[],"categories_segments":[],"categories_sizes":[],"default_left":[1,1,1,1,1,1,1,1,1,1,1,1,1,1,1,1,1,1,1,1,1,1,1,1,1,1,1,1,1,1,1,1,1,1,1,0,0,1,0,0,0,0,0,0,0,0,0,0,0,0,0,0,0,0,0,0,0,0,0,0,0,0,0,0,0,0,0,0,0,0,0,0,0],"id":19,"left_children":[1,3,5,7,9,11,13,15,17,19,21,23,25,27,29,31,33,35,37,39,41,43,45,47,49,51,53,55,57,59,61,63,65,67,69,-1,-1,71,-1,-1,-1,-1,-1,-1,-1,-1,-1,-1,-1,-1,-1,-1,-1,-1,-1,-1,-1,-1,-1,-1,-1,-1,-1,-1,-1,-1,-1,-1,-1,-1,-1,-1,-1],"loss_changes":[7.7409744E0,2.6545E0,5.4566936E0,7.840607E-1,1.0098944E0,8.727441E-1,5.3376675E0,3.893366E-1,8.332348E-1,2.462703E-1,4.5645618E-1,1.0572466E-1,4.794984E-1,4.9599314E-1,6.4138985E-1,1.04757145E-1,3.221556E-1,5.1123872E-3,6.8759084E-1,4.267034E-2,3.7631154E-2,1.5578449E-2,7.078886E-2,1.798655E-2,4.7371507E-2,2.1715522E-2,2.6661587E-1,2.9667377E-2,1.2784338E-1,5.1807404E-2,1.7931747E-1,8.424028E-2,4.807797E-2,9.5676154E-2,1.3474178E-1,0E0,0E0,1.6779381E-1,0E0,0E0,0E0,0E0,0E0,0E0,0E0,0E0,0E0,0E0,0E0,0E0,0E0,0E0,0E0,0E0,0E0,0E0,0E0,0E0,0E0,0E0,0E0,0E0,0E0,0E0,0E0,0E0,0E0,0E0,0E0,0E0,0E0,0E0,0E0],"parents":[2147483647,0,0,1,1,2,2,3,3,4,4,5,5,6,6,7,7,8,8,9,9,10,10,11,11,12,12,13,13,14,14,15,15,16,16,17,17,18,18,19,19,20,20,21,21,22,22,23,23,24,24,25,25,26,26,27,27,28,28,29,29,30,30,31,31,32,32,33,33,34,34,37,37],"right_children":[2,4,6,8,10,12,14,16,18,20,22,24,26,28,30,32,34,36,38,40,42,44,46,48,50,52,54,56,58,60,62,64,66,68,70,-1,-1,72,-1,-1,-1,-1,-1,-1,-1,-1,-1,-1,-1,-1,-1,-1,-1,-1,-1,-1,-1,-1,-1,-1,-1,-1,-1,-1,-1,-1,-1,-1,-1,-1,-1,-1,-1],"split_conditions":[2.4E1,3.5E0,2.5E0,3.5E0,1.2E1,2.5E0,2.5E0,2.5E0,1.5E0,2.5E0,2.5E0,1.5E0,1.5E0,1.5E0,3.5E0,1.5E0,2.5E0,1.2E1,1.2E1,1.5E0,3.5E0,1.5E0,3.5E0,1.5E0,1.5E0,3.5E0,3.5E0,3.5E0,3.5E0,3.5E0,3.5E0,1.5E0,1.2E1,1.2E1,1.2E1,1.4947998E-2,8.048585E-3,2.5E0,9.014826E-2,1.5779665E-2,3.582287E-2,4.5877248E-2,6.9266304E-2,3.567089E-2,6.077576E-2,8.4952086E-2,1.180398E-1,5.032629E-3,1.8432448E-2,2.2621613E-2,4.9623016E-2,3.367185E-2,5.328064E-2,7.203541E-2,1.295262E-1,3.367185E-2,5.588651E-2,7.465942E-2,1.1543336E-1,1.1874826E-1,1.6585016E-1,1.694772E-1,2.4517824E-1,-9.492122E-3,8.853608E-3,8.489702E-3,1.9461377E-2,8.380246E-3,2.8603507E-2,2.8799787E-2,6.333991E-2,9.878796E-3,4.9223147E-2],"split_indices":[0,3,3,2,0,2,2,3,3,2,2,2,3,2,3,2,2,0,0,2,2,2,2,3,3,2,2,3,3,2,2,3,0,0,0,0,0,3,0,0,0,0,0,0,0,0,0,0,0,0,0,0,0,0,0,0,0,0,0,0,0,0,0,0,0,0,0,0,0,0,0,0,0],"split_type":[0,0,0,0,0,0,0,0,0,0,0,0,0,0,0,0,0,0,0,0,0,0,0,0,0,0,0,0,0,0,0,0,0,0,0,0,0,0,0,0,0,0,0,0,0,0,0,0,0,0,0,0,0,0,0,0,0,0,0,0,0,0,0,0,0,0,0,0,0,0,0,0,0],"sum_hessian":[1E3,6.78E2,3.22E2,4.99E2,1.79E2,1.52E2,1.7E2,3.71E2,1.28E2,9E1,8.9E1,7E1,8.2E1,8.4E1,8.6E1,2.38E2,1.33E2,4.8E1,8E1,4.3E1,4.7E1,2.9E1,6E1,4.1E1,2.9E1,3.8E1,4.4E1,3.6E1,4.8E1,4.6E1,4E1,8.9E1,1.49E2,8.6E1,4.7E1,2.4E1,2.4E1,4.1E1,3.9E1,2.4E1,1.9E1,2.6E1,2.1E1,9E0,2E1,2.9E1,3.1E1,1.5E1,2.6E1,1.4E1,1.5E1,2.1E1,1.7E1,3.1E1,1.3E1,2.1E1,1.5E1,2.9E1,1.9E1,2E1,2.6E1,2E1,2E1,4E1,4.9E1,8.1E1,6.8E1,4.7E1,3.9E1,2.1E1,2.6E1,1.7E1,2.4E1],"tree_param":{"num_deleted":"0","num_feature":"4","num_nodes":"73","size_leaf_vector":"0"}},{"base_weights":[1.2522556E-1,8.159761E-2,2.1655111E-1,5.4659028E-2,1.5597369E-1,1.6364926E-1,3.8343692E-1,6.7799794E-3,7.289253E-2,1.0115487E-1,2.0966856E-1,9.188683E-2,2.3295428E-1,1.2727864E-1,4.5389378E-1,-1.2508986E-2,3.3933688E-2,5.3324062E-2,1.1048228E-1,6.008703E-2,1.36693E-1,1.3022588E-1,2.4530154E-1,3.268074E-2,1.2109133E-1,1.7303135E-1,3.5150295E-1,3.743679E-1,5.837577E-1,3.9730106E-2,-3.8875997E-2,-1.4500162E-1,8.884837E-2,2.3938466E-2,8.350292E-2,7.4394725E-2,1.2514327E-1,3.744873E-2,8.5380554E-2,1.0874769E-1,1.6477619E-1,8.679886E-2,1.4470418E-1,2.0105948E-1,2.7911282E-1,1.2057424E-2,4.3691564E-2,7.1572624E-2,1.5644415E-1,1.0552876E-1,2.2047144E-1,2.827381E-1,4.0352958E-1,-3.1630944E-2,-4.5217868E-2,-1.2861762E-2,7.278521E-2,4.569128E-2,1.3401291E-1,9.853727E-2,3.8775276E-2,9.625427E-2,1.5450305E-1,5.42923E-2,8.010136E-2,1.1888981E-1,1.7033243E-1,8.010136E-2,1.3389587E-1,1.766922E-1,2.7511674E-1],"categories":[],"categories_nodes":[],"categories_segments":[],"categories_sizes":[],"default_left":[1,1,1,1,1,1,1,1,1,1,1,1,1,0,1,1,1,1,1,1,1,1,1,1,1,1,1,0,0,0,1,0,0,1,1,1,1,0,0,0,0,0,0,0,0,0,0,1,1,1,1,0,0,0,0,0,0,0,0,0,0,0,0,0,0,0,0,0,0,0,0],"id":20,"left_children":[1,3,5,7,9,11,13,15,17,19,21,23,25,-1,27,29,31,33,35,37,39,41,43,45,47,49,51,-1,-1,-1,53,-1,-1,55,57,59,61,-1,-1,-1,-1,-1,-1,-1,-1,-1,-1,63,65,67,69,-1,-1,-1,-1,-1,-1,-1,-1,-1,-1,-1,-1,-1,-1,-1,-1,-1,-1,-1,-1],"loss_changes":[3.9706612E0,1.3519096E0,2.7888775E0,4.3600738E-1,5.086193E-1,1.2070484E0,1.331934E0,7.322808E-2,2.6038623E-1,1.245988E-1,2.2282529E-1,2.0871997E-1,8.271518E-1,0E0,4.0111256E-1,1.14490405E-1,5.828013E-1,2.1083874E-1,5.576682E-2,2.1997094E-2,1.9751012E-2,6.3023567E-3,3.51305E-2,9.010542E-3,1.3235414E-1,2.4893188E-1,3.258896E-2,0E0,0E0,0E0,1.0968149E-3,0E0,0E0,2.2203743E-1,2.1924096E-1,2.8857067E-2,5.8071494E-2,0E0,0E0,0E0,0E0,0E0,0E0,0E0,0E0,0E0,0E0,9.5677376E-4,4.262805E-3,1.5962958E-2,6.861305E-2,0E0,0E0,0E0,0E0,0E0,0E0,0E0,0E0,0E0,0E0,0E0,0E0,0E0,0E0,0E0,0E0,0E0,0E0,0E0,0E0],"parents":[2147483647,0,0,1,1,2,2,3,3,4,4,5,5,6,6,7,7,8,8,9,9,10,10,11,11,12,12,14,14,15,15,16,16,17,17,18,18,19,19,20,20,21,21,22,22,23,23,24,24,25,25,26,26,30,30,33,33,34,34,35,35,36,36,47,47,48,48,49,49,50,50],"right_children":[2,4,6,8,10,12,14,16,18,20,22,24,26,-1,28,30,32,34,36,38,40,42,44,46,48,50,52,-1,-1,-1,54,-1,-1,56,58,60,62,-1,-1,-1,-1,-1,-1,-1,-1,-1,-1,64,66,68,70,-1,-1,-1,-1,-1,-1,-1,-1,-1,-1,-1,-1,-1,-1,-1,-1,-1,-1,-1,-1],"split_conditions":[2.4E1,3.5E0,3.5E0,1.5E0,1.2E1,2.5E0,1.5E0,1.2E1,2.5E0,2.5E0,2.5E0,1.5E0,2.5E0,3.8183592E-2,3.5E0,1.5E0,1.5E0,1.2E1,2.5E0,1.5E0,3.5E0,1.5E0,3.5E0,1.5E0,1.5E0,1.5E0,3.5E0,1.1231037E-1,1.7512731E-1,1.1919032E-2,2.5E0,-4.3500487E-2,2.6654512E-2,1.5E0,3.5E0,1.2E1,1.2E1,1.123462E-2,2.5614167E-2,3.2624308E-2,4.943286E-2,2.603966E-2,4.3411255E-2,6.0317844E-2,8.373385E-2,3.6172273E-3,1.310747E-2,2.5E0,2.5E0,3.5E0,3.5E0,8.482143E-2,1.2105888E-1,-9.489284E-3,-1.3565361E-2,-3.8585288E-3,2.1835566E-2,1.3707385E-2,4.0203873E-2,2.9561182E-2,1.1632583E-2,2.887628E-2,4.6350915E-2,1.628769E-2,2.403041E-2,3.5666943E-2,5.1099733E-2,2.403041E-2,4.0168762E-2,5.3007662E-2,8.253503E-2],"split_indices":[0,3,2,2,0,3,3,0,3,2,2,2,2,0,3,3,3,0,2,2,2,2,2,3,3,2,3,0,0,0,3,0,0,3,2,0,0,0,0,0,0,0,0,0,0,0,0,2,2,3,3,0,0,0,0,0,0,0,0,0,0,0,0,0,0,0,0,0,0,0,0],"split_type":[0,0,0,0,0,0,0,0,0,0,0,0,0,0,0,0,0,0,0,0,0,0,0,0,0,0,0,0,0,0,0,0,0,0,0,0,0,0,0,0,0,0,0,0,0,0,0,0,0,0,0,0,0,0,0,0,0,0,0,0,0,0,0,0,0,0,0,0,0,0,0],"sum_hessian":[1E3,6.78E2,3.22E2,4.99E2,1.79E2,2.46E2,7.6E1,1.38E2,3.61E2,9E1,8.9E1,1.22E2,1.24E2,1.7E1,5.9E1,8.1E1,5.7E1,2.39E2,1.22E2,4.3E1,4.7E1,2.9E1,6E1,4.1E1,8.1E1,8.4E1,4E1,3.9E1,2E1,2.7E1,5.4E1,1.3E1,4.4E1,1.22E2,1.17E2,3.7E1,8.5E1,2.4E1,1.9E1,2.6E1,2.1E1,9E0,2E1,2.9E1,3.1E1,1.5E1,2.6E1,3.5E1,4.6E1,3.6E1,4.8E1,2E1,2E1,2.8E1,2.6E1,7E1,5.2E1,6.8E1,4.9E1,2.1E1,1.6E1,4.5E1,4E1,1.4E1,2.1E1,1.5E1,3.1E1,2.1E1,1.5E1,2.9E1,1.9E1],"tree_param":{"num_deleted":"0","num_feature":"4","num_nodes":"71","size_leaf_vector":"0"}},{"base_weights":[8.902361E-2,5.7843115E-2,1.5429461E-1,3.858124E-2,1.1102697E-1,8.233784E-2,2.1777469E-1,2.5988389E-2,7.4596435E-2,7.211463E-2,1.4913805E-1,4.128323E-2,1.1646482E-1,1.2347089E-1,3.074074E-1,4.5447177E-3,3.8615234E-2,1.00427745E-2,1.1272647E-1,2.6663817E-2,8.799755E-2,9.347331E-2,1.7406927E-1,2.3274807E-2,6.511892E-2,7.434395E-2,1.5038148E-1,7.5604E-2,1.5709546E-1,2.539465E-1,3.6119413E-1,-8.892257E-3,2.3463463E-2,2.1777548E-2,6.7874506E-2,3.9177246E-2,-1.9493409E-2,5.431057E-2,1.7124501E-1,7.193408E-2,1.1758492E-1,6.336365E-2,1.0336013E-1,1.4275208E-1,1.9798946E-1,8.666217E-3,3.106972E-2,3.9089456E-2,8.54516E-2,5.7161156E-2,9.1214925E-2,1.20827675E-1,2.0719147E-1,5.7161156E-2,9.623766E-2,1.2545013E-1,1.9670868E-1,2.0196824E-1,2.849686E-1,2.8823125E-1,4.1695732E-1,2.8236764E-2,-2.7632626E-2,-1.04607925E-1,6.278648E-2,4.3963805E-2,-2.8681755E-3,5.3160015E-2,7.810942E-2,2.9758876E-3,8.9099124E-2,2.0068976E-1,1.087911E-1],"categories":[],"categories_nodes":[],"categories_segments":[],"categories_sizes":[],"default_left":[1,1,1,1,1,1,1,1,1,1,1,1,1,1,1,1,1,1,1,0,1,1,1,1,1,1,1,1,1,1,1,1,1,1,1,0,0,1,1,0,0,0,0,0,0,0,0,0,0,0,0,0,0,0,0,0,0,0,0,0,0,0,0,0,0,0,0,0,0,0,0,0,0],"id":21,"left_children":[1,3,5,7,9,11,13,15,17,19,21,23,25,27,29,31,33,35,37,-1,39,41,43,45,47,49,51,53,55,57,59,61,63,65,67,-1,-1,69,71,-1,-1,-1,-1,-1,-1,-1,-1,-1,-1,-1,-1,-1,-1,-1,-1,-1,-1,-1,-1,-1,-1,-1,-1,-1,-1,-1,-1,-1,-1,-1,-1,-1,-1],"loss_changes":[2.0282931E0,6.9129825E-1,1.4574747E0,2.2482842E-1,2.5618315E-1,2.0955575E-1,1.4074574E0,1.0054946E-1,3.1639284E-1,6.334576E-2,1.0863042E-1,2.8960653E-2,1.0739362E-1,1.2493074E-1,1.5844345E-1,3.554393E-2,1.1380395E-1,4.2929232E-2,2.67591E-1,0E0,2.3385108E-2,2.3814142E-3,1.7432451E-2,4.513398E-3,1.2537196E-2,6.0917735E-3,5.0518513E-2,8.57906E-3,3.6747932E-2,1.823163E-2,4.663372E-2,5.7836805E-2,2.9866487E-1,8.214556E-2,8.648843E-3,0E0,0E0,7.4740954E-2,5.1724315E-2,0E0,0E0,0E0,0E0,0E0,0E0,0E0,0E0,0E0,0E0,0E0,0E0,0E0,0E0,0E0,0E0,0E0,0E0,0E0,0E0,0E0,0E0,0E0,0E0,0E0,0E0,0E0,0E0,0E0,0E0,0E0,0E0,0E0,0E0],"parents":[2147483647,0,0,1,1,2,2,3,3,4,4,5,5,6,6,7,7,8,8,9,9,10,10,11,11,12,12,13,13,14,14,15,15,16,16,17,17,18,18,20,20,21,21,22,22,23,23,24,24,25,25,26,26,27,27,28,28,29,29,30,30,31,31,32,32,33,33,34,34,37,37,38,38],"right_children":[2,4,6,8,10,12,14,16,18,20,22,24,26,28,30,32,34,36,38,-1,40,42,44,46,48,50,52,54,56,58,60,62,64,66,68,-1,-1,70,72,-1,-1,-1,-1,-1,-1,-1,-1,-1,-1,-1,-1,-1,-1,-1,-1,-1,-1,-1,-1,-1,-1,-1,-1,-1,-1,-1,-1,-1,-1,-1,-1,-1,-1],"split_conditions":[2.4E1,3.5E0,2.5E0,3.5E0,1.2E1,2.5E0,2.5E0,1.5E0,1.5E0,1.5E0,2.5E0,1.5E0,1.5E0,1.5E0,3.5E0,1.2E1,2.5E0,1.2E1,1.2E1,7.999145E-3,3.5E0,1.5E0,3.5E0,1.5E0,1.5E0,3.5E0,3.5E0,3.5E0,3.5E0,3.5E0,3.5E0,1.5E0,1.5E0,1.5E0,2.5E0,1.17531745E-2,-5.8480226E-3,2.5E0,2.5E0,2.1580225E-2,3.5275478E-2,1.9009095E-2,3.100804E-2,4.2825624E-2,5.939684E-2,2.5998652E-3,9.320917E-3,1.1726838E-2,2.5635483E-2,1.7148348E-2,2.736448E-2,3.6248304E-2,6.215744E-2,1.7148348E-2,2.88713E-2,3.7635043E-2,5.9012607E-2,6.0590472E-2,8.5490584E-2,8.646938E-2,1.250872E-1,8.47103E-3,-8.289788E-3,-3.138238E-2,1.8835945E-2,1.3189142E-2,-8.604527E-4,1.5948005E-2,2.3432827E-2,8.9276634E-4,2.6729738E-2,6.020693E-2,3.263733E-2],"split_indices":[0,3,3,2,0,2,2,2,3,2,2,2,3,2,3,0,3,0,0,0,2,2,2,3,3,2,2,3,3,2,2,3,3,3,2,0,0,3,3,0,0,0,0,0,0,0,0,0,0,0,0,0,0,0,0,0,0,0,0,0,0,0,0,0,0,0,0,0,0,0,0,0,0],"split_type":[0,0,0,0,0,0,0,0,0,0,0,0,0,0,0,0,0,0,0,0,0,0,0,0,0,0,0,0,0,0,0,0,0,0,0,0,0,0,0,0,0,0,0,0,0,0,0,0,0,0,0,0,0,0,0,0,0,0,0,0,0,0,0,0,0,0,0,0,0,0,0,0,0],"sum_hessian":[1E3,6.78E2,3.22E2,4.99E2,1.79E2,1.52E2,1.7E2,3.71E2,1.28E2,9E1,8.9E1,7E1,8.2E1,8.4E1,8.6E1,1.38E2,2.33E2,4.8E1,8E1,2.4E1,6.6E1,2.9E1,6E1,4.1E1,2.9E1,3.8E1,4.4E1,3.6E1,4.8E1,4.6E1,4E1,8.1E1,5.7E1,1.49E2,8.4E1,2.4E1,2.4E1,4.1E1,3.9E1,4.5E1,2.1E1,9E0,2E1,2.9E1,3.1E1,1.5E1,2.6E1,1.4E1,1.5E1,2.1E1,1.7E1,3.1E1,1.3E1,2.1E1,1.5E1,2.9E1,1.9E1,2E1,2.6E1,2E1,2E1,2.7E1,5.4E1,1.3E1,4.4E1,7.8E1,7.1E1,3.7E1,4.7E1,1.7E1,2.4E1,2.5E1,1.4E1],"tree_param":{"num_deleted":"0","num_feature":"4","num_nodes":"73","size_leaf_vector":"0"}},{"base_weights":[6.3390985E-2,4.1053254E-2,1.1015237E-1,2.7338352E-2,7.892212E-2,5.8890603E-2,1.55374E-1,1.8297754E-2,5.319699E-2,5.1190555E-2,1.06084906E-1,2.9593254E-2,8.324267E-2,8.811161E-2,2.1930423E-1,3.0920592E-3,2.7252002E-2,7.1504554E-3,8.039554E-2,2.9216073E-2,7.026736E-2,6.7100145E-2,1.23518646E-1,1.6577244E-2,4.6829224E-2,5.3179815E-2,1.07447304E-1,5.4165814E-2,1.1194595E-1,1.8088223E-1,2.5800008E-1,-6.222818E-3,1.6208056E-2,1.5327326E-2,4.7974933E-2,2.7894286E-2,-1.3879394E-2,3.8673036E-2,1.2219429E-1,1.8984376E-2,4.054489E-2,5.6548506E-2,8.391016E-2,4.6255875E-2,7.383074E-2,1.0134837E-1,1.4044333E-1,6.2289834E-3,2.2095574E-2,2.8144836E-2,6.141901E-2,4.0789865E-2,6.536865E-2,8.570576E-2,1.4946747E-1,4.0789865E-2,6.917238E-2,8.9076236E-2,1.4065322E-1,1.4427549E-1,2.0265481E-1,2.0589192E-1,2.978225E-1,2.0067828E-2,-1.9494005E-2,-7.5466976E-2,4.4368997E-2,3.0941734E-2,-2.018028E-3,3.769391E-2,5.714026E-2,2.1328395E-3,6.3435055E-2,1.4280173E-1,7.832845E-2],"categories":[],"categories_nodes":[],"categories_segments":[],"categories_sizes":[],"default_left":[1,1,1,1,1,1,1,1,1,1,1,1,1,1,1,1,1,1,1,1,1,1,1,1,1,1,1,1,1,1,1,1,1,1,1,0,0,1,1,0,0,0,0,0,0,0,0,0,0,0,0,0,0,0,0,0,0,0,0,0,0,0,0,0,0,0,0,0,0,0,0,0,0,0,0],"id":22,"left_children":[1,3,5,7,9,11,13,15,17,19,21,23,25,27,29,31,33,35,37,39,41,43,45,47,49,51,53,55,57,59,61,63,65,67,69,-1,-1,71,73,-1,-1,-1,-1,-1,-1,-1,-1,-1,-1,-1,-1,-1,-1,-1,-1,-1,-1,-1,-1,-1,-1,-1,-1,-1,-1,-1,-1,-1,-1,-1,-1,-1,-1,-1,-1],"loss_changes":[1.0410662E0,3.504932E-1,7.39609E-1,1.1591539E-1,1.3015735E-1,1.0669464E-1,7.159939E-1,5.0565608E-2,1.609846E-1,3.609453E-2,5.2880406E-2,1.51521005E-2,5.468172E-2,6.270772E-2,8.2681656E-2,1.7083034E-2,5.7089403E-2,2.17629E-2,1.3653421E-1,4.3304563E-3,4.238859E-3,7.9371035E-4,8.655012E-3,2.2607818E-3,6.449409E-3,3.223367E-3,2.830106E-2,4.605368E-3,1.9641042E-2,8.222103E-3,2.375865E-2,2.9001663E-2,1.5308438E-1,4.068806E-2,5.85562E-3,0E0,0E0,3.786669E-2,2.4973035E-2,0E0,0E0,0E0,0E0,0E0,0E0,0E0,0E0,0E0,0E0,0E0,0E0,0E0,0E0,0E0,0E0,0E0,0E0,0E0,0E0,0E0,0E0,0E0,0E0,0E0,0E0,0E0,0E0,0E0,0E0,0E0,0E0,0E0,0E0,0E0,0E0],"parents":[2147483647,0,0,1,1,2,2,3,3,4,4,5,5,6,6,7,7,8,8,9,9,10,10,11,11,12,12,13,13,14,14,15,15,16,16,17,17,18,18,19,19,20,20,21,21,22,22,23,23,24,24,25,25,26,26,27,27,28,28,29,29,30,30,31,31,32,32,33,33,34,34,37,37,38,38],"right_children":[2,4,6,8,10,12,14,16,18,20,22,24,26,28,30,32,34,36,38,40,42,44,46,48,50,52,54,56,58,60,62,64,66,68,70,-1,-1,72,74,-1,-1,-1,-1,-1,-1,-1,-1,-1,-1,-1,-1,-1,-1,-1,-1,-1,-1,-1,-1,-1,-1,-1,-1,-1,-1,-1,-1,-1,-1,-1,-1,-1,-1,-1,-1],"split_conditions":[2.4E1,3.5E0,2.5E0,3.5E0,1.2E1,2.5E0,2.5E0,1.5E0,1.5E0,2.5E0,2.5E0,1.5E0,1.5E0,1.5E0,3.5E0,1.2E1,2.5E0,1.2E1,1.2E1,1.5E0,3.5E0,1.5E0,3.5E0,1.5E0,1.5E0,3.5E0,3.5E0,3.5E0,3.5E0,3.5E0,3.5E0,1.5E0,1.5E0,1.5E0,1.2E1,8.368286E-3,-4.1638184E-3,2.5E0,2.5E0,5.6953127E-3,1.2163468E-2,1.6964553E-2,2.517305E-2,1.3876763E-2,2.2149222E-2,3.0404512E-2,4.2133E-2,1.8686951E-3,6.6286726E-3,8.4434515E-3,1.8425703E-2,1.223696E-2,1.9610597E-2,2.5711728E-2,4.4840243E-2,1.223696E-2,2.0751715E-2,2.6722873E-2,4.219597E-2,4.3282647E-2,6.0796443E-2,6.1767578E-2,8.934675E-2,6.0203485E-3,-5.8482015E-3,-2.2640094E-2,1.33107E-2,9.282521E-3,-6.054084E-4,1.1308174E-2,1.714208E-2,6.398519E-4,1.9030517E-2,4.284052E-2,2.3498537E-2],"split_indices":[0,3,3,2,0,2,2,2,3,2,2,2,3,2,3,0,3,0,0,2,2,2,2,3,3,2,2,3,3,2,2,3,3,3,0,0,0,3,3,0,0,0,0,0,0,0,0,0,0,0,0,0,0,0,0,0,0,0,0,0,0,0,0,0,0,0,0,0,0,0,0,0,0,0,0],"split_type":[0,0,0,0,0,0,0,0,0,0,0,0,0,0,0,0,0,0,0,0,0,0,0,0,0,0,0,0,0,0,0,0,0,0,0,0,0,0,0,0,0,0,0,0,0,0,0,0,0,0,0,0,0,0,0,0,0,0,0,0,0,0,0,0,0,0,0,0,0,0,0,0,0,0,0],"sum_hessian":[1E3,6.78E2,3.22E2,4.99E2,1.79E2,1.52E2,1.7E2,3.71E2,1.28E2,9E1,8.9E1,7E1,8.2E1,8.4E1,8.6E1,1.38E2,2.33E2,4.8E1,8E1,4.3E1,4.7E1,2.9E1,6E1,4.1E1,2.9E1,3.8E1,4.4E1,3.6E1,4.8E1,4.6E1,4E1,8.1E1,5.7E1,1.49E2,8.4E1,2.4E1,2.4E1,4.1E1,3.9E1,2.4E1,1.9E1,2.6E1,2.1E1,9E0,2E1,2.9E1,3.1E1,1.5E1,2.6E1,1.4E1,1.5E1,2.1E1,1.7E1,3.1E1,1.3E1,2.1E1,1.5E1,2.9E1,1.9E1,2E1,2.6E1,2E1,2E1,2.7E1,5.4E1,1.3E1,4.4E1,7.8E1,7.1E1,4.2E1,4.2E1,1.7E1,2.4E1,2.5E1,1.4E1],"tree_param":{"num_deleted":"0","num_feature":"4","num_nodes":"75","size_leaf_vector":"0"}},{"base_weights":[4.5155004E-2,2.915976E-2,7.863988E-2,1.9373834E-2,5.618089E-2,4.212383E-2,1.1085225E-1,1.2884174E-2,3.793802E-2,3.649131E-2,7.546501E-2,2.1213477E-2,5.9503485E-2,6.2879674E-2,1.5644784E-1,4.1592247E-3,2.3453996E-2,5.091453E-3,5.73398E-2,2.0858072E-2,5.0061543E-2,4.817136E-2,8.7650985E-2,1.1805762E-2,3.3677164E-2,3.8043488E-2,7.677985E-2,3.8807224E-2,7.9773575E-2,1.2883872E-1,1.8428151E-1,-3.049929E-2,2.355749E-2,7.857431E-2,2.6492141E-3,1.985962E-2,-9.880371E-3,2.7540661E-2,8.71954E-2,1.3516846E-2,2.89917E-2,4.020917E-2,5.987757E-2,3.3765793E-2,5.273728E-2,7.195129E-2,9.9630356E-2,4.477501E-3,1.5711185E-2,2.0265706E-2,4.4145584E-2,2.9108567E-2,4.6850417E-2,6.079817E-2,1.07825145E-1,2.9108567E-2,4.9717426E-2,6.32487E-2,1.00572206E-1,1.0306222E-1,1.4411531E-1,1.4706567E-1,2.1272205E-1,4.5563456E-2,-2.3814687E-1,-3.707861E-2,1.639475E-1,-4.061587E-1,1.3402933E0,2.2039443E-1,-4.2253548E-1,1.5275744E-3,4.5168456E-2,1.0161033E-1,5.6396484E-2],"categories":[],"categories_nodes":[],"categories_segments":[],"categories_sizes":[],"default_left":[1,1,1,1,1,1,1,1,1,1,1,1,1,1,1,1,1,1,1,1,1,1,1,1,1,1,1,1,1,1,1,1,1,1,1,0,0,1,1,0,0,0,0,0,0,0,0,0,0,0,0,0,0,0,0,0,0,0,0,0,0,0,0,0,0,0,0,0,0,0,0,0,0,0,0],"id":23,"left_children":[1,3,5,7,9,11,13,15,17,19,21,23,25,27,29,31,33,35,37,39,41,43,45,47,49,51,53,55,57,59,61,63,65,67,69,-1,-1,71,73,-1,-1,-1,-1,-1,-1,-1,-1,-1,-1,-1,-1,-1,-1,-1,-1,-1,-1,-1,-1,-1,-1,-1,-1,-1,-1,-1,-1,-1,-1,-1,-1,-1,-1,-1,-1],"loss_changes":[5.338414E-1,1.7845732E-1,3.75265E-1,5.974883E-2,6.5591514E-2,5.4340184E-2,3.6419725E-1,3.4208722E-2,8.1917435E-2,1.8261164E-2,2.5711715E-2,7.927507E-3,2.7851343E-2,3.147179E-2,4.311371E-2,1.3854307E-1,1.9244851E-1,1.1030434E-2,6.9661945E-2,2.2353977E-3,2.234511E-3,1.92523E-4,4.3038726E-3,1.1316906E-3,3.3172593E-3,1.7051287E-3,1.5771449E-2,2.4679266E-3,1.04800165E-2,3.6546588E-3,1.2111783E-2,1.1796249E0,1.1297557E0,2.8677826E1,1.1480703E1,0E0,0E0,1.9190244E-2,1.2028098E-2,0E0,0E0,0E0,0E0,0E0,0E0,0E0,0E0,0E0,0E0,0E0,0E0,0E0,0E0,0E0,0E0,0E0,0E0,0E0,0E0,0E0,0E0,0E0,0E0,0E0,0E0,0E0,0E0,0E0,0E0,0E0,0E0,0E0,0E0,0E0,0E0],"parents":[2147483647,0,0,1,1,2,2,3,3,4,4,5,5,6,6,7,7,8,8,9,9,10,10,11,11,12,12,13,13,14,14,15,15,16,16,17,17,18,18,19,19,20,20,21,21,22,22,23,23,24,24,25,25,26,26,27,27,28,28,29,29,30,30,31,31,32,32,33,33,34,34,37,37,38,38],"right_children":[2,4,6,8,10,12,14,16,18,20,22,24,26,28,30,32,34,36,38,40,42,44,46,48,50,52,54,56,58,60,62,64,66,68,70,-1,-1,72,74,-1,-1,-1,-1,-1,-1,-1,-1,-1,-1,-1,-1,-1,-1,-1,-1,-1,-1,-1,-1,-1,-1,-1,-1,-1,-1,-1,-1,-1,-1,-1,-1,-1,-1,-1,-1],"split_conditions":[2.4E1,3.5E0,2.5E0,3.5E0,1.2E1,2.5E0,2.5E0,1.2E1,1.5E0,2.5E0,2.5E0,1.5E0,1.5E0,1.5E0,3.5E0,1.5E0,1.5E0,1.2E1,1.2E1,1.5E0,3.5E0,1.5E0,3.5E0,1.5E0,1.5E0,3.5E0,3.5E0,3.5E0,3.5E0,3.5E0,3.5E0,2.5E0,2.5E0,2.5E0,2.5E0,5.957886E-3,-2.9641115E-3,2.5E0,2.5E0,4.055054E-3,8.69751E-3,1.2062752E-2,1.7963272E-2,1.0129739E-2,1.5821185E-2,2.1585388E-2,2.9889109E-2,1.3432503E-3,4.7133556E-3,6.079712E-3,1.3243676E-2,8.73257E-3,1.4055125E-2,1.8239452E-2,3.2347545E-2,8.73257E-3,1.4915229E-2,1.8974612E-2,3.0171663E-2,3.0918667E-2,4.3234594E-2,4.41197E-2,6.3816614E-2,1.3669037E-2,-7.1444064E-2,-1.1123584E-2,4.918425E-2,-1.2184761E-1,4.0208802E-1,6.611833E-2,-1.2676065E-1,4.5827232E-4,1.3550538E-2,3.04831E-2,1.6918946E-2],"split_indices":[0,3,3,2,0,2,2,0,3,2,2,2,3,2,3,3,3,0,0,2,2,2,2,3,3,2,2,3,3,2,2,2,2,2,2,0,0,3,3,0,0,0,0,0,0,0,0,0,0,0,0,0,0,0,0,0,0,0,0,0,0,0,0,0,0,0,0,0,0,0,0,0,0,0,0],"split_type":[0,0,0,0,0,0,0,0,0,0,0,0,0,0,0,0,0,0,0,0,0,0,0,0,0,0,0,0,0,0,0,0,0,0,0,0,0,0,0,0,0,0,0,0,0,0,0,0,0,0,0,0,0,0,0,0,0,0,0,0,0,0,0,0,0,0,0,0,0,0,0,0,0,0,0],"sum_hessian":[1E3,6.78E2,3.22E2,4.99E2,1.79E2,1.52E2,1.7E2,3.71E2,1.28E2,9E1,8.9E1,7E1,8.2E1,8.4E1,8.6E1,2.04E2,1.67E2,4.8E1,8E1,4.3E1,4.7E1,2.9E1,6E1,4.1E1,2.9E1,3.8E1,4.4E1,3.6E1,4.8E1,4.6E1,4E1,7.3E1,1.31E2,4.5E1,1.22E2,2.4E1,2.4E1,4.1E1,3.9E1,2.4E1,1.9E1,2.6E1,2.1E1,9E0,2E1,2.9E1,3.1E1,1.5E1,2.6E1,1.4E1,1.5E1,2.1E1,1.7E1,3.1E1,1.3E1,2.1E1,1.5E1,2.9E1,1.9E1,2E1,2.6E1,2E1,2E1,5.4E1,1.9E1,9.2E1,3.9E1,3.3E1,1.2E1,8.1E1,4.1E1,1.7E1,2.4E1,2.5E1,1.4E1],"tree_param":{"num_deleted":"0","num_feature":"4","num_nodes":"75","size_leaf_vector":"0"}},{"base_weights":[3.2345157E-2,1.4482316E-2,4.8774485E-2,7.160262E-3,3.0132469E-2,1.8745799E-2,7.475368E-2,1.8414862E-2,-5.59274E-3,1.5206028E-2,4.2537827E-2,4.662136E-3,4.4869997E-2,1.7790928E-2,1.02683E-1,-9.11432E-2,1.2776366E-1,1.1713572E-1,-1.34707E-1,8.407411E-3,2.4217224E-2,2.7213855E-2,5.4873317E-2,-1.09359035E-2,2.3187716E-2,2.7802339E-2,5.6842104E-2,-1.8669764E-3,3.7916765E-2,1.1506986E-1,9.099647E-2,3.21425E-2,-2.8789526E-1,-7.4387096E-2,3.4104672E-1,-6.93642E-2,3.3575356E-1,1.5336248E-1,-3.8436052E-1,3.2186508E-3,1.1170846E-2,1.4590454E-2,3.1728745E-2,2.0769985E-2,3.3577815E-2,4.3133736E-2,7.778712E-2,2.0768166E-2,-4.870739E-2,1.4890498E-2,3.4584045E-2,2.0769985E-2,3.5734177E-2,4.4899497E-2,7.191391E-2,-3.9165843E-2,2.859384E-2,1.4117561E-1,8.233717E-2,6.2195323E-2,1.3162753E-1,1.0814667E-3,6.2055588E-2,5.869988E-2,-5.052494E-1,1.9207658E-3,-1.9319493E-1,-3.0193675E-2,6.96785E-1,-1.702755E-1,1.41394045E-2,9.69135E-1,-7.0349122E-3,2.8954396E-1,1.095242E-3,-1.1024165E0,7.230318E-2,-7.8298785E-3,5.4921757E-2,-3.4751575E-2,-6.5544575E-2,9.624023E-3,2.0729065E-2,1.8849012E-1,7.362002E-2,4.060262E-2,1.02473505E-1,5.1079813E-2,7.067251E-2,1.050386E-1,