{"learner":{"attributes":{"best_iteration":"99","best_ntree_limit":"100","scikit_learn":"{\"n_estimators\": 100, \"objective\": \"reg:squarederror\", \"max_depth\": null, \"max_leaves\": null, \"max_bin\": null, \"grow_policy\": null, \"learning_rate\": null, \"verbosity\": null, \"booster\": null, \"tree_method\": null, \"gamma\": null, \"min_child_weight\": null, \"max_delta_step\": null, \"subsample\": null, \"sampling_method\": null, \"colsample_bytree\": null, \"colsample_bylevel\": null, \"colsample_bynode\": null, \"reg_alpha\": null, \"reg_lambda\": null, \"scale_pos_weight\": null, \"base_score\": null, \"missing\": NaN, \"num_parallel_tree\": null, \"random_state\": null, \"n_jobs\": null, \"monotone_constraints\": null, \"interaction_constraints\": null, \"importance_type\": null, \"gpu_id\": null, \"validate_parameters\": null, \"predictor\": null, \"enable_categorical\": false, \"feature_types\": null, \"max_cat_to_onehot\": null, \"max_cat_threshold\": null, \"eval_metric\": null, \"early_stopping_rounds\": null, \"callbacks\": null, \"_estimator_type\": \"regressor\"}"},"feature_names":[],"feature_types":[],"gradient_booster":{"model":{"gbtree_model_param":{"num_parallel_tree":"1","num_trees":"100","size_leaf_vector":"0"},"tree_info":[0,0,0,0,0,0,0,0,0,0,0,0,0,0,0,0,0,0,0,0,0,0,0,0,0,0,0,0,0,0,0,0,0,0,0,0,0,0,0,0,0,0,0,0,0,0,0,0,0,0,0,0,0,0,0,0,0,0,0,0,0,0,0,0,0,0,0,0,0,0,0,0,0,0,0,0,0,0,0,0,0,0,0,0,0,0,0,0,0,0,0,0,0,0,0,0,0,0,0,0],"trees":[{"base_weights":[1.0598281E2,7.5766235E1,1.8236111E2,4.1434784E1,1.0886325E2,1.00916664E2,2.1942622E2,1.8632353E1,5.0384148E1,5.010811E1,1.3435803E2,5.175E1,1.1952381E2,1.8318333E2,2.4654688E2,8.821428E0,2.4285715E1,3.208889E1,7.072369E1,3.646154E1,5.52E1,1.1036585E2,1.5507317E2,2.434091E1,3.7854168E1,5.4886364E1,8.705882E1],"categories":[],"categories_nodes":[],"categories_segments":[],"categories_sizes":[],"default_left":[1,1,1,1,1,1,1,1,1,1,1,0,0,0,0,0,0,1,1,0,0,0,0,0,0,0,0],"id":0,"left_children":[1,3,5,7,9,11,13,15,17,19,21,-1,-1,-1,-1,-1,-1,23,25,-1,-1,-1,-1,-1,-1,-1,-1],"loss_changes":[7.24708E5,2.5796725E5,2.4954375E5,2.2528953E4,1.6852762E5,2.1260188E4,1.47955E4,1.6715645E3,2.8244156E4,5.5833594E2,2.3142375E4,0E0,0E0,0E0,0E0,0E0,0E0,1.0887148E3,5.052453E3,0E0,0E0,0E0,0E0,0E0,0E0,0E0,0E0],"parents":[2147483647,0,0,1,1,2,2,3,3,4,4,5,5,6,6,7,7,8,8,9,9,10,10,17,17,18,18],"right_children":[2,4,6,8,10,12,14,16,18,20,22,-1,-1,-1,-1,-1,-1,24,26,-1,-1,-1,-1,-1,-1,-1,-1],"split_conditions":[3.5E0,2.5E0,2.5E0,1.5E0,1.5E0,1.5E0,3.5E0,1.5E0,1.5E0,3.5E0,2.5E0,1.5525001E1,3.5857143E1,5.4955E1,7.3964066E1,2.6464286E0,7.2857146E0,2.5E0,2.5E0,1.0938462E1,1.6560001E1,3.3109756E1,4.652195E1,7.3022733E0,1.1356251E1,1.646591E1,2.6117647E1],"split_indices":[3,2,2,3,3,2,2,2,2,2,3,0,0,0,0,0,0,3,3,0,0,0,0,0,0,0,0],"split_type":[0,0,0,0,0,0,0,0,0,0,0,0,0,0,0,0,0,0,0,0,0,0,0,0,0,0,0],"sum_hessian":[3.19E2,2.3E2,8.9E1,1.14E2,1.16E2,2.9E1,6E1,3.3E1,8.1E1,3.6E1,8E1,9E0,2E1,2.9E1,3.1E1,1.3E1,2E1,4.4E1,3.7E1,1.2E1,2.4E1,4E1,4E1,2.1E1,2.3E1,2.1E1,1.6E1],"tree_param":{"num_deleted":"0","num_feature":"4","num_nodes":"27","size_leaf_vector":"0"}},{"base_weights":[7.530861E1,5.3808243E1,1.2965613E2,2.9623253E1,7.711992E1,7.23544E1,1.5571179E2,1.3334768E1,3.6015755E1,3.581888E1,9.503373E1,3.77775E1,8.5374146E1,1.3006017E2,1.7489418E2,6.364031E0,1.7346937E1,2.2876856E1,5.0627197E1,2.6364498E1,3.93024E1,7.806365E1,1.09685905E2,1.7370558E1,2.6971092E1,3.9168903E1,6.247751E1,5.5678352E1,8.883677E1,9.242331E1,1.3344618E2],"categories":[],"categories_nodes":[],"categories_segments":[],"categories_sizes":[],"default_left":[1,1,1,1,1,1,1,1,1,1,1,0,0,0,0,0,0,1,1,0,0,1,1,0,0,0,0,0,0,0,0],"id":1,"left_children":[1,3,5,7,9,11,13,15,17,19,21,-1,-1,-1,-1,-1,-1,23,25,-1,-1,27,29,-1,-1,-1,-1,-1,-1,-1,-1],"loss_changes":[3.6694075E5,1.279515E5,1.23106625E5,1.1494023E4,8.31595E4,1.028025E4,7.268875E3,8.405073E2,1.4584031E4,1.8238672E2,1.1578125E4,0E0,0E0,0E0,0E0,0E0,0E0,5.459824E2,2.7126328E3,0E0,0E0,4.9412344E3,4.4831875E3,0E0,0E0,0E0,0E0,0E0,0E0,0E0,0E0],"parents":[2147483647,0,0,1,1,2,2,3,3,4,4,5,5,6,6,7,7,8,8,9,9,10,10,17,17,18,18,21,21,22,22],"right_children":[2,4,6,8,10,12,14,16,18,20,22,-1,-1,-1,-1,-1,-1,24,26,-1,-1,28,30,-1,-1,-1,-1,-1,-1,-1,-1],"split_conditions":[3.5E0,2.5E0,2.5E0,1.5E0,1.5E0,1.5E0,3.5E0,1.5E0,1.5E0,3.5E0,2.5E0,1.133325E1,2.5612246E1,3.901805E1,5.2468258E1,1.9092094E0,5.2040815E0,2.5E0,2.5E0,7.90935E0,1.179072E1,3.5E0,3.5E0,5.2111673E0,8.091328E0,1.1750671E1,1.8743254E1,1.6703506E1,2.6651031E1,2.7726994E1,4.0033855E1],"split_indices":[3,2,2,3,3,2,2,2,2,2,3,0,0,0,0,0,0,3,3,0,0,2,2,0,0,0,0,0,0,0,0],"split_type":[0,0,0,0,0,0,0,0,0,0,0,0,0,0,0,0,0,0,0,0,0,0,0,0,0,0,0,0,0,0,0],"sum_hessian":[3.19E2,2.3E2,8.9E1,1.14E2,1.16E2,2.9E1,6E1,3.3E1,8.1E1,3.6E1,8E1,9E0,2E1,2.9E1,3.1E1,1.3E1,2E1,4.4E1,3.7E1,1.2E1,2.4E1,4E1,4E1,2.1E1,2.3E1,2.1E1,1.6E1,1.5E1,2.5E1,2.6E1,1.4E1],"tree_param":{"num_deleted":"0","num_feature":"4","num_nodes":"31","size_leaf_vector":"0"}},{"base_weights":[5.368527E1,3.8452457E1,9.21863E1,2.117897E1,5.510202E1,5.1879597E1,1.10498024E2,9.543552E0,2.5745132E1,2.5605646E1,6.78954E1,2.7577574E1,6.0981533E1,9.234271E1,1.2406556E2,4.591193E0,1.2390671E1,1.630941E1,3.624151E1,1.9063557E1,2.7983307E1,5.5701984E1,7.843283E1,1.2396261E1,1.9216904E1,2.7952354E1,4.48368E1,4.0018814E1,6.321078E1,6.5723236E1,9.608125E1],"categories":[],"categories_nodes":[],"categories_segments":[],"categories_sizes":[],"default_left":[1,1,1,1,1,1,1,1,1,1,1,0,0,0,0,0,0,1,1,0,0,1,1,0,0,0,0,0,0,0,0],"id":2,"left_children":[1,3,5,7,9,11,13,15,17,19,21,-1,-1,-1,-1,-1,-1,23,25,-1,-1,27,29,-1,-1,-1,-1,-1,-1,-1,-1],"loss_changes":[1.8412838E5,6.5267688E4,6.0695062E4,5.8641523E3,4.2412438E4,4.9541406E3,3.5691875E3,4.2251E2,7.5302812E3,4.2066406E1,6.038625E3,0E0,0E0,0E0,0E0,0E0,0E0,2.737666E2,1.4541211E3,0E0,0E0,2.2986094E3,2.8817188E3,0E0,0E0,0E0,0E0,0E0,0E0,0E0,0E0],"parents":[2147483647,0,0,1,1,2,2,3,3,4,4,5,5,6,6,7,7,8,8,9,9,10,10,17,17,18,18,21,21,22,22],"right_children":[2,4,6,8,10,12,14,16,18,20,22,-1,-1,-1,-1,-1,-1,24,26,-1,-1,28,30,-1,-1,-1,-1,-1,-1,-1,-1],"split_conditions":[3.5E0,2.5E0,2.5E0,1.5E0,1.5E0,1.5E0,3.5E0,1.5E0,1.5E0,3.5E0,2.5E0,8.2732725E0,1.829446E1,2.7702814E1,3.721967E1,1.377358E0,3.7172015E0,2.5E0,2.5E0,5.719067E0,8.394993E0,3.5E0,3.5E0,3.7188785E0,5.7650714E0,8.385707E0,1.345104E1,1.2005645E1,1.8963236E1,1.9716972E1,2.8824377E1],"split_indices":[3,2,2,3,3,2,2,2,2,2,3,0,0,0,0,0,0,3,3,0,0,2,2,0,0,0,0,0,0,0,0],"split_type":[0,0,0,0,0,0,0,0,0,0,0,0,0,0,0,0,0,0,0,0,0,0,0,0,0,0,0,0,0,0,0],"sum_hessian":[3.19E2,2.3E2,8.9E1,1.14E2,1.16E2,2.9E1,6E1,3.3E1,8.1E1,3.6E1,8E1,9E0,2E1,2.9E1,3.1E1,1.3E1,2E1,4.4E1,3.7E1,1.2E1,2.4E1,4E1,4E1,2.1E1,2.3E1,2.1E1,1.6E1,1.5E1,2.5E1,2.6E1,1.4E1],"tree_param":{"num_deleted":"0","num_feature":"4","num_nodes":"31","size_leaf_vector":"0"}},{"base_weights":[3.8271965E1,2.7479662E1,6.554697E1,1.5141933E1,3.937162E1,3.7201305E1,7.841292E1,6.830327E0,1.8403551E1,1.8305414E1,4.850839E1,2.013163E1,4.3558235E1,6.556333E1,8.800901E1,3.3122182E0,8.850479E0,1.1627341E1,2.5943707E1,3.9746727E1,5.6086918E1,8.846423E0,1.3692043E1,1.9947817E1,3.2176994E1,2.8763523E1,4.4976902E1,4.6736523E1,6.91785E1],"categories":[],"categories_nodes":[],"categories_segments":[],"categories_sizes":[],"default_left":[1,1,1,1,1,1,1,1,1,0,1,0,0,0,0,0,0,1,1,1,1,0,0,0,0,0,0,0,0],"id":3,"left_children":[1,3,5,7,9,11,13,15,17,-1,19,-1,-1,-1,-1,-1,-1,21,23,25,27,-1,-1,-1,-1,-1,-1,-1,-1],"loss_changes":[9.239409E4,3.3296094E4,2.9905375E4,2.9918652E3,2.1631844E4,2.3784219E3,1.7515E3,2.1232715E2,3.8880273E3,0E0,3.1491719E3,0E0,0E0,0E0,0E0,0E0,0E0,1.372544E2,7.7835547E2,1.0615117E3,1.7857109E3,0E0,0E0,0E0,0E0,0E0,0E0,0E0,0E0],"parents":[2147483647,0,0,1,1,2,2,3,3,4,4,5,5,6,6,7,7,8,8,10,10,17,17,18,18,19,19,20,20],"right_children":[2,4,6,8,10,12,14,16,18,-1,20,-1,-1,-1,-1,-1,-1,22,24,26,28,-1,-1,-1,-1,-1,-1,-1,-1],"split_conditions":[3.5E0,2.5E0,2.5E0,1.5E0,1.5E0,1.5E0,3.5E0,1.5E0,1.5E0,5.4916244E0,2.5E0,6.0394893E0,1.30674715E1,1.9669E1,2.6402704E1,9.936655E-1,2.6551437E0,2.5E0,2.5E0,3.5E0,3.5E0,2.653927E0,4.107613E0,5.9843454E0,9.653099E0,8.629057E0,1.3493072E1,1.4020957E1,2.075355E1],"split_indices":[3,2,2,3,3,2,2,2,2,0,3,0,0,0,0,0,0,3,3,2,2,0,0,0,0,0,0,0,0],"split_type":[0,0,0,0,0,0,0,0,0,0,0,0,0,0,0,0,0,0,0,0,0,0,0,0,0,0,0,0,0],"sum_hessian":[3.19E2,2.3E2,8.9E1,1.14E2,1.16E2,2.9E1,6E1,3.3E1,8.1E1,3.6E1,8E1,9E0,2E1,2.9E1,3.1E1,1.3E1,2E1,4.4E1,3.7E1,4E1,4E1,2.1E1,2.3E1,2.1E1,1.6E1,1.5E1,2.5E1,2.6E1,1.4E1],"tree_param":{"num_deleted":"0","num_feature":"4","num_nodes":"29","size_leaf_vector":"0"}},{"base_weights":[2.7270422E1,1.9618605E1,4.6607082E1,1.0825856E1,2.8093369E1,2.667781E1,5.5644314E1,4.8885465E0,1.3155644E1,1.29622135E1,3.46583E1,1.4696089E1,3.111302E1,4.6549965E1,6.243138E1,2.3895285E0,6.3217707E0,8.289395E0,1.8572107E1,8.715227E0,1.4652158E1,2.8362272E1,4.0109E1,6.313129E0,9.755581E0,1.4235488E1,2.3091724E1,2.067378E1,3.2002792E1,3.323486E1,4.980852E1],"categories":[],"categories_nodes":[],"categories_segments":[],"categories_sizes":[],"default_left":[1,1,1,1,1,1,1,1,1,1,1,0,0,0,0,0,0,1,1,0,0,1,1,0,0,0,0,0,0,0,0],"id":4,"left_children":[1,3,5,7,9,11,13,15,17,19,21,-1,-1,-1,-1,-1,-1,23,25,-1,-1,27,29,-1,-1,-1,-1,-1,-1,-1,-1],"loss_changes":[4.643303E4,1.6909172E4,1.4725016E4,1.5264453E3,1.1172945E4,1.1370039E3,8.589844E2,1.06670166E2,2.0073926E3,1.3785889E2,1.6421562E3,0E0,0E0,0E0,0E0,0E0,0E0,6.8802734E1,4.1607227E2,0E0,0E0,4.8597656E2,1.0783281E3,0E0,0E0,0E0,0E0,0E0,0E0,0E0,0E0],"parents":[2147483647,0,0,1,1,2,2,3,3,4,4,5,5,6,6,7,7,8,8,9,9,10,10,17,17,18,18,21,21,22,22],"right_children":[2,4,6,8,10,12,14,16,18,20,22,-1,-1,-1,-1,-1,-1,24,26,-1,-1,28,30,-1,-1,-1,-1,-1,-1,-1,-1],"split_conditions":[3.5E0,2.5E0,2.5E0,1.5E0,1.5E0,1.5E0,3.5E0,1.5E0,1.5E0,3.5E0,2.5E0,4.408827E0,9.333906E0,1.396499E1,1.8729416E1,7.1685857E-1,1.8965312E0,2.5E0,2.5E0,2.6145682E0,4.3956475E0,3.5E0,3.5E0,1.8939388E0,2.9266744E0,4.2706466E0,6.9275174E0,6.2021346E0,9.600838E0,9.970458E0,1.4942557E1],"split_indices":[3,2,2,3,3,2,2,2,2,2,3,0,0,0,0,0,0,3,3,0,0,2,2,0,0,0,0,0,0,0,0],"split_type":[0,0,0,0,0,0,0,0,0,0,0,0,0,0,0,0,0,0,0,0,0,0,0,0,0,0,0,0,0,0,0],"sum_hessian":[3.19E2,2.3E2,8.9E1,1.14E2,1.16E2,2.9E1,6E1,3.3E1,8.1E1,3.6E1,8E1,9E0,2E1,2.9E1,3.1E1,1.3E1,2E1,4.4E1,3.7E1,1.2E1,2.4E1,4E1,4E1,2.1E1,2.3E1,2.1E1,1.6E1,1.5E1,2.5E1,2.6E1,1.4E1],"tree_param":{"num_deleted":"0","num_feature":"4","num_nodes":"31","size_leaf_vector":"0"}},{"base_weights":[1.944178E1,1.4020288E1,3.3140923E1,7.740118E0,2.0073275E1,1.9132555E1,3.9486988E1,3.4988465E0,9.404302E0,9.263014E0,2.4763475E1,1.0728143E1,2.2223583E1,3.305047E1,4.4287262E1,1.723874E0,4.5155497E0,5.9097023E0,1.3295162E1,6.301779E0,1.0432335E1,2.0239029E1,2.8683935E1,4.505279E0,6.9508524E0,1.0158963E1,1.6571705E1,1.4859281E1,2.277122E1,2.3633677E1,3.586214E1],"categories":[],"categories_nodes":[],"categories_segments":[],"categories_sizes":[],"default_left":[1,1,1,1,1,1,1,1,1,1,1,0,0,0,0,0,0,1,1,0,0,1,1,0,0,0,0,0,0,0,0],"id":5,"left_children":[1,3,5,7,9,11,13,15,17,19,21,-1,-1,-1,-1,-1,-1,23,25,-1,-1,27,29,-1,-1,-1,-1,-1,-1,-1,-1],"loss_changes":[2.3301688E4,8.6258125E3,7.245336E3,7.787959E2,5.702785E3,5.4093066E2,4.210078E2,5.3572876E1,1.0363833E3,6.2375244E1,8.562344E2,0E0,0E0,0E0,0E0,0E0,0E0,3.448413E1,2.221333E2,0E0,0E0,2.2016016E2,6.3877344E2,0E0,0E0,0E0,0E0,0E0,0E0,0E0,0E0],"parents":[2147483647,0,0,1,1,2,2,3,3,4,4,5,5,6,6,7,7,8,8,9,9,10,10,17,17,18,18,21,21,22,22],"right_children":[2,4,6,8,10,12,14,16,18,20,22,-1,-1,-1,-1,-1,-1,24,26,-1,-1,28,30,-1,-1,-1,-1,-1,-1,-1,-1],"split_conditions":[3.5E0,2.5E0,2.5E0,1.5E0,1.5E0,1.5E0,3.5E0,1.5E0,1.5E0,3.5E0,2.5E0,3.218443E0,6.667075E0,9.915141E0,1.328618E1,5.171622E-1,1.3546649E0,2.5E0,2.5E0,1.8905337E0,3.1297007E0,3.5E0,3.5E0,1.3515837E0,2.0852559E0,3.0476892E0,4.971512E0,4.457784E0,6.831366E0,7.090103E0,1.0758642E1],"split_indices":[3,2,2,3,3,2,2,2,2,2,3,0,0,0,0,0,0,3,3,0,0,2,2,0,0,0,0,0,0,0,0],"split_type":[0,0,0,0,0,0,0,0,0,0,0,0,0,0,0,0,0,0,0,0,0,0,0,0,0,0,0,0,0,0,0],"sum_hessian":[3.19E2,2.3E2,8.9E1,1.14E2,1.16E2,2.9E1,6E1,3.3E1,8.1E1,3.6E1,8E1,9E0,2E1,2.9E1,3.1E1,1.3E1,2E1,4.4E1,3.7E1,1.2E1,2.4E1,4E1,4E1,2.1E1,2.3E1,2.1E1,1.6E1,1.5E1,2.5E1,2.6E1,1.4E1],"tree_param":{"num_deleted":"0","num_feature":"4","num_nodes":"31","size_leaf_vector":"0"}},{"base_weights":[1.3861035E1,1.0019769E1,2.3566275E1,5.5339775E0,1.4343242E1,1.3722305E1,2.802124E1,2.5042458E0,6.72272E0,6.619792E0,1.769416E1,7.831542E0,1.5873987E1,2.3465828E1,3.1416275E1,1.2436517E0,3.2253919E0,4.213166E0,9.517646E0,4.556671E0,7.4278235E0,1.4442663E1,2.0514091E1,3.2151313E0,4.952483E0,7.249807E0,1.1892635E1,1.0680105E1,1.6202597E1,1.680617E1,2.5820745E1],"categories":[],"categories_nodes":[],"categories_segments":[],"categories_sizes":[],"default_left":[1,1,1,1,1,1,1,1,1,1,1,0,0,0,0,0,0,1,1,0,0,1,1,0,0,0,0,0,0,0,0],"id":6,"left_children":[1,3,5,7,9,11,13,15,17,19,21,-1,-1,-1,-1,-1,-1,23,25,-1,-1,27,29,-1,-1,-1,-1,-1,-1,-1,-1],"loss_changes":[1.1693609E4,4.4006836E3,3.5623945E3,3.9734546E2,2.9109023E3,2.5593408E2,2.0620312E2,2.6897202E1,5.3504956E2,2.7835327E1,4.4641406E2,0E0,0E0,0E0,0E0,0E0,0E0,1.7281067E1,1.1845239E2,0E0,0E0,9.8450195E1,3.7279297E2,0E0,0E0,0E0,0E0,0E0,0E0,0E0,0E0],"parents":[2147483647,0,0,1,1,2,2,3,3,4,4,5,5,6,6,7,7,8,8,9,9,10,10,17,17,18,18,21,21,22,22],"right_children":[2,4,6,8,10,12,14,16,18,20,22,-1,-1,-1,-1,-1,-1,24,26,-1,-1,28,30,-1,-1,-1,-1,-1,-1,-1,-1],"split_conditions":[3.5E0,2.5E0,2.5E0,1.5E0,1.5E0,1.5E0,3.5E0,1.5E0,1.5E0,3.5E0,2.5E0,2.3494627E0,4.7621965E0,7.0397487E0,9.424883E0,3.7309554E-1,9.676176E-1,2.5E0,2.5E0,1.3670014E0,2.228347E0,3.5E0,3.5E0,9.645394E-1,1.485745E0,2.1749423E0,3.5677907E0,3.2040317E0,4.8607793E0,5.041851E0,7.746224E0],"split_indices":[3,2,2,3,3,2,2,2,2,2,3,0,0,0,0,0,0,3,3,0,0,2,2,0,0,0,0,0,0,0,0],"split_type":[0,0,0,0,0,0,0,0,0,0,0,0,0,0,0,0,0,0,0,0,0,0,0,0,0,0,0,0,0,0,0],"sum_hessian":[3.19E2,2.3E2,8.9E1,1.14E2,1.16E2,2.9E1,6E1,3.3E1,8.1E1,3.6E1,8E1,9E0,2E1,2.9E1,3.1E1,1.3E1,2E1,4.4E1,3.7E1,1.2E1,2.4E1,4E1,4E1,2.1E1,2.3E1,2.1E1,1.6E1,1.5E1,2.5E1,2.6E1,1.4E1],"tree_param":{"num_deleted":"0","num_feature":"4","num_nodes":"31","size_leaf_vector":"0"}},{"base_weights":[9.882594E0,7.160946E0,1.675835E1,3.956687E0,1.0249227E1,9.842666E0,1.9884779E1,2.546999E0,5.2981563E0,4.7310257E0,1.26433525E1,5.7170243E0,1.1338559E1,1.6660736E1,2.2285921E1,8.9720595E-1,3.0036678E0,2.3038518E0,6.8134785E0,3.2948244E0,5.2886095E0,1.0306567E1,1.4671763E1,2.2944353E0,3.5286448E0,5.1737256E0,8.5347185E0,7.676325E0,1.152877E1,1.195105E1,1.859093E1],"categories":[],"categories_nodes":[],"categories_segments":[],"categories_sizes":[],"default_left":[1,1,1,1,1,1,1,1,1,1,1,0,0,0,0,0,1,0,1,0,0,1,1,0,0,0,0,0,0,0,0],"id":7,"left_children":[1,3,5,7,9,11,13,15,17,19,21,-1,-1,-1,-1,-1,23,-1,25,-1,-1,27,29,-1,-1,-1,-1,-1,-1,-1,-1],"loss_changes":[5.8682773E3,2.2453418E3,1.7502051E3,2.039768E2,1.4859014E3,1.20323E2,1.0092578E2,4.100284E1,2.4746826E2,1.220459E1,2.3272168E2,0E0,0E0,0E0,0E0,0E0,8.6586E0,0E0,6.3095215E1,0E0,0E0,4.330371E1,2.15E2,0E0,0E0,0E0,0E0,0E0,0E0,0E0,0E0],"parents":[2147483647,0,0,1,1,2,2,3,3,4,4,5,5,6,6,7,7,8,8,9,9,10,10,16,16,18,18,21,21,22,22],"right_children":[2,4,6,8,10,12,14,16,18,20,22,-1,-1,-1,-1,-1,24,-1,26,-1,-1,28,30,-1,-1,-1,-1,-1,-1,-1,-1],"split_conditions":[3.5E0,2.5E0,2.5E0,1.5E0,1.5E0,1.5E0,3.5E0,1.5E0,1.5E0,3.5E0,2.5E0,1.7151073E0,3.401568E0,4.998221E0,6.6857767E0,2.691618E-1,2.5E0,6.9115555E-1,2.5E0,9.8844737E-1,1.5865829E0,3.5E0,3.5E0,6.883306E-1,1.0585935E0,1.5521177E0,2.5604157E0,2.3028975E0,3.4586313E0,3.585315E0,5.5772796E0],"split_indices":[3,2,2,2,3,2,2,3,3,2,3,0,0,0,0,0,3,0,3,0,0,2,2,0,0,0,0,0,0,0,0],"split_type":[0,0,0,0,0,0,0,0,0,0,0,0,0,0,0,0,0,0,0,0,0,0,0,0,0,0,0,0,0,0,0],"sum_hessian":[3.19E2,2.3E2,8.9E1,1.14E2,1.16E2,2.9E1,6E1,5.7E1,5.7E1,3.6E1,8E1,9E0,2E1,2.9E1,3.1E1,1.3E1,4.4E1,2E1,3.7E1,1.2E1,2.4E1,4E1,4E1,2.1E1,2.3E1,2.1E1,1.6E1,1.5E1,2.5E1,2.6E1,1.4E1],"tree_param":{"num_deleted":"0","num_feature":"4","num_nodes":"31","size_leaf_vector":"0"}},{"base_weights":[7.046315E0,5.1179385E0,1.1917522E1,2.828983E0,7.3240237E0,7.060424E0,1.411089E1,1.8176594E0,3.7915313E0,3.3813133E0,9.034595E0,4.173428E0,8.098973E0,1.1829129E1,1.5809076E1,6.4726967E-1,2.1413882E0,1.6456077E0,4.8776593E0,2.3824098E0,3.7654908E0,7.3551216E0,1.0493711E1,1.6373934E0,2.514159E0,3.69216E0,6.1249137E0,5.517361E0,8.203161E0,8.498528E0,1.3385464E1],"categories":[],"categories_nodes":[],"categories_segments":[],"categories_sizes":[],"default_left":[1,1,1,1,1,1,1,1,1,1,1,0,0,0,0,0,1,0,1,0,0,1,1,0,0,0,0,0,0,0,0],"id":8,"left_children":[1,3,5,7,9,11,13,15,17,19,21,-1,-1,-1,-1,-1,23,-1,25,-1,-1,27,29,-1,-1,-1,-1,-1,-1,-1,-1],"loss_changes":[2.9449336E3,1.1457451E3,8.5917773E2,1.0505475E2,7.585327E2,5.614807E1,4.93584E1,2.0589508E1,1.2715668E2,5.228058E0,1.2131201E2,0E0,0E0,0E0,0E0,0E0,4.3377075E0,0E0,3.3573425E1,0E0,0E0,1.8638428E1,1.2279541E2,0E0,0E0,0E0,0E0,0E0,0E0,0E0,0E0],"parents":[2147483647,0,0,1,1,2,2,3,3,4,4,5,5,6,6,7,7,8,8,9,9,10,10,16,16,18,18,21,21,22,22],"right_children":[2,4,6,8,10,12,14,16,18,20,22,-1,-1,-1,-1,-1,24,-1,26,-1,-1,28,30,-1,-1,-1,-1,-1,-1,-1,-1],"split_conditions":[3.5E0,2.5E0,2.5E0,1.5E0,1.5E0,1.5E0,3.5E0,1.5E0,1.5E0,3.5E0,2.5E0,1.2520285E0,2.429692E0,3.548739E0,4.742723E0,1.941809E-1,2.5E0,4.9368232E-1,2.5E0,7.14723E-1,1.1296473E0,3.5E0,3.5E0,4.9121803E-1,7.542477E-1,1.107648E0,1.8374742E0,1.6552085E0,2.4609485E0,2.5495584E0,4.0156393E0],"split_indices":[3,2,2,2,3,2,2,3,3,2,3,0,0,0,0,0,3,0,3,0,0,2,2,0,0,0,0,0,0,0,0],"split_type":[0,0,0,0,0,0,0,0,0,0,0,0,0,0,0,0,0,0,0,0,0,0,0,0,0,0,0,0,0,0,0],"sum_hessian":[3.19E2,2.3E2,8.9E1,1.14E2,1.16E2,2.9E1,6E1,5.7E1,5.7E1,3.6E1,8E1,9E0,2E1,2.9E1,3.1E1,1.3E1,4.4E1,2E1,3.7E1,1.2E1,2.4E1,4E1,4E1,2.1E1,2.3E1,2.1E1,1.6E1,1.5E1,2.5E1,2.6E1,1.4E1],"tree_param":{"num_deleted":"0","num_feature":"4","num_nodes":"31","size_leaf_vector":"0"}},{"base_weights":[5.024225E0,3.6579003E0,8.475301E0,2.0227096E0,5.233875E0,5.065018E0,1.0013551E1,1.2971822E0,2.7133627E0,2.4167683E0,6.4560857E0,3.0466015E0,5.7849774E0,8.398684E0,1.1214564E1,4.669592E-1,1.5266476E0,1.1754335E0,3.4918666E0,1.7226669E0,2.6810303E0,5.2489824E0,7.505723E0,1.1685029E0,1.7913365E0,2.6348608E0,4.3955293E0,3.9656067E0,5.8368683E0,6.043395E0,9.637532E0],"categories":[],"categories_nodes":[],"categories_segments":[],"categories_sizes":[],"default_left":[1,1,1,1,1,1,1,1,1,1,1,0,0,0,0,0,1,0,1,0,0,1,1,0,0,0,0,0,0,0,0],"id":9,"left_children":[1,3,5,7,9,11,13,15,17,19,21,-1,-1,-1,-1,-1,23,-1,25,-1,-1,27,29,-1,-1,-1,-1,-1,-1,-1,-1],"loss_changes":[1.4778921E3,5.8470483E2,4.214087E2,5.4105347E1,3.872395E2,2.5970886E1,2.4120605E1,1.033654E1,6.533798E1,2.1681976E0,6.3231445E1,0E0,0E0,0E0,0E0,0E0,2.1726913E0,0E0,1.784732E1,0E0,0E0,7.786865E0,6.957007E1,0E0,0E0,0E0,0E0,0E0,0E0,0E0,0E0],"parents":[2147483647,0,0,1,1,2,2,3,3,4,4,5,5,6,6,7,7,8,8,9,9,10,10,16,16,18,18,21,21,22,22],"right_children":[2,4,6,8,10,12,14,16,18,20,22,-1,-1,-1,-1,-1,24,-1,26,-1,-1,28,30,-1,-1,-1,-1,-1,-1,-1,-1],"split_conditions":[3.5E0,2.5E0,2.5E0,1.5E0,1.5E0,1.5E0,3.5E0,1.5E0,1.5E0,3.5E0,2.5E0,9.139805E-1,1.7354933E0,2.5196052E0,3.3643694E0,1.4008777E-1,2.5E0,3.5263008E-1,2.5E0,5.168001E-1,8.043091E-1,3.5E0,3.5E0,3.505509E-1,5.3740096E-1,7.9045826E-1,1.3186588E0,1.189682E0,1.7510606E0,1.8130186E0,2.8912597E0],"split_indices":[3,2,2,2,3,2,2,3,3,2,3,0,0,0,0,0,3,0,3,0,0,2,2,0,0,0,0,0,0,0,0],"split_type":[0,0,0,0,0,0,0,0,0,0,0,0,0,0,0,0,0,0,0,0,0,0,0,0,0,0,0,0,0,0,0],"sum_hessian":[3.19E2,2.3E2,8.9E1,1.14E2,1.16E2,2.9E1,6E1,5.7E1,5.7E1,3.6E1,8E1,9E0,2E1,2.9E1,3.1E1,1.3E1,4.4E1,2E1,3.7E1,1.2E1,2.4E1,4E1,4E1,2.1E1,2.3E1,2.1E1,1.6E1,1.5E1,2.5E1,2.6E1,1.4E1],"tree_param":{"num_deleted":"0","num_feature":"4","num_nodes":"31","size_leaf_vector":"0"}},{"base_weights":[3.582549E0,2.6144516E0,6.027527E0,1.4462429E0,3.740345E0,3.6338258E0,7.105945E0,9.257527E-1,1.941798E0,1.727443E0,4.6136417E0,2.2240174E0,4.1321235E0,5.9630632E0,7.955336E0,3.368774E-1,1.088386E0,8.395949E-1,2.4998102E0,1.2456207E0,1.9088929E0,3.7460132E0,5.3687425E0,8.3388543E-1,1.2763289E0,1.8803319E0,3.1544404E0,2.8502798E0,4.1531563E0,4.297525E0,6.939018E0],"categories":[],"categories_nodes":[],"categories_segments":[],"categories_sizes":[],"default_left":[1,1,1,1,1,1,1,1,1,1,1,0,0,0,0,0,1,0,1,0,0,1,1,0,0,0,0,0,0,0,0],"id":10,"left_children":[1,3,5,7,9,11,13,15,17,19,21,-1,-1,-1,-1,-1,23,-1,25,-1,-1,27,29,-1,-1,-1,-1,-1,-1,-1,-1],"loss_changes":[7.416738E2,2.9841992E2,2.0650513E2,2.7864517E1,1.9769983E2,1.1885223E1,1.1777832E1,5.188053E0,3.357364E1,8.5702515E-1,3.2955566E1,0E0,0E0,0E0,0E0,0E0,1.0881119E0,0E0,9.478729E0,0E0,0E0,3.114685E0,3.914563E1,0E0,0E0,0E0,0E0,0E0,0E0,0E0,0E0],"parents":[2147483647,0,0,1,1,2,2,3,3,4,4,5,5,6,6,7,7,8,8,9,9,10,10,16,16,18,18,21,21,22,22],"right_children":[2,4,6,8,10,12,14,16,18,20,22,-1,-1,-1,-1,-1,24,-1,26,-1,-1,28,30,-1,-1,-1,-1,-1,-1,-1,-1],"split_conditions":[3.5E0,2.5E0,2.5E0,1.5E0,1.5E0,1.5E0,3.5E0,1.5E0,1.5E0,3.5E0,2.5E0,6.672052E-1,1.2396371E0,1.7889191E0,2.386601E0,1.0106323E-1,2.5E0,2.5187847E-1,2.5E0,3.7368622E-1,5.726679E-1,3.5E0,3.5E0,2.5016564E-1,3.828987E-1,5.640996E-1,9.4633216E-1,8.55084E-1,1.2459469E0,1.2892575E0,2.0817053E0],"split_indices":[3,2,2,2,3,2,2,3,3,2,3,0,0,0,0,0,3,0,3,0,0,2,2,0,0,0,0,0,0,0,0],"split_type":[0,0,0,0,0,0,0,0,0,0,0,0,0,0,0,0,0,0,0,0,0,0,0,0,0,0,0,0,0,0,0],"sum_hessian":[3.19E2,2.3E2,8.9E1,1.14E2,1.16E2,2.9E1,6E1,5.7E1,5.7E1,3.6E1,8E1,9E0,2E1,2.9E1,3.1E1,1.3E1,4.4E1,2E1,3.7E1,1.2E1,2.4E1,4E1,4E1,2.1E1,2.3E1,2.1E1,1.6E1,1.5E1,2.5E1,2.6E1,1.4E1],"tree_param":{"num_deleted":"0","num_feature":"4","num_nodes":"31","size_leaf_vector":"0"}},{"base_weights":[2.554649E0,1.868707E0,4.2868495E0,1.0340776E0,2.6730971E0,2.6072378E0,5.0426116E0,6.6068363E-1,1.3896428E0,1.2347878E0,3.2971015E0,1.623532E0,2.9515147E0,4.233769E0,5.6433206E0,2.4303341E-1,7.759374E-1,1.0027418E0,2.2637725E0,9.006782E-1,1.3591332E0,2.6734514E0,3.8403342E0,5.950907E-1,9.093828E-1,5.9971035E-1,1.3418744E0,2.0486355E0,2.9551287E0,3.0560145E0,4.9960876E0],"categories":[],"categories_nodes":[],"categories_segments":[],"categories_sizes":[],"default_left":[1,1,1,1,1,1,1,1,1,1,1,0,0,0,0,0,1,1,0,0,0,1,1,0,0,0,0,0,0,0,0],"id":11,"left_children":[1,3,5,7,9,11,13,15,17,19,21,-1,-1,-1,-1,-1,23,25,-1,-1,-1,27,29,-1,-1,-1,-1,-1,-1,-1,-1],"loss_changes":[3.7220947E2,1.5232178E2,1.0109766E2,1.4349968E1,1.0093756E2,5.3681335E0,5.7460938E0,2.6032982E0,1.7345726E1,3.130226E-1,1.7174866E1,0E0,0E0,0E0,0E0,0E0,5.448246E-1,4.935871E0,0E0,0E0,0E0,1.1618652E0,2.1897583E1,0E0,0E0,0E0,0E0,0E0,0E0,0E0,0E0],"parents":[2147483647,0,0,1,1,2,2,3,3,4,4,5,5,6,6,7,7,8,8,9,9,10,10,16,16,17,17,21,21,22,22],"right_children":[2,4,6,8,10,12,14,16,18,20,22,-1,-1,-1,-1,-1,24,26,-1,-1,-1,28,30,-1,-1,-1,-1,-1,-1,-1,-1],"split_conditions":[3.5E0,2.5E0,2.5E0,1.5E0,1.5E0,1.5E0,3.5E0,1.5E0,2.5E0,3.5E0,2.5E0,4.8705962E-1,8.854545E-1,1.2701308E0,1.6929963E0,7.2910026E-2,2.5E0,1.5E0,6.7913175E-1,2.7020347E-1,4.0774E-1,3.5E0,3.5E0,1.785272E-1,2.7281487E-1,1.799131E-1,4.0256232E-1,6.1459064E-1,8.865386E-1,9.168044E-1,1.4988263E0],"split_indices":[3,2,2,2,3,2,2,3,3,2,3,0,0,0,0,0,3,3,0,0,0,2,2,0,0,0,0,0,0,0,0],"split_type":[0,0,0,0,0,0,0,0,0,0,0,0,0,0,0,0,0,0,0,0,0,0,0,0,0,0,0,0,0,0,0],"sum_hessian":[3.19E2,2.3E2,8.9E1,1.14E2,1.16E2,2.9E1,6E1,5.7E1,5.7E1,3.6E1,8E1,9E0,2E1,2.9E1,3.1E1,1.3E1,4.4E1,4.1E1,1.6E1,1.2E1,2.4E1,4E1,4E1,2.1E1,2.3E1,2E1,2.1E1,1.5E1,2.5E1,2.6E1,1.4E1],"tree_param":{"num_deleted":"0","num_feature":"4","num_nodes":"31","size_leaf_vector":"0"}},{"base_weights":[1.8217431E0,1.335716E0,3.0489712E0,7.3938376E-1,1.9104381E0,1.870818E0,3.5784078E0,4.7151673E-1,9.945028E-1,8.826735E-1,2.3563251E0,1.1851776E0,2.108227E0,3.00598E0,4.0032334E0,1.7533098E-1,5.531853E-1,7.1578854E-1,1.6245908E0,6.512604E-1,9.6770144E-1,1.9080297E0,2.7471492E0,4.2467776E-1,6.4793444E-1,4.2836508E-1,9.5761144E-1,1.4724541E0,2.1026905E0,2.1731613E0,3.5971842E0],"categories":[],"categories_nodes":[],"categories_segments":[],"categories_sizes":[],"default_left":[1,1,1,1,1,1,1,1,1,1,1,0,0,0,0,0,1,1,0,0,0,1,1,0,0,0,0,0,0,0,0],"id":12,"left_children":[1,3,5,7,9,11,13,15,17,19,21,-1,-1,-1,-1,-1,23,25,-1,-1,-1,27,29,-1,-1,-1,-1,-1,-1,-1,-1],"loss_changes":[1.8679675E2,7.775696E1,4.9443542E1,7.3899384E0,5.1537384E1,2.3846893E0,2.800415E0,1.305974E0,9.022778E0,9.780502E-2,8.949951E0,0E0,0E0,0E0,0E0,0E0,2.7275562E-1,2.5090275E0,0E0,0E0,0E0,3.8024902E-1,1.2187012E1,0E0,0E0,0E0,0E0,0E0,0E0,0E0,0E0],"parents":[2147483647,0,0,1,1,2,2,3,3,4,4,5,5,6,6,7,7,8,8,9,9,10,10,16,16,17,17,21,21,22,22],"right_children":[2,4,6,8,10,12,14,16,18,20,22,-1,-1,-1,-1,-1,24,26,-1,-1,-1,28,30,-1,-1,-1,-1,-1,-1,-1,-1],"split_conditions":[3.5E0,2.5E0,2.5E0,1.5E0,1.5E0,1.5E0,3.5E0,1.5E0,2.5E0,3.5E0,2.5E0,3.5555327E-1,6.324681E-1,9.01794E-1,1.20097E0,5.2599296E-2,2.5E0,1.5E0,4.8737726E-1,1.9537812E-1,2.9031044E-1,3.5E0,3.5E0,1.2740333E-1,1.9438034E-1,1.2850954E-1,2.8728345E-1,4.4173625E-1,6.3080716E-1,6.519484E-1,1.0791553E0],"split_indices":[3,2,2,2,3,2,2,3,3,2,3,0,0,0,0,0,3,3,0,0,0,2,2,0,0,0,0,0,0,0,0],"split_type":[0,0,0,0,0,0,0,0,0,0,0,0,0,0,0,0,0,0,0,0,0,0,0,0,0,0,0,0,0,0,0],"sum_hessian":[3.19E2,2.3E2,8.9E1,1.14E2,1.16E2,2.9E1,6E1,5.7E1,5.7E1,3.6E1,8E1,9E0,2E1,2.9E1,3.1E1,1.3E1,4.4E1,4.1E1,1.6E1,1.2E1,2.4E1,4E1,4E1,2.1E1,2.3E1,2E1,2.1E1,1.5E1,2.5E1,2.6E1,1.4E1],"tree_param":{"num_deleted":"0","num_feature":"4","num_nodes":"31","size_leaf_vector":"0"}},{"base_weights":[1.2991496E0,7.1762E-1,1.814495E0,3.9339784E-1,1.0283118E0,1.0315186E0,2.3314342E0,2.41094E-1,5.109511E-1,6.309988E-1,1.3617818E0,5.979227E-1,1.3903602E0,1.8884302E0,2.8200605E0,1.2648909E-1,3.0306557E-1,3.0597505E-1,6.8338495E-1,4.7091204E-1,6.890039E-1,1.0583282E0,1.4961463E0,4.6165195E-1,8.651802E-1,1.5453604E0,2.1342454E0],"categories":[],"categories_nodes":[],"categories_segments":[],"categories_sizes":[],"default_left":[1,1,1,1,1,1,1,1,1,1,1,1,0,1,0,0,0,0,0,0,0,0,0,0,0,0,0],"id":13,"left_children":[1,3,5,7,9,11,13,15,17,19,21,23,-1,25,-1,-1,-1,-1,-1,-1,-1,-1,-1,-1,-1,-1,-1],"loss_changes":[9.459827E1,1.4906906E1,6.599805E1,1.237503E0,9.34259E0,9.904533E0,1.6537292E1,2.1024394E-1,1.275383E0,1.9116402E-2,8.829498E-2,8.024273E-1,0E0,1.424408E0,0E0,0E0,0E0,0E0,0E0,0E0,0E0,0E0,0E0,0E0,0E0,0E0,0E0],"parents":[2147483647,0,0,1,1,2,2,3,3,4,4,5,5,6,6,7,7,8,8,9,9,10,10,11,11,13,13],"right_children":[2,4,6,8,10,12,14,16,18,20,22,24,-1,26,-1,-1,-1,-1,-1,-1,-1,-1,-1,-1,-1,-1,-1],"split_conditions":[2.5E0,2.5E0,2.5E0,1.5E0,1.5E0,1.5E0,3.5E0,1.5E0,1.5E0,3.5E0,3.5E0,3.5E0,4.171081E-1,3.5E0,8.460182E-1,3.7946727E-2,9.091967E-2,9.179252E-2,2.050155E-1,1.4127362E-1,2.0670117E-1,3.1749845E-1,4.4884393E-1,1.384956E-1,2.5955406E-1,4.6360815E-1,6.4027363E-1],"split_indices":[3,2,2,2,3,2,2,3,3,2,2,3,0,3,0,0,0,0,0,0,0,0,0,0,0,0,0],"split_type":[0,0,0,0,0,0,0,0,0,0,0,0,0,0,0,0,0,0,0,0,0,0,0,0,0,0,0],"sum_hessian":[3.19E2,1.51E2,1.68E2,7.5E1,7.6E1,6.8E1,1E2,3.4E1,4.1E1,3.6E1,4E1,3.2E1,3.6E1,5.5E1,4.5E1,1.3E1,2.1E1,2E1,2.1E1,1.2E1,2.4E1,1.5E1,2.5E1,2.3E1,9E0,2.6E1,2.9E1],"tree_param":{"num_deleted":"0","num_feature":"4","num_nodes":"27","size_leaf_vector":"0"}},{"base_weights":[9.228573E-1,6.7364204E-1,1.5522557E0,3.6865103E-1,9.676619E-1,9.8656833E-1,1.8050159E0,2.4017075E-1,4.907753E-1,4.5110506E-1,1.1916735E0,6.3158E-1,1.1086309E0,1.5153137E0,2.020205E0,9.125287E-2,2.8116363E-1,2.185531E-1,6.282987E-1,9.719384E-1,1.3823435E0,2.1627878E-1,3.2892624E-1,4.8768684E-1,7.733083E-1,1.0989233E0,1.8003439E0],"categories":[],"categories_nodes":[],"categories_segments":[],"categories_sizes":[],"default_left":[1,1,1,1,1,1,1,1,1,0,1,0,0,0,0,0,1,0,1,0,1,0,0,0,0,0,0],"id":14,"left_children":[1,3,5,7,9,11,13,15,17,-1,19,-1,-1,-1,-1,-1,21,-1,23,-1,25,-1,-1,-1,-1,-1,-1],"loss_changes":[4.9148163E1,2.0357834E1,1.1087738E1,1.6865435E0,1.3001053E1,5.9973335E-1,7.415314E-1,3.2840824E-1,2.0340261E0,0E0,2.0501022E0,0E0,0E0,0E0,0E0,0E0,6.831813E-2,0E0,3.9768982E-1,0E0,2.8788147E0,0E0,0E0,0E0,0E0,0E0,0E0],"parents":[2147483647,0,0,1,1,2,2,3,3,4,4,5,5,6,6,7,7,8,8,10,10,16,16,18,18,20,20],"right_children":[2,4,6,8,10,12,14,16,18,-1,20,-1,-1,-1,-1,-1,22,-1,24,-1,26,-1,-1,-1,-1,-1,-1],"split_conditions":[3.5E0,2.5E0,2.5E0,1.5E0,1.5E0,1.5E0,3.5E0,1.5E0,1.5E0,1.3533153E-1,2.5E0,1.89474E-1,3.3258927E-1,4.5459414E-1,6.060615E-1,2.7375862E-2,2.5E0,6.556593E-2,2.5E0,2.915815E-1,3.5E0,6.4883634E-2,9.867787E-2,1.4630605E-1,2.319925E-1,3.2967702E-1,5.401032E-1],"split_indices":[3,2,2,2,3,2,2,3,3,0,3,0,0,0,0,0,3,0,3,0,2,0,0,0,0,0,0],"split_type":[0,0,0,0,0,0,0,0,0,0,0,0,0,0,0,0,0,0,0,0,0,0,0,0,0,0,0],"sum_hessian":[3.19E2,2.3E2,8.9E1,1.14E2,1.16E2,2.9E1,6E1,5.7E1,5.7E1,3.6E1,8E1,9E0,2E1,2.9E1,3.1E1,1.3E1,4.4E1,2E1,3.7E1,4E1,4E1,2.1E1,2.3E1,2.1E1,1.6E1,2.6E1,1.4E1],"tree_param":{"num_deleted":"0","num_feature":"4","num_nodes":"27","size_leaf_vector":"0"}},{"base_weights":[6.569823E-1,4.7991088E-1,1.1041658E0,2.6357546E-1,6.8844646E-1,7.080012E-1,1.2808998E0,1.71411E-1,3.5119557E-1,3.1943244E-1,8.485091E-1,4.6105498E-1,7.918803E-1,1.0758768E0,1.4330807E0,6.583214E-2,2.004486E-1,1.5611012E-1,4.4976395E-1,2.1558556E-1,3.6065552E-1,6.880072E-1,9.9582326E-1,1.5434386E-1,2.3435926E-1,3.48032E-1,5.5496037E-1,4.8731804E-1,7.814523E-1,7.8419906E-1,1.2962505E0],"categories":[],"categories_nodes":[],"categories_segments":[],"categories_sizes":[],"default_left":[1,1,1,1,1,1,1,1,1,1,1,0,0,0,0,0,1,0,1,0,0,1,1,0,0,0,0,0,0,0,0],"id":15,"left_children":[1,3,5,7,9,11,13,15,17,19,21,-1,-1,-1,-1,-1,23,-1,25,-1,-1,27,29,-1,-1,-1,-1,-1,-1,-1,-1],"loss_changes":[2.4808792E1,1.0239788E1,5.3945465E0,8.684783E-1,6.6396027E0,2.5630856E-1,3.6141968E-1,1.6461802E-1,1.045084E0,8.064079E-2,1.2300491E0,0E0,0E0,0E0,0E0,0E0,3.4183145E-2,0E0,2.135253E-1,0E0,0E0,4.0682793E-1,1.5265884E0,0E0,0E0,0E0,0E0,0E0,0E0,0E0,0E0],"parents":[2147483647,0,0,1,1,2,2,3,3,4,4,5,5,6,6,7,7,8,8,9,9,10,10,16,16,18,18,21,21,22,22],"right_children":[2,4,6,8,10,12,14,16,18,20,22,-1,-1,-1,-1,-1,24,-1,26,-1,-1,28,30,-1,-1,-1,-1,-1,-1,-1,-1],"split_conditions":[3.5E0,2.5E0,2.5E0,1.5E0,1.5E0,1.5E0,3.5E0,1.5E0,1.5E0,3.5E0,3.5E0,1.383165E-1,2.375641E-1,3.2276306E-1,4.2992422E-1,1.9749641E-2,2.5E0,4.683304E-2,2.5E0,6.4675674E-2,1.0819666E-1,2.5E0,2.5E0,4.630316E-2,7.0307784E-2,1.04409605E-1,1.6648811E-1,1.4619541E-1,2.3443569E-1,2.3525973E-1,3.8887516E-1],"split_indices":[3,2,2,2,3,2,2,3,3,2,2,0,0,0,0,0,3,0,3,0,0,3,3,0,0,0,0,0,0,0,0],"split_type":[0,0,0,0,0,0,0,0,0,0,0,0,0,0,0,0,0,0,0,0,0,0,0,0,0,0,0,0,0,0,0],"sum_hessian":[3.19E2,2.3E2,8.9E1,1.14E2,1.16E2,2.9E1,6E1,5.7E1,5.7E1,3.6E1,8E1,9E0,2E1,2.9E1,3.1E1,1.3E1,4.4E1,2E1,3.7E1,1.2E1,2.4E1,4.1E1,3.9E1,2.1E1,2.3E1,2.1E1,1.6E1,1.5E1,2.6E1,2.5E1,1.4E1],"tree_param":{"num_deleted":"0","num_feature":"4","num_nodes":"31","size_leaf_vector":"0"}},{"base_weights":[4.6851256E-1,3.430018E-1,7.854511E-1,1.8845151E-1,4.919786E-1,5.0813E-1,9.089623E-1,1.2233851E-1,2.5131536E-1,2.2827561E-1,6.063617E-1,3.365696E-1,5.6562877E-1,7.6386666E-1,1.0165844E0,4.7493186E-2,1.4290509E-1,1.1150724E-1,3.2196417E-1,1.5588614E-1,2.5678712E-1,4.906678E-1,7.126812E-1,1.1014574E-1,1.669801E-1,2.4836956E-1,3.9826515E-1,3.5026073E-1,5.556991E-1,5.579875E-1,9.3330485E-1],"categories":[],"categories_nodes":[],"categories_segments":[],"categories_sizes":[],"default_left":[1,1,1,1,1,1,1,1,1,1,1,0,0,0,0,0,1,0,1,0,0,1,1,0,0,0,0,0,0,0,0],"id":16,"left_children":[1,3,5,7,9,11,13,15,17,19,21,-1,-1,-1,-1,-1,23,-1,25,-1,-1,27,29,-1,-1,-1,-1,-1,-1,-1,-1],"loss_changes":[1.245993E1,5.2259254E0,2.6208305E0,4.4720793E-1,3.3906727E0,1.0556221E-1,1.7601013E-1,8.249307E-2,5.3698087E-1,3.6335945E-2,6.466503E-1,0E0,0E0,0E0,0E0,0E0,1.7098546E-2,0E0,1.1446619E-1,0E0,0E0,1.8885612E-1,8.4439087E-1,0E0,0E0,0E0,0E0,0E0,0E0,0E0,0E0],"parents":[2147483647,0,0,1,1,2,2,3,3,4,4,5,5,6,6,7,7,8,8,9,9,10,10,16,16,18,18,21,21,22,22],"right_children":[2,4,6,8,10,12,14,16,18,20,22,-1,-1,-1,-1,-1,24,-1,26,-1,-1,28,30,-1,-1,-1,-1,-1,-1,-1,-1],"split_conditions":[3.5E0,2.5E0,2.5E0,1.5E0,1.5E0,1.5E0,3.5E0,1.5E0,1.5E0,3.5E0,3.5E0,1.0097089E-1,1.6968864E-1,2.2916001E-1,3.0497533E-1,1.4247957E-2,2.5E0,3.345217E-2,2.5E0,4.6765845E-2,7.703614E-2,2.5E0,2.5E0,3.3043724E-2,5.0094035E-2,7.451087E-2,1.1947955E-1,1.0507823E-1,1.6670974E-1,1.6739626E-1,2.7999148E-1],"split_indices":[3,2,2,2,3,2,2,3,3,2,2,0,0,0,0,0,3,0,3,0,0,3,3,0,0,0,0,0,0,0,0],"split_type":[0,0,0,0,0,0,0,0,0,0,0,0,0,0,0,0,0,0,0,0,0,0,0,0,0,0,0,0,0,0,0],"sum_hessian":[3.19E2,2.3E2,8.9E1,1.14E2,1.16E2,2.9E1,6E1,5.7E1,5.7E1,3.6E1,8E1,9E0,2E1,2.9E1,3.1E1,1.3E1,4.4E1,2E1,3.7E1,1.2E1,2.4E1,4.1E1,3.9E1,2.1E1,2.3E1,2.1E1,1.6E1,1.5E1,2.6E1,2.5E1,1.4E1],"tree_param":{"num_deleted":"0","num_feature":"4","num_nodes":"31","size_leaf_vector":"0"}},{"base_weights":[3.341236E-1,2.451569E-1,5.5875903E-1,1.3474071E-1,3.5159028E-1,3.6471507E-1,6.4503056E-1,8.73161E-2,1.7984219E-1,1.6313832E-1,4.3333265E-1,2.456955E-1,4.0402368E-1,5.4234874E-1,7.211375E-1,3.4262996E-2,1.01881154E-1,7.964724E-2,2.3048039E-1,1.1271902E-1,1.8283081E-1,3.499427E-1,5.1005876E-1,7.860479E-2,1.1897278E-1,1.7724401E-1,2.8581688E-1,2.5174856E-1,3.95171E-1,3.9702928E-1,6.7197263E-1],"categories":[],"categories_nodes":[],"categories_segments":[],"categories_sizes":[],"default_left":[1,1,1,1,1,1,1,1,1,1,1,0,0,0,0,0,1,0,1,0,0,1,1,0,0,0,0,0,0,0,0],"id":17,"left_children":[1,3,5,7,9,11,13,15,17,19,21,-1,-1,-1,-1,-1,23,-1,25,-1,-1,27,29,-1,-1,-1,-1,-1,-1,-1,-1],"loss_changes":[6.2582397E0,2.6673317E0,1.2713909E0,2.3027277E-1,1.7316341E0,4.1088104E-2,8.559418E-2,4.132709E-2,2.7591705E-1,1.6128182E-2,3.397627E-1,0E0,0E0,0E0,0E0,0E0,8.550584E-3,0E0,6.1285257E-2,0E0,0E0,8.704424E-2,4.652481E-1,0E0,0E0,0E0,0E0,0E0,0E0,0E0,0E0],"parents":[2147483647,0,0,1,1,2,2,3,3,4,4,5,5,6,6,7,7,8,8,9,9,10,10,16,16,18,18,21,21,22,22],"right_children":[2,4,6,8,10,12,14,16,18,20,22,-1,-1,-1,-1,-1,24,-1,26,-1,-1,28,30,-1,-1,-1,-1,-1,-1,-1,-1],"split_conditions":[3.5E0,2.5E0,2.5E0,1.5E0,1.5E0,1.5E0,3.5E0,1.5E0,1.5E0,3.5E0,3.5E0,7.370865E-2,1.2120711E-1,1.6270463E-1,2.1634127E-1,1.0278899E-2,2.5E0,2.3894174E-2,2.5E0,3.3815708E-2,5.4849245E-2,2.5E0,2.5E0,2.3581438E-2,3.5691835E-2,5.3173203E-2,8.574507E-2,7.552457E-2,1.185513E-1,1.1910879E-1,2.015918E-1],"split_indices":[3,2,2,2,3,2,2,3,3,2,2,0,0,0,0,0,3,0,3,0,0,3,3,0,0,0,0,0,0,0,0],"split_type":[0,0,0,0,0,0,0,0,0,0,0,0,0,0,0,0,0,0,0,0,0,0,0,0,0,0,0,0,0,0,0],"sum_hessian":[3.19E2,2.3E2,8.9E1,1.14E2,1.16E2,2.9E1,6E1,5.7E1,5.7E1,3.6E1,8E1,9E0,2E1,2.9E1,3.1E1,1.3E1,4.4E1,2E1,3.7E1,1.2E1,2.4E1,4.1E1,3.9E1,2.1E1,2.3E1,2.1E1,1.6E1,1.5E1,2.6E1,2.5E1,1.4E1],"tree_param":{"num_deleted":"0","num_feature":"4","num_nodes":"31","size_leaf_vector":"0"}},{"base_weights":[2.3829255E-1,1.7522846E-1,3.9750934E-1,9.633947E-2,2.5127125E-1,2.6179734E-1,4.577364E-1,6.2321417E-2,1.286965E-1,1.16593644E-1,3.096885E-1,1.7935868E-1,2.885873E-1,3.8506776E-1,5.11559E-1,2.471849E-2,7.263518E-2,5.689167E-2,1.6499138E-1,8.150306E-2,1.30177E-1,2.4958475E-1,3.6505526E-1,5.6096077E-2,8.476957E-2,1.2648791E-1,2.0511402E-1,1.809454E-1,2.8101602E-1,2.8250033E-1,4.8381346E-1],"categories":[],"categories_nodes":[],"categories_segments":[],"categories_sizes":[],"default_left":[1,1,1,1,1,1,1,1,1,1,1,0,0,0,0,0,1,0,1,0,0,1,1,0,0,0,0,0,0,0,0],"id":18,"left_children":[1,3,5,7,9,11,13,15,17,19,21,-1,-1,-1,-1,-1,23,-1,25,-1,-1,27,29,-1,-1,-1,-1,-1,-1,-1,-1],"loss_changes":[3.1434212E0,1.361548E0,6.1578465E-1,1.1856258E-1,8.843894E-1,1.4495134E-2,4.1599274E-2,2.0698592E-2,1.4177E-1,7.026136E-3,1.784358E-1,0E0,0E0,0E0,0E0,0E0,4.275888E-3,0E0,3.2760143E-2,0E0,0E0,3.9763212E-2,2.5548553E-1,0E0,0E0,0E0,0E0,0E0,0E0,0E0,0E0],"parents":[2147483647,0,0,1,1,2,2,3,3,4,4,5,5,6,6,7,7,8,8,9,9,10,10,16,16,18,18,21,21,22,22],"right_children":[2,4,6,8,10,12,14,16,18,20,22,-1,-1,-1,-1,-1,24,-1,26,-1,-1,28,30,-1,-1,-1,-1,-1,-1,-1,-1],"split_conditions":[3.5E0,2.5E0,2.5E0,1.5E0,1.5E0,1.5E0,3.5E0,1.5E0,1.5E0,3.5E0,3.5E0,5.3807605E-2,8.657619E-2,1.15520336E-1,1.5346771E-1,7.415547E-3,2.5E0,1.7067501E-2,2.5E0,2.445092E-2,3.9053105E-2,2.5E0,2.5E0,1.6828824E-2,2.5430871E-2,3.7946373E-2,6.1534207E-2,5.4283623E-2,8.430481E-2,8.47501E-2,1.4514405E-1],"split_indices":[3,2,2,2,3,2,2,3,3,2,2,0,0,0,0,0,3,0,3,0,0,3,3,0,0,0,0,0,0,0,0],"split_type":[0,0,0,0,0,0,0,0,0,0,0,0,0,0,0,0,0,0,0,0,0,0,0,0,0,0,0,0,0,0,0],"sum_hessian":[3.19E2,2.3E2,8.9E1,1.14E2,1.16E2,2.9E1,6E1,5.7E1,5.7E1,3.6E1,8E1,9E0,2E1,2.9E1,3.1E1,1.3E1,4.4E1,2E1,3.7E1,1.2E1,2.4E1,4.1E1,3.9E1,2.1E1,2.3E1,2.1E1,1.6E1,1.5E1,2.6E1,2.5E1,1.4E1],"tree_param":{"num_deleted":"0","num_feature":"4","num_nodes":"31","size_leaf_vector":"0"}},{"base_weights":[1.6995285E-1,9.4474174E-2,2.3683338E-1,5.2232202E-2,1.3494061E-1,1.3898633E-1,3.013345E-1,3.2296237E-2,6.760188E-2,8.333031E-2,1.7822452E-1,8.360152E-2,1.8462722E-1,2.4280956E-1,3.6603147E-1,1.7832415E-2,4.0032472E-2,4.0637426E-2,9.0267874E-2,5.893179E-2,9.268433E-2,1.3005495E-1,2.0101254E-1,6.039667E-2,1.30933E-1,1.9983362E-1,2.7339426E-1],"categories":[],"categories_nodes":[],"categories_segments":[],"categories_sizes":[],"default_left":[1,1,1,1,1,1,1,1,1,1,1,1,0,1,0,0,0,0,0,0,0,0,0,0,0,0,0],"id":19,"left_children":[1,3,5,7,9,11,13,15,17,19,21,23,-1,25,-1,-1,-1,-1,-1,-1,-1,-1,-1,-1,-1,-1,-1],"loss_changes":[1.5930023E0,2.5277793E-1,1.0247183E0,2.110383E-2,1.5715837E-1,1.5898395E-1,2.9354954E-1,3.2024682E-3,2.2001162E-2,2.9822588E-3,1.8862486E-2,2.8336644E-2,0E0,1.897335E-2,0E0,0E0,0E0,0E0,0E0,0E0,0E0,0E0,0E0,0E0,0E0,0E0,0E0],"parents":[2147483647,0,0,1,1,2,2,3,3,4,4,5,5,6,6,7,7,8,8,9,9,10,10,11,11,13,13],"right_children":[2,4,6,8,10,12,14,16,18,20,22,24,-1,26,-1,-1,-1,-1,-1,-1,-1,-1,-1,-1,-1,-1,-1],"split_conditions":[2.5E0,2.5E0,2.5E0,1.5E0,1.5E0,1.5E0,3.5E0,1.5E0,1.5E0,3.5E0,3.5E0,3.5E0,5.5388168E-2,3.5E0,1.0980944E-1,5.3497246E-3,1.2009743E-2,1.2191229E-2,2.7080363E-2,1.7679539E-2,2.78053E-2,3.9016485E-2,6.0303763E-2,1.8119002E-2,3.92799E-2,5.9950087E-2,8.201828E-2],"split_indices":[3,2,2,2,3,2,2,3,3,2,2,3,0,3,0,0,0,0,0,0,0,0,0,0,0,0,0],"split_type":[0,0,0,0,0,0,0,0,0,0,0,0,0,0,0,0,0,0,0,0,0,0,0,0,0,0,0],"sum_hessian":[3.19E2,1.51E2,1.68E2,7.5E1,7.6E1,6.8E1,1E2,3.4E1,4.1E1,3.6E1,4E1,3.2E1,3.6E1,5.5E1,4.5E1,1.3E1,2.1E1,2E1,2.1E1,1.2E1,2.4E1,1.5E1,2.5E1,2.3E1,9E0,2.6E1,2.9E1],"tree_param":{"num_deleted":"0","num_feature":"4","num_nodes":"27","size_leaf_vector":"0"}},{"base_weights":[1.2073653E-1,8.842935E-2,2.0231679E-1,4.7689762E-2,1.2771672E-1,1.3922627E-1,2.3002824E-1,3.1747572E-2,6.280971E-2,5.956E-2,1.5727328E-1,9.5581055E-2,1.5337989E-1,1.9411214E-1,2.565112E-1,1.2864454E-2,3.691682E-2,2.9026214E-2,7.982665E-2,4.2610757E-2,6.599121E-2,1.2696166E-1,1.8516865E-1,2.8567834E-2,4.3031853E-2,6.441827E-2,9.5071234E-2,9.347677E-2,1.4210227E-1,1.4302914E-1,2.4586588E-1],"categories":[],"categories_nodes":[],"categories_segments":[],"categories_sizes":[],"default_left":[1,1,1,1,1,1,1,1,1,1,1,0,0,0,0,0,1,0,1,0,0,1,1,0,0,0,0,0,0,0,0],"id":20,"left_children":[1,3,5,7,9,11,13,15,17,19,21,-1,-1,-1,-1,-1,23,-1,25,-1,-1,27,29,-1,-1,-1,-1,-1,-1,-1,-1],"loss_changes":[8.255105E-1,3.636366E-1,1.2532353E-1,2.572614E-2,2.263267E-1,3.8718581E-3,8.229256E-3,5.1865466E-3,3.1026676E-2,1.2212247E-3,4.4980526E-2,0E0,0E0,0E0,0E0,0E0,1.0681152E-3,0E0,2.8016418E-3,0E0,0E0,8.009911E-3,6.7144156E-2,0E0,0E0,0E0,0E0,0E0,0E0,0E0,0E0],"parents":[2147483647,0,0,1,1,2,2,3,3,4,4,5,5,6,6,7,7,8,8,9,9,10,10,16,16,18,18,21,21,22,22],"right_children":[2,4,6,8,10,12,14,16,18,20,22,-1,-1,-1,-1,-1,24,-1,26,-1,-1,28,30,-1,-1,-1,-1,-1,-1,-1,-1],"split_conditions":[3.5E0,2.5E0,2.5E0,1.5E0,1.5E0,1.5E0,3.5E0,1.5E0,1.5E0,3.5E0,3.5E0,2.8674318E-2,4.6013966E-2,5.8233645E-2,7.695337E-2,3.8593363E-3,2.5E0,8.707864E-3,2.5E0,1.27832275E-2,1.9797362E-2,2.5E0,2.5E0,8.570351E-3,1.2909557E-2,1.9325482E-2,2.8521372E-2,2.8043034E-2,4.2630684E-2,4.2908743E-2,7.3759764E-2],"split_indices":[3,2,2,2,3,2,2,3,3,2,2,0,0,0,0,0,3,0,3,0,0,3,3,0,0,0,0,0,0,0,0],"split_type":[0,0,0,0,0,0,0,0,0,0,0,0,0,0,0,0,0,0,0,0,0,0,0,0,0,0,0,0,0,0,0],"sum_hessian":[3.19E2,2.3E2,8.9E1,1.14E2,1.16E2,2.9E1,6E1,5.7E1,5.7E1,3.6E1,8E1,9E0,2E1,2.9E1,3.1E1,1.3E1,4.4E1,2E1,3.7E1,1.2E1,2.4E1,4.1E1,3.9E1,2.1E1,2.3E1,2.1E1,1.6E1,1.5E1,2.6E1,2.5E1,1.4E1],"tree_param":{"num_deleted":"0","num_feature":"4","num_nodes":"31","size_leaf_vector":"0"}},{"base_weights":[8.611546E-2,6.320701E-2,1.4395697E-1,3.409573E-2,9.128042E-2,9.99485E-2,1.6324052E-1,2.2660617E-2,4.4942986E-2,4.257202E-2,1.1240302E-1,6.977348E-2,1.09558105E-1,1.3782552E-1,1.8196583E-1,9.280614E-3,2.6319716E-2,2.0733789E-2,5.7139046E-2,3.0811016E-2,4.6984863E-2,9.055346E-2,1.3253498E-1,2.038765E-2,3.0660788E-2,4.597144E-2,6.823012E-2,6.718397E-2,1.0104822E-1,1.0177172E-1,1.770223E-1],"categories":[],"categories_nodes":[],"categories_segments":[],"categories_sizes":[],"default_left":[1,1,1,1,1,1,1,1,1,1,1,0,0,0,0,0,1,0,1,0,0,1,1,0,0,0,0,0,0,0,0],"id":21,"left_children":[1,3,5,7,9,11,13,15,17,19,21,-1,-1,-1,-1,-1,23,-1,25,-1,-1,27,29,-1,-1,-1,-1,-1,-1,-1,-1],"loss_changes":[4.149201E-1,1.8567318E-1,6.006193E-2,1.3246119E-2,1.1558998E-1,1.0548532E-3,3.950596E-3,2.5953427E-3,1.5940174E-2,4.7262758E-4,2.3628354E-2,0E0,0E0,0E0,0E0,0E0,5.337186E-4,0E0,1.5700758E-3,0E0,0E0,3.5119653E-3,3.672707E-2,0E0,0E0,0E0,0E0,0E0,0E0,0E0,0E0],"parents":[2147483647,0,0,1,1,2,2,3,3,4,4,5,5,6,6,7,7,8,8,9,9,10,10,16,16,18,18,21,21,22,22],"right_children":[2,4,6,8,10,12,14,16,18,20,22,-1,-1,-1,-1,-1,24,-1,26,-1,-1,28,30,-1,-1,-1,-1,-1,-1,-1,-1],"split_conditions":[3.5E0,2.5E0,2.5E0,1.5E0,1.5E0,1.5E0,3.5E0,1.5E0,1.5E0,3.5E0,3.5E0,2.0932045E-2,3.286743E-2,4.1347656E-2,5.4589752E-2,2.7841842E-3,2.5E0,6.220137E-3,2.5E0,9.243305E-3,1.4095459E-2,2.5E0,2.5E0,6.1162952E-3,9.198236E-3,1.3791432E-2,2.0469038E-2,2.0155191E-2,3.0314468E-2,3.0531516E-2,5.310669E-2],"split_indices":[3,2,2,2,3,2,2,3,3,2,2,0,0,0,0,0,3,0,3,0,0,3,3,0,0,0,0,0,0,0,0],"split_type":[0,0,0,0,0,0,0,0,0,0,0,0,0,0,0,0,0,0,0,0,0,0,0,0,0,0,0,0,0,0,0],"sum_hessian":[3.19E2,2.3E2,8.9E1,1.14E2,1.16E2,2.9E1,6E1,5.7E1,5.7E1,3.6E1,8E1,9E0,2E1,2.9E1,3.1E1,1.3E1,4.4E1,2E1,3.7E1,1.2E1,2.4E1,4.1E1,3.9E1,2.1E1,2.3E1,2.1E1,1.6E1,1.5E1,2.6E1,2.5E1,1.4E1],"tree_param":{"num_deleted":"0","num_feature":"4","num_nodes":"31","size_leaf_vector":"0"}},{"base_weights":[6.142276E-2,4.5179866E-2,1.0243039E-1,2.4376737E-2,6.524123E-2,7.175751E-2,1.1583622E-1,1.617476E-2,3.2158423E-2,3.0431386E-2,8.0336586E-2,5.0935365E-2,7.825579E-2,9.785258E-2,1.29076E-1,6.6956794E-3,1.876437E-2,1.4810108E-2,4.0899377E-2,2.2279005E-2,3.3453368E-2,6.458555E-2,9.486675E-2,1.4548822E-2,2.1846771E-2,3.280813E-2,4.8964556E-2,4.8286915E-2,7.185194E-2,7.241322E-2,1.2746175E-1],"categories":[],"categories_nodes":[],"categories_segments":[],"categories_sizes":[],"default_left":[1,1,1,1,1,1,1,1,1,1,1,0,0,0,0,0,1,0,1,0,0,1,1,0,0,0,0,0,0,0,0],"id":22,"left_children":[1,3,5,7,9,11,13,15,17,19,21,-1,-1,-1,-1,-1,23,-1,25,-1,-1,27,29,-1,-1,-1,-1,-1,-1,-1,-1],"loss_changes":[2.0851862E-1,9.4815016E-2,2.8695464E-2,6.8197474E-3,5.9034854E-2,7.325411E-5,1.8936396E-3,1.2980914E-3,8.1894435E-3,1.6623735E-4,1.2411058E-2,0E0,0E0,0E0,0E0,0E0,2.6688538E-4,0E0,8.7334216E-4,0E0,0E0,1.5046448E-3,2.0044982E-2,0E0,0E0,0E0,0E0,0E0,0E0,0E0,0E0],"parents":[2147483647,0,0,1,1,2,2,3,3,4,4,5,5,6,6,7,7,8,8,9,9,10,10,16,16,18,18,21,21,22,22],"right_children":[2,4,6,8,10,12,14,16,18,20,22,-1,-1,-1,-1,-1,24,-1,26,-1,-1,28,30,-1,-1,-1,-1,-1,-1,-1,-1],"split_conditions":[3.5E0,2.5E0,2.5E0,1.5E0,1.5E0,1.5E0,3.5E0,1.5E0,1.5E0,3.5E0,3.5E0,1.528061E-2,2.3476737E-2,2.9355776E-2,3.8722802E-2,2.008704E-3,2.5E0,4.4430327E-3,2.5E0,6.683702E-3,1.003601E-2,2.5E0,2.5E0,4.364647E-3,6.5540317E-3,9.842439E-3,1.4689367E-2,1.4486075E-2,2.1555582E-2,2.1723967E-2,3.8238525E-2],"split_indices":[3,2,2,2,3,2,2,3,3,2,2,0,0,0,0,0,3,0,3,0,0,3,3,0,0,0,0,0,0,0,0],"split_type":[0,0,0,0,0,0,0,0,0,0,0,0,0,0,0,0,0,0,0,0,0,0,0,0,0,0,0,0,0,0,0],"sum_hessian":[3.19E2,2.3E2,8.9E1,1.14E2,1.16E2,2.9E1,6E1,5.7E1,5.7E1,3.6E1,8E1,9E0,2E1,2.9E1,3.1E1,1.3E1,4.4E1,2E1,3.7E1,1.2E1,2.4E1,4.1E1,3.9E1,2.1E1,2.3E1,2.1E1,1.6E1,1.5E1,2.6E1,2.5E1,1.4E1],"tree_param":{"num_deleted":"0","num_feature":"4","num_nodes":"31","size_leaf_vector":"0"}},{"base_weights":[4.381247E-2,3.2295298E-2,7.28864E-2,1.7428929E-2,4.663151E-2,5.152257E-2,8.2198344E-2,1.1545658E-2,2.3011701E-2,2.1753673E-2,5.7419766E-2,6.947327E-2,9.155941E-2,4.830701E-3,1.3378186E-2,1.0579427E-2,2.9276596E-2,1.610976E-2,2.3818359E-2,4.6064105E-2,6.790771E-2,1.0383173E-2,1.556619E-2,2.341357E-2,3.514189E-2,3.470421E-2,5.1089816E-2,5.1527757E-2,9.177246E-2],"categories":[],"categories_nodes":[],"categories_segments":[],"categories_sizes":[],"default_left":[1,1,1,1,1,0,1,1,1,1,1,0,0,0,1,0,1,0,0,1,1,0,0,0,0,0,0,0,0],"id":23,"left_children":[1,3,5,7,9,-1,11,13,15,17,19,-1,-1,-1,21,-1,23,-1,-1,25,27,-1,-1,-1,-1,-1,-1,-1,-1],"loss_changes":[1.0479796E-1,4.84197E-2,1.3669401E-2,3.5114847E-3,3.015235E-2,0E0,9.0542436E-4,6.490848E-4,4.20771E-3,4.7449023E-5,6.518781E-3,0E0,0E0,0E0,1.3326295E-4,0E0,4.839599E-4,0E0,0E0,6.2481314E-4,1.0907337E-2,0E0,0E0,0E0,0E0,0E0,0E0,0E0,0E0],"parents":[2147483647,0,0,1,1,2,2,3,3,4,4,6,6,7,7,8,8,9,9,10,10,14,14,16,16,19,19,20,20],"right_children":[2,4,6,8,10,-1,12,14,16,18,20,-1,-1,-1,22,-1,24,-1,-1,26,28,-1,-1,-1,-1,-1,-1,-1,-1],"split_conditions":[3.5E0,2.5E0,2.5E0,1.5E0,1.5E0,1.5456772E-2,3.5E0,1.5E0,1.5E0,3.5E0,3.5E0,2.084198E-2,2.7467825E-2,1.4492103E-3,2.5E0,3.1738281E-3,2.5E0,4.8329285E-3,7.1455077E-3,2.5E0,2.5E0,3.114952E-3,4.669857E-3,7.0240716E-3,1.0542567E-2,1.04112625E-2,1.5326945E-2,1.5458328E-2,2.753174E-2],"split_indices":[3,2,2,2,3,0,2,3,3,2,2,0,0,0,3,0,3,0,0,3,3,0,0,0,0,0,0,0,0],"split_type":[0,0,0,0,0,0,0,0,0,0,0,0,0,0,0,0,0,0,0,0,0,0,0,0,0,0,0,0,0],"sum_hessian":[3.19E2,2.3E2,8.9E1,1.14E2,1.16E2,2.9E1,6E1,5.7E1,5.7E1,3.6E1,8E1,2.9E1,3.1E1,1.3E1,4.4E1,2E1,3.7E1,1.2E1,2.4E1,4.1E1,3.9E1,2.1E1,2.3E1,2.1E1,1.6E1,1.5E1,2.6E1,2.5E1,1.4E1],"tree_param":{"num_deleted":"0","num_feature":"4","num_nodes":"29","size_leaf_vector":"0"}},{"base_weights":[3.1214748E-2,1.7538643E-2,4.3330446E-2,9.712056E-3,2.5035808E-2,3.4299787E-2,6.673199E-2,6.0516084E-3,1.2531189E-2,1.5551593E-2,3.2984104E-2,1.5118224E-2,4.080731E-2,3.4846577E-3,7.4100494E-3,7.5567337E-3,1.6709935E-2,1.1648325E-2,1.6959228E-2,2.4940968E-2,3.6665108E-2,1.109155E-2,2.3270417E-2,3.2786526E-2,4.6889037E-2,2.5218291E-2,3.6337394E-2],"categories":[],"categories_nodes":[],"categories_segments":[],"categories_sizes":[],"default_left":[1,1,1,1,1,1,0,1,1,1,1,1,1,0,0,0,0,0,0,0,0,0,0,1,0,0,0],"id":24,"left_children":[1,3,5,7,9,11,-1,13,15,17,19,21,23,-1,-1,-1,-1,-1,-1,-1,-1,-1,-1,25,-1,-1,-1],"loss_changes":[5.2262634E-2,8.675788E-3,3.3426106E-2,7.0843287E-4,5.2915663E-3,1.4861301E-2,0E0,9.6225296E-5,7.467801E-4,5.745329E-6,2.9941648E-4,8.251602E-4,2.9504448E-3,0E0,0E0,0E0,0E0,0E0,0E0,0E0,0E0,0E0,0E0,2.3920462E-4,0E0,0E0,0E0],"parents":[2147483647,0,0,1,1,2,2,3,3,4,4,5,5,7,7,8,8,9,9,10,10,11,11,12,12,23,23],"right_children":[2,4,6,8,10,12,-1,14,16,18,20,22,24,-1,-1,-1,-1,-1,-1,-1,-1,-1,-1,26,-1,-1,-1],"split_conditions":[2.5E0,2.5E0,3.5E0,1.5E0,1.5E0,1.5E0,2.0019598E-2,1.5E0,1.5E0,3.5E0,3.5E0,3.5E0,3.5E0,1.0453974E-3,2.2230148E-3,2.2670203E-3,5.0129807E-3,3.4944976E-3,5.0877687E-3,7.4822907E-3,1.0999532E-2,3.3274652E-3,6.9811256E-3,2.5E0,1.4066712E-2,7.5654876E-3,1.0901218E-2],"split_indices":[3,2,2,2,3,2,0,3,3,2,2,3,3,0,0,0,0,0,0,0,0,0,0,2,0,0,0],"split_type":[0,0,0,0,0,0,0,0,0,0,0,0,0,0,0,0,0,0,0,0,0,0,0,0,0,0,0],"sum_hessian":[3.19E2,1.51E2,1.68E2,7.5E1,7.6E1,1.23E2,4.5E1,3.4E1,4.1E1,3.6E1,4E1,3.2E1,9.1E1,1.3E1,2.1E1,2E1,2.1E1,1.2E1,2.4E1,1.5E1,2.5E1,2.3E1,9E0,4.2E1,4.9E1,1.6E1,2.6E1],"tree_param":{"num_deleted":"0","num_feature":"4","num_nodes":"27","size_leaf_vector":"0"}},{"base_weights":[2.216408E-2,1.2523645E-2,3.0703617E-2,6.936914E-3,1.7875176E-2,1.812357E-2,3.899391E-2,4.329E-3,8.945011E-3,1.1117471E-2,2.3537613E-2,1.0895931E-2,2.408002E-2,3.159986E-2,4.714767E-2,2.51409E-3,5.2871704E-3,5.3968886E-3,1.1925264E-2,1.7924309E-2,2.608666E-2,7.903735E-3,1.698761E-2,1.8095128E-2,2.7778262E-2,2.5846127E-2,3.5724893E-2],"categories":[],"categories_nodes":[],"categories_segments":[],"categories_sizes":[],"default_left":[1,1,1,1,1,1,1,1,1,0,1,1,1,1,0,0,0,0,0,0,0,0,0,0,0,0,0],"id":25,"left_children":[1,3,5,7,9,11,13,15,17,-1,19,21,23,25,-1,-1,-1,-1,-1,-1,-1,-1,-1,-1,-1,-1,-1],"loss_changes":[2.5959432E-2,4.4204313E-3,1.6918689E-2,3.592847E-4,2.684731E-3,2.70815E-3,4.5993626E-3,4.7572365E-5,3.7976122E-4,0E0,1.19065866E-4,4.672422E-4,3.1629018E-4,4.0577352E-4,0E0,0E0,0E0,0E0,0E0,0E0,0E0,0E0,0E0,0E0,0E0,0E0,0E0],"parents":[2147483647,0,0,1,1,2,2,3,3,4,4,5,5,6,6,7,7,8,8,10,10,11,11,12,12,13,13],"right_children":[2,4,6,8,10,12,14,16,18,-1,20,22,24,26,-1,-1,-1,-1,-1,-1,-1,-1,-1,-1,-1,-1,-1],"split_conditions":[2.5E0,2.5E0,2.5E0,1.5E0,1.5E0,1.5E0,3.5E0,1.5E0,1.5E0,3.3352415E-3,3.5E0,3.5E0,3.5E0,3.5E0,1.4144301E-2,7.54227E-4,1.5861512E-3,1.6190667E-3,3.5775795E-3,5.3772926E-3,7.825999E-3,2.3711207E-3,5.0962833E-3,5.4285387E-3,8.333479E-3,7.7538383E-3,1.0717468E-2],"split_indices":[3,2,2,2,3,2,2,3,3,0,2,3,3,3,0,0,0,0,0,0,0,0,0,0,0,0,0],"split_type":[0,0,0,0,0,0,0,0,0,0,0,0,0,0,0,0,0,0,0,0,0,0,0,0,0,0,0],"sum_hessian":[3.19E2,1.51E2,1.68E2,7.5E1,7.6E1,6.8E1,1E2,3.4E1,4.1E1,3.6E1,4E1,3.2E1,3.6E1,5.5E1,4.5E1,1.3E1,2.1E1,2E1,2.1E1,1.5E1,2.5E1,2.3E1,9E0,1.6E1,2E1,2.6E1,2.9E1],"tree_param":{"num_deleted":"0","num_feature":"4","num_nodes":"27","size_leaf_vector":"0"}},{"base_weights":[1.5758645E-2,8.92456E-3,2.1812033E-2,4.954539E-3,1.2727118E-2,1.2993412E-2,2.7620675E-2,3.0966622E-3,6.384804E-3,7.873535E-3,1.6796764E-2,7.852266E-3,1.7227584E-2,2.2453854E-2,3.3310268E-2,1.813616E-3,3.772389E-3,3.8546608E-3,8.509723E-3,5.345271E-3,8.873291E-3,1.2881756E-2,1.855997E-2,5.6298575E-3,1.2400818E-2,1.2982537E-2,1.9843692E-2,1.8381754E-2,2.537028E-2],"categories":[],"categories_nodes":[],"categories_segments":[],"categories_sizes":[],"default_left":[1,1,1,1,1,1,1,1,1,1,1,1,1,1,0,0,0,0,0,0,0,0,0,0,0,0,0,0,0],"id":26,"left_children":[1,3,5,7,9,11,13,15,17,19,21,23,25,27,-1,-1,-1,-1,-1,-1,-1,-1,-1,-1,-1,-1,-1,-1,-1],"loss_changes":[1.3043538E-2,2.231571E-3,8.298002E-3,1.8217997E-4,1.388682E-3,1.3667513E-3,2.221167E-3,2.3502915E-5,1.930045E-4,4.6092784E-5,4.3936074E-5,2.637736E-4,1.5328173E-4,1.9870512E-4,0E0,0E0,0E0,0E0,0E0,0E0,0E0,0E0,0E0,0E0,0E0,0E0,0E0,0E0,0E0],"parents":[2147483647,0,0,1,1,2,2,3,3,4,4,5,5,6,6,7,7,8,8,9,9,10,10,11,11,12,12,13,13],"right_children":[2,4,6,8,10,12,14,16,18,20,22,24,26,28,-1,-1,-1,-1,-1,-1,-1,-1,-1,-1,-1,-1,-1,-1,-1],"split_conditions":[2.5E0,2.5E0,2.5E0,1.5E0,1.5E0,1.5E0,3.5E0,1.5E0,1.5E0,3.5E0,3.5E0,3.5E0,3.5E0,3.5E0,9.993081E-3,5.440848E-4,1.1317168E-3,1.1563983E-3,2.5529168E-3,1.6035814E-3,2.6619874E-3,3.864527E-3,5.567991E-3,1.6889573E-3,3.7202456E-3,3.8947612E-3,5.953108E-3,5.5145263E-3,7.6110843E-3],"split_indices":[3,2,2,2,3,2,2,3,3,2,2,3,3,3,0,0,0,0,0,0,0,0,0,0,0,0,0,0,0],"split_type":[0,0,0,0,0,0,0,0,0,0,0,0,0,0,0,0,0,0,0,0,0,0,0,0,0,0,0,0,0],"sum_hessian":[3.19E2,1.51E2,1.68E2,7.5E1,7.6E1,6.8E1,1E2,3.4E1,4.1E1,3.6E1,4E1,3.2E1,3.6E1,5.5E1,4.5E1,1.3E1,2.1E1,2E1,2.1E1,1.2E1,2.4E1,1.5E1,2.5E1,2.3E1,9E0,1.6E1,2E1,2.6E1,2.9E1],"tree_param":{"num_deleted":"0","num_feature":"4","num_nodes":"29","size_leaf_vector":"0"}},{"base_weights":[1.1210749E-2,6.3723954E-3,1.5496068E-2,3.5395245E-3,9.085717E-3,9.3178125E-3,1.9563429E-2,2.2157668E-3,4.5583816E-3,5.6267814E-3,1.1985593E-2,5.660086E-3,1.2328276E-2,1.5953336E-2,2.3533033E-2,1.3079643E-3,2.6927427E-3,2.7538482E-3,6.0736914E-3,3.8663424E-3,6.3171387E-3,9.255409E-3,1.3204722E-2,4.0103593E-3,9.053421E-3,9.320428E-3,1.41761415E-2,1.3077348E-2,1.800995E-2],"categories":[],"categories_nodes":[],"categories_segments":[],"categories_sizes":[],"default_left":[1,1,1,1,1,1,1,1,1,1,1,1,1,1,0,0,0,0,0,0,0,0,0,0,0,0,0,0,0],"id":27,"left_children":[1,3,5,7,9,11,13,15,17,19,21,23,25,27,-1,-1,-1,-1,-1,-1,-1,-1,-1,-1,-1,-1,-1,-1,-1],"loss_changes":[6.5360963E-3,1.1361879E-3,4.064545E-3,9.240245E-5,7.049069E-4,6.9001084E-4,1.0719635E-3,1.1633005E-5,9.81199E-5,2.0543113E-5,1.4251098E-5,1.4842907E-4,7.3521864E-5,9.57055E-5,0E0,0E0,0E0,0E0,0E0,0E0,0E0,0E0,0E0,0E0,0E0,0E0,0E0,0E0,0E0],"parents":[2147483647,0,0,1,1,2,2,3,3,4,4,5,5,6,6,7,7,8,8,9,9,10,10,11,11,12,12,13,13],"right_children":[2,4,6,8,10,12,14,16,18,20,22,24,26,28,-1,-1,-1,-1,-1,-1,-1,-1,-1,-1,-1,-1,-1,-1,-1],"split_conditions":[2.5E0,2.5E0,2.5E0,1.5E0,1.5E0,1.5E0,3.5E0,1.5E0,1.5E0,3.5E0,3.5E0,3.5E0,3.5E0,3.5E0,7.0599103E-3,3.923893E-4,8.0782286E-4,8.261545E-4,1.8221075E-3,1.1599028E-3,1.8951417E-3,2.7766228E-3,3.961417E-3,1.2031079E-3,2.7160265E-3,2.7961284E-3,4.2528426E-3,3.9232043E-3,5.402985E-3],"split_indices":[3,2,2,2,3,2,2,3,3,2,2,3,3,3,0,0,0,0,0,0,0,0,0,0,0,0,0,0,0],"split_type":[0,0,0,0,0,0,0,0,0,0,0,0,0,0,0,0,0,0,0,0,0,0,0,0,0,0,0,0,0],"sum_hessian":[3.19E2,1.51E2,1.68E2,7.5E1,7.6E1,6.8E1,1E2,3.4E1,4.1E1,3.6E1,4E1,3.2E1,3.6E1,5.5E1,4.5E1,1.3E1,2.1E1,2E1,2.1E1,1.2E1,2.4E1,1.5E1,2.5E1,2.3E1,9E0,1.6E1,2E1,2.6E1,2.9E1],"tree_param":{"num_deleted":"0","num_feature":"4","num_nodes":"29","size_leaf_vector":"0"}},{"base_weights":[7.975662E-3,4.5503317E-3,1.1009239E-2,2.5278393E-3,6.487462E-3,6.6837366E-3,1.3855282E-2,1.5849522E-3,3.2533917E-3,4.020897E-3,8.555156E-3,4.0818416E-3,8.823704E-3,1.1335373E-2,1.6621796E-2,9.440013E-4,1.9207868E-3,1.967294E-3,4.333149E-3,2.7958797E-3,4.4970703E-3,6.6518784E-3,9.39736E-3,2.8587978E-3,6.608963E-3,6.692325E-3,1.0128929E-2,9.301079E-3,1.2788391E-2],"categories":[],"categories_nodes":[],"categories_segments":[],"categories_sizes":[],"default_left":[1,1,1,1,1,1,1,1,1,1,1,1,1,1,0,0,0,0,0,0,0,0,0,0,0,0,0,0,0],"id":28,"left_children":[1,3,5,7,9,11,13,15,17,19,21,23,25,27,-1,-1,-1,-1,-1,-1,-1,-1,-1,-1,-1,-1,-1,-1,-1],"loss_changes":[3.2750238E-3,5.7911105E-4,1.987882E-3,4.6836212E-5,3.5830843E-4,3.4817285E-4,5.156938E-4,5.720649E-6,4.979971E-5,9.009615E-6,3.2109674E-6,8.310203E-5,3.5145553E-5,4.6582427E-5,0E0,0E0,0E0,0E0,0E0,0E0,0E0,0E0,0E0,0E0,0E0,0E0,0E0,0E0,0E0],"parents":[2147483647,0,0,1,1,2,2,3,3,4,4,5,5,6,6,7,7,8,8,9,9,10,10,11,11,12,12,13,13],"right_children":[2,4,6,8,10,12,14,16,18,20,22,24,26,28,-1,-1,-1,-1,-1,-1,-1,-1,-1,-1,-1,-1,-1,-1,-1],"split_conditions":[2.5E0,2.5E0,2.5E0,1.5E0,1.5E0,1.5E0,3.5E0,1.5E0,1.5E0,3.5E0,3.5E0,3.5E0,3.5E0,3.5E0,4.986539E-3,2.832004E-4,5.7623605E-4,5.901882E-4,1.2999448E-3,8.3876395E-4,1.3491211E-3,1.9955635E-3,2.819208E-3,8.5763936E-4,1.982689E-3,2.0076977E-3,3.038679E-3,2.790324E-3,3.8365175E-3],"split_indices":[3,2,2,2,3,2,2,3,3,2,2,3,3,3,0,0,0,0,0,0,0,0,0,0,0,0,0,0,0],"split_type":[0,0,0,0,0,0,0,0,0,0,0,0,0,0,0,0,0,0,0,0,0,0,0,0,0,0,0,0,0],"sum_hessian":[3.19E2,1.51E2,1.68E2,7.5E1,7.6E1,6.8E1,1E2,3.4E1,4.1E1,3.6E1,4E1,3.2E1,3.6E1,5.5E1,4.5E1,1.3E1,2.1E1,2E1,2.1E1,1.2E1,2.4E1,1.5E1,2.5E1,2.3E1,9E0,1.6E1,2E1,2.6E1,2.9E1],"tree_param":{"num_deleted":"0","num_feature":"4","num_nodes":"29","size_leaf_vector":"0"}},{"base_weights":[5.673942E-3,3.2482336E-3,7.82207E-3,1.8056944E-3,4.6298536E-3,4.793471E-3,9.813667E-3,1.1341367E-3,2.3223332E-3,2.8727762E-3,6.1025852E-3,3.263378E-3,6.673813E-3,8.055551E-3,1.1740643E-2,6.8099156E-4,1.3709501E-3,1.4059885E-3,3.0914654E-3,2.0212026E-3,3.2006835E-3,2.0362537E-3,4.8038256E-3,6.612142E-3,9.0861E-3],"categories":[],"categories_nodes":[],"categories_segments":[],"categories_sizes":[],"default_left":[1,1,1,1,1,1,1,1,1,1,0,1,0,1,0,0,0,0,0,0,0,0,0,0,0],"id":29,"left_children":[1,3,5,7,9,11,13,15,17,19,-1,21,-1,23,-1,-1,-1,-1,-1,-1,-1,-1,-1,-1,-1],"loss_changes":[1.6420279E-3,2.945821E-4,9.723231E-4,2.3734552E-5,1.8172187E-4,1.7674058E-4,2.4759583E-4,2.8222748E-6,2.5254616E-5,3.862544E-6,0E0,6.583103E-5,0E0,2.322183E-5,0E0,0E0,0E0,0E0,0E0,0E0,0E0,0E0,0E0,0E0,0E0],"parents":[2147483647,0,0,1,1,2,2,3,3,4,4,5,5,6,6,7,7,8,8,9,9,11,11,13,13],"right_children":[2,4,6,8,10,12,14,16,18,20,-1,22,-1,24,-1,-1,-1,-1,-1,-1,-1,-1,-1,-1,-1],"split_conditions":[2.5E0,2.5E0,2.5E0,1.5E0,1.5E0,3.5E0,3.5E0,1.5E0,1.5E0,3.5E0,1.8307756E-3,1.5E0,2.002144E-3,3.5E0,3.5221928E-3,2.0429748E-4,4.1128506E-4,4.2179655E-4,9.2743966E-4,6.063608E-4,9.602051E-4,6.1087613E-4,1.4411478E-3,1.9836428E-3,2.7258303E-3],"split_indices":[3,2,2,2,3,3,2,3,3,2,0,2,0,3,0,0,0,0,0,0,0,0,0,0,0],"split_type":[0,0,0,0,0,0,0,0,0,0,0,0,0,0,0,0,0,0,0,0,0,0,0,0,0],"sum_hessian":[3.19E2,1.51E2,1.68E2,7.5E1,7.6E1,6.8E1,1E2,3.4E1,4.1E1,3.6E1,4E1,3.9E1,2.9E1,5.5E1,4.5E1,1.3E1,2.1E1,2E1,2.1E1,1.2E1,2.4E1,2.3E1,1.6E1,2.6E1,2.9E1],"tree_param":{"num_deleted":"0","num_feature":"4","num_nodes":"25","size_leaf_vector":"0"}},{"base_weights":[4.0261177E-3,2.3088015E-3,5.546863E-3,1.2898821E-3,3.284504E-3,1.9710425E-3,6.3677044E-3,8.1114087E-4,1.6581217E-3,2.0525134E-3,4.3161903E-3,1.4513334E-3,3.0212402E-3,5.336098E-3,8.292489E-3,4.9148285E-4,9.776895E-4,1.004537E-3,2.206629E-3,1.4613225E-3,2.277832E-3,3.0612946E-3,4.922427E-3,4.315044E-3,6.107483E-3,1.0325114E-2,7.080555E-3],"categories":[],"categories_nodes":[],"categories_segments":[],"categories_sizes":[],"default_left":[1,1,1,1,1,1,1,1,1,1,1,0,0,1,1,0,0,0,0,0,0,0,0,0,0,0,0],"id":30,"left_children":[1,3,5,7,9,11,13,15,17,19,21,-1,-1,23,25,-1,-1,-1,-1,-1,-1,-1,-1,-1,-1,-1,-1],"loss_changes":[8.2290545E-4,1.4687609E-4,4.8349518E-4,1.2053177E-5,8.901005E-5,1.3626486E-5,2.2778008E-4,1.382834E-6,1.2840195E-5,1.5999831E-6,1.6122416E-5,0E0,0E0,4.6107452E-5,4.020892E-5,0E0,0E0,0E0,0E0,0E0,0E0,0E0,0E0,0E0,0E0,0E0,0E0],"parents":[2147483647,0,0,1,1,2,2,3,3,4,4,5,5,6,6,7,7,8,8,9,9,10,10,13,13,14,14],"right_children":[2,4,6,8,10,12,14,16,18,20,22,-1,-1,24,26,-1,-1,-1,-1,-1,-1,-1,-1,-1,-1,-1,-1],"split_conditions":[2.5E0,2.5E0,1.5E0,1.5E0,1.5E0,3.5E0,3.5E0,1.5E0,1.5E0,3.5E0,3.5E0,4.3540003E-4,9.063721E-4,3.5E0,3.5E0,1.4744487E-4,2.9330686E-4,3.013611E-4,6.619887E-4,4.383968E-4,6.833496E-4,9.183884E-4,1.4767281E-3,1.2945132E-3,1.832245E-3,3.0975344E-3,2.1241666E-3],"split_indices":[3,2,2,2,3,3,2,3,3,2,2,0,0,3,3,0,0,0,0,0,0,0,0,0,0,0,0],"split_type":[0,0,0,0,0,0,0,0,0,0,0,0,0,0,0,0,0,0,0,0,0,0,0,0,0,0,0],"sum_hessian":[3.19E2,1.51E2,1.68E2,7.5E1,7.6E1,3.2E1,1.36E2,3.4E1,4.1E1,3.6E1,4E1,2.3E1,9E0,9.1E1,4.5E1,1.3E1,2.1E1,2E1,2.1E1,1.2E1,2.4E1,1.5E1,2.5E1,4.2E1,4.9E1,1.4E1,3.1E1],"tree_param":{"num_deleted":"0","num_feature":"4","num_nodes":"27","size_leaf_vector":"0"}},{"base_weights":[2.8638423E-3,1.6479868E-3,3.940447E-3,9.207224E-4,2.3444039E-3,2.3201653E-3,5.0083576E-3,5.799975E-4,1.1827378E-3,1.4673182E-3,3.0787399E-3,1.5667916E-3,3.2473246E-3,4.1697365E-3,5.92041E-3,7.175264E-4,1.5730425E-3,2.2029877E-3,3.499251E-3,1.0345777E-3,2.225988E-3,2.204132E-3,3.5894485E-3,3.4530074E-3,4.6758014E-3,7.434082E-3,5.0258636E-3],"categories":[],"categories_nodes":[],"categories_segments":[],"categories_sizes":[],"default_left":[1,1,1,1,1,1,1,0,1,0,1,1,1,1,1,0,0,0,0,0,0,0,0,0,0,0,0],"id":31,"left_children":[1,3,5,7,9,11,13,-1,15,-1,17,19,21,23,25,-1,-1,-1,-1,-1,-1,-1,-1,-1,-1,-1,-1],"loss_changes":[4.1238498E-4,7.4826356E-5,2.8080307E-4,6.098926E-6,4.5076333E-5,4.3108448E-5,5.256501E-5,6.800137E-7,6.4974156E-6,6.429109E-7,7.3900155E-6,1.1730386E-5,2.795423E-6,4.1662715E-6,2.4923589E-5,0E0,0E0,0E0,0E0,0E0,0E0,0E0,0E0,0E0,0E0,0E0,0E0],"parents":[2147483647,0,0,1,1,2,2,3,3,4,4,5,5,6,6,8,8,10,10,11,11,12,12,13,13,14,14],"right_children":[2,4,6,8,10,12,14,-1,16,-1,18,20,22,24,26,-1,-1,-1,-1,-1,-1,-1,-1,-1,-1,-1,-1],"split_conditions":[2.5E0,2.5E0,2.5E0,1.5E0,1.5E0,3.5E0,3.5E0,1.7399926E-4,1.5E0,4.4019546E-4,3.5E0,1.5E0,1.5E0,3.5E0,3.5E0,2.1525794E-4,4.7191276E-4,6.608963E-4,1.0497754E-3,3.1037332E-4,6.6779647E-4,6.612396E-4,1.0768346E-3,1.0359023E-3,1.4027405E-3,2.2302247E-3,1.5077592E-3],"split_indices":[3,2,2,2,3,3,2,0,3,0,2,2,2,3,3,0,0,0,0,0,0,0,0,0,0,0,0],"split_type":[0,0,0,0,0,0,0,0,0,0,0,0,0,0,0,0,0,0,0,0,0,0,0,0,0,0,0],"sum_hessian":[3.19E2,1.51E2,1.68E2,7.5E1,7.6E1,6.8E1,1E2,3.4E1,4.1E1,3.6E1,4E1,3.9E1,2.9E1,5.5E1,4.5E1,2E1,2.1E1,1.5E1,2.5E1,2.3E1,1.6E1,9E0,2E1,2.6E1,2.9E1,1.4E1,3.1E1],"tree_param":{"num_deleted":"0","num_feature":"4","num_nodes":"27","size_leaf_vector":"0"}},{"base_weights":[2.0412623E-3,1.1728813E-3,2.810213E-3,8.115491E-4,1.8937683E-3,1.663595E-3,3.5657221E-3,4.7671277E-4,1.0631167E-3,1.2011719E-3,2.4868893E-3,1.1205673E-3,2.3321786E-3,2.9610225E-3,4.224363E-3,1.9305093E-4,5.8260834E-4,5.3163007E-4,1.3504028E-3,7.384618E-4,1.5940947E-3,2.4538394E-3,3.3187866E-3,5.3548175E-3,3.5624504E-3],"categories":[],"categories_nodes":[],"categories_segments":[],"categories_sizes":[],"default_left":[1,1,1,1,1,1,1,1,1,0,0,1,0,1,1,0,0,0,0,0,0,0,0,0,0],"id":32,"left_children":[1,3,5,7,9,11,13,15,17,-1,-1,19,-1,21,23,-1,-1,-1,-1,-1,-1,-1,-1,-1,-1],"loss_changes":[2.1038146E-4,3.8056067E-5,1.404694E-4,8.169292E-6,1.7552476E-5,2.2437729E-5,2.771779E-5,1.269299E-6,8.138035E-6,0E0,0E0,6.0603197E-6,9.113428E-7,2.0175357E-6,1.5343772E-5,0E0,0E0,0E0,1.7762068E-7,0E0,0E0,0E0,0E0,0E0,0E0],"parents":[2147483647,0,0,1,1,2,2,3,3,4,4,5,5,6,6,7,7,8,8,11,11,13,13,14,14],"right_children":[2,4,6,8,10,12,14,16,18,-1,-1,20,-1,22,24,-1,-1,-1,-1,-1,-1,-1,-1,-1,-1],"split_conditions":[2.5E0,3.5E0,2.5E0,1.5E0,1.5E0,3.5E0,3.5E0,1.5E0,1.5E0,3.6035158E-4,7.460668E-4,1.5E0,6.9965364E-4,3.5E0,3.5E0,5.791528E-5,1.747825E-4,1.5948902E-4,4.0512087E-4,2.2153855E-4,4.782284E-4,7.361519E-4,9.95636E-4,1.6064453E-3,1.0687351E-3],"split_indices":[3,2,2,3,3,3,2,2,2,0,0,2,0,3,3,0,0,0,0,0,0,0,0,0,0],"split_type":[0,0,0,0,0,0,0,0,0,0,0,0,0,0,0,0,0,0,0,0,0,0,0,0,0],"sum_hessian":[3.19E2,1.51E2,1.68E2,1.02E2,4.9E1,6.8E1,1E2,4.5E1,5.7E1,2.4E1,2.5E1,3.9E1,2.9E1,5.5E1,4.5E1,1.3E1,3.2E1,2.1E1,3.6E1,2.3E1,1.6E1,2.6E1,2.9E1,1.4E1,3.1E1],"tree_param":{"num_deleted":"0","num_feature":"4","num_nodes":"25","size_leaf_vector":"0"}},{"base_weights":[1.4536411E-3,8.0135796E-4,1.9760993E-3,5.717485E-4,1.6548156E-3,1.207525E-3,2.5424769E-3,2.7042278E-4,6.8971585E-4,9.81903E-4,1.8964495E-3,7.509799E-4,1.5900774E-3,2.1073478E-3,3.016928E-3,4.6590168E-4,9.366086E-4,3.8594564E-3,2.5277138E-3],"categories":[],"categories_nodes":[],"categories_segments":[],"categories_sizes":[],"default_left":[1,1,1,1,1,1,1,0,1,0,0,0,0,0,1,0,0,0,0],"id":33,"left_children":[1,3,5,7,9,11,13,-1,15,-1,-1,-1,-1,-1,17,-1,-1,-1,-1],"loss_changes":[1.074695E-4,2.7272385E-5,7.397856E-5,3.901343E-6,3.0158262E-6,1.2254117E-5,1.4493475E-5,2.857946E-7,4.094796E-6,0E0,0E0,6.058235E-7,7.08671E-7,9.504438E-7,9.204523E-6,3.8166945E-8,7.2734474E-7,0E0,0E0],"parents":[2147483647,0,0,1,1,2,2,3,3,4,4,5,5,6,6,8,8,14,14],"right_children":[2,4,6,8,10,12,14,-1,16,-1,-1,-1,-1,-1,18,-1,-1,-1,-1],"split_conditions":[2.5E0,3.5E0,2.5E0,1.5E0,1.5E0,1.5E0,3.5E0,8.112684E-5,1.5E0,2.9457093E-4,5.689349E-4,2.2529397E-4,4.7702325E-4,6.3220435E-4,3.5E0,1.397705E-4,2.8098258E-4,1.157837E-3,7.5831416E-4],"split_indices":[2,3,3,3,2,3,2,0,2,0,0,0,0,0,3,0,0,0,0],"split_type":[0,0,0,0,0,0,0,0,0,0,0,0,0,0,0,0,0,0,0],"sum_hessian":[3.19E2,1.43E2,1.76E2,1.14E2,2.9E1,7.6E1,1E2,3.3E1,8.1E1,9E0,2E1,3.6E1,4E1,5.5E1,4.5E1,4.4E1,3.7E1,1.4E1,3.1E1],"tree_param":{"num_deleted":"0","num_feature":"4","num_nodes":"19","size_leaf_vector":"0"}},{"base_weights":[1.0317027E-3,5.777133E-4,1.4339199E-3,3.6737756E-4,9.994507E-4,8.672078E-4,1.8068823E-3,1.7999922E-4,4.5710025E-4,6.4086914E-4,1.3058002E-3,5.019217E-4,1.1695656E-3,1.492909E-3,2.1498308E-3,2.8090042E-4,6.0189737E-4,1.1461047E-3,1.7552694E-3,2.7770996E-3,1.7886162E-3],"categories":[],"categories_nodes":[],"categories_segments":[],"categories_sizes":[],"default_left":[1,1,1,1,1,1,1,0,1,0,0,0,0,1,1,0,0,0,0,0,0],"id":34,"left_children":[1,3,5,7,9,11,13,-1,15,-1,-1,-1,-1,17,19,-1,-1,-1,-1,-1,-1],"loss_changes":[5.760434E-5,1.3116201E-5,3.4153287E-5,1.6493668E-6,4.655718E-6,7.033821E-6,7.6658325E-6,2.5198142E-7,1.5913402E-6,0E0,0E0,5.0741346E-7,7.919007E-7,3.0835945E-6,5.455455E-6,0E0,3.9929364E-7,0E0,0E0,0E0,0E0],"parents":[2147483647,0,0,1,1,2,2,3,3,4,4,5,5,6,6,8,8,13,13,14,14],"right_children":[2,4,6,8,10,12,14,-1,16,-1,-1,-1,-1,18,20,-1,-1,-1,-1,-1,-1],"split_conditions":[2.5E0,3.5E0,2.5E0,1.5E0,1.5E0,1.5E0,3.5E0,5.3999767E-5,1.5E0,1.9226075E-4,3.9174006E-4,1.5057651E-4,3.508697E-4,3.5E0,3.5E0,8.427013E-5,1.8056922E-4,3.438314E-4,5.2658084E-4,8.331299E-4,5.365849E-4],"split_indices":[3,2,2,2,3,2,2,0,3,0,0,0,0,3,3,0,0,0,0,0,0],"split_type":[0,0,0,0,0,0,0,0,0,0,0,0,0,0,0,0,0,0,0,0,0],"sum_hessian":[3.19E2,1.51E2,1.68E2,1.02E2,4.9E1,6.8E1,1E2,3.4E1,6.8E1,2.4E1,2.5E1,3.2E1,3.6E1,5.5E1,4.5E1,3.2E1,3.6E1,2.6E1,2.9E1,1.4E1,3.1E1],"tree_param":{"num_deleted":"0","num_feature":"4","num_nodes":"21","size_leaf_vector":"0"}},{"base_weights":[7.3281827E-4,4.11065E-4,1.0178696E-3,2.6033458E-4,7.133484E-4,6.1510614E-4,1.2829469E-3,1.9591732E-4,4.258837E-4,4.5776367E-4,9.3166647E-4,3.8108826E-4,9.066264E-4,1.0534014E-3,1.5345034E-3,8.081507E-4,1.2390136E-3,1.9938152E-3,1.2712479E-3],"categories":[],"categories_nodes":[],"categories_segments":[],"categories_sizes":[],"default_left":[1,1,1,1,1,1,1,0,0,0,0,0,0,1,1,0,0,0,0],"id":35,"left_children":[1,3,5,7,9,11,13,-1,-1,-1,-1,-1,-1,15,17,-1,-1,-1,-1],"loss_changes":[2.8930779E-5,6.7399105E-6,1.7253871E-5,1.014977E-6,2.3634566E-6,4.361742E-6,4.2156607E-6,2.8072782E-7,8.3416626E-7,0E0,0E0,7.36899E-7,4.7817593E-7,1.5479018E-6,3.027526E-6,0E0,0E0,0E0,0E0],"parents":[2147483647,0,0,1,1,2,2,3,3,4,4,5,5,6,6,13,13,14,14],"right_children":[2,4,6,8,10,12,14,-1,-1,-1,-1,-1,-1,16,18,-1,-1,-1,-1],"split_conditions":[2.5E0,3.5E0,2.5E0,2.5E0,1.5E0,3.5E0,3.5E0,5.87752E-5,1.2776512E-4,1.373291E-4,2.7949995E-4,1.1432648E-4,2.7198793E-4,3.5E0,3.5E0,2.4244521E-4,3.717041E-4,5.981446E-4,3.8137438E-4],"split_indices":[3,2,2,2,3,3,2,0,0,0,0,0,0,3,3,0,0,0,0],"split_type":[0,0,0,0,0,0,0,0,0,0,0,0,0,0,0,0,0,0,0],"sum_hessian":[3.19E2,1.51E2,1.68E2,1.02E2,4.9E1,6.8E1,1E2,7.5E1,2.7E1,2.4E1,2.5E1,3.9E1,2.9E1,5.5E1,4.5E1,2.6E1,2.9E1,1.4E1,3.1E1],"tree_param":{"num_deleted":"0","num_feature":"4","num_nodes":"19","size_leaf_vector":"0"}},{"base_weights":[5.21186E-4,2.913036E-4,7.248602E-4,1.841147E-4,5.062866E-4,2.040285E-4,8.4502506E-4,3.2592774E-4,6.6023605E-4,7.1019714E-4,1.0963108E-3,5.3299306E-4,8.4838865E-4,1.4383952E-3,9.0169907E-4],"categories":[],"categories_nodes":[],"categories_segments":[],"categories_sizes":[],"default_left":[1,1,1,0,1,0,1,0,0,1,1,0,0,0,0],"id":36,"left_children":[1,3,5,-1,7,-1,9,-1,-1,11,13,-1,-1,-1,-1],"loss_changes":[1.47716055E-5,3.409441E-6,1.04045685E-5,9.721941E-7,1.1731181E-6,2.4469784E-7,3.863017E-6,0E0,0E0,1.8007231E-6,1.7653874E-6,0E0,0E0,0E0,0E0],"parents":[2147483647,0,0,1,1,2,2,4,4,6,6,9,9,10,10],"right_children":[2,4,6,-1,8,-1,10,-1,-1,12,14,-1,-1,-1,-1],"split_conditions":[2.5E0,3.5E0,1.5E0,5.5234414E-5,1.5E0,6.120856E-5,3.5E0,9.777833E-5,1.9807082E-4,3.5E0,3.5E0,1.5989793E-4,2.545166E-4,4.315186E-4,2.7050974E-4],"split_indices":[3,2,2,0,3,0,2,0,0,3,3,0,0,0,0],"split_type":[0,0,0,0,0,0,0,0,0,0,0,0,0,0,0],"sum_hessian":[3.19E2,1.51E2,1.68E2,1.02E2,4.9E1,3.2E1,1.36E2,2.4E1,2.5E1,9.1E1,4.5E1,4.2E1,4.9E1,1.4E1,3.1E1],"tree_param":{"num_deleted":"0","num_feature":"4","num_nodes":"15","size_leaf_vector":"0"}},{"base_weights":[3.698498E-4,1.8668837E-4,5.1677297E-4,1.1478092E-4,4.5611063E-4,1.6949628E-4,6.042372E-4],"categories":[],"categories_nodes":[],"categories_segments":[],"categories_sizes":[],"default_left":[1,1,1,0,0,0,0],"id":37,"left_children":[1,3,5,-1,-1,-1,-1],"loss_changes":[8.514933E-6,2.7374267E-6,5.273836E-6,5.634537E-7,1.5994692E-7,2.872423E-7,8.186762E-7],"parents":[2147483647,0,0,1,1,2,2],"right_children":[2,4,6,-1,-1,-1,-1],"split_conditions":[2.5E0,3.5E0,1.5E0,3.4434277E-5,1.368332E-4,5.084889E-5,1.8127117E-4],"split_indices":[2,3,3,0,0,0,0],"split_type":[0,0,0,0,0,0,0],"sum_hessian":[3.19E2,1.43E2,1.76E2,1.14E2,2.9E1,3.6E1,1.4E2],"tree_param":{"num_deleted":"0","num_feature":"4","num_nodes":"7","size_leaf_vector":"0"}},{"base_weights":[2.592951E-4,1.2963069E-4,3.7438207E-4,8.346095E-5,4.4172525E-4,3.567571E-4,6.020587E-4,8.6873374E-4,4.582405E-4],"categories":[],"categories_nodes":[],"categories_segments":[],"categories_sizes":[],"default_left":[1,0,1,0,1,0,1,0,0],"id":38,"left_children":[1,-1,3,-1,5,-1,7,-1,-1],"loss_changes":[4.726726E-6,9.716621E-7,3.2741063E-6,8.471335E-8,1.6515951E-6,6.222135E-7,1.3661356E-6,0E0,0E0],"parents":[2147483647,0,0,2,2,4,4,6,6],"right_children":[2,-1,4,-1,6,-1,8,-1,-1],"split_conditions":[2.5E0,3.8889208E-5,1.5E0,2.5038287E-5,3.5E0,1.0702714E-4,3.5E0,2.6062015E-4,1.3747216E-4],"split_indices":[3,0,2,0,2,0,3,0,0],"split_type":[0,0,0,0,0,0,0,0,0],"sum_hessian":[3.19E2,1.51E2,1.68E2,3.2E1,1.36E2,9.1E1,4.5E1,1.4E1,3.1E1],"tree_param":{"num_deleted":"0","num_feature":"4","num_nodes":"9","size_leaf_vector":"0"}},{"base_weights":[1.8355847E-4,5.693578E-8,2.3123974E-4,5.795663E-5,2.7995638E-4],"categories":[],"categories_nodes":[],"categories_segments":[],"categories_sizes":[],"default_left":[1,0,1,0,0],"id":39,"left_children":[1,-1,3,-1,-1],"loss_changes":[2.7998549E-6,4.5826746E-7,2.1279857E-6,3.4887685E-7,9.06326E-7],"parents":[2147483647,0,0,2,2],"right_children":[2,-1,4,-1,-1],"split_conditions":[1.5E0,1.7080735E-8,1.5E0,1.738699E-5,8.398692E-5],"split_indices":[2,0,3,0,0],"split_type":[0,0,0,0,0],"sum_hessian":[3.19E2,6.6E1,2.53E2,5.6E1,1.97E2],"tree_param":{"num_deleted":"0","num_feature":"4","num_nodes":"5","size_leaf_vector":"0"}},{"base_weights":[1.2629032E-4,7.497737E-5,2.4703177E-4,1.9845509E-5,2.306922E-4],"categories":[],"categories_nodes":[],"categories_segments":[],"categories_sizes":[],"default_left":[1,1,0,0,0],"id":40,"left_children":[1,3,-1,-1,-1],"loss_changes":[1.9640706E-6,1.9355973E-6,7.627891E-7,5.004056E-7,4.383037E-8],"parents":[2147483647,0,0,1,1],"right_children":[2,4,-1,-1,-1],"split_conditions":[3.5E0,3.5E0,7.4109535E-5,5.953653E-6,6.9207665E-5],"split_indices":[2,3,0,0,0],"split_type":[0,0,0,0,0],"sum_hessian":[3.19E2,2.25E2,9.4E1,1.67E2,5.8E1],"tree_param":{"num_deleted":"0","num_feature":"4","num_nodes":"5","size_leaf_vector":"0"}},{"base_weights":[8.7988374E-5,2.27627E-5,1.4613225E-4],"categories":[],"categories_nodes":[],"categories_segments":[],"categories_sizes":[],"default_left":[1,0,0],"id":41,"left_children":[1,-1,-1],"loss_changes":[1.2102653E-6,3.3806498E-7,9.035143E-7],"parents":[2147483647,0,0],"right_children":[2,-1,-1],"split_conditions":[2.5E0,6.8288105E-6,4.383968E-5],"split_indices":[3,0,0],"split_type":[0,0,0],"sum_hessian":[3.19E2,1.51E2,1.68E2],"tree_param":{"num_deleted":"0","num_feature":"4","num_nodes":"3","size_leaf_vector":"0"}},{"base_weights":[6.0775878E-5,2.4310255E-5,1.4688593E-4],"categories":[],"categories_nodes":[],"categories_segments":[],"categories_sizes":[],"default_left":[1,0,0],"id":42,"left_children":[1,-1,-1],"loss_changes":[1.001247E-6,6.5718484E-7,4.9185496E-7],"parents":[2147483647,0,0],"right_children":[2,-1,-1],"split_conditions":[3.5E0,7.2930766E-6,4.406578E-5],"split_indices":[2,0,0],"split_type":[0,0,0],"sum_hessian":[3.19E2,2.25E2,9.4E1],"tree_param":{"num_deleted":"0","num_feature":"4","num_nodes":"3","size_leaf_vector":"0"}},{"base_weights":[4.327595E-5],"categories":[],"categories_nodes":[],"categories_segments":[],"categories_sizes":[],"default_left":[0],"id":43,"left_children":[-1],"loss_changes":[8.8788215E-7],"parents":[2147483647],"right_children":[-1],"split_conditions":[1.2982786E-5],"split_indices":[0],"split_type":[0],"sum_hessian":[3.19E2],"tree_param":{"num_deleted":"0","num_feature":"4","num_nodes":"1","size_leaf_vector":"0"}},{"base_weights":[2.9447674E-5],"categories":[],"categories_nodes":[],"categories_segments":[],"categories_sizes":[],"default_left":[0],"id":44,"left_children":[-1],"loss_changes":[8.604594E-7],"parents":[2147483647],"right_children":[-1],"split_conditions":[8.834302E-6],"split_indices":[0],"split_type":[0],"sum_hessian":[3.19E2],"tree_param":{"num_deleted":"0","num_feature":"4","num_nodes":"1","size_leaf_vector":"0"}},{"base_weights":[1.9174815E-5],"categories":[],"categories_nodes":[],"categories_segments":[],"categories_sizes":[],"default_left":[0],"id":45,"left_children":[-1],"loss_changes":[8.2621887E-7],"parents":[2147483647],"right_children":[-1],"split_conditions":[5.752445E-6],"split_indices":[0],"split_type":[0],"sum_hessian":[3.19E2],"tree_param":{"num_deleted":"0","num_feature":"4","num_nodes":"1","size_leaf_vector":"0"}},{"base_weights":[1.4275312E-5],"categories":[],"categories_nodes":[],"categories_segments":[],"categories_sizes":[],"default_left":[0],"id":46,"left_children":[-1],"loss_changes":[8.5653613E-7],"parents":[2147483647],"right_children":[-1],"split_conditions":[4.282594E-6],"split_indices":[0],"split_type":[0],"sum_hessian":[3.19E2],"tree_param":{"num_deleted":"0","num_feature":"4","num_nodes":"1","size_leaf_vector":"0"}},{"base_weights":[1.0758638E-5],"categories":[],"categories_nodes":[],"categories_segments":[],"categories_sizes":[],"default_left":[0],"id":47,"left_children":[-1],"loss_changes":[8.61087E-7],"parents":[2147483647],"right_children":[-1],"split_conditions":[3.2275916E-6],"split_indices":[0],"split_type":[0],"sum_hessian":[3.19E2],"tree_param":{"num_deleted":"0","num_feature":"4","num_nodes":"1","size_leaf_vector":"0"}},{"base_weights":[9.092689E-6],"categories":[],"categories_nodes":[],"categories_segments":[],"categories_sizes":[],"default_left":[0],"id":48,"left_children":[-1],"loss_changes":[8.952087E-7],"parents":[2147483647],"right_children":[-1],"split_conditions":[2.7278068E-6],"split_indices":[0],"split_type":[0],"sum_hessian":[3.19E2],"tree_param":{"num_deleted":"0","num_feature":"4","num_nodes":"1","size_leaf_vector":"0"}},{"base_weights":[7.671118E-6],"categories":[],"categories_nodes":[],"categories_segments":[],"categories_sizes":[],"default_left":[0],"id":49,"left_children":[-1],"loss_changes":[9.244917E-7],"parents":[2147483647],"right_children":[-1],"split_conditions":[2.3013354E-6],"split_indices":[0],"split_type":[0],"sum_hessian":[3.19E2],"tree_param":{"num_deleted":"0","num_feature":"4","num_nodes":"1","size_leaf_vector":"0"}},{"base_weights":[6.28829E-6],"categories":[],"categories_nodes":[],"categories_segments":[],"categories_sizes":[],"default_left":[0],"id":50,"left_children":[-1],"loss_changes":[9.5168224E-7],"parents":[2147483647],"right_children":[-1],"split_conditions":[1.8864871E-6],"split_indices":[0],"split_type":[0],"sum_hessian":[3.19E2],"tree_param":{"num_deleted":"0","num_feature":"4","num_nodes":"1","size_leaf_vector":"0"}},{"base_weights":[5.966425E-6],"categories":[],"categories_nodes":[],"categories_segments":[],"categories_sizes":[],"default_left":[0],"id":51,"left_children":[-1],"loss_changes":[9.623924E-7],"parents":[2147483647],"right_children":[-1],"split_conditions":[1.7899275E-6],"split_indices":[0],"split_type":[0],"sum_hessian":[3.19E2],"tree_param":{"num_deleted":"0","num_feature":"4","num_nodes":"1","size_leaf_vector":"0"}},{"base_weights":[5.6445597E-6],"categories":[],"categories_nodes":[],"categories_segments":[],"categories_sizes":[],"default_left":[0],"id":52,"left_children":[-1],"loss_changes":[9.731621E-7],"parents":[2147483647],"right_children":[-1],"split_conditions":[1.693368E-6],"split_indices":[0],"split_type":[0],"sum_hessian":[3.19E2],"tree_param":{"num_deleted":"0","num_feature":"4","num_nodes":"1","size_leaf_vector":"0"}},{"base_weights":[5.322695E-6],"categories":[],"categories_nodes":[],"categories_segments":[],"categories_sizes":[],"default_left":[0],"id":53,"left_children":[-1],"loss_changes":[9.839915E-7],"parents":[2147483647],"right_children":[-1],"split_conditions":[1.5968086E-6],"split_indices":[0],"split_type":[0],"sum_hessian":[3.19E2],"tree_param":{"num_deleted":"0","num_feature":"4","num_nodes":"1","size_leaf_vector":"0"}},{"base_weights":[5.00083E-6],"categories":[],"categories_nodes":[],"categories_segments":[],"categories_sizes":[],"default_left":[0],"id":54,"left_children":[-1],"loss_changes":[9.948806E-7],"parents":[2147483647],"right_children":[-1],"split_conditions":[1.500249E-6],"split_indices":[0],"split_type":[0],"sum_hessian":[3.19E2],"tree_param":{"num_deleted":"0","num_feature":"4","num_nodes":"1","size_leaf_vector":"0"}},{"base_weights":[4.6789646E-6,-1.0133471E-4,3.422589E-5],"categories":[],"categories_nodes":[],"categories_segments":[],"categories_sizes":[],"default_left":[1,0,0],"id":55,"left_children":[1,-1,-1],"loss_changes":[1.0058293E-6,2.6245618E-7,6.807202E-7],"parents":[2147483647,0,0],"right_children":[2,-1,-1],"split_conditions":[1.5E0,-3.0400413E-5,1.0267768E-5],"split_indices":[3,0,0],"split_type":[0,0,0],"sum_hessian":[3.19E2,6.9E1,2.5E2],"tree_param":{"num_deleted":"0","num_feature":"4","num_nodes":"3","size_leaf_vector":"0"}},{"base_weights":[2.1576882E-6],"categories":[],"categories_nodes":[],"categories_segments":[],"categories_sizes":[],"default_left":[0],"id":56,"left_children":[-1],"loss_changes":[7.7449437E-7],"parents":[2147483647],"right_children":[-1],"split_conditions":[6.473065E-7],"split_indices":[0],"split_type":[0],"sum_hessian":[3.19E2],"tree_param":{"num_deleted":"0","num_feature":"4","num_nodes":"1","size_leaf_vector":"0"}},{"base_weights":[2.118945E-6],"categories":[],"categories_nodes":[],"categories_segments":[],"categories_sizes":[],"default_left":[0],"id":57,"left_children":[-1],"loss_changes":[7.7686775E-7],"parents":[2147483647],"right_children":[-1],"split_conditions":[6.3568353E-7],"split_indices":[0],"split_type":[0],"sum_hessian":[3.19E2],"tree_param":{"num_deleted":"0","num_feature":"4","num_nodes":"1","size_leaf_vector":"0"}},{"base_weights":[2.0802022E-6],"categories":[],"categories_nodes":[],"categories_segments":[],"categories_sizes":[],"default_left":[0],"id":58,"left_children":[-1],"loss_changes":[7.7924483E-7],"parents":[2147483647],"right_children":[-1],"split_conditions":[6.240607E-7],"split_indices":[0],"split_type":[0],"sum_hessian":[3.19E2],"tree_param":{"num_deleted":"0","num_feature":"4","num_nodes":"1","size_leaf_vector":"0"}},{"base_weights":[2.041459E-6],"categories":[],"categories_nodes":[],"categories_segments":[],"categories_sizes":[],"default_left":[0],"id":59,"left_children":[-1],"loss_changes":[7.816255E-7],"parents":[2147483647],"right_children":[-1],"split_conditions":[6.1243776E-7],"split_indices":[0],"split_type":[0],"sum_hessian":[3.19E2],"tree_param":{"num_deleted":"0","num_feature":"4","num_nodes":"1","size_leaf_vector":"0"}},{"base_weights":[2.002716E-6],"categories":[],"categories_nodes":[],"categories_segments":[],"categories_sizes":[],"default_left":[0],"id":60,"left_children":[-1],"loss_changes":[7.840098E-7],"parents":[2147483647],"right_children":[-1],"split_conditions":[6.008148E-7],"split_indices":[0],"split_type":[0],"sum_hessian":[3.19E2],"tree_param":{"num_deleted":"0","num_feature":"4","num_nodes":"1","size_leaf_vector":"0"}},{"base_weights":[1.963973E-6],"categories":[],"categories_nodes":[],"categories_segments":[],"categories_sizes":[],"default_left":[0],"id":61,"left_children":[-1],"loss_changes":[7.863977E-7],"parents":[2147483647],"right_children":[-1],"split_conditions":[5.891919E-7],"split_indices":[0],"split_type":[0],"sum_hessian":[3.19E2],"tree_param":{"num_deleted":"0","num_feature":"4","num_nodes":"1","size_leaf_vector":"0"}},{"base_weights":[1.92523E-6],"categories":[],"categories_nodes":[],"categories_segments":[],"categories_sizes":[],"default_left":[0],"id":62,"left_children":[-1],"loss_changes":[7.8878924E-7],"parents":[2147483647],"right_children":[-1],"split_conditions":[5.7756904E-7],"split_indices":[0],"split_type":[0],"sum_hessian":[3.19E2],"tree_param":{"num_deleted":"0","num_feature":"4","num_nodes":"1","size_leaf_vector":"0"}},{"base_weights":[1.886487E-6],"categories":[],"categories_nodes":[],"categories_segments":[],"categories_sizes":[],"default_left":[0],"id":63,"left_children":[-1],"loss_changes":[7.9118445E-7],"parents":[2147483647],"right_children":[-1],"split_conditions":[5.659461E-7],"split_indices":[0],"split_type":[0],"sum_hessian":[3.19E2],"tree_param":{"num_deleted":"0","num_feature":"4","num_nodes":"1","size_leaf_vector":"0"}},{"base_weights":[1.847744E-6],"categories":[],"categories_nodes":[],"categories_segments":[],"categories_sizes":[],"default_left":[0],"id":64,"left_children":[-1],"loss_changes":[7.9358324E-7],"parents":[2147483647],"right_children":[-1],"split_conditions":[5.543232E-7],"split_indices":[0],"split_type":[0],"sum_hessian":[3.19E2],"tree_param":{"num_deleted":"0","num_feature":"4","num_nodes":"1","size_leaf_vector":"0"}},{"base_weights":[1.809001E-6],"categories":[],"categories_nodes":[],"categories_segments":[],"categories_sizes":[],"default_left":[0],"id":65,"left_children":[-1],"loss_changes":[7.9598567E-7],"parents":[2147483647],"right_children":[-1],"split_conditions":[5.427003E-7],"split_indices":[0],"split_type":[0],"sum_hessian":[3.19E2],"tree_param":{"num_deleted":"0","num_feature":"4","num_nodes":"1","size_leaf_vector":"0"}},{"base_weights":[1.770258E-6],"categories":[],"categories_nodes":[],"categories_segments":[],"categories_sizes":[],"default_left":[0],"id":66,"left_children":[-1],"loss_changes":[7.9839174E-7],"parents":[2147483647],"right_children":[-1],"split_conditions":[5.3107743E-7],"split_indices":[0],"split_type":[0],"sum_hessian":[3.19E2],"tree_param":{"num_deleted":"0","num_feature":"4","num_nodes":"1","size_leaf_vector":"0"}},{"base_weights":[1.7315149E-6],"categories":[],"categories_nodes":[],"categories_segments":[],"categories_sizes":[],"default_left":[0],"id":67,"left_children":[-1],"loss_changes":[8.0080144E-7],"parents":[2147483647],"right_children":[-1],"split_conditions":[5.194545E-7],"split_indices":[0],"split_type":[0],"sum_hessian":[3.19E2],"tree_param":{"num_deleted":"0","num_feature":"4","num_nodes":"1","size_leaf_vector":"0"}},{"base_weights":[1.6927719E-6],"categories":[],"categories_nodes":[],"categories_segments":[],"categories_sizes":[],"default_left":[0],"id":68,"left_children":[-1],"loss_changes":[8.032148E-7],"parents":[2147483647],"right_children":[-1],"split_conditions":[5.078316E-7],"split_indices":[0],"split_type":[0],"sum_hessian":[3.19E2],"tree_param":{"num_deleted":"0","num_feature":"4","num_nodes":"1","size_leaf_vector":"0"}},{"base_weights":[1.6540289E-6],"categories":[],"categories_nodes":[],"categories_segments":[],"categories_sizes":[],"default_left":[0],"id":69,"left_children":[-1],"loss_changes":[8.056317E-7],"parents":[2147483647],"right_children":[-1],"split_conditions":[4.962087E-7],"split_indices":[0],"split_type":[0],"sum_hessian":[3.19E2],"tree_param":{"num_deleted":"0","num_feature":"4","num_nodes":"1","size_leaf_vector":"0"}},{"base_weights":[1.6152859E-6],"categories":[],"categories_nodes":[],"categories_segments":[],"categories_sizes":[],"default_left":[0],"id":70,"left_children":[-1],"loss_changes":[8.080523E-7],"parents":[2147483647],"right_children":[-1],"split_conditions":[4.8458577E-7],"split_indices":[0],"split_type":[0],"sum_hessian":[3.19E2],"tree_param":{"num_deleted":"0","num_feature":"4","num_nodes":"1","size_leaf_vector":"0"}},{"base_weights":[1.5765429E-6],"categories":[],"categories_nodes":[],"categories_segments":[],"categories_sizes":[],"default_left":[0],"id":71,"left_children":[-1],"loss_changes":[8.104765E-7],"parents":[2147483647],"right_children":[-1],"split_conditions":[4.7296288E-7],"split_indices":[0],"split_type":[0],"sum_hessian":[3.19E2],"tree_param":{"num_deleted":"0","num_feature":"4","num_nodes":"1","size_leaf_vector":"0"}},{"base_weights":[1.5765429E-6],"categories":[],"categories_nodes":[],"categories_segments":[],"categories_sizes":[],"default_left":[0],"id":72,"left_children":[-1],"loss_changes":[8.104765E-7],"parents":[2147483647],"right_children":[-1],"split_conditions":[4.7296288E-7],"split_indices":[0],"split_type":[0],"sum_hessian":[3.19E2],"tree_param":{"num_deleted":"0","num_feature":"4","num_nodes":"1","size_leaf_vector":"0"}},{"base_weights":[1.5765429E-6],"categories":[],"categories_nodes":[],"categories_segments":[],"categories_sizes":[],"default_left":[0],"id":73,"left_children":[-1],"loss_changes":[8.104765E-7],"parents":[2147483647],"right_children":[-1],"split_conditions":[4.7296288E-7],"split_indices":[0],"split_type":[0],"sum_hessian":[3.19E2],"tree_param":{"num_deleted":"0","num_feature":"4","num_nodes":"1","size_leaf_vector":"0"}},{"base_weights":[1.5765429E-6],"categories":[],"categories_nodes":[],"categories_segments":[],"categories_sizes":[],"default_left":[0],"id":74,"left_children":[-1],"loss_changes":[8.104765E-7],"parents":[2147483647],"right_children":[-1],"split_conditions":[4.7296288E-7],"split_indices":[0],"split_type":[0],"sum_hessian":[3.19E2],"tree_param":{"num_deleted":"0","num_feature":"4","num_nodes":"1","size_leaf_vector":"0"}},{"base_weights":[1.5765429E-6],"categories":[],"categories_nodes":[],"categories_segments":[],"categories_sizes":[],"default_left":[0],"id":75,"left_children":[-1],"loss_changes":[8.104765E-7],"parents":[2147483647],"right_children":[-1],"split_conditions":[4.7296288E-7],"split_indices":[0],"split_type":[0],"sum_hessian":[3.19E2],"tree_param":{"num_deleted":"0","num_feature":"4","num_nodes":"1","size_leaf_vector":"0"}},{"base_weights":[1.5765429E-6],"categories":[],"categories_nodes":[],"categories_segments":[],"categories_sizes":[],"default_left":[0],"id":76,"left_children":[-1],"loss_changes":[8.104765E-7],"parents":[2147483647],"right_children":[-1],"split_conditions":[4.7296288E-7],"split_indices":[0],"split_type":[0],"sum_hessian":[3.19E2],"tree_param":{"num_deleted":"0","num_feature":"4","num_nodes":"1","size_leaf_vector":"0"}},{"base_weights":[1.5765429E-6],"categories":[],"categories_nodes":[],"categories_segments":[],"categories_sizes":[],"default_left":[0],"id":77,"left_children":[-1],"loss_changes":[8.104765E-7],"parents":[2147483647],"right_children":[-1],"split_conditions":[4.7296288E-7],"split_indices":[0],"split_type":[0],"sum_hessian":[3.19E2],"tree_param":{"num_deleted":"0","num_feature":"4","num_nodes":"1","size_leaf_vector":"0"}},{"base_weights":[1.5765429E-6],"categories":[],"categories_nodes":[],"categories_segments":[],"categories_sizes":[],"default_left":[0],"id":78,"left_children":[-1],"loss_changes":[8.104765E-7],"parents":[2147483647],"right_children":[-1],"split_conditions":[4.7296288E-7],"split_indices":[0],"split_type":[0],"sum_hessian":[3.19E2],"tree_param":{"num_deleted":"0","num_feature":"4","num_nodes":"1","size_leaf_vector":"0"}},{"base_weights":[1.5765429E-6],"categories":[],"categories_nodes":[],"categories_segments":[],"categories_sizes":[],"default_left":[0],"id":79,"left_children":[-1],"loss_changes":[8.104765E-7],"parents":[2147483647],"right_children":[-1],"split_conditions":[4.7296288E-7],"split_indices":[0],"split_type":[0],"sum_hessian":[3.19E2],"tree_param":{"num_deleted":"0","num_feature":"4","num_nodes":"1","size_leaf_vector":"0"}},{"base_weights":[1.5765429E-6],"categories":[],"categories_nodes":[],"categories_segments":[],"categories_sizes":[],"default_left":[0],"id":80,"left_children":[-1],"loss_changes":[8.104765E-7],"parents":[2147483647],"right_children":[-1],"split_conditions":[4.7296288E-7],"split_indices":[0],"split_type":[0],"sum_hessian":[3.19E2],"tree_param":{"num_deleted":"0","num_feature":"4","num_nodes":"1","size_leaf_vector":"0"}},{"base_weights":[1.5765429E-6],"categories":[],"categories_nodes":[],"categories_segments":[],"categories_sizes":[],"default_left":[0],"id":81,"left_children":[-1],"loss_changes":[8.104765E-7],"parents":[2147483647],"right_children":[-1],"split_conditions":[4.7296288E-7],"split_indices":[0],"split_type":[0],"sum_hessian":[3.19E2],"tree_param":{"num_deleted":"0","num_feature":"4","num_nodes":"1","size_leaf_vector":"0"}},{"base_weights":[1.5765429E-6],"categories":[],"categories_nodes":[],"categories_segments":[],"categories_sizes":[],"default_left":[0],"id":82,"left_children":[-1],"loss_changes":[8.104765E-7],"parents":[2147483647],"right_children":[-1],"split_conditions":[4.7296288E-7],"split_indices":[0],"split_type":[0],"sum_hessian":[3.19E2],"tree_param":{"num_deleted":"0","num_feature":"4","num_nodes":"1","size_leaf_vector":"0"}},{"base_weights":[1.5765429E-6],"categories":[],"categories_nodes":[],"categories_segments":[],"categories_sizes":[],"default_left":[0],"id":83,"left_children":[-1],"loss_changes":[8.104765E-7],"parents":[2147483647],"right_children":[-1],"split_conditions":[4.7296288E-7],"split_indices":[0],"split_type":[0],"sum_hessian":[3.19E2],"tree_param":{"num_deleted":"0","num_feature":"4","num_nodes":"1","size_leaf_vector":"0"}},{"base_weights":[1.5765429E-6],"categories":[],"categories_nodes":[],"categories_segments":[],"categories_sizes":[],"default_left":[0],"id":84,"left_children":[-1],"loss_changes":[8.104765E-7],"parents":[2147483647],"right_children":[-1],"split_conditions":[4.7296288E-7],"split_indices":[0],"split_type":[0],"sum_hessian":[3.19E2],"tree_param":{"num_deleted":"0","num_feature":"4","num_nodes":"1","size_leaf_vector":"0"}},{"base_weights":[1.5765429E-6],"categories":[],"categories_nodes":[],"categories_segments":[],"categories_sizes":[],"default_left":[0],"id":85,"left_children":[-1],"loss_changes":[8.104765E-7],"parents":[2147483647],"right_children":[-1],"split_conditions":[4.7296288E-7],"split_indices":[0],"split_type":[0],"sum_hessian":[3.19E2],"tree_param":{"num_deleted":"0","num_feature":"4","num_nodes":"1","size_leaf_vector":"0"}},{"base_weights":[1.5765429E-6],"categories":[],"categories_nodes":[],"categories_segments":[],"categories_sizes":[],"default_left":[0],"id":86,"left_children":[-1],"loss_changes":[8.104765E-7],"parents":[2147483647],"right_children":[-1],"split_conditions":[4.7296288E-7],"split_indices":[0],"split_type":[0],"sum_hessian":[3.19E2],"tree_param":{"num_deleted":"0","num_feature":"4","num_nodes":"1","size_leaf_vector":"0"}},{"base_weights":[1.5765429E-6],"categories":[],"categories_nodes":[],"categories_segments":[],"categories_sizes":[],"default_left":[0],"id":87,"left_children":[-1],"loss_changes":[8.104765E-7],"parents":[2147483647],"right_children":[-1],"split_conditions":[4.7296288E-7],"split_indices":[0],"split_type":[0],"sum_hessian":[3.19E2],"tree_param":{"num_deleted":"0","num_feature":"4","num_nodes":"1","size_leaf_vector":"0"}},{"base_weights":[1.5765429E-6],"categories":[],"categories_nodes":[],"categories_segments":[],"categories_sizes":[],"default_left":[0],"id":88,"left_children":[-1],"loss_changes":[8.104765E-7],"parents":[2147483647],"right_children":[-1],"split_conditions":[4.7296288E-7],"split_indices":[0],"split_type":[0],"sum_hessian":[3.19E2],"tree_param":{"num_deleted":"0","num_feature":"4","num_nodes":"1","size_leaf_vector":"0"}},{"base_weights":[1.5765429E-6],"categories":[],"categories_nodes":[],"categories_segments":[],"categories_sizes":[],"default_left":[0],"id":89,"left_children":[-1],"loss_changes":[8.104765E-7],"parents":[2147483647],"right_children":[-1],"split_conditions":[4.7296288E-7],"split_indices":[0],"split_type":[0],"sum_hessian":[3.19E2],"tree_param":{"num_deleted":"0","num_feature":"4","num_nodes":"1","size_leaf_vector":"0"}},{"base_weights":[1.5765429E-6],"categories":[],"categories_nodes":[],"categories_segments":[],"categories_sizes":[],"default_left":[0],"id":90,"left_children":[-1],"loss_changes":[8.104765E-7],"parents":[2147483647],"right_children":[-1],"split_conditions":[4.7296288E-7],"split_indices":[0],"split_type":[0],"sum_hessian":[3.19E2],"tree_param":{"num_deleted":"0","num_feature":"4","num_nodes":"1","size_leaf_vector":"0"}},{"base_weights":[1.5765429E-6],"categories":[],"categories_nodes":[],"categories_segments":[],"categories_sizes":[],"default_left":[0],"id":91,"left_children":[-1],"loss_changes":[8.104765E-7],"parents":[2147483647],"right_children":[-1],"split_conditions":[4.7296288E-7],"split_indices":[0],"split_type":[0],"sum_hessian":[3.19E2],"tree_param":{"num_deleted":"0","num_feature":"4","num_nodes":"1","size_leaf_vector":"0"}},{"base_weights":[1.5765429E-6],"categories":[],"categories_nodes":[],"categories_segments":[],"categories_sizes":[],"default_left":[0],"id":92,"left_children":[-1],"loss_changes":[8.104765E-7],"parents":[2147483647],"right_children":[-1],"split_conditions":[4.7296288E-7],"split_indices":[0],"split_type":[0],"sum_hessian":[3.19E2],"tree_param":{"num_deleted":"0","num_feature":"4","num_nodes":"1","size_leaf_vector":"0"}},{"base_weights":[1.5765429E-6],"categories":[],"categories_nodes":[],"categories_segments":[],"categories_sizes":[],"default_left":[0],"id":93,"left_children":[-1],"loss_changes":[8.104765E-7],"parents":[2147483647],"right_children":[-1],"split_conditions":[4.7296288E-7],"split_indices":[0],"split_type":[0],"sum_hessian":[3.19E2],"tree_param":{"num_deleted":"0","num_feature":"4","num_nodes":"1","size_leaf_vector":"0"}},{"base_weights":[1.5765429E-6],"categories":[],"categories_nodes":[],"categories_segments":[],"categories_sizes":[],"default_left":[0],"id":94,"left_children":[-1],"loss_changes":[8.104765E-7],"parents":[2147483647],"right_children":[-1],"split_conditions":[4.7296288E-7],"split_indices":[0],"split_type":[0],"sum_hessian":[3.19E2],"tree_param":{"num_deleted":"0","num_feature":"4","num_nodes":"1","size_leaf_vector":"0"}},{"base_weights":[1.5765429E-6],"categories":[],"categories_nodes":[],"categories_segments":[],"categories_sizes":[],"default_left":[0],"id":95,"left_children":[-1],"loss_changes":[8.104765E-7],"parents":[2147483647],"right_children":[-1],"split_conditions":[4.7296288E-7],"split_indices":[0],"split_type":[0],"sum_hessian":[3.19E2],"tree_param":{"num_deleted":"0","num_feature":"4","num_nodes":"1","size_leaf_vector":"0"}},{"base_weights":[1.5765429E-6],"categories":[],"categories_nodes":[],"categories_segments":[],"categories_sizes":[],"default_left":[0],"id":96,"left_children":[-1],"loss_changes":[8.104765E-7],"parents":[2147483647],"right_children":[-1],"split_conditions":[4.7296288E-7],"split_indices":[0],"split_type":[0],"sum_hessian":[3.19E2],"tree_param":{"num_deleted":"0","num_feature":"4","num_nodes":"1","size_leaf_vector":"0"}},{"base_weights":[1.5765429E-6],"categories":[],"categories_nodes":[],"categories_segments":[],"categories_sizes":[],"default_left":[0],"id":97,"left_children":[-1],"loss_changes":[8.104765E-7],"parents":[2147483647],"right_children":[-1],"split_conditions":[4.7296288E-7],"split_indices":[0],"split_type":[0],"sum_hessian":[3.19E2],"tree_param":{"num_deleted":"0","num_feature":"4","num_nodes":"1","size_leaf_vector":"0"}},{"base_weights":[1.5765429E-6],"categories":[],"categories_nodes":[],"categories_segments":[],"categories_sizes":[],"default_left":[0],"id":98,"left_children":[-1],"loss_changes":[8.104765E-7],"parents":[2147483647],"right_children":[-1],"split_conditions":[4.7296288E-7],"split_indices":[0],"split_type":[0],"sum_hessian":[3.19E2],"tree_param":{"num_deleted":"0","num_feature":"4","num_nodes":"1","size_leaf_vector":"0"}},{"base_weights":[1.5765429E-6],"categories":[],"categories_nodes":[],"categories_segments":[],"categories_sizes":[],"default_left":[0],"id":99,"left_children":[-1],"loss_changes":[8.104765E-7],"parents":[2147483647],"right_children":[-1],"split_conditions":[4.7296288E-7],"split_indices":[0],"split_type":[0],"sum_hessian":[3.19E2],"tree_param":{"num_deleted":"0","num_feature":"4","num_nodes":"1","size_leaf_vector":"0"}}]},"name":"gbtree"},"learner_model_param":{"base_score":"5E-1","boost_from_average":"1","num_class":"0","num_feature":"4","num_target":"1"},"objective":{"name":"reg:squarederror","reg_loss_param":{"scale_pos_weight":"1"}}},"version":[1,7,2]}