{"learner":{"attributes":{"best_iteration":"99","best_ntree_limit":"100","scikit_learn":"{\"n_estimators\": 100, \"objective\": \"reg:squarederror\", \"max_depth\": null, \"max_leaves\": null, \"max_bin\": null, \"grow_policy\": null, \"learning_rate\": null, \"verbosity\": null, \"booster\": null, \"tree_method\": null, \"gamma\": null, \"min_child_weight\": null, \"max_delta_step\": null, \"subsample\": null, \"sampling_method\": null, \"colsample_bytree\": null, \"colsample_bylevel\": null, \"colsample_bynode\": null, \"reg_alpha\": null, \"reg_lambda\": null, \"scale_pos_weight\": null, \"base_score\": null, \"missing\": NaN, \"num_parallel_tree\": null, \"random_state\": null, \"n_jobs\": null, \"monotone_constraints\": null, \"interaction_constraints\": null, \"importance_type\": null, \"gpu_id\": null, \"validate_parameters\": null, \"predictor\": null, \"enable_categorical\": false, \"feature_types\": null, \"max_cat_to_onehot\": null, \"max_cat_threshold\": null, \"eval_metric\": null, \"early_stopping_rounds\": null, \"callbacks\": null, \"_estimator_type\": \"regressor\"}"},"feature_names":[],"feature_types":[],"gradient_booster":{"model":{"gbtree_model_param":{"num_parallel_tree":"1","num_trees":"100","size_leaf_vector":"0"},"tree_info":[0,0,0,0,0,0,0,0,0,0,0,0,0,0,0,0,0,0,0,0,0,0,0,0,0,0,0,0,0,0,0,0,0,0,0,0,0,0,0,0,0,0,0,0,0,0,0,0,0,0,0,0,0,0,0,0,0,0,0,0,0,0,0,0,0,0,0,0,0,0,0,0,0,0,0,0,0,0,0,0,0,0,0,0,0,0,0,0,0,0,0,0,0,0,0,0,0,0,0,0],"trees":[{"base_weights":[5.5966534E2,4.3810913E2,8.0819836E2,3.5789816E2,5.760879E2,6.541768E2,1.1037375E3,2.6802142E2,4.216989E2,4.6861224E2,6.851628E2,5.24125E2,7.398723E2,2.3243903E2,3.0771667E2,3.3882858E2,4.6371185E2],"categories":[],"categories_nodes":[],"categories_segments":[],"categories_sizes":[],"default_left":[1,1,1,1,1,1,0,1,1,0,0,0,0,0,0,0,0],"id":0,"left_children":[1,3,5,7,9,11,-1,13,15,-1,-1,-1,-1,-1,-1,-1,-1],"loss_changes":[1.088432E7,2.582804E6,4.7858E6,8.15916E5,7.45708E5,5.26096E5,0E0,2.7346E4,1.66672E5,0E0,0E0,0E0,0E0,0E0,0E0,0E0,0E0],"parents":[2147483647,0,0,1,1,2,2,3,3,4,4,5,5,7,7,8,8],"right_children":[2,4,6,8,10,12,-1,14,16,-1,-1,-1,-1,-1,-1,-1,-1],"split_conditions":[4E0,4E0,4E0,2.5E0,2.5E0,2.5E0,3.3112128E2,2.5E0,2.5E0,1.4058368E2,2.0554884E2,1.572375E2,2.219617E2,6.973171E1,9.2315E1,1.0164858E2,1.3911356E2],"split_indices":[5,6,6,5,5,6,0,6,6,0,0,0,0,0,0,0,0],"split_type":[0,0,0,0,0,0,0,0,0,0,0,0,0,0,0,0,0],"sum_hessian":[3.71E2,2.51E2,1.2E2,1.61E2,9E1,8.1E1,3.9E1,6.9E1,9.2E1,4.8E1,4.2E1,3.5E1,4.6E1,4E1,2.9E1,3.4E1,5.8E1],"tree_param":{"num_deleted":"0","num_feature":"9","num_nodes":"17","size_leaf_vector":"0"}},{"base_weights":[3.9568848E2,3.0964838E2,5.7160925E2,2.5301517E2,4.070652E2,4.625482E2,7.808942E2,1.8992995E2,2.9777808E2,3.308976E2,4.8439417E2,3.7125522E2,5.2263324E2,1.6440808E2,2.1847884E2,2.6186575E2,3.551379E2,2.825191E2,3.869205E2,4.1254556E2,5.700129E2,4.4997256E2,6.2438904E2],"categories":[],"categories_nodes":[],"categories_segments":[],"categories_sizes":[],"default_left":[1,1,1,1,1,1,0,1,1,1,1,0,1,0,0,0,0,0,0,0,0,0,0],"id":1,"left_children":[1,3,5,7,9,11,-1,13,15,17,19,-1,21,-1,-1,-1,-1,-1,-1,-1,-1,-1,-1],"loss_changes":[5.453684E6,1.287294E6,2.400608E6,4.00913E5,3.75702E5,2.55768E5,0E0,1.50835E4,9.8574E4,2.34925E4,2.9362E4,0E0,6.6543E4,0E0,0E0,0E0,0E0,0E0,0E0,0E0,0E0,0E0,0E0],"parents":[2147483647,0,0,1,1,2,2,3,3,4,4,5,5,7,7,8,8,9,9,10,10,12,12],"right_children":[2,4,6,8,10,12,-1,14,16,18,20,-1,22,-1,-1,-1,-1,-1,-1,-1,-1,-1,-1],"split_conditions":[4E0,4E0,4E0,2.5E0,2.5E0,2.5E0,2.3426828E2,2.5E0,6.25E1,6.6E1,6.5E1,1.1137657E2,6.4E1,4.9322426E1,6.5543655E1,7.855973E1,1.06541374E2,8.475574E1,1.1607616E2,1.2376367E2,1.7100388E2,1.3499178E2,1.8731671E2],"split_indices":[5,6,6,5,5,6,0,6,2,2,2,0,2,0,0,0,0,0,0,0,0,0,0],"split_type":[0,0,0,0,0,0,0,0,0,0,0,0,0,0,0,0,0,0,0,0,0,0,0],"sum_hessian":[3.71E2,2.51E2,1.2E2,1.61E2,9E1,8.1E1,3.9E1,6.9E1,9.2E1,4.8E1,4.2E1,3.5E1,4.6E1,4E1,2.9E1,6E1,3.2E1,2.9E1,1.9E1,2.6E1,1.6E1,3E1,1.6E1],"tree_param":{"num_deleted":"0","num_feature":"9","num_nodes":"23","size_leaf_vector":"0"}},{"base_weights":[2.809161E2,2.1991087E2,4.0564676E2,1.366389E2,2.5376192E2,3.2907254E2,5.524827E2,9.23373E1,1.4900891E2,2.1917215E2,3.10523E2,2.6044406E2,3.8526013E2,4.6707346E2,7.3519135E2,1.77375E2,2.4905469E2,2.5656256E2,3.468644E2,2.1259163E2,2.9361572E2,1.3765764E2,2.0058856E2,2.1101646E2,2.9336575E2,2.7664813E2,4.0906802E2],"categories":[],"categories_nodes":[],"categories_segments":[],"categories_sizes":[],"default_left":[1,1,1,1,1,1,1,0,0,1,1,1,0,0,0,1,1,0,1,0,0,0,0,0,0,0,0],"id":2,"left_children":[1,3,5,7,9,11,13,-1,-1,15,17,19,-1,-1,-1,21,23,-1,25,-1,-1,-1,-1,-1,-1,-1,-1],"loss_changes":[2.741426E6,6.75675E5,1.178698E6,2.734175E4,2.81419E5,2.15859E5,2.80812E5,0E0,0E0,9.821E4,3.84725E4,1.0735E3,0E0,0E0,0E0,1.9408625E4,4.596775E4,0E0,4.4069E4,0E0,0E0,0E0,0E0,0E0,0E0,0E0,0E0],"parents":[2147483647,0,0,1,1,2,2,3,3,4,4,5,5,6,6,9,9,10,10,11,11,15,15,16,16,18,18],"right_children":[2,4,6,8,10,12,14,-1,-1,16,18,20,-1,-1,-1,22,24,-1,26,-1,-1,-1,-1,-1,-1,-1,-1],"split_conditions":[4E0,2.5E0,4E0,2.5E1,6.65E1,4.9E1,6.2E1,2.7701193E1,4.4702675E1,2.5E0,4E0,2.5E0,1.1557804E2,1.4012204E2,2.2055742E2,4E0,4E0,7.696877E1,2.5E0,6.3777493E1,8.808472E1,4.1297295E1,6.017657E1,6.3304943E1,8.800973E1,8.2994446E1,1.2272041E2],"split_indices":[5,6,6,2,2,2,2,0,0,5,6,6,0,0,0,6,6,0,5,0,0,0,0,0,0,0,0],"split_type":[0,0,0,0,0,0,0,0,0,0,0,0,0,0,0,0,0,0,0,0,0,0,0,0,0,0,0],"sum_hessian":[3.71E2,2.51E2,1.2E2,7.4E1,1.77E2,8.1E1,3.9E1,1.8E1,5.6E1,1.13E2,6.4E1,3.9E1,4.2E1,2.9E1,1E1,5E1,6.3E1,2.9E1,3.5E1,1.9E1,2E1,2.1E1,2.9E1,3.7E1,2.6E1,1.9E1,1.6E1],"tree_param":{"num_deleted":"0","num_feature":"9","num_nodes":"27","size_leaf_vector":"0"}},{"base_weights":[1.9996385E2,1.5634981E2,2.891438E2,1.2684134E2,2.0716325E2,2.3361224E2,3.9575485E2,9.126221E1,1.5225745E2,1.6793071E2,2.4705237E2,1.9716371E2,3.0055692E2,3.3162213E2,5.346846E2,7.887845E1,1.1313864E2,1.1509136E2,1.7172449E2,1.2479751E2,1.8328955E2,2.0246202E2,2.8820816E2,1.6071169E2,2.233984E2,2.0667711E2,3.3601474E2,6.8332794E1,9.265827E1,1.21048355E2,1.8935416E2],"categories":[],"categories_nodes":[],"categories_segments":[],"categories_sizes":[],"default_left":[1,1,1,1,1,1,1,1,1,1,1,1,1,0,0,1,0,0,1,0,0,0,0,0,0,0,0,0,0,0,0],"id":3,"left_children":[1,3,5,7,9,11,13,15,17,19,21,23,25,-1,-1,27,-1,-1,29,-1,-1,-1,-1,-1,-1,-1,-1,-1,-1,-1,-1],"loss_changes":[1.401685E6,3.515785E5,6.23901E5,1.325985E5,1.0092325E5,1.40824E5,1.79085E5,1.0039625E4,4.752275E4,9.587125E3,2.056025E4,1.76505E4,2.043025E4,0E0,0E0,6.4365625E2,0E0,0E0,2.978975E4,0E0,0E0,0E0,0E0,0E0,0E0,0E0,0E0,0E0,0E0,0E0,0E0],"parents":[2147483647,0,0,1,1,2,2,3,3,4,4,5,5,6,6,7,7,8,8,9,9,10,10,11,11,12,12,15,15,18,18],"right_children":[2,4,6,8,10,12,14,16,18,20,22,24,26,-1,-1,28,-1,-1,30,-1,-1,-1,-1,-1,-1,-1,-1,-1,-1,-1,-1],"split_conditions":[4E0,4E0,4E0,2.5E0,2.5E0,6.2E1,6.2E1,6.05E1,2.5E0,3.3E1,4.9E1,2.5E0,2.5E0,9.948664E1,1.6040538E2,2.5E0,3.3941593E1,3.452741E1,3.2E1,3.7439255E1,5.4986866E1,6.073861E1,8.646245E1,4.821351E1,6.701952E1,6.2003136E1,1.0080443E2,2.049984E1,2.7797483E1,3.6314507E1,5.6806248E1],"split_indices":[5,6,6,5,5,2,2,2,6,2,2,6,6,0,0,6,0,0,2,0,0,0,0,0,0,0,0,0,0,0,0],"split_type":[0,0,0,0,0,0,0,0,0,0,0,0,0,0,0,0,0,0,0,0,0,0,0,0,0,0,0,0,0,0,0],"sum_hessian":[3.71E2,2.51E2,1.2E2,1.61E2,9E1,8.1E1,3.9E1,6.9E1,9.2E1,4.8E1,4.2E1,5.5E1,2.6E1,2.9E1,1E1,4.7E1,2.2E1,3.4E1,5.8E1,1.5E1,3.3E1,2.3E1,1.9E1,2.6E1,2.9E1,9E0,1.7E1,3E1,1.7E1,1.7E1,4.1E1],"tree_param":{"num_deleted":"0","num_feature":"9","num_nodes":"31","size_leaf_vector":"0"}},{"base_weights":[1.4262912E2,1.1122865E2,2.0684637E2,9.008453E1,1.4764754E2,1.6691931E2,2.835257E2,6.505838E1,1.07952774E2,1.1943773E2,1.7635992E2,1.4007233E2,2.1641972E2,2.354517E2,3.8886148E2,5.6761963E1,8.4340256E1,9.007555E1,1.3921638E2,9.80377E1,1.4556589E2,1.2560987E2,1.9652858E2,9.284793E1,1.5084152E2,1.6169302E2,2.5568788E2,8.966785E1,2.4266241E2,4.819134E1,6.7119E1,7.117486E1,1.0092263E2,2.227237E1,9.988228E1,5.8329773E1,1.5385805E2,1.9829895E1,4.942111E1,3.3909927E1,7.0769966E1,5.0556046E1,7.911681E1],"categories":[],"categories_nodes":[],"categories_segments":[],"categories_sizes":[],"default_left":[1,1,1,1,1,1,1,1,1,1,1,1,1,1,0,1,0,1,0,1,0,0,0,0,1,0,0,0,0,1,1,1,0,0,0,0,0,0,0,0,0,0,0],"id":4,"left_children":[1,3,5,7,9,11,13,15,17,19,21,23,25,27,-1,29,-1,31,-1,33,-1,-1,-1,-1,35,-1,-1,-1,-1,37,39,41,-1,-1,-1,-1,-1,-1,-1,-1,-1,-1,-1],"loss_changes":[7.27112E5,1.8075075E5,3.231255E5,6.541875E4,5.264325E4,7.86585E4,1.1099825E5,6.410625E3,3.9438375E4,1.31270625E4,1.932725E4,1.4474625E4,1.6680375E4,9.777125E3,0E0,1.3812969E3,0E0,5.5279062E3,0E0,1.9680938E3,0E0,0E0,0E0,0E0,3.3041875E3,0E0,0E0,0E0,0E0,1.3607812E2,1.4634375E2,2.5776562E2,0E0,0E0,0E0,0E0,0E0,0E0,0E0,0E0,0E0,0E0,0E0],"parents":[2147483647,0,0,1,1,2,2,3,3,4,4,5,5,6,6,7,7,8,8,9,9,10,10,11,11,12,12,13,13,15,15,17,17,19,19,24,24,29,29,30,30,31,31],"right_children":[2,4,6,8,10,12,14,16,18,20,22,24,26,28,-1,30,-1,32,-1,34,-1,-1,-1,-1,36,-1,-1,-1,-1,38,40,42,-1,-1,-1,-1,-1,-1,-1,-1,-1,-1,-1],"split_conditions":[4E0,4E0,4E0,2.5E0,2.5E0,6.2E1,6.2E1,6.55E1,6.4E1,6.6E1,3.35E1,1.85E1,1.115E2,6E0,1.1665845E2,2.5E0,2.5302078E1,2.5E0,4.1764915E1,5E0,4.366977E1,3.7682964E1,5.8958576E1,2.785438E1,2.8E1,4.8507908E1,7.670637E1,2.6900354E1,7.279873E1,5.5E0,1.75E1,3.5E1,3.027679E1,6.681711E0,2.9964685E1,1.7498932E1,4.6157417E1,5.948969E0,1.4826333E1,1.0172978E1,2.1230991E1,1.5166814E1,2.3735044E1],"split_indices":[5,6,6,5,5,2,2,2,2,2,2,2,4,2,0,6,0,6,0,2,0,0,0,0,3,0,0,0,0,2,2,2,0,0,0,0,0,0,0,0,0,0,0],"split_type":[0,0,0,0,0,0,0,0,0,0,0,0,0,0,0,0,0,0,0,0,0,0,0,0,0,0,0,0,0,0,0,0,0,0,0,0,0,0,0,0,0,0,0],"sum_hessian":[3.71E2,2.51E2,1.2E2,1.61E2,9E1,8.1E1,3.9E1,6.9E1,9.2E1,4.8E1,4.2E1,5.5E1,2.6E1,2.9E1,1E1,5.1E1,1.8E1,6.1E1,3.1E1,2.9E1,1.9E1,1.4E1,2.8E1,1.2E1,4.3E1,1.3E1,1.3E1,2E0,2.7E1,3.1E1,2E1,2.5E1,3.6E1,1E0,2.8E1,2E0,4.1E1,2E0,2.9E1,3E0,1.7E1,9E0,1.6E1],"tree_param":{"num_deleted":"0","num_feature":"9","num_nodes":"43","size_leaf_vector":"0"}},{"base_weights":[1.0198679E2,7.930998E1,1.4837166E2,4.7411686E1,9.230472E1,8.445231E1,1.7340335E2,3.411932E1,5.4177822E1,7.588255E1,1.18379005E2,5.4504604E1,9.900951E1,1.4496686E2,2.3698973E2,3.4886017E1,6.7092514E0,3.6277912E1,6.0481377E1,6.2269825E1,8.548182E1,9.4314606E1,1.3323769E2,1.4520279E1,5.6463375E1,1.157747E2,1.6871655E2,1.2677598E2,2.5820438E2,7.2092514E0,3.5673225E1,1.5130757E1,3.8367413E1,4.8478733E1,6.984793E1,5.9764656E1,9.444058E1,6.789654E1,1.0668695E2,1.1010332E2,1.5669962E2,1.3349315E2,1.9559662E2,7.111743E1,1.651622E1,7.4652405E0,6.2255444E1,7.972836E1,1.0884444E2],"categories":[],"categories_nodes":[],"categories_segments":[],"categories_sizes":[],"default_left":[1,1,1,1,1,1,1,1,1,1,1,1,0,1,1,1,0,1,0,1,1,1,1,0,0,0,1,0,0,0,0,0,0,0,1,1,1,0,0,0,0,0,0,0,0,0,0,0,0],"id":5,"left_children":[1,3,5,7,9,11,13,15,17,19,21,23,-1,25,27,29,-1,31,-1,33,35,37,39,-1,-1,-1,41,-1,-1,-1,-1,-1,-1,-1,43,45,47,-1,-1,-1,-1,-1,-1,-1,-1,-1,-1,-1,-1],"loss_changes":[3.7952525E5,1.0008025E5,1.78957E5,4.8968438E3,6.7236E4,1.0297875E4,1.2114725E5,3.5436523E2,3.2218438E3,9.312375E3,1.1390625E4,2.7661328E2,0E0,2.345175E4,2.5719375E4,3.3108594E2,0E0,8.227734E1,0E0,1.839375E3,8.870625E3,2.2350625E3,3.915125E3,0E0,0E0,0E0,4.187E3,0E0,0E0,0E0,0E0,0E0,0E0,0E0,8.565469E2,2.0103125E3,8.5809375E2,0E0,0E0,0E0,0E0,0E0,0E0,0E0,0E0,0E0,0E0,0E0,0E0],"parents":[2147483647,0,0,1,1,2,2,3,3,4,4,5,5,6,6,7,7,8,8,9,9,10,10,11,11,13,13,14,14,15,15,17,17,19,19,20,20,21,21,22,22,26,26,34,34,35,35,36,36],"right_children":[2,4,6,8,10,12,14,16,18,20,22,24,-1,26,28,30,-1,32,-1,34,36,38,40,-1,-1,-1,42,-1,-1,-1,-1,-1,-1,-1,44,46,48,-1,-1,-1,-1,-1,-1,-1,-1,-1,-1,-1,-1],"split_conditions":[4E0,2.5E0,2.5E0,3.55E1,6.45E1,3.3E1,6.65E1,2.51E2,9.65E1,2.5E0,2.5E0,5E0,2.9702852E1,3.15E1,8.95E1,2.2E1,2.0127754E0,2.8E1,1.8144413E1,4E0,1.6E1,1.035E2,4E0,4.356084E0,1.6939013E1,3.473241E1,4E0,3.8032795E1,7.746132E1,2.1627755E0,1.0701968E1,4.5392275E0,1.1510224E1,1.454362E1,6.1E1,3.05E1,4E0,2.0368961E1,3.200609E1,3.3031E1,4.7009888E1,4.0047947E1,5.867899E1,2.133523E1,4.9548664E0,2.2395723E0,1.8676634E1,2.391851E1,3.265333E1],"split_indices":[5,6,6,2,2,2,2,3,4,5,5,2,0,2,4,4,0,3,0,6,2,4,6,0,0,0,6,0,0,0,0,0,0,0,2,4,6,0,0,0,0,0,0,0,0,0,0,0,0],"split_type":[0,0,0,0,0,0,0,0,0,0,0,0,0,0,0,0,0,0,0,0,0,0,0,0,0,0,0,0,0,0,0,0,0,0,0,0,0,0,0,0,0,0,0,0,0,0,0,0,0],"sum_hessian":[3.71E2,2.51E2,1.2E2,7.4E1,1.77E2,3.5E1,8.5E1,2.7E1,4.7E1,1.11E2,6.6E1,1.3E1,2.2E1,6.1E1,2.4E1,2.6E1,1E0,1.4E1,3.3E1,4.9E1,6.2E1,2.8E1,3.8E1,1E0,1.2E1,3E1,3.1E1,5E0,1.9E1,1E0,2.5E1,2E0,1.2E1,2E1,2.9E1,1.8E1,4.4E1,1.1E1,1.7E1,2.2E1,1.6E1,1.6E1,1.5E1,2.8E1,1E0,1E0,1.7E1,2.5E1,1.9E1],"tree_param":{"num_deleted":"0","num_feature":"9","num_nodes":"49","size_leaf_vector":"0"}},{"base_weights":[7.300301E1,5.6706707E1,1.0633909E2,3.384247E1,6.602194E1,8.357322E1,1.5035065E2,2.665421E1,4.129607E1,5.4174232E1,8.484166E1,5.6455864E1,9.813216E1,1.22591545E2,2.1238905E2,2.3210123E1,3.500986E1,3.214062E1,5.431756E1,4.5340088E1,6.219873E1,6.612188E1,9.6586075E1,4.2098316E1,6.580336E1,7.035097E1,1.1468229E2,7.428465E1,1.3678111E2,8.729268E0,2.3884539E1,7.0971527E0,3.2956364E1,2.9581285E1,4.9782925E1,4.976988E1,7.37049E1,5.1816856E1,7.974216E1,9.824826E1,1.6711395E1,9.399246E0,4.376259E1,6.79251E1,1.5927734E1,7.481582E1,3.1555183E1,2.461513E1,9.104172E0,3.390046E1,9.228447E0,3.6982845E1,5.672979E1,8.263901E0,5.091616E1,4.189961E1,7.9028854E1,1.2342239E1,4.5230137E1],"categories":[],"categories_nodes":[],"categories_segments":[],"categories_sizes":[],"default_left":[1,1,1,1,1,1,1,1,1,1,1,1,1,1,0,1,0,1,0,1,1,1,1,1,1,1,0,0,0,0,1,0,0,1,1,1,1,0,0,0,0,0,1,0,0,0,0,0,0,0,0,0,0,0,0,0,0,0,0],"id":6,"left_children":[1,3,5,7,9,11,13,15,17,19,21,23,25,27,-1,29,-1,31,-1,33,35,37,39,41,43,45,-1,-1,-1,-1,47,-1,-1,49,51,53,55,-1,-1,-1,-1,-1,57,-1,-1,-1,-1,-1,-1,-1,-1,-1,-1,-1,-1,-1,-1,-1,-1],"loss_changes":[1.9606062E5,5.1438062E4,1.08672E5,2.917664E3,3.50925E4,2.6833438E4,4.2848125E4,3.6729883E2,2.4268164E3,5.1195E3,8.3436875E3,1.3902109E3,1.5840719E4,1.0402875E4,0E0,1.0401953E2,0E0,2.359707E2,0E0,2.5181484E3,4.340203E3,1.5183281E3,3.5360312E3,4.049668E2,7.1709375E2,1.4499609E3,0E0,0E0,0E0,0E0,9.985156E1,0E0,0E0,1.00576465E3,1.7255547E3,1.0065547E3,1.2606406E3,0E0,0E0,0E0,0E0,0E0,8.731055E1,0E0,0E0,0E0,0E0,0E0,0E0,0E0,0E0,0E0,0E0,0E0,0E0,0E0,0E0,0E0,0E0],"parents":[2147483647,0,0,1,1,2,2,3,3,4,4,5,5,6,6,7,7,8,8,9,9,10,10,11,11,12,12,13,13,15,15,17,17,19,19,20,20,21,21,22,22,23,23,24,24,25,25,30,30,33,33,34,34,35,35,36,36,42,42],"right_children":[2,4,6,8,10,12,14,16,18,20,22,24,26,28,-1,30,-1,32,-1,34,36,38,40,42,44,46,-1,-1,-1,-1,48,-1,-1,50,52,54,56,-1,-1,-1,-1,-1,58,-1,-1,-1,-1,-1,-1,-1,-1,-1,-1,-1,-1,-1,-1,-1,-1],"split_conditions":[4E0,2.5E0,4E0,2.5E0,6.45E1,3.5E1,6.2E1,6.55E1,1.565E2,4E0,9.9E1,2.5E0,2.5E0,1.95E1,6.3716717E1,5.5E0,1.0502958E1,3.7E1,1.6295269E1,1.6E1,2.5E0,4E0,2.53E2,4.5E1,2.5E0,2.5E0,3.440469E1,2.2285397E1,4.1034336E1,2.6187806E0,2.51E2,2.1291459E0,9.8869095E0,1.455E2,2.5E0,5E0,8E0,1.5545057E1,2.3922647E1,2.947448E1,5.0134187E0,2.819774E0,5E0,2.0377531E1,4.7783203E0,2.2444746E1,9.466556E0,7.384539E0,2.7312517E0,1.0170138E1,2.7685342E0,1.1094854E1,1.7018938E1,2.4791703E0,1.5274849E1,1.2569883E1,2.3708656E1,3.702672E0,1.3569041E1],"split_indices":[5,6,6,5,2,2,2,2,4,6,4,6,6,2,0,2,0,4,0,2,5,6,3,4,8,7,0,0,0,0,3,0,0,4,5,2,2,0,0,0,0,0,2,0,0,0,0,0,0,0,0,0,0,0,0,0,0,0,0],"split_type":[0,0,0,0,0,0,0,0,0,0,0,0,0,0,0,0,0,0,0,0,0,0,0,0,0,0,0,0,0,0,0,0,0,0,0,0,0,0,0,0,0,0,0,0,0,0,0,0,0,0,0,0,0,0,0,0,0,0,0],"sum_hessian":[3.71E2,2.51E2,1.2E2,7.4E1,1.77E2,8.1E1,3.9E1,4E1,3.4E1,1.11E2,6.6E1,3E1,5.1E1,2.9E1,1E1,3.1E1,9E0,2.2E1,1.2E1,5.6E1,5.5E1,2.8E1,3.8E1,1.4E1,1.6E1,2.1E1,3E1,8E0,2.1E1,2E0,2.9E1,1E0,2.1E1,1.4E1,4.2E1,2.9E1,2.6E1,1.6E1,1.2E1,3.7E1,1E0,1E0,1.3E1,1.5E1,1E0,1.8E1,3E0,2.7E1,2E0,1.1E1,3E0,1.7E1,2.5E1,1E0,2.8E1,5E0,2.1E1,1E0,1.2E1],"tree_param":{"num_deleted":"0","num_feature":"9","num_nodes":"59","size_leaf_vector":"0"}},{"base_weights":[5.233649E1,4.057005E1,7.640927E1,3.2497868E1,5.449448E1,5.9861797E1,1.08421364E2,2.306726E1,3.924673E1,4.173753E1,6.776416E1,4.859324E1,8.2263565E1,6.692642E1,1.2819069E2,1.5810331E1,2.6063972E1,3.2428154E1,5.123127E1,2.9539265E1,4.6250317E1,5.429813E1,9.466283E1,3.0547024E1,5.272674E1,6.377901E1,1.1588143E2,1.779181E1,6.91652E1,1.02115326E2,1.544648E2,1.72477E1,4.6709023E0,2.1125893E1,3.248915E1,2.8117E1,4.4061966E1,3.941869E1,5.82289E1,3.6098724E1,2.0426493E1,3.1424704E1,5.7488224E1,2.2936646E1,9.872862E1,5.892683E1,3.9048542E1,9.304861E1,5.030697E1,2.4355927E0,1.7899096E1,7.1815796E0,2.186543E1,2.9014791E1,1.0987587E1,6.958954E0,4.1240177E1,3.854569E1,9.484985E0,2.9849854E0,2.2233559E1],"categories":[],"categories_nodes":[],"categories_segments":[],"categories_sizes":[],"default_left":[1,1,1,1,1,1,1,1,1,1,1,1,1,1,1,1,1,1,1,1,0,1,1,0,1,0,0,0,1,0,0,1,0,1,0,1,0,1,0,1,1,0,0,0,0,0,0,0,0,0,0,0,0,0,0,0,0,0,0,0,0],"id":7,"left_children":[1,3,5,7,9,11,13,15,17,19,21,23,25,27,29,31,33,35,37,39,-1,41,43,-1,45,-1,-1,-1,47,-1,-1,49,-1,51,-1,53,-1,55,-1,57,59,-1,-1,-1,-1,-1,-1,-1,-1,-1,-1,-1,-1,-1,-1,-1,-1,-1,-1,-1,-1],"loss_changes":[1.0226944E5,2.6554E4,5.7605688E4,9.405328E3,1.2576219E4,1.6702281E4,2.4233719E4,1.110207E3,5.938375E3,1.3311562E3,1.0435375E4,2.6412188E3,8.765891E3,4.194375E2,2.0395938E3,2.8770166E2,8.36584E2,1.8707305E3,3.498203E2,2.1902734E2,0E0,4.5546875E2,1.5266094E3,0E0,1.5152656E3,0E0,0E0,0E0,1.6245938E3,0E0,0E0,1.4937646E2,0E0,1.5234277E2,0E0,4.19375E2,0E0,5.9988477E2,0E0,1.5537695E2,2.1729468E2,0E0,0E0,0E0,0E0,0E0,0E0,0E0,0E0,0E0,0E0,0E0,0E0,0E0,0E0,0E0,0E0,0E0,0E0,0E0,0E0],"parents":[2147483647,0,0,1,1,2,2,3,3,4,4,5,5,6,6,7,7,8,8,9,9,10,10,11,11,12,12,13,13,14,14,15,15,16,16,17,17,18,18,19,19,21,21,22,22,24,24,28,28,31,31,33,33,35,35,37,37,39,39,40,40],"right_children":[2,4,6,8,10,12,14,16,18,20,22,24,26,28,30,32,34,36,38,40,-1,42,44,-1,46,-1,-1,-1,48,-1,-1,50,-1,52,-1,54,-1,56,-1,58,60,-1,-1,-1,-1,-1,-1,-1,-1,-1,-1,-1,-1,-1,-1,-1,-1,-1,-1,-1,-1],"split_conditions":[4E0,4E0,4E0,2.5E0,2.5E0,6.4E1,3.05E1,3.3E1,6.4E1,3.3E1,7.55E1,1.85E1,1.725E2,3.5E0,6.2E1,2.41E2,1.67E2,1.665E2,1.36E2,1.195E2,1.3875095E1,8E0,2.8E1,9.164107E0,1.5E0,1.9133703E1,3.476443E1,5.337543E0,8.15E1,3.06346E1,4.633944E1,2.15E1,1.4012707E0,2E1,9.746746E0,5.95E1,1.3218591E1,6.8E1,1.7468672E1,3.05E1,1.29E2,9.427411E0,1.7246468E1,6.880994E0,2.9618587E1,1.767805E1,1.1714563E1,2.7914583E1,1.5092092E1,7.3067784E-1,5.369729E0,2.154474E0,6.5596294E0,8.704438E0,3.2962763E0,2.0876863E0,1.2372054E1,1.1563707E1,2.8454957E0,8.9549565E-1,6.670068E0],"split_indices":[5,6,6,5,5,2,2,2,2,2,2,2,4,2,2,3,4,4,4,4,0,2,3,0,7,0,0,0,4,0,0,4,0,3,0,2,0,2,0,2,4,0,0,0,0,0,0,0,0,0,0,0,0,0,0,0,0,0,0,0,0],"split_type":[0,0,0,0,0,0,0,0,0,0,0,0,0,0,0,0,0,0,0,0,0,0,0,0,0,0,0,0,0,0,0,0,0,0,0,0,0,0,0,0,0,0,0,0,0,0,0,0,0,0,0,0,0,0,0,0,0,0,0,0,0],"sum_hessian":[3.71E2,2.51E2,1.2E2,1.61E2,9E1,8.1E1,3.9E1,6.9E1,9.2E1,4.8E1,4.2E1,5.6E1,2.5E1,1.4E1,2.5E1,2.2E1,4.7E1,6.1E1,3.1E1,1.5E1,3.3E1,3E1,1.2E1,1.2E1,4.4E1,1.8E1,7E0,1E0,1.3E1,1.5E1,1E1,1.9E1,3E0,2.9E1,1.8E1,4.7E1,1.4E1,1.4E1,1.7E1,7E0,8E0,5E0,2.5E1,1E0,1.1E1,2.8E1,1.6E1,4E0,9E0,1E0,1.8E1,2E0,2.7E1,4.4E1,3E0,1E0,1.3E1,6E0,1E0,1E0,7E0],"tree_param":{"num_deleted":"0","num_feature":"9","num_nodes":"61","size_leaf_vector":"0"}},{"base_weights":[3.771056E1,2.9121786E1,5.5286266E1,1.6133692E1,3.443069E1,4.3030758E1,7.90279E1,1.3566016E1,2.4095993E1,2.798742E1,4.4687645E1,2.8742546E1,5.3059372E1,6.417993E1,1.12338005E2,1.02979765E1,1.4977883E1,7.5085754E0,2.7114115E1,2.261027E1,3.1810751E1,3.9376766E1,6.8145134E1,1.8380062E1,3.924296E1,4.1486687E1,7.104136E1,3.2352165E1,7.078887E1,2.500407E0,1.0987173E1,2.0445698E1,1.3364168E1,1.4653625E0,9.034526E0,2.36346E1,4.921829E0,1.7704046E1,3.4138355E1,3.0473558E1,4.5380104E1,2.0698416E1,-1.6567383E0,1.7079062E1,4.705467E1,4.3350773E1,9.638306E0,7.794539E1,3.8882618E1,4.197867E1,-1.270343E1,3.4260864E1,7.437569E1,1.1508518E1,8.0148315E-1,9.745225E0,1.6196985E1,3.6892853E0,2.3987991E1,-5.361786E-1,6.9198914E0,-2.6812744E-1,2.1727654E1,3.988174E1,2.8775896E1,8.678513E0,4.6284073E1,2.684204E0,2.160018E1,-4.2425537E0,1.7574463E0,1.8421192E1,5.184204E0,1.9651073E1,4.635668E1],"categories":[],"categories_nodes":[],"categories_segments":[],"categories_sizes":[],"default_left":[1,1,1,1,1,1,1,1,1,1,1,1,1,1,0,1,1,1,0,1,1,1,0,1,1,1,1,1,1,0,1,0,1,0,0,1,1,1,1,0,1,1,1,1,0,1,0,0,0,0,0,0,0,0,0,0,0,0,0,0,0,0,0,0,0,0,0,0,0,0,0,0,0,0,0],"id":8,"left_children":[1,3,5,7,9,11,13,15,17,19,21,23,25,27,-1,29,31,33,-1,35,37,39,-1,41,43,45,47,49,51,-1,53,-1,55,-1,-1,57,59,61,63,-1,65,67,69,71,-1,73,-1,-1,-1,-1,-1,-1,-1,-1,-1,-1,-1,-1,-1,-1,-1,-1,-1,-1,-1,-1,-1,-1,-1,-1,-1,-1,-1,-1,-1],"loss_changes":[5.4544812E4,1.6820547E4,3.1806219E4,1.2064609E3,1.0513047E4,1.02248125E4,1.2573625E4,1.1798633E2,6.474785E2,1.5833125E3,5.6635156E3,3.1958867E3,6.833422E3,4.0202578E3,0E0,8.538281E1,7.087695E1,2.364772E1,0E0,7.8961523E2,1.4642031E3,1.6637031E3,0E0,9.6333887E2,2.1396953E3,1.4225859E3,7.436953E2,3.5693672E3,5.9628906E2,0E0,9.167114E1,0E0,1.8046631E2,0E0,0E0,2.427793E2,4.733206E1,8.0126855E2,4.8469922E2,0E0,6.599922E2,2.3442334E2,3.3941414E1,2.874756E-1,0E0,1.1549766E3,0E0,0E0,0E0,0E0,0E0,0E0,0E0,0E0,0E0,0E0,0E0,0E0,0E0,0E0,0E0,0E0,0E0,0E0,0E0,0E0,0E0,0E0,0E0,0E0,0E0,0E0,0E0,0E0,0E0],"parents":[2147483647,0,0,1,1,2,2,3,3,4,4,5,5,6,6,7,7,8,8,9,9,10,10,11,11,12,12,13,13,15,15,16,16,17,17,19,19,20,20,21,21,23,23,24,24,25,25,26,26,27,27,28,28,30,30,32,32,35,35,36,36,37,37,38,38,40,40,41,41,42,42,43,43,45,45],"right_children":[2,4,6,8,10,12,14,16,18,20,22,24,26,28,-1,30,32,34,-1,36,38,40,-1,42,44,46,48,50,52,-1,54,-1,56,-1,-1,58,60,62,64,-1,66,68,70,72,-1,74,-1,-1,-1,-1,-1,-1,-1,-1,-1,-1,-1,-1,-1,-1,-1,-1,-1,-1,-1,-1,-1,-1,-1,-1,-1,-1,-1,-1,-1],"split_conditions":[4E0,2.5E0,4E0,1.955E2,6.45E1,2.5E0,6.2E1,2.85E1,4.2E1,2.5E0,2.09E2,1.46E2,6.4E1,1.65E1,3.3701405E1,3.6E1,5.45E1,1.6E1,8.134234E0,6.2E1,8.5E0,2.5E0,2.044354E1,1.15E2,2.6E1,5.95E1,1.5E0,1.45E1,6.25E1,7.5012213E-1,2.5E0,6.1337094E0,1.285E2,4.3960878E-1,2.710358E0,5E0,8.1E1,4.9E1,8.9E1,9.142068E0,1.7E1,1.15E1,2.65E1,2E0,1.4116401E1,8.5E0,2.891492E0,2.3383617E1,1.1664785E1,1.2593601E1,-3.8110292E0,1.0278259E1,2.2312706E1,3.4525557E0,2.4044496E-1,2.9235675E0,4.8590956E0,1.1067857E0,7.196398E0,-1.6085358E-1,2.0759676E0,-8.0438234E-2,6.5182962E0,1.1964522E1,8.63277E0,2.6035538E0,1.3885222E1,8.0526125E-1,6.4800544E0,-1.2727661E0,5.272339E-1,5.5263577E0,1.5552613E0,5.8953223E0,1.3907005E1],"split_indices":[5,6,6,4,2,6,2,2,2,5,4,4,2,2,0,4,4,2,0,2,2,5,0,4,2,2,8,2,3,0,7,0,4,0,0,2,3,3,3,0,3,2,2,7,0,2,0,0,0,0,0,0,0,0,0,0,0,0,0,0,0,0,0,0,0,0,0,0,0,0,0,0,0,0,0],"split_type":[0,0,0,0,0,0,0,0,0,0,0,0,0,0,0,0,0,0,0,0,0,0,0,0,0,0,0,0,0,0,0,0,0,0,0,0,0,0,0,0,0,0,0,0,0,0,0,0,0,0,0,0,0,0,0,0,0,0,0,0,0,0,0,0,0,0,0,0,0,0,0,0,0,0,0],"sum_hessian":[3.71E2,2.51E2,1.2E2,7.4E1,1.77E2,8.1E1,3.9E1,5.8E1,1.6E1,1.11E2,6.6E1,3.5E1,4.6E1,2.9E1,1E1,2E1,3.8E1,3E0,1.3E1,4.9E1,6.2E1,5.6E1,1E1,1.9E1,1.6E1,3E1,1.6E1,6E0,2.3E1,2E0,1.8E1,6E0,3.2E1,1E0,2E0,4.6E1,3E0,1E1,5.2E1,2.5E1,3.1E1,1.7E1,2E0,5E0,1.1E1,2.8E1,2E0,1.2E1,4E0,5E0,1E0,3E0,2E1,1.7E1,1E0,1.6E1,1.6E1,1E0,4.5E1,1E0,2E0,2E0,8E0,2.2E1,3E1,1E0,3E1,1E0,1.6E1,1E0,1E0,4E0,1E0,4E0,2.4E1],"tree_param":{"num_deleted":"0","num_feature":"9","num_nodes":"75","size_leaf_vector":"0"}},{"base_weights":[2.7132677E1,2.0833548E1,4.0027287E1,1.5853637E1,2.9469944E1,3.116398E1,5.719639E1,1.0993971E1,1.934098E1,2.1726402E1,3.760863E1,2.5408587E1,4.773527E1,4.7948032E1,9.3946045E1,7.2322726E0,1.256741E1,1.6961409E1,3.398964E1,1.826324E1,2.9911827E1,2.9210878E1,5.474107E1,1.8342659E1,3.053725E1,2.9729237E1,6.2768383E1,2.390115E1,5.2247326E1,2.1635193E1,1.0239199E2,1.0333773E1,2.9093835E0,9.538525E0,1.668842E1,8.06322E0,1.8674812E1,7.761088E0,3.845924E1,1.1854831E1,2.0197659E1,3.6993954E1,2.2348202E1,3.405755E1,6.760444E1,1.2419939E1,2.3801294E1,4.3382523E1,2.5776556E1,1.3028369E1,3.7411396E1,3.1483978E1,-1.0797913E1,8.0917114E1,4.692976E1,2.8305054E0,1.23017025E1,-7.090861E-1,6.042956E0,1.6361565E1,7.5194535E0,1.8614016E1,1.0728251E1,-9.079132E-1,1.0381663E1,1.3303295E1,2.2102291E1,1.9167871E1,4.937683E0,2.940155E0,2.0748325E1,3.831152E1,1.0591583E1,6.1968994E-1,2.3520914E1,1.4495978E1,-1.4082235E0,9.236633E0,2.6933779E1,5.3913734E1,1.9372879E1,1.2511461E1,3.0457022E1,-6.430257E-1,2.2356974E1,8.826233E0,3.4250282E1,2.830809E1,5.2300476E1],"categories":[],"categories_nodes":[],"categories_segments":[],"categories_sizes":[],"default_left":[1,1,1,1,1,1,1,1,1,1,1,1,1,1,1,1,1,1,1,1,0,1,1,1,1,1,0,1,1,0,0,1,1,1,1,1,1,0,0,1,1,1,1,0,0,1,1,1,1,1,0,1,0,0,1,0,0,0,0,0,0,0,0,0,0,0,0,0,0,0,0,0,0,0,0,0,0,0,0,0,0,0,0,0,0,0,0,0,0],"id":9,"left_children":[1,3,5,7,9,11,13,15,17,19,21,23,25,27,29,31,33,35,37,39,-1,41,43,45,47,49,-1,51,53,-1,-1,55,57,59,61,63,65,-1,-1,67,69,71,73,-1,-1,75,77,79,81,83,-1,85,-1,-1,87,-1,-1,-1,-1,-1,-1,-1,-1,-1,-1,-1,-1,-1,-1,-1,-1,-1,-1,-1,-1,-1,-1,-1,-1,-1,-1,-1,-1,-1,-1,-1,-1,-1,-1],"loss_changes":[2.9381719E4,1.037093E4,1.6630703E4,2.532836E3,4.9179297E3,6.6078125E3,9.090422E3,3.234248E2,2.6652383E3,8.427363E2,4.587547E3,1.7229062E3,3.5476758E3,2.2663047E3,2.0598672E3,2.7830627E2,4.3995654E2,1.0996074E3,1.1082871E3,2.1923242E2,0E0,8.290449E2,1.1563359E3,6.4195703E2,1.02208203E3,9.2387695E2,0E0,2.1817805E3,4.7127344E2,0E0,0E0,1.5713672E2,1.2901108E2,2.9025586E2,1.8364746E1,3.214115E2,9.579004E2,0E0,0E0,4.617943E2,1.9558105E2,4.644922E1,4.6956836E2,0E0,0E0,4.7973853E2,3.8995264E2,9.783408E2,1.3573691E3,6.520514E2,0E0,7.376807E1,0E0,0E0,1.1197812E3,0E0,0E0,0E0,0E0,0E0,0E0,0E0,0E0,0E0,0E0,0E0,0E0,0E0,0E0,0E0,0E0,0E0,0E0,0E0,0E0,0E0,0E0,0E0,0E0,0E0,0E0,0E0,0E0,0E0,0E0,0E0,0E0,0E0,0E0],"parents":[2147483647,0,0,1,1,2,2,3,3,4,4,5,5,6,6,7,7,8,8,9,9,10,10,11,11,12,12,13,13,14,14,15,15,16,16,17,17,18,18,19,19,21,21,22,22,23,23,24,24,25,25,27,27,28,28,31,31,32,32,33,33,34,34,35,35,36,36,39,39,40,40,41,41,42,42,45,45,46,46,47,47,48,48,49,49,51,51,54,54],"right_children":[2,4,6,8,10,12,14,16,18,20,22,24,26,28,30,32,34,36,38,40,-1,42,44,46,48,50,-1,52,54,-1,-1,56,58,60,62,64,66,-1,-1,68,70,72,74,-1,-1,76,78,80,82,84,-1,86,-1,-1,88,-1,-1,-1,-1,-1,-1,-1,-1,-1,-1,-1,-1,-1,-1,-1,-1,-1,-1,-1,-1,-1,-1,-1,-1,-1,-1,-1,-1,-1,-1,-1,-1,-1,-1],"split_conditions":[4E0,4E0,4E0,2.5E0,2.5E0,7.55E1,7.75E1,3.3E1,2.085E2,1.895E2,7.55E1,2.5E0,1.54E2,1.65E1,1.055E2,1.585E2,1.67E2,1.6E1,3E1,2.5E1,8.973549E0,8.45E1,1.425E2,1.46E2,5.1E1,2.5E0,1.8830515E1,1.45E1,1.75E1,6.490558E0,3.0717598E1,4.75E1,1.88E2,2.75E1,2.355E2,4.4E1,2.5E0,2.3283265E0,1.1537772E1,1.195E2,2.7E1,2.5E0,6.4E1,1.0217265E1,2.0281332E1,1.15E2,1.3E1,1.575E2,1.09E2,5.1E1,1.1223419E1,3.5E0,-3.239374E0,2.4275135E1,3.1E1,8.491517E-1,3.690511E0,-2.1272585E-1,1.8128868E0,4.9084697E0,2.2558362E0,5.5842047E0,3.2184756E0,-2.7237397E-1,3.114499E0,3.9909887E0,6.6306877E0,5.7503614E0,1.481305E0,8.820465E-1,6.224498E0,1.1493456E1,3.1774752E0,1.8590699E-1,7.0562744E0,4.3487935E0,-4.2246708E-1,2.7709901E0,8.080134E0,1.6174122E1,5.811864E0,3.7534385E0,9.137107E0,-1.9290772E-1,6.7070923E0,2.64787E0,1.0275085E1,8.492428E0,1.5690144E1],"split_indices":[5,6,6,5,5,2,2,2,4,4,2,6,4,2,4,4,4,2,2,2,0,3,4,4,4,6,0,2,4,0,0,4,4,4,4,4,6,0,0,4,4,8,4,0,0,4,2,3,4,4,0,2,0,0,2,0,0,0,0,0,0,0,0,0,0,0,0,0,0,0,0,0,0,0,0,0,0,0,0,0,0,0,0,0,0,0,0,0,0],"split_type":[0,0,0,0,0,0,0,0,0,0,0,0,0,0,0,0,0,0,0,0,0,0,0,0,0,0,0,0,0,0,0,0,0,0,0,0,0,0,0,0,0,0,0,0,0,0,0,0,0,0,0,0,0,0,0,0,0,0,0,0,0,0,0,0,0,0,0,0,0,0,0,0,0,0,0,0,0,0,0,0,0,0,0,0,0,0,0,0,0],"sum_hessian":[3.71E2,2.51E2,1.2E2,1.61E2,9E1,8.1E1,3.9E1,6.9E1,9.2E1,4.8E1,4.2E1,6.2E1,1.9E1,3.3E1,6E0,2.2E1,4.7E1,8.1E1,1.1E1,3.6E1,1.2E1,3E1,1.2E1,2.8E1,3.4E1,1E1,9E0,6E0,2.7E1,1E0,5E0,1.2E1,1E1,2.9E1,1.8E1,1.4E1,6.7E1,2E0,9E0,1E1,2.6E1,1.2E1,1.8E1,6E0,6E0,1.5E1,1.3E1,7E0,2.7E1,4E0,6E0,5E0,1E0,2E0,2.5E1,3E0,9E0,5E0,5E0,5E0,2.4E1,1.2E1,6E0,3E0,1.1E1,2.8E1,3.9E1,4E0,6E0,1E0,2.5E1,1.1E1,1E0,1E0,1.7E1,1.3E1,2E0,3E0,1E1,4E0,3E0,8E0,1.9E1,2E0,2E0,1E0,4E0,7E0,1.8E1],"tree_param":{"num_deleted":"0","num_feature":"9","num_nodes":"89","size_leaf_vector":"0"}},{"base_weights":[1.9817421E1,1.5080152E1,2.9519688E1,1.2022139E1,2.3516037E1,1.4936848E1,3.528088E1,6.858057E0,1.4590518E1,1.7847424E1,3.764082E1,9.7571535E0,2.0151968E1,2.9152107E1,5.5358547E1,5.15352E0,8.506322E0,1.2005062E1,1.9018503E1,2.6579659E1,1.5759201E1,2.2009388E1,5.0826763E1,1.9455627E1,6.116558E0,9.056727E0,2.4020258E1,6.295348E1,2.6055874E1,3.2541313E1,6.89946E1,-5.7373047E-2,5.4809937E0,4.348719E0,1.0575567E1,1.9307854E1,9.763573E0,1.4115642E1,2.3279747E1,2.8970877E1,4.9205627E0,8.4842005E0,2.0366833E1,5.376343E0,2.3260132E1,1.0174835E1,5.46364E1,8.409058E0,2.4016989E1,2.6380222E0,2.0310873E1,1.7601776E0,1.0164001E1,2.139244E1,4.1182957E1,-7.68837E-1,6.827774E-1,6.476908E0,3.5272028E0,-8.759918E-1,4.9033284E0,1.1146141E1,-1.3265991E-1,1.2451845E1,3.464311E1,1.5117283E1,7.9621873E0,5.130066E0,1.5737338E1,1.2277222E1,2.5793594E1,4.4342856E0,1.4214883E1,9.670796E0,2.2557302E1,5.536644E0,-9.835805E0,1.1194466E1,3.0210724E0,1.4269077E1,2.6304337E1,1.4046417E1,4.7306885E1],"categories":[],"categories_nodes":[],"categories_segments":[],"categories_sizes":[],"default_left":[1,1,1,1,1,1,1,1,1,1,1,1,1,1,1,1,1,1,1,1,1,1,1,1,1,1,0,0,1,0,0,1,1,1,1,1,1,1,1,0,0,1,1,0,0,0,0,0,0,1,0,0,1,1,1,0,0,0,0,0,0,0,0,0,0,0,0,0,0,0,0,0,0,0,0,0,0,0,0,0,0,0,0],"id":10,"left_children":[1,3,5,7,9,11,13,15,17,19,21,23,25,27,29,31,33,35,37,39,41,43,45,47,49,51,-1,-1,53,-1,-1,55,57,59,61,63,65,67,69,-1,-1,71,73,-1,-1,-1,-1,-1,-1,75,-1,-1,77,79,81,-1,-1,-1,-1,-1,-1,-1,-1,-1,-1,-1,-1,-1,-1,-1,-1,-1,-1,-1,-1,-1,-1,-1,-1,-1,-1,-1,-1],"loss_changes":[1.6652797E4,6.2181484E3,9.638773E3,2.3801777E3,4.6126914E3,7.7583203E2,8.968594E3,1.3597241E2,1.1912793E3,4.746328E2,2.5914082E3,5.8716284E2,5.1208887E2,5.476367E3,3.6664297E3,5.833307E1,2.2070581E2,1.1373867E3,5.9065137E2,2.7178027E2,1.2350654E3,8.298193E1,8.379043E2,4.9976685E1,7.3642633E2,3.0585236E1,0E0,0E0,3.6338203E3,0E0,0E0,2.1047156E0,3.942047E1,3.9067368E1,1.2367529E2,1.4611245E3,4.9685596E2,2.5441992E2,2.918164E2,0E0,0E0,3.5472522E2,3.675869E2,0E0,0E0,0E0,0E0,0E0,0E0,5.60654E2,0E0,0E0,2.9833984E0,1.4091113E3,1.6620586E3,0E0,0E0,0E0,0E0,0E0,0E0,0E0,0E0,0E0,0E0,0E0,0E0,0E0,0E0,0E0,0E0,0E0,0E0,0E0,0E0,0E0,0E0,0E0,0E0,0E0,0E0,0E0,0E0],"parents":[2147483647,0,0,1,1,2,2,3,3,4,4,5,5,6,6,7,7,8,8,9,9,10,10,11,11,12,12,13,13,14,14,15,15,16,16,17,17,18,18,19,19,20,20,21,21,22,22,23,23,24,24,25,25,28,28,31,31,32,32,33,33,34,34,35,35,36,36,37,37,38,38,41,41,42,42,49,49,52,52,53,53,54,54],"right_children":[2,4,6,8,10,12,14,16,18,20,22,24,26,28,30,32,34,36,38,40,42,44,46,48,50,52,-1,-1,54,-1,-1,56,58,60,62,64,66,68,70,-1,-1,72,74,-1,-1,-1,-1,-1,-1,76,-1,-1,78,80,82,-1,-1,-1,-1,-1,-1,-1,-1,-1,-1,-1,-1,-1,-1,-1,-1,-1,-1,-1,-1,-1,-1,-1,-1,-1,-1,-1,-1],"split_conditions":[4E0,7.25E1,2.5E0,2.5E0,1.845E2,1.46E2,7.55E1,2.5E0,1.705E2,2.25E1,2.5E0,4.7E1,2.6E1,2.1E1,1.59E2,5.5E0,1.325E2,4.6E1,2.5E0,2.065E2,7.4E1,7.65E1,7.5E1,2.8E1,2.145E2,5E0,7.2060776E0,1.8886045E1,1.97E2,9.762394E0,2.069838E1,1.325E2,4.35E1,1.25E1,7E1,4E0,4.5E1,3.2E1,2.75E1,8.691263E0,1.4761689E0,4E0,2.5E0,1.6129029E0,6.9780397E0,3.0524507E0,1.639092E1,2.5227175E0,7.2050967E0,1.505E2,6.093262E0,5.280533E-1,2E0,3.2E1,1.15E1,-2.306511E-1,2.0483322E-1,1.9430726E0,1.0581609E0,-2.6279756E-1,1.4709985E0,3.3438425E0,-3.9797977E-2,3.7355537E0,1.0392933E1,4.535185E0,2.3886564E0,1.5390198E0,4.7212014E0,3.6831667E0,7.7380786E0,1.3302858E0,4.264465E0,2.901239E0,6.767191E0,1.6609932E0,-2.9507415E0,3.3583398E0,9.0632176E-1,4.2807236E0,7.891301E0,4.2139254E0,1.4192066E1],"split_indices":[5,2,6,6,4,4,2,5,4,4,5,3,2,4,4,2,3,4,5,3,4,2,2,3,3,2,0,0,4,0,0,3,2,2,2,6,3,2,2,0,0,6,6,0,0,0,0,0,0,3,0,0,7,2,2,0,0,0,0,0,0,0,0,0,0,0,0,0,0,0,0,0,0,0,0,0,0,0,0,0,0,0,0],"split_type":[0,0,0,0,0,0,0,0,0,0,0,0,0,0,0,0,0,0,0,0,0,0,0,0,0,0,0,0,0,0,0,0,0,0,0,0,0,0,0,0,0,0,0,0,0,0,0,0,0,0,0,0,0,0,0,0,0,0,0,0,0,0,0,0,0,0,0,0,0,0,0,0,0,0,0,0,0,0,0,0,0,0,0],"sum_hessian":[3.71E2,2.51E2,1.2E2,1.86E2,6.5E1,3.5E1,8.5E1,6.3E1,1.23E2,4.8E1,1.7E1,1.9E1,1.6E1,6.7E1,1.8E1,3.3E1,3E1,8E1,4.3E1,7E0,4.1E1,9E0,8E0,4E0,1.5E1,5E0,1.1E1,4E0,6.3E1,8E0,1E1,2E0,3.1E1,1.1E1,1.9E1,1.7E1,6.3E1,2.2E1,2.1E1,6E0,1E0,1.7E1,2.4E1,1E0,8E0,1E0,7E0,2E0,2E0,1.3E1,2E0,1E0,4E0,5E1,1.3E1,1E0,1E0,1.9E1,1.2E1,1E0,1E1,1.8E1,1E0,1.3E1,4E0,1.4E1,4.9E1,4E0,1.8E1,5E0,1.6E1,1.1E1,6E0,5E0,1.9E1,1.1E1,2E0,3E0,1E0,2.2E1,2.8E1,3E0,1E1],"tree_param":{"num_deleted":"0","num_feature":"9","num_nodes":"83","size_leaf_vector":"0"}},{"base_weights":[1.4426338E1,1.0674889E1,2.132769E1,8.032901E0,1.5764246E1,1.6027418E1,3.2852615E1,6.3295884E0,1.1616E1,8.923492E0,1.9338932E1,1.1144284E1,2.1219189E1,2.7162434E1,6.725142E1,3.6039057E0,7.521731E0,6.824582E0,1.4247637E1,1.5910248E1,5.171538E0,1.5316476E1,3.1805948E1,8.7626E0,1.7065674E1,1.64338E1,3.0998253E1,5.2143024E1,2.4159369E1,5.9332414E0,6.515162E-1,5.804746E0,1.0860869E1,7.841095E0,-6.244583E0,1.5919197E1,4.351008E0,2.2707214E1,3.7994385E-2,-2.9967084E0,8.638617E0,2.450966E1,1.3103455E1,3.827864E1,9.290909E0,6.2444777E0,1.0819531E1,1.790477E1,3.4982605E0,2.1593416E1,1.20386E1,5.312683E0,3.2695995E1,2.007632E1,3.9867535E1,-1.6883494E0,8.5863285E0,4.332369E0,-3.101727E0,1.062826E1,2.7966573E0,-4.025284E0,1.1648846E1,1.7684631E0,8.8691845E0,1.6561659E1,-3.9241028E-1,5.3757935E0,-3.8645935E-1,9.596001E0,3.0141624E1,2.7925415E0,-4.1128235E0,7.436218E-1,-8.231689E0,1.0461437E1,-2.1398113E0,2.9834076E1,-3.7184143E0,6.6268253E0,1.7414055E1,8.35437E0,4.0974876E1,1.5697917E1,-4.9650574E0,1.0538715E1,3.021342E-1,1.1591492E0,1.3318357E1,2.362752E1,6.9372354E0,-1.2540283E0,1.3676205E1,1.7300264E1,2.9941345E1],"categories":[],"categories_nodes":[],"categories_segments":[],"categories_sizes":[],"default_left":[1,1,1,1,1,1,1,1,1,1,1,1,1,1,0,1,1,1,1,1,1,1,1,1,1,1,1,0,1,1,1,1,1,1,0,1,1,1,1,1,1,1,1,1,1,1,1,0,0,1,1,0,0,1,0,0,0,0,0,0,0,0,0,0,0,0,0,0,0,0,0,0,0,0,0,0,0,0,0,0,0,0,0,0,0,0,0,0,0,0,0,0,0,0,0],"id":11,"left_children":[1,3,5,7,9,11,13,15,17,19,21,23,25,27,-1,29,31,33,35,37,39,41,43,45,47,49,51,-1,53,55,57,59,61,63,-1,65,67,69,71,73,75,77,79,81,83,85,87,-1,-1,89,91,-1,-1,93,-1,-1,-1,-1,-1,-1,-1,-1,-1,-1,-1,-1,-1,-1,-1,-1,-1,-1,-1,-1,-1,-1,-1,-1,-1,-1,-1,-1,-1,-1,-1,-1,-1,-1,-1,-1,-1,-1,-1,-1,-1],"loss_changes":[9.4034375E3,3.140752E3,7.414539E3,9.151836E2,1.8326172E3,2.0705684E3,6.002707E3,3.3682568E2,5.458384E2,7.0413916E2,2.1706914E3,5.4150195E2,1.5028379E3,1.440918E3,0E0,2.437102E2,3.7841553E2,3.1466388E2,4.6010547E2,1.077969E3,6.2060645E2,5.333164E2,1.3931514E3,1.2408301E2,8.536133E1,4.4304883E2,3.9319238E2,0E0,1.3802695E3,4.1891162E2,2.482951E2,7.3928284E2,3.4013843E2,1.0293616E2,0E0,2.8944824E2,3.1206856E1,3.9308008E2,5.7219727E1,1.4318515E2,3.1709253E2,1.1630215E3,8.896543E2,3.8382715E2,4.432934E2,4.816548E2,4.432146E2,0E0,0E0,2.2364844E2,4.3074365E2,0E0,0E0,2.7619727E2,0E0,0E0,0E0,0E0,0E0,0E0,0E0,0E0,0E0,0E0,0E0,0E0,0E0,0E0,0E0,0E0,0E0,0E0,0E0,0E0,0E0,0E0,0E0,0E0,0E0,0E0,0E0,0E0,0E0,0E0,0E0,0E0,0E0,0E0,0E0,0E0,0E0,0E0,0E0,0E0,0E0],"parents":[2147483647,0,0,1,1,2,2,3,3,4,4,5,5,6,6,7,7,8,8,9,9,10,10,11,11,12,12,13,13,15,15,16,16,17,17,18,18,19,19,20,20,21,21,22,22,23,23,24,24,25,25,26,26,28,28,29,29,30,30,31,31,32,32,33,33,35,35,36,36,37,37,38,38,39,39,40,40,41,41,42,42,43,43,44,44,45,45,46,46,49,49,50,50,53,53],"right_children":[2,4,6,8,10,12,14,16,18,20,22,24,26,28,-1,30,32,34,36,38,40,42,44,46,48,50,52,-1,54,56,58,60,62,64,-1,66,68,70,72,74,76,78,80,82,84,86,88,-1,-1,90,92,-1,-1,94,-1,-1,-1,-1,-1,-1,-1,-1,-1,-1,-1,-1,-1,-1,-1,-1,-1,-1,-1,-1,-1,-1,-1,-1,-1,-1,-1,-1,-1,-1,-1,-1,-1,-1,-1,-1,-1,-1,-1,-1,-1],"split_conditions":[4E0,4E0,4E0,6.45E1,3.3E1,2.5E0,2.275E2,2.25E1,8.65E1,9.1E1,1.92E2,1.895E2,7.55E1,1.75E1,2.0175426E1,1.28E2,1.705E2,7.9E1,2.5E0,2.6E1,1.45E2,2.95E1,1.5E0,1.3E2,2.5E0,8.45E1,2.8E1,1.5642908E1,7.1E1,4.15E1,1.195E2,5.85E1,3.4E1,6.85E1,-1.873375E0,2.49E2,9.3E1,1.6E1,3.15E1,2.3E1,2.5E0,2.5E0,8.65E1,2.5E0,5.85E1,5.65E1,3.3E1,5.3714314E0,1.0494782E0,5.55E1,6E0,1.593805E0,9.808799E0,2.5E0,1.196026E1,-5.0650483E-1,2.5758986E0,1.2997108E0,-9.3051815E-1,3.188478E0,8.3899724E-1,-1.2075852E0,3.494654E0,5.30539E-1,2.6607554E0,4.9684978E0,-1.17723085E-1,1.6127381E0,-1.1593781E-1,2.8788004E0,9.042488E0,8.377625E-1,-1.2338471E0,2.2308655E-1,-2.469507E0,3.1384313E0,-6.419434E-1,8.950223E0,-1.1155243E0,1.9880477E0,5.2242165E0,2.5063112E0,1.2292463E1,4.7093754E0,-1.4895172E0,3.1616147E0,9.064026E-2,3.4774476E-1,3.9955075E0,7.0882564E0,2.0811708E0,-3.762085E-1,4.1028614E0,5.1900797E0,8.982404E0],"split_indices":[6,5,5,2,2,5,4,2,3,4,4,4,2,4,0,4,4,3,7,2,4,4,8,3,8,3,3,0,2,4,3,4,3,2,0,3,2,2,2,2,8,7,4,6,2,3,2,0,0,2,2,0,0,8,0,0,0,0,0,0,0,0,0,0,0,0,0,0,0,0,0,0,0,0,0,0,0,0,0,0,0,0,0,0,0,0,0,0,0,0,0,0,0,0,0],"split_type":[0,0,0,0,0,0,0,0,0,0,0,0,0,0,0,0,0,0,0,0,0,0,0,0,0,0,0,0,0,0,0,0,0,0,0,0,0,0,0,0,0,0,0,0,0,0,0,0,0,0,0,0,0,0,0,0,0,0,0,0,0,0,0,0,0,0,0,0,0,0,0,0,0,0,0,0,0,0,0,0,0,0,0,0,0,0,0,0,0,0,0,0,0,0,0],"sum_hessian":[3.71E2,2.42E2,1.29E2,1.61E2,8.1E1,9E1,3.9E1,1.11E2,5E1,2.9E1,5.2E1,4.8E1,4.2E1,3.5E1,4E0,3.5E1,7.6E1,1.9E1,3.1E1,9E0,2E1,4.1E1,1.1E1,3.6E1,1.2E1,3E1,1.2E1,2E0,3.3E1,1.9E1,1.6E1,5.2E1,2.4E1,1.8E1,1E0,2.6E1,5E0,6E0,3E0,6E0,1.4E1,6E0,3.5E1,8E0,3E0,1.8E1,1.8E1,1.1E1,1E0,1.2E1,1.8E1,1E0,1.1E1,2.8E1,5E0,5E0,1.4E1,8E0,8E0,1.9E1,3.3E1,1E0,2.3E1,3E0,1.5E1,2.5E1,1E0,4E0,1E0,3E0,3E0,2E0,1E0,4E0,2E0,1.2E1,2E0,5E0,1E0,1.5E1,2E1,1E0,7E0,2E0,1E0,1E1,8E0,4E0,1.4E1,1E1,2E0,2E0,1.6E1,2.4E1,4E0],"tree_param":{"num_deleted":"0","num_feature":"9","num_nodes":"95","size_leaf_vector":"0"}},{"base_weights":[1.0532647E1,7.724517E0,1.5700669E1,5.724378E0,1.1581809E1,1.1640243E1,2.4545624E1,5.0298934E0,1.2195002E1,9.32206E0,1.8120932E1,8.909978E0,1.6894781E1,2.0174154E1,5.1111084E1,3.4233727E0,6.427753E0,2.9324303E0,1.9933197E1,1.4820643E1,7.873885E0,3.0008804E1,1.4257849E1,2.2062023E1,7.6225605E0,1.1433676E1,2.413363E1,4.1714397E1,1.7680187E1,3.2355924E0,8.283997E0,1.138088E0,7.567085E0,-1.2664795E-2,4.70202E0,6.518107E0,2.3318542E1,7.112526E0,2.4189503E1,4.7209215E0,1.0618446E1,8.878662E-1,1.8303392E1,5.1817102E0,1.1111607E1,1.3277235E1,1.2010193E0,1.4513611E1,3.1334717E1,1.4715027E1,3.1935108E1,2.436473E0,4.108407E0,3.3793895E0,-5.8703384E0,8.656435E0,2.6275988E0,-9.6690875E-1,1.4250336E0,-4.437693E0,1.1702214E1,9.187848E0,8.326518E-1,4.8611145E0,1.4900238E1,-5.210327E0,3.7149963E0,-7.1764526E0,5.739842E0,7.685129E0,1.4150934E1,8.02953E0,1.6466614E1,-8.02063E-1,2.1360676E0,2.060205E1,1.1210966E1,3.6154602E1,7.5285645E0],"categories":[],"categories_nodes":[],"categories_segments":[],"categories_sizes":[],"default_left":[1,1,1,1,1,1,1,1,1,1,1,1,1,1,0,1,1,1,1,1,1,0,1,0,1,1,1,0,1,1,0,1,1,1,0,0,0,1,0,1,1,1,0,1,1,1,1,0,0,1,1,0,0,0,0,0,0,0,0,0,0,0,0,0,0,0,0,0,0,0,0,0,0,0,0,0,0,0,0],"id":12,"left_children":[1,3,5,7,9,11,13,15,17,19,21,23,25,27,-1,29,31,33,35,37,39,-1,41,-1,43,45,47,-1,49,51,-1,53,55,57,-1,-1,-1,59,-1,61,63,65,-1,67,69,71,73,-1,-1,75,77,-1,-1,-1,-1,-1,-1,-1,-1,-1,-1,-1,-1,-1,-1,-1,-1,-1,-1,-1,-1,-1,-1,-1,-1,-1,-1,-1,-1],"loss_changes":[5.2773633E3,1.8084756E3,4.3831406E3,6.6664795E2,1.0427715E3,1.1549795E3,3.614082E3,3.1035767E2,1.01668115E3,3.849673E2,4.906162E2,8.81626E2,9.1002734E2,1.1964248E3,0E0,3.8000183E1,4.6146924E2,4.1752434E1,2.113252E2,6.945464E2,3.9985303E2,0E0,9.032595E2,0E0,4.3636475E2,3.424795E2,3.7651514E2,0E0,9.671904E2,3.881378E1,0E0,2.5545811E2,3.216277E2,6.8655376E0,0E0,0E0,0E0,4.760261E2,0E0,4.4393378E2,5.931643E2,1.0555827E2,0E0,2.8950122E2,1.3077466E2,1.3557178E2,9.205177E0,0E0,0E0,3.8788525E2,2.4272412E2,0E0,0E0,0E0,0E0,0E0,0E0,0E0,0E0,0E0,0E0,0E0,0E0,0E0,0E0,0E0,0E0,0E0,0E0,0E0,0E0,0E0,0E0,0E0,0E0,0E0,0E0,0E0,0E0],"parents":[2147483647,0,0,1,1,2,2,3,3,4,4,5,5,6,6,7,7,8,8,9,9,10,10,11,11,12,12,13,13,15,15,16,16,17,17,18,18,19,19,20,20,22,22,24,24,25,25,26,26,28,28,29,29,31,31,32,32,33,33,37,37,39,39,40,40,41,41,43,43,44,44,45,45,46,46,49,49,50,50],"right_children":[2,4,6,8,10,12,14,16,18,20,22,24,26,28,-1,30,32,34,36,38,40,-1,42,-1,44,46,48,-1,50,52,-1,54,56,58,-1,-1,-1,60,-1,62,64,66,-1,68,70,72,74,-1,-1,76,78,-1,-1,-1,-1,-1,-1,-1,-1,-1,-1,-1,-1,-1,-1,-1,-1,-1,-1,-1,-1,-1,-1,-1,-1,-1,-1,-1,-1],"split_conditions":[4E0,4E0,4E0,8.35E1,7.55E1,7.25E1,2.275E2,2.5E0,1.33E2,5E1,8.05E1,4.35E1,1.815E2,1.75E1,1.5333325E1,2.53E2,1.6E1,1.735E2,2.5E0,1.5E0,1.435E2,9.002642E0,5.1E1,6.618607E0,1.705E2,1.81E2,2.5E0,1.2514319E1,7.75E1,1.515E2,2.485199E0,1.455E2,2.165E2,2.5E0,1.4106061E0,1.9554322E0,6.995563E0,1.215E2,7.256851E0,1.145E2,2.7E1,8.7E1,5.491018E0,5E1,2.5E0,6.25E1,8.9E1,4.3540835E0,9.400415E0,9.85E1,9.45E1,7.309419E-1,1.2325221E0,1.013817E0,-1.7611016E0,2.5969305E0,7.8827965E-1,-2.9007265E-1,4.2751008E-1,-1.331308E0,3.5106645E0,2.7563546E0,2.4979554E-1,1.4583344E0,4.470072E0,-1.5630982E0,1.114499E0,-2.152936E0,1.7219527E0,2.305539E0,4.2452803E0,2.408859E0,4.9399843E0,-2.406189E-1,6.408203E-1,6.1806154E0,3.36329E0,1.0846381E1,2.2585695E0],"split_indices":[6,5,5,2,2,2,4,6,4,4,2,4,4,4,0,3,2,3,5,8,4,0,4,0,4,3,5,0,2,4,0,4,3,5,0,0,0,3,0,3,2,2,0,4,5,3,2,0,0,3,2,0,0,0,0,0,0,0,0,0,0,0,0,0,0,0,0,0,0,0,0,0,0,0,0,0,0,0,0],"split_type":[0,0,0,0,0,0,0,0,0,0,0,0,0,0,0,0,0,0,0,0,0,0,0,0,0,0,0,0,0,0,0,0,0,0,0,0,0,0,0,0,0,0,0,0,0,0,0,0,0,0,0,0,0,0,0,0,0,0,0,0,0,0,0,0,0,0,0,0,0,0,0,0,0,0,0,0,0,0,0],"sum_hessian":[3.71E2,2.42E2,1.29E2,1.61E2,8.1E1,9E1,3.9E1,1.47E2,1.4E1,6.2E1,1.9E1,6.1E1,2.9E1,3.5E1,4E0,7E1,7.7E1,7E0,7E0,1.1E1,5.1E1,3E0,1.6E1,4E0,5.7E1,1.8E1,1.1E1,2E0,3.3E1,6.9E1,1E0,1.4E1,6.3E1,3E0,4E0,2E0,5E0,7E0,4E0,2.5E1,2.6E1,4E0,1.2E1,3.5E1,2.2E1,1.5E1,3E0,6E0,5E0,2.9E1,4E0,3.8E1,3.1E1,1.1E1,3E0,5.1E1,1.2E1,2E0,1E0,2E0,5E0,1.1E1,1.4E1,1.2E1,1.4E1,1E0,3E0,1E0,3.4E1,1.2E1,1E1,7E0,8E0,1E0,2E0,9E0,2E1,3E0,1E0],"tree_param":{"num_deleted":"0","num_feature":"9","num_nodes":"79","size_leaf_vector":"0"}},{"base_weights":[7.735056E0,5.612928E0,1.16423025E1,4.1156187E0,8.502577E0,5.6076765E0,1.51063795E1,3.5688083E0,9.236438E0,6.691466E0,1.3137812E1,4.024821E0,9.681368E0,1.3564177E1,3.614347E1,2.098946E0,4.663716E0,2.2462044E0,1.5072117E1,8.18086E0,3.46496E0,1.0101637E1,2.144048E1,2.4613583E0,6.4175544E0,4.710241E0,1.2199543E1,3.1456696E1,1.2429053E1,3.30206E0,-4.0268776E-1,2.09769E0,6.2024684E0,2.5489807E-2,3.5735352E0,6.1818085E0,1.916994E1,6.072303E0,1.5003252E1,4.6949525E0,-5.4799805E0,1.691304E1,7.6118207E0,5.2991667E0,5.584063E-2,9.141284E0,-3.1341553E-1,-3.0430298E0,6.8695006E0,1.3659598E1,9.8957825E-1,1.0692957E1,2.563224E1,-4.5689597E0,3.785655E0,1.4976298E0,-3.9154472E0,8.33101E-1,7.6494904E0,1.0508636E0,7.2562723E0,-7.7352905E-1,1.2112732E0,5.6957703E0,2.111454E1,1.1782046E1,2.6818833E0,2.471341E1,6.0292716E0,1.0287399E1,3.0034065E0,-4.428772E0,8.788203E0,9.854866E0,2.358921E0,-6.3257217E0,2.3713324E0,-6.817627E-1,1.0308485E1,-1.2448324E0,7.2247314E-1,7.676506E0,1.8207397E0,6.715075E0,1.3148756E1,9.1380415E0,2.96073E1],"categories":[],"categories_nodes":[],"categories_segments":[],"categories_sizes":[],"default_left":[1,1,1,1,1,1,1,1,1,1,1,1,1,1,0,1,1,1,1,1,1,1,0,1,1,1,1,0,1,1,1,1,1,1,0,0,1,1,1,1,0,0,1,1,1,1,1,0,1,0,0,1,1,0,0,0,0,0,0,0,0,0,0,0,0,0,0,0,0,0,0,0,0,0,0,0,0,0,0,0,0,0,0,0,0,0,0],"id":13,"left_children":[1,3,5,7,9,11,13,15,17,19,21,23,25,27,-1,29,31,33,35,37,39,41,-1,43,45,47,49,-1,51,53,55,57,59,61,-1,-1,63,65,67,69,-1,-1,71,73,75,77,79,-1,81,-1,-1,83,85,-1,-1,-1,-1,-1,-1,-1,-1,-1,-1,-1,-1,-1,-1,-1,-1,-1,-1,-1,-1,-1,-1,-1,-1,-1,-1,-1,-1,-1,-1,-1,-1,-1,-1],"loss_changes":[3.0191562E3,1.01639453E3,2.6328594E3,4.20656E2,6.0047217E2,2.769895E2,2.1701094E3,2.2839673E2,5.7803625E2,2.647915E2,3.38E2,1.226192E2,1.05273315E2,1.1932197E3,0E0,1.969635E2,3.1866138E2,2.3489895E1,1.7294238E2,4.9869727E2,2.5677466E2,1.7652539E2,0E0,1.6353761E2,2.595318E2,1.2135205E2,1.17420166E2,0E0,1.4450654E3,1.847775E2,1.5272179E2,2.2531181E2,2.746714E2,4.7268085E0,0E0,0E0,1.0745728E1,6.0723E2,6.3524524E2,1.4884052E2,0E0,0E0,2.5138617E2,1.240968E2,2.2187074E2,1.2168268E2,5.7235785E0,0E0,6.3949738E0,0E0,0E0,5.7598926E2,2.539707E2,0E0,0E0,0E0,0E0,0E0,0E0,0E0,0E0,0E0,0E0,0E0,0E0,0E0,0E0,0E0,0E0,0E0,0E0,0E0,0E0,0E0,0E0,0E0,0E0,0E0,0E0,0E0,0E0,0E0,0E0,0E0,0E0,0E0,0E0],"parents":[2147483647,0,0,1,1,2,2,3,3,4,4,5,5,6,6,7,7,8,8,9,9,10,10,11,11,12,12,13,13,15,15,16,16,17,17,18,18,19,19,20,20,21,21,23,23,24,24,25,25,26,26,28,28,29,29,30,30,31,31,32,32,33,33,36,36,37,37,38,38,39,39,42,42,43,43,44,44,45,45,46,46,48,48,51,51,52,52],"right_children":[2,4,6,8,10,12,14,16,18,20,22,24,26,28,-1,30,32,34,36,38,40,42,-1,44,46,48,50,-1,52,54,56,58,60,62,-1,-1,64,66,68,70,-1,-1,72,74,76,78,80,-1,82,-1,-1,84,86,-1,-1,-1,-1,-1,-1,-1,-1,-1,-1,-1,-1,-1,-1,-1,-1,-1,-1,-1,-1,-1,-1,-1,-1,-1,-1,-1,-1,-1,-1,-1,-1,-1,-1],"split_conditions":[4E0,4E0,2.5E0,8.35E1,7.35E1,1.895E2,2.355E2,1.155E2,1.33E2,1.5E0,1.965E2,1.585E2,8.35E1,1.15E1,1.0843041E1,8.05E1,2.5E0,1.735E2,8.5E1,1.975E2,2.025E2,5.25E1,6.432144E0,5.65E1,2.33E2,3.45E1,1.5E0,9.437009E0,9.1E1,6.5E0,4E1,2.5E0,2.35E1,2.5E0,1.0720606E0,1.8545426E0,7.85E1,8.1E1,2.065E2,2.4E1,-1.6439942E0,5.073912E0,6.25E1,8.4E1,7.15E1,3.65E1,1.295E2,-9.12909E-1,2E0,4.09788E0,2.9687348E-1,3.25E1,1.46E2,-1.370688E0,1.1356965E0,4.4928893E-1,-1.1746342E0,2.499303E-1,2.2948472E0,3.152591E-1,2.1768818E0,-2.3205872E-1,3.6338198E-1,1.7087312E0,6.3343625E0,3.534614E0,8.04565E-1,7.414023E0,1.8087815E0,3.08622E0,9.01022E-1,-1.3286316E0,2.636461E0,2.95646E0,7.0767635E-1,-1.8977166E0,7.1139973E-1,-2.0452882E-1,3.0925457E0,-3.7344974E-1,2.1674195E-1,2.3029518E0,5.46222E-1,2.0145226E0,3.944627E0,2.7414126E0,8.882191E0],"split_indices":[6,5,5,2,2,4,4,3,4,7,4,3,3,4,0,3,5,3,2,4,4,3,0,3,3,2,8,0,2,2,2,8,2,5,0,0,3,4,4,4,0,0,3,4,4,4,4,0,7,0,0,2,4,0,0,0,0,0,0,0,0,0,0,0,0,0,0,0,0,0,0,0,0,0,0,0,0,0,0,0,0,0,0,0,0,0,0],"split_type":[0,0,0,0,0,0,0,0,0,0,0,0,0,0,0,0,0,0,0,0,0,0,0,0,0,0,0,0,0,0,0,0,0,0,0,0,0,0,0,0,0,0,0,0,0,0,0,0,0,0,0,0,0,0,0,0,0,0,0,0,0,0,0,0,0,0,0,0,0,0,0,0,0,0,0,0,0,0,0,0,0,0,0,0,0,0,0],"sum_hessian":[3.71E2,2.42E2,1.29E2,1.61E2,8.1E1,4.8E1,8.1E1,1.47E2,1.4E1,6E1,2.1E1,3.6E1,1.2E1,7.7E1,4E0,6.4E1,8.3E1,7E0,7E0,4E1,2E1,1.7E1,4E0,2.3E1,1.3E1,5E0,7E0,3E0,7.4E1,4.3E1,2.1E1,3.2E1,5.1E1,3E0,4E0,3E0,4E0,3.2E1,8E0,1.8E1,2E0,3E0,1.4E1,1E1,1.3E1,9E0,4E0,1E0,4E0,6E0,1E0,6.7E1,7E0,2E0,4.1E1,1.4E1,7E0,2.7E1,5E0,9E0,4.2E1,2E0,1E0,1E0,3E0,1.1E1,2.1E1,3E0,5E0,3E0,1.5E1,1E0,1.3E1,3E0,7E0,3E0,1E1,1E0,8E0,2E0,2E0,3E0,1E0,2.7E1,4E1,2E0,5E0],"tree_param":{"num_deleted":"0","num_feature":"9","num_nodes":"87","size_leaf_vector":"0"}},{"base_weights":[5.6653447E0,4.028449E0,9.0275955E0,2.9757001E0,6.9502015E0,6.3020372E0,1.4389299E1,1.259618E0,3.8374224E0,4.603786E0,1.2951543E1,3.3988996E0,8.391631E0,1.1724261E1,3.5443573E1,4.118265E0,8.3630586E-1,2.7510967E0,5.750035E0,9.649948E0,3.2271507E0,7.7295103E0,1.7314741E1,-2.6624408E-2,5.3362226E0,1.969426E1,7.173401E0,2.70802E1,1.0073059E1,3.8752747E-1,6.2792025E0,1.1681364E0,-2.8483582E0,4.6754026E0,-1.058318E0,2.5885823E0,8.276721E0,1.1962544E1,4.9448423E0,6.363945E-1,4.756149E0,2.0553894E0,8.131592E0,3.7774658E0,1.8534718E1,2.5455246E0,-1.0306346E1,2.490185E0,8.214611E0,4.7771444E0,1.3927884E1,7.973942E0,2.1072973E1,6.1897278E-2,4.7543845E-1,-1.8166788E-1,2.5768433E0,-7.9438275E-1,-3.9528809E0,7.069386E0,-2.6695056E0,-2.9842875E0,6.5009513E0,-3.5652855E-1,5.2983675E0,9.067151E0,-2.7867636E-1,5.3684487E0,1.391748E1,2.077525E0,6.1638794E0,-2.3980663E0,2.2337008E0,2.231453E0,6.5804486E0,8.606461E0,2.1663208E0,-4.9719237E-2,1.0347829E1,3.1134975E0,-2.4947815E0,1.7391663E0,8.688238E0,8.836886E0,2.7173817E0,-6.06369E-1,1.9454025E1,6.089672E0,1.655421E1,2.3826935E1,5.0285645E0],"categories":[],"categories_nodes":[],"categories_segments":[],"categories_sizes":[],"default_left":[1,1,1,1,1,1,1,1,1,1,1,1,1,1,0,1,1,1,1,1,1,1,1,1,1,0,1,0,1,1,0,1,1,1,1,1,1,1,1,1,1,0,1,0,0,1,0,1,1,1,1,1,1,0,0,0,0,0,0,0,0,0,0,0,0,0,0,0,0,0,0,0,0,0,0,0,0,0,0,0,0,0,0,0,0,0,0,0,0,0,0],"id":14,"left_children":[1,3,5,7,9,11,13,15,17,19,21,23,25,27,-1,29,31,33,35,37,39,41,43,45,47,-1,49,-1,51,53,-1,55,57,59,61,63,65,67,69,71,73,-1,75,-1,-1,77,-1,79,81,83,85,87,89,-1,-1,-1,-1,-1,-1,-1,-1,-1,-1,-1,-1,-1,-1,-1,-1,-1,-1,-1,-1,-1,-1,-1,-1,-1,-1,-1,-1,-1,-1,-1,-1,-1,-1,-1,-1,-1,-1],"loss_changes":[2.0109912E3,7.54438E2,1.6775684E3,2.7169922E2,8.6976196E2,4.6892065E2,1.8288682E3,7.400228E1,2.4181848E2,3.0924756E2,2.762915E2,2.3905057E2,5.0587793E2,6.653823E2,0E0,6.2061752E1,7.302024E1,5.98717E2,3.3004688E2,4.9657166E1,1.5542365E2,6.101074E0,7.8622314E1,3.964087E2,1.6796008E2,0E0,6.4562524E2,0E0,6.4011914E2,8.5077524E-2,0E0,1.012465E2,8.203217E0,9.6838513E2,4.2705054E2,1.6948196E2,1.6482556E2,2.6309814E0,4.6712112E0,8.2907974E1,1.0046112E2,0E0,6.8500977E0,0E0,0E0,2.4350107E2,0E0,4.816098E1,1.862616E1,2.6029834E2,8.952981E2,4.0038416E2,1.0111328E2,0E0,0E0,0E0,0E0,0E0,0E0,0E0,0E0,0E0,0E0,0E0,0E0,0E0,0E0,0E0,0E0,0E0,0E0,0E0,0E0,0E0,0E0,0E0,0E0,0E0,0E0,0E0,0E0,0E0,0E0,0E0,0E0,0E0,0E0,0E0,0E0,0E0,0E0],"parents":[2147483647,0,0,1,1,2,2,3,3,4,4,5,5,6,6,7,7,8,8,9,9,10,10,11,11,12,12,13,13,15,15,16,16,17,17,18,18,19,19,20,20,21,21,22,22,23,23,24,24,26,26,28,28,29,29,31,31,32,32,33,33,34,34,35,35,36,36,37,37,38,38,39,39,40,40,42,42,45,45,47,47,48,48,49,49,50,50,51,51,52,52],"right_children":[2,4,6,8,10,12,14,16,18,20,22,24,26,28,-1,30,32,34,36,38,40,42,44,46,48,-1,50,-1,52,54,-1,56,58,60,62,64,66,68,70,72,74,-1,76,-1,-1,78,-1,80,82,84,86,88,90,-1,-1,-1,-1,-1,-1,-1,-1,-1,-1,-1,-1,-1,-1,-1,-1,-1,-1,-1,-1,-1,-1,-1,-1,-1,-1,-1,-1,-1,-1,-1,-1,-1,-1,-1,-1,-1,-1],"split_conditions":[4E0,7.25E1,4E0,2.5E0,1.845E2,2.5E0,2.295E2,4.25E1,1.705E2,7.55E1,2.5E0,8.5E1,2.35E1,1.75E1,1.0633072E1,2.5E1,6.55E1,4E1,1.235E2,1.5E0,8.25E1,7.65E1,7.5E1,7.15E1,4.5E1,5.908278E0,1.965E2,8.124061E0,7.75E1,1.1E1,1.8837608E0,1.47E2,6.7E1,1.2E2,1.31E2,4.9E1,6.7E1,1.45E2,7.45E1,5.3E1,2.5E0,6.1661685E-1,2.5E0,1.1332397E0,5.5604153E0,2.5E0,-3.091904E0,4.15E1,3.05E1,1.145E2,8.65E1,2.5E0,9.45E1,1.8569184E-2,1.4263155E-1,-5.4500367E-2,7.73053E-1,-2.3831484E-1,-1.1858643E0,2.120816E0,-8.008517E-1,-8.9528626E-1,1.9502854E0,-1.0695857E-1,1.5895103E0,2.7201455E0,-8.360291E-2,1.6105347E0,4.1752443E0,6.232575E-1,1.8491639E0,-7.194199E-1,6.701102E-1,6.694359E-1,1.9741347E0,2.5819383E0,6.4989626E-1,-1.4915772E-2,3.104349E0,9.340493E-1,-7.484345E-1,5.217499E-1,2.6064715E0,2.651066E0,8.152146E-1,-1.8191071E-1,5.836208E0,1.8269017E0,4.9662633E0,7.148081E0,1.5085694E0],"split_indices":[5,2,6,6,4,6,4,4,4,2,5,4,4,4,0,2,2,2,3,7,2,2,2,4,2,0,4,0,2,2,0,4,2,4,4,2,2,3,2,4,5,0,7,0,0,8,0,2,3,3,3,8,2,0,0,0,0,0,0,0,0,0,0,0,0,0,0,0,0,0,0,0,0,0,0,0,0,0,0,0,0,0,0,0,0,0,0,0,0,0,0],"split_type":[0,0,0,0,0,0,0,0,0,0,0,0,0,0,0,0,0,0,0,0,0,0,0,0,0,0,0,0,0,0,0,0,0,0,0,0,0,0,0,0,0,0,0,0,0,0,0,0,0,0,0,0,0,0,0,0,0,0,0,0,0,0,0,0,0,0,0,0,0,0,0,0,0,0,0,0,0,0,0,0,0,0,0,0,0,0,0,0,0,0,0],"sum_hessian":[3.71E2,2.51E2,1.2E2,1.86E2,6.5E1,8.1E1,3.9E1,6.3E1,1.23E2,4.8E1,1.7E1,3.5E1,4.6E1,3.6E1,3E0,7E0,5.6E1,8E1,4.3E1,9E0,3.9E1,9E0,8E0,1.3E1,2.2E1,3E0,4.3E1,2E0,3.4E1,3E0,4E0,5.2E1,4E0,5.3E1,2.7E1,2E1,2.3E1,5E0,4E0,1.5E1,2.4E1,1E0,8E0,1E0,7E0,1.1E1,2E0,1.2E1,1E1,3.3E1,1E1,3E1,4E0,1E0,2E0,2.7E1,2.5E1,2E0,2E0,4E1,1.3E1,2.2E1,5E0,1E1,1E1,2.1E1,2E0,2E0,3E0,2E0,2E0,5E0,1E1,1.1E1,1.3E1,7E0,1E0,9E0,2E0,1.1E1,1E0,1E0,9E0,1E1,2.3E1,3E0,7E0,2.6E1,4E0,3E0,1E0],"tree_param":{"num_deleted":"0","num_feature":"9","num_nodes":"91","size_leaf_vector":"0"}},{"base_weights":[4.1855702E0,2.9358993E0,6.753599E0,2.124879E0,5.1893067E0,4.6351004E0,1.0927683E1,5.297869E0,1.776416E0,3.4441347E0,9.651757E0,1.0229118E1,3.9766035E0,6.757623E0,2.0094687E1,7.632637E-2,8.61373E0,7.743145E-1,2.867931E0,8.657146E0,2.3691769E0,5.795517E0,1.2864051E1,1.2842041E1,-4.03067E0,-8.912364E0,4.451813E0,1.1926125E1,3.6807686E-1,2.651028E1,9.260712E0,-5.719223E0,1.7212938E0,-1.9437866E-1,1.3674705E1,2.3103912E0,-1.3884847E0,3.721127E-1,4.0410066E0,9.729497E0,5.753479E-1,-1.059689E-1,4.0565147E0,7.5659666E0,3.3542225E0,3.210846E0,1.3669346E1,1.4761462E1,5.362325E0,3.345398E0,7.646671E0,-1.481486E0,1.3947318E1,-6.3825316E0,1.3795679E1,4.325424E0,1.2754191E1,3.23591E0,-1.376831E0,-3.9693196E0,3.6453552E0,1.5568476E1,5.9601846E0,3.6328688E0,-2.5108135E0,-3.535704E0,5.181071E-1,2.80009E0,-9.974365E-1,1.3801945E0,5.522036E0,-1.3775965E0,2.0891025E0,5.2404118E0,1.7566284E0,1.8413696E0,8.536774E0,1.4694445E1,3.2468262E0,6.0784287E0,1.8908459E0,1.1754644E1,1.0423737E0,2.508899E1,8.627863E0,4.529114E0,-1.1705968E1,-9.437256E-1,1.7716461E1,6.283142E0,-7.7386475E-1],"categories":[],"categories_nodes":[],"categories_segments":[],"categories_sizes":[],"default_left":[1,1,1,1,1,1,1,1,1,1,1,1,1,1,1,1,1,1,1,1,1,1,1,1,0,0,1,1,1,0,1,0,1,1,1,1,1,1,1,0,0,1,1,1,0,0,1,0,0,1,1,0,1,1,1,1,0,0,0,0,0,0,0,0,0,0,0,0,0,0,0,0,0,0,0,0,0,0,0,0,0,0,0,0,0,0,0,0,0,0,0],"id":15,"left_children":[1,3,5,7,9,11,13,15,17,19,21,23,25,27,29,31,33,35,37,39,41,43,45,47,-1,-1,49,51,53,-1,55,-1,57,59,61,63,65,67,69,-1,-1,71,73,75,-1,-1,77,-1,-1,79,81,-1,83,85,87,89,-1,-1,-1,-1,-1,-1,-1,-1,-1,-1,-1,-1,-1,-1,-1,-1,-1,-1,-1,-1,-1,-1,-1,-1,-1,-1,-1,-1,-1,-1,-1,-1,-1,-1,-1],"loss_changes":[1.1739912E3,4.4951807E2,1.01932666E3,1.9734906E2,4.8074915E2,2.6138135E2,1.3932856E3,3.10993E2,1.837268E2,2.5407428E2,1.4841882E2,3.4983978E2,4.9904822E2,9.533174E2,5.8857275E2,8.611238E1,4.9301184E2,3.0220822E2,2.3564673E2,6.3734314E1,1.7583896E2,1.7843933E1,2.6072876E1,2.1341309E1,0E0,0E0,2.3246216E2,4.542527E2,1.3570741E3,0E0,4.828064E1,0E0,3.730259E1,8.694342E1,9.475708E0,3.4704608E2,1.5739896E2,9.257425E1,2.0911932E2,0E0,0E0,5.3121586E1,5.8865265E1,1.2068024E1,0E0,0E0,3.7762695E1,0E0,0E0,2.1112537E2,4.760923E2,0E0,6.132825E2,6.33892E2,3.056695E2,4.4794174E1,0E0,0E0,0E0,0E0,0E0,0E0,0E0,0E0,0E0,0E0,0E0,0E0,0E0,0E0,0E0,0E0,0E0,0E0,0E0,0E0,0E0,0E0,0E0,0E0,0E0,0E0,0E0,0E0,0E0,0E0,0E0,0E0,0E0,0E0,0E0],"parents":[2147483647,0,0,1,1,2,2,3,3,4,4,5,5,6,6,7,7,8,8,9,9,10,10,11,11,12,12,13,13,14,14,15,15,16,16,17,17,18,18,19,19,20,20,21,21,22,22,23,23,26,26,27,27,28,28,30,30,32,32,33,33,34,34,35,35,36,36,37,37,38,38,41,41,42,42,43,43,46,46,49,49,50,50,52,52,53,53,54,54,55,55],"right_children":[2,4,6,8,10,12,14,16,18,20,22,24,26,28,30,32,34,36,38,40,42,44,46,48,-1,-1,50,52,54,-1,56,-1,58,60,62,64,66,68,70,-1,-1,72,74,76,-1,-1,78,-1,-1,80,82,-1,84,86,88,90,-1,-1,-1,-1,-1,-1,-1,-1,-1,-1,-1,-1,-1,-1,-1,-1,-1,-1,-1,-1,-1,-1,-1,-1,-1,-1,-1,-1,-1,-1,-1,-1,-1,-1,-1],"split_conditions":[4E0,7.25E1,4E0,3.65E1,1.845E2,2.9E1,1.76E2,2.5E0,1.525E2,2.25E1,2.5E0,2.5E0,3.25E1,1.165E2,1.5E0,9.5E0,2.55E1,4E1,3.45E1,2.065E2,7.4E1,2.095E2,7.5E1,2.35E1,-1.2092011E0,-2.6737094E0,1.965E2,9.5E0,1.745E2,7.9530845E0,5.15E1,-1.715767E0,2.95E1,8.4E1,4.15E1,1.2E2,7.05E1,1.1E1,2.5E0,2.9188492E0,1.7260438E-1,1.5E0,1.525E2,8.5E1,1.0062668E0,9.632538E-1,9.45E1,4.4284387E0,1.6086977E0,8.1E1,1.5E0,-4.4444582E-1,2.15E1,7.75E1,2.65E1,1.815E2,3.8262575E0,9.7077304E-1,-4.1304934E-1,-1.1907959E0,1.0936066E0,4.6705427E0,1.7880554E0,1.0898607E0,-7.532441E-1,-1.0607113E0,1.5543213E-1,8.4002703E-1,-2.9923096E-1,4.140584E-1,1.6566108E0,-4.1327897E-1,6.267308E-1,1.5721236E0,5.2698857E-1,5.524109E-1,2.5610323E0,4.408334E0,9.740479E-1,1.8235286E0,5.6725377E-1,3.5263934E0,3.127121E-1,7.526697E0,2.5883589E0,1.3587341E0,-3.5117905E0,-2.8311768E-1,5.3149385E0,1.8849427E0,-2.3215944E-1],"split_indices":[5,2,6,4,4,4,4,5,4,4,5,7,4,4,8,4,2,2,2,3,4,4,2,4,0,0,4,2,3,0,2,0,4,3,2,4,4,2,6,0,0,7,4,2,0,0,2,0,0,4,8,0,2,3,2,3,0,0,0,0,0,0,0,0,0,0,0,0,0,0,0,0,0,0,0,0,0,0,0,0,0,0,0,0,0,0,0,0,0,0,0],"split_type":[0,0,0,0,0,0,0,0,0,0,0,0,0,0,0,0,0,0,0,0,0,0,0,0,0,0,0,0,0,0,0,0,0,0,0,0,0,0,0,0,0,0,0,0,0,0,0,0,0,0,0,0,0,0,0,0,0,0,0,0,0,0,0,0,0,0,0,0,0,0,0,0,0,0,0,0,0,0,0,0,0,0,0,0,0,0,0,0,0,0,0],"sum_hessian":[3.71E2,2.51E2,1.2E2,1.86E2,6.5E1,8.1E1,3.9E1,1.7E1,1.69E2,4.8E1,1.7E1,7E0,7.4E1,2.8E1,1.1E1,7E0,1E1,8.9E1,8E1,7E0,4.1E1,9E0,8E0,6E0,1E0,2E0,7.2E1,1.5E1,1.3E1,6E0,5E0,1E0,6E0,4E0,6E0,5.2E1,3.7E1,2.6E1,5.4E1,6E0,1E0,1.7E1,2.4E1,4E0,5E0,1E0,7E0,4E0,2E0,5.5E1,1.7E1,2E0,1.3E1,9E0,4E0,3E0,2E0,4E0,2E0,2E0,2E0,4E0,2E0,4.1E1,1.1E1,1.7E1,2E1,9E0,1.7E1,2E1,3.4E1,1.1E1,6E0,1.5E1,9E0,1E0,3E0,6E0,1E0,1.8E1,3.7E1,1E1,7E0,3E0,1E1,3E0,6E0,1E0,3E0,2E0,1E0],"tree_param":{"num_deleted":"0","num_feature":"9","num_nodes":"91","size_leaf_vector":"0"}},{"base_weights":[3.0844152E0,2.2622514E0,5.5265813E0,5.5554037E0,1.6902452E0,3.4323847E0,9.604253E0,2.9899879E0,1.3209195E1,8.052708E-1,3.8717718E0,8.066518E0,2.611665E0,6.1398606E0,1.4577886E1,-1.8009559E0,4.662009E0,1.7896692E1,4.9423585E0,1.0812628E0,-3.7739258E0,4.5676417E0,-1.274877E0,1.2348175E1,3.8676605E0,-3.384908E-3,4.491338E0,6.9463987E0,1.1771088E0,7.673148E0,2.0203766E1,1.7943903E0,-6.7437363E0,-5.756185E0,5.8707623E0,2.8820648E0,2.0323206E1,-6.132202E-1,6.484558E0,3.3717515E0,6.0174114E-1,-3.6756387E-1,-4.579571E0,-3.136393E-1,5.3103566E0,2.6779175E-2,-2.9086418E0,3.5260315E0,1.4113545E1,-6.0457355E-1,6.254921E0,-1.4409198E0,3.0517998E0,2.1291077E0,6.2103443E0,3.8653226E0,9.255652E0,-9.5980835E-1,2.2093506E0,1.10499115E1,2.3780975E0,-5.146637E-1,3.0775833E0,5.4330826E-1,8.320687E0,7.796875E0,1.2738037E0,-1.3863525E0,4.2225337E0,-9.3969333E-1,1.7258102E0,-5.021515E-1,-4.9194336E-2,-2.4552155E0,-5.363141E0,2.1056721E0,-3.8641968E0,5.7364473E0,-3.703308E0,-2.6148682E0,1.0780823E0,-5.3286743E-1,-3.5229442E0,-1.3959045E0,4.890442E-1,7.404251E-1,-3.0419037E0,6.350525E0,8.938039E-1,5.7272773E-2,3.5039673E0,7.1858034E0,9.997864E-1,4.154831E0,1.1113591E1,5.5422974E-1,2.7597961E0],"categories":[],"categories_nodes":[],"categories_segments":[],"categories_sizes":[],"default_left":[1,1,1,1,1,1,1,1,1,1,1,1,1,1,1,1,1,1,1,1,1,1,1,1,1,1,1,1,1,1,0,1,0,0,1,0,0,0,1,1,1,1,1,1,1,1,1,0,0,1,0,1,1,1,1,0,1,0,1,0,0,0,0,0,0,0,0,0,0,0,0,0,0,0,0,0,0,0,0,0,0,0,0,0,0,0,0,0,0,0,0,0,0,0,0,0,0],"id":16,"left_children":[1,3,5,7,9,11,13,15,17,19,21,23,25,27,29,31,33,35,37,39,41,43,45,47,49,51,53,55,57,59,-1,61,-1,-1,63,-1,-1,-1,65,67,69,71,73,75,77,79,81,-1,-1,83,-1,85,87,89,91,-1,93,-1,95,-1,-1,-1,-1,-1,-1,-1,-1,-1,-1,-1,-1,-1,-1,-1,-1,-1,-1,-1,-1,-1,-1,-1,-1,-1,-1,-1,-1,-1,-1,-1,-1,-1,-1,-1,-1,-1,-1],"loss_changes":[7.344219E2,5.180471E2,7.6120337E2,7.6554614E2,4.6022498E2,2.1854242E2,4.4464282E2,2.6473395E2,2.990558E2,2.2145792E2,2.529397E2,1.1404413E2,2.7036435E2,7.187628E1,3.1111646E2,1.7203995E2,3.3602582E2,1.6002649E2,4.681552E1,1.7700034E2,2.5759903E1,2.2281494E2,1.9217293E1,1.2532593E1,6.783988E1,1.0980383E2,1.1671948E2,8.517877E1,1.0943812E1,9.888318E1,0E0,1.9361692E1,0E0,0E0,2.8262024E2,0E0,0E0,0E0,1.7420944E1,1.1920099E2,2.3726605E2,1.03842765E-1,1.4897156E-1,8.544587E1,2.2479773E2,1.9482075E1,3.9605103E0,0E0,0E0,3.2788997E0,0E0,6.1621372E1,5.127295E1,4.2526558E1,8.430408E1,0E0,3.9118042E1,0E0,1.2036009E0,0E0,0E0,0E0,0E0,0E0,0E0,0E0,0E0,0E0,0E0,0E0,0E0,0E0,0E0,0E0,0E0,0E0,0E0,0E0,0E0,0E0,0E0,0E0,0E0,0E0,0E0,0E0,0E0,0E0,0E0,0E0,0E0,0E0,0E0,0E0,0E0,0E0,0E0],"parents":[2147483647,0,0,1,1,2,2,3,3,4,4,5,5,6,6,7,7,8,8,9,9,10,10,11,11,12,12,13,13,14,14,15,15,16,16,17,17,18,18,19,19,20,20,21,21,22,22,23,23,24,24,25,25,26,26,27,27,28,28,29,29,31,31,34,34,38,38,39,39,40,40,41,41,42,42,43,43,44,44,45,45,46,46,49,49,51,51,52,52,53,53,54,54,56,56,58,58],"right_children":[2,4,6,8,10,12,14,16,18,20,22,24,26,28,30,32,34,36,38,40,42,44,46,48,50,52,54,56,58,60,-1,62,-1,-1,64,-1,-1,-1,66,68,70,72,74,76,78,80,82,-1,-1,84,-1,86,88,90,92,-1,94,-1,96,-1,-1,-1,-1,-1,-1,-1,-1,-1,-1,-1,-1,-1,-1,-1,-1,-1,-1,-1,-1,-1,-1,-1,-1,-1,-1,-1,-1,-1,-1,-1,-1,-1,-1,-1,-1,-1,-1],"split_conditions":[7.25E1,4.6E1,1.76E2,4E0,1.895E2,2.35E1,1.745E2,2.5E0,1.67E2,1.78E2,2.395E2,7.8E1,7.05E1,1.44E2,4E0,2.5E0,8.5E0,2.5E0,1.8E1,4.35E1,9.5E0,5.15E1,2.225E2,2.5E0,8.15E1,1.69E2,8.25E1,2.5E0,1.825E2,2.15E2,6.06113E0,2.4E1,-2.0231209E0,-1.7268556E0,2.5E0,8.646195E-1,6.096962E0,-1.8396607E-1,4.5E1,1E1,3.3E1,5E0,1.855E2,2.135E2,7.05E1,1.4E1,2.455E2,1.0578095E0,4.2340636E0,1.78E2,1.8764764E0,8.4E1,1.91E2,1.23E2,1.705E2,1.1595968E0,1.965E2,-2.8794253E-1,8.75E1,3.3149736E0,7.134293E-1,-1.5439911E-1,9.2327505E-1,1.6299248E-1,2.4962063E0,2.3390627E0,3.8214114E-1,-4.1590577E-1,1.2667601E0,-2.81908E-1,5.1774305E-1,-1.5064545E-1,-1.4758301E-2,-7.3656464E-1,-1.6089424E0,6.3170165E-1,-1.1592591E0,1.7209343E0,-1.1109924E0,-7.844605E-1,3.234247E-1,-1.5986024E-1,-1.0568833E0,-4.187714E-1,1.4671326E-1,2.2212754E-1,-9.1257113E-1,1.9051576E0,2.6814118E-1,1.7181832E-2,1.0511903E0,2.1557412E0,2.9993594E-1,1.2464494E0,3.3340776E0,1.6626893E-1,8.2793885E-1],"split_indices":[2,4,4,6,4,4,3,5,3,4,4,2,4,3,6,6,2,5,2,3,2,3,3,5,2,3,2,5,4,3,0,2,0,0,6,0,0,0,2,3,2,2,4,4,2,2,4,0,0,3,0,2,3,3,4,0,4,0,2,0,0,0,0,0,0,0,0,0,0,0,0,0,0,0,0,0,0,0,0,0,0,0,0,0,0,0,0,0,0,0,0,0,0,0,0,0,0],"split_type":[0,0,0,0,0,0,0,0,0,0,0,0,0,0,0,0,0,0,0,0,0,0,0,0,0,0,0,0,0,0,0,0,0,0,0,0,0,0,0,0,0,0,0,0,0,0,0,0,0,0,0,0,0,0,0,0,0,0,0,0,0,0,0,0,0,0,0,0,0,0,0,0,0,0,0,0,0,0,0,0,0,0,0,0,0,0,0,0,0,0,0,0,0,0,0,0,0],"sum_hessian":[3.71E2,2.79E2,9.2E1,4E1,2.39E2,6.2E1,3E1,3.1E1,9E0,1.71E2,6.8E1,8E0,5.4E1,1.9E1,1.1E1,8E0,2.3E1,5E0,4E0,1.62E2,9E0,6E1,8E0,3E0,5E0,2.3E1,3.1E1,1.6E1,3E0,6E0,5E0,5E0,3E0,2E0,2.1E1,1E0,4E0,1E0,3E0,2.7E1,1.35E2,2E0,7E0,8E0,5.2E1,5E0,3E0,1E0,2E0,2E0,3E0,1.6E1,7E0,1.4E1,1.7E1,8E0,8E0,1E0,2E0,3E0,3E0,2E0,3E0,7E0,1.4E1,2E0,1E0,4E0,2.3E1,5.7E1,7.8E1,1E0,1E0,3E0,4E0,5E0,3E0,5E1,2E0,1E0,4E0,1E0,2E0,1E0,1E0,7E0,9E0,2E0,5E0,6E0,8E0,1.4E1,3E0,3E0,5E0,1E0,1E0],"tree_param":{"num_deleted":"0","num_feature":"9","num_nodes":"97","size_leaf_vector":"0"}},{"base_weights":[2.25209E0,1.3930789E0,3.8404562E0,5.2223665E-1,2.0975533E0,3.3331277E0,1.2278783E1,3.842601E-1,4.08255E0,-8.681379E-1,2.6254652E0,1.3986786E1,2.9533942E0,5.119006E0,2.0118814E1,2.5393002E0,5.920881E-2,-1.0526123E0,6.1451416E0,3.1574503E-1,-5.9785767E0,1.4584552E0,4.2580442E0,2.0602966E1,4.913737E0,1.9388794E0,4.815484E0,6.0611115E0,6.7529297E-1,5.7152596E0,1.1535603E0,-1.8885281E0,5.4536396E-1,-2.500576E0,2.3352745E0,-1.4827423E0,-6.9829407E0,9.304555E0,6.8805754E-1,6.294857E0,-8.170891E-2,6.9402046E0,1.364229E0,3.4113464E0,8.96759E0,2.338573E0,-7.3616946E-1,-3.7297363E0,-1.3101931E0,2.0361744E-1,2.5462646E0,6.800232E-1,-4.54494E0,4.296147E0,-8.7700194E-1,1.1406641E1,-6.029358E-1,5.056848E0,-6.633693E-1,1.988506E0,8.161902E0,-3.1382086E0,5.535492E0,-5.2124023E-1,8.080588E0,3.2474414E-1,3.6098592E0,2.1486542E0,4.7833333E0,1.354126E0,1.0701691E1],"categories":[],"categories_nodes":[],"categories_segments":[],"categories_sizes":[],"default_left":[1,1,1,1,1,1,1,1,1,1,1,1,1,1,0,1,1,0,0,1,1,1,1,0,0,1,1,0,0,0,1,1,1,1,1,0,0,1,1,1,1,1,1,1,1,0,0,0,0,0,0,0,0,0,0,0,0,0,0,0,0,0,0,0,0,0,0,0,0,0,0],"id":17,"left_children":[1,3,5,7,9,11,13,15,17,19,21,23,25,27,-1,29,31,-1,-1,33,35,37,39,-1,-1,41,43,-1,-1,-1,45,47,49,51,53,-1,-1,55,57,59,61,63,65,67,69,-1,-1,-1,-1,-1,-1,-1,-1,-1,-1,-1,-1,-1,-1,-1,-1,-1,-1,-1,-1,-1,-1,-1,-1,-1,-1],"loss_changes":[5.022157E2,1.4798169E2,5.1560376E2,5.2467613E1,2.1207288E2,4.6033997E2,2.8994177E2,7.480299E1,4.8835426E1,1.2894109E2,2.109867E2,1.3887817E2,2.1924658E2,1.6839203E1,0E0,5.502185E1,9.003875E1,0E0,0E0,1.0821711E2,7.7079163E0,4.0463196E2,4.1595978E2,0E0,0E0,2.204531E2,2.1427386E2,0E0,0E0,0E0,2.6354477E1,1.53452E1,5.1450405E1,5.510909E1,7.305524E1,0E0,0E0,1.3183582E2,3.7531293E2,2.4105493E2,2.920751E2,7.22832E1,1.692315E2,4.6891357E1,1.1753369E2,0E0,0E0,0E0,0E0,0E0,0E0,0E0,0E0,0E0,0E0,0E0,0E0,0E0,0E0,0E0,0E0,0E0,0E0,0E0,0E0,0E0,0E0,0E0,0E0,0E0,0E0],"parents":[2147483647,0,0,1,1,2,2,3,3,4,4,5,5,6,6,7,7,8,8,9,9,10,10,11,11,12,12,13,13,15,15,16,16,19,19,20,20,21,21,22,22,25,25,26,26,30,30,31,31,32,32,33,33,34,34,37,37,38,38,39,39,40,40,41,41,42,42,43,43,44,44],"right_children":[2,4,6,8,10,12,14,16,18,20,22,24,26,28,-1,30,32,-1,-1,34,36,38,40,-1,-1,42,44,-1,-1,-1,46,48,50,52,54,-1,-1,56,58,60,62,64,66,68,70,-1,-1,-1,-1,-1,-1,-1,-1,-1,-1,-1,-1,-1,-1,-1,-1,-1,-1,-1,-1,-1,-1,-1,-1,-1,-1],"split_conditions":[4E0,2.5E0,2.355E2,8.95E1,1.65E1,1.15E1,1.59E2,4.65E1,6.65E1,1.45E1,1.485E2,2.65E1,6.55E1,2.46E2,6.0356445E0,2.3E1,9.15E1,-3.157837E-1,1.8435426E0,8.5E1,8.45E1,2.3E1,1.5E0,6.18089E0,1.4741211E0,4.55E1,4E0,1.8183335E0,2.025879E-1,1.7145779E0,1.5E0,4.95E1,2.355E2,2.9E1,1.5E0,-4.448227E-1,-2.0948822E0,9.95E1,2.75E1,8.15E1,2.5E0,7E0,1.74E2,2.5E0,1.075E2,7.0157194E-1,-2.2085084E-1,-1.1189209E0,-3.9305794E-1,6.1085235E-2,7.638794E-1,2.0400697E-1,-1.363482E0,1.2888441E0,-2.631006E-1,3.4219925E0,-1.8088074E-1,1.5170544E0,-1.990108E-1,5.9655184E-1,2.4485707E0,-9.4146264E-1,1.6606476E0,-1.5637207E-1,2.4241767E0,9.742325E-2,1.0829579E0,6.445963E-1,1.4350001E0,4.062378E-1,3.2105074E0],"split_indices":[6,6,4,2,2,4,3,3,3,2,4,2,2,4,0,2,3,0,0,3,3,2,7,0,0,4,5,0,0,0,8,4,3,3,8,0,0,4,4,3,7,2,3,5,4,0,0,0,0,0,0,0,0,0,0,0,0,0,0,0,0,0,0,0,0,0,0,0,0,0,0],"split_type":[0,0,0,0,0,0,0,0,0,0,0,0,0,0,0,0,0,0,0,0,0,0,0,0,0,0,0,0,0,0,0,0,0,0,0,0,0,0,0,0,0,0,0,0,0,0,0,0,0,0,0,0,0,0,0,0,0,0,0,0,0,0,0,0,0,0,0,0,0,0,0],"sum_hessian":[3.71E2,2.42E2,1.29E2,1.09E2,1.33E2,1.23E2,6E0,1.06E2,3E0,2E1,1.13E2,3E0,1.2E2,4E0,2E0,1.3E1,9.3E1,1E0,2E0,1.7E1,3E0,6.7E1,4.6E1,1E0,2E0,7.9E1,4.1E1,3E0,1E0,3E0,1E1,1.8E1,7.5E1,7E0,1E1,1E0,2E0,5E0,6.2E1,3.1E1,1.5E1,7E0,7.2E1,3.2E1,9E0,6E0,4E0,3E0,1.5E1,6.5E1,1E1,3E0,4E0,6E0,4E0,4E0,1E0,1.4E1,4.8E1,1E1,2.1E1,1E1,5E0,1E0,6E0,5E1,2.2E1,1.8E1,1.4E1,2E0,7E0],"tree_param":{"num_deleted":"0","num_feature":"9","num_nodes":"71","size_leaf_vector":"0"}},{"base_weights":[1.6666341E0,9.5920026E-1,3.1261935E0,5.493588E-1,2.1058846E0,6.836964E-1,4.463933E0,8.7057453E-1,-9.760294E-1,1.2899581E0,4.210024E0,6.3959427E0,-2.4914634E0,1.8058758E0,8.2284565E0,3.4935778E-1,3.328589E0,-4.424764E0,9.494636E-1,4.1293864E0,4.560179E-1,2.4856505E0,5.658213E0,-3.9923096E-1,9.520951E0,-5.036928E0,1.028872E0,4.579898E0,-2.4006435E-1,4.700113E0,1.3023719E1,8.120646E-1,-4.229706E0,8.79597E0,1.6861857E0,-2.2314622E0,-8.253502E0,1.6523767E0,-2.6267395E0,5.7306085E0,1.0617981E0,-2.1779327E0,1.3188008E0,3.4951904E0,1.2300924E0,1.1482239E0,6.078434E0,2.0805511E0,-3.57253E0,-1.3387451E0,1.2082967E1,2.562154E0,-6.220949E0,2.8862813E0,-2.5202394E0,7.714434E0,-2.3434448E0,-2.0871038E0,2.804188E0,6.2325287E0,-1.1436402E0,1.6357613E1,4.4179688E0,2.6167645E0,2.2152726E-1,-6.2188797E0,-2.8756611E0,1.008996E1,1.1630096E0,-1.2637514E0,6.0876226E0,-3.830307E0,5.279648E0,2.8495226E0,-8.06948E-1,5.740051E-1,-3.8849895E0,3.1709473E0,8.086507E0,-2.4088542E-1,2.0105488E0,7.543335E-1,-2.587555E0,3.7410278E0,9.1110796E-1,1.2147827E0,4.6105347E0,2.1469116E-1,1.6841202E0,6.4815454E0,1.6283264E0,3.6373901E0,3.4914145E-1,1.4371361E1,-3.112091E0,-8.393763E0,-1.9656983E-1,-4.4117737E-1,7.155899E0,4.3314615E-1,-4.633545E0,1.2968831E1,5.757965E0,2.881836E0,-3.6946309E0,3.6302123E0,-3.9799237E0,-1.7651672E0,3.4376404E0,2.764862E0,8.6223955E0,-4.7932334E0,2.8871663E0,1.6116943E0,1.799939E1,7.753906E-1,5.1347656E0],"categories":[],"categories_nodes":[],"categories_segments":[],"categories_sizes":[],"default_left":[1,1,1,1,1,1,1,1,1,1,1,1,1,1,1,1,1,1,1,1,1,1,1,1,1,1,1,1,1,1,1,1,1,1,1,1,0,1,1,1,1,1,1,1,1,0,1,1,0,0,1,0,1,1,1,1,1,1,1,1,1,1,1,0,0,0,0,0,0,0,0,0,0,0,0,0,0,0,0,0,0,0,0,0,0,0,0,0,0,0,0,0,0,0,0,0,0,0,0,0,0,0,0,0,0,0,0,0,0,0,0,0,0,0,0,0,0],"id":18,"left_children":[1,3,5,7,9,11,13,15,17,19,21,23,25,27,29,31,33,35,37,39,41,43,45,47,49,51,53,55,57,59,61,63,65,67,69,71,-1,73,75,77,79,81,83,85,87,-1,89,91,-1,-1,93,-1,95,97,99,101,103,105,107,109,111,113,115,-1,-1,-1,-1,-1,-1,-1,-1,-1,-1,-1,-1,-1,-1,-1,-1,-1,-1,-1,-1,-1,-1,-1,-1,-1,-1,-1,-1,-1,-1,-1,-1,-1,-1,-1,-1,-1,-1,-1,-1,-1,-1,-1,-1,-1,-1,-1,-1,-1,-1,-1,-1,-1,-1],"loss_changes":[3.811068E2,1.1727272E2,3.923064E2,9.247574E1,1.0787955E2,8.1397626E2,7.656334E2,1.9741669E2,2.2333812E2,1.1414466E2,3.088559E1,3.4356073E2,2.6504816E2,2.6784723E2,4.802058E2,2.7675534E2,2.2761874E2,8.2353546E1,5.9643078E1,4.7946045E1,9.150084E1,8.3759575E0,1.0077332E1,5.464737E1,3.222259E2,1.6889606E2,9.297211E1,4.5210767E2,1.6329256E2,1.8622894E2,3.0071118E2,1.2517795E2,1.4437775E1,4.752713E1,2.933404E2,1.2830455E2,0E0,5.8238655E1,1.8339352E1,1.657022E1,6.663923E0,1.3963093E1,2.6217262E1,7.1164017E0,2.4045572E0,0E0,3.7970276E0,9.512142E0,0E0,0E0,3.576754E2,0E0,1.9469788E2,1.310198E2,3.321403E1,6.924689E1,6.0069607E1,2.0924127E2,3.7907173E1,1.0875647E2,8.7392876E1,1.8887598E2,9.073494E0,0E0,0E0,0E0,0E0,0E0,0E0,0E0,0E0,0E0,0E0,0E0,0E0,0E0,0E0,0E0,0E0,0E0,0E0,0E0,0E0,0E0,0E0,0E0,0E0,0E0,0E0,0E0,0E0,0E0,0E0,0E0,0E0,0E0,0E0,0E0,0E0,0E0,0E0,0E0,0E0,0E0,0E0,0E0,0E0,0E0,0E0,0E0,0E0,0E0,0E0,0E0,0E0,0E0,0E0],"parents":[2147483647,0,0,1,1,2,2,3,3,4,4,5,5,6,6,7,7,8,8,9,9,10,10,11,11,12,12,13,13,14,14,15,15,16,16,17,17,18,18,19,19,20,20,21,21,22,22,23,23,24,24,25,25,26,26,27,27,28,28,29,29,30,30,31,31,32,32,33,33,34,34,35,35,37,37,38,38,39,39,40,40,41,41,42,42,43,43,44,44,46,46,47,47,50,50,52,52,53,53,54,54,55,55,56,56,57,57,58,58,59,59,60,60,61,61,62,62],"right_children":[2,4,6,8,10,12,14,16,18,20,22,24,26,28,30,32,34,36,38,40,42,44,46,48,50,52,54,56,58,60,62,64,66,68,70,72,-1,74,76,78,80,82,84,86,88,-1,90,92,-1,-1,94,-1,96,98,100,102,104,106,108,110,112,114,116,-1,-1,-1,-1,-1,-1,-1,-1,-1,-1,-1,-1,-1,-1,-1,-1,-1,-1,-1,-1,-1,-1,-1,-1,-1,-1,-1,-1,-1,-1,-1,-1,-1,-1,-1,-1,-1,-1,-1,-1,-1,-1,-1,-1,-1,-1,-1,-1,-1,-1,-1,-1,-1,-1],"split_conditions":[4E0,7.25E1,3.25E1,5.95E1,1.845E2,1.02E2,1.52E2,4.95E1,6.35E1,7.7E1,2.5E0,2.5E0,1.895E2,1.16E2,4E0,4.55E1,5.05E1,2.02E2,2.15E2,1.5E0,8.05E1,2.095E2,7.5E1,9.15E1,8.5E0,3.45E1,1.815E2,1.5E0,2.07E2,1.5E0,1.5E0,5.85E1,9.9E1,1.745E2,1.575E2,1.745E2,-2.4760506E0,1.5E0,1.305E2,1.515E2,7.45E1,7.85E1,1.9E1,1.89E2,7.55E1,3.4446716E-1,9.45E1,6E1,-1.0717591E0,-4.0162355E-1,2.65E1,7.6864624E-1,1.75E2,1.3E1,2.5E0,4.7E1,4.8E1,2.95E1,4.9E1,2.5E0,7.4E1,6.55E1,1.825E2,7.850294E-1,6.645818E-2,-1.865664E0,-8.626984E-1,3.0269883E0,3.489029E-1,-3.7912545E-1,1.8262869E0,-1.1490922E0,1.5838944E0,8.548568E-1,-2.4208441E-1,1.7220154E-1,-1.165497E0,9.512842E-1,2.4259522E0,-7.226563E-2,6.031647E-1,2.2630006E-1,-7.762665E-1,1.1223084E0,2.733324E-1,3.6443484E-1,1.3831605E0,6.440735E-2,5.052361E-1,1.9444637E0,4.8849794E-1,1.091217E0,1.0474244E-1,4.3114085E0,-9.3362737E-1,-2.5181289E0,-5.897095E-2,-1.3235322E-1,2.1467698E0,1.2994385E-1,-1.3900635E0,3.8906496E0,1.7273896E0,8.645508E-1,-1.1083893E0,1.0890638E0,-1.1939771E0,-5.295502E-1,1.0312922E0,8.2945865E-1,2.5867188E0,-1.43797E0,8.661499E-1,4.8350832E-1,5.399817E0,2.326172E-1,1.5404297E0],"split_indices":[5,2,2,2,4,4,4,2,2,2,5,6,4,3,6,2,2,3,4,7,2,4,2,3,2,3,3,7,3,7,8,4,3,3,3,3,0,7,3,3,2,2,4,4,3,0,2,4,0,0,2,0,3,2,6,4,2,4,2,6,2,3,4,0,0,0,0,0,0,0,0,0,0,0,0,0,0,0,0,0,0,0,0,0,0,0,0,0,0,0,0,0,0,0,0,0,0,0,0,0,0,0,0,0,0,0,0,0,0,0,0,0,0,0,0,0,0],"split_type":[0,0,0,0,0,0,0,0,0,0,0,0,0,0,0,0,0,0,0,0,0,0,0,0,0,0,0,0,0,0,0,0,0,0,0,0,0,0,0,0,0,0,0,0,0,0,0,0,0,0,0,0,0,0,0,0,0,0,0,0,0,0,0,0,0,0,0,0,0,0,0,0,0,0,0,0,0,0,0,0,0,0,0,0,0,0,0,0,0,0,0,0,0,0,0,0,0,0,0,0,0,0,0,0,0,0,0,0,0,0,0,0,0,0,0,0,0],"sum_hessian":[3.71E2,2.51E2,1.2E2,1.86E2,6.5E1,4.3E1,7.7E1,1.54E2,3.2E1,4.8E1,1.7E1,1.5E1,2.8E1,4.6E1,3.1E1,1.28E2,2.6E1,1.1E1,2.1E1,1E1,3.8E1,9E0,8E0,5E0,1E1,1.6E1,1.2E1,1.9E1,2.7E1,1.9E1,1.2E1,1.17E2,1.1E1,5E0,2.1E1,8E0,3E0,1.8E1,3E0,6E0,4E0,9E0,2.9E1,4E0,5E0,1E0,7E0,3E0,2E0,2E0,8E0,2E0,1.4E1,8E0,4E0,1.3E1,6E0,1.7E1,1E1,1.5E1,4E0,8E0,4E0,2.8E1,8.9E1,3E0,8E0,4E0,1E0,1.3E1,8E0,7E0,1E0,1.2E1,6E0,1E0,2E0,4E0,2E0,2E0,2E0,1E0,8E0,3E0,2.6E1,2E0,2E0,2E0,3E0,6E0,1E0,1E0,2E0,7E0,1E0,1E1,4E0,5E0,3E0,2E0,2E0,2E0,1.1E1,1E0,5E0,4E0,1.3E1,1E0,9E0,7E0,8E0,2E0,2E0,1E0,7E0,1E0,3E0],"tree_param":{"num_deleted":"0","num_feature":"9","num_nodes":"117","size_leaf_vector":"0"}},{"base_weights":[1.2437663E0,7.1259874E-1,2.3397205E0,3.873513E-1,1.6233363E0,1.1297925E0,4.156282E0,1.9329605E0,1.368995E-1,9.999863E-1,3.2300482E0,2.8812032E0,-1.015432E0,7.099656E0,6.482809E-1,5.7937115E-1,6.3483634E0,-4.420022E-1,8.3129615E-1,3.2458496E0,3.40897E-1,1.9716705E0,4.2693515E0,1.0514427E0,7.775873E0,-3.9584303E0,7.697685E-1,1.15969095E1,2.416517E0,-3.166039E-1,7.186381E0,2.9827747E0,-8.35386E-1,7.45614E0,4.0473938E-1,-1.6545106E-2,-3.8014588E0,-4.0991917E-1,2.303606E0,4.493879E0,8.494385E-1,-1.5795562E0,9.6968484E-1,5.1647186E-1,2.5215454E0,9.7598267E-1,4.559025E0,2.2022648E0,-5.373285E0,2.3897247E0,9.4969635E0,2.7257142E0,-7.2320185E0,-1.6524242E0,2.9259644E0,-5.055542E-1,1.5278204E1,-2.805481E0,4.0957417E0,-1.0403137E0,3.0192413E0,-1.1457062E0,3.7362301E0,-2.7573204E0,1.4804513E0,1.5407509E0,-9.817377E-1,-4.6112595E0,-3.7483725E-1,1.4130087E-1,-2.7013645E0,1.1247534E0,4.6662292E0,2.409912E0,6.4691978E0,-1.9270833E-1,1.6084391E0,-2.657552E0,2.9949952E-2,1.679755E0,-2.3539989E-1,6.687419E-1,2.9830933E-2,2.7815247E0,4.8083496E-1,3.6828918E0,5.6433326E-1,1.1265411E0,-7.2798767E0,1.0263567E1,2.0653687E0,-7.024434E-1,5.2453003E0,-3.549809E0,-1.3413167E1,4.895596E-1,-7.5275674E0,3.266574E0,-4.1036987E-1,-1.1440226E0,7.0492554E-1,-2.4224854E-1,-3.5791423E0,5.098877E-1,6.0719604E0,-2.1491137E0,1.5354716E0],"categories":[],"categories_nodes":[],"categories_segments":[],"categories_sizes":[],"default_left":[1,1,1,1,1,1,1,1,1,1,1,1,1,1,1,1,1,1,1,1,1,1,1,1,1,1,1,1,1,1,0,1,1,0,0,1,1,1,1,1,1,1,1,1,1,0,0,1,1,0,1,1,1,1,1,1,0,1,1,1,0,0,0,0,0,0,0,0,0,0,0,0,0,0,0,0,0,0,0,0,0,0,0,0,0,0,0,0,0,0,0,0,0,0,0,0,0,0,0,0,0,0,0,0,0,0,0],"id":19,"left_children":[1,3,5,7,9,11,13,15,17,19,21,23,25,27,29,31,33,35,37,39,41,43,45,47,49,51,53,55,57,59,-1,61,63,-1,-1,65,67,69,71,73,75,77,79,81,83,-1,-1,85,87,-1,89,91,93,95,97,99,-1,101,103,105,-1,-1,-1,-1,-1,-1,-1,-1,-1,-1,-1,-1,-1,-1,-1,-1,-1,-1,-1,-1,-1,-1,-1,-1,-1,-1,-1,-1,-1,-1,-1,-1,-1,-1,-1,-1,-1,-1,-1,-1,-1,-1,-1,-1,-1,-1,-1],"loss_changes":[2.1488702E2,7.401741E1,2.6125122E2,7.212319E1,6.2871887E1,2.8095618E2,4.9101465E2,1.5171465E2,6.5489395E1,7.14245E1,1.5123306E1,3.5902313E2,1.816777E2,5.1956885E2,1.4737105E2,7.389665E1,3.6487457E1,1.2714522E2,1.3617586E2,2.9081429E1,4.862642E1,6.699463E0,4.13649E0,2.4103867E2,7.927539E1,3.0416718E2,1.1973481E2,5.8690967E2,1.3425525E2,5.3838818E1,0E0,2.9165627E1,6.63945E1,0E0,0E0,1.2175986E2,2.6020325E1,5.216842E1,8.944794E1,1.3225296E1,4.26491E0,1.7430006E1,2.6066254E1,2.764541E-1,2.3763466E0,0E0,0E0,6.3401093E1,7.0163666E1,0E0,2.4378662E1,4.687222E1,1.572284E2,1.4211426E2,1.4977158E1,3.897863E0,0E0,7.065256E0,7.485474E1,5.470845E1,0E0,0E0,0E0,0E0,0E0,0E0,0E0,0E0,0E0,0E0,0E0,0E0,0E0,0E0,0E0,0E0,0E0,0E0,0E0,0E0,0E0,0E0,0E0,0E0,0E0,0E0,0E0,0E0,0E0,0E0,0E0,0E0,0E0,0E0,0E0,0E0,0E0,0E0,0E0,0E0,0E0,0E0,0E0,0E0,0E0,0E0,0E0],"parents":[2147483647,0,0,1,1,2,2,3,3,4,4,5,5,6,6,7,7,8,8,9,9,10,10,11,11,12,12,13,13,14,14,15,15,16,16,17,17,18,18,19,19,20,20,21,21,22,22,23,23,24,24,25,25,26,26,27,27,28,28,29,29,31,31,32,32,35,35,36,36,37,37,38,38,39,39,40,40,41,41,42,42,43,43,44,44,47,47,48,48,50,50,51,51,52,52,53,53,54,54,55,55,57,57,58,58,59,59],"right_children":[2,4,6,8,10,12,14,16,18,20,22,24,26,28,30,32,34,36,38,40,42,44,46,48,50,52,54,56,58,60,-1,62,64,-1,-1,66,68,70,72,74,76,78,80,82,84,-1,-1,86,88,-1,90,92,94,96,98,100,-1,102,104,106,-1,-1,-1,-1,-1,-1,-1,-1,-1,-1,-1,-1,-1,-1,-1,-1,-1,-1,-1,-1,-1,-1,-1,-1,-1,-1,-1,-1,-1,-1,-1,-1,-1,-1,-1,-1,-1,-1,-1,-1,-1,-1,-1,-1,-1,-1,-1],"split_conditions":[4E0,7.25E1,1.625E2,4.05E1,1.845E2,9.85E1,1.5E0,2.75E1,1.525E2,7.7E1,2.5E0,8.4E1,2.65E1,2.025E2,9.25E1,2.65E1,4.3E1,2.5E0,2.5E0,1.5E0,8.05E1,3.5E0,7.5E1,7.45E1,2.5E0,9.5E0,9.55E1,1.7E1,2.55E1,2.48E2,2.1559143E0,8.5E0,4.85E1,2.2368422E0,1.2142182E-1,6.15E1,5.3E1,2.28E2,1.5E0,1.515E2,7.45E1,1.365E2,1.5E0,1.605E2,2.5E0,2.9279482E-1,1.3677075E0,4.7E1,4.1E1,7.1691746E-1,6.7E1,1.455E2,4E0,1.525E2,1.595E2,1.1E1,4.5834613E0,1.1E1,1.57E2,1.675E2,9.0577245E-1,-3.4371185E-1,1.120869E0,-8.271962E-1,4.4413543E-1,4.622253E-1,-2.945213E-1,-1.3833779E0,-1.1245118E-1,4.2390265E-2,-8.1040937E-1,3.37426E-1,1.3998688E0,7.2297364E-1,1.9407594E0,-5.78125E-2,4.8253176E-1,-7.9726565E-1,8.984986E-3,5.039265E-1,-7.061997E-2,2.0062257E-1,8.94928E-3,8.3445746E-1,1.442505E-1,1.1048676E0,1.6929999E-1,3.3796236E-1,-2.183963E0,3.0790703E0,6.196106E-1,-2.1073304E-1,1.5735902E0,-1.0649427E0,-4.02395E0,1.4686789E-1,-2.2582703E0,9.799722E-1,-1.23110965E-1,-3.432068E-1,2.1147767E-1,-7.2674565E-2,-1.0737427E0,1.5296632E-1,1.8215882E0,-6.4473414E-1,4.6064147E-1],"split_indices":[5,2,3,3,4,3,8,3,4,2,5,3,2,3,2,2,2,7,5,7,2,6,2,3,6,2,4,2,2,3,0,2,2,0,0,4,2,3,8,3,2,3,8,3,7,0,0,3,2,0,2,3,6,3,3,2,0,2,4,4,0,0,0,0,0,0,0,0,0,0,0,0,0,0,0,0,0,0,0,0,0,0,0,0,0,0,0,0,0,0,0,0,0,0,0,0,0,0,0,0,0,0,0,0,0,0,0],"split_type":[0,0,0,0,0,0,0,0,0,0,0,0,0,0,0,0,0,0,0,0,0,0,0,0,0,0,0,0,0,0,0,0,0,0,0,0,0,0,0,0,0,0,0,0,0,0,0,0,0,0,0,0,0,0,0,0,0,0,0,0,0,0,0,0,0,0,0,0,0,0,0,0,0,0,0,0,0,0,0,0,0,0,0,0,0,0,0,0,0,0,0,0,0,0,0,0,0,0,0,0,0,0,0,0,0,0,0],"sum_hessian":[3.71E2,2.51E2,1.2E2,1.86E2,6.5E1,7.3E1,4.7E1,2.5E1,1.61E2,4.8E1,1.7E1,4E1,3.3E1,2.5E1,2.2E1,2E1,5E0,8.8E1,7.3E1,1E1,3.8E1,9E0,8E0,3E1,1E1,1.2E1,2.1E1,1.2E1,1.3E1,2E1,2E0,7E0,1.3E1,4E0,1E0,7.9E1,9E0,4E1,3.3E1,6E0,4E0,9E0,2.9E1,3E0,6E0,1E0,7E0,2.6E1,4E0,3E0,7E0,4E0,8E0,1E1,1.1E1,3E0,9E0,3E0,1E1,1.7E1,3E0,1E0,6E0,7E0,6E0,3E1,4.9E1,7E0,2E0,3.3E1,7E0,2.3E1,1E1,4E0,2E0,2E0,2E0,5E0,4E0,1.8E1,1.1E1,2E0,1E0,5E0,1E0,1.3E1,1.3E1,1E0,3E0,6E0,1E0,2E0,2E0,6E0,2E0,8E0,2E0,1E1,1E0,2E0,1E0,1E0,2E0,4E0,6E0,1.2E1,5E0],"tree_param":{"num_deleted":"0","num_feature":"9","num_nodes":"107","size_leaf_vector":"0"}},{"base_weights":[9.1095006E-1,4.5250883E0,7.986117E-1,-6.74881E-1,8.970876E0,-9.411596E-2,1.2307264E0,-3.3103104E0,3.063985E0,1.1261383E1,2.9265747E0,1.2958747E0,-9.877522E-1,5.0346985E0,8.4992766E-1,-1.550158E-1,2.9516602E0,-3.152396E0,-2.2200705E-1,8.30143E-1,6.9414816E0,-8.5345596E-1,1.58698E0,-3.4547486E0,6.0196966E-1,4.9919205E0,4.5758888E-1,-1.3822194E0,-7.832446E0,1.9616394E0,-6.9188654E-1,4.3784432E0,-1.0823644E0,1.9621887E0,8.022789E0,-2.463159E0,8.2869315E-1,1.0310404E0,3.4114718E0,2.0269165E0,-3.5706547E-1,-9.7384644E-1,5.6227946E0,1.7945906E0,-1.5057312E0,1.3220215E0,-2.1684482E0,-9.939758E0,2.9840088E-1,-3.3655658E-1,5.4930725E0,-1.1173767E1,-2.1064995E-1,-2.6804771E0,1.4092407E0,3.6353555E-1,3.379074E0,-6.3826245E-1,-5.9076896E0,3.6309342E0,-4.9019623E-1,-2.4127978E-1,1.710518E0,1.0202881E0,4.170745E0],"categories":[],"categories_nodes":[],"categories_segments":[],"categories_sizes":[],"default_left":[1,1,1,1,1,1,1,0,0,0,0,1,1,1,1,1,1,1,1,1,1,1,1,0,1,1,1,1,1,1,1,0,1,1,0,1,1,1,1,0,0,0,0,0,0,0,0,0,0,0,0,0,0,0,0,0,0,0,0,0,0,0,0,0,0],"id":20,"left_children":[1,3,5,7,9,11,13,-1,-1,-1,-1,15,17,19,21,23,25,27,29,31,33,35,37,-1,39,41,43,45,47,49,51,-1,53,55,-1,57,59,61,63,-1,-1,-1,-1,-1,-1,-1,-1,-1,-1,-1,-1,-1,-1,-1,-1,-1,-1,-1,-1,-1,-1,-1,-1,-1,-1],"loss_changes":[1.474205E2,2.6035184E2,1.3976122E2,6.926385E1,5.010977E1,1.4909538E2,3.491665E2,0E0,0E0,0E0,0E0,1.1336863E2,1.2030242E2,1.7061548E2,2.813271E2,6.7023735E1,1.09663956E2,1.4657964E2,5.7790024E1,5.9028275E1,6.502002E1,1.8616893E2,1.547146E2,0E0,3.0788368E1,5.0639496E1,3.1576756E1,3.475901E1,8.863721E1,8.300798E1,2.2968242E2,0E0,2.7668633E1,7.832019E0,0E0,2.1623628E2,1.2743864E2,1.0501877E2,6.1104828E1,0E0,0E0,0E0,0E0,0E0,0E0,0E0,0E0,0E0,0E0,0E0,0E0,0E0,0E0,0E0,0E0,0E0,0E0,0E0,0E0,0E0,0E0,0E0,0E0,0E0,0E0],"parents":[2147483647,0,0,1,1,2,2,3,3,4,4,5,5,6,6,11,11,12,12,13,13,14,14,15,15,16,16,17,17,18,18,19,19,20,20,21,21,22,22,24,24,25,25,26,26,27,27,28,28,29,29,30,30,32,32,33,33,35,35,36,36,37,37,38,38],"right_children":[2,4,6,8,10,12,14,-1,-1,-1,-1,16,18,20,22,24,26,28,30,32,34,36,38,-1,40,42,44,46,48,50,52,-1,54,56,-1,58,60,62,64,-1,-1,-1,-1,-1,-1,-1,-1,-1,-1,-1,-1,-1,-1,-1,-1,-1,-1,-1,-1,-1,-1,-1,-1,-1,-1],"split_conditions":[1.05E1,1.355E2,3.3E1,8.15E1,1.5E0,9.85E1,3.75E1,-9.9309313E-1,9.191956E-1,3.378415E0,8.779724E-1,4E0,1.215E2,2.5E0,8.65E1,5.5E0,2.05E1,4E0,1.4E2,5.55E1,2.5E0,6.7E1,8.25E1,-1.0364246E0,3.85E1,8E0,1.04E2,5E1,1.95E2,2.2E1,1.48E2,1.3135331E0,1.495E2,3.5E1,2.4068367E0,5.65E1,7.9E1,2.5E0,2.5E0,6.0807496E-1,-1.0711964E-1,-2.9215395E-1,1.6868385E0,5.383772E-1,-4.5171937E-1,3.9660648E-1,-6.505345E-1,-2.9819276E0,8.952027E-2,-1.0096698E-1,1.6479218E0,-3.3521302E0,-6.319499E-2,-8.041432E-1,4.2277223E-1,1.0906067E-1,1.0137223E0,-1.9147874E-1,-1.7723069E0,1.0892804E0,-1.4705887E-1,-7.238394E-2,5.131554E-1,3.0608645E-1,1.2512236E0],"split_indices":[4,3,2,2,7,3,2,0,0,0,0,6,3,5,4,2,2,6,3,4,6,2,2,0,3,3,4,4,4,2,3,0,3,2,0,2,2,6,5,0,0,0,0,0,0,0,0,0,0,0,0,0,0,0,0,0,0,0,0,0,0,0,0,0,0],"split_type":[0,0,0,0,0,0,0,0,0,0,0,0,0,0,0,0,0,0,0,0,0,0,0,0,0,0,0,0,0,0,0,0,0,0,0,0,0,0,0,0,0,0,0,0,0,0,0,0,0,0,0,0,0,0,0,0,0,0,0,0,0,0,0,0,0],"sum_hessian":[3.71E2,1E1,3.61E2,5E0,5E0,1.18E2,2.43E2,3E0,2E0,3E0,2E0,4.6E1,7.2E1,2.1E1,2.22E2,2.5E1,2.1E1,1.8E1,5.4E1,7E0,1.4E1,6.7E1,1.55E2,4E0,2.1E1,1.1E1,1E1,1.4E1,4E0,9E0,4.5E1,2E0,5E0,3E0,1.1E1,3.4E1,3.3E1,1.2E2,3.5E1,8E0,1.3E1,1E0,1E1,6E0,4E0,3E0,1.1E1,3E0,1E0,6E0,3E0,1E0,4.4E1,3E0,2E0,2E0,1E0,2.3E1,1.1E1,1E1,2.3E1,4.2E1,7.8E1,9E0,2.6E1],"tree_param":{"num_deleted":"0","num_feature":"9","num_nodes":"65","size_leaf_vector":"0"}},{"base_weights":[6.525837E-1,2.448377E0,4.9929717E-1,3.5921006E0,-1.659341E0,-2.999795E0,5.915368E-1,2.014447E0,5.822401E0,-3.0195618E0,1.1608073E0,1.1907997E0,-5.2935586E0,3.957177E-1,1.7037079E0,-7.7186966E-1,2.7753487E0,9.071045E0,2.6862385E0,-3.461586E0,-6.257324E-1,3.4484863E-1,1.3578339E0,-1.743164E-1,-6.282544E0,1.7356763E0,2.0272475E-1,-7.642321E-1,2.591477E0,-2.3343353E0,1.9577637E0,3.6030827E0,8.9590454E-1,2.1706238E0,1.0647644E1,-1.7843628E0,-6.9609985E0,4.6079037E-1,5.509135E0,-1.5084473E0,3.8946414E-1,-1.6138642E0,1.0878785E0,1.3644037E0,4.300224E0,1.564331E0,5.2507515E0,2.743103E0,-2.5167084E-1,1.5129623E0,-1.9285685E0,2.7981567E0,6.3982644E0,-5.3391457E-2,-3.6856918E0,-3.5794463E-2,1.2749455E0,1.9386597E0,-2.2239957E0,4.443634E0,-8.61969E-1,1.8053284E0,-1.1813202E0,2.207251E0,7.071808E0],"categories":[],"categories_nodes":[],"categories_segments":[],"categories_sizes":[],"default_left":[1,1,1,1,1,1,1,1,1,1,0,1,1,1,1,1,1,1,0,0,0,0,0,0,1,1,1,1,1,0,0,1,1,0,0,0,0,1,1,1,1,1,1,1,1,0,0,0,0,0,0,0,0,0,0,0,0,0,0,0,0,0,0,0,0],"id":21,"left_children":[1,3,5,7,9,11,13,15,17,19,-1,21,23,25,27,29,31,33,-1,-1,-1,-1,-1,-1,35,37,39,41,43,-1,-1,45,47,-1,-1,-1,-1,49,51,53,55,57,59,61,63,-1,-1,-1,-1,-1,-1,-1,-1,-1,-1,-1,-1,-1,-1,-1,-1,-1,-1,-1,-1],"loss_changes":[1.0117836E2,1.4220528E2,1.12802246E2,6.919983E1,3.0357298E1,9.2813675E1,7.250136E1,3.394391E1,6.7327484E1,3.1246223E0,0E0,9.6963406E-2,2.9281982E1,7.3867065E1,1.1152852E2,2.1629911E1,1.5440132E1,2.0404755E1,0E0,0E0,0E0,0E0,0E0,0E0,2.8381195E0,1.7064772E2,8.1112366E1,2.378626E1,7.171277E1,0E0,0E0,1.8659584E1,1.1289357E1,0E0,0E0,0E0,0E0,7.331032E1,3.7903137E0,7.900351E1,8.5900986E1,2.5986637E1,3.6546333E1,2.7949535E1,7.14035E1,0E0,0E0,0E0,0E0,0E0,0E0,0E0,0E0,0E0,0E0,0E0,0E0,0E0,0E0,0E0,0E0,0E0,0E0,0E0,0E0],"parents":[2147483647,0,0,1,1,2,2,3,3,4,4,5,5,6,6,7,7,8,8,9,9,11,11,12,12,13,13,14,14,15,15,16,16,17,17,24,24,25,25,26,26,27,27,28,28,31,31,32,32,37,37,38,38,39,39,40,40,41,41,42,42,43,43,44,44],"right_children":[2,4,6,8,10,12,14,16,18,20,-1,22,24,26,28,30,32,34,-1,-1,-1,-1,-1,-1,36,38,40,42,44,-1,-1,46,48,-1,-1,-1,-1,50,52,54,56,58,60,62,64,-1,-1,-1,-1,-1,-1,-1,-1,-1,-1,-1,-1,-1,-1,-1,-1,-1,-1,-1,-1],"split_conditions":[2.75E1,2.5E0,3.25E1,4E0,6.95E1,6.5E1,8.25E1,2.55E1,1.5E0,5.45E1,3.482422E-1,3.2E1,1.7E1,5.85E1,7.05E1,1.825E2,7.75E1,8E0,8.058716E-1,-1.0384759E0,-1.8771973E-1,1.034546E-1,4.0735018E-1,-5.2294925E-2,2.5E0,4E0,7.05E1,1.7E2,1.84E2,-7.0030063E-1,5.8732915E-1,9.5E1,1.5E0,6.511872E-1,3.1942933E0,-5.3530884E-1,-2.0882998E0,1.5E0,2.5E0,1.735E2,1.74E2,8.4E1,1.91E2,1.63E2,4E0,4.6929935E-1,1.5752255E0,8.2293093E-1,-7.5501256E-2,4.538887E-1,-5.7857054E-1,8.394471E-1,1.9194794E0,-1.6017437E-2,-1.1057076E0,-1.0738339E-2,3.8248366E-1,5.815979E-1,-6.671987E-1,1.3330903E0,-2.585907E-1,5.4159856E-1,-3.5439608E-1,6.6217536E-1,2.1215425E0],"split_indices":[4,7,4,5,2,3,2,2,8,2,0,2,2,4,4,3,2,4,0,0,0,0,0,0,6,5,4,3,3,0,0,3,8,0,0,0,0,8,6,3,3,2,3,3,6,0,0,0,0,0,0,0,0,0,0,0,0,0,0,0,0,0,0,0,0],"split_type":[0,0,0,0,0,0,0,0,0,0,0,0,0,0,0,0,0,0,0,0,0,0,0,0,0,0,0,0,0,0,0,0,0,0,0,0,0,0,0,0,0,0,0,0,0,0,0,0,0,0,0,0,0,0,0,0,0,0,0,0,0,0,0,0,0],"sum_hessian":[3.71E2,2.8E1,3.43E2,2.2E1,6E0,8E0,3.35E2,1.4E1,8E0,4E0,2E0,3E0,5E0,2.86E2,4.9E1,3E0,1.1E1,3E0,5E0,3E0,1E0,1E0,2E0,1E0,4E0,3.5E1,2.51E2,1.3E1,3.6E1,2E0,1E0,7E0,4E0,1E0,2E0,1E0,3E0,2.7E1,8E0,2.4E1,2.27E2,9E0,4E0,2.2E1,1.4E1,4E0,3E0,1E0,3E0,1.9E1,8E0,3E0,5E0,1.5E1,9E0,1.54E2,7.3E1,1E0,8E0,1E0,3E0,1.9E1,3E0,9E0,5E0],"tree_param":{"num_deleted":"0","num_feature":"9","num_nodes":"65","size_leaf_vector":"0"}},{"base_weights":[4.8404276E-1,2.2340546E0,3.7297636E-1,-3.347748E-1,4.0382266E0,1.3030848E-1,1.0752653E0,-2.3272502E0,2.1231506E0,5.900678E0,1.5988857E0,2.510484E-1,-2.0264447E0,1.6017741E0,-1.8973378E0,-3.0154724E0,5.5693054E-1,2.9984741E0,1.1547012E0,9.319092E0,2.6694946E0,-6.279907E-1,2.0746968E0,1.6803694E-1,3.096867E0,5.234782E-1,-2.495055E0,7.887555E-1,3.8794396E0,-3.7687023E0,-4.389462E-1,3.31073E0,1.1384277E0,2.4288087E0,1.5206909E-1,2.129899E-1,-3.4991963E0,5.643402E0,-2.2388458E-1,1.3580322E-1,6.4941406E-1,-1.6794213E0,-3.7064667E0,1.2762226E0,-1.4100785E0,9.964027E0,2.2195694E0,-4.256842E0,-6.6400146E-1,4.9997965E-1,-1.7375984E0,-6.239929E-1,2.3316345E0,9.326094E-1,1.972506E-2,-5.1300507E0,-1.187439E-1,1.9671326E0,-1.6099344E0,-1.9287243E0,1.5750122E-1,-3.3047825E-1,2.167977E0,-3.2220023E0,1.4086304E0,6.2589784E0,4.952146E-1,1.5180969E0,-3.886032E-1],"categories":[],"categories_nodes":[],"categories_segments":[],"categories_sizes":[],"default_left":[1,1,1,1,1,1,1,1,1,1,1,1,1,1,1,0,0,0,0,0,1,0,1,1,1,1,1,1,1,1,1,0,1,0,0,1,1,0,1,0,0,1,0,1,1,0,1,0,0,1,0,0,0,0,0,0,0,0,0,0,0,0,0,0,0,0,0,0,0],"id":22,"left_children":[1,3,5,7,9,11,13,15,17,19,21,23,25,27,29,-1,-1,-1,-1,-1,31,-1,33,35,37,39,41,43,45,47,49,-1,51,-1,-1,53,55,-1,57,-1,-1,59,-1,61,63,-1,65,-1,-1,67,-1,-1,-1,-1,-1,-1,-1,-1,-1,-1,-1,-1,-1,-1,-1,-1,-1,-1,-1],"loss_changes":[7.147145E1,1.0331335E2,5.967834E1,5.3914658E1,4.9626495E1,6.8735146E1,1.4389825E2,1.3589153E1,7.761898E-1,5.2441376E1,8.719898E0,5.8302254E1,1.8034992E1,1.3952748E2,3.655429E1,0E0,0E0,0E0,0E0,0E0,1.1398468E0,0E0,3.7156029E0,4.080457E1,6.045835E1,5.827403E-2,5.6320953E0,6.3967407E1,1.7987665E2,6.2666245E0,1.1842807E1,0E0,7.7637205E0,0E0,0E0,3.34992E1,1.5929913E1,0E0,1.5314391E1,0E0,0E0,4.425329E0,0E0,6.949004E1,6.071875E1,0E0,1.15311844E2,0E0,0E0,6.0180264E0,0E0,0E0,0E0,0E0,0E0,0E0,0E0,0E0,0E0,0E0,0E0,0E0,0E0,0E0,0E0,0E0,0E0,0E0,0E0],"parents":[2147483647,0,0,1,1,2,2,3,3,4,4,5,5,6,6,7,7,8,8,9,9,10,10,11,11,12,12,13,13,14,14,20,20,22,22,23,23,24,24,25,25,26,26,27,27,28,28,29,29,30,30,32,32,35,35,36,36,38,38,41,41,43,43,44,44,46,46,49,49],"right_children":[2,4,6,8,10,12,14,16,18,20,22,24,26,28,30,-1,-1,-1,-1,-1,32,-1,34,36,38,40,42,44,46,48,50,-1,52,-1,-1,54,56,-1,58,-1,-1,60,-1,62,64,-1,66,-1,-1,68,-1,-1,-1,-1,-1,-1,-1,-1,-1,-1,-1,-1,-1,-1,-1,-1,-1,-1,-1],"split_conditions":[2.4E1,9.7E1,1.895E2,6.4E1,1.5E0,1.825E2,2.29E2,2.25E1,3.5E1,5.2E1,1.4E1,1.765E2,5.2E1,1.77E2,2.105E2,-9.0464175E-1,1.6707917E-1,8.995423E-1,3.464104E-1,2.7957277E0,7.75E1,-1.8839723E-1,6.5E1,1.755E2,1.5E0,2.55E1,4E0,1.535E2,1.885E2,4E0,2.345E2,9.93219E-1,8.35E1,7.2864264E-1,4.562073E-2,5.6E1,5.8E1,1.6930207E0,1.39E2,4.0740967E-2,1.9482423E-1,8.05E1,-1.11194E0,6.95E1,4E0,2.9892082E0,2.045E2,-1.2770526E0,-1.9920045E-1,5.15E1,-5.212796E-1,-1.8719788E-1,6.9949037E-1,2.7978283E-1,5.9175184E-3,-1.5390153E0,-3.562317E-2,5.901398E-1,-4.8298034E-1,-5.7861733E-1,4.7250368E-2,-9.914348E-2,6.503931E-1,-9.666007E-1,4.2258912E-1,1.8776935E0,1.4856438E-1,4.554291E-1,-1.1658097E-1],"split_indices":[4,3,4,2,7,4,3,4,3,2,2,4,3,3,4,0,0,0,0,0,2,0,2,4,8,3,5,3,3,6,4,0,2,0,0,3,2,0,3,0,0,2,0,3,5,0,4,0,0,2,0,0,0,0,0,0,0,0,0,0,0,0,0,0,0,0,0,0,0],"split_type":[0,0,0,0,0,0,0,0,0,0,0,0,0,0,0,0,0,0,0,0,0,0,0,0,0,0,0,0,0,0,0,0,0,0,0,0,0,0,0,0,0,0,0,0,0,0,0,0,0,0,0,0,0,0,0,0,0,0,0,0,0,0,0,0,0,0,0,0,0],"sum_hessian":[3.71E2,2.1E1,3.5E2,9E0,1.2E1,2.61E2,8.9E1,5E0,4E0,6E0,6E0,2.48E2,1.3E1,7.6E1,1.3E1,4E0,1E0,1E0,3E0,2E0,4E0,1E0,5E0,2.42E2,6E0,2E0,1.1E1,5.7E1,1.9E1,5E0,8E0,2E0,2E0,4E0,1E0,2.4E2,2E0,3E0,3E0,1E0,1E0,8E0,3E0,4.7E1,1E1,3E0,1.6E1,4E0,1E0,5E0,3E0,1E0,1E0,5E1,1.9E2,1E0,1E0,1E0,2E0,7E0,1E0,1.7E1,3E1,6E0,4E0,4E0,1.2E1,2E0,3E0],"tree_param":{"num_deleted":"0","num_feature":"9","num_nodes":"69","size_leaf_vector":"0"}},{"base_weights":[3.5996756E-1,2.5168762E0,2.9343173E-1,8.380798E0,1.0924041E0,-2.5314933E-1,5.5879945E-1,-9.698715E-1,2.1147897E0,7.9257005E-1,-9.2295295E-1,2.9783478E0,1.7953578E-1,-1.6840719E0,5.8636475E-1,4.522705E-1,2.3164978E0,-1.2988046E-1,1.846713E0,-2.6082373E0,-3.6477306E-1,-5.2105385E-1,5.2790117E0,-6.185465E-1,8.5807943E-1,2.748993E0,9.676717E-1,-2.3226197E0,3.74373E-1,7.798749E-1,4.5616355E0,-1.4789088E0,-1.0903412E1,-1.82236E-1,-3.5288494E0,1.7702459E0,-1.9906921E0,1.3793182E0,6.4869547E0,-1.7632091E0,5.155939E-1,-2.2005565E-1,1.352167E0,-5.303955E-1,1.9819031E0,1.3665483E0,-2.9019493E-1,2.2653778E0,-1.1744881E0,4.98009E0,1.2346802E0,6.4576113E-1,-2.1823273E0,1.0189285E0,-8.63409E-1,-8.773575E-1,4.710302E0,2.3774567E0,-2.8338928E0,2.2514038E0,-2.4323528E-1,3.9265099E0,8.23653E0,-6.7246747E-1,-3.1855092E0,-2.8248258E-2,1.786442E0,3.304696E-1,-6.5694985E0,7.065125E-2,2.0940332E0],"categories":[],"categories_nodes":[],"categories_segments":[],"categories_sizes":[],"default_left":[1,1,1,0,1,1,1,1,1,1,1,1,1,0,0,0,1,1,1,1,1,1,1,1,1,0,1,0,1,1,1,1,0,1,0,1,1,1,1,1,1,1,1,0,0,0,0,0,0,0,0,0,0,0,0,0,0,0,0,0,0,0,0,0,0,0,0,0,0,0,0],"id":23,"left_children":[1,3,5,-1,7,9,11,13,15,17,19,21,23,-1,-1,-1,25,27,29,31,33,35,37,39,41,-1,43,-1,45,47,49,51,-1,53,-1,55,57,59,61,63,65,67,69,-1,-1,-1,-1,-1,-1,-1,-1,-1,-1,-1,-1,-1,-1,-1,-1,-1,-1,-1,-1,-1,-1,-1,-1,-1,-1,-1,-1],"loss_changes":[5.2647808E1,8.27277E1,5.2647736E1,0E0,2.3135483E1,8.408227E1,2.2337108E2,5.433338E0,1.2997189E0,4.5942406E1,6.7719086E1,2.684319E2,1.1533589E2,0E0,0E0,0E0,8.400421E-1,2.9617628E1,6.0162903E1,1.5249844E2,3.1700346E1,5.0667355E1,8.526459E1,1.2813348E2,6.1557274E1,0E0,5.609352E0,0E0,1.4902659E1,5.201526E1,2.2042618E0,2.6816307E1,0E0,4.5062595E1,0E0,5.0837234E1,3.9886497E1,9.037654E0,3.4854553E1,7.38746E1,3.4607506E1,1.3150558E2,7.495839E1,0E0,0E0,0E0,0E0,0E0,0E0,0E0,0E0,0E0,0E0,0E0,0E0,0E0,0E0,0E0,0E0,0E0,0E0,0E0,0E0,0E0,0E0,0E0,0E0,0E0,0E0,0E0,0E0],"parents":[2147483647,0,0,1,1,2,2,4,4,5,5,6,6,7,7,8,8,9,9,10,10,11,11,12,12,16,16,17,17,18,18,19,19,20,20,21,21,22,22,23,23,24,24,26,26,28,28,29,29,30,30,31,31,33,33,35,35,36,36,37,37,38,38,39,39,40,40,41,41,42,42],"right_children":[2,4,6,-1,8,10,12,14,16,18,20,22,24,-1,-1,-1,26,28,30,32,34,36,38,40,42,-1,44,-1,46,48,50,52,-1,54,-1,56,58,60,62,64,66,68,70,-1,-1,-1,-1,-1,-1,-1,-1,-1,-1,-1,-1,-1,-1,-1,-1,-1,-1,-1,-1,-1,-1,-1,-1,-1,-1,-1,-1],"split_conditions":[1.05E1,2.65E1,3.3E1,2.5142395E0,9.95E1,9.85E1,3.95E1,6.8E1,4.15E1,4E0,1.205E2,2.5E0,1.285E2,-5.052216E-1,1.7590943E-1,1.3568115E-1,7.75E1,5.5E0,6.25E1,1.19E2,3.05E1,3.55E1,2.5E0,6.7E1,8.65E1,8.246979E-1,8.35E1,-6.967859E-1,1.35E1,1.195E2,2.05E1,9E0,-3.2710238E0,1.035E2,-1.0586549E0,1.495E2,5.1E1,1.5E0,1.25E2,5.35E1,4E0,8E1,2.5E0,-1.5911865E-1,5.9457093E-1,4.099645E-1,-8.7058485E-2,6.7961335E-1,-3.5234642E-1,1.4940271E0,3.7040406E-1,1.9372834E-1,-6.546982E-1,3.0567858E-1,-2.590227E-1,-2.6320726E-1,1.4130906E0,7.1323705E-1,-8.501679E-1,6.754212E-1,-7.2970584E-2,1.177953E0,2.4709592E0,-2.0174025E-1,-9.556528E-1,-8.474478E-3,5.3593266E-1,9.914089E-2,-1.9708496E0,2.1195374E-2,6.2821E-1],"split_indices":[4,2,2,0,3,3,2,2,2,6,3,5,4,0,0,0,2,2,3,3,2,2,6,2,3,0,2,0,2,4,2,2,0,4,0,3,3,7,3,2,5,3,6,0,0,0,0,0,0,0,0,0,0,0,0,0,0,0,0,0,0,0,0,0,0,0,0,0,0,0,0],"split_type":[0,0,0,0,0,0,0,0,0,0,0,0,0,0,0,0,0,0,0,0,0,0,0,0,0,0,0,0,0,0,0,0,0,0,0,0,0,0,0,0,0,0,0,0,0,0,0,0,0,0,0,0,0,0,0,0,0,0,0,0,0,0,0,0,0,0,0,0,0,0,0],"sum_hessian":[3.71E2,1E1,3.61E2,1E0,9E0,1.18E2,2.43E2,3E0,6E0,4.6E1,7.2E1,3.2E1,2.11E2,2E0,1E0,1E0,5E0,2.5E1,2.1E1,1.7E1,5.5E1,1.3E1,1.9E1,9.7E1,1.14E2,3E0,2E0,4E0,2.1E1,1.6E1,5E0,1.6E1,1E0,5.3E1,2E0,5E0,8E0,5E0,1.4E1,4.8E1,4.9E1,3.6E1,7.8E1,1E0,1E0,8E0,1.3E1,9E0,7E0,4E0,1E0,4E0,1.2E1,1.9E1,3.4E1,3E0,2E0,1E0,7E0,3E0,2E0,7E0,7E0,2.8E1,2E1,3.5E1,1.4E1,3.4E1,2E0,2.9E1,4.9E1],"tree_param":{"num_deleted":"0","num_feature":"9","num_nodes":"71","size_leaf_vector":"0"}},{"base_weights":[2.6291057E-1,1.4229662E0,1.6435091E-1,1.9897394E0,-6.425694E-1,-1.4629865E0,2.5342652E-1,1.0555115E0,3.3257039E0,-1.5774384E0,4.529419E-1,1.4880753E-1,-4.0170636E0,1.9288971E0,1.9994181E-1,-6.0852814E-1,1.522232E0,5.85907E0,1.7648752E0,-5.69458E-2,6.418864E-1,8.596481E-1,-2.2702637E0,-5.5379257E0,-1.4919357E0,5.094836E0,-1.0308685E0,-1.316651E-1,5.451468E-1,-1.5759989E0,1.1469421E0,4.5185548E-1,2.0009384E0,1.6649475E0,7.123657E0,3.843994E-1,1.9308878E0,-4.6824035E-1,1.8229471E0,-3.0395508E-1,-1.786611E0,5.5947266E0,1.5476379E0,1.3258362E-1,-1.2900757E0,2.3069482E-1,-1.5132864E0,5.8522797E0,3.3065715E-1,-3.5561118E-1,1.1087036E0,2.6545777E0,6.836548E-1,-1.6281637E0,8.4776306E-1,2.8863983E0,-2.0263672E-1,-1.4619293E0,-3.0133057E-1,-1.0250055E-1,1.5674186E0,-5.7547708E0,-1.068357E0,6.7907715E0,5.799103E-1,-7.258502E-1,8.9292216E-1],"categories":[],"categories_nodes":[],"categories_segments":[],"categories_sizes":[],"default_left":[1,1,1,1,1,1,1,1,1,0,1,1,1,1,1,1,1,1,1,0,0,1,0,0,1,1,1,1,1,0,0,1,1,0,0,0,0,1,1,0,0,0,0,0,1,1,1,1,1,0,0,0,0,0,0,0,0,0,0,0,0,0,0,0,0,0,0],"id":24,"left_children":[1,3,5,7,9,11,13,15,17,-1,19,21,23,25,27,29,31,33,35,-1,-1,37,-1,-1,39,41,43,45,47,-1,-1,49,51,-1,-1,-1,-1,53,55,-1,-1,-1,-1,-1,57,59,61,63,65,-1,-1,-1,-1,-1,-1,-1,-1,-1,-1,-1,-1,-1,-1,-1,-1,-1,-1],"loss_changes":[4.2298645E1,3.5228565E1,5.0235634E1,2.5195862E1,7.883604E0,7.46974E1,2.8917467E1,1.2575943E1,2.5246826E1,0E0,4.219147E-1,2.2586517E1,1.8620369E1,9.89565E1,3.647399E1,8.601045E0,5.2446194E0,4.0509872E0,8.620014E-1,0E0,0E0,1.3645114E1,0E0,0E0,8.5722446E-1,2.0742798E-1,1.980494E0,8.19541E1,1.7564365E2,0E0,0E0,3.0461822E0,5.07341E0,0E0,0E0,0E0,0E0,9.012612E0,1.3509546E1,0E0,0E0,0E0,0E0,0E0,4.0907383E-1,5.8061382E1,5.8015327E1,2.5750412E1,9.034773E1,0E0,0E0,0E0,0E0,0E0,0E0,0E0,0E0,0E0,0E0,0E0,0E0,0E0,0E0,0E0,0E0,0E0,0E0],"parents":[2147483647,0,0,1,1,2,2,3,3,4,4,5,5,6,6,7,7,8,8,10,10,11,11,12,12,13,13,14,14,15,15,16,16,17,17,18,18,21,21,24,24,25,25,26,26,27,27,28,28,31,31,32,32,37,37,38,38,44,44,45,45,46,46,47,47,48,48],"right_children":[2,4,6,8,10,12,14,16,18,-1,20,22,24,26,28,30,32,34,36,-1,-1,38,-1,-1,40,42,44,46,48,-1,-1,50,52,-1,-1,-1,-1,54,56,-1,-1,-1,-1,-1,58,60,62,64,66,-1,-1,-1,-1,-1,-1,-1,-1,-1,-1,-1,-1,-1,-1,-1,-1,-1,-1],"split_conditions":[2.75E1,2.5E0,3.95E1,4E0,5.45E1,1.575E2,4.35E1,2.55E1,2.65E1,-4.7323152E-1,6.95E1,5.5E1,1.945E2,7.65E1,4.95E1,1.825E2,2.5E0,1.95E1,4.15E1,-1.7083742E-2,1.9256593E-1,2.5E0,-6.8107915E-1,-1.6613778E0,8E0,5.55E1,8E1,3.95E1,5.05E1,-4.727997E-1,3.4408265E-1,6.7E1,7.75E1,4.9948427E-1,2.1370974E0,1.15319826E-1,5.7926637E-1,3.35E1,4E0,-9.118652E-2,-5.359833E-1,1.678418E0,4.642914E-1,3.977509E-2,2.255E2,3.3E1,3.4E1,1.745E2,8.5E1,-1.0668336E-1,3.3261108E-1,7.9637337E-1,2.0509644E-1,-4.8844913E-1,2.5432894E-1,8.6591953E-1,-6.079102E-2,-4.385788E-1,-9.0399176E-2,-3.0750167E-2,4.702256E-1,-1.7264313E0,-3.205071E-1,2.0372314E0,1.7397308E-1,-2.1775508E-1,2.6787665E-1],"split_indices":[4,7,4,5,2,3,4,2,2,0,2,2,3,2,2,3,5,2,2,0,0,6,0,0,2,2,2,2,2,0,0,3,2,0,0,0,0,2,6,0,0,0,0,0,3,2,3,3,3,0,0,0,0,0,0,0,0,0,0,0,0,0,0,0,0,0,0],"split_type":[0,0,0,0,0,0,0,0,0,0,0,0,0,0,0,0,0,0,0,0,0,0,0,0,0,0,0,0,0,0,0,0,0,0,0,0,0,0,0,0,0,0,0,0,0,0,0,0,0,0,0,0,0,0,0,0,0,0,0,0,0,0,0,0,0,0,0],"sum_hessian":[3.71E2,2.8E1,3.43E2,2.2E1,6E0,1.7E1,3.26E2,1.4E1,8E0,3E0,3E0,1.1E1,6E0,9E0,3.17E2,3E0,1.1E1,2E0,6E0,1E0,2E0,9E0,2E0,3E0,3E0,4E0,5E0,1.62E2,1.55E2,2E0,1E0,4E0,7E0,1E0,1E0,1E0,5E0,4E0,5E0,1E0,2E0,3E0,1E0,1E0,4E0,1.29E2,3.3E1,5E0,1.5E2,2E0,2E0,4E0,3E0,2E0,2E0,3E0,2E0,3E0,1E0,1.04E2,2.5E1,2E0,3.1E1,4E0,1E0,5.2E1,9.8E1],"tree_param":{"num_deleted":"0","num_feature":"9","num_nodes":"67","size_leaf_vector":"0"}},{"base_weights":[1.9490367E-1,5.8934046E-4,5.979806E-1,9.428131E-2,-1.0909516E0,-1.2236159E0,9.0750706E-1,3.570152E-2,3.4390488E0,-2.709732E-1,-3.496692E0,-5.3157806E-2,-7.058187E0,1.5921137E0,-2.2766647E-1,-2.5717625E-1,5.674465E-1,4.65447E0,-1.0360718E-1,-1.3812534E0,1.8097025E0,4.309409E-1,-2.294566E0,-9.252533E0,-1.3347473E0,6.461201E-1,4.026313E0,2.0321655E0,-1.3909991E0,-7.026684E-1,4.342977E-1,6.639502E-1,-3.6246796E0,-2.8188214E-1,-2.6441224E0,4.509908E0,-6.678772E-1,-8.9649045E-1,1.0515625E0,4.0568175E0,2.4385625E-1,-1.8394775E0,4.479564E0,-7.45697E-1,2.3032086E0,-6.701233E0,-6.981311E-1,7.459826E-1,-1.1212459E0,-1.3925389E0,9.808502E-1,6.628053E-2,1.4091963E0,-2.1006267E0,8.6574095E-1,1.6744995E-1,-1.0021362E0,9.126994E-1,-2.40685E0,2.1767426E-1,2.9247437E0,-3.034912E0,6.588478E0,-9.350403E0,6.8442976E-1,5.0677056E0,1.301178E0,3.3611248E0,1.2218704E0,-1.5752869E0,-8.4765625E0,-2.016927E0,1.1636935E0],"categories":[],"categories_nodes":[],"categories_segments":[],"categories_sizes":[],"default_left":[1,1,1,1,1,1,1,1,1,1,0,1,1,1,1,1,1,0,0,1,1,1,0,0,0,1,1,1,1,1,1,1,0,1,0,0,1,1,1,1,1,0,1,0,1,1,1,0,0,0,0,0,0,0,0,0,0,0,0,0,0,0,0,0,0,0,0,0,0,0,0,0,0],"id":25,"left_children":[1,3,5,7,9,11,13,15,17,19,-1,21,23,25,27,29,31,-1,-1,33,35,37,-1,-1,-1,39,41,43,45,47,49,51,-1,53,-1,-1,55,57,59,61,63,-1,65,-1,67,69,71,-1,-1,-1,-1,-1,-1,-1,-1,-1,-1,-1,-1,-1,-1,-1,-1,-1,-1,-1,-1,-1,-1,-1,-1,-1,-1],"loss_changes":[2.9136036E1,2.5874546E1,6.933417E1,4.553026E1,3.850559E1,1.22548965E2,8.1185814E1,3.596527E1,1.7705513E1,3.9461784E1,0E0,1.8349827E1,2.5327835E1,1.470764E2,1.079842E2,4.6204056E1,3.5580196E1,0E0,0E0,1.4526651E1,4.315191E1,1.2476372E1,0E0,0E0,0E0,6.486674E1,5.6096252E1,1.2258381E1,9.466251E1,5.6016342E1,6.027514E1,3.598488E1,0E0,1.6429232E1,0E0,0E0,1.2846701E0,1.5859366E1,1.4983597E1,1.0976471E2,1.9238666E2,0E0,2.5184784E1,0E0,1.0764687E1,1.3947723E1,6.3731255E1,0E0,0E0,0E0,0E0,0E0,0E0,0E0,0E0,0E0,0E0,0E0,0E0,0E0,0E0,0E0,0E0,0E0,0E0,0E0,0E0,0E0,0E0,0E0,0E0,0E0,0E0],"parents":[2147483647,0,0,1,1,2,2,3,3,4,4,5,5,6,6,7,7,8,8,9,9,11,11,12,12,13,13,14,14,15,15,16,16,19,19,20,20,21,21,25,25,26,26,27,27,28,28,29,29,30,30,31,31,33,33,36,36,37,37,38,38,39,39,40,40,42,42,44,44,45,45,46,46],"right_children":[2,4,6,8,10,12,14,16,18,20,-1,22,24,26,28,30,32,-1,-1,34,36,38,-1,-1,-1,40,42,44,46,48,50,52,-1,54,-1,-1,56,58,60,62,64,-1,66,-1,68,70,72,-1,-1,-1,-1,-1,-1,-1,-1,-1,-1,-1,-1,-1,-1,-1,-1,-1,-1,-1,-1,-1,-1,-1,-1,-1,-1],"split_conditions":[4E0,2.39E2,1.7E1,2.37E2,1.5E0,1.45E1,1.5E0,1.5E0,5.5E1,2.5E0,-1.0490077E0,2.5E0,1.55E1,4E0,8.05E1,1.5E0,2.555E2,1.3963411E0,-3.1082155E-2,2.505E2,4.05E1,2.5E0,-6.883698E-1,-2.77576E0,-4.004242E-1,2.35E1,5.5E1,2.8E1,8.55E1,5.9E1,6.05E1,1.28E2,-1.0874039E0,3.7E1,-7.9323673E-1,1.3529725E0,1.975E2,1.03E2,1.5E0,2.15E1,2.45E1,-5.518433E-1,2.19E2,-2.2370912E-1,1.295E2,5.55E1,2.05E2,2.2379479E-1,-3.3637378E-1,-4.1776168E-1,2.9425508E-1,1.988416E-2,4.227589E-1,-6.3018805E-1,2.597223E-1,5.023499E-2,-3.0064088E-1,2.7380982E-1,-7.220551E-1,6.530228E-2,8.774231E-1,-9.1047364E-1,1.9765435E0,-2.805121E0,2.0532894E-1,1.5203117E0,3.903534E-1,1.0083375E0,3.6656114E-1,-4.7258607E-1,-2.5429688E0,-6.050781E-1,3.4910807E-1],"split_indices":[5,3,2,3,8,2,8,7,2,5,0,7,2,6,4,8,4,0,0,3,2,6,0,0,0,2,3,3,4,4,4,3,0,2,0,0,4,3,8,2,2,0,3,0,3,2,3,0,0,0,0,0,0,0,0,0,0,0,0,0,0,0,0,0,0,0,0,0,0,0,0,0,0],"split_type":[0,0,0,0,0,0,0,0,0,0,0,0,0,0,0,0,0,0,0,0,0,0,0,0,0,0,0,0,0,0,0,0,0,0,0,0,0,0,0,0,0,0,0,0,0,0,0,0,0,0,0,0,0,0,0,0,0,0,0,0,0,0,0,0,0,0,0,0,0,0,0,0,0],"sum_hessian":[3.71E2,2.51E2,1.2E2,2.32E2,1.9E1,1.7E1,1.03E2,2.29E2,3E0,1.5E1,4E0,1.5E1,2E0,6.4E1,3.9E1,1.48E2,8.1E1,2E0,1E0,1E1,5E0,1.3E1,2E0,1E0,1E0,4.7E1,1.7E1,1.3E1,2.6E1,9E1,5.8E1,8E1,1E0,6E0,4E0,2E0,3E0,4E0,9E0,4E0,4.3E1,1E0,1.6E1,1E0,1.2E1,2E0,2.4E1,2E1,7E1,1.3E1,4.5E1,4.5E1,3.5E1,2E0,4E0,1E0,2E0,2E0,2E0,7E0,2E0,1E0,3E0,1E0,4.2E1,1.3E1,3E0,5E0,7E0,1E0,1E0,1.4E1,1E1],"tree_param":{"num_deleted":"0","num_feature":"9","num_nodes":"73","size_leaf_vector":"0"}},{"base_weights":[1.1952172E-1,8.2123166E-1,2.0444725E-2,9.914745E-2,2.464628E0,1.5458957E0,-3.25534E-2,-6.6528624E-1,1.1841136E0,1.2642958E0,3.8543549E0,5.294983E0,6.414887E-1,-2.4588202E-1,3.3421248E-1,1.4011002E-1,-3.109497E0,2.4336822E0,4.4091797E-1,2.0101666E0,-8.9750165E-1,4.2065E0,1.046814E0,-6.3404083E-1,1.2787215E0,-1.656332E-1,-1.9394531E0,1.8403147E0,-3.8536376E-1,1.2173119E0,-8.329705E-1,-5.1970825E0,2.6204224E0,3.3949738E0,6.6116333E-1,9.4054306E-1,-5.436554E-1,-3.3917236E-1,2.458252E0,-1.6652222E0,3.1896973E-1,1.1268616E0,4.6946945E0,-1.106842E0,3.921814E-1,1.4343262E-1,1.4440308E0,-3.3896175E-1,9.607063E-1,-2.2956848E0,4.552002E-1,-1.9544474E0,2.9173996E0,-2.7439249E0,1.1322158E-1,-7.1690875E-1,1.9815369E0,-1.7700958E0,-6.9391884E-2,4.678243E-1,1.8884277E0,-9.6691895E-1,-8.026123E-2,2.7717042E0,4.454956E-1,1.0846137E0,-5.837563E-1,-1.6288757E-1,3.1011488E0,-3.0207367E0,-1.2565063E0,-2.8294678E0,-1.5330505E-1,4.3188553E0,7.5250715E-1,-4.725567E0,-8.72018E-2,2.8494148E0,-2.5349122E-1],"categories":[],"categories_nodes":[],"categories_segments":[],"categories_sizes":[],"default_left":[1,1,1,1,1,1,1,1,1,1,1,0,1,1,1,1,1,1,1,1,1,1,0,1,1,1,