{"learner":{"attributes":{"best_iteration":"99","best_ntree_limit":"100","scikit_learn":"{\"n_estimators\": 100, \"objective\": \"reg:squarederror\", \"max_depth\": null, \"max_leaves\": null, \"max_bin\": null, \"grow_policy\": null, \"learning_rate\": null, \"verbosity\": null, \"booster\": null, \"tree_method\": null, \"gamma\": null, \"min_child_weight\": null, \"max_delta_step\": null, \"subsample\": null, \"sampling_method\": null, \"colsample_bytree\": null, \"colsample_bylevel\": null, \"colsample_bynode\": null, \"reg_alpha\": null, \"reg_lambda\": null, \"scale_pos_weight\": null, \"base_score\": null, \"missing\": NaN, \"num_parallel_tree\": null, \"random_state\": null, \"n_jobs\": null, \"monotone_constraints\": null, \"interaction_constraints\": null, \"importance_type\": null, \"gpu_id\": null, \"validate_parameters\": null, \"predictor\": null, \"enable_categorical\": false, \"feature_types\": null, \"max_cat_to_onehot\": null, \"max_cat_threshold\": null, \"eval_metric\": null, \"early_stopping_rounds\": null, \"callbacks\": null, \"_estimator_type\": \"regressor\"}"},"feature_names":[],"feature_types":[],"gradient_booster":{"model":{"gbtree_model_param":{"num_parallel_tree":"1","num_trees":"100","size_leaf_vector":"0"},"tree_info":[0,0,0,0,0,0,0,0,0,0,0,0,0,0,0,0,0,0,0,0,0,0,0,0,0,0,0,0,0,0,0,0,0,0,0,0,0,0,0,0,0,0,0,0,0,0,0,0,0,0,0,0,0,0,0,0,0,0,0,0,0,0,0,0,0,0,0,0,0,0,0,0,0,0,0,0,0,0,0,0,0,0,0,0,0,0,0,0,0,0,0,0,0,0,0,0,0,0,0,0],"trees":[{"base_weights":[5.8823257E1,8.426136E0,9.301172E1,1.296875E0,1.2280702E1,7.521839E1,1.2765476E2,-4.642857E-1,2.5263157E0,5.888889E0,1.7451612E1,4.543182E1,8.4007576E1,5.657143E1,1.3793056E2,1.6923077E0,3.7142856E0,1.5714285E0,7.047619E0,8.35E0,2.0795454E1,5.696875E1,1.2571428E1,6.497561E1,1.1078846E2,2.0625E1,7.8375E1,1.4645161E2,7.0916664E1,-2.5E-1,1.875E0,-3.3333334E-1,2.4E0,2.375E0,7.6944447E0,9.5625E0,2.3333333E0,2.2025E1,5.6666665E0,8.125E0,6.761539E1,3.75E0,1.3416667E1,4.54E1,8.994118E1,1.5022223E2,8.4916664E1,2.775E1,9E0,8.8666664E1,2.375E1,1.5401785E2,5.6875E1,1.175E1,8.04E1,5.7272725E0,9.4375E0,2.25E0,1.0285714E1,2.2578947E1,5.75E0,2.36E1,8.455556E1,5.6266666E1,2.6454546E1,5.5708332E1,1.4341667E2,2.425E1,1.629375E2,3.9E1,1.04625E2,6.8E1,1.175E1],"categories":[],"categories_nodes":[],"categories_segments":[],"categories_sizes":[],"default_left":[1,1,1,1,1,1,1,0,1,1,1,1,1,1,1,1,0,1,1,1,1,1,1,1,1,1,1,1,1,0,0,0,0,0,1,1,0,1,0,0,1,0,0,1,1,1,1,0,0,0,0,0,1,0,0,0,0,0,0,0,0,0,0,0,0,0,0,0,0,0,0,0,0],"id":0,"left_children":[1,3,5,7,9,11,13,-1,15,17,19,21,23,25,27,29,-1,31,33,35,37,39,41,43,45,47,49,51,53,-1,-1,-1,-1,-1,55,57,-1,59,-1,-1,61,-1,-1,63,65,67,69,-1,-1,-1,-1,-1,71,-1,-1,-1,-1,-1,-1,-1,-1,-1,-1,-1,-1,-1,-1,-1,-1,-1,-1,-1,-1],"loss_changes":[3.696613E5,2.4023315E3,6.9299125E4,7.046071E1,1.7811641E3,1.8959938E4,2.28755E4,0E0,1.253904E1,1.2400006E2,7.6982324E2,7.624199E3,2.6441188E4,3.8698398E3,1.01711875E4,5.08173E0,0E0,1.1847618E1,4.5195435E1,5.0639587E1,2.844248E2,7.7709688E3,1.8808594E0,1.5954031E4,1.3769406E4,8.15625E1,1.4289648E2,1.225075E4,2.4218848E3,0E0,0E0,0E0,0E0,0E0,7.6688232E0,1.9165161E1,0E0,5.048047E1,0E0,0E0,7.6976562E3,0E0,0E0,3.6583398E3,2.3131E4,1.0464719E4,1.22085625E4,0E0,0E0,0E0,0E0,0E0,1.2090625E3,0E0,0E0,0E0,0E0,0E0,0E0,0E0,0E0,0E0,0E0,0E0,0E0,0E0,0E0,0E0,0E0,0E0,0E0,0E0,0E0],"parents":[2147483647,0,0,1,1,2,2,3,3,4,4,5,5,6,6,8,8,9,9,10,10,11,11,12,12,13,13,14,14,15,15,17,17,18,18,19,19,20,20,21,21,22,22,23,23,24,24,25,25,26,26,27,27,28,28,34,34,35,35,37,37,40,40,43,43,44,44,45,45,46,46,52,52],"right_children":[2,4,6,8,10,12,14,-1,16,18,20,22,24,26,28,30,-1,32,34,36,38,40,42,44,46,48,50,52,54,-1,-1,-1,-1,-1,56,58,-1,60,-1,-1,62,-1,-1,64,66,68,70,-1,-1,-1,-1,-1,72,-1,-1,-1,-1,-1,-1,-1,-1,-1,-1,-1,-1,-1,-1,-1,-1,-1,-1,-1,-1],"split_conditions":[1.5E0,1.5E0,2.5E0,1.5E0,5.5E0,4.5E0,5.8E1,-1.3928571E-1,2.5E0,2.5E0,1.5E0,3.19E2,1.5E0,7.85E1,4.265E2,5.5E0,1.1142857E0,1.41E2,1.23E2,2.45E1,1.055E2,3.1E1,3.295E2,1.5E0,8.5E0,4.25E1,5.25E1,2.55E1,4.4E1,-7.5E-2,5.625E-1,-1.0000001E-1,7.2E-1,7.1250004E-1,5E1,3.5E1,7E-1,1.025E2,1.7E0,2.4375E0,1.265E2,1.125E0,4.025E0,2E1,8.8E1,7.5E0,9.5E0,8.325001E0,2.7E0,2.66E1,7.1250005E0,4.6205357E1,2.55E2,3.525E0,2.412E1,1.7181818E0,2.8312502E0,6.75E-1,3.0857143E0,6.7736845E0,1.725E0,7.0800004E0,2.5366669E1,1.6880001E1,7.936364E0,1.67125E1,4.3025E1,7.275E0,4.8881252E1,1.1700001E1,3.13875E1,2.0400002E1,3.525E0],"split_indices":[7,8,8,9,6,6,2,0,9,6,9,2,8,3,2,6,0,2,2,5,3,4,2,10,6,3,2,5,3,0,0,0,0,0,3,4,0,4,0,0,2,0,0,5,4,5,6,0,0,0,0,0,2,0,0,0,0,0,0,0,0,0,0,0,0,0,0,0,0,0,0,0,0],"split_type":[0,0,0,0,0,0,0,0,0,0,0,0,0,0,0,0,0,0,0,0,0,0,0,0,0,0,0,0,0,0,0,0,0,0,0,0,0,0,0,0,0,0,0,0,0,0,0,0,0,0,0,0,0,0,0,0,0,0,0,0,0,0,0,0,0,0,0,0,0,0,0,0,0],"sum_hessian":[2.14E2,8.7E1,1.27E2,3.1E1,5.6E1,8.6E1,4.1E1,1.3E1,1.8E1,2.6E1,3E1,2.1E1,6.5E1,6E0,3.5E1,1.2E1,6E0,6E0,2E1,9E0,2.1E1,1.5E1,6E0,4E1,2.5E1,3E0,3E0,3E1,5E0,1E0,1.1E1,2E0,4E0,3E0,1.7E1,7E0,2E0,1.9E1,2E0,3E0,1.2E1,1E0,5E0,2.4E1,1.6E1,8E0,1.7E1,1E0,2E0,2E0,1E0,2.7E1,3E0,1E0,4E0,1E1,7E0,1E0,6E0,1.8E1,1E0,4E0,8E0,1.4E1,1E1,1.1E1,5E0,1E0,7E0,6E0,1.1E1,2E0,1E0],"tree_param":{"num_deleted":"0","num_feature":"13","num_nodes":"73","size_leaf_vector":"0"}},{"base_weights":[4.298261E1,6.148339E0,6.797037E1,9.5351565E-1,8.956865E0,5.522565E1,9.275179E1,-3.34949E-1,1.8527256E0,4.3400717E0,1.2689013E1,1.9738583E1,5.9067257E1,1.8658333E1,9.599001E1,1.2221154E0,2.7591836E0,1.1885715E0,5.1839013E0,6.2910714E0,1.5020394E1,3.5491657E0,3.5218166E1,2.016841E1,6.261829E1,4.4E0,2.35875E1,7.947935E1,1.1365271E2,-2.125E-1,1.359375E0,-2.6666665E-1,1.824E0,1.8406249E0,5.6388574E0,7.1638393E0,1.8666667E0,1.0094736E1,1.9028349E1,-5.5783343E0,1.4536111E1,4.785111E1,1.0845834E1,2.3222824E1,-6.062498E-1,7.629616E1,4.873235E1,2.6233334E1,8.312747E1,1.18607254E2,1.7189999E1,7.8125E-1,1.6607143E0,2.085E0,3.9E-1,3.9374995E-1,2.1916666E0,3.6698232E0,6.847102E0,1.9125E0,7.640816E0,2.4E0,3.9999998E-1,1.1461052E1,2.1754384E0,2.131769E1,5.8175435E0,1.1726249E1,8.971377E1,1.3291065E1,7.126836E1,3.295E1,6.4E0,5.0364197E1,9.505939E1,1.23228096E2,2.4647322E1],"categories":[],"categories_nodes":[],"categories_segments":[],"categories_sizes":[],"default_left":[1,1,1,1,1,1,1,0,1,1,1,1,1,1,1,1,0,1,1,1,1,1,1,1,1,0,0,1,1,0,1,0,1,1,1,1,1,1,1,0,0,0,0,0,0,1,1,1,1,1,0,0,0,0,0,0,0,0,0,0,0,0,0,0,0,0,0,0,0,0,0,0,0,0,0,0,0],"id":1,"left_children":[1,3,5,7,9,11,13,-1,15,17,19,21,23,25,27,29,-1,31,33,35,37,39,41,43,45,-1,-1,47,49,-1,51,-1,53,55,57,59,61,63,65,-1,-1,-1,-1,-1,-1,67,69,71,73,75,-1,-1,-1,-1,-1,-1,-1,-1,-1,-1,-1,-1,-1,-1,-1,-1,-1,-1,-1,-1,-1,-1,-1,-1,-1,-1,-1],"loss_changes":[1.9746938E5,1.2753618E3,3.5304188E4,3.7695778E1,9.270708E2,1.06945625E4,8.286094E3,0E0,7.4887695E0,6.56405E1,3.6790283E2,2.3810593E3,9.511344E3,1.0706006E2,2.6318438E3,2.8487587E0,0E0,6.959299E0,2.1562866E1,2.5242249E1,2.4223389E2,6.8278735E2,1.0204863E3,5.2171436E2,9.7669375E3,0E0,0E0,2.4812344E3,6.0859375E3,0E0,7.93108E-1,0E0,1.058218E0,1.168684E0,1.7695679E1,5.42511E0,1.3866663E0,1.049104E2,2.0866797E2,0E0,0E0,0E0,0E0,0E0,0E0,2.8404719E4,2.9403562E4,1.8876147E2,3.8128438E3,3.9095469E3,0E0,0E0,0E0,0E0,0E0,0E0,0E0,0E0,0E0,0E0,0E0,0E0,0E0,0E0,0E0,0E0,0E0,0E0,0E0,0E0,0E0,0E0,0E0,0E0,0E0,0E0,0E0],"parents":[2147483647,0,0,1,1,2,2,3,3,4,4,5,5,6,6,8,8,9,9,10,10,11,11,12,12,13,13,14,14,15,15,17,17,18,18,19,19,20,20,21,21,22,22,23,23,24,24,27,27,28,28,30,30,32,32,33,33,34,34,35,35,36,36,37,37,38,38,45,45,46,46,47,47,48,48,49,49],"right_children":[2,4,6,8,10,12,14,-1,16,18,20,22,24,26,28,30,-1,32,34,36,38,40,42,44,46,-1,-1,48,50,-1,52,-1,54,56,58,60,62,64,66,-1,-1,-1,-1,-1,-1,68,70,72,74,76,-1,-1,-1,-1,-1,-1,-1,-1,-1,-1,-1,-1,-1,-1,-1,-1,-1,-1,-1,-1,-1,-1,-1,-1,-1,-1,-1],"split_conditions":[1.5E0,1.5E0,2.5E0,1.5E0,5.5E0,2.5E0,4E1,-1.004847E-1,2.5E0,2.5E0,1.5E0,1.35E1,4.7E1,3.05E1,2.5E0,5.5E0,8.2775515E-1,1.41E2,1.23E2,2.45E1,6.35E1,2.355E2,1.605E2,4.45E1,8.5E0,1.32E0,7.07625E0,5.8E1,4.305E2,-6.3750006E-2,1.15E1,-8E-2,4.885E2,8.05E1,2.5E0,3.5E1,2.605E2,5.45E1,2.95E1,-1.6735004E0,4.3608336E0,1.4355333E1,3.2537503E0,6.9668474E0,-1.8187495E-1,2.45E1,9.5E0,4.9E1,1.25E1,1.1E2,5.1569996E0,2.3437501E-1,4.982143E-1,6.255E-1,1.17E-1,1.1812499E-1,6.575E-1,1.100947E0,2.0541308E0,5.7375E-1,2.292245E0,7.2E-1,1.2E-1,3.4383156E0,6.526315E-1,6.395307E0,1.7452631E0,3.5178747E0,2.6914131E1,3.9873197E0,2.1380508E1,9.885E0,1.9200001E0,1.510926E1,2.8517817E1,3.696843E1,7.394197E0],"split_indices":[7,8,8,9,6,6,2,0,9,6,9,5,2,2,7,6,0,2,2,5,4,2,2,2,6,0,0,2,2,0,6,0,2,2,8,4,2,4,5,0,0,0,0,0,0,4,6,2,5,4,0,0,0,0,0,0,0,0,0,0,0,0,0,0,0,0,0,0,0,0,0,0,0,0,0,0,0],"split_type":[0,0,0,0,0,0,0,0,0,0,0,0,0,0,0,0,0,0,0,0,0,0,0,0,0,0,0,0,0,0,0,0,0,0,0,0,0,0,0,0,0,0,0,0,0,0,0,0,0,0,0,0,0,0,0,0,0,0,0,0,0,0,0,0,0,0,0,0,0,0,0,0,0,0,0,0,0],"sum_hessian":[2.14E2,8.7E1,1.27E2,3.1E1,5.6E1,8.6E1,4.1E1,1.3E1,1.8E1,2.6E1,3E1,9E0,7.7E1,2E0,3.9E1,1.2E1,6E0,6E0,2E1,9E0,2.1E1,5E0,4E0,7E0,7E1,1E0,1E0,2.3E1,1.6E1,1E0,1.1E1,2E0,4E0,3E0,1.7E1,7E0,2E0,1.1E1,1E1,3E0,2E0,2E0,2E0,6E0,1E0,3.3E1,3.7E1,2E0,2.1E1,1.5E1,1E0,5E0,6E0,3E0,1E0,1E0,2E0,8E0,9E0,1E0,6E0,1E0,1E0,9E0,2E0,8E0,2E0,6E0,2.7E1,1.5E1,2.2E1,1E0,1E0,7E0,1.4E1,1.4E1,1E0],"tree_param":{"num_deleted":"0","num_feature":"13","num_nodes":"77","size_leaf_vector":"0"}},{"base_weights":[3.1102505E1,4.5530057E0,4.9112297E1,7.110894E-1,6.629994E0,3.9610615E1,6.7625015E1,-2.4164176E-1,1.375676E0,4.9029093E0,1.2697986E1,2.0206139E1,4.547861E1,7.358814E1,2.7296785E1,1.8169295E0,6.835133E-1,2.5878003E0,6.4362154E0,2.2673469E0,1.4557378E1,2.8875504E1,-1.5044806E1,3.1907162E1,6.513057E1,3.883865E1,7.924342E1,-2.1370823E0,3.949775E1,-1.80625E-1,8.141087E-1,1.28625E-1,3.0142062E0,3.1595225E0,9.253179E0,3.0610204E0,3.3999997E-1,1.5468011E1,3.1808422E0,3.6428974E1,1.9506819E0,1.7675764E1,5.0958794E1,9.007105E1,4.904196E1,7.145178E1,-3.4841511E0,8.375663E1,3.9926044E1,1.0657845E0,-4.271408E0,3.74E0,4.750219E1,-2.1333332E-1,5.7725E-1,3.2850397E0,-6.595645E-1,3.715772E0,-1.1864921E-1,2.9234376E0,1.0713705E1,1.6766384E1,5.369637E1,8.111805E0,-4.8606687E0,1.2189803E1,4.3429615E1,2.8702326E1,8.69786E1,7.050436E0,9.956732E1,7.065963E1,2.4681868E1,2.0049374E1,8.19028E1,4.7621903E0,-1.4111588E1,8.543088E1,2.0950224E1,1.758987E1,6.463537E1],"categories":[],"categories_nodes":[],"categories_segments":[],"categories_sizes":[],"default_left":[1,1,1,1,1,1,1,0,1,1,1,1,1,1,1,0,1,1,1,1,1,1,0,1,1,1,1,1,1,0,0,1,1,1,1,0,0,0,0,1,1,1,1,1,1,1,1,1,1,0,0,0,0,0,0,0,0,0,0,0,0,0,0,0,0,0,0,0,0,0,0,0,0,0,0,0,0,0,0,0,0],"id":2,"left_children":[1,3,5,7,9,11,13,-1,15,17,19,21,23,25,27,-1,29,31,33,35,37,39,-1,41,43,45,47,49,51,-1,-1,53,55,57,59,-1,-1,-1,-1,61,63,65,67,69,71,73,75,77,79,-1,-1,-1,-1,-1,-1,-1,-1,-1,-1,-1,-1,-1,-1,-1,-1,-1,-1,-1,-1,-1,-1,-1,-1,-1,-1,-1,-1,-1,-1,-1,-1],"loss_changes":[1.0257886E5,6.9749146E2,1.9836781E4,2.0593935E1,5.350991E2,8.987359E3,8.0915312E3,0E0,4.5610695E0,1.4663379E2,1.9972937E2,7.1576973E3,1.5524422E4,3.9969375E3,2.5982612E3,0E0,1.1627212E0,2.0584442E1,2.1998303E2,3.5483046E0,5.4397217E1,3.589704E3,0E0,1.0215652E4,6.0154375E3,9.910903E3,1.9793438E3,2.5060284E1,1.2534448E3,0E0,0E0,7.367909E-1,1.908136E1,2.5969604E1,9.810571E1,0E0,0E0,0E0,0E0,3.8530098E3,2.492566E2,3.0027183E3,1.1131961E4,6.3934844E3,7.7349414E3,5.0672852E2,4.1775195E2,9.442031E2,1.6226318E3,0E0,0E0,0E0,0E0,0E0,0E0,0E0,0E0,0E0,0E0,0E0,0E0,0E0,0E0,0E0,0E0,0E0,0E0,0E0,0E0,0E0,0E0,0E0,0E0,0E0,0E0,0E0,0E0,0E0,0E0,0E0,0E0],"parents":[2147483647,0,0,1,1,2,2,3,3,4,4,5,5,6,6,8,8,9,9,10,10,11,11,12,12,13,13,14,14,16,16,17,17,18,18,19,19,20,20,21,21,23,23,24,24,25,25,26,26,27,27,28,28,31,31,32,32,33,33,34,34,39,39,40,40,41,41,42,42,43,43,44,44,45,45,46,46,47,47,48,48],"right_children":[2,4,6,8,10,12,14,-1,16,18,20,22,24,26,28,-1,30,32,34,36,38,40,-1,42,44,46,48,50,52,-1,-1,54,56,58,60,-1,-1,-1,-1,62,64,66,68,70,72,74,76,78,80,-1,-1,-1,-1,-1,-1,-1,-1,-1,-1,-1,-1,-1,-1,-1,-1,-1,-1,-1,-1,-1,-1,-1,-1,-1,-1,-1,-1,-1,-1,-1,-1],"split_conditions":[1.5E0,1.5E0,2.5E0,1.5E0,1.15E1,4.5E0,2.55E1,-7.249253E-2,1.495E2,2.63E2,1.5E0,2.35E1,1.5E0,7.15E1,2.75E1,5.450789E-1,5.5E0,2.5E0,4.2E1,2.89E2,1.06E2,3.19E2,-4.513442E0,1.5E0,8.5E0,8E0,4.265E2,2.27E2,3.35E1,-5.4187503E-2,2.4423262E-1,1.41E2,2.525E2,2.5E1,1.15E1,9.183062E-1,1.02E-1,4.6404033E0,9.5425266E-1,2.5E0,3E0,1.35E1,8.8E1,5.05E1,4.45E1,4.45E1,6E1,1.1E2,5.065E2,3.1973535E-1,-1.2814225E0,1.1220001E0,1.4250657E1,-6.4E-2,1.73175E-1,9.8551196E-1,-1.9786936E-1,1.1147317E0,-3.5594765E-2,8.770313E-1,3.2141116E0,5.0299153E0,1.6108912E1,2.4335415E0,-1.4582007E0,3.6569412E0,1.3028885E1,8.610698E0,2.609358E1,2.115131E0,2.9870197E1,2.119789E1,7.4045606E0,6.0148125E0,2.457084E1,1.4286572E0,-4.2334766E0,2.5629265E1,6.2850676E0,5.2769613E0,1.9390612E1],"split_indices":[7,8,8,9,6,6,5,0,2,2,9,5,8,2,5,0,6,6,3,2,3,2,0,10,6,6,2,2,2,0,0,2,2,5,5,0,0,0,0,6,6,6,4,3,4,2,2,4,2,0,0,0,0,0,0,0,0,0,0,0,0,0,0,0,0,0,0,0,0,0,0,0,0,0,0,0,0,0,0,0,0],"split_type":[0,0,0,0,0,0,0,0,0,0,0,0,0,0,0,0,0,0,0,0,0,0,0,0,0,0,0,0,0,0,0,0,0,0,0,0,0,0,0,0,0,0,0,0,0,0,0,0,0,0,0,0,0,0,0,0,0,0,0,0,0,0,0,0,0,0,0,0,0,0,0,0,0,0,0,0,0,0,0,0,0],"sum_hessian":[2.14E2,8.7E1,1.27E2,3.1E1,5.6E1,8.6E1,4.1E1,1.3E1,1.8E1,4.5E1,1.1E1,2.1E1,6.5E1,3.5E1,6E0,1E1,8E0,1.9E1,2.6E1,2E0,9E0,1.7E1,4E0,4E1,2.5E1,6E0,2.9E1,2E0,4E0,1E0,7E0,3E0,1.6E1,1.3E1,1.3E1,1E0,1E0,8E0,1E0,1.3E1,4E0,2.4E1,1.6E1,8E0,1.7E1,3E0,3E0,2.5E1,4E0,1E0,1E0,1E0,3E0,2E0,1E0,1.5E1,1E0,1.1E1,2E0,3E0,1E1,7E0,6E0,2E0,2E0,2.1E1,3E0,1.1E1,5E0,1E0,7E0,8E0,9E0,1E0,2E0,2E0,1E0,2.4E1,1E0,3E0,1E0],"tree_param":{"num_deleted":"0","num_feature":"13","num_nodes":"81","size_leaf_vector":"0"}},{"base_weights":[2.2895926E1,3.3387482E0,3.616261E1,5.184698E-1,4.8634877E0,2.9216839E1,4.9689266E1,2.0049638E-1,1.6254469E0,2.0937724E0,7.1189337E0,1.494433E1,3.3531662E1,5.385511E1,2.116646E1,-1.7432725E-1,5.887298E-1,4.1013977E-1,2.4577734E0,3.7155669E0,9.072873E0,2.1441418E1,-1.14340515E1,4.8446106E1,2.3255877E1,4.2454746E1,7.075923E1,-1.8165207E0,3.0722956E1,-1.5353125E-1,6.6337913E-1,-1.3672984E-1,1.5722439E0,3.0807755E0,1.2155734E0,2.272964E0,5.5691385E0,5.5033984E0,1.3292974E1,3.390692E1,8.078323E0,5.8564506E0,6.093018E1,1.3082221E1,5.348599E1,-5.166935E0,5.2237427E1,3.0355646E1,7.984475E1,9.059162E-1,-3.6306973E0,3.179E0,3.6814194E1,3.824103E-1,8.0944115E-1,-2.0703426E-1,7.224393E-2,1.5342401E0,3.7694905E0,1.9478693E0,7.2807896E-1,2.6556852E0,6.222938E-1,8.757202E0,3.4457748E0,3.3237982E0,1.4242314E1,-5.500233E0,4.5951855E1,2.7632666E1,-2.6434588E-1,-2.9965467E0,1.3245335E1,-6.766304E0,7.3274635E1,2.0445623E1,-8.9391804E-1,1.9596872E0,5.899339E1,1.5866302E1,-2.447786E1,3.3048363E1,6.4933174E1,3.981489E1,9.8895645E-1,8.527263E1,1.5496889E1],"categories":[],"categories_nodes":[],"categories_segments":[],"categories_sizes":[],"default_left":[1,1,1,1,1,1,1,1,0,1,1,1,1,1,1,0,1,1,1,1,1,1,0,1,1,1,1,1,1,0,1,1,0,1,1,1,0,1,1,1,1,1,1,1,1,1,1,1,1,0,0,0,0,0,0,0,0,0,0,0,0,0,0,0,0,0,0,0,0,0,0,0,0,0,0,0,0,0,0,0,0,0,0,0,0,0,0],"id":3,"left_children":[1,3,5,7,9,11,13,15,-1,17,19,21,23,25,27,-1,29,31,33,35,37,39,-1,41,43,45,47,49,51,-1,53,55,-1,57,59,61,-1,63,65,67,69,71,73,75,77,79,81,83,85,-1,-1,-1,-1,-1,-1,-1,-1,-1,-1,-1,-1,-1,-1,-1,-1,-1,-1,-1,-1,-1,-1,-1,-1,-1,-1,-1,-1,-1,-1,-1,-1,-1,-1,-1,-1,-1,-1],"loss_changes":[5.566292E4,3.7589514E2,1.0574234E4,1.0937759E1,3.411704E2,4.8566484E3,3.8505781E3,3.8861272E0,0E0,1.5538757E1,1.7243823E2,4.01558E3,8.988352E3,3.9336094E3,1.5932668E3,0E0,8.2217026E-1,4.0280895E0,1.3280746E1,2.2103119E1,2.130509E2,2.7244873E3,0E0,1.346716E4,1.1909865E4,1.145073E4,2.3483906E3,1.8106052E1,7.2185156E2,0E0,1.8292761E-1,8.8415876E-2,0E0,9.128403E0,1.7947092E0,4.0330963E0,0E0,5.0165894E1,2.837439E1,4.5246553E3,1.6386587E3,4.975867E2,1.7209336E4,3.3114585E3,2.7221504E3,2.4192292E3,2.7264531E3,1.0717712E3,2.1712656E3,0E0,0E0,0E0,0E0,0E0,0E0,0E0,0E0,0E0,0E0,0E0,0E0,0E0,0E0,0E0,0E0,0E0,0E0,0E0,0E0,0E0,0E0,0E0,0E0,0E0,0E0,0E0,0E0,0E0,0E0,0E0,0E0,0E0,0E0,0E0,0E0,0E0,0E0],"parents":[2147483647,0,0,1,1,2,2,3,3,4,4,5,5,6,6,7,7,9,9,10,10,11,11,12,12,13,13,14,14,16,16,17,17,18,18,19,19,20,20,21,21,23,23,24,24,25,25,26,26,27,27,28,28,30,30,31,31,33,33,34,34,35,35,37,37,38,38,39,39,40,40,41,41,42,42,43,43,44,44,45,45,46,46,47,47,48,48],"right_children":[2,4,6,8,10,12,14,16,-1,18,20,22,24,26,28,-1,30,32,34,36,38,40,-1,42,44,46,48,50,52,-1,54,56,-1,58,60,62,-1,64,66,68,70,72,74,76,78,80,82,84,86,-1,-1,-1,-1,-1,-1,-1,-1,-1,-1,-1,-1,-1,-1,-1,-1,-1,-1,-1,-1,-1,-1,-1,-1,-1,-1,-1,-1,-1,-1,-1,-1,-1,-1,-1,-1,-1,-1],"split_conditions":[1.5E0,1.5E0,2.5E0,2.5E0,5.5E0,4.5E0,2.55E1,1.5E0,4.876341E-1,1.295E2,1.5E1,2.35E1,8.5E0,6.05E1,2.75E1,-5.2298177E-2,5.5E0,1.005E2,4.285E2,4.465E2,2.5E0,1.5E0,-3.4302156E0,7.45E1,1.5E0,1.335E2,5.7E1,2.27E2,3.35E1,-4.6059377E-2,1.15E1,1.055E2,4.716732E-1,2.5E0,1.05E1,4.125E2,1.6707417E0,2.2E1,4.85E1,2.3E1,2.7E1,1.75E1,7.5E0,1.85E1,9.5E0,7.7E1,6.65E1,5.25E1,4.105E2,2.717749E-1,-1.0892092E0,9.537E-1,1.1044258E1,1.14723094E-1,2.4283235E-1,-6.211028E-2,2.167318E-2,4.6027204E-1,1.1308472E0,5.8436084E-1,2.184237E-1,7.967056E-1,1.8668814E-1,2.6271608E0,1.0337325E0,9.971395E-1,4.2726946E0,-1.6500701E0,1.3785557E1,8.2898E0,-7.930377E-2,-8.9896405E-1,3.9736006E0,-2.0298913E0,2.1982391E1,6.1336875E0,-2.6817542E-1,5.879062E-1,1.7698017E1,4.7598906E0,-7.343358E0,9.914509E0,1.9479954E1,1.1944468E1,2.9668695E-1,2.5581789E1,4.649067E0],"split_indices":[7,8,8,9,6,6,5,9,0,2,5,5,6,4,5,0,6,3,2,2,8,8,0,2,12,2,2,2,2,0,6,4,0,8,5,2,0,5,4,3,3,5,5,5,6,3,3,2,2,0,0,0,0,0,0,0,0,0,0,0,0,0,0,0,0,0,0,0,0,0,0,0,0,0,0,0,0,0,0,0,0,0,0,0,0,0,0],"split_type":[0,0,0,0,0,0,0,0,0,0,0,0,0,0,0,0,0,0,0,0,0,0,0,0,0,0,0,0,0,0,0,0,0,0,0,0,0,0,0,0,0,0,0,0,0,0,0,0,0,0,0,0,0,0,0,0,0,0,0,0,0,0,0,0,0,0,0,0,0,0,0,0,0,0,0,0,0,0,0,0,0,0,0,0,0,0,0],"sum_hessian":[2.14E2,8.7E1,1.27E2,3.1E1,5.6E1,8.6E1,4.1E1,2.5E1,6E0,2.6E1,3E1,2.1E1,6.5E1,3.5E1,6E0,1.3E1,1.2E1,5E0,2.1E1,1.2E1,1.8E1,1.7E1,4E0,2.5E1,4E1,2.3E1,1.2E1,2E0,4E0,1E0,1.1E1,4E0,1E0,1.3E1,8E0,8E0,4E0,1.1E1,7E0,8E0,9E0,6E0,1.9E1,3.1E1,9E0,4E0,1.9E1,3E0,9E0,1E0,1E0,1E0,3E0,5E0,6E0,3E0,1E0,5E0,8E0,2E0,6E0,6E0,2E0,3E0,8E0,1E0,6E0,2E0,6E0,2E0,7E0,3E0,3E0,3E0,1.6E1,2E1,1.1E1,1E0,8E0,2E0,2E0,9E0,1E1,2E0,1E0,8E0,1E0],"tree_param":{"num_deleted":"0","num_feature":"13","num_nodes":"87","size_leaf_vector":"0"}},{"base_weights":[1.6770006E1,2.5093603E0,2.6443186E1,3.8626733E-1,3.6572485E0,1.6867792E1,3.2168835E1,1.503166E-1,1.2074747E0,2.5690823E0,7.523782E0,9.809637E-1,2.242314E1,3.614746E1,1.7702265E1,-1.2576467E-1,4.3607205E-1,1.4201969E0,4.5044613E-1,1.5702755E0,3.7890172E0,4.41562E0,1.26362E1,-7.3517466E0,2.3650677E1,3.3228474E1,7.7563653E0,3.73574E0,3.8974655E1,3.6148186E0,4.133577E1,-1.3050157E-1,4.9416167E-1,1.3126068E0,4.1348305E0,1.8181239E0,6.5180917E0,1.3170987E0,5.112755E0,-2.1001625E0,-1.3233615E1,6.53846E0,2.717526E1,6.2793717E0,4.6254498E1,-1.29044E0,2.455725E1,-3.370904E0,1.1966019E1,1.7474178E1,4.219402E1,-4.8464184E0,1.4293998E1,1.1749742E1,6.0587856E1,2.8680772E-1,6.012991E-1,2.1236606E0,6.729695E-1,8.990487E-1,2.740537E0,1.3526026E0,8.014487E0,2.2035143E0,-2.2786629E-1,-4.7600746E0,1.0847902E0,-1.5186892E0,1.1261946E1,1.4436749E1,5.753792E1,1.2494672E1,-7.273774E0,3.4765809E0,3.422844E1,4.094799E0,-7.224405E0,7.954493E0,2.7385162E1,1.6452755E1,4.480457E1,1.3172356E1,-9.302294E0,2.0630737E1,1.0803448E0,-3.2021961E0,1.7801119E1],"categories":[],"categories_nodes":[],"categories_segments":[],"categories_sizes":[],"default_left":[1,1,1,1,1,1,1,1,1,1,1,1,1,1,1,0,1,0,0,1,1,1,0,1,1,1,1,1,1,1,1,0,1,1,0,1,1,1,0,1,0,0,0,1,1,1,1,1,0,1,1,1,1,1,0,0,0,0,0,0,0,0,0,0,0,0,0,0,0,0,0,0,0,0,0,0,0,0,0,0,0,0,0,0,0,0,0],"id":4,"left_children":[1,3,5,7,9,11,13,15,17,19,21,23,25,27,29,-1,31,-1,-1,33,35,37,-1,39,41,43,45,47,49,51,53,-1,55,57,-1,59,61,63,-1,65,-1,-1,-1,67,69,71,73,75,-1,77,79,81,83,85,-1,-1,-1,-1,-1,-1,-1,-1,-1,-1,-1,-1,-1,-1,-1,-1,-1,-1,-1,-1,-1,-1,-1,-1,-1,-1,-1,-1,-1,-1,-1,-1,-1],"loss_changes":[2.9591988E4,2.130498E2,6.4750312E3,6.0189595E0,2.2049426E2,4.3908457E3,3.9071094E3,2.1060276E0,4.8753548E-1,5.010025E1,1.3488605E2,2.8184756E3,5.606006E3,5.444086E3,6.1763584E3,0E0,4.9234557E-1,0E0,0E0,1.2414345E1,9.57236E1,1.2706787E1,0E0,3.119876E2,6.356958E1,7.081383E3,2.6155933E3,3.9127423E2,3.1389062E3,1.2439426E3,3.2752578E3,0E0,9.412694E-2,1.2059124E1,0E0,8.557095E0,5.099652E1,4.6105504E0,0E0,6.446554E1,0E0,0E0,0E0,3.279387E2,4.1955195E3,1.0806545E3,1.1042527E3,1.4465884E2,0E0,6.3131006E2,2.4883828E3,7.6484845E2,4.801006E2,4.18922E2,0E0,0E0,0E0,0E0,0E0,0E0,0E0,0E0,0E0,0E0,0E0,0E0,0E0,0E0,0E0,0E0,0E0,0E0,0E0,0E0,0E0,0E0,0E0,0E0,0E0,0E0,0E0,0E0,0E0,0E0,0E0,0E0,0E0],"parents":[2147483647,0,0,1,1,2,2,3,3,4,4,5,5,6,6,7,7,8,8,9,9,10,10,11,11,12,12,13,13,14,14,16,16,19,19,20,20,21,21,23,23,24,24,25,25,26,26,27,27,28,28,29,29,30,30,32,32,33,33,35,35,36,36,37,37,39,39,43,43,44,44,45,45,46,46,47,47,49,49,50,50,51,51,52,52,53,53],"right_children":[2,4,6,8,10,12,14,16,18,20,22,24,26,28,30,-1,32,-1,-1,34,36,38,-1,40,42,44,46,48,50,52,54,-1,56,58,-1,60,62,64,-1,66,-1,-1,-1,68,70,72,74,76,-1,78,80,82,84,86,-1,-1,-1,-1,-1,-1,-1,-1,-1,-1,-1,-1,-1,-1,-1,-1,-1,-1,-1,-1,-1,-1,-1,-1,-1,-1,-1,-1,-1,-1,-1,-1,-1],"split_conditions":[1.5E0,1.5E0,1.5E0,2.5E0,1.15E1,3.05E1,3.525E2,1.5E0,6.2E1,5.5E0,1.5E0,1E1,8.5E0,6.5E0,9.5E0,-3.77294E-2,5.5E0,4.260591E-1,1.3513385E-1,3.15E1,4.19E2,1.5E0,3.7908602E0,2.5E1,1.29E2,7.45E1,1.5E0,1.03E2,5.8E1,2.5E0,6.85E1,-3.9150473E-2,1.15E1,2.75E1,1.2404492E0,2.97E2,2.5E0,2.89E2,1.5338265E0,5.35E1,-3.9700847E0,1.961538E0,8.152578E0,1.45E1,1.25E1,1.15E1,1.2E1,8.3E1,3.5898058E0,2.1E1,2.5E0,8E0,1.5E0,4.02E2,1.8176357E1,8.6042315E-2,1.8038973E-1,6.370982E-1,2.0189087E-1,2.6971462E-1,8.2216114E-1,4.057808E-1,2.4043462E0,6.610543E-1,-6.835989E-2,-1.4280224E0,3.2543707E-1,-4.5560676E-1,3.378584E0,4.331025E0,1.7261377E1,3.7484016E0,-2.1821322E0,1.0429744E0,1.0268532E1,1.2284398E0,-2.1673214E0,2.386348E0,8.215549E0,4.935827E0,1.3441371E1,3.951707E0,-2.7906883E0,6.1892214E0,3.2410344E-1,-9.6065885E-1,5.340336E0],"split_indices":[7,8,8,9,6,4,2,9,4,6,10,6,6,5,6,0,6,0,0,5,2,9,0,4,2,2,12,3,2,7,3,0,6,4,0,2,8,2,0,3,0,0,0,5,5,5,6,3,0,5,6,5,11,2,0,0,0,0,0,0,0,0,0,0,0,0,0,0,0,0,0,0,0,0,0,0,0,0,0,0,0,0,0,0,0,0,0],"split_type":[0,0,0,0,0,0,0,0,0,0,0,0,0,0,0,0,0,0,0,0,0,0,0,0,0,0,0,0,0,0,0,0,0,0,0,0,0,0,0,0,0,0,0,0,0,0,0,0,0,0,0,0,0,0,0,0,0,0,0,0,0,0,0,0,0,0,0,0,0,0,0,0,0,0,0,0,0,0,0,0,0,0,0,0,0,0,0],"sum_hessian":[2.14E2,8.7E1,1.27E2,3.1E1,5.6E1,4.9E1,7.8E1,2.5E1,6E0,4.5E1,1.1E1,1.3E1,3.6E1,6E1,1.8E1,1.3E1,1.2E1,4E0,2E0,2.6E1,1.9E1,8E0,3E0,1E1,3E0,2E1,1.6E1,5E0,5.5E1,1.2E1,6E0,1E0,1.1E1,2.5E1,1E0,1.2E1,7E0,2E0,6E0,6E0,4E0,1E0,2E0,7E0,1.3E1,1.1E1,5E0,3E0,2E0,8E0,4.7E1,7E0,5E0,3E0,3E0,5E0,6E0,1E1,1.5E1,7E0,5E0,2E0,5E0,1E0,1E0,3E0,3E0,3E0,4E0,4E0,9E0,3E0,8E0,2E0,3E0,1E0,2E0,5E0,3E0,5E0,4.2E1,1E0,6E0,3E0,2E0,1E0,2E0],"tree_param":{"num_deleted":"0","num_feature":"13","num_nodes":"87","size_leaf_vector":"0"}},{"base_weights":[1.2282932E1,1.9002973E0,1.9325033E1,2.9384795E-1,2.768825E0,1.6976736E1,3.5883762E1,1.12512104E-1,9.2540276E-1,1.9283888E0,5.759762E0,1.9520939E1,-6.2757277E0,4.8650185E1,1.4343536E1,-9.073023E-2,3.227337E-1,1.950562E-1,1.0146178E0,1.5578394E0,4.1390786E0,3.3272138E0,9.793055E0,1.0924282E1,2.526086E1,4.442275E0,-1.0341982E1,1.4979223E1,6.298913E1,2.0275341E1,-3.2398352E-1,-1.1092633E-1,3.6811587E-1,4.809179E-1,2.040663E0,3.413508E-1,7.8230233E0,1.234777E0,4.167636E0,1.1633212E1,2.1362915E0,-1.09912E0,2.1427202E1,1.493544E1,3.1554771E1,-1.9405899E0,7.21676E0,-7.23623E-1,-1.298671E1,2.020734E1,-3.5256195E-1,-1.7038879E0,1.2179127E0,2.1510582E-1,4.4667938E-1,2.3366487E0,-2.3091296E-2,1.0656171E0,2.6088917E0,1.2174009E0,-1.1433997E0,1.7754936E0,-1.9368637E-1,-7.1399026E0,1.5192821E1,-3.608099E0,3.0475431E1,3.4796402E1,3.5422564E0,3.9161885E0,3.575092E1,8.836891E0,1.9882488E0,-1.4056249E0,3.2019043E-1],"categories":[],"categories_nodes":[],"categories_segments":[],"categories_sizes":[],"default_left":[1,1,1,1,1,1,1,1,1,1,1,1,1,1,1,0,1,0,0,1,1,1,1,1,1,1,1,1,0,0,1,0,1,1,1,1,0,1,0,0,0,1,1,1,1,0,1,1,0,0,0,0,0,0,0,0,0,0,0,0,0,0,0,0,0,0,0,0,0,0,0,0,0,0,0],"id":5,"left_children":[1,3,5,7,9,11,13,15,17,19,21,23,25,27,29,-1,31,-1,-1,33,35,37,39,41,43,45,47,49,-1,-1,51,-1,53,55,57,59,-1,61,-1,-1,-1,63,65,67,69,-1,71,73,-1,-1,-1,-1,-1,-1,-1,-1,-1,-1,-1,-1,-1,-1,-1,-1,-1,-1,-1,-1,-1,-1,-1,-1,-1,-1,-1],"loss_changes":[1.5683127E4,1.2196805E2,4.3680664E3,3.5606337E0,1.3217334E2,6.866629E3,3.4270605E3,1.1401558E0,2.5819826E-1,3.1233795E1,8.515054E1,4.8064883E3,5.6892737E2,3.4017246E3,6.156029E2,0E0,2.966795E-1,0E0,0E0,2.0337105E1,8.1273315E1,1.0680672E1,3.1506653E1,5.453627E3,3.4929414E3,8.484142E1,2.1954395E2,3.2774976E2,0E0,0E0,8.458195E0,0E0,4.816866E-2,1.3148232E1,1.2733284E1,6.594839E0,0E0,3.4334645E0,0E0,0E0,0E0,2.1752126E3,5.320037E3,5.5337324E3,4.15109E3,0E0,7.842682E0,2.5857162E0,0E0,0E0,0E0,0E0,0E0,0E0,0E0,0E0,0E0,0E0,0E0,0E0,0E0,0E0,0E0,0E0,0E0,0E0,0E0,0E0,0E0,0E0,0E0,0E0,0E0,0E0,0E0],"parents":[2147483647,0,0,1,1,2,2,3,3,4,4,5,5,6,6,7,7,8,8,9,9,10,10,11,11,12,12,13,13,14,14,16,16,19,19,20,20,21,21,22,22,23,23,24,24,25,25,26,26,27,27,30,30,32,32,33,33,34,34,35,35,37,37,41,41,42,42,43,43,44,44,46,46,47,47],"right_children":[2,4,6,8,10,12,14,16,18,20,22,24,26,28,30,-1,32,-1,-1,34,36,38,40,42,44,46,48,50,-1,-1,52,-1,54,56,58,60,-1,62,-1,-1,-1,64,66,68,70,-1,72,74,-1,-1,-1,-1,-1,-1,-1,-1,-1,-1,-1,-1,-1,-1,-1,-1,-1,-1,-1,-1,-1,-1,-1,-1,-1,-1,-1],"split_conditions":[1.5E0,1.5E0,1.025E2,2.5E0,1.15E1,9.25E1,1.585E2,1.5E0,3.9E1,2.65E1,1.5E0,1.935E2,3.65E1,5.7E1,9.8E1,-2.721907E-2,5.5E0,5.8516864E-2,3.0438536E-1,4.5E0,9.8E1,4.4E1,8.1E1,1.45E1,5.65E1,2.85E1,8.15E1,5.1E1,1.889674E1,6.0826025E0,3.365E2,-3.32779E-2,1.15E1,1.55E1,1.2E1,2.43E2,2.3469071E0,2.9E1,1.2502909E0,3.4899638E0,6.408875E-1,1.05E1,2.95E1,2.8E1,6.5E0,-5.82177E-1,3.07E2,4.6E1,-3.896013E0,6.0622025E0,-1.0576859E-1,-5.111664E-1,3.6537382E-1,6.453175E-2,1.3400382E-1,7.009946E-1,-6.927389E-3,3.1968513E-1,7.826676E-1,3.6522028E-1,-3.4301993E-1,5.326481E-1,-5.8105912E-2,-2.1419709E0,4.5578465E0,-1.0824298E0,9.14263E0,1.0438921E1,1.0626769E0,1.1748565E0,1.0725276E1,2.6510675E0,5.9647465E-1,-4.2168748E-1,9.605713E-2],"split_indices":[7,8,4,9,6,4,2,9,2,5,10,2,3,2,3,0,6,0,0,6,4,4,3,5,3,3,2,2,0,0,2,0,6,4,5,2,0,4,0,0,0,6,4,3,5,0,2,2,0,0,0,0,0,0,0,0,0,0,0,0,0,0,0,0,0,0,0,0,0,0,0,0,0,0,0],"split_type":[0,0,0,0,0,0,0,0,0,0,0,0,0,0,0,0,0,0,0,0,0,0,0,0,0,0,0,0,0,0,0,0,0,0,0,0,0,0,0,0,0,0,0,0,0,0,0,0,0,0,0,0,0,0,0,0,0,0,0,0,0,0,0,0,0,0,0,0,0,0,0,0,0,0,0],"sum_hessian":[2.14E2,8.7E1,1.27E2,3.1E1,5.6E1,1.13E2,1.4E1,2.5E1,6E0,4.5E1,1.1E1,1.02E2,1.1E1,8E0,6E0,1.3E1,1.2E1,1E0,5E0,4E1,5E0,8E0,3E0,4.2E1,6E1,3E0,8E0,3E0,5E0,4E0,2E0,1E0,1.1E1,1.3E1,2.7E1,3E0,2E0,3E0,5E0,2E0,1E0,2E1,2.2E1,2.4E1,3.6E1,1E0,2E0,2E0,6E0,2E0,1E0,1E0,1E0,5E0,6E0,2E0,1.1E1,1.1E1,1.6E1,2E0,1E0,2E0,1E0,1.5E1,5E0,6E0,1.6E1,8E0,1.6E1,5E0,3.1E1,1E0,1E0,1E0,1E0],"tree_param":{"num_deleted":"0","num_feature":"13","num_nodes":"75","size_leaf_vector":"0"}},{"base_weights":[8.940535E0,1.4497781E0,1.4020582E1,7.636142E-1,2.8194354E0,1.2167237E1,2.7171297E1,5.976413E-1,2.9378238E0,8.8769984E-1,4.5632086E0,1.3993567E1,-4.5226994E0,3.681659E1,1.0888592E1,4.0294567E-1,1.9307606E0,1.6849053E-1,3.8047714E0,2.7720618E-1,3.2372723E0,1.7895995E0,6.766416E0,1.2333159E1,4.4070934E1,3.7759352E0,-7.708459E0,1.1974565E1,4.724184E1,1.757396E1,1.4810758E0,8.679338E-1,2.533756E-1,5.3641963E-1,2.8424115E0,-2.9285353E-2,1.3086065E0,-1.9759377E-2,2.3960125E0,3.0534992E0,9.715958E0,3.7225692E0,1.7411695E1,4.836418E0,5.267046E1,-1.6495018E0,6.1342483E0,-6.150799E-1,-9.64727E0,2.6420352E0,1.9986076E1,4.5761604E0,2.0381174E1,-1.4483032E0,2.940303E0,1.9023298E-1,1.0726972E0,9.4491816E-1,7.805087E-2,1.0124974E0,4.0227875E-2,5.8215725E-1,-3.3134598E-1,-1.7224288E-1,1.4260381E-1,2.6602755E0,5.3734875E-1,2.3168964E0,1.1410013E1,6.4093695E0,-1.1675261E1,1.1280894E1,2.6034046E1,7.51136E0,1.690012E0,-1.1947813E0,2.7216148E-1,-1.1688105E1,-5.1946187E0,4.2627296E0,-2.996769E-1],"categories":[],"categories_nodes":[],"categories_segments":[],"categories_sizes":[],"default_left":[1,1,1,1,1,1,1,1,1,1,1,1,1,1,1,1,1,0,0,1,0,1,1,1,1,1,1,1,0,1,1,1,1,1,0,1,0,1,1,0,1,1,1,0,0,0,1,1,1,1,0,0,0,0,0,0,0,0,0,0,0,0,0,0,0,0,0,0,0,0,0,0,0,0,0,0,0,0,0,0,0],"id":6,"left_children":[1,3,5,7,9,11,13,15,17,19,21,23,25,27,29,31,33,-1,-1,35,-1,37,39,41,43,45,47,49,-1,51,53,55,57,59,-1,61,-1,63,65,-1,67,69,71,-1,-1,-1,73,75,77,79,-1,-1,-1,-1,-1,-1,-1,-1,-1,-1,-1,-1,-1,-1,-1,-1,-1,-1,-1,-1,-1,-1,-1,-1,-1,-1,-1,-1,-1,-1,-1],"loss_changes":[8.1611543E3,8.055028E1,2.7891172E3,1.9895824E1,9.3636E1,3.5381602E3,1.9548916E3,1.40165E1,8.962402E0,2.0618595E1,7.9553345E1,4.6003594E3,3.4635608E2,1.7651582E3,4.1422058E2,3.3270512E0,7.3733387E0,0E0,0E0,4.147824E0,0E0,8.825092E0,5.7943573E1,4.264375E3,1.4322549E3,6.1297966E1,1.178407E2,2.4626672E2,0E0,5.268274E1,2.1356972E1,1.4611568E0,4.7760286E0,9.041729E-1,0E0,2.2245154E0,0E0,9.883562E-2,1.517559E0,0E0,2.3701843E1,1.6469253E3,2.983752E3,0E0,0E0,0E0,5.6663437E0,1.8681787E0,2.8946533E0,1.558029E1,0E0,0E0,0E0,0E0,0E0,0E0,0E0,0E0,0E0,0E0,0E0,0E0,0E0,0E0,0E0,0E0,0E0,0E0,0E0,0E0,0E0,0E0,0E0,0E0,0E0,0E0,0E0,0E0,0E0,0E0,0E0],"parents":[2147483647,0,0,1,1,2,2,3,3,4,4,5,5,6,6,7,7,8,8,9,9,10,10,11,11,12,12,13,13,14,14,15,15,16,16,19,19,21,21,22,22,23,23,24,24,25,25,26,26,27,27,29,29,30,30,31,31,32,32,33,33,35,35,37,37,38,38,40,40,41,41,42,42,46,46,47,47,48,48,49,49],"right_children":[2,4,6,8,10,12,14,16,18,20,22,24,26,28,30,32,34,-1,-1,36,-1,38,40,42,44,46,48,50,-1,52,54,56,58,60,-1,62,-1,64,66,-1,68,70,72,-1,-1,-1,74,76,78,80,-1,-1,-1,-1,-1,-1,-1,-1,-1,-1,-1,-1,-1,-1,-1,-1,-1,-1,-1,-1,-1,-1,-1,-1,-1,-1,-1,-1,-1,-1,-1],"split_conditions":[1.5E0,2.5E0,1.025E2,1.45E1,1.45E1,9.25E1,1.585E2,4.74E2,1.485E2,1.05E1,5.5E0,8.85E1,3.65E1,5.7E1,9.55E1,2.2E1,3.25E1,5.054716E-2,1.1414315E0,2.5E0,9.711817E-1,1.85E1,6.95E1,1.5E0,3.03E2,2.85E1,8.15E1,9.9E1,1.4172553E1,2.995E2,2.57E2,3.75E1,1.85E1,2.95E1,8.527235E-1,1.05E1,3.9258197E-1,3.305E2,1.045E2,9.160498E-1,1.115E2,9.65E1,2.5E0,1.4509255E0,1.5801139E1,-4.9485055E-1,3.07E2,4.6E1,5.7E1,4.35E1,5.995823E0,1.3728482E0,6.1143527E0,-4.3449098E-1,8.82091E-1,5.7069894E-2,3.2180917E-1,2.8347546E-1,2.341526E-2,3.0374923E-1,1.2068363E-2,1.7464718E-1,-9.94038E-2,-5.1672865E-2,4.2781144E-2,7.9808265E-1,1.6120464E-1,6.9506896E-1,3.4230042E0,1.9228109E0,-3.5025783E0,3.3842685E0,7.810214E0,2.2534082E0,5.070036E-1,-3.584344E-1,8.164845E-2,-3.5064316E0,-1.5583857E0,1.278819E0,-8.990307E-2],"split_indices":[7,8,4,6,5,4,2,2,2,6,6,4,3,2,3,4,4,0,0,9,0,3,4,8,2,3,2,3,0,2,2,3,3,3,0,5,0,2,4,0,2,3,7,0,0,0,2,2,3,2,0,0,0,0,0,0,0,0,0,0,0,0,0,0,0,0,0,0,0,0,0,0,0,0,0,0,0,0,0,0,0],"split_type":[0,0,0,0,0,0,0,0,0,0,0,0,0,0,0,0,0,0,0,0,0,0,0,0,0,0,0,0,0,0,0,0,0,0,0,0,0,0,0,0,0,0,0,0,0,0,0,0,0,0,0,0,0,0,0,0,0,0,0,0,0,0,0,0,0,0,0,0,0,0,0,0,0,0,0,0,0,0,0,0,0],"sum_hessian":[2.14E2,8.7E1,1.27E2,5.9E1,2.8E1,1.13E2,1.4E1,5.6E1,3E0,1.4E1,1.4E1,1.02E2,1.1E1,8E0,6E0,5E1,6E0,1E0,2E0,1.2E1,2E0,7E0,7E0,9.8E1,4E0,3E0,8E0,3E0,5E0,3E0,3E0,1.1E1,3.9E1,3E0,3E0,1E1,2E0,2E0,5E0,4E0,3E0,3.7E1,6.1E1,1E0,3E0,1E0,2E0,2E0,6E0,2E0,1E0,1E0,2E0,1E0,2E0,3E0,8E0,7E0,3.2E1,1E0,2E0,3E0,7E0,1E0,1E0,4E0,1E0,1E0,2E0,3.2E1,5E0,3.7E1,2.4E1,1E0,1E0,1E0,1E0,3E0,3E0,1E0,1E0],"tree_param":{"num_deleted":"0","num_feature":"13","num_nodes":"81","size_leaf_vector":"0"}},{"base_weights":[6.5539684E0,1.1338198E0,1.0229117E1,5.8530134E-1,2.2295883E0,7.4387155E0,1.5968783E1,3.4029368E-1,1.5369742E0,4.462574E-1,3.4621596E0,1.2054549E1,-6.130144E0,2.6799006E0,1.9109121E1,-1.749902E-1,4.7690466E-1,4.0468487E-1,3.7003818E0,-2.1466245E-1,7.63851E-1,2.3083587E0,5.7696104E0,-4.0618877E0,1.5351689E1,-9.056173E0,6.2147956E0,-1.3036872E1,9.032817E0,6.5951924E0,2.5066305E1,-4.0275598E-1,3.242889E-1,1.4694631E-1,8.536924E-1,2.6250843E-2,1.1528026E0,-3.9221856E-1,3.444783E-2,1.0521638E0,-1.6349602E-1,1.404954E0,4.8513894E0,1.9630051E0,7.653012E0,-1.0458052E1,6.984352E0,1.0790839E1,2.2222075E1,8.916939E0,-1.0550065E1,8.384023E0,-1.2310562E0,-3.360529E0,-1.6194778E1,1.4750445E1,3.7956772E0,1.4997686E1,5.1923466E-1,1.764258E1,3.845392E1,-7.798592E-1,-2.0522248E-2,-2.3620284E-1,5.8985376E-1,-8.674587E-2,3.1540596E-1,9.9570334E-1,-1.8826342E-1,-8.324876E-2,1.9999988E-1,1.2849721E0,3.1342876E-1,-1.3820171E-2,-2.3142385E-1,1.9544697E0,3.5464126E-1,-2.091457E0,-1.5059717E1,3.1214828E0,8.519104E0,-4.3121347E0,1.6184643E1,-9.674936E0,2.430067E1,-1.1265299E1,-3.2188003E0,4.8719587E0,-2.547245E-1,3.8241005E0,1.6835058E1,6.1668663E0,-4.1027174E0,2.817501E1,7.588196E-2],"categories":[],"categories_nodes":[],"categories_segments":[],"categories_sizes":[],"default_left":[1,1,1,1,1,1,1,1,1,1,1,1,1,1,1,1,1,1,0,1,1,1,1,1,1,1,1,1,1,1,1,1,1,1,1,1,0,0,0,1,1,1,0,0,0,1,1,1,1,0,1,0,0,0,0,0,1,1,1,1,0,0,0,0,0,0,0,0,0,0,0,0,0,0,0,0,0,0,0,0,0,0,0,0,0,0,0,0,0,0,0,0,0,0,0],"id":7,"left_children":[1,3,5,7,9,11,13,15,17,19,21,23,25,27,29,31,33,35,-1,37,39,41,43,45,47,49,51,53,55,57,59,61,63,65,67,69,-1,-1,-1,71,73,75,-1,-1,-1,77,79,81,83,-1,85,-1,-1,-1,-1,-1,87,89,91,93,-1,-1,-1,-1,-1,-1,-1,-1,-1,-1,-1,-1,-1,-1,-1,-1,-1,-1,-1,-1,-1,-1,-1,-1,-1,-1,-1,-1,-1,-1,-1,-1,-1,-1,-1],"loss_changes":[4.271171E3,5.1587334E1,1.9312578E3,1.3467009E1,6.21994E1,5.5854785E3,1.6597852E3,3.532733E0,2.7897753E1,2.8927207E0,3.1941422E1,3.5694746E3,8.8708026E2,1.01638574E3,2.2947588E3,1.381515E0,4.723199E0,2.5177565E0,0E0,2.3466635E-1,2.578319E0,2.3050034E1,2.0823929E1,9.208855E2,1.4836191E3,6.0422217E2,9.1079926E1,3.7247955E1,1.5362018E2,6.0485114E2,1.5080654E3,1.1371278E0,7.347128E-1,8.934498E-1,2.8508987E0,1.498279E-1,0E0,0E0,0E0,8.011379E-1,2.7303152E-2,5.6556606E0,0E0,0E0,0E0,2.765055E2,3.050476E0,2.9209763E3,1.6274297E3,0E0,5.812317E1,0E0,0E0,0E0,0E0,0E0,2.3037865E1,3.827112E1,2.3412558E2,2.9581821E3,0E0,0E0,0E0,0E0,0E0,0E0,0E0,0E0,0E0,0E0,0E0,0E0,0E0,0E0,0E0,0E0,0E0,0E0,0E0,0E0,0E0,0E0,0E0,0E0,0E0,0E0,0E0,0E0,0E0,0E0,0E0,0E0,0E0,0E0,0E0],"parents":[2147483647,0,0,1,1,2,2,3,3,4,4,5,5,6,6,7,7,8,8,9,9,10,10,11,11,12,12,13,13,14,14,15,15,16,16,17,17,19,19,20,20,21,21,22,22,23,23,24,24,25,25,26,26,27,27,28,28,29,29,30,30,31,31,32,32,33,33,34,34,35,35,39,39,40,40,41,41,45,45,46,46,47,47,48,48,50,50,56,56,57,57,58,58,59,59],"right_children":[2,4,6,8,10,12,14,16,18,20,22,24,26,28,30,32,34,36,-1,38,40,42,44,46,48,50,52,54,56,58,60,62,64,66,68,70,-1,-1,-1,72,74,76,-1,-1,-1,78,80,82,84,-1,86,-1,-1,-1,-1,-1,88,90,92,94,-1,-1,-1,-1,-1,-1,-1,-1,-1,-1,-1,-1,-1,-1,-1,-1,-1,-1,-1,-1,-1,-1,-1,-1,-1,-1,-1,-1,-1,-1,-1,-1,-1,-1,-1],"split_conditions":[1.5E0,2.5E0,9.5E0,1.25E1,1.5E0,8.5E0,7.2E1,4.5E0,6.1E1,1.685E2,1.05E1,2.95E1,1.035E2,1.5E0,1.5E0,1.5E0,1.5E0,2.8E1,1.1101146E0,1E2,1.5E0,2.65E1,1.24E2,6.05E1,5.5E0,7E0,9.8E1,5.05E1,1.5E0,4.15E1,2.5E0,3.05E1,8.05E1,1.5E0,2.8E1,4.4E1,3.4584078E-1,-1.17665574E-1,1.0334349E-2,2.1E1,4.64E2,5.5E1,1.4554169E0,5.889015E-1,2.2959037E0,1.1E1,1.91E2,1.26E2,7E0,2.6750817E0,9.3E1,2.5152068E0,-3.6931688E-1,-1.0081587E0,-4.8584337E0,4.4251337E0,9.05E1,2.63E2,1.25E1,4.5E1,1.1536176E1,-2.3395777E-1,-6.1566746E-3,-7.0860855E-2,1.7695613E-1,-2.6023762E-2,9.462179E-2,2.98711E-1,-5.6479026E-2,-2.4974627E-2,5.999997E-2,3.8549164E-1,9.402863E-2,-4.1460516E-3,-6.942716E-2,5.863409E-1,1.0639238E-1,-6.274371E-1,-4.5179152E0,9.364449E-1,2.5557313E0,-1.2936405E0,4.855393E0,-2.902481E0,7.2902017E0,-3.3795898E0,-9.656401E-1,1.4615877E0,-7.641736E-2,1.1472301E0,5.0505176E0,1.85006E0,-1.2308153E0,8.452503E0,2.2764588E-2],"split_indices":[7,8,6,6,9,6,2,6,4,2,6,4,4,9,8,10,8,5,0,2,12,5,2,3,6,5,3,2,8,4,9,3,2,9,5,4,0,0,0,5,2,4,0,0,0,4,2,2,5,0,4,0,0,0,0,0,3,2,6,4,0,0,0,0,0,0,0,0,0,0,0,0,0,0,0,0,0,0,0,0,0,0,0,0,0,0,0,0,0,0,0,0,0,0,0],"split_type":[0,0,0,0,0,0,0,0,0,0,0,0,0,0,0,0,0,0,0,0,0,0,0,0,0,0,0,0,0,0,0,0,0,0,0,0,0,0,0,0,0,0,0,0,0,0,0,0,0,0,0,0,0,0,0,0,0,0,0,0,0,0,0,0,0,0,0,0,0,0,0,0,0,0,0,0,0,0,0,0,0,0,0,0,0,0,0,0,0,0,0,0,0,0,0],"sum_hessian":[2.14E2,8.7E1,1.27E2,5.9E1,2.8E1,8.7E1,4E1,4.8E1,1.1E1,1.2E1,1.6E1,6.5E1,2.2E1,8E0,3.2E1,1E1,3.8E1,8E0,3E0,4E0,8E0,1.2E1,4E0,1.1E1,5.4E1,1.8E1,4E0,2E0,6E0,1.1E1,2.1E1,7E0,3E0,2.1E1,1.7E1,6E0,2E0,2E0,2E0,6E0,2E0,1E1,2E0,2E0,2E0,7E0,4E0,3.4E1,2E1,1E0,1.7E1,3E0,1E0,1E0,1E0,2E0,4E0,4E0,7E0,1.5E1,6E0,3E0,4E0,1E0,2E0,9E0,1.2E1,1.5E1,2E0,4E0,2E0,4E0,2E0,1E0,1E0,6E0,4E0,3E0,4E0,2E0,2E0,9E0,2.5E1,1E0,1.9E1,1.5E1,2E0,3E0,1E0,1E0,3E0,3E0,4E0,9E0,6E0],"tree_param":{"num_deleted":"0","num_feature":"13","num_nodes":"95","size_leaf_vector":"0"}},{"base_weights":[4.7763524E0,2.6880326E0,1.0004437E1,2.3830085E0,2.4830887E1,5.7179503E0,1.9926716E1,7.450147E0,1.4364867E0,-3.0124931E0,1.1877969E1,2.9041742E1,1.1486087E1,1.9788256E-1,1.4685922E1,-3.4555116E0,3.3988214E0,-7.8322735E0,4.593739E0,3.0160786E1,7.182875E0,3.309958E1,3.184433E-1,-1.9837615E0,1.9466537E1,-1.0213082E-1,1.2319708E0,1.517191E-1,1.9513798E1,-6.4855366E0,8.717774E0,1.4485214E1,1.4406939E0,2.6321335E0,-9.022868E0,7.501233E0,-1.8906307E-1,3.5265182E1,4.871605E0,1.6316713E-1,1.7304323E1,3.397337E0,3.748373E1,-6.450989E0,7.457924E-1,2.378924E1,-3.2348404E0,-3.6127347E-1,9.756117E-2,-6.037073E0,4.2270074E0,2.2215784E1,-1.0510445E0,4.8125792E-1,-1.4979591E1,1.5572125E0,2.9420853E1,2.3790781E0,2.3267431E1,2.2716156E1,8.907986E-1,-4.8587565E0,-1.5095374E1,8.684122E0,1.3848381E0,-5.93071E-1,5.1148033E-1,5.076833E0,-4.1566863E0,2.6871998E1,4.2757845E0,2.7395554E0,-8.319804E-1,-2.165165E-1,2.8633694E1],"categories":[],"categories_nodes":[],"categories_segments":[],"categories_sizes":[],"default_left":[1,1,1,1,0,1,1,1,1,1,1,1,1,1,1,1,1,1,1,1,1,1,0,1,1,1,0,1,1,1,1,1,1,0,1,1,1,0,0,1,1,0,0,0,1,1,0,0,0,0,0,0,0,0,0,0,0,0,0,0,0,0,0,0,0,0,0,0,0,0,0,0,0,0,0],"id":8,"left_children":[1,3,5,7,-1,9,11,13,15,17,19,21,23,25,27,29,31,33,35,37,39,41,-1,43,45,47,-1,49,51,53,55,57,59,-1,61,63,65,-1,-1,67,69,-1,-1,-1,71,73,-1,-1,-1,-1,-1,-1,-1,-1,-1,-1,-1,-1,-1,-1,-1,-1,-1,-1,-1,-1,-1,-1,-1,-1,-1,-1,-1,-1,-1],"loss_changes":[2.3204595E3,9.877146E2,2.4804946E3,7.279062E2,0E0,2.4020889E3,1.0512827E3,1.2565118E3,1.2693103E3,7.325264E2,2.0151873E3,9.21895E2,1.2210671E3,4.1589465E0,8.390713E2,1.4581832E3,2.019737E3,1.732558E2,1.1266594E2,4.7363135E2,1.5602678E3,7.8418945E2,0E0,6.5778786E1,7.6387354E2,6.0448205E-1,0E0,1.2640321E2,5.234431E2,1.8416752E3,1.1401508E3,1.4331072E3,9.274058E2,0E0,2.048078E2,2.4148987E1,1.4354444E0,0E0,0E0,3.1827124E2,1.0069763E3,0E0,0E0,0E0,1.4862076E1,7.039685E2,0E0,0E0,0E0,0E0,0E0,0E0,0E0,0E0,0E0,0E0,0E0,0E0,0E0,0E0,0E0,0E0,0E0,0E0,0E0,0E0,0E0,0E0,0E0,0E0,0E0,0E0,0E0,0E0,0E0],"parents":[2147483647,0,0,1,1,2,2,3,3,5,5,6,6,7,7,8,8,9,9,10,10,11,11,12,12,13,13,14,14,15,15,16,16,17,17,18,18,19,19,20,20,21,21,23,23,24,24,25,25,27,27,28,28,29,29,30,30,31,31,32,32,34,34,35,35,36,36,39,39,40,40,44,44,45,45],"right_children":[2,4,6,8,-1,10,12,14,16,18,20,22,24,26,28,30,32,34,36,38,40,42,-1,44,46,48,-1,50,52,54,56,58,60,-1,62,64,66,-1,-1,68,70,-1,-1,-1,72,74,-1,-1,-1,-1,-1,-1,-1,-1,-1,-1,-1,-1,-1,-1,-1,-1,-1,-1,-1,-1,-1,-1,-1,-1,-1,-1,-1,-1,-1],"split_conditions":[2.5E0,5.08E2,2.5E0,3.5E0,7.4492664E0,5.4E1,6.5E0,1.5E0,6.5E0,1E1,6.4E1,3.8E2,9.5E0,2.5E0,6E0,4.35E2,8.5E0,1.6E1,3.715E2,3.255E2,8.3E1,4.45E1,9.553299E-2,2.65E1,2.5E1,2.085E2,3.6959124E-1,1.7E2,3.22E2,1.5E0,9.85E1,5.15E1,5.5E0,7.8964007E-1,1.95E1,3.1E1,4.745E2,1.05795555E1,1.4614816E0,3.6E1,1.06E2,1.0192012E0,1.1245119E1,-1.9352967E0,1.5E2,6.55E1,-9.7045213E-1,-1.08382046E-1,2.9268352E-2,-1.8111221E0,1.2681023E0,6.6647353E0,-3.1531334E-1,1.4437738E-1,-4.4938774E0,4.6716377E-1,8.826256E0,7.137235E-1,6.98023E0,6.814847E0,2.672396E-1,-1.457627E0,-4.5286126E0,2.6052368E0,4.1545144E-1,-1.779213E-1,1.5344411E-1,1.52305E0,-1.2470059E0,8.0616E0,1.2827353E0,8.2186663E-1,-2.4959414E-1,-6.495495E-2,8.590109E0],"split_indices":[7,2,8,6,0,3,6,7,6,6,3,2,6,6,5,2,6,3,2,2,4,2,0,3,5,2,0,2,2,7,3,4,3,0,5,3,2,0,0,4,4,0,0,0,2,2,0,0,0,0,0,0,0,0,0,0,0,0,0,0,0,0,0,0,0,0,0,0,0,0,0,0,0,0,0],"split_type":[0,0,0,0,0,0,0,0,0,0,0,0,0,0,0,0,0,0,0,0,0,0,0,0,0,0,0,0,0,0,0,0,0,0,0,0,0,0,0,0,0,0,0,0,0,0,0,0,0,0,0,0,0,0,0,0,0,0,0,0,0,0,0,0,0,0,0,0,0,0,0,0,0,0,0],"sum_hessian":[2.14E2,1.54E2,6E1,1.53E2,1E0,4.3E1,1.7E1,2.3E1,1.3E2,1.8E1,2.5E1,7E0,1E1,1.2E1,1.1E1,3.7E1,9.3E1,1.1E1,7E0,4E0,2.1E1,6E0,1E0,4E0,6E0,1E1,2E0,3E0,8E0,3E1,7E0,1.3E1,8E1,1E0,1E1,4E0,3E0,3E0,1E0,1.3E1,8E0,1E0,5E0,1E0,3E0,5E0,1E0,4E0,6E0,1E0,2E0,7E0,1E0,1.7E1,1.3E1,6E0,1E0,6E0,7E0,1E0,7.9E1,7E0,3E0,3E0,1E0,2E0,1E0,6E0,7E0,4E0,4E0,1E0,2E0,1E0,4E0],"tree_param":{"num_deleted":"0","num_feature":"13","num_nodes":"75","size_leaf_vector":"0"}},{"base_weights":[3.6749752E0,4.8229662E-1,5.841231E0,-1.633529E-2,1.4973179E0,3.8919325E0,9.882623E0,2.4030723E-1,-1.3235786E0,2.2304644E-1,2.8466768E0,6.7744083E0,-4.548734E0,5.267537E-1,1.2134749E1,-1.0943017E-1,7.062988E-1,-2.4446652E0,2.8644085E-1,1.543945E0,-7.593515E-2,7.8984535E-1,4.29057E0,3.976502E0,1.3486255E1,-6.2439046E0,2.8026605E0,-1.12595E1,5.5027547E0,8.251703E0,2.0240585E1,-1.9675915E-1,2.0561637E-1,1.8909544E-1,1.7875781E0,-1.7560096E-1,-3.535297E0,-2.757403E-1,7.531417E-1,4.750142E-1,1.8409033E0,4.4682068E-1,-3.2971954E-1,-5.723123E-2,1.1401222E0,1.6687332E0,6.495223E0,2.2710335E0,1.8189323E1,-7.417909E0,1.7869406E1,7.445778E0,-7.4180965E0,3.9641256E0,-9.2160034E-1,-2.9900684E0,-1.3899181E1,1.7561775E0,9.912799E0,1.0267711E1,-9.282913E0,7.3699875E0,2.7592651E1,5.9363443E-2,-2.2274137E-1,2.9833993E-1,-1.7461697E-2,2.213693E-2,9.0520334E-1,4.6089667E-1,2.667365E0,-1.0889778E0,-3.987744E0,-1.6872635E-1,6.42889E-1,-5.131433E-1,6.6054726E-1,-1.4541161E-1,5.956477E-2,1.3157754E0,2.1875477E-1,7.5536156E-1,2.0258605E0,1.5412912E0,7.63277E0,-1.0362592E0,1.0237368E1,1.0860634E0,2.9229475E1,2.2661415E1,2.7947E0,4.756546E-1,-7.9104147E0,4.5953584E0,1.0352135E0,2.287241E0,-1.8403816E-1,1.993594E1,4.426808E0,-1.2653038E1,-1.2713318E0,1.6739105E1,8.4293175E-1],"categories":[],"categories_nodes":[],"categories_segments":[],"categories_sizes":[],"default_left":[1,1,1,1,1,1,1,1,1,1,1,1,1,1,1,1,1,1,1,1,1,1,1,1,1,1,1,1,1,1,1,1,1,1,1,0,1,0,0,0,0,1,1,1,1,1,1,1,1,0,1,0,1,1,0,0,0,1,0,1,1,1,0,0,0,0,0,0,0,0,0,0,0,0,0,0,0,0,0,0,0,0,0,0,0,0,0,0,0,0,0,0,0,0,0,0,0,0,0,0,0,0,0],"id":9,"left_children":[1,3,5,7,9,11,13,15,17,19,21,23,25,27,29,31,33,35,37,39,41,43,45,47,49,51,53,55,57,59,61,63,65,67,69,-1,71,-1,-1,-1,-1,73,75,77,79,81,83,85,87,-1,89,-1,91,93,-1,-1,-1,95,-1,97,99,101,-1,-1,-1,-1,-1,-1,-1,-1,-1,-1,-1,-1,-1,-1,-1,-1,-1,-1,-1,-1,-1,-1,-1,-1,-1,-1,-1,-1,-1,-1,-1,-1,-1,-1,-1,-1,-1,-1,-1,-1,-1],"loss_changes":[1.4841567E3,4.4563194E1,9.6990576E2,2.044772E1,4.9229103E1,2.1718564E3,8.575027E2,8.389E0,1.8749962E1,6.4360294E0,3.8188934E1,1.1857937E3,3.0412244E2,5.8979395E2,8.716665E2,8.658377E-1,1.1965284E1,1.4227478E1,1.5195236E0,7.782793E-2,2.0046673E0,2.14223E0,3.5403137E1,1.122188E3,1.8734495E3,3.6064563E2,2.5281334E1,2.3926483E1,9.8249374E1,9.437119E2,7.4289746E2,1.7293388E-1,1.500017E-1,1.8929263E0,6.941E0,0E0,8.475876E-2,0E0,0E0,0E0,0E0,7.119188E-1,2.1553402E0,3.9558757E-2,5.213733E-1,1.006937E-1,1.0776993E1,1.1698765E3,9.1236804E2,0E0,1.092478E3,0E0,7.371484E1,2.6381264E0,0E0,0E0,0E0,5.5728283E0,0E0,1.1541133E3,6.491388E1,2.9165387E2,0E0,0E0,0E0,0E0,0E0,0E0,0E0,0E0,0E0,0E0,0E0,0E0,0E0,0E0,0E0,0E0,0E0,0E0,0E0,0E0,0E0,0E0,0E0,0E0,0E0,0E0,0E0,0E0,0E0,0E0,0E0,0E0,0E0,0E0,0E0,0E0,0E0,0E0,0E0,0E0,0E0],"parents":[2147483647,0,0,1,1,2,2,3,3,4,4,5,5,6,6,7,7,8,8,9,9,10,10,11,11,12,12,13,13,14,14,15,15,16,16,17,17,18,18,19,19,20,20,21,21,22,22,23,23,24,24,25,25,26,26,27,27,28,28,29,29,30,30,31,31,32,32,33,33,34,34,36,36,41,41,42,42,43,43,44,44,45,45,46,46,47,47,48,48,50,50,52,52,53,53,57,57,59,59,60,60,61,61],"right_children":[2,4,6,8,10,12,14,16,18,20,22,24,26,28,30,32,34,36,38,40,42,44,46,48,50,52,54,56,58,60,62,64,66,68,70,-1,72,-1,-1,-1,-1,74,76,78,80,82,84,86,88,-1,90,-1,92,94,-1,-1,-1,96,-1,98,100,102,-1,-1,-1,-1,-1,-1,-1,-1,-1,-1,-1,-1,-1,-1,-1,-1,-1,-1,-1,-1,-1,-1,-1,-1,-1,-1,-1,-1,-1,-1,-1,-1,-1,-1,-1,-1,-1,-1,-1,-1,-1],"split_conditions":[1.5E0,2.5E0,9.5E0,8.3E1,1.55E1,8.5E0,7.2E1,1.5E0,5.25E1,1.9E1,5.5E0,8.45E1,1.035E2,1.5E0,8.9E1,2.5E0,1.15E1,1.5E0,2.545E2,3.765E2,1.05E1,1.85E1,6.95E1,7.5E0,3E0,7E0,9.8E1,5.05E1,1.75E1,8.1E1,2.76E2,7.5E0,6.2E1,7E1,5.55E1,-5.268029E-2,2.97E2,-8.272209E-2,2.2594252E-1,1.4250427E-1,5.52271E-1,1.5E2,1.45E1,3.305E2,3.195E2,3.7E2,1.115E2,1.5E0,3.4E1,-2.2253728E0,2.55E1,2.2337334E0,3.95E1,9.05E1,-2.764801E-1,-8.970206E-1,-4.1697545E0,6.65E1,2.9738398E0,2.425E2,1.825E2,8.65E1,8.277796E0,1.7809033E-2,-6.682241E-2,8.9501984E-2,-5.2385093E-3,6.641079E-3,2.7156103E-1,1.38269E-1,8.002096E-1,-3.2669336E-1,-1.1963233E0,-5.0617907E-2,1.9286671E-1,-1.53943E-1,1.9816418E-1,-4.3623485E-2,1.7869432E-2,3.9473262E-1,6.5626435E-2,2.2660847E-1,6.0775816E-1,4.6238738E-1,2.2898312E0,-3.1087777E-1,3.0712104E0,3.2581902E-1,8.768843E0,6.7984247E0,8.3841E-1,1.4269638E-1,-2.3731246E0,1.3786075E0,3.1056404E-1,6.861723E-1,-5.521145E-2,5.980782E0,1.3280424E0,-3.7959116E0,-3.8139954E-1,5.021732E0,2.5287953E-1],"split_indices":[7,8,6,4,5,6,2,8,3,4,6,4,4,9,3,9,6,8,2,2,5,3,4,6,6,5,3,2,5,3,2,3,4,4,4,0,2,0,0,0,0,2,5,2,2,2,2,11,4,0,5,0,2,3,0,0,0,3,0,2,2,2,0,0,0,0,0,0,0,0,0,0,0,0,0,0,0,0,0,0,0,0,0,0,0,0,0,0,0,0,0,0,0,0,0,0,0,0,0,0,0,0,0],"split_type":[0,0,0,0,0,0,0,0,0,0,0,0,0,0,0,0,0,0,0,0,0,0,0,0,0,0,0,0,0,0,0,0,0,0,0,0,0,0,0,0,0,0,0,0,0,0,0,0,0,0,0,0,0,0,0,0,0,0,0,0,0,0,0,0,0,0,0,0,0,0,0,0,0,0,0,0,0,0,0,0,0,0,0,0,0,0,0,0,0,0,0,0,0,0,0,0,0,0,0,0,0,0,0],"sum_hessian":[2.14E2,8.7E1,1.27E2,5.9E1,2.8E1,8.7E1,4E1,5E1,9E0,1.5E1,1.3E1,6.5E1,2.2E1,8E0,3.2E1,2.9E1,2.1E1,5E0,4E0,2E0,1.3E1,6E0,7E0,4.7E1,1.8E1,1.8E1,4E0,2E0,6E0,2.3E1,9E0,2.3E1,6E0,1.5E1,6E0,2E0,3E0,2E0,2E0,1E0,1E0,4E0,9E0,2E0,4E0,4E0,3E0,4.3E1,4E0,3E0,1.5E1,1E0,1.7E1,3E0,1E0,1E0,1E0,4E0,2E0,2.1E1,2E0,4E0,5E0,2E0,2.1E1,4E0,2E0,1.3E1,2E0,3E0,3E0,1E0,2E0,1E0,3E0,8E0,1E0,1E0,1E0,3E0,1E0,2E0,2E0,1E0,2E0,3.1E1,1.2E1,2E0,2E0,1.1E1,4E0,1E0,1.6E1,2E0,1E0,3E0,1E0,7E0,1.4E1,1E0,1E0,1E0,3E0],"tree_param":{"num_deleted":"0","num_feature":"13","num_nodes":"103","size_leaf_vector":"0"}},{"base_weights":[2.7521393E0,1.4771919E0,5.946643E0,8.0202156E-1,6.9108086E0,7.2965664E-1,1.0068083E1,4.752651E0,-2.2264047E-2,-3.2026665E0,1.2718401E1,-2.3573492E0,7.5085964E0,3.5621502E0,1.4444129E1,1.3602792E-1,9.357939E0,4.6408057E0,-9.261014E-1,-9.570575E0,1.2586117E0,7.4211025E-1,2.2574957E1,-5.864898E0,1.0456363E0,1.6529207E1,2.4342346E-1,-1.2771906E0,1.1034026E1,2.0083805E1,3.4741373E0,1.0622439E0,-2.9677087E-2,2.2358294E1,4.5220385E0,8.2312256E-1,1.5165693E1,-1.881652E0,4.088699E0,-2.5415573E0,-1.1814304E1,1.8280443E0,2.6964188E-1,-2.1922768E-3,2.2318115E0,2.661308E1,1.1921768E0,-6.039858E-1,-1.1005013E1,-2.3458648E0,3.3187604E0,4.8527756E0,1.8803759E1,-3.159913E0,4.700064E0,-9.1357975E0,6.110766E-1,-1.0823536E0,1.3673773E1,2.1686438E1,4.2611694E-1,-9.476907E-2,1.4228241E1,-3.5289073E-1,7.025471E-2,-1.1991637E-1,1.151495E1,-4.069885E-1,9.022339E0,-1.4122061E-1,1.9027727E1,3.283934E-1,-5.414174E0,-3.737167E0,1.4684407E1,4.3377018E-1,-2.9307365E-2,-3.341881E-1,3.305343E-1,-3.1754375E0,3.025945E0,-1.7595272E0,-1.2876503E1,-9.5384854E-1,-2.9559262E0,5.4557724E0,1.3728012E0,-5.327896E0,-6.6128665E-1,-1.8405491E0,4.135746E0,2.9837715E1,1.1601564E1,2.3449593E0,-2.5108051E0],"categories":[],"categories_nodes":[],"categories_segments":[],"categories_sizes":[],"default_left":[1,1,1,1,1,1,1,1,1,1,1,1,1,1,1,1,1,1,1,1,1,1,1,1,1,1,1,1,1,1,1,0,1,0,1,1,1,1,1,0,0,0,1,1,0,0,0,1,1,1,1,0,0,1,0,0,1,0,0,1,0,1,0,0,0,0,0,0,0,0,0,0,0,0,0,0,0,0,0,0,0,0,0,0,0,0,0,0,0,0,0,0,0,0,0],"id":10,"left_children":[1,3,5,7,9,11,13,15,17,19,21,23,25,27,29,31,33,35,37,39,41,43,45,47,49,51,53,55,57,59,61,-1,63,-1,65,67,69,71,73,-1,-1,-1,75,77,-1,-1,-1,79,81,83,85,-1,-1,87,-1,-1,89,-1,-1,91,-1,93,-1,-1,-1,-1,-1,-1,-1,-1,-1,-1,-1,-1,-1,-1,-1,-1,-1,-1,-1,-1,-1,-1,-1,-1,-1,-1,-1,-1,-1,-1,-1,-1,-1],"loss_changes":[8.668728E2,5.6309296E2,1.3042454E3,4.52752E2,1.0392268E3,6.0364594E2,9.165364E2,5.089881E2,4.9319803E2,2.1090869E2,1.2817418E3,2.4485532E2,5.8580316E2,5.564769E2,1.1675708E3,2.0267465E0,6.5331616E2,7.509498E2,4.772993E2,1.7286926E1,2.3228407E0,6.6576233E0,4.863501E2,2.637701E2,9.25877E1,1.4984131E1,1.0585648E2,1.5397417E2,2.0670483E2,4.0031104E2,3.083915E2,0E0,4.1238406E-1,0E0,3.2598862E2,1.5496118E2,2.9826624E2,6.4976184E2,1.3816077E3,0E0,0E0,0E0,1.5991077E-1,6.627798E-1,0E0,0E0,0E0,6.561385E1,6.3857605E1,1.426569E0,2.1620071E1,0E0,0E0,1.8144653E1,0E0,0E0,8.5382576E1,0E0,0E0,6.40291E2,0E0,4.7149036E1,0E0,0E0,0E0,0E0,0E0,0E0,0E0,0E0,0E0,0E0,0E0,0E0,0E0,0E0,0E0,0E0,0E0,0E0,0E0,0E0,0E0,0E0,0E0,0E0,0E0,0E0,0E0,0E0,0E0,0E0,0E0,0E0,0E0],"parents":[2147483647,0,0,1,1,2,2,3,3,4,4,5,5,6,6,7,7,8,8,9,9,10,10,11,11,12,12,13,13,14,14,15,15,16,16,17,17,18,18,19,19,20,20,21,21,22,22,23,23,24,24,25,25,26,26,27,27,28,28,29,29,30,30,32,32,34,34,35,35,36,36,37,37,38,38,42,42,43,43,47,47,48,48,49,49,50,50,53,53,56,56,59,59,61,61],"right_children":[2,4,6,8,10,12,14,16,18,20,22,24,26,28,30,32,34,36,38,40,42,44,46,48,50,52,54,56,58,60,62,-1,64,-1,66,68,70,72,74,-1,-1,-1,76,78,-1,-1,-1,80,82,84,86,-1,-1,88,-1,-1,90,-1,-1,92,-1,94,-1,-1,-1,-1,-1,-1,-1,-1,-1,-1,-1,-1,-1,-1,-1,-1,-1,-1,-1,-1,-1,-1,-1,-1,-1,-1,-1,-1,-1,-1,-1,-1,-1],"split_conditions":[2.5E0,1.35E1,5.65E1,3.5E0,8.7E1,2.5E0,1.5E0,1.5E0,8.6E1,1.5E0,1.5E0,8E0,5.5E0,8.35E1,9.2E1,1.55E1,3.5E1,7.7E1,9.75E1,5.05E1,4.2E1,3.465E2,1.04E2,1.5E0,2.5E0,1.43E2,1.5E0,6.5E0,4.15E1,3.94E2,2.5E0,3.186732E-1,1.36E2,6.7074885E0,1.5E1,1.05E2,1.8E1,1.5E0,3.03E2,-7.624672E-1,-3.5442915E0,5.4841334E-1,6.7E1,6.1E1,6.695435E-1,7.983924E0,3.5765305E-1,1.35E1,1.81E2,3.95E1,1.4E1,1.4558327E0,5.6411276E0,2.65E1,1.4100193E0,-2.7407393E0,1.38E2,-3.2470608E-1,4.102132E0,8.5E0,1.278351E-1,9.75E1,4.2684727E0,-1.0586722E-1,2.1076415E-2,-3.5974912E-2,3.4544852E0,-1.2209655E-1,2.7067018E0,-4.2366184E-2,5.708318E0,9.851802E-2,-1.6242523E0,-1.1211501E0,4.4053226E0,1.3013107E-1,-8.79221E-3,-1.00256436E-1,9.91603E-2,-9.526313E-1,9.077835E-1,-5.278582E-1,-3.862951E0,-2.8615457E-1,-8.867779E-1,1.6367317E0,4.1184038E-1,-1.5983689E0,-1.98386E-1,-5.5216473E-1,1.2407238E0,8.951315E0,3.4804695E0,7.034878E-1,-7.532416E-1],"split_indices":[7,6,3,6,2,8,8,7,2,9,7,6,6,4,4,4,3,2,3,2,2,2,3,8,9,2,9,5,2,2,9,0,2,0,5,4,5,7,2,0,0,0,2,4,0,0,0,5,2,4,5,0,0,3,0,0,2,0,0,6,0,3,0,0,0,0,0,0,0,0,0,0,0,0,0,0,0,0,0,0,0,0,0,0,0,0,0,0,0,0,0,0,0,0,0],"split_type":[0,0,0,0,0,0,0,0,0,0,0,0,0,0,0,0,0,0,0,0,0,0,0,0,0,0,0,0,0,0,0,0,0,0,0,0,0,0,0,0,0,0,0,0,0,0,0,0,0,0,0,0,0,0,0,0,0,0,0,0,0,0,0,0,0,0,0,0,0,0,0,0,0,0,0,0,0,0,0,0,0,0,0,0,0,0,0,0,0,0,0,0,0,0,0],"sum_hessian":[2.14E2,1.54E2,6E1,1.38E2,1.6E1,2.7E1,3.3E1,2.3E1,1.15E2,6E0,1E1,1.9E1,8E0,1.4E1,1.9E1,1.2E1,1.1E1,1.8E1,9.7E1,2E0,4E0,5E0,5E0,9E0,1E1,3E0,5E0,9E0,5E0,1.2E1,7E0,1E0,1.1E1,2E0,9E0,1.4E1,4E0,8.2E1,1.5E1,1E0,1E0,2E0,2E0,4E0,1E0,4E0,1E0,5E0,4E0,4E0,6E0,1E0,2E0,3E0,2E0,1E0,8E0,1E0,4E0,1.1E1,1E0,6E0,1E0,2E0,9E0,6E0,3E0,1.3E1,1E0,1E0,3E0,5.1E1,3.1E1,9E0,6E0,1E0,1E0,2E0,2E0,3E0,2E0,1E0,3E0,2E0,2E0,2E0,4E0,1E0,2E0,5E0,3E0,5E0,6E0,3E0,3E0],"tree_param":{"num_deleted":"0","num_feature":"13","num_nodes":"95","size_leaf_vector":"0"}},{"base_weights":[2.1469429E0,2.5067142E-1,3.4338567E0,-1.4041293E-1,1.0511676E0,2.0877788E0,6.6880546E0,1.3930826E-1,-1.5529497E0,1.4116676E-1,2.3285716E0,3.3897777E0,-1.0296187E1,1.9341445E0,1.3531512E1,-2.2362112E-1,6.2787974E-1,4.7924437E-2,-2.6281865E0,1.2466742E0,-7.4938804E-2,3.9370587E-1,3.246791E0,2.8756258E0,2.3032188E1,-1.745918E1,3.0223494E0,-1.6497399E0,7.6923804E0,1.6194532E1,2.1595733E0,-2.4725523E-2,-1.213154E0,1.3474725E-1,1.3252103E0,-2.1956848E-1,5.5894804E-1,-3.10632E0,-1.1875963E-1,3.5450268E-1,1.5155087E0,9.842357E-2,-6.196318E-1,9.029074E-1,4.067865E-2,6.925225E-1,4.6408477E0,4.599633E0,-6.750897E-1,-2.964569E0,-1.976519E1,-2.685051E-1,4.2088027E0,2.2029617E0,-7.795953E0,1.0720537E1,-1.9374466E0,2.098099E1,7.911245E0,-3.049256E-1,4.776535E0,-1.5125257E-1,3.4031254E-1,-2.3368108E0,-3.4803703E-1,-2.4301738E-1,5.4722863E-1,6.286868E-2,1.6768982E0,-2.9364058E-1,3.8016874E-1,-9.048379E-2,-7.658532E-1,-1.341381E-1,1.436636E-1,6.0405374E0,1.6942085E0,3.2584405E0,2.1220528E1,-8.608506E0,1.8798649E0,-4.958086E0,3.5495322E0,-6.787789E-1,-1.4686867E1,-5.081768E-1,1.2676686E1,-2.4994316E0,-4.0673828E-1,2.2695024E1,5.3483887E0,1.1141888E1,9.666392E-1,5.281887E-1,-9.855771E-1],"categories":[],"categories_nodes":[],"categories_segments":[],"categories_sizes":[],"default_left":[1,1,1,1,1,1,1,1,1,1,1,1,1,1,1,1,1,1,1,1,1,1,1,1,0,1,1,1,1,1,1,1,1,1,1,0,0,0,0,0,0,1,1,0,1,0,1,1,1,0,0,0,0,1,1,1,1,1,1,1,0,0,0,0,0,0,0,0,0,0,0,0,0,0,0,0,0,0,0,0,0,0,0,0,0,0,0,0,0,0,0,0,0,0,0],"id":11,"left_children":[1,3,5,7,9,11,13,15,17,19,21,23,25,27,29,31,33,35,37,39,41,43,45,47,-1,49,51,53,55,57,59,61,63,65,67,-1,-1,-1,-1,-1,-1,69,71,-1,73,-1,75,77,79,-1,-1,-1,-1,81,83,85,87,89,91,93,-1,-1,-1,-1,-1,-1,-1,-1,-1,-1,-1,-1,-1,-1,-1,-1,-1,-1,-1,-1,-1,-1,-1,-1,-1,-1,-1,-1,-1,-1,-1,-1,-1,-1,-1],"loss_changes":[5.2381177E2,2.7697012E1,5.4672864E2,2.3923326E1,3.3382E1,1.5183018E3,1.1775559E3,9.183573E0,1.7339142E1,4.393738E0,2.0041298E1,7.8209924E2,9.1137305E2,4.8733804E2,4.1928247E2,5.874416E0,7.386713E0,8.062033E-1,6.830139E0,1.822877E-1,1.571855E0,8.620808E-1,2.5272469E1,5.1118634E2,0E0,1.4195288E2,1.6747864E1,3.7236703E2,2.8321613E2,3.097854E2,2.7254484E1,1.2523401E0,4.047176E0,2.3144784E0,3.8901281E0,0E0,0E0,0E0,0E0,0E0,0E0,1.5476413E0,2.4019372E-1,0E0,9.128475E-2,0E0,1.0387985E1,1.1791962E3,5.837293E2,0E0,0E0,0E0,0E0,1.1402744E2,2.8429388E2,1.601972E2,1.5640917E0,6.6181885E1,1.2384305E2,2.2217522E0,0E0,0E0,0E0,0E0,0E0,0E0,0E0,0E0,0E0,0E0,0E0,0E0,0E0,0E0,0E0,0E0,0E0,0E0,0E0,0E0,0E0,0E0,0E0,0E0,0E0,0E0,0E0,0E0,0E0,0E0,0E0,0E0,0E0,0E0,0E0],"parents":[2147483647,0,0,1,1,2,2,3,3,4,4,5,5,6,6,7,7,8,8,9,9,10,10,11,11,12,12,13,13,14,14,15,15,16,16,17,17,18,18,19,19,20,20,21,21,22,22,23,23,25,25,26,26,27,27,28,28,29,29,30,30,31,31,32,32,33,33,34,34,41,41,42,42,44,44,46,46,47,47,48,48,53,53,54,54,55,55,56,56,57,57,58,58,59,59],"right_children":[2,4,6,8,10,12,14,16,18,20,22,24,26,28,30,32,34,36,38,40,42,44,46,48,-1,50,52,54,56,58,60,62,64,66,68,-1,-1,-1,-1,-1,-1,70,72,-1,74,-1,76,78,80,-1,-1,-1,-1,82,84,86,88,90,92,94,-1,-1,-1,-1,-1,-1,-1,-1,-1,-1,-1,-1,-1,-1,-1,-1,-1,-1,-1,-1,-1,-1,-1,-1,-1,-1,-1,-1,-1,-1,-1,-1,-1,-1,-1],"split_conditions":[1.5E0,2.5E0,8.9E1,8.3E1,1.65E1,8.35E1,2.835E2,1.5E0,2.8E2,1.9E1,3.5E0,8.15E1,6.65E1,8.55E1,9.95E1,3.495E2,1.95E1,2.545E2,1.045E2,3.765E2,9.5E1,3.35E1,6.95E1,3.23E2,6.909657E0,4.1E1,7.3E1,1.5E0,8.65E1,1.5E0,4.925E2,2.5E0,3.61E2,2.5E1,1.5E0,-6.5870546E-2,1.6768442E-1,-9.3189603E-1,-3.562789E-2,1.0635081E-1,4.546526E-1,4.2E1,2.45E2,2.7087224E-1,2.62E2,2.0775677E-1,2.8E1,3.03E2,4.5E0,-8.8937074E-1,-5.9295573E0,-8.0551535E-2,1.2626408E0,1.5E0,1.025E2,1.4E1,1.435E2,1.55E1,3.51E2,4.015E2,1.4329605E0,-4.537577E-2,1.0209376E-1,-7.0104325E-1,-1.0441112E-1,-7.290521E-2,1.641686E-1,1.8860605E-2,5.030695E-1,-8.809218E-2,1.1405063E-1,-2.7145138E-2,-2.2975598E-1,-4.0241435E-2,4.3099083E-2,1.8121613E0,5.082626E-1,9.775322E-1,6.3661585E0,-2.582552E0,5.639595E-1,-1.4874258E0,1.0648597E0,-2.0363368E-1,-4.40606E0,-1.5245305E-1,3.803006E0,-7.4982953E-1,-1.2202149E-1,6.8085074E0,1.6045166E0,3.3425665E0,2.8999177E-1,1.5845662E-1,-2.9567313E-1],"split_indices":[7,8,3,4,5,3,2,8,2,4,6,3,4,4,4,2,5,2,4,2,3,4,4,2,0,4,4,11,2,12,2,9,2,3,9,0,0,0,0,0,0,3,2,0,2,0,5,2,6,0,0,0,0,6,3,5,2,6,2,2,0,0,0,0,0,0,0,0,0,0,0,0,0,0,0,0,0,0,0,0,0,0,0,0,0,0,0,0,0,0,0,0,0,0,0],"split_type":[0,0,0,0,0,0,0,0,0,0,0,0,0,0,0,0,0,0,0,0,0,0,0,0,0,0,0,0,0,0,0,0,0,0,0,0,0,0,0,0,0,0,0,0,0,0,0,0,0,0,0,0,0,0,0,0,0,0,0,0,0,0,0,0,0,0,0,0,0,0,0,0,0,0,0,0,0,0,0,0,0,0,0,0,0,0,0,0,0,0,0,0,0,0,0],"sum_hessian":[2.14E2,8.7E1,1.27E2,5.9E1,2.8E1,9.1E1,3.6E1,5E1,9E0,1.7E1,1.1E1,8.3E1,8E0,2.2E1,1.4E1,2.9E1,2.1E1,4E0,5E0,2E0,1.5E1,4E0,7E0,8.2E1,1E0,5E0,3E0,1.4E1,8E0,1.1E1,3E0,2.5E1,4E0,1.3E1,8E0,3E0,1E0,4E0,1E0,1E0,1E0,1.2E1,3E0,1E0,3E0,3E0,4E0,5.5E1,2.7E1,1E0,4E0,1E0,2E0,9E0,5E0,6E0,2E0,6E0,5E0,2E0,1E0,1.9E1,6E0,1E0,3E0,7E0,6E0,2E0,6E0,5E0,7E0,1E0,2E0,1E0,2E0,2E0,2E0,5.2E1,3E0,6E0,2.1E1,1E0,8E0,3E0,2E0,1E0,5E0,1E0,1E0,5E0,1E0,3E0,2E0,1E0,1E0],"tree_param":{"num_deleted":"0","num_feature":"13","num_nodes":"95","size_leaf_vector":"0"}},{"base_weights":[1.5950291E0,1.9968268E-1,2.5418687E0,-1.1497662E-1,8.438163E-1,1.2396051E0,4.686483E0,9.485804E-2,-1.1736357E0,1.17153324E-1,1.8634927E0,6.4799275E0,-1.5001169E-1,-1.1168951E0,9.639991E0,-9.570875E-2,7.2217584E-1,-2.8740547E0,-3.8927424E-1,1.059673E0,-6.689119E-2,3.8284595E0,1.0876535E0,1.1342721E0,1.9082647E1,-1.4053769E0,7.8173027E0,1.9018318E1,-2.896601E0,-1.0753155E0,1.1084393E1,9.477556E-3,-1.044755E0,2.484178E-1,2.0606441E0,5.3909797E-2,-8.459357E-1,3.0132723E-1,1.2881823E0,1.4145246E-1,-3.5496908E-1,4.975218E0,7.674713E-1,2.1424408E-1,1.9182141E0,-1.5644774E0,1.0651596E1,1.8494015E0,2.2928608E1,-2.4386117E0,5.228013E0,1.732295E0,1.0571091E1,1.4165996E0,-6.608985E0,-6.0064583E0,6.8590565E0,1.3498912E1,1.9934341E0,-5.033295E-2,5.1549745E-1,-6.881372E-2,-1.9862893E0,-1.4467932E-1,1.2138709E0,-1.7016563E-1,4.7510576E-1,-1.0606171E0,-1.0094571E-1,-2.202305E-1,5.471815E-1,4.365527E-2,-6.648512E-1,-6.365005E-2,3.6910367E-1,4.8905706E-1,2.153239E0,-6.730738E0,2.3492055E0,2.1904233E0,-4.12423E0,1.2497654E1,-1.6333021E0,-1.2271436E0,5.3053055E0,1.2823599E1,-3.45726E-1,6.4192505E0,-1.2618008E0,-8.869273E0,-1.6707268E0,1.6316206E1,-4.406705E-1,-1.008048E0,3.7461872E0],"categories":[],"categories_nodes":[],"categories_segments":[],"categories_sizes":[],"default_left":[1,1,1,1,1,1,1,1,1,1,1,1,1,1,1,1,1,0,1,1,1,1,1,1,1,1,1,0,1,1,1,1,1,1,0,1,1,0,0,1,1,0,0,1,1,1,0,0,0,1,1,1,1,1,1,0,0,1,1,0,0,0,0,0,0,0,0,0,0,0,0,0,0,0,0,0,0,0,0,0,0,0,0,0,0,0,0,0,0,0,0,0,0,0,0],"id":12,"left_children":[1,3,5,7,9,11,13,15,17,19,21,23,25,27,29,31,33,-1,35,37,39,41,43,45,47,49,51,-1,53,55,57,59,61,63,-1,65,67,-1,-1,69,71,-1,-1,73,75,77,-1,-1,-1,79,81,83,85,87,89,-1,-1,91,93,-1,-1,-1,-1,-1,-1,-1,-1,-1,-1,-1,-1,-1,-1,-1,-1,-1,-1,-1,-1,-1,-1,-1,-1,-1,-1,-1,-1,-1,-1,-1,-1,-1,-1,-1,-1],"loss_changes":[2.8354382E2,1.7933092E1,3.5167584E2,1.3439933E1,2.1269554E1,5.9081726E2,1.3906266E3,6.1659617E0,1.2218634E1,3.1932635E0,1.412994E1,1.1236416E3,6.611091E2,8.792879E2,4.1432666E2,4.0029683E0,7.097421E0,0E0,1.6646849E0,1.3170266E-1,1.0105186E0,6.712307E0,6.8432274E0,3.505675E2,2.889878E2,4.034185E2,1.3249915E2,0E0,3.616319E2,1.9770073E2,4.7794775E2,1.1457628E0,3.5388446E0,3.97079E0,0E0,5.5274504E-1,5.326772E-1,0E0,0E0,1.5879588E0,8.9371E-1,0E0,0E0,2.8170088E-1,6.263828E-1,2.3822208E2,0E0,0E0,0E0,3.9917316E2,4.194468E2,4.8806793E1,1.5197485E2,1.5548994E2,1.1912457E2,0E0,0E0,7.140845E2,3.5341476E1,0E0,0E0,0E0,0E0,0E0,0E0,0E0,0E0,0E0,0E0,0E0,0E0,0E0,0E0,0E0,0E0,0E0,0E0,0E0,0E0,0E0,0E0,0E0,0E0,0E0,0E0,0E0,0E0,0E0,0E0,0E0,0E0,0E0,0E0,0E0,0E0],"parents":[2147483647,0,0,1,1,2,2,3,3,4,4,5,5,6,6,7,7,8,8,9,9,10,10,11,11,12,12,13,13,14,14,15,15,16,16,18,18,19,19,20,20,21,21,22,22,23,23,24,24,25,25,26,26,28,28,29,29,30,30,31,31,32,32,33,33,35,35,36,36,39,39,40,40,43,43,44,44,45,45,49,49,50,50,51,51,52,52,53,53,54,54,57,57,58,58],"right_children":[2,4,6,8,10,12,14,16,18,20,22,24,26,28,30,32,34,-1,36,38,40,42,44,46,48,50,52,-1,54,56,58,60,62,64,-1,66,68,-1,-1,70,72,-1,-1,74,76,78,-1,-1,-1,80,82,84,86,88,90,-1,-1,92,94,-1,-1,-1,-1,-1,-1,-1,-1,-1,-1,-1,-1,-1,-1,-1,-1,-1,-1,-1,-1,-1,-1,-1,-1,-1,-1,-1,-1,-1,-1,-1,-1,-1,-1,-1,-1],"split_conditions":[1.5E0,2.5E0,3.025E2,8.3E1,1.65E1,3E1,6.6E1,1.25E1,9.2E1,1.9E1,2.05E1,2.3E1,1.025E2,3.14E2,6.5E0,7.4E1,3.465E2,-8.622164E-1,2.8E2,3.765E2,6.05E1,2.08E2,2.65E1,2.06E2,5.9E1,2.8E1,5.7E1,5.705496E0,4.25E1,4.19E2,9.7E1,9.75E1,2.825E2,2.8E1,6.1819327E-1,2.545E2,3.755E2,9.039817E-2,3.864547E-1,4.2E1,1.25E1,1.4925654E0,2.302414E-1,2.6E1,5E1,2.5E0,3.195479E0,5.548205E-1,6.8785825E0,4.5E0,1.5E0,9.9E1,1.695E2,1.1E1,2.5E0,-1.8019376E0,2.057717E0,2.65E1,1.2E1,-1.5099885E-2,1.5464924E-1,-2.0644117E-2,-5.958868E-1,-4.3403797E-2,3.6416128E-1,-5.104969E-2,1.4253174E-1,-3.1818515E-1,-3.0283714E-2,-6.6069156E-2,1.6415446E-1,1.3096581E-2,-1.9945537E-1,-1.9095015E-2,1.107311E-1,1.4671713E-1,6.459717E-1,-2.0192215E0,7.047617E-1,6.57127E-1,-1.237269E0,3.7492964E0,-4.8999065E-1,-3.681431E-1,1.5915917E0,3.8470798E0,-1.0371781E-1,1.9257752E0,-3.7854025E-1,-2.660782E0,-5.012181E-1,4.894862E0,-1.3220115E-1,-3.0241442E-1,1.1238562E0],"split_indices":[7,8,2,4,5,3,3,6,4,4,5,3,4,2,5,4,2,0,2,2,3,2,5,2,2,5,2,0,4,2,4,3,2,5,0,2,2,0,0,3,5,0,0,3,4,9,0,0,0,6,9,3,2,5,7,0,0,5,5,0,0,0,0,0,0,0,0,0,0,0,0,0,0,0,0,0,0,0,0,0,0,0,0,0,0,0,0,0,0,0,0,0,0,0,0],"split_type":[0,0,0,0,0,0,0,0,0,0,0,0,0,0,0,0,0,0,0,0,0,0,0,0,0,0,0,0,0,0,0,0,0,0,0,0,0,0,0,0,0,0,0,0,0,0,0,0,0,0,0,0,0,0,0,0,0,0,0,0,0,0,0,0,0,0,0,0,0,0,0,0,0,0,0,0,0,0,0,0,0,0,0,0,0,0,0,0,0,0,0,0,0,0,0],"sum_hessian":[2.14E2,8.7E1,1.27E2,5.9E1,2.8E1,8E1,4.7E1,5E1,9E0,1.7E1,1.1E1,1.6E1,6.4E1,2.2E1,2.5E1,3.9E1,1.1E1,2E0,7E0,2E0,1.5E1,2E0,9E0,1.2E1,4E0,5.6E1,8E0,1E0,2.1E1,3E0,2.2E1,3.6E1,3E0,9E0,2E0,4E0,3E0,1E0,1E0,9E0,6E0,1E0,1E0,5E0,4E0,1E1,2E0,1E0,3E0,4.9E1,7E0,3E0,5E0,1E1,1.1E1,2E0,1E0,1.7E1,5E0,3.3E1,3E0,2E0,1E0,7E0,2E0,3E0,1E0,2E0,1E0,5E0,4E0,3E0,3E0,2E0,3E0,1E0,3E0,4E0,6E0,1.3E1,3.6E1,3E0,4E0,2E0,1E0,4E0,1E0,3E0,7E0,7E0,4E0,1.4E1,3E0,2E0,3E0],"tree_param":{"num_deleted":"0","num_feature":"13","num_nodes":"95","size_leaf_vector":"0"}},{"base_weights":[1.2524713E0,1.6635147E-1,1.989394E0,-9.1437526E-2,6.9397175E-1,1.0682513E0,3.9179587E0,7.545887E-2,-9.334654E-1,3.2034728E-1,2.0728076E0,2.181383E0,-2.172398E0,1.6823972E0,8.109227E0,-7.892062E-2,5.837689E-1,-2.2992437E0,-3.046154E-1,5.2354567E-2,1.6472223E0,7.957951E-1,4.2289352E0,1.1641802E-1,5.5632687E0,-3.8972185E0,1.5487924E0,3.803214E0,-3.2174618E0,2.9888403E0,1.1575912E1,1.0405945E-2,-8.8546115E-1,2.0596817E-1,1.6485151E0,5.6033246E-2,-6.7927235E-1,-1.564025E-1,3.480754E-1,4.1569853E-1,1.9191641E0,1.0358187E0,2.9050636E-1,1.3043762E0,-1.1495279E1,1.4311548E1,1.3660736E0,-1.7617816E0,-7.1626496E0,5.8301964E0,1.0427802E-1,1.5307276E0,1.6170395E1,-9.635904E0,1.5977434E0,1.6184108E-1,9.975418E0,1.4880341E1,1.1084188E0,3.1449863E-1,-7.10323E-2,-5.505093E-2,-1.6883459E0,-1.0670099E-1,9.710965E-1,-1.3187848E-1,4.0384007E-1,-8.484939E-1,-8.580387E-2,1.9667706E-1,-3.3517975E-1,5.039175E-1,-1.3158138E-1,-2.999758E0,4.428981E0,1.681273E1,-1.598362E0,-4.8512707E0,6.825076E0,-5.4086437E0,-8.562309E-1,-8.5499935E0,-1.1296654E-1,-1.2261276E0,2.2868614E0,-3.3452544E0,4.9377394E0,3.3828316E0,-1.3149554E0,1.7734985E0,-2.0409825E0,1.769666E1,6.165136E0,-6.276283E-1,2.2902565E0],"categories":[],"categories_nodes":[],"categories_segments":[],"categories_sizes":[],"default_left":[1,1,1,1,1,1,1,1,1,1,1,1,1,1,1,1,1,0,1,1,1,1,0,1,1,1,1,1,1,1,1,1,1,1,0,1,1,1,1,0,0,0,0,1,0,1,1,1,1,0,1,1,0,0,1,1,0,1,1,0,0,0,0,0,0,0,0,0,0,0,0,0,0,0,0,0,0,0,0,0,0,0,0,0,0,0,0,0,0,0,0,0,0,0,0],"id":13,"left_children":[1,3,5,7,9,11,13,15,17,19,21,23,25,27,29,31,33,-1,35,37,39,41,-1,43,45,47,49,51,53,55,57,59,61,63,-1,65,67,69,71,-1,-1,-1,-1,73,-1,75,77,79,81,-1,83,85,-1,-1,87,89,-1,91,93,-1,-1,-1,-1,-1,-1,-1,-1,-1,-1,-1,-1,-1,-1,-1,-1,-1,-1,-1,-1,-1,-1,-1,-1,-1,-1,-1,-1,-1,-1,-1,-1,-1,-1,-1,-1],"loss_changes":[1.717521E2,1.2032748E1,2.232045E2,8.502323E0,1.427582E1,3.2217853E2,3.7052032E2,4.048176E0,7.8883104E0,8.4479885E0,1.3155048E1,4.6026166E2,1.5365881E2,3.032044E2,2.1391223E2,2.8910336E0,4.4876013E0,0E0,1.1190181E0,1.3508497E0,5.4181767E-1,3.054943E-1,0E0,5.943511E2,8.984053E2,9.895094E1,4.886843E1,5.373325E2,2.9355078E2,1.3664291E2,2.60219E2,9.386362E-1,2.57395E0,2.4959373E0,0E0,3.8004273E-1,3.289063E-1,8.865159E-1,7.390628E-1,0E0,0E0,0E0,0E0,5.377859E2,0E0,3.452213E2,6.440392E2,3.1695553E1,5.7716095E1,0E0,2.3130033E1,3.1554352E2,0E0,0E0,3.5644817E1,2.4920862E1,0E0,3.8166504E1,7.5926085E0,0E0,0E0,0E0,0E0,0E0,0E0,0E0,0E0,0E0,0E0,0E0,0E0,0E0,0E0,0E0,0E0,0E0,0E0,0E0,0E0,0E0,0E0,0E0,0E0,0E0,0E0,0E0,0E0,0E0,0E0,0E0,0E0,0E0,0E0,0E0,0E0],"parents":[2147483647,0,0,1,1,2,2,3,3,4,4,5,5,6,6,7,7,8,8,9,9,10,10,11,11,12,12,13,13,14,14,15,15,16,16,18,18,19,19,20,20,21,21,23,23,24,24,25,25,26,26,27,27,28,28,29,29,30,30,31,31,32,32,33,33,35,35,36,36,37,37,38,38,43,43,45,45,46,46,47,47,48,48,50,50,51,51,54,54,55,55,57,57,58,58],"right_children":[2,4,6,8,10,12,14,16,18,20,22,24,26,28,30,32,34,-1,36,38,40,42,-1,44,46,48,50,52,54,56,58,60,62,64,-1,66,68,70,72,-1,-1,-1,-1,74,-1,76,78,80,82,-1,84,86,-1,-1,88,90,-1,92,94,-1,-1,-1,-1,-1,-1,-1,-1,-1,-1,-1,-1,-1,-1,-1,-1,-1,-1,-1,-1,-1,-1,-1,-1,-1,-1,-1,-1,-1,-1,-1,-1,-1,-1,-1,-1],"split_conditions":[1.5E0,2.5E0,9.5E0,8.3E1,1.05E1,8.5E0,1.5E0,1.25E1,9.2E1,2.65E1,1.5E0,2.585E2,3.56E2,1.85E1,1.65E1,7.4E1,3.465E2,-6.8977314E-1,2.8E2,1.45E1,2.375E2,5.65E1,1.2686806E0,2.28E2,3.145E2,2.465E2,8E0,1.6E1,2.25E1,3.435E2,4.03E2,8.5E0,2.825E2,2.8E1,4.9455455E-1,2.545E2,3.755E2,1.05E1,2.5E0,1.2470956E-1,5.757492E-1,3.1074563E-1,8.7151915E-2,1.45E1,-3.4485838E0,2.5E0,4.5E0,8.5E0,9.6E1,1.749059E0,8E1,1.785E2,4.8511186E0,-2.8907714E0,8.45E1,1E1,2.9926255E0,8.95E1,4.59E2,9.434959E-2,-2.130969E-2,-1.651528E-2,-5.065038E-1,-3.20103E-2,2.9132897E-1,-3.9563544E-2,1.2115202E-1,-2.5454816E-1,-2.5741162E-2,5.900312E-2,-1.0055393E-1,1.5117526E-1,-3.9474417E-2,-8.9992744E-1,1.3286943E0,5.0438194E0,-4.795086E-1,-1.4553813E0,2.047523E0,-1.6225932E0,-2.568693E-1,-2.5649981E0,-3.3889964E-2,-3.678383E-1,6.8605846E-1,-1.0035764E0,1.4813218E0,1.0148495E0,-3.9448664E-1,5.320496E-1,-6.122948E-1,5.308998E0,1.8495408E0,-1.8828851E-1,6.87077E-1],"split_indices":[7,8,6,4,6,6,12,6,4,5,10,2,2,5,5,4,2,0,2,5,2,3,0,2,2,2,5,5,5,2,2,5,2,5,0,2,2,5,9,0,0,0,0,5,0,9,6,5,4,0,3,2,0,0,4,5,0,3,2,0,0,0,0,0,0,0,0,0,0,0,0,0,0,0,0,0,0,0,0,0,0,0,0,0,0,0,0,0,0,0,0,0,0,0,0],"split_type":[0,0,0,0,0,0,0,0,0,0,0,0,0,0,0,0,0,0,0,0,0,0,0,0,0,0,0,0,0,0,0,0,0,0,0,0,0,0,0,0,0,0,0,0,0,0,0,0,0,0,0,0,0,0,0,0,0,0,0,0,0,0,0,0,0,0,0,0,0,0,0,0,0,0,0,0,0,0,0,0,0,0,0,0,0,0,0,0,0,0,0,0,0,0,0],"sum_hessian":[2.14E2,8.7E1,1.27E2,5.9E1,2.8E1,8.7E1,4E1,5E1,9E0,2.3E1,5E0,6.5E1,2.2E1,2.7E1,1.3E1,3.9E1,1.1E1,2E0,7E0,2E1,3E0,4E0,1E0,4.1E1,2.4E1,1.5E1,7E0,1.9E1,8E0,6E0,7E0,3.6E1,3E0,9E0,2E0,4E0,3E0,1.2E1,8E0,1E0,2E0,2E0,2E0,3.8E1,3E0,7E0,1.7E1,1E1,5E0,1E0,6E0,1.7E1,2E0,3E0,5E0,5E0,1E0,5E0,2E0,7E0,2.9E1,2E0,1E0,7E0,2E0,3E0,1E0,2E0,1E0,4E0,8E0,6E0,2E0,1.6E1,2.2E1,6E0,1E0,8E0,9E0,1E0,9E0,4E0,1E0,4E0,2E0,7E0,1E1,3E0,2E0,3E0,2E0,3E0,2E0,1E0,1E0],"tree_param":{"num_deleted":"0","num_feature":"13","num_nodes":"95","size_leaf_vector":"0"}},{"base_weights":[9.474574E-1,2.3216405E0,5.059636E-1,9.1543615E-1,5.4283857E0,-2.5294058E0,8.741996E-1,-4.1187617E-1,5.090616E0,1.8490778E0,1.1085719E1,-6.275273E0,1.0948151E0,2.939279E-1,2.5309281E0,4.1693345E-1,-3.0762684E0,-1.1830398E0,1.0346149E1,-6.906929E-1,4.080669E0,1.7289316E1,3.6615906E0,-1.9353325E0,-2.0497398E1,3.6548767E0,-2.0598173E-3,2.6643233E0,-1.9880514E-1,9.127178E0,7.4702734E-1,-4.0929728E0,8.079734E-1,-5.472821E0,8.9351654E-2,7.97874E-1,-2.7696068E0,1.2912107E1,4.1157722E-2,2.433238E-1,-1.7058176E0,4.5164597E-1,7.559143E0,-3.9157104E-1,5.143168E0,-2.056675E-1,-4.749552E0,2.0219555E0,-5.8005565E-1,4.180121E0,-2.4159348E0,-1.2416285E0,3.175707E0,1.5495542E1,-6.6519423E0,-1.7945355E0,3.241901E0,1.6421491E0,-1.6901869E0,-6.1701827E0,-1.6903687E0,5.625725E-1,-6.651554E-1,1.3393269E0,-1.4251588E-1,3.5030556E-1,-3.881073E-2,-1.12961076E-1,6.77502E-1,2.3479158E-2,-3.261106E-1,-1.7375755E0,-9.7539745E-2,6.9076123E0,-1.0623846E0,-3.6212864E0,1.2027359E0,-2.028603E0,1.8316497E0,-1.1649543E0,4.520899E0,1.7570688E1,2.559906E0,-7.883977E0,-2.0939364E0,-4.0371356E0,3.982797E-1,4.966401E0,-4.5999992E-1],"categories":[],"categories_nodes":[],"categories_segments":[],"categories_sizes":[],"default_left":[1,1,1,1,1,1,1,1,1,1,1,1,1,1,1,1,1,1,1,1,1,0,1,1,0,0,1,1,1,1,1,0,1,1,1,1,0,0,0,1,0,1,0,0,0,1,0,0,1,1,1,1,1,1,1,1,1,0,0,0,0,0,0,0,0,0,0,0,0,0,0,0,0,0,0,0,0,0,0,0,0,0,0,0,0,0,0,0,0],"id":14,"left_children":[1,3,5,7,9,11,13,15,17,19,21,23,25,27,29,31,33,35,37,39,41,-1,43,45,-1,-1,47,49,51,53,55,-1,57,59,61,63,-1,-1,-1,65,-1,67,-1,-1,-1,69,-1,-1,71,73,75,77,79,81,83,85,87,-1,-1,-1,-1,-1,-1,-1,-1,-1,-1,-1,-1,-1,-1,-1,-1,-1,-1,-1,-1,-1,-1,-1,-1,-1,-1,-1,-1,-1,-1,-1,-1],"loss_changes":[1.2926439E2,2.2220401E2,1.8551929E2,2.071421E2,3.0349103E2,2.5123558E2,1.4057494E2,6.532254E1,3.0898254E2,6.516353E1,2.1303143E2,5.1583936E2,2.8088203E1,1.290066E2,4.403299E2,4.3868744E1,5.359504E1,1.792406E1,1.316795E2,6.1039267E0,7.232671E1,0E0,2.603421E1,3.7964424E1,0E0,0E0,1.0531826E1,1.5641116E2,3.2769293E2,9.0697284E2,2.0238493E2,0E0,4.862144E1,1.2106323E-1,1.8023919E0,1.7184057E0,0E0,0E0,0E0,1.3432862E-1,0E0,5.866111E-1,0E0,0E0,0E0,1.7325163E-1,0E0,0E0,3.7401695E0,2.2182184E2,2.6164303E1,1.7543567E2,1.3372511E2,1.1608057E2,3.3831787E-1,8.028963E1,1.044274E2,0E0,0E0,0E0,0E0,0E0,0E0,0E0,0E0,0E0,0E0,0E0,0E0,0E0,0E0,0E0,0E0,0E0,0E0,0E0,0E0,0E0,0E0,0E0,0E0,0E0,0E0,0E0,0E0,0E0,0E0,0E0,0E0],"parents":[2147483647,0,0,1,1,2,2,3,3,4,4,5,5,6,6,7,7,8,8,9,9,10,10,11,11,12,12,13,13,14,14,15,15,16,16,17,17,18,18,19,19,20,20,22,22,23,23,26,26,27,27,28,28,29,29,30,30,32,32,33,33,34,34,35,35,39,39,41,41,45,45,48,48,49,49,50,50,51,51,52,52,53,53,54,54,55,55,56,56],"right_children":[2,4,6,8,10,12,14,16,18,20,22,24,26,28,30,32,34,36,38,40,42,-1,44,46,-1,-1,48,50,52,54,56,-1,58,60,62,64,-1,-1,-1,66,-1,68,-1,-1,-1,70,-1,-1,72,74,76,78,80,82,84,86,88,-1,-1,-1,-1,-1,-1,-1,-1,-1,-1,-1,-1,-1,-1,-1,-1,-1,-1,-1,-1,-1,-1,-1,-1,-1,-1,-1,-1,-1,-1,-1,-1],"split_conditions":[1.05E1,2.5E0,1.25E1,8.5E0,2.5E0,5.5E0,8.35E1,3.395E2,1.5E0,6.3E1,7E0,7.6E1,3.85E1,3.5E0,9.25E1,1.5E0,4.605E2,2.8E1,4.155E2,3.15E1,3.39E2,5.186795E0,2.225E2,8.3E1,-6.14922E0,1.0964631E0,4.05E1,1.5E0,1.5E0,1.5E0,1.025E2,-1.2278919E0,7.5E0,4.19E2,4.855E2,1.72E2,-8.308821E-1,3.8736324E0,1.2347317E-2,4.375E2,-5.117453E-1,1.46E2,2.267743E0,-1.17471315E-1,1.5429505E0,3.405E2,-1.4248656E0,6.065867E-1,4.95E1,3.15E2,9.8E1,1.5E0,1.65E1,1.035E2,3.61E2,1.515E2,2.55E1,4.9264476E-1,-5.0705606E-1,-1.8510549E0,-5.071106E-1,1.6877174E-1,-1.9954664E-1,4.0179807E-1,-4.2754766E-2,1.0509167E-1,-1.164322E-2,-3.3888325E-2,2.032506E-1,7.0437477E-3,-9.783319E-2,-5.2127266E-1,-2.9261924E-2,2.0722837E0,-3.187154E-1,-1.086386E0,3.6082077E-1,-6.0858095E-1,5.494949E-1,-3.494863E-1,1.3562697E0,5.271207E0,7.679718E-1,-2.3651931E0,-6.28181E-1,-1.2111408E0,1.1948391E-1,1.4899204E0,-1.3799998E-1],"split_indices":[5,8,5,5,7,6,4,2,8,3,6,3,4,6,4,6,2,4,2,4,2,0,2,4,0,0,2,12,12,11,4,0,5,2,2,2,0,0,0,2,0,2,0,0,0,2,0,0,4,2,3,10,5,3,2,2,5,0,0,0,0,0,0,0,0,0,0,0,0,0,0,0,0,0,0,0,0,0,0,0,0,0,0,0,0,0,0,0,0],"split_type":[0,0,0,0,0,0,0,0,0,0,0,0,0,0,0,0,0,0,0,0,0,0,0,0,0,0,0,0,0,0,0,0,0,0,0,0,0,0,0,0,0,0,0,0,0,0,0,0,0,0,0,0,0,0,0,0,0,0,0,0,0,0,0,0,0,0,0,0,0,0,0,0,0,0,0,0,0,0,0,0,0,0,0,0,0,0,0,0,0],"sum_hessian":[2.14E2,5.1E1,1.63E2,3.6E1,1.5E1,1.7E1,1.46E2,2.8E1,8E0,1E1,5E0,8E0,9E0,1.09E2,3.7E1,2.2E1,6E0,4E0,4E0,5E0,5E0,2E0,3E0,7E0,1E0,2E0,7E0,1.8E1,9.1E1,7E0,3E1,1E0,2.1E1,3E0,3E0,2E0,2E0,3E0,1E0,3E0,2E0,3E0,2E0,1E0,2E0,5E0,2E0,1E0,6E0,1.4E1,4E0,7E1,2.1E1,5E0,2E0,1.5E1,1.5E1,1.6E1,5E0,2E0,1E0,2E0,1E0,1E0,1E0,2E0,1E0,1E0,2E0,2E0,3E0,1E0,5E0,9E0,5E0,3E0,1E0,5.6E1,1.4E1,5E0,1.6E1,4E0,1E0,1E0,1E0,7E0,8E0,1E1,5E0],"tree_param":{"num_deleted":"0","num_feature":"13","num_nodes":"89","size_leaf_vector":"0"}},{"base_weights":[6.9663155E-1,1.7869554E0,3.466714E-1,6.349376E-1,4.3393116E0,-2.132382E0,6.4787066E-1,-4.135289E-1,3.942781E0,1.4778819E0,8.862048E0,-5.2443433E0,8.816215E-1,2.2371098E-1,1.858652E0,-7.201401E-1,4.0857925E0,1.0570704E1,5.38988E-1,-5.5320185E-1,3.262652E0,1.3831451E1,2.9194832E0,-1.5441897E0,-1.7422787E1,1.8176649E0,-9.768598E-1,2.7487168E0,-5.6276757E-2,3.7071054E0,-1.5749184E0,-1.6262362E0,1.3734224E0,-1.7223344E0,2.6655633E0,1.9368863E-1,-1.3646551E0,3.5849357E-1,6.0473123E0,4.5780435E-1,5.15226E0,-4.3672124E-1,-4.6482344E0,2.4788213E0,1.098493E-1,-1.4769402E0,-3.1785297E-1,-3.3654022E-1,4.559798E0,9.2170537E-1,-1.0929868E0,1.335372E1,1.2337636E0,-4.5163927E0,2.0117548E0,7.608341E-1,-2.270556E0,4.181155E0,-7.273033E-1,-1.211385E-1,-2.2156868E0,3.5307617E0,3.498411E-2,2.802442E-1,-3.2989025E-2,-9.946525E-3,7.319069E-1,-3.3283234E-1,1.0195389E0,-9.6696347E-1,-3.1231662E-2,9.254193E-2,3.0522556E0,-1.037693E-1,2.6854324E-1,-1.3144696E0,2.3655951E-1,1.2607521E1,1.1172572E0,-1.4174095E0,2.0983443E0,-6.5205426E0,-1.8401295E-1,3.3234527E0,1.7632435E-1,-3.1769148E-1,-6.972075E0,2.9876894E-1,3.2218018E0],"categories":[],"categories_nodes":[],"categories_segments":[],"categories_sizes":[],"default_left":[1,1,1,1,1,1,1,1,1,1,1,1,1,1,1,1,0,0,1,1,1,0,1,1,0,1,1,1,1,1,1,1,1,1,1,1,0,1,0,1,0,1,0,1,1,0,0,1,1,1,1,0,1,1,1,0,0,0,0,0,0,0,0,0,0,0,0,0,0,0,0,0,0,0,0,0,0,0,0,0,0,0,0,0,0,0,0,0,0],"id":15,"left_children":[1,3,5,7,9,11,13,15,17,19,21,23,25,27,29,31,-1,-1,33,35,37,-1,39,41,-1,43,45,47,49,51,53,55,57,59,61,63,-1,65,-1,67,-1,69,-1,71,73,-1,-1,75,77,79,81,-1,83,85,87,-1,-1,-1,-1,-1,-1,-1,-1,-1,-1,-1,-1,-1,-1,-1,-1,-1,-1,-1,-1,-1,-1,-1,-1,-1,-1,-1,-1,-1,-1,-1,-1,-1,-1],"loss_changes":[8.1418045E1,1.5014351E2,1.2383851E2,1.2995248E2,1.939668E2,1.7345386E2,7.50782E1,4.294907E1,1.9734323E2,4.16801E1,1.3680536E2,3.786549E2,1.9171795E1,7.792146E1,2.4701657E2,5.5348633E1,0E0,0E0,3.8253098E1,3.9007187E0,4.6354645E1,0E0,1.962679E1,2.5471071E1,0E0,7.6316376E0,8.487754E-1,6.2998726E1,1.0239581E2,5.800091E2,1.5678735E2,3.2488243E1,5.6125458E1,2.8914099E0,8.980371E0,8.772583E-2,0E0,5.576017E-1,0E0,1.6717194E0,0E0,1.4748539E0,0E0,6.55941E0,1.2956649E-1,0E0,0E0,3.1132057E0,1.7984645E2,1.4609348E2,2.4054198E2,0E0,4.58181E1,8.027045E1,1.3546982E1,0E0,0E0,0E0,0E0,0E0,0E0,0E0,0E0,0E0,0E0,0E0,0E0,0E0,0E0,0E0,0E0,0E0,0E0,0E0,0E0,0E0,0E0,0E0,0E0,0E0,0E0,0E0,0E0,0E0,0E0,0E0,0E0,0E0,0E0],"parents":[2147483647,0,0,1,1,2,2,3,3,4,4,5,5,6,6,7,7,8,8,9,9,10,10,11,11,12,12,13,13,14,14,15,15,18,18,19,19,20,20,22,22,23,23,25,25,26,26,27,27,28,28,29,29,30,30,31,31,32,32,33,33,34,34,35,35,37,37,39,39,41,41,43,43,44,44,47,47,48,48,49,49,50,50,52,52,53,53,54,54],"right_children":[2,4,6,8,10,12,14,16,18,20,22,24,26,28,30,32,-1,-1,34,36,38,-1,40,42,-1,44,46,48,50,52,54,56,58,60,62,64,-1,66,-1,68,-1,70,-1,72,74,-1,-1,76,78,80,82,-1,84,86,88,-1,-1,-1,-1,-1,-1,-1,-1,-1,-1,-1,-1,-1,-1,-1,-1,-1,-1,-1,-1,-1,-1,-1,-1,-1,-1,-1,-1,-1,-1,-1,-1,-1,-1],"split_conditions":[1.05E1,2.5E0,1.25E1,8.5E0,2.5E0,5.5E0,8.35E1,1.025E2,6.8E1,6.3E1,7E0,7.6E1,2.69E2,1.35E1,1.5E0,1.15E1,1.2257378E0,3.1712115E0,9.6E1,3.15E1,3.39E2,4.1494355E0,3.575E2,9.35E1,-5.226836E0,6.9E1,3.665E2,2.45E1,2.295E2,9.15E1,1.005E2,2.15E1,4.9E1,2.8E1,3.94E2,4.375E2,-4.0939656E-1,1.04E2,1.8141937E0,2.225E2,1.545678E0,1.85E1,-1.3944703E0,1.5E0,4.85E1,-4.4308206E-1,-9.53559E-2,4E0,3.85E1,7.7E1,2.935E2,4.006116E0,9E1,1.5E0,1.035E2,2.2825024E-1,-6.811668E-1,1.2543466E0,-2.1819101E-1,-3.634155E-2,-6.6470605E-1,1.0592285E0,1.0495234E-2,8.407326E-2,-9.896708E-3,-2.9839578E-3,2.1957208E-1,-9.984971E-2,3.0586168E-1,-2.9008904E-1,-9.369499E-3,2.776258E-2,9.156767E-1,-3.1130793E-2,8.056298E-2,-3.943409E-1,7.096785E-2,3.7822564E0,3.3517718E-1,-4.2522287E-1,6.295033E-1,-1.9561628E0,-5.520389E-2,9.9703586E-1,5.2897308E-2,-9.530745E-2,-2.0916226E0,8.9630686E-2,9.665406E-1],"split_indices":[5,8,5,5,7,6,4,4,3,3,6,3,2,5,11,6,0,0,3,4,2,0,2,4,0,4,2,3,2,4,4,3,4,4,2,2,0,3,0,2,0,3,0,7,2,0,0,6,3,2,2,0,2,7,4,0,0,0,0,0,0,0,0,0,0,0,0,0,0,0,0,0,0,0,0,0,0,0,0,0,0,0,0,0,0,0,0,0,0],"split_type":[0,0,0,0,0,0,0,0,0,0,0,0,0,0,0,0,0,0,0,0,0,0,0,0,0,0,0,0,0,0,0,0,0,0,0,0,0,0,0,0,0,0,0,0,0,0,0,0,0,0,0,0,0,0,0,0,0,0,0,0,0,0,0,0,0,0,0,0,0,0,0,0,0,0,0,0,0,0,0,0,0,0,0,0,0,0,0,0,0],"sum_hessian":[2.14E2,5.1E1,1.63E2,3.6E1,1.5E1,1.7E1,1.46E2,2.8E1,8E0,1E1,5E0,8E0,9E0,1.09E2,3.7E1,2.7E1,1E0,2E0,6E0,5E0,5E0,2E0,3E0,7E0,1E0,6E0,3E0,1E1,9.9E1,2.4E1,1.3E1,1.9E1,8E0,3E0,3E0,3E0,2E0,3E0,2E0,2E0,1E0,6E0,1E0,4E0,2E0,1E0,2E0,4E0,6E0,5.1E1,4.8E1,4E0,2E1,7E0,6E0,4E0,1.5E1,3E0,5E0,1E0,2E0,2E0,1E0,2E0,1E0,2E0,1E0,1E0,1E0,2E0,4E0,1E0,3E0,1E0,1E0,1E0,3E0,1E0,5E0,1.7E1,3.4E1,6E0,4.2E1,6E0,1.4E1,3E0,4E0,3E0,3E0],"tree_param":{"num_deleted":"0","num_feature":"13","num_nodes":"89","size_leaf_vector":"0"}},{"base_weights":[5.45277E-1,1.1933808E-1,1.3070982E0,1.4154285E0,-2.3522604E-1,1.6339731E-1,2.307338E0,-1.0233257E0,2.8811982E0,-3.1291902E0,1.5106745E-1,-1.1743359E-1,1.1960886E0,9.043721E-1,4.94846E0,6.655046E-1,-4.5673623E0,1.5827274E-1,5.316004E0,-9.2172813E-1,-1.4809368E1,1.8262501E0,-6.148403E-1,-4.320176E-1,3.271776E-1,5.083599E-1,3.0050945E0,2.1656144E0,-1.9988742E0,1.204034E0,7.6062756E0,-1.1953819E-1,3.4729233E0,1.5299718E0,-2.2817688E0,7.8061576E0,-3.7076604E-1,-8.806443E-2,-2.5670395E0,5.944979E-1,9.991953E0,-1.5467516E0,1.8699179E0,-1.4564833E-1,-9.8048145E-1,6.895173E-1,-6.604661E-1,9.816601E-1,-9.203029E-2,9.0375686E-1,9.014888E0,9.1746247E-1,-8.137368E0,-2.4752045E-1,4.9566803E0,1.0104312E1,7.477824E-2,-9.9584454E-1,3.3853802E-1,-7.654228E-2,3.6975048E0,2.1595135E0,-4.482034E0,2.2636197E0,1.1397156E1,1.1305809E-3,-7.4322796E-1,1.2608242E0,-4.1427854E-1,-3.2381217E0,-2.7689648E-1,-1.5185691E0,2.5270605E0,4.0513124E0,-2.2587879E0,7.4294357E0,3.6316848E-1,2.0138226E-1,-7.4117374E-1,1.7897308E-1,1.0000513E0,2.3855591E-1,-1.0396587E0,2.042489E-1,1.1727142E0,-1.7776649E-1,8.258915E-2,3.8924265E0,-1.8764213E0,-1.5189514E0,2.1958184E0,-2.532425E0,7.159454E-1,1.2396767E1,3.679601E0,-1.1840172E0,1.2961845E0],"categories":[],"categories_nodes":[],"categories_segments":[],"categories_sizes":[],"default_left":[1,1,1,1,1,1,1,1,1,1,1,1,1,1,1,1,0,1,1,1,0,1,1,1,1,1,0,1,1,1,1,1,0,1,1,1,1,1,1,1,0,1,1,1,0,1,1,1,1,1,0,1,0,1,0,1,1,0,0,0,0,0,0,0,0,0,0,0,0,0,0,0,0,0,0,0,0,0,0,0,0,0,0,0,0,0,0,0,0,0,0,0,0,0,0,0,0],"id":16,"left_children":[1,3,5,7,9,11,13,15,17,19,21,23,25,27,29,31,-1,33,35,37,-1,39,41,43,45,47,-1,49,51,53,55,57,-1,59,61,63,65,67,69,71,-1,73,75,77,-1,79,81,83,85,87,-1,89,-1,91,-1,93,95,-1,-1,-1,-1,-1,-1,-1,-1,-1,-1,-1,-1,-1,-1,-1,-1,-1,-1,-1,-1,-1,-1,-1,-1,-1,-1,-1,-1,-1,-1,-1,-1,-1,-1,-1,-1,-1,-1,-1,-1],"loss_changes":[6.960922E1,6.421001E1,8.770909E1,1.1018795E2,1.2344386E2,1.0870891E1,1.4744629E2,7.4862915E1,1.2512468E2,3.2153595E2,1.2686032E2,4.3373733E0,8.425171E0,1.068563E2,1.3016971E2,2.025064E1,0E0,3.6961067E1,1.445036E2,1.623357E1,0E0,3.0586157E2,1.6035135E2,2.684332E0,5.1076155E0,2.0794961E0,0E0,1.6470886E2,1.68583E2,3.9357075E1,1.4975607E2,3.5484517E0,0E0,2.4658218E1,4.8767014E1,1.13523865E2,5.549095E-1,4.482571E0,5.2508736E0,1.18179276E2,0E0,2.084523E2,1.5646106E2,2.8359113E0,0E0,1.4064312E0,1.611627E0,3.5458446E-1,7.456641E-2,1.5686644E2,0E0,2.5137568E1,0E0,1.5021643E1,0E0,4.2755005E1,6.1472073E0,0E0,0E0,0E0,0E0,0E0,0E0,0E0,0E0,0E0,0E0,0E0,0E0,0E0,0E0,0E0,0E0,0E0,0E0,0E0,0E0,0E0,0E0,0E0,0E0,0E0,0E0,0E0,0E0,0E0,0E0,0E0,0E0,0E0,0E0,0E0,0E0,0E0,0E0,0E0,0E0],"parents":[2147483647,0,0,1,1,2,2,3,3,4,4,5,5,6,6,7,7,8,8,9,9,10,10,11,11,12,12,13,13,14,14,15,15,17,17,18,18,19,19,21,21,22,22,23,23,24,24,25,25,27,27,28,28,29,29,30,30,31,31,33,33,34,34,35,35,36,36,37,37,38,38,39,39,41,41,42,42,43,43,45,45,46,46,47,47,48,48,49,49,51,51,53,53,55,55,56,56],"right_children":[2,4,6,8,10,12,14,16,18,20,22,24,26,28,30,32,-1,34,36,38,-1,40,42,44,46,48,-1,50,52,54,56,58,-1,60,62,64,66,68,70,72,-1,74,76,78,-1,80,82,84,86,88,-1,90,-1,92,-1,94,96,-1,-1,-1,-1,-1,-1,-1,-1,-1,-1,-1,-1,-1,-1,-1,-1,-1,-1,-1,-1,-1,-1,-1,-1,-1,-1,-1,-1,-1,-1,-1,-1,-1,-1,-1,-1,-1,-1,-1,-1],"split_conditions":[9.5E0,1.05E1,1.5E0,1.995E2,1.25E1,2.5E0,1.5E0,1.595E2,7.5E0,8.1E1,1.545E2,2.545E2,1.5E0,1.85E1,1.65E1,1.06E2,-1.3702087E0,7.7E1,4.065E2,8.3E1,-4.4428105E0,1.425E2,8.85E1,1.5E0,7.35E1,5.25E1,9.015284E-1,1.6E1,1.5E0,3.435E2,4.03E2,4.25E1,1.041877E0,5.65E1,3.1E2,5.6E1,4.915E2,4.05E1,2.99E2,5.5E0,2.997586E0,1.35E1,9.45E1,1.5E0,-2.9414445E-1,1.5E0,7.7E1,1.15E1,5.7E1,4.9E1,2.7044663E0,1.5E0,-2.4412105E0,1.47E2,1.4870042E0,8.95E1,4.59E2,-2.9875338E-1,1.0156141E-1,-2.2962686E-2,1.1092515E0,6.478541E-1,-1.3446103E0,6.790859E-1,3.4191468E0,3.391743E-4,-2.229684E-1,3.782473E-1,-1.2428357E-1,-9.7143656E-1,-8.3068945E-2,-4.5557076E-1,7.581182E-1,1.2153938E0,-6.776364E-1,2.2288308E0,1.0895055E-1,6.0414683E-2,-2.2235213E-1,5.3691927E-2,3.000154E-1,7.1566775E-2,-3.118976E-1,6.1274674E-2,3.5181427E-1,-5.332995E-2,2.4776746E-2,1.167728E0,-5.629264E-1,-4.5568544E-1,6.587455E-1,-7.5972754E-1,2.1478364E-1,3.7190301E0,1.1038803E0,-3.5520518E-1,3.8885537E-1],"split_indices":[6,5,7,2,5,8,12,2,5,3,2,2,10,5,5,4,0,3,2,4,0,2,4,10,4,4,0,5,11,2,2,3,0,4,2,3,2,2,2,6,0,5,4,12,0,9,3,5,3,4,0,9,0,2,0,3,2,0,0,0,0,0,0,0,0,0,0,0,0,0,0,0,0,0,0,0,0,0,0,0,0,0,0,0,0,0,0,0,0,0,0,0,0,0,0,0,0],"split_type":[0,0,0,0,0,0,0,0,0,0,0,0,0,0,0,0,0,0,0,0,0,0,0,0,0,0,0,0,0,0,0,0,0,0,0,0,0,0,0,0,0,0,0,0,0,0,0,0,0,0,0,0,0,0,0,0,0,0,0,0,0,0,0,0,0,0,0,0,0,0,0,0,0,0,0,0,0,0,0,0,0,0,0,0,0,0,0,0,0,0,0,0,0,0,0,0,0],"sum_hessian":[2.14E2,1.38E2,7.6E1,2.9E1,1.09E2,3.6E1,4E1,1.1E1,1.8E1,1.2E1,9.7E1,2.9E1,7E0,2.7E1,1.3E1,8E0,3E0,9E0,9E0,1.1E1,1E0,3E1,6.7E1,1.7E1,1.2E1,6E0,1E0,1.9E1,8E0,6E0,7E0,7E0,1E0,6E0,3E0,6E0,3E0,8E0,3E0,2.7E1,3E0,4.9E1,1.8E1,1.2E1,5E0,9E0,3E0,3E0,3E0,1.7E1,2E0,6E0,2E0,5E0,1E0,5E0,2E0,2E0,5E0,4E0,2E0,1E0,2E0,3E0,3E0,2E0,1E0,1E0,7E0,2E0,1E0,1.3E1,1.4E1,5E0,4.4E1,3E0,1.5E1,8E0,4E0,4E0,5E0,1E0,2E0,1E0,2E0,2E0,1E0,8E0,9E0,2E0,4E0,1E0,4E0,3E0,2E0,1E0,1E0],"tree_param":{"num_deleted":"0","num_feature":"13","num_nodes":"97","size_leaf_vector":"0"}},{"base_weights":[4.3976414E-1,1.2584516E0,1.7749885E-1,4.2720821E-1,3.1020486E0,-9.936323E-1,5.385831E-1,-1.567739E-1,2.2614608E0,9.056713E-1,6.6117325E0,1.7876344E0,-2.2959595E0,1.7569238E0,-4.851637E-2,5.511607E-1,-1.5569657E0,6.821177E0,-1.5769187E-2,-5.255726E-1,2.18597E0,-1.3352966E-1,7.9874907E0,2.7924037E-1,6.722534E0,-1.3426526E0,-5.408758E0,-2.531277E-1,3.8801343E0,-7.4011636E-1,1.4901694E0,-7.033992E-1,1.8760605E0,1.7695904E-2,-2.6096895E0,-1.2806588E0,1.2530627E0,-3.1048536E-2,-1.0097471E0,2.1981192E-1,4.0788574E0,7.592163E-1,9.604755E0,-7.689831E-1,1.2809238E0,1.0108696E1,-2.4894714E-2,-1.5278119E-1,-2.1546574E0,-1.2116475E1,9.742193E-1,-1.4166296E0,2.4424663E0,7.890657E0,1.5977206E0,-1.4590442E0,1.9713188E0,-1.7528969E-1,4.338979E0,-1.634563E0,7.4090993E-1,3.7593706E0,-7.591238E-1,-1.2807999E0,6.625198E-1,-3.0114923E0,-3.003378E-1,-1.3317506E-1,-1.6187617E0,1.6510391E0,2.9566765E-2,-1.5713914E-1,1.7361164E-1,-5.006981E-2,5.1472855E-1,-1.2940742E0,1.8746598E-1,-2.6959574E-1,1.6449468E0,1.1019481E0,-6.0420704E-1,-3.6611242E0,-7.55475E-1,1.1342659E0,2.470398E-1,-2.4989948E0,3.319824E-1,-1.2953822E-1,3.4971757E0,1.01770935E1,1.44971E0,-7.8245044E-1,7.743761E0,3.047091E-1,-2.625114E0,1.0060419E0,6.777321E0,-2.3564498E0,1.1116613E0,6.263226E0,-1.13198906E-1],"categories":[],"categories_nodes":[],"categories_segments":[],"categories_sizes":[],"default_left":[1,1,1,1,1,1,1,1,1,1,1,1,1,1,1,1,1,0,1,1,1,0,1,1,1,1,1,1,1,1,1,1,1,1,1,1,1,1,0,1,0,0,0,1,1,0,0,1,1,0,1,1,1,1,1,1,1,1,1,0,0,0,0,0,0,0,0,0,0,0,0,0,0,0,0,0,0,0,0,0,0,0,0,0,0,0,0,0,0,0,0,0,0,0,0,0,0,0,0,0,0],"id":17,"left_children":[1,3,5,7,9,11,13,15,17,19,21,23,25,27,29,31,33,-1,35,37,39,-1,41,43,45,47,49,51,53,55,57,59,61,63,65,67,69,71,-1,73,-1,-1,-1,75,77,-1,-1,79,81,-1,83,85,87,89,91,93,95,97,99,-1,-1,-1,-1,-1,-1,-1,-1,-1,-1,-1,-1,-1,-1,-1,-1,-1,-1,-1,-1,-1,-1,-1,-1,-1,-1,-1,-1,-1,-1,-1,-1,-1,-1,-1,-1,-1,-1,-1,-1,-1,-1],"loss_changes":[4.5939987E1,7.836364E1,6.9886986E1,3.9987858E1,1.1734938E2,1.4536699E2,9.0211426E1,2.960422E1,9.3559265E1,2.1305504E1,5.6745697E1,9.4891846E1,7.285913E1,1.7596042E2,9.262023E1,3.456294E1,1.6623016E1,0E0,1.28392725E1,1.4052647E0,2.1433714E1,0E0,5.115808E1,1.2534878E1,6.879532E1,2.0926796E1,2.686953E2,7.245929E1,1.7046634E2,1.1983583E2,1.288641E2,1.6004835E1,5.2482525E1,5.035061E0,4.662956E0,1.3362913E0,1.8988738E0,1.3050409E-1,0E0,3.441428E-1,0E0,0E0,0E0,3.2559326E0,3.83002E0,0E0,0E0,6.3299775E0,2.4635796E1,0E0,1.8532157E-1,3.1111813E1,1.9442036E1,8.833389E1,2.108599E2,9.951955E1,5.3490326E1,5.3146408E1,8.637991E1,0E0,0E0,0E0,0E0,0E0,0E0,0E0,0E0,0E0,0E0,0E0,0E0,0E0,0E0,0E0,0E0,0E0,0E0,0E0,0E0,0E0,0E0,0E0,0E0,0E0,0E0,0E0,0E0,0E0,0E0,0E0,0E0,0E0,0E0,0E0,0E0,0E0,0E0,0E0,0E0,0E0,0E0],"parents":[2147483647,0,0,1,1,2,2,3,3,4,4,5,5,6,6,7,7,8,8,9,9,10,10,11,11,12,12,13,13,14,14,15,15,16,16,18,18,19,19,20,20,22,22,23,23,24,24,25,25,26,26,27,27,28,28,29,29,30,30,31,31,32,32,33,33,34,34,35,35,36,36,37,37,39,39,43,43,44,44,47,47,48,48,50,50,51,51,52,52,53,53,54,54,55,55,56,56,57,57,58,58],"right_children":[2,4,6,8,10,12,14,16,18,20,22,24,26,28,30,32,34,-1,36,38,40,-1,42,44,46,48,50,52,54,56,58,60,62,64,66,68,70,72,-1,74,-1,-1,-1,76,78,-1,-1,80,82,-1,84,86,88,90,92,94,96,98,100,-1,-1,-1,-1,-1,-1,-1,-1,-1,-1,-1,-1,-1,-1,-1,-1,-1,-1,-1,-1,-1,-1,-1,-1,-1,-1,-1,-1,-1,-1,-1,-1,-1,-1,-1,-1,-1,-1,-1,-1,-1,-1],"split_conditions":[1.05E1,2.5E0,1.45E1,8.5E0,2.5E0,3.95E1,1.545E2,2.92E2,6.8E1,6.3E1,1.575E2,3.15E1,8.3E1,7.55E1,9.5E0,5.5E0,4.5E1,2.046353E0,9.6E1,3.15E1,3.39E2,-4.00589E-2,3.2E1,8E0,3.14E2,3.5E1,8.95E1,1.5E0,9.25E1,4.23E2,1.5E0,1.85E2,1.875E2,3.165E2,4.67E2,2.8E1,3.94E2,5.4E1,-3.0292416E-1,1.04E2,1.2236573E0,2.277649E-1,2.8814268E0,2.65E1,1.365E2,3.032609E0,-7.4684145E-3,9.25E1,5.5E1,-3.6349428E0,9.8E1,2.5E0,1.5E0,2.55E1,1.46E2,1.5E0,9.9E1,1.5E0,6.55E1,-4.903689E-1,2.2227299E-1,1.1278112E0,-2.2773714E-1,-3.8423997E-1,1.9875595E-1,-9.034477E-1,-9.010134E-2,-3.995252E-2,-4.8562852E-1,4.9531177E-1,8.87003E-3,-4.7141742E-2,5.2083496E-2,-1.5020943E-2,1.5441857E-1,-3.8822228E-1,5.6239795E-2,-8.087873E-2,4.9348405E-1,3.3058447E-1,-1.8126212E-1,-1.0983373E0,-2.266425E-1,3.402798E-1,7.411194E-2,-7.4969846E-1,9.959473E-2,-3.886147E-2,1.0491527E0,3.0531282E0,4.34913E-1,-2.3473515E-1,2.3231285E0,9.141274E-2,-7.8753424E-1,3.018126E-1,2.0331964E0,-7.06935E-1,3.3349842E-1,1.8789679E0,-3.395967E-2],"split_indices":[5,8,5,5,7,4,2,2,3,3,2,4,3,2,6,5,4,0,3,4,2,0,4,6,2,3,3,10,2,2,12,2,2,2,2,4,2,3,0,3,0,0,0,4,2,0,0,2,3,0,3,9,7,5,2,7,3,9,4,0,0,0,0,0,0,0,0,0,0,0,0,0,0,0,0,0,0,0,0,0,0,0,0,0,0,0,0,0,0,0,0,0,0,0,0,0,0,0,0,0,0],"split_type":[0,0,0,0,0,0,0,0,0,0,0,0,0,0,0,0,0,0,0,0,0,0,0,0,0,0,0,0,0,0,0,0,0,0,0,0,0,0,0,0,0,0,0,0,0,0,0,0,0,0,0,0,0,0,0,0,0,0,0,0,0,0,0,0,0,0,0,0,0,0,0,0,0,0,0,0,0,0,0,0,0,0,0,0,0,0,0,0,0,0,0,0,0,0,0,0,0,0,0,0,0],"sum_hessian":[2.14E2,5.1E1,1.63E2,3.6E1,1.5E1,3.8E1,1.25E2,2.8E1,8E0,1E1,5E0,1.2E1,2.6E1,4E1,8.5E1,1.9E1,9E0,2E0,6E0,5E0,5E0,1E0,4E0,1E1,2E0,2.1E1,5E0,2.1E1,1.9E1,5.9E1,2.6E1,1E1,9E0,4E0,5E0,3E0,3E0,3E0,2E0,3E0,2E0,1E0,3E0,5E0,5E0,1E0,1E0,9E0,1.2E1,2E0,3E0,1.5E1,6E0,6E0,1.3E1,4.7E1,1.2E1,1.7E1,9E0,6E0,4E0,5E0,4E0,1E0,3E0,4E0,1E0,1E0,2E0,2E0,1E0,2E0,1E0,2E0,1E0,3E0,2E0,1E0,4E0,2E0,7E0,5E0,7E0,2E0,1E0,9E0,6E0,2E0,4E0,4E0,2E0,1E1,3E0,1.9E1,2.8E1,1.1E1,1E0,6E0,1.1E1,6E0,3E0],"tree_param":{"num_deleted":"0","num_feature":"13","num_nodes":"101","size_leaf_vector":"0"}},{"base_weights":[3.7001523E-1,7.000946E-2,8.4628934E-1,6.006845E-1,-8.5197806E-1,7.1801376E0,5.1901835E-1,-6.8327636E-1,1.3504264E0,-4.605658E0,1.0774136E-1,1.6708679E0,8.459605E0,-3.025049E-1,2.0555081E0,-1.6500502E0,2.4233015E0,3.2274196E0,4.751814E-1,-1.2449799E0,-9.33543E0,1.3032039E0,-5.860925E-1,3.5604233E-1,-1.1769596E0,-2.9833286E0,2.5578544E0,-6.597613E-1,-3.337257E0,8.0572695E-1,6.8731613E0,-1.3661937E-1,4.273018E0,1.1590281E-1,4.6281304E0,2.5062224E-1,-2.429337E0,9.46635E-2,3.1002371E0,-1.0421455E0,1.5377594E0,-2.2887816E-1,5.3618073E-1,1.419211E0,-1.9769633E0,7.165265E-2,3.146395E0,4.0815282E-1,-1.9121838E0,1.9918782E-1,-5.138677E0,1.2557876E0,-2.1294992E-1,-2.0675218E0,3.7934952E0,7.804957E0,1.089936E0,-4.744072E-1,2.6292453E0,8.985863E-1,6.0436096E0,-1.131988E-1,4.0962887E-1,4.9766964E-1,-6.342631E-1,4.9285684E0,9.539294E-1,2.6591977E-1,-2.3743854E0,-6.231238E-1,1.32294E-1,1.4234018E-1,8.073283E-1,-3.4030533E-1,3.2921627E0,-2.5526958E0,6.762748E-1,5.320152E-1,-5.660483E-1,3.7982373E0,-5.7349396E-1],"categories":[],"categories_nodes":[],"categories_segments":[],"categories_sizes":[],"default_left":[1,1,1,1,1,1,1,1,1,1,1,0,0,1,1,1,1,1,1,1,0,1,1,1,1,0,1,1,1,1,0,1,1,1,1,1,0,1,1,1,0,1,1,1,1,1,1,0,0,0,0,0,0,0,0,0,0,0,0,0,0,0,0,0,0,0,0,0,0,0,0,0,0,0,0,0,0,0,0,0,0],"id":18,"left_children":[1,3,5,7,9,11,13,15,17,19,21,-1,-1,23,25,27,29,31,33,35,-1,37,39,41,43,-1,45,47,49,51,-1,53,55,57,59,61,-1,63,65,67,-1,69,71,73,75,77,79,-1,-1,-1,-1,-1,-1,-1,-1,-1,-1,-1,-1,-1,-1,-1,-1,-1,-1,-1,-1,-1,-1,-1,-1,-1,-1,-1,-1,-1,-1,-1,-1,-1,-1],"loss_changes":[3.0661022E1,6.558545E1,1.6832283E2,8.274705E1,1.770177E2,1.4060852E1,1.0160277E2,1.00106026E2,8.717916E1,1.4732999E2,3.394189E1,0E0,0E0,3.0940145E1,7.8505646E1,3.9568756E1,5.2045944E1,6.0380127E1,5.6162086E1,1.3008136E1,0E0,3.228333E1,2.6785885E1,3.3890862E0,5.0575485E1,0E0,3.7818558E1,2.3517618E1,5.8359177E1,3.476685E0,0E0,4.5786476E1,1.3764496E2,5.4658775E1,1.040657E1,2.7776927E-1,0E0,3.2532723E0,1.8843468E1,3.896984E1,0E0,1.22156E0,2.4480176E0,2.0893272E1,2.9222328E1,2.062588E0,5.309868E1,0E0,0E0,0E0,0E0,0E0,0E0,0E0,0E0,0E0,0E0,0E0,0E0,0E0,0E0,0E0,0E0,0E0,0E0,0E0,0E0,0E0,0E0,0E0,0E0,0E0,0E0,0E0,0E0,0E0,0E0,0E0,0E0,0E0,0E0],"parents":[2147483647,0,0,1,1,2,2,3,3,4,4,5,5,6,6,7,7,8,8,9,9,10,10,13,13,14,14,15,15,16,16,17,17,18,18,19,19,21,21,22,22,23,23,24,24,26,26,27,27,28,28,29,29,31,31,32,32,33,33,34,34,35,35,37,37,38,38,39,39,41,41,42,42,43,43,44,44,45,45,46,46],"right_children":[2,4,6,8,10,12,14,16,18,20,22,-1,-1,24,26,28,30,32,34,36,-1,38,40,42,44,-1,46,48,50,52,-1,54,56,58,60,62,-1,64,66,68,-1,70,72,74,76,78,80,-1,-1,-1,-1,-1,-1,-1,-1,-1,-1,-1,-1,-1,-1,-1,-1,-1,-1,-1,-1,-1,-1,-1,-1,-1,-1,-1,-1,-1,-1,-1,-1,-1,-1],"split_conditions":[3.05E2,7.75E1,3.125E2,4.75E1,8.7E1,3.075E2,7.3E1,1.25E1,6.25E1,8.3E1,9.65E1,5.012604E-1,2.5378816E0,1.5E0,6.5E0,1.75E1,1.885E2,2.05E1,1.45E1,1.5E0,-2.8006291E0,2.25E1,2.95E1,1.5E0,9.5E0,-8.949986E-1,1.5E0,8.5E0,4.65E1,2.25E1,2.0619485E0,2.235E2,8.5E0,1.025E2,6.2E1,1.8E1,-7.2880113E-1,1.4E1,2.45E1,1.85E1,4.6132785E-1,1.8E1,1.45E1,4.9E1,2.5E1,1E2,1.55E1,1.2244585E-1,-5.736551E-1,5.9756346E-2,-1.5416032E0,3.767363E-1,-6.388498E-2,-6.2025654E-1,1.1380486E0,2.3414872E0,3.2698083E-1,-1.4232217E-1,7.887736E-1,2.695759E-1,1.8130829E0,-3.3959642E-2,1.2288866E-1,1.493009E-1,-1.9027893E-1,1.4785706E0,2.8617883E-1,7.977594E-2,-7.123156E-1,-1.8693715E-1,3.96882E-2,4.2702056E-2,2.421985E-1,-1.020916E-1,9.8764884E-1,-7.6580876E-1,2.0288244E-1,1.5960456E-1,-1.698145E-1,1.1394713E0,-1.720482E-1],"split_indices":[2,3,2,4,3,2,3,6,4,3,3,0,0,7,5,5,2,3,6,7,0,5,5,8,5,0,7,6,3,5,0,2,6,4,2,5,0,5,5,5,0,5,5,3,5,3,6,0,0,0,0,0,0,0,0,0,0,0,0,0,0,0,0,0,0,0,0,0,0,0,0,0,0,0,0,0,0,0,0,0,0],"split_type":[0,0,0,0,0,0,0,0,0,0,0,0,0,0,0,0,0,0,0,0,0,0,0,0,0,0,0,0,0,0,0,0,0,0,0,0,0,0,0,0,0,0,0,0,0,0,0,0,0,0,0,0,0,0,0,0,0,0,0,0,0,0,0,0,0,0,0,0,0,0,0,0,0,0,0,0,0,0,0,0,0],"sum_hessian":[2.14E2,1.32E2,8.2E1,8.4E1,4.8E1,3E0,7.9E1,3.1E1,5.3E1,9E0,3.9E1,1E0,2E0,5.2E1,2.7E1,2.4E1,7E0,1.6E1,3.7E1,6E0,3E0,1.4E1,2.5E1,3E1,2.2E1,2E0,2.5E1,1.6E1,8E0,6E0,1E0,4E0,1.2E1,3.5E1,2E0,3E0,3E0,9E0,5E0,2.1E1,4E0,7E0,2.3E1,5E0,1.7E1,5E0,2E1,9E0,7E0,3E0,5E0,4E0,2E0,3E0,1E0,5E0,7E0,2.9E1,6E0,1E0,1E0,1E0,2E0,6E0,3E0,2E0,3E0,1.1E1,1E1,3E0,4E0,1E1,1.3E1,3E0,2E0,1.4E1,3E0,3E0,2E0,1.7E1,3E0],"tree_param":{"num_deleted":"0","num_feature":"13","num_nodes":"81","size_leaf_vector":"0"}},{"base_weights":[2.9636326E-1,5.473182E-2,7.2870624E-1,-2.8424662E-1,6.101355E-1,5.041505E-2,1.1374569E0,4.625831E-1,-9.599554E-1,5.785877E0,1.8387343E-1,8.8387597E-1,-1.4695517E0,3.688388E0,6.119714E-1,-1.2328258E-1,4.8226457E0,1.7948672E-1,-2.1072013E0,1.4202347E0,6.7676797E0,-1.2295266E0,7.6768255E-1,1.3999305E0,-2.5070763E0,-2.4257165E-1,-3.5561237E0,5.4750175E0,5.3300434E-1,-8.923214E-2,2.1291199E0,-1.6383843E0,1.1812466E0,-2.013763E0,1.889934E0,-1.5539369E-1,-3.8834085E0,9.7168304E-2,-2.1247864E0,1.9681243E0,-8.569512E-2,5.701743E-1,2.6223795E0,-4.5401955E-1,-3.3065948E0,1.06215194E-1,-6.179123E-1,3.0917358E-1,6.689185E0,-1.1383878E-1,1.2367668E0,9.7802424E-1,-1.30258E0,3.0119306E-1,2.9080658E0,4.001043E-1,-3.3091855E0,-1.0925451E-2,2.7720234E0,-5.5574423E-1,-3.6522367E0,7.136462E-1,3.8645225E0,-5.218949E-1,7.0808244E-1,-4.9482827E0,9.606417E-1,3.599198E-1,-3.7314028E-1,-2.5963185E0,-8.8629174E-1,4.569097E-1,4.8991714E0,-4.6130875E-1,7.850925E-1,7.568512E-1,-2.4214013E-1,9.44009E-1,4.5455375E0,1.3362682E-1,-1.7156601E-3,3.4497517E-1,3.6062453E0,-3.1199303E0,-2.636469E-1,6.0349226E-2,6.3228416E-1,1.5449117E0,4.2257805E0],"categories":[],"categories_nodes":[],"categories_segments":[],"categories_sizes":[],"default_left":[1,1,1,1,1,1,1,1,1,1,1,1,1,1,1,1,0,1,1,0,0,1,1,1,1,1,0,1,1,1,1,1,1,1,1,1,1,1,1,1,1,1,1,0,0,1,0,0,0,0,0,1,1,1,1,0,0,0,0,0,0,0,0,0,0,0,0,0,0,0,0,0,0,0,0,0,0,0,0,0,0,0,0,0,0,0,0,0,0],"id":19,"left_children":[1,3,5,7,9,11,13,15,17,19,21,23,25,27,29,31,-1,33,35,-1,-1,37,39,41,43,45,-1,47,49,51,53,55,57,59,61,63,65,67,69,71,73,75,77,-1,-1,79,-1,-1,-1,-1,-1,81,83,85,87,-1,-1,-1,-1,-1,-1,-1,-1,-1,-1,-1,-1,-1,-1,-1,-1,-1,-1,-1,-1,-1,-1,-1,-1,-1,-1,-1,-1,-1,-1,-1,-1,-1,-1],"loss_changes":[2.2420664E1,2.6342941E1,2.1291061E1,4.4347687E1,1.1586592E2,3.9303883E1,6.2085728E1,1.0787981E2,6.051035E1,7.5330963E0,4.220168E1,3.8508057E1,2.7299393E1,4.21818E1,4.3807007E1,7.704213E1,0E0,9.3840385E1,7.913328E1,0E0,0E0,1.8022518E1,3.7048145E1,1.676281E1,3.4231129E0,1.1129427E0,0E0,2.9292877E1,1.9616876E0,3.8827602E1,1.7634235E1,6.2630386E1,3.9856354E1,2.4248474E1,2.9759686E1,4.167125E0,6.665317E1,9.993205E-1,2.954811E0,6.420313E1,7.557923E0,2.002948E0,1.8303375E1,0E0,0E0,1.5022058E-2,0E0,0E0,0E0,0E0,0E0,2.5376621E1,2.561091E1,3.6054835E-1,9.637779E0,0E0,0E0,0E0,0E0,0E0,0E0,0E0,0E0,0E0,0E0,0E0,0E0,0E0,0E0,0E0,0E0,0E0,0E0,0E0,0E0,0E0,0E0,0E0,0E0,0E0,0E0,0E0,0E0,0E0,0E0,0E0,0E0,0E0,0E0],"parents":[2147483647,0,0,1,1,2,2,3,3,4,4,5,5,6,6,7,7,8,8,9,9,10,10,11,11,12,12,13,13,14,14,15,15,17,17,18,18,21,21,22,22,23,23,24,24,25,25,27,27,28,28,29,29,30,30,31,31,32,32,33,33,34,34,35,35,36,36,37,37,38,38,39,39,40,40,41,41,42,42,45,45,51,51,52,52,53,53,54,54],"right_children":[2,4,6,8,10,12,14,16,18,20,22,24,26,28,30,32,-1,34,36,-1,-1,38,40,42,44,46,-1,48,50,52,54,56,58,60,62,64,66,68,70,72,74,76,78,-1,-1,80,-1,-1,-1,-1,-1,82,84,86,88,-1,-1,-1,-1,-1,-1,-1,-1,-1,-1,-1,-1,-1,-1,-1,-1,-1,-1,-1,-1,-1,-1,-1,-1,-1,-1,-1,-1,-1,-1,-1,-1,-1,-1],"split_conditions":[9.5E0,3.05E2,1.8E2,1.545E2,3.125E2,9.95E1,2.105E2,1.445E2,1.75E1,3.075E2,4.5E0,1.055E2,1.5E0,7.8E1,2.5E0,5.5E0,1.4467938E0,2.01E2,1.5E0,4.2607042E-1,2.030304E0,1.5E0,6.5E0,8.15E1,5.5E1,6E1,-1.0668372E0,1.825E2,1.99E2,4.3E1,1.5E0,1.5E0,1.85E1,1.86E2,5.6E1,1.025E2,9.3E1,6.35E1,1.5E0,1.5E0,1.5E0,1.5E0,2.5E0,-1.3620587E-1,-9.9197847E-1,4.9E1,-1.853737E-1,9.275208E-2,2.0067556E0,-3.4151636E-2,3.7103006E-1,4.1E1,6.65E1,4.59E2,1.5E0,1.200313E-1,-9.927557E-1,-3.2776354E-3,8.3160704E-1,-1.6672328E-1,-1.095671E0,2.1409386E-1,1.1593568E0,-1.5656847E-1,2.1242474E-1,-1.4844849E0,2.881925E-1,1.0797594E-1,-1.1194209E-1,-7.7889556E-1,-2.6588753E-1,1.370729E-1,1.4697515E0,-1.3839263E-1,2.3552775E-1,2.2705537E-1,-7.264204E-2,2.832027E-1,1.3636613E0,4.0088046E-2,-5.1469804E-4,1.0349256E-1,1.0818737E0,-9.359791E-1,-7.9094075E-2,1.810477E-2,1.8968526E-1,4.6347353E-1,1.2677342E0],"split_indices":[6,2,2,2,2,2,2,2,5,2,6,3,7,3,8,6,0,2,7,0,0,7,6,4,2,4,0,2,2,4,7,9,5,2,3,3,4,3,12,7,10,12,9,0,0,4,0,0,0,0,0,4,4,2,11,0,0,0,0,0,0,0,0,0,0,0,0,0,0,0,0,0,0,0,0,0,0,0,0,0,0,0,0,0,0,0,0,0,0],"split_type":[0,0,0,0,0,0,0,0,0,0,0,0,0,0,0,0,0,0,0,0,0,0,0,0,0,0,0,0,0,0,0,0,0,0,0,0,0,0,0,0,0,0,0,0,0,0,0,0,0,0,0,0,0,0,0,0,0,0,0,0,0,0,0,0,0,0,0,0,0,0,0,0,0,0,0,0,0,0,0,0,0,0,0,0,0,0,0,0,0],"sum_hessian":[2.14E2,1.38E2,7.6E1,8.6E1,5.2E1,2.9E1,4.7E1,4.1E1,4.5E1,3E0,4.9E1,1.9E1,1E1,7E0,4E1,3.7E1,4E0,2.3E1,2.2E1,1E0,2E0,1.4E1,3.5E1,1.7E1,2E0,7E0,3E0,4E0,3E0,2.8E1,1.2E1,1.7E1,2E1,1E1,1.3E1,1.1E1,1.1E1,6E0,8E0,1.4E1,2.1E1,1.1E1,6E0,1E0,1E0,4E0,3E0,1E0,3E0,2E0,1E0,1.5E1,1.3E1,4E0,8E0,8E0,9E0,1.2E1,8E0,6E0,4E0,9E0,4E0,8E0,3E0,9E0,2E0,4E0,2E0,5E0,3E0,1E1,4E0,1.5E1,6E0,9E0,2E0,4E0,2E0,3E0,1E0,1.3E1,2E0,4E0,9E0,3E0,1E0,5E0,3E0],"tree_param":{"num_deleted":"0","num_feature":"13","num_nodes":"89","size_leaf_vector":"0"}},{"base_weights":[2.422947E-1,2.9315212E-1,-1.3107762E0,1.051187E0,1.1855262E-1,-2.507707E0,2.1384859E-1,1.8927312E-1,3.53181E0,-1.791556E0,3.2728353E-1,-2.835578E0,-7.6204705E-1,4.766007E-1,-2.555542E0,6.436373E-1,5.3499856E0,-4.398137E0,-3.38969E-1,1.3366048E-2,1.0060976E0,-1.4971131E-1,1.4581475E0,1.0089014E0,-4.0870965E-1,6.8151207E0,1.6131439E0,-6.9749475E-1,-7.8662815E0,-1.2911312E-1,-9.2549896E-1,4.3740875E-1,-5.372716E-1,2.6642432E0,6.6630566E-1,-5.8902407E-1,4.7305766E-1,7.5225496E-1,2.505396E0,4.3688202E-1,1.3624798E0,2.2094348E-1,-2.442452E-1,-1.2149429E0,-1.7330551E-1,1.349809E0,-2.7894035E-1,-4.5012994E0,-2.610637E-1,1.3345107E-1,5.1616726E0,1.43858E-1,2.12558E0],"categories":[],"categories_nodes":[],"categories_segments":[],"categories_sizes":[],"default_left":[1,1,1,1,1,1,0,1,1,1,1,0,0,1,0,1,1,1,1,1,1,1,1,1,0,0,0,0,0,1,1,1,1,1,1,0,0,0,0,0,0,0,0,0,0,0,0,0,0,0,0,0,0],"id":20,"left_children":[1,3,5,7,9,11,-1,13,15,17,19,-1,-1,21,-1,23,25,27,29,31,33,35,37,39,-1,-1,-1,-1,-1,41,43,45,47,49,51,-1,-1,-1,-1,-1,-1,-1,-1,-1,-1,-1,-1,-1,-1,-1,-1,-1,-1],"loss_changes":[1.7366074E1,2.7537054E1,1.3310361E1,8.271679E1,6.876383E1,1.2856293E-1,0E0,2.4877804E1,4.9068604E1,6.287603E1,3.3015747E1,0E0,0E0,1.7431427E1,0E0,2.334271E0,2.1856094E1,7.151948E1,1.3575472E0,2.5218853E1,2.5832607E1,5.203269E0,6.246998E0,2.1377182E-1,0E0,0E0,0E0,0E0,0E0,4.5699185E-1,4.425974E-1,4.024594E1,5.0284973E1,4.9874966E1,3.1714787E1,0E0,0E0,0E0,0E0,0E0,0E0,0E0,0E0,0E0,0E0,0E0,0E0,0E0,0E0,0E0,0E0,0E0,0E0],"parents":[2147483647,0,0,1,1,2,2,3,3,4,4,5,5,7,7,8,8,9,9,10,10,13,13,15,15,16,16,17,17,18,18,19,19,20,20,21,21,22,22,23,23,29,29,30,30,31,31,32,32,33,33,34,34],"right_children":[2,4,6,8,10,12,-1,14,16,18,20,-1,-1,22,-1,24,26,28,30,32,34,36,38,40,-1,-1,-1,-1,-1,42,44,46,48,50,52,-1,-1,-1,-1,-1,-1,-1,-1,-1,-1,-1,-1,-1,-1,-1,-1,-1,-1],"split_conditions":[3.15E1,9.4E1,1.765E2,7.3E1,1.23E2,8E0,6.415458E-2,1.07E2,1.5E0,6E0,2.5E0,-8.5067344E-1,-2.2861412E-1,1.85E1,-7.6666266E-1,2.3E1,7.8E1,3.35E1,1.5E0,6.25E1,8.5E0,6.05E1,2.5E0,8.9E1,-1.226129E-1,2.0445364E0,4.839432E-1,-2.0924844E-1,-2.3598845E0,2.65E1,1.06E2,1.5E0,6.55E1,3.435E2,1.5E0,-1.7670722E-1,1.419173E-1,2.2567649E-1,7.516188E-1,1.3106461E-1,4.0874395E-1,6.628305E-2,-7.327356E-2,-3.6448288E-1,-5.1991656E-2,4.0494272E-1,-8.3682105E-2,-1.3503898E0,-7.831911E-2,4.0035322E-2,1.5485018E0,4.3157402E-2,6.3767403E-1],"split_indices":[5,2,2,2,2,6,0,3,7,6,8,0,0,5,0,5,3,3,12,4,5,4,7,2,0,0,0,0,0,4,2,9,4,2,11,0,0,0,0,0,0,0,0,0,0,0,0,0,0,0,0,0,0],"split_type":[0,0,0,0,0,0,0,0,0,0,0,0,0,0,0,0,0,0,0,0,0,0,0,0,0,0,0,0,0,0,0,0,0,0,0,0,0,0,0,0,0,0,0,0,0,0,0,0,0,0,0,0,0],"sum_hessian":[2.14E2,2.08E2,6E0,3.8E1,1.7E2,3E0,3E0,2.9E1,9E0,1.6E1,1.54E2,2E0,1E0,2.7E1,2E0,4E0,5E0,5E0,1.1E1,1.06E2,4.8E1,1.7E1,1E1,3E0,1E0,3E0,2E0,3E0,2E0,9E0,2E0,6E1,4.6E1,7E0,4.1E1,1E1,7E0,7E0,3E0,2E0,1E0,2E0,7E0,1E0,1E0,2.6E1,3.4E1,2E0,4.4E1,4E0,3E0,3.1E1,1E1],"tree_param":{"num_deleted":"0","num_feature":"13","num_nodes":"53","size_leaf_vector":"0"}},{"base_weights":[1.7088841E-1,2.1138246E-1,-1.062561E0,8.158691E-1,7.2280936E-2,-2.0252166E0,1.6573477E-1,1.3835235E-1,2.7668324E0,-1.4301242E0,2.3659451E-1,3.672811E-1,-2.0444336E0,5.3398526E-1,4.1663995E0,-3.5068846E0,-2.7256688E-1,-2.0133749E-1,6.604448E-1,-7.689724E-2,1.1744919E0,-2.4272747E0,-6.393757E-1,8.411831E-1,-3.4740317E-1,5.2817154E0,1.2905121E0,-1.1307186E0,-7.693857E0,-9.107837E-2,-7.866729E-1,-6.085735E-1,7.8124154E-1,1.5302446E0,-3.0742703E-2,-4.3656203E-1,6.0203695E-1,5.6831276E-1,1.9416823E0,3.495056E-1,1.1581079E0,-2.4645855E-1,-1.6380725E0,-2.3041943E-1,9.434657E-2,-1.0326996E0,-1.4730978E-1,-1.1514424E-1,-1.8041108E0,1.971478E0,-4.7409838E-1,1.2100219E0,6.208908E0,-2.5595276E0,3.4934363E-1],"categories":[],"categories_nodes":[],"categories_segments":[],"categories_sizes":[],"default_left":[1,1,1,1,1,0,0,1,1,1,1,1,1,1,1,1,1,1,1,1,1,0,0,1,0,0,0,1,0,1,1,1,1,1,1,0,0,0,0,0,0,0,0,0,0,0,0,0,0,0,0,0,0,0,0],"id":21,"left_children":[1,3,5,7,9,-1,-1,11,13,15,17,19,21,23,25,27,29,31,33,35,37,-1,-1,39,-1,-1,-1,41,-1,43,45,47,49,51,53,-1,-1,-1,-1,-1,-1,-1,-1,-1,-1,-1,-1,-1,-1,-1,-1,-1,-1,-1,-1],"loss_changes":[1.0963293E1,1.7514793E1,8.612631E0,5.11678E1,4.255237E1,0E0,0E0,1.5741958E1,2.9025414E1,3.9911613E1,2.8903702E1,1.0129591E1,6.1800957E-2,1.6460329E0,1.24290085E1,5.0994064E1,1.0480031E0,3.128634E1,4.754143E1,4.9024124E0,3.5470657E0,0E0,0E0,2.1853375E-1,0E0,0E0,0E0,1.839447E0,0E0,2.8011236E-1,3.197745E-1,3.2237484E1,3.5300156E1,4.4924583E1,4.4146202E1,0E0,0E0,0E0,0E0,0E0,0E0,0E0,0E0,0E0,0E0,0E0,0E0,0E0,0E0,0E0,0E0,0E0,0E0,0E0,0E0],"parents":[2147483647,0,0,1,1,2,2,3,3,4,4,7,7,8,8,9,9,10,10,11,11,12,12,13,13,14,14,15,15,16,16,17,17,18,18,19,19,20,20,23,23,27,27,29,29,30,30,31,31,32,32,33,33,34,34],"right_children":[2,4,6,8,10,-1,-1,12,14,16,18,20,22,24,26,28,30,32,34,36,38,-1,-1,40,-1,-1,-1,42,-1,44,46,48,50,52,54,-1,-1,-1,-1,-1,-1,-1,-1,-1,-1,-1,-1,-1,-1,-1,-1,-1,-1,-1,-1],"split_conditions":[3.15E1,9.4E1,1.765E2,7.3E1,1.23E2,-6.07565E-1,4.9720433E-2,1.07E2,1.5E0,6E0,5.55E1,1.95E1,6.65E1,2.3E1,7.8E1,6.45E1,1.5E0,1.5E0,8.35E1,2.5E0,2.5E0,-7.2818244E-1,-1.9181271E-1,8.9E1,-1.0422096E-1,1.5845147E0,3.8715366E-1,2.05E1,-2.3081572E0,1.5E0,1.06E2,2.5E0,8E0,