{"learner":{"attributes":{"best_iteration":"99","best_ntree_limit":"100","scikit_learn":"{\"n_estimators\": 100, \"objective\": \"reg:squarederror\", \"max_depth\": null, \"max_leaves\": null, \"max_bin\": null, \"grow_policy\": null, \"learning_rate\": null, \"verbosity\": null, \"booster\": null, \"tree_method\": null, \"gamma\": null, \"min_child_weight\": null, \"max_delta_step\": null, \"subsample\": null, \"sampling_method\": null, \"colsample_bytree\": null, \"colsample_bylevel\": null, \"colsample_bynode\": null, \"reg_alpha\": null, \"reg_lambda\": null, \"scale_pos_weight\": null, \"base_score\": null, \"missing\": NaN, \"num_parallel_tree\": null, \"random_state\": null, \"n_jobs\": null, \"monotone_constraints\": null, \"interaction_constraints\": null, \"importance_type\": null, \"gpu_id\": null, \"validate_parameters\": null, \"predictor\": null, \"enable_categorical\": false, \"feature_types\": null, \"max_cat_to_onehot\": null, \"max_cat_threshold\": null, \"eval_metric\": null, \"early_stopping_rounds\": null, \"callbacks\": null, \"_estimator_type\": \"regressor\"}"},"feature_names":[],"feature_types":[],"gradient_booster":{"model":{"gbtree_model_param":{"num_parallel_tree":"1","num_trees":"100","size_leaf_vector":"0"},"tree_info":[0,0,0,0,0,0,0,0,0,0,0,0,0,0,0,0,0,0,0,0,0,0,0,0,0,0,0,0,0,0,0,0,0,0,0,0,0,0,0,0,0,0,0,0,0,0,0,0,0,0,0,0,0,0,0,0,0,0,0,0,0,0,0,0,0,0,0,0,0,0,0,0,0,0,0,0,0,0,0,0,0,0,0,0,0,0,0,0,0,0,0,0,0,0,0,0,0,0,0,0],"trees":[{"base_weights":[2.185484E0,1.7755102E0,3.4642856E0,3.3333334E-1,1.8297873E0,3.75E-1,4.2727275E0,1.4375E0,2.1458333E0,2.5E-1,1.4782609E0,1.0833334E0,2.368421E0,3.75E-1,1.6666666E0],"categories":[],"categories_nodes":[],"categories_segments":[],"categories_sizes":[],"default_left":[1,1,1,0,1,0,0,1,1,0,0,1,0,0,0],"id":0,"left_children":[1,3,5,-1,7,-1,-1,9,11,-1,-1,13,-1,-1,-1],"loss_changes":[2.6354187E1,3.225647E0,3.3362823E1,0E0,2.742447E0,0E0,0E0,7.921181E-1,3.110199E0,0E0,0E0,1.8541665E0,0E0,0E0,0E0],"parents":[2147483647,0,0,1,1,2,2,4,4,7,7,8,8,11,11],"right_children":[2,4,6,-1,8,-1,-1,10,12,-1,-1,14,-1,-1,-1],"split_conditions":[4E0,5E0,5E0,1.0000001E-1,2.5E0,1.12500004E-1,1.2818183E0,7.5E0,3.9E1,7.5E-2,4.434783E-1,3.45E1,7.1052635E-1,1.12500004E-1,5E-1],"split_indices":[6,2,2,0,6,0,0,2,2,0,0,5,0,0,0],"split_type":[0,0,0,0,0,0,0,0,0,0,0,0,0,0,0],"sum_hessian":[6.1E1,4.8E1,1.3E1,2E0,4.6E1,3E0,1E1,2.3E1,2.3E1,1E0,2.2E1,5E0,1.8E1,3E0,2E0],"tree_param":{"num_deleted":"0","num_feature":"18","num_nodes":"15","size_leaf_vector":"0"}},{"base_weights":[1.5836422E0,1.2824796E0,2.524594E0,1.0027391E0,1.510921E0,2.9062498E-1,3.1074378E0,2.75E-1,1.0540642E0,7.9464287E-1,1.6952908E0,3.125E-1,1.3333334E0],"categories":[],"categories_nodes":[],"categories_segments":[],"categories_sizes":[],"default_left":[1,1,1,1,1,0,0,0,0,1,0,0,0],"id":1,"left_children":[1,3,5,7,9,-1,-1,-1,-1,11,-1,-1,-1],"loss_changes":[1.4331787E1,1.6162491E0,1.7325676E1,6.439152E-1,1.9543495E0,0E0,0E0,0E0,0E0,1.4014139E0,0E0,0E0,0E0],"parents":[2147483647,0,0,1,1,2,2,3,3,4,4,9,9],"right_children":[2,4,6,8,10,-1,-1,-1,-1,12,-1,-1,-1],"split_conditions":[4E0,2.5E0,5E0,7.5E0,3.9E1,8.71875E-2,9.3223137E-1,8.25E-2,3.1621927E-1,3.55E1,5.0858724E-1,9.375E-2,4.0000004E-1],"split_indices":[6,6,2,2,2,0,0,0,0,5,0,0,0],"split_type":[0,0,0,0,0,0,0,0,0,0,0,0,0],"sum_hessian":[6.1E1,4.8E1,1.3E1,2.4E1,2.4E1,3E0,1E1,2E0,2.2E1,6E0,1.8E1,4E0,2E0],"tree_param":{"num_deleted":"0","num_feature":"18","num_nodes":"13","size_leaf_vector":"0"}},{"base_weights":[1.1475896E0,9.263288E-1,1.8400315E0,7.178661E-1,1.0977383E0,2.2523439E-1,2.259955E0,2.2000001E-1,7.5159365E-1,4.9874997E-1,1.1880813E0,7.9999995E-1,2.2343749E-1],"categories":[],"categories_nodes":[],"categories_segments":[],"categories_sizes":[],"default_left":[1,1,1,1,1,0,0,0,0,1,0,0,0],"id":2,"left_children":[1,3,5,7,9,-1,-1,-1,-1,11,-1,-1,-1],"loss_changes":[7.7945557E0,9.628639E-1,8.984257E0,2.5444412E-1,7.603035E-1,0E0,0E0,0E0,0E0,2.359395E-1,0E0,0E0,0E0],"parents":[2147483647,0,0,1,1,2,2,3,3,4,4,9,9],"right_children":[2,4,6,8,10,-1,-1,-1,-1,12,-1,-1,-1],"split_conditions":[4E0,2.5E0,5E0,7.5E0,1.95E1,6.757032E-2,6.779865E-1,6.600001E-2,2.254781E-1,5.5E1,3.564244E-1,2.4E-1,6.703125E-2],"split_indices":[6,6,2,2,2,0,0,0,0,3,0,0,0],"split_type":[0,0,0,0,0,0,0,0,0,0,0,0,0],"sum_hessian":[6.1E1,4.8E1,1.3E1,2.4E1,2.4E1,3E0,1E1,2E0,2.2E1,4E0,2E1,1E0,3E0],"tree_param":{"num_deleted":"0","num_feature":"18","num_nodes":"13","size_leaf_vector":"0"}},{"base_weights":[8.3074E-1,6.679186E-1,1.3412762E0,5.1416546E-1,7.94955E-1,1.7455664E-1,1.6436037E0,1.7600001E-1,5.35919E-1,2.7212662E-1,8.538804E-1,3.8372692E-1,-3.13372E-2,1.19609356E-1,8.8315E-1,1.1335936E-1,4.6223104E-1],"categories":[],"categories_nodes":[],"categories_segments":[],"categories_sizes":[],"default_left":[1,1,1,1,1,0,0,0,0,1,1,1,0,0,0,0,0],"id":3,"left_children":[1,3,5,7,9,-1,-1,-1,-1,11,13,15,-1,-1,-1,-1,-1],"loss_changes":[4.2579613E0,5.4834366E-1,4.651335E0,8.9585304E-2,5.3783417E-1,0E0,0E0,0E0,0E0,1.4749157E-1,3.671856E-1,1.1276662E-2,0E0,0E0,0E0,0E0,0E0],"parents":[2147483647,0,0,1,1,2,2,3,3,4,4,9,9,10,10,11,11],"right_children":[2,4,6,8,10,-1,-1,-1,-1,12,14,16,-1,-1,-1,-1,-1],"split_conditions":[4E0,2.5E0,5E0,7.5E0,1.85E1,5.2366994E-2,4.9308112E-1,5.2800007E-2,1.607757E-1,1.65E1,5E0,6.45E1,-9.401161E-3,3.588281E-2,2.64945E-1,3.400781E-2,1.3866931E-1],"split_indices":[6,6,2,2,4,0,0,0,0,4,2,2,0,0,0,0,0],"split_type":[0,0,0,0,0,0,0,0,0,0,0,0,0,0,0,0,0],"sum_hessian":[6.1E1,4.8E1,1.3E1,2.4E1,2.4E1,3E0,1E1,2E0,2.2E1,3E0,2.1E1,2E0,1E0,1E0,2E1,1E0,1E0],"tree_param":{"num_deleted":"0","num_feature":"18","num_nodes":"17","size_leaf_vector":"0"}},{"base_weights":[6.012458E-1,4.8137322E-1,9.7785395E-1,3.684589E-1,5.750326E-1,1.3528141E-1,1.1953481E0,1.4080001E-1,3.8213357E-1,2.3130764E-1,6.1139023E-1,6.7702436E-1,3.379556E-1,3.261679E-1,-2.66366E-2,1.0166794E-1,6.308214E-1,9.635547E-2,3.928964E-1],"categories":[],"categories_nodes":[],"categories_segments":[],"categories_sizes":[],"default_left":[1,1,1,1,1,0,0,0,1,1,1,0,0,1,0,0,0,0,0],"id":4,"left_children":[1,3,5,7,9,-1,-1,-1,11,13,15,-1,-1,17,-1,-1,-1,-1,-1],"loss_changes":[2.3282795E0,3.0632305E-1,2.4038563E0,2.4024725E-2,1.710062E-1,0E0,0E0,0E0,7.083225E-2,1.0656266E-1,1.5376568E-1,0E0,0E0,8.147389E-3,0E0,0E0,0E0,0E0,0E0],"parents":[2147483647,0,0,1,1,2,2,3,3,4,4,8,8,9,9,10,10,13,13],"right_children":[2,4,6,8,10,-1,-1,-1,12,14,16,-1,-1,18,-1,-1,-1,-1,-1],"split_conditions":[4E0,2.5E0,5E0,7.5E0,1.85E1,4.0584426E-2,3.5860446E-1,4.2240005E-2,1.1E1,1.65E1,5E0,2.0310731E-1,1.0138668E-1,6.45E1,-7.9909805E-3,3.0500384E-2,1.8924643E-1,2.8906642E-2,1.1786893E-1],"split_indices":[6,6,2,2,4,0,0,0,2,4,2,0,0,2,0,0,0,0,0],"split_type":[0,0,0,0,0,0,0,0,0,0,0,0,0,0,0,0,0,0,0],"sum_hessian":[6.1E1,4.8E1,1.3E1,2.4E1,2.4E1,3E0,1E1,2E0,2.2E1,3E0,2.1E1,1E0,2.1E1,2E0,1E0,1E0,2E1,1E0,1E0],"tree_param":{"num_deleted":"0","num_feature":"18","num_nodes":"19","size_leaf_vector":"0"}},{"base_weights":[4.3868586E-1,3.5135442E-1,7.1301126E-1,2.717906E-1,4.168641E-1,1.0484308E-1,8.693441E-1,1.1264E-1,2.8073236E-1,3.0688003E-1,5.104401E-1,5.754707E-1,2.4117742E-1,1.2776971E-2,4.2324358E-1,-9.09183E-2,1.12213254E-1,-1.1373633E-1,-2.2641122E-2],"categories":[],"categories_nodes":[],"categories_segments":[],"categories_sizes":[],"default_left":[1,1,1,1,1,0,0,0,1,1,0,0,0,1,0,1,0,0,0],"id":5,"left_children":[1,3,5,7,9,-1,-1,-1,11,13,-1,-1,-1,15,-1,17,-1,-1,-1],"loss_changes":[1.234829E0,1.4209843E-1,1.2399282E0,3.9554834E-3,1.00652695E-1,0E0,0E0,0E0,1.2935185E-1,4.7371233E-1,0E0,0E0,0E0,6.17576E-2,0E0,2.0987336E-3,0E0,0E0,0E0],"parents":[2147483647,0,0,1,1,2,2,3,3,4,4,8,8,9,9,13,13,15,15],"right_children":[2,4,6,8,10,-1,-1,-1,12,14,-1,-1,-1,16,-1,18,-1,-1,-1],"split_conditions":[4E0,2.5E0,5E0,7.5E0,3.55E1,3.1452924E-2,2.6080325E-1,3.3792E-2,1.1E1,4.3E1,1.5313204E-1,1.7264122E-1,7.235323E-2,8.65E1,1.2697308E-1,2E1,3.3663977E-2,-3.4120902E-2,-6.792337E-3],"split_indices":[6,6,2,2,5,0,0,0,2,2,0,0,0,3,0,2,0,0,0],"split_type":[0,0,0,0,0,0,0,0,0,0,0,0,0,0,0,0,0,0,0],"sum_hessian":[6.1E1,4.8E1,1.3E1,2.4E1,2.4E1,3E0,1E1,2E0,2.2E1,1.3E1,1.1E1,1E0,2.1E1,4E0,9E0,2E0,2E0,1E0,1E0],"tree_param":{"num_deleted":"0","num_feature":"18","num_nodes":"19","size_leaf_vector":"0"}},{"base_weights":[3.2069138E-1,2.5720608E-1,5.1998335E-1,3.3344305E-1,2.13765E-1,3.5740134E-1,9.969835E-1,5.178132E-1,2.2883523E-1,4.323114E-2,2.3506181E-1,8.125341E-2,4.4042248E-1,1.5455042E-1,2.7736163E-1,1.0237686E-1,-9.667587E-2,3.0550122E-2,2.4857871E-1,6.507015E-2,-1.9244969E-2,1.6903952E-1,3.2735166E-1],"categories":[],"categories_nodes":[],"categories_segments":[],"categories_sizes":[],"default_left":[1,1,1,1,1,1,0,0,1,1,1,0,0,0,0,0,0,1,1,0,0,0,0],"id":6,"left_children":[1,3,5,7,9,11,-1,-1,13,15,17,-1,-1,-1,-1,-1,-1,19,21,-1,-1,-1,-1],"loss_changes":[6.506872E-1,9.1000795E-2,7.293999E-1,1.9009113E-1,1.1332023E-1,2.3932767E-1,0E0,0E0,3.9094687E-4,5.127188E-2,7.533693E-2,0E0,0E0,0E0,0E0,0E0,0E0,6.4090574E-3,1.20099545E-1,0E0,0E0,0E0,0E0],"parents":[2147483647,0,0,1,1,2,2,3,3,4,4,5,5,8,8,9,9,10,10,17,17,18,18],"right_children":[2,4,6,8,10,12,-1,-1,14,16,18,-1,-1,-1,-1,-1,-1,20,22,-1,-1,-1,-1],"split_conditions":[4E0,4.25E1,9.2E1,4E0,1.1E1,9.5E0,2.9909506E-1,1.5534396E-1,2.5E0,7.5E0,1.8E1,2.4376024E-2,1.3212675E-1,4.6365127E-2,8.3208494E-2,3.071306E-2,-2.9002763E-2,2.55E1,2.5E0,1.9521046E-2,-5.7734908E-3,5.071186E-2,9.82055E-2],"split_indices":[6,3,3,7,2,2,0,0,6,2,4,0,0,0,0,0,0,2,6,0,0,0,0],"split_type":[0,0,0,0,0,0,0,0,0,0,0,0,0,0,0,0,0,0,0,0,0,0,0],"sum_hessian":[6.1E1,4.8E1,1.3E1,1.5E1,3.3E1,1.1E1,2E0,4E0,1.1E1,4E0,2.9E1,3E0,8E0,6E0,5E0,3E0,1E0,2E0,2.7E1,1E0,1E0,1.5E1,1.2E1],"tree_param":{"num_deleted":"0","num_feature":"18","num_nodes":"23","size_leaf_vector":"0"}},{"base_weights":[2.3907894E-1,1.8921347E-1,3.96531E-1,2.5121742E-1,1.5447003E-1,2.6322278E-1,7.9758674E-1,4.7342953E-1,1.8565646E-1,3.060385E-2,1.699654E-1,6.297138E-2,3.2297644E-1,1.14808865E-1,2.2444105E-1,7.934205E-2,-8.217448E-2,2.5967618E-2,1.7932354E-1,5.5309623E-2,-1.6358197E-2,1.2149714E-1,2.3670037E-1],"categories":[],"categories_nodes":[],"categories_segments":[],"categories_sizes":[],"default_left":[1,1,1,1,1,1,0,0,1,1,1,0,0,0,0,0,0,1,1,0,0,0,0],"id":7,"left_children":[1,3,5,7,9,11,-1,-1,13,15,17,-1,-1,-1,-1,-1,-1,19,21,-1,-1,-1,-1],"loss_changes":[4.1175914E-1,6.675172E-2,5.3855324E-1,1.4519978E-1,6.005633E-2,1.2325078E-1,0E0,0E0,1.2701273E-2,3.400296E-2,3.576994E-2,0E0,0E0,0E0,0E0,0E0,0E0,4.6305386E-3,6.4142644E-2,0E0,0E0,0E0,0E0],"parents":[2147483647,0,0,1,1,2,2,3,3,4,4,5,5,8,8,9,9,10,10,17,17,18,18],"right_children":[2,4,6,8,10,12,-1,-1,14,16,18,-1,-1,-1,-1,-1,-1,20,22,-1,-1,-1,-1],"split_conditions":[4E0,4.25E1,9.2E1,2.7E1,1.1E1,9.5E0,2.3927604E-1,1.4202887E-1,2.5E0,7.5E0,1.8E1,1.8891416E-2,9.689294E-2,3.444266E-2,6.733232E-2,2.3802618E-2,-2.4652345E-2,2.55E1,2.5E0,1.6592888E-2,-4.907459E-3,3.644914E-2,7.101011E-2],"split_indices":[6,3,3,2,2,2,0,0,6,2,4,0,0,0,0,0,0,2,6,0,0,0,0],"split_type":[0,0,0,0,0,0,0,0,0,0,0,0,0,0,0,0,0,0,0,0,0,0,0],"sum_hessian":[6.1E1,4.8E1,1.3E1,1.5E1,3.3E1,1.1E1,2E0,2E0,1.3E1,4E0,2.9E1,3E0,8E0,6E0,7E0,3E0,1E0,2E0,2.7E1,1E0,1E0,1.5E1,1.2E1],"tree_param":{"num_deleted":"0","num_feature":"18","num_nodes":"23","size_leaf_vector":"0"}},{"base_weights":[1.7892234E-1,1.3983919E-1,3.0293322E-1,1.9108997E-1,1.1160827E-1,1.9390471E-1,6.3806945E-1,3.7874365E-1,1.3722919E-1,2.125274E-2,1.2294724E-1,4.8802838E-2,2.3684947E-1,8.528658E-2,1.6552532E-1,6.1490074E-2,-6.98483E-2,8.732602E-2,1.5274672E-1,2.2072494E-2,1.7115258E-1,4.7013193E-2,-1.3904452E-2],"categories":[],"categories_nodes":[],"categories_segments":[],"categories_sizes":[],"default_left":[1,1,1,1,1,1,0,0,1,1,1,0,0,0,0,0,0,0,1,1,0,0,0],"id":8,"left_children":[1,3,5,7,9,11,-1,-1,13,15,17,-1,-1,-1,-1,-1,-1,-1,19,21,-1,-1,-1],"loss_changes":[2.581358E-1,4.9568832E-2,3.8782704E-1,1.0974014E-1,3.2221347E-2,6.321746E-2,0E0,0E0,6.459743E-3,2.2623293E-2,1.850608E-2,0E0,0E0,0E0,0E0,0E0,0E0,0E0,3.2299787E-2,3.345563E-3,0E0,0E0,0E0],"parents":[2147483647,0,0,1,1,2,2,3,3,4,4,5,5,8,8,9,9,10,10,18,18,19,19],"right_children":[2,4,6,8,10,12,-1,-1,14,16,18,-1,-1,-1,-1,-1,-1,-1,20,22,-1,-1,-1],"split_conditions":[4E0,4.25E1,9.2E1,2.7E1,1.1E1,9.5E0,1.9142084E-1,1.136231E-1,2.5E0,7.5E0,2.5E0,1.4640852E-2,7.1054846E-2,2.5585975E-2,4.96576E-2,1.8447023E-2,-2.095449E-2,2.6197808E-2,2.1E1,2.55E1,5.1345777E-2,1.4103958E-2,-4.171336E-3],"split_indices":[6,3,3,2,2,2,0,0,6,2,6,0,0,0,0,0,0,0,4,2,0,0,0],"split_type":[0,0,0,0,0,0,0,0,0,0,0,0,0,0,0,0,0,0,0,0,0,0,0],"sum_hessian":[6.1E1,4.8E1,1.3E1,1.5E1,3.3E1,1.1E1,2E0,2E0,1.3E1,4E0,2.9E1,3E0,8E0,6E0,7E0,3E0,1E0,1.5E1,1.4E1,2E0,1.2E1,1E0,1E0],"tree_param":{"num_deleted":"0","num_feature":"18","num_nodes":"23","size_leaf_vector":"0"}},{"base_weights":[1.3413194E-1,1.034759E-1,2.318472E-1,1.4556713E-1,8.062485E-2,1.4287454E-1,5.104554E-1,3.0299488E-1,1.0143496E-1,1.4375413E-2,8.897893E-2,3.7822187E-2,1.7368953E-1,6.335572E-2,1.2207493E-1,4.7654793E-2,-5.9371054E-2,1.6088021E-1,7.80974E-2,3.548181E-2,1.2937655E-1,3.347498E-2,2.0784533E-1,1.8761635E-2,8.194009E-2,3.996122E-2,-1.1818767E-2,6.2486634E-2,9.942857E-2],"categories":[],"categories_nodes":[],"categories_segments":[],"categories_sizes":[],"default_left":[1,1,1,1,1,1,0,0,1,1,1,0,0,0,1,0,0,1,1,0,0,0,0,1,1,0,0,0,0],"id":9,"left_children":[1,3,5,7,9,11,-1,-1,13,15,17,-1,-1,-1,19,-1,-1,21,23,-1,-1,-1,-1,25,27,-1,-1,-1,-1],"loss_changes":[1.617341E-1,3.5393298E-2,2.7410823E-1,8.0427825E-2,1.7538294E-2,3.2276914E-2,0E0,0E0,3.2692105E-3,1.5100499E-2,1.0907531E-2,0E0,0E0,0E0,4.676357E-4,0E0,0E0,1.099319E-2,4.8469156E-3,0E0,0E0,0E0,0E0,2.4171676E-3,2.6325434E-3,0E0,0E0,0E0,0E0],"parents":[2147483647,0,0,1,1,2,2,3,3,4,4,5,5,8,8,9,9,10,10,14,14,17,17,18,18,23,23,24,24],"right_children":[2,4,6,8,10,12,-1,-1,14,16,18,-1,-1,-1,20,-1,-1,22,24,-1,-1,-1,-1,26,28,-1,-1,-1,-1],"split_conditions":[4E0,4.25E1,9.2E1,2.7E1,1.1E1,9.5E0,1.5313664E-1,9.089847E-2,2.5E0,7.5E0,2.5E0,1.1346657E-2,5.210686E-2,1.9006718E-2,2.1E1,1.4296439E-2,-1.7811317E-2,1.9E1,1.8E1,1.0644544E-2,3.8812965E-2,1.0042495E-2,6.23536E-2,2.55E1,2.5E0,1.1988366E-2,-3.54563E-3,1.874599E-2,2.9828573E-2],"split_indices":[6,3,3,2,2,2,0,0,6,2,7,0,0,0,5,0,0,2,4,0,0,0,0,2,6,0,0,0,0],"split_type":[0,0,0,0,0,0,0,0,0,0,0,0,0,0,0,0,0,0,0,0,0,0,0,0,0,0,0,0,0],"sum_hessian":[6.1E1,4.8E1,1.3E1,1.5E1,3.3E1,1.1E1,2E0,2E0,1.3E1,4E0,2.9E1,3E0,8E0,6E0,7E0,3E0,1E0,2E0,2.7E1,1E0,6E0,1E0,1E0,2E0,2.5E1,1E0,1E0,1.4E1,1.1E1],"tree_param":{"num_deleted":"0","num_feature":"18","num_nodes":"29","size_leaf_vector":"0"}},{"base_weights":[1.01986736E-1,7.82548E-2,1.7776376E-1,1.1135404E-1,5.7191007E-2,1.0529997E-1,4.083643E-1,1.9823042E-1,7.23729E-2,-2.1403477E-2,6.605952E-2,2.9312208E-2,1.2737232E-1,3.0159593E-2,2.3270822E-1,1.3674815E-1,5.0248012E-2,1.7704397E-2,-4.03409E-2,4.767208E-2,8.0042996E-2,2.8453708E-2,1.7666852E-1,-5.0465405E-2,-1.0045946E-2],"categories":[],"categories_nodes":[],"categories_segments":[],"categories_sizes":[],"default_left":[1,1,1,1,1,1,0,1,1,1,1,0,0,0,0,1,0,0,1,0,0,0,0,0,0],"id":10,"left_children":[1,3,5,7,9,11,-1,13,15,17,19,-1,-1,-1,-1,21,-1,-1,23,-1,-1,-1,-1,-1,-1],"loss_changes":[9.758592E-2,2.7794123E-2,1.9094187E-1,4.6611175E-2,2.3718432E-2,1.639317E-2,0E0,2.1955192E-2,1.3068818E-2,3.6766208E-3,3.6406815E-3,0E0,0E0,0E0,0E0,7.942587E-3,0E0,0E0,4.1319104E-4,0E0,0E0,0E0,0E0,0E0,0E0],"parents":[2147483647,0,0,1,1,2,2,3,3,4,4,5,5,7,7,8,8,9,9,10,10,15,15,18,18],"right_children":[2,4,6,8,10,12,-1,14,16,18,20,-1,-1,-1,-1,22,-1,-1,24,-1,-1,-1,-1,-1,-1],"split_conditions":[4E0,4E0,9.2E1,3.8E1,3.75E1,9.5E0,1.2250929E-1,3.3E1,2.5E0,4.5E0,2.5E0,8.793663E-3,3.82117E-2,9.047878E-3,6.981247E-2,1.9E1,1.5074404E-2,5.3113196E-3,2E1,1.4301625E-2,2.4012899E-2,8.5361125E-3,5.300056E-2,-1.5139622E-2,-3.0137838E-3],"split_indices":[6,7,3,3,2,2,0,5,7,2,6,0,0,0,0,2,0,0,2,0,0,0,0,0,0],"split_type":[0,0,0,0,0,0,0,0,0,0,0,0,0,0,0,0,0,0,0,0,0,0,0,0,0],"sum_hessian":[6.1E1,4.8E1,1.3E1,1.7E1,3.1E1,1.1E1,2E0,4E0,1.3E1,3E0,2.8E1,3E0,8E0,1E0,3E0,2E0,1.1E1,1E0,2E0,1.4E1,1.4E1,1E0,1E0,1E0,1E0],"tree_param":{"num_deleted":"0","num_feature":"18","num_nodes":"25","size_leaf_vector":"0"}},{"base_weights":[7.704326E-2,1.2943578E-1,5.4374173E-2,5.672556E-2,2.3559105E-1,3.4025293E-2,6.793584E-2,1.4668301E-2,1.1267207E-1,3.4666675E-1,6.561759E-2,-8.539081E-3,7.13364E-2,2.9019663E-2,-4.2895615E-2,1.2762517E-1,2.6429832E-2,9.048474E-2,2.7166963E-2],"categories":[],"categories_nodes":[],"categories_segments":[],"categories_sizes":[],"default_left":[1,1,1,1,1,0,1,1,1,0,1,0,0,0,0,0,0,0,0],"id":11,"left_children":[1,3,5,7,9,-1,11,13,15,-1,17,-1,-1,-1,-1,-1,-1,-1,-1],"loss_changes":[6.659883E-2,1.2557027E-1,1.01068765E-2,2.6582766E-2,1.09412014E-1,0E0,7.370651E-3,7.853781E-3,3.0748397E-3,0E0,1.3664346E-3,0E0,0E0,0E0,0E0,0E0,0E0,0E0,0E0],"parents":[2147483647,0,0,1,1,2,2,3,3,4,4,6,6,7,7,8,8,10,10],"right_children":[2,4,6,8,10,-1,12,14,16,-1,18,-1,-1,-1,-1,-1,-1,-1,-1],"split_conditions":[2.95E1,4E0,2.5E0,1.15E1,5.25E1,1.0207588E-2,3.35E1,7.5E0,1.025E2,1.0400003E-1,1.05E1,-2.5617243E-3,2.1400921E-2,8.705899E-3,-1.2868685E-2,3.828755E-2,7.92895E-3,2.7145423E-2,8.1500895E-3],"split_indices":[2,8,6,2,4,0,2,2,3,0,2,0,0,0,0,0,0,0,0],"split_type":[0,0,0,0,0,0,0,0,0,0,0,0,0,0,0,0,0,0,0],"sum_hessian":[6.1E1,1.7E1,4.4E1,1.1E1,6E0,1.9E1,2.5E1,7E0,4E0,3E0,3E0,1E0,2.4E1,6E0,1E0,3E0,1E0,1E0,2E0],"tree_param":{"num_deleted":"0","num_feature":"18","num_nodes":"19","size_leaf_vector":"0"}},{"base_weights":[5.732377E-2,1.0267324E-1,3.931801E-2,4.106851E-2,1.8481307E-1,3.1788394E-2,7.111013E-2,1.8970465E-2,1.3102448E-1,2.4569817E-1,2.1733562E-2,-7.2582364E-3,3.3006944E-2,3.0130483E-2,-1.711307E-2,2.4328137E-2,4.0405322E-2,3.5297107E-2,1.6139582E-2,1.0791689E-2,-3.6461294E-2,3.0397514E-2,5.0366372E-2],"categories":[],"categories_nodes":[],"categories_segments":[],"categories_sizes":[],"default_left":[1,1,1,1,1,1,0,1,0,0,0,0,1,1,1,0,1,0,0,0,0,0,0],"id":12,"left_children":[1,3,5,7,9,11,-1,13,-1,-1,-1,-1,15,17,19,-1,21,-1,-1,-1,-1,-1,-1],"loss_changes":[4.65893E-2,7.8433454E-2,8.751109E-3,1.9380767E-2,6.416388E-2,2.0952038E-3,0E0,4.542554E-3,0E0,0E0,0E0,0E0,1.456961E-3,8.605421E-6,2.0132016E-3,0E0,3.6306307E-4,0E0,0E0,0E0,0E0,0E0,0E0],"parents":[2147483647,0,0,1,1,2,2,3,3,4,4,5,5,7,7,12,12,13,13,14,14,16,16],"right_children":[2,4,6,8,10,12,-1,14,-1,-1,-1,-1,16,18,20,-1,22,-1,-1,-1,-1,-1,-1],"split_conditions":[2.35E1,4E0,4E0,1.95E1,1.35E1,3.75E1,2.1333039E-2,1.5E0,3.9307345E-2,7.370945E-2,6.5200687E-3,-2.177471E-3,2.5E0,4.1E1,4.5E0,7.298441E-3,1.095E2,1.0589132E-2,4.841875E-3,3.2375068E-3,-1.0938388E-2,9.119255E-3,1.51099125E-2],"split_indices":[2,8,6,2,2,2,0,9,0,0,0,0,6,5,2,0,2,0,0,0,0,0,0],"split_type":[0,0,0,0,0,0,0,0,0,0,0,0,0,0,0,0,0,0,0,0,0,0,0],"sum_hessian":[6.1E1,1.6E1,4.5E1,1E1,6E0,3.8E1,7E0,9E0,1E0,4E0,2E0,1E0,3.7E1,7E0,2E0,1.9E1,1.8E1,4E0,3E0,1E0,1E0,1.1E1,7E0],"tree_param":{"num_deleted":"0","num_feature":"18","num_nodes":"23","size_leaf_vector":"0"}},{"base_weights":[4.2996757E-2,7.9357564E-2,2.8624356E-2,3.7483152E-2,1.4988013E-1,2.3004407E-2,5.2443564E-2,1.0299937E-1,1.407997E-2,8.7714195E-3,1.7634758E-1,3.1510234E-2,1.753956E-2,2.2531543E-2,-3.099209E-2,1.7170787E-2,2.118491E-1,1.9800527E-2,3.781745E-2,-6.169498E-3,1.8734703E-2,1.698494E-2,4.6919964E-2,2.4787638E-2,1.4428167E-2,1.2297213E-2,2.8983315E-2],"categories":[],"categories_nodes":[],"categories_segments":[],"categories_sizes":[],"default_left":[1,1,1,1,1,1,0,0,1,0,1,1,1,0,0,0,0,0,1,0,1,0,0,1,0,0,0],"id":13,"left_children":[1,3,5,7,9,11,-1,-1,13,-1,15,17,19,-1,-1,-1,-1,-1,21,-1,23,-1,-1,25,-1,-1,-1],"loss_changes":[3.0129157E-2,4.458458E-2,4.9512535E-3,1.6949227E-2,2.0861909E-2,1.2601633E-3,0E0,0E0,4.5075975E-3,0E0,2.4617463E-2,2.8517377E-4,8.5231196E-4,0E0,0E0,0E0,0E0,0E0,7.20093E-4,0E0,2.9403903E-4,0E0,0E0,1.1523813E-4,0E0,0E0,0E0],"parents":[2147483647,0,0,1,1,2,2,3,3,4,4,5,5,8,8,10,10,11,11,12,12,18,18,20,20,23,23],"right_children":[2,4,6,8,10,12,-1,-1,14,-1,16,18,20,-1,-1,-1,-1,-1,22,-1,24,-1,-1,26,-1,-1,-1],"split_conditions":[2.35E1,9.2E1,4E0,3.35E1,4.5E0,4.7E1,1.573307E-2,3.0899812E-2,8.45E1,2.6314259E-3,1.55E1,2.5E0,3.75E1,6.7594633E-3,-9.297628E-3,5.1512364E-3,6.3554734E-2,5.9401584E-3,7.3E1,-1.8508495E-3,3.55E1,5.095482E-3,1.407599E-2,2.5E0,4.32845E-3,3.689164E-3,8.694995E-3],"split_indices":[2,3,6,3,2,3,0,0,4,0,4,6,2,0,0,0,0,0,2,0,5,0,0,6,0,0,0],"split_type":[0,0,0,0,0,0,0,0,0,0,0,0,0,0,0,0,0,0,0,0,0,0,0,0,0,0,0],"sum_hessian":[6.1E1,1.6E1,4.5E1,1.1E1,5E0,3.8E1,7E0,2E0,9E0,1E0,4E0,1.3E1,2.5E1,8E0,1E0,1E0,3E0,6E0,7E0,1E0,2.4E1,3E0,4E0,8E0,1.6E1,3E0,5E0],"tree_param":{"num_deleted":"0","num_feature":"18","num_nodes":"27","size_leaf_vector":"0"}},{"base_weights":[3.2604244E-2,6.141494E-2,2.1248024E-2,2.3697121E-2,1.11912236E-1,1.7128034E-2,3.8676977E-2,2.8556883E-3,5.9455708E-2,1.7388225E-1,2.1964163E-2,4.1622877E-2,1.5388094E-2,1.0790297E-2,-2.6343286E-2,6.954416E-2,1.4595181E-2,5.850017E-3,2.5385538E-2,-5.2440763E-3,1.6087452E-2,2.1480955E-2,1.2639332E-2,9.530336E-3,2.4113107E-2,5.2580833E-3,1.3052567E-2],"categories":[],"categories_nodes":[],"categories_segments":[],"categories_sizes":[],"default_left":[1,1,1,1,1,1,0,1,1,0,1,0,1,0,0,0,0,0,0,0,1,1,1,0,0,0,0],"id":14,"left_children":[1,3,5,7,9,11,-1,13,15,-1,17,-1,19,-1,-1,-1,-1,-1,-1,-1,21,23,25,-1,-1,-1,-1],"loss_changes":[1.8980242E-2,2.972702E-2,2.6406683E-3,8.028075E-3,3.5199404E-2,1.0216665E-3,0E0,2.1377113E-3,7.952815E-4,0E0,7.202441E-5,0E0,6.326763E-4,0E0,0E0,0E0,0E0,0E0,0E0,0E0,4.1660108E-4,1.7911987E-4,7.6228753E-6,0E0,0E0,0E0,0E0],"parents":[2147483647,0,0,1,1,2,2,3,3,4,4,5,5,7,7,8,8,10,10,12,12,20,20,21,21,22,22],"right_children":[2,4,6,8,10,12,-1,14,16,-1,18,-1,20,-1,-1,-1,-1,-1,-1,-1,22,24,26,-1,-1,-1,-1],"split_conditions":[2.35E1,4E0,4E0,1.15E1,5.25E1,1.65E1,1.1603094E-2,7.5E0,1.025E2,5.2164678E-2,4.45E1,1.2486864E-2,3.75E1,3.2370891E-3,-7.902986E-3,2.0863248E-2,4.3785544E-3,1.7550052E-3,7.6156617E-3,-1.5732229E-3,3.55E1,2.5E0,3.85E1,2.8591007E-3,7.2339326E-3,1.577425E-3,3.9157704E-3],"split_indices":[2,8,6,2,4,4,0,2,3,0,5,0,2,0,0,0,0,0,0,0,5,6,5,0,0,0,0],"split_type":[0,0,0,0,0,0,0,0,0,0,0,0,0,0,0,0,0,0,0,0,0,0,0,0,0,0,0],"sum_hessian":[6.1E1,1.6E1,4.5E1,1E1,6E0,3.8E1,7E0,7E0,3E0,3E0,3E0,1E0,3.7E1,6E0,1E0,2E0,1E0,1E0,2E0,1E0,3.6E1,1.2E1,2.4E1,3E0,9E0,2E0,2.2E1],"tree_param":{"num_deleted":"0","num_feature":"18","num_nodes":"27","size_leaf_vector":"0"}},{"base_weights":[2.4761945E-2,1.7727757E-2,5.5763386E-2,2.8351108E-2,1.020219E-2,2.4464568E-2,1.3107204E-1,4.020822E-2,1.6107589E-2,-1.1822084E-3,1.2354197E-2,6.916177E-2,1.0232195E-2,7.2909474E-2,2.8473696E-2,3.3724904E-3,1.6958736E-2,7.538068E-3,-2.2391796E-2,9.427485E-3,2.3346234E-2,4.2108297E-3,3.09802E-2,1.1352539E-2,2.1415662E-2,-4.4574738E-3,1.0261232E-2,1.424402E-2,7.4529964E-3],"categories":[],"categories_nodes":[],"categories_segments":[],"categories_sizes":[],"default_left":[1,1,1,1,1,1,0,1,1,1,1,0,0,0,1,0,1,0,0,1,0,0,0,0,0,0,1,0,0],"id":15,"left_children":[1,3,5,7,9,11,-1,13,15,17,19,-1,-1,-1,21,-1,23,-1,-1,25,-1,-1,-1,-1,-1,-1,27,-1,-1],"loss_changes":[1.253178E-2,3.8679857E-3,2.2721175E-2,2.400972E-3,7.9858326E-4,5.0176485E-3,0E0,1.7613322E-3,7.287995E-5,1.2785116E-3,6.4850785E-4,0E0,0E0,0E0,4.168828E-4,0E0,3.172853E-5,0E0,0E0,3.1199958E-4,0E0,0E0,0E0,0E0,0E0,0E0,1.3990072E-4,0E0,0E0],"parents":[2147483647,0,0,1,1,2,2,3,3,4,4,5,5,7,7,8,8,9,9,10,10,14,14,16,16,19,19,26,26],"right_children":[2,4,6,8,10,12,-1,14,16,18,20,-1,-1,-1,22,-1,24,-1,-1,26,-1,-1,-1,-1,-1,-1,28,-1,-1],"split_conditions":[9.3E1,4.25E1,4E0,4.1E1,1.1E1,9.55E1,3.9321616E-2,2.15E1,5.5E0,7.5E0,4E0,2.0748533E-2,3.0696588E-3,2.1872843E-2,2E1,1.0117472E-3,2.5E0,2.2614205E-3,-6.717539E-3,1.8E1,7.0038703E-3,1.263249E-3,9.29406E-3,3.405762E-3,6.424699E-3,-1.3372422E-3,3.45E1,4.273206E-3,2.235899E-3],"split_indices":[3,3,6,4,2,3,0,2,2,2,6,0,0,0,5,0,6,0,0,4,0,0,0,0,0,0,5,0,0],"split_type":[0,0,0,0,0,0,0,0,0,0,0,0,0,0,0,0,0,0,0,0,0,0,0,0,0,0,0,0,0],"sum_hessian":[6.1E1,5.1E1,1E1,2E1,3.1E1,8E0,2E0,9E0,1.1E1,5E0,2.6E1,1E0,7E0,1E0,8E0,1E0,1E1,4E0,1E0,2.2E1,4E0,1E0,7E0,6E0,4E0,1E0,2.1E1,7E0,1.4E1],"tree_param":{"num_deleted":"0","num_feature":"18","num_nodes":"29","size_leaf_vector":"0"}},{"base_weights":[1.9174222E-2,3.9076824E-2,1.1402081E-2,1.6817575E-2,7.7082515E-2,9.089424E-3,2.1251023E-2,5.3040266E-2,4.26901E-3,4.3023527E-3,9.0778075E-2,3.0732393E-2,7.711125E-3,5.5606365E-3,2.269813E-2,8.972903E-3,-1.9033015E-2,1.0871083E-2,1.08037055E-1,-3.7888288E-3,8.124336E-3,4.119313E-3,1.2031913E-2,1.1475535E-2,6.056738E-3,4.482001E-3,1.3125395E-2,8.053382E-3,4.6434123E-3],"categories":[],"categories_nodes":[],"categories_segments":[],"categories_sizes":[],"default_left":[1,1,1,1,1,1,1,0,1,0,1,0,1,0,0,1,0,0,0,0,1,0,0,1,1,0,0,0,0],"id":16,"left_children":[1,3,5,7,9,11,13,-1,15,-1,17,-1,19,-1,-1,21,-1,-1,-1,-1,23,-1,-1,25,27,-1,-1,-1,-1],"loss_changes":[9.144966E-3,1.3085289E-2,8.5459277E-4,5.2280845E-3,5.590033E-3,9.264073E-4,5.5429293E-5,0E0,1.2668837E-3,0E0,5.721085E-3,0E0,2.1135388E-4,0E0,0E0,8.406141E-5,0E0,0E0,0E0,0E0,1.8686638E-4,0E0,0E0,9.117054E-5,3.3152523E-5,0E0,0E0,0E0,0E0],"parents":[2147483647,0,0,1,1,2,2,3,3,4,4,5,5,6,6,8,8,10,10,12,12,15,15,20,20,23,23,24,24],"right_children":[2,4,6,8,10,12,14,-1,16,-1,18,-1,20,-1,-1,22,-1,-1,-1,-1,24,-1,-1,26,28,-1,-1,-1,-1],"split_conditions":[2.35E1,9.2E1,4E0,3.35E1,4.5E0,1.65E1,3.1E1,1.591208E-2,8.45E1,1.2907059E-3,1.55E1,9.219718E-3,3.75E1,1.668191E-3,6.8094395E-3,5.5E0,-5.7099047E-3,3.261325E-3,3.2411117E-2,-1.1366487E-3,3.55E1,1.2357939E-3,3.609574E-3,2.5E0,4.1E1,1.3446003E-3,3.937619E-3,2.4160147E-3,1.3930238E-3],"split_indices":[2,3,6,3,2,4,2,0,4,0,4,0,2,0,0,2,0,0,0,0,5,0,0,6,3,0,0,0,0],"split_type":[0,0,0,0,0,0,0,0,0,0,0,0,0,0,0,0,0,0,0,0,0,0,0,0,0,0,0,0,0],"sum_hessian":[6.1E1,1.6E1,4.5E1,1.1E1,5E0,3.8E1,7E0,2E0,9E0,1E0,4E0,1E0,3.7E1,1E0,6E0,8E0,1E0,1E0,3E0,1E0,3.6E1,4E0,4E0,1.2E1,2.4E1,3E0,9E0,8E0,1.6E1],"tree_param":{"num_deleted":"0","num_feature":"18","num_nodes":"29","size_leaf_vector":"0"}},{"base_weights":[1.4674577E-2,3.0413235E-2,8.539104E-3,1.3026267E-2,6.01183E-2,2.612257E-2,7.567859E-3,5.4017067E-2,4.3891887E-3,3.6570132E-3,7.067915E-2,5.6070746E-3,1.59356E-2,9.091131E-3,-6.1119944E-3,9.240419E-3,8.372873E-2,-3.2204986E-3,5.9326985E-3,4.7266483E-3,1.6861644E-2,2.5817554E-3,1.0830631E-2,2.6360552E-3,-1.6178071E-2,8.439138E-3,4.3920423E-3,3.4735799E-3,9.581447E-3,5.9058135E-3,3.3322782E-3],"categories":[],"categories_nodes":[],"categories_segments":[],"categories_sizes":[],"default_left":[1,1,1,1,1,0,1,0,1,0,1,1,1,1,1,0,0,0,1,0,0,0,0,0,0,1,1,0,0,0,0],"id":17,"left_children":[1,3,5,7,9,-1,11,-1,13,-1,15,17,19,21,23,-1,-1,-1,25,-1,-1,-1,-1,-1,-1,27,29,-1,-1,-1,-1],"loss_changes":[5.7272734E-3,7.9970565E-3,5.878892E-4,4.011398E-3,3.319202E-3,0E0,6.4897793E-4,0E0,5.9870054E-4,0E0,3.2350607E-3,1.2833602E-4,3.340654E-6,6.262236E-5,3.9488045E-4,0E0,0E0,0E0,1.0581268E-4,0E0,0E0,0E0,0E0,0E0,0E0,4.0456653E-5,2.0426203E-5,0E0,0E0,0E0,0E0],"parents":[2147483647,0,0,1,1,2,2,3,3,4,4,6,6,8,8,10,10,11,11,12,12,13,13,14,14,18,18,25,25,26,26],"right_children":[2,4,6,8,10,-1,12,-1,14,-1,16,18,20,22,24,-1,-1,-1,26,-1,-1,-1,-1,-1,-1,28,30,-1,-1,-1,-1],"split_conditions":[2.35E1,9.2E1,1.65E1,3.2E1,4.5E0,7.836771E-3,4E0,1.620512E-2,4E0,1.097104E-3,1.55E1,3.75E1,3.1E1,5.5E0,4.5E0,2.7721256E-3,2.5118621E-2,-9.661496E-4,3.55E1,1.4179945E-3,5.0584935E-3,7.745267E-4,3.2491894E-3,7.908166E-4,-4.853422E-3,2.5E0,4.1E1,1.042074E-3,2.874434E-3,1.7717441E-3,9.996835E-4],"split_indices":[2,3,4,3,2,0,6,0,7,0,4,2,2,2,2,0,0,0,5,0,0,0,0,0,0,6,3,0,0,0,0],"split_type":[0,0,0,0,0,0,0,0,0,0,0,0,0,0,0,0,0,0,0,0,0,0,0,0,0,0,0,0,0,0,0],"sum_hessian":[6.1E1,1.6E1,4.5E1,1.1E1,5E0,1E0,4.4E1,1E0,1E1,1E0,4E0,3.7E1,7E0,7E0,3E0,1E0,3E0,1E0,3.6E1,1E0,6E0,2E0,5E0,2E0,1E0,1.2E1,2.4E1,3E0,9E0,8E0,1.6E1],"tree_param":{"num_deleted":"0","num_feature":"18","num_nodes":"31","size_leaf_vector":"0"}},{"base_weights":[1.1323666E-2,2.394537E-2,6.412957E-3,8.057589E-3,4.5491118E-2,2.220416E-2,5.5686156E-3,-2.3005158E-4,2.2618473E-2,7.2835624E-2,6.7738295E-3,4.075546E-3,1.1964619E-2,3.666052E-3,-1.3751388E-2,1.0142882E-2,3.0022621E-2,4.2521954E-4,8.748293E-3,6.7432724E-5,4.6807923E-3,-2.737403E-3,1.1758804E-3,6.6972175E-3,3.368161E-3,2.6919842E-3,7.7331862E-3,4.734695E-3,2.4147988E-3],"categories":[],"categories_nodes":[],"categories_segments":[],"categories_sizes":[],"default_left":[1,1,1,1,1,0,1,1,1,0,1,1,0,0,0,0,0,0,0,1,1,0,0,1,1,0,0,0,0],"id":18,"left_children":[1,3,5,7,9,-1,11,13,15,-1,17,19,-1,-1,-1,-1,-1,-1,-1,21,23,-1,-1,25,27,-1,-1,-1,-1],"loss_changes":[3.6892928E-3,5.4527903E-3,4.896793E-4,1.3326323E-3,6.9175605E-3,0E0,3.8097322E-4,4.7185746E-4,6.49686E-5,0E0,4.6420464E-5,9.1868395E-5,0E0,9.667783E-7,0E0,0E0,0E0,0E0,0E0,2.187294E-5,6.478792E-5,0E0,7.99997E-7,2.8973911E-5,1.7228274E-5,0E0,0E0,0E0,0E0],"parents":[2147483647,0,0,1,1,2,2,3,3,4,4,6,6,7,7,8,8,10,10,11,11,19,19,20,20,23,23,24,24],"right_children":[2,4,6,8,10,-1,12,14,16,-1,18,20,-1,-1,-1,-1,-1,-1,-1,22,24,-1,-1,26,28,-1,-1,-1,-1],"split_conditions":[2.35E1,4E0,1.65E1,1.15E1,5.25E1,6.6612484E-3,4E0,7.5E0,1.95E1,2.1850688E-2,4.45E1,2.85E1,3.589386E-3,1.0998156E-3,-4.1254163E-3,3.0428648E-3,9.006787E-3,1.2756587E-4,2.624488E-3,3.9E1,3.6E1,-8.212209E-4,3.5276415E-4,2.5E0,4.1E1,8.0759526E-4,2.319956E-3,1.4204085E-3,7.244397E-4],"split_indices":[2,8,4,2,4,0,6,2,2,0,5,4,0,0,0,0,0,0,0,2,5,0,0,6,3,0,0,0,0],"split_type":[0,0,0,0,0,0,0,0,0,0,0,0,0,0,0,0,0,0,0,0,0,0,0,0,0,0,0,0,0],"sum_hessian":[6.1E1,1.6E1,4.5E1,1E1,6E0,1E0,4.4E1,7E0,3E0,3E0,3E0,3.7E1,7E0,6E0,1E0,2E0,1E0,1E0,2E0,5E0,3.2E1,1E0,4E0,1.1E1,2.1E1,3E0,8E0,7E0,1.4E1],"tree_param":{"num_deleted":"0","num_feature":"18","num_nodes":"29","size_leaf_vector":"0"}},{"base_weights":[8.711757E-3,1.636266E-2,3.4490118E-3,9.353164E-3,3.3050913E-2,-4.780829E-3,4.557841E-3,2.1894852E-2,3.3100715E-3,1.5108824E-2,5.193742E-2,-1.3168156E-4,-1.1688709E-2,3.4165794E-3,9.314299E-3,3.4182072E-3,3.0278623E-2,1.6802326E-3,4.6998775E-3,2.5519252E-2,6.126404E-3,1.3756156E-3,-2.3267865E-3,4.9486062E-3,2.2054182E-3,5.1305294E-3,-3.2186508E-6,6.694436E-3,3.590854E-2,2.2922158E-3,5.9325695E-3,6.669545E-3,3.2544434E-3,3.142625E-3,2.837181E-4,2.815326E-3,3.6144257E-4,7.741809E-3,1.1902452E-3,-6.6024065E-4,1.1567473E-3],"categories":[],"categories_nodes":[],"categories_segments":[],"categories_sizes":[],"default_left":[1,1,1,1,1,1,1,1,1,1,0,1,0,1,0,1,1,0,1,0,0,0,0,1,1,0,0,0,0,1,0,1,0,0,1,0,0,0,0,0,0],"id":19,"left_children":[1,3,5,7,9,11,13,15,17,19,-1,21,-1,23,-1,25,27,-1,29,-1,-1,-1,-1,31,33,-1,-1,-1,-1,35,-1,37,-1,-1,39,-1,-1,-1,-1,-1,-1],"loss_changes":[2.43998E-3,2.6152749E-3,3.685587E-4,1.3675474E-3,1.5873304E-3,1.5903957E-4,1.5274133E-4,8.2592526E-4,2.381533E-5,3.1121296E-4,0E0,1.6435466E-5,0E0,4.289666E-5,0E0,1.7592265E-5,2.9072072E-4,0E0,7.1766117E-6,0E0,0E0,0E0,0E0,1.328098E-5,3.1526928E-5,0E0,0E0,0E0,0E0,3.0224528E-6,0E0,2.016162E-5,0E0,7.5280695E-7,6.532457E-6,0E0,0E0,0E0,0E0,0E0,0E0],"parents":[2147483647,0,0,1,1,2,2,3,3,4,4,5,5,6,6,7,7,8,8,9,9,11,11,13,13,15,15,16,16,18,18,23,23,24,24,29,29,31,31,34,34],"right_children":[2,4,6,8,10,12,14,16,18,20,-1,22,-1,24,-1,26,28,-1,30,-1,-1,-1,-1,32,34,-1,-1,-1,-1,36,-1,38,-1,-1,40,-1,-1,-1,-1,-1,-1],"split_conditions":[4E0,9.2E1,3.75E1,3.35E1,4E0,7.6E1,4E0,3.5E1,5.65E1,9.55E1,1.5581227E-2,1.65E1,-3.506613E-3,3.55E1,2.7942897E-3,4.45E1,7.5E0,5.040698E-4,1.45E1,7.6557756E-3,1.8379212E-3,4.126847E-4,-6.98036E-4,9.45E1,2.5E0,1.5391589E-3,-9.655953E-7,2.008331E-3,1.0772562E-2,1.05E1,1.779771E-3,8.65E1,9.7633305E-4,9.4278756E-4,1.5E0,8.445978E-4,1.08432774E-4,2.3225427E-3,3.5707356E-4,-1.980722E-4,3.470242E-4],"split_indices":[7,3,2,3,6,3,6,5,4,3,0,2,0,5,0,2,2,0,2,0,0,0,0,2,6,0,0,0,0,2,0,3,0,0,11,0,0,0,0,0,0],"split_type":[0,0,0,0,0,0,0,0,0,0,0,0,0,0,0,0,0,0,0,0,0,0,0,0,0,0,0,0,0,0,0,0,0,0,0,0,0,0,0,0,0],"sum_hessian":[6.1E1,2.4E1,3.7E1,1.8E1,6E0,4E0,3.3E1,5E0,1.3E1,4E0,2E0,3E0,1E0,2.8E1,5E0,2E0,3E0,7E0,6E0,1E0,3E0,2E0,1E0,1.1E1,1.7E1,1E0,1E0,1E0,2E0,3E0,3E0,4E0,7E0,1.1E1,6E0,2E0,1E0,3E0,1E0,3E0,3E0],"tree_param":{"num_deleted":"0","num_feature":"18","num_nodes":"41","size_leaf_vector":"0"}},{"base_weights":[6.8463213E-3,1.3159127E-2,2.512993E-3,7.4712476E-3,2.6717782E-2,-4.10496E-3,3.4123098E-3,1.7712912E-2,2.548303E-3,1.24748945E-2,4.155E-2,-1.6351044E-4,-9.935379E-3,2.5553128E-3,6.985744E-3,2.9054482E-3,2.439028E-2,1.2392104E-3,3.6803654E-3,2.1691322E-2,4.747957E-3,1.1004806E-3,-1.9777417E-3,3.7687223E-3,1.6044113E-3,4.360914E-3,-2.7418137E-6,5.690217E-3,2.8726896E-2,2.0075322E-3,5.2416325E-3,5.2046776E-3,2.4001598E-3,2.3676483E-3,3.5440922E-4,3.0720234E-4,2.355814E-3,5.9999824E-3,1.0117292E-3,2.0062923E-4,2.5642873E-3,9.751916E-4,-2.1309852E-4],"categories":[],"categories_nodes":[],"categories_segments":[],"categories_sizes":[],"default_left":[1,1,1,1,1,1,1,1,1,1,0,1,0,1,0,1,1,0,1,0,0,0,0,1,1,0,0,0,0,1,0,1,0,1,1,0,0,0,0,0,0,0,0],"id":20,"left_children":[1,3,5,7,9,11,13,15,17,19,-1,21,-1,23,-1,25,27,-1,29,-1,-1,-1,-1,31,33,-1,-1,-1,-1,35,-1,37,-1,39,41,-1,-1,-1,-1,-1,-1,-1,-1],"loss_changes":[1.66297E-3,1.7283848E-3,2.4016954E-4,9.128258E-4,9.6044317E-4,1.1327697E-4,8.627164E-5,5.223849E-4,1.6186903E-5,2.5308435E-4,0E0,1.1349154E-5,0E0,2.7414571E-5,0E0,1.271027E-5,1.6091764E-4,0E0,7.75943E-6,0E0,0E0,0E0,0E0,1.10902765E-5,1.6333743E-5,0E0,0E0,0E0,0E0,2.2372587E-6,0E0,1.0602991E-5,0E0,4.172849E-6,3.0262026E-6,0E0,0E0,0E0,0E0,0E0,0E0,0E0,0E0],"parents":[2147483647,0,0,1,1,2,2,3,3,4,4,5,5,6,6,7,7,8,8,9,9,11,11,13,13,15,15,16,16,18,18,23,23,24,24,29,29,31,31,33,33,34,34],"right_children":[2,4,6,8,10,12,14,16,18,20,-1,22,-1,24,-1,26,28,-1,30,-1,-1,-1,-1,32,34,-1,-1,-1,-1,36,-1,38,-1,40,42,-1,-1,-1,-1,-1,-1,-1,-1],"split_conditions":[4E0,9.2E1,3.75E1,3.35E1,4E0,7.6E1,4E0,3.5E1,5.65E1,9.55E1,1.2465E-2,1.65E1,-2.9806138E-3,3.55E1,2.0957233E-3,4.45E1,7.5E0,3.7176313E-4,7.4E1,6.507397E-3,1.4243871E-3,3.301442E-4,-5.9332256E-4,9.45E1,6.15E1,1.3082743E-3,-8.225441E-7,1.7070652E-3,8.618069E-3,6.55E1,1.5724899E-3,8.65E1,7.20048E-4,4.75E1,2.5E0,9.2160706E-5,7.067442E-4,1.7999947E-3,3.0351878E-4,6.0188773E-5,7.6928624E-4,2.925575E-4,-6.392956E-5],"split_indices":[7,3,2,3,6,3,6,5,4,3,0,2,0,5,0,2,2,0,3,0,0,0,0,2,3,0,0,0,0,4,0,3,0,2,6,0,0,0,0,0,0,0,0],"split_type":[0,0,0,0,0,0,0,0,0,0,0,0,0,0,0,0,0,0,0,0,0,0,0,0,0,0,0,0,0,0,0,0,0,0,0,0,0,0,0,0,0,0,0],"sum_hessian":[6.1E1,2.4E1,3.7E1,1.8E1,6E0,4E0,3.3E1,5E0,1.3E1,4E0,2E0,3E0,1E0,2.8E1,5E0,2E0,3E0,7E0,6E0,1E0,3E0,2E0,1E0,1.1E1,1.7E1,1E0,1E0,1E0,2E0,4E0,2E0,4E0,7E0,1E1,7E0,1E0,3E0,3E0,1E0,1E0,9E0,3E0,4E0],"tree_param":{"num_deleted":"0","num_feature":"18","num_nodes":"43","size_leaf_vector":"0"}},{"base_weights":[5.3973584E-3,1.25181675E-2,2.6484209E-3,4.36824E-3,2.3536887E-2,9.178281E-3,2.2993512E-3,-8.191541E-4,1.3650969E-2,3.7576973E-2,3.612578E-3,1.6489908E-3,5.1011443E-3,1.4767051E-3,-8.445084E-3,5.909542E-3,1.8437624E-2,2.6112795E-4,4.6426854E-3,-1.6810894E-3,1.7844278E-3,9.799004E-4,5.5499077E-3,2.086252E-3,4.979819E-4,2.6520032E-3,1.2619114E-3,6.7543983E-4,3.1774282E-3,1.8763277E-3,8.624021E-4],"categories":[],"categories_nodes":[],"categories_segments":[],"categories_sizes":[],"default_left":[1,1,1,1,1,0,1,1,1,0,1,1,1,1,0,0,0,0,0,0,1,0,0,0,0,1,1,0,0,0,0],"id":21,"left_children":[1,3,5,7,9,-1,11,13,15,-1,17,19,21,23,-1,-1,-1,-1,-1,-1,25,-1,-1,-1,-1,27,29,-1,-1,-1,-1],"loss_changes":[1.1804755E-3,1.423815E-3,8.374723E-5,5.408671E-4,1.8224234E-3,0E0,7.358614E-5,1.5253539E-4,3.926427E-5,0E0,1.2597076E-5,2.0138403E-5,9.357362E-6,3.1371292E-6,0E0,0E0,0E0,0E0,0E0,0E0,1.3426325E-5,0E0,0E0,0E0,0E0,1.13548085E-5,4.5184715E-6,0E0,0E0,0E0,0E0],"parents":[2147483647,0,0,1,1,2,2,3,3,4,4,6,6,7,7,8,8,10,10,11,11,12,12,13,13,20,20,25,25,26,26],"right_children":[2,4,6,8,10,-1,12,14,16,-1,18,20,22,24,-1,-1,-1,-1,-1,-1,26,-1,-1,-1,-1,28,30,-1,-1,-1,-1],"split_conditions":[2.35E1,4E0,1.65E1,1.15E1,5.25E1,2.7534843E-3,4E0,7.5E0,1.95E1,1.1273093E-2,4.45E1,3.75E1,3.1E1,4.45E1,-2.5335252E-3,1.7728627E-3,5.5312873E-3,7.833839E-5,1.3928057E-3,-5.0432683E-4,3.55E1,2.939701E-4,1.6649724E-3,6.258756E-4,1.4939457E-4,2.2E1,4.1E1,2.0263196E-4,9.532285E-4,5.6289835E-4,2.5872063E-4],"split_indices":[2,8,4,2,4,0,6,2,2,0,5,2,2,5,0,0,0,0,0,0,5,0,0,0,0,5,3,0,0,0,0],"split_type":[0,0,0,0,0,0,0,0,0,0,0,0,0,0,0,0,0,0,0,0,0,0,0,0,0,0,0,0,0,0,0],"sum_hessian":[6.1E1,1.6E1,4.5E1,1E1,6E0,1E0,4.4E1,7E0,3E0,3E0,3E0,3.7E1,7E0,6E0,1E0,2E0,1E0,1E0,2E0,1E0,3.6E1,1E0,6E0,3E0,3E0,1.2E1,2.4E1,3E0,9E0,8E0,1.6E1],"tree_param":{"num_deleted":"0","num_feature":"18","num_nodes":"31","size_leaf_vector":"0"}},{"base_weights":[4.172927E-3,8.440821E-3,1.2552879E-3,4.7600553E-3,1.722564E-2,-3.0696988E-3,1.8543951E-3,1.145653E-2,1.5501337E-3,6.144941E-4,1.9891748E-2,-2.4797022E-4,-7.1783066E-3,1.3772085E-3,3.8517315E-3,1.8469492E-3,1.5799582E-2,2.9659867E-3,8.9435687E-4,2.3229754E-2,1.6008615E-3,6.2197447E-4,-1.4289021E-3,2.1514695E-3,7.8452297E-4,2.874136E-3,-1.0371208E-4,4.140258E-3,1.8305937E-2,3.815323E-3,2.712953E-2,2.8400081E-3,9.89596E-4,1.1621622E-3,-1.6444921E-4,4.019022E-3,1.5645981E-3,-1.1086464E-4,1.2318611E-3,1.8618504E-3,4.9212575E-4,4.425943E-4,-9.1902417E-4],"categories":[],"categories_nodes":[],"categories_segments":[],"categories_sizes":[],"default_left":[1,1,1,1,1,1,1,1,1,0,1,1,0,1,0,1,1,0,0,1,0,0,0,1,1,0,0,0,0,0,0,1,1,1,1,0,0,0,0,0,0,0,0],"id":22,"left_children":[1,3,5,7,9,11,13,15,17,-1,19,21,-1,23,-1,25,27,-1,-1,29,-1,-1,-1,31,33,-1,-1,-1,-1,-1,-1,35,37,39,41,-1,-1,-1,-1,-1,-1,-1,-1],"loss_changes":[7.614392E-4,7.263764E-4,1.041554E-4,3.906488E-4,2.9778667E-4,5.6186873E-5,2.710084E-5,2.2122846E-4,1.0346121E-5,0E0,3.291429E-4,4.998122E-6,0E0,1.1620032E-5,0E0,6.309164E-6,4.109845E-5,8.651514E-7,1.9973322E-7,2.750517E-4,0E0,1.4526711E-7,0E0,6.789469E-6,6.6417597E-6,0E0,0E0,0E0,0E0,0E0,0E0,4.2379324E-6,1.7361895E-6,5.178352E-6,3.1551135E-6,0E0,0E0,0E0,0E0,0E0,0E0,0E0,0E0],"parents":[2147483647,0,0,1,1,2,2,3,3,4,4,5,5,6,6,7,7,8,8,10,10,11,11,13,13,15,15,16,16,19,19,23,23,24,24,31,31,32,32,33,33,34,34],"right_children":[2,4,6,8,10,12,14,16,18,-1,20,22,-1,24,-1,26,28,-1,-1,30,-1,-1,-1,32,34,-1,-1,-1,-1,-1,-1,36,38,40,42,-1,-1,-1,-1,-1,-1,-1,-1],"split_conditions":[4E0,9.2E1,3.75E1,3.35E1,4.5E0,7.6E1,4E0,3.5E1,3.45E1,1.8434823E-4,5.5E1,1.65E1,-2.153492E-3,4.7E1,1.1555195E-3,4.45E1,7.5E0,8.8979607E-4,2.6830708E-4,1.55E1,4.802585E-4,1.8659236E-4,-4.2867067E-4,1.5E0,4.25E1,8.6224085E-4,-3.1113625E-5,1.2420774E-3,5.491781E-3,1.144597E-3,8.13886E-3,3.65E1,5.5E1,6E1,8.75E1,1.2057066E-3,4.6937945E-4,-3.325939E-5,3.6955834E-4,5.585551E-4,1.4763774E-4,1.327783E-4,-2.7570725E-4],"split_indices":[7,3,2,3,2,3,6,5,5,0,2,2,0,3,0,2,2,0,0,4,0,0,0,11,5,0,0,0,0,0,0,5,2,4,2,0,0,0,0,0,0,0,0],"split_type":[0,0,0,0,0,0,0,0,0,0,0,0,0,0,0,0,0,0,0,0,0,0,0,0,0,0,0,0,0,0,0,0,0,0,0,0,0,0,0,0,0,0,0],"sum_hessian":[6.1E1,2.4E1,3.7E1,1.8E1,6E0,4E0,3.3E1,5E0,1.3E1,1E0,5E0,3E0,1E0,2.8E1,5E0,2E0,3E0,3E0,1E1,4E0,1E0,2E0,1E0,1.1E1,1.7E1,1E0,1E0,1E0,2E0,1E0,3E0,6E0,5E0,1.2E1,5E0,2E0,4E0,1E0,4E0,5E0,7E0,3E0,2E0],"tree_param":{"num_deleted":"0","num_feature":"18","num_nodes":"43","size_leaf_vector":"0"}},{"base_weights":[3.2437444E-3,7.865008E-3,1.4653698E-3,2.652526E-3,1.4932479E-2,2.2593087E-3,7.0808886E-4,-7.7196956E-4,8.838385E-3,2.3679972E-2,2.4518669E-3,4.984061E-3,1.7376303E-3,-1.2145638E-3,8.388062E-4,8.610487E-4,-6.1015487E-3,4.0495E-3,1.1602521E-2,8.779764E-5,3.210624E-3,1.1288478E-3,2.5096983E-3,1.3347963E-3,3.1644566E-4,1.301676E-3,2.0515919E-4,-1.21593475E-4,1.3672546E-3,3.0948122E-3,5.0290424E-4,2.7489662E-3,7.7706575E-4,4.3472648E-4,-5.514622E-4,1.5916079E-3,5.7673454E-4,3.4164905E-3,7.432103E-4,2.053827E-4,2.042532E-3],"categories":[],"categories_nodes":[],"categories_segments":[],"categories_sizes":[],"default_left":[1,1,1,1,1,1,1,1,1,0,1,0,1,0,1,1,0,0,0,0,0,1,1,1,1,0,0,0,1,1,0,0,1,0,0,0,0,0,0,0,0],"id":23,"left_children":[1,3,5,7,9,11,13,15,17,-1,19,-1,21,-1,23,25,-1,-1,-1,-1,-1,27,29,31,33,-1,-1,-1,35,37,-1,-1,39,-1,-1,-1,-1,-1,-1,-1,-1],"loss_changes":[4.980118E-4,5.8665546E-4,2.6057009E-5,2.3984088E-4,7.061581E-4,2.2611326E-5,7.3018864E-6,7.4880125E-5,5.9641025E-6,0E0,6.893135E-6,0E0,6.5673594E-6,0E0,5.795666E-6,1.7559692E-6,0E0,0E0,0E0,0E0,0E0,4.041727E-6,7.837229E-6,7.328581E-6,1.5742745E-6,0E0,5.4840186E-8,0E0,1.0329786E-6,1.999586E-6,0E0,0E0,6.8149548E-6,7.040901E-7,0E0,0E0,0E0,0E0,0E0,0E0,0E0],"parents":[2147483647,0,0,1,1,2,2,3,3,4,4,5,5,6,6,7,7,8,8,10,10,12,12,14,14,15,15,21,21,22,22,23,23,24,24,28,28,29,29,32,32],"right_children":[2,4,6,8,10,12,14,16,18,-1,20,-1,22,-1,24,26,-1,-1,-1,-1,-1,28,30,32,34,-1,-1,-1,36,38,-1,-1,40,-1,-1,-1,-1,-1,-1,-1,-1],"split_conditions":[2.35E1,4E0,5.55E1,1.15E1,5.25E1,1.85E1,1.8E1,7.5E0,1.95E1,7.1039917E-3,4.45E1,1.4952183E-3,4E0,-3.6436916E-4,9.1E1,4.45E1,-1.8304647E-3,1.21485E-3,3.4807564E-3,2.6339294E-5,9.6318725E-4,3.05E1,2E0,4.1E1,6E1,3.9050283E-4,6.154776E-5,-3.6478043E-5,4.1E1,7.65E1,1.5087127E-4,8.246899E-4,8.9E1,1.3041795E-4,-1.6543866E-4,4.774824E-4,1.7302037E-4,1.0249472E-3,2.229631E-4,6.161482E-5,6.127596E-4],"split_indices":[2,8,3,2,4,4,4,2,2,0,5,0,8,0,2,5,0,0,0,0,0,4,11,4,5,0,0,0,3,4,0,0,2,0,0,0,0,0,0,0,0],"split_type":[0,0,0,0,0,0,0,0,0,0,0,0,0,0,0,0,0,0,0,0,0,0,0,0,0,0,0,0,0,0,0,0,0,0,0,0,0,0,0,0,0],"sum_hessian":[6.1E1,1.6E1,4.5E1,1E1,6E0,2.1E1,2.4E1,7E0,3E0,3E0,3E0,2E0,1.9E1,1E0,2.3E1,6E0,1E0,2E0,1E0,1E0,2E0,1.2E1,7E0,1.1E1,1.2E1,3E0,3E0,2E0,1E1,5E0,2E0,2E0,9E0,1.1E1,1E0,7E0,3E0,4E0,1E0,7E0,2E0],"tree_param":{"num_deleted":"0","num_feature":"18","num_nodes":"41","size_leaf_vector":"0"}},{"base_weights":[2.5289992E-3,5.2929614E-3,6.4405013E-4,3.046133E-3,1.0635359E-2,-2.279353E-3,1.0550198E-3,7.521987E-3,9.10329E-4,3.270507E-4,1.2298902E-2,-2.5603175E-4,-5.1863194E-3,7.87476E-4,2.172311E-3,1.2404919E-3,1.0352612E-2,1.8818974E-3,4.7427416E-4,1.4336919E-2,1.0544062E-3,3.468593E-4,-1.0323524E-3,2.1963913E-3,6.0176407E-4,1.9307137E-3,-6.997585E-5,3.037572E-3,1.1778434E-2,2.270937E-3,3.5738945E-4,2.6355982E-3,1.660335E-2,2.7900934E-3,5.044937E-4,8.247826E-4,1.4015436E-4,1.1539102E-3,3.6744276E-4,5.508065E-4,-3.806591E-4],"categories":[],"categories_nodes":[],"categories_segments":[],"categories_sizes":[],"default_left":[1,1,1,1,1,1,1,1,1,0,1,1,0,1,0,1,1,1,0,1,0,0,0,1,1,0,0,0,0,0,0,0,0,0,0,1,1,0,0,0,0],"id":24,"left_children":[1,3,5,7,9,11,13,15,17,-1,19,21,-1,23,-1,25,27,29,-1,31,-1,-1,-1,33,35,-1,-1,-1,-1,-1,-1,-1,-1,-1,-1,37,39,-1,-1,-1,-1],"loss_changes":[3.196066E-4,2.6768952E-4,4.805909E-5,1.747839E-4,1.160159E-4,2.8080773E-5,8.452786E-6,9.3840994E-5,5.0386643E-6,0E0,1.223819E-4,2.2302283E-6,0E0,6.266211E-6,0E0,2.8486438E-6,5.9419544E-6,1.5607666E-6,2.4371798E-7,8.884142E-5,0E0,1.5516207E-7,0E0,1.6058648E-6,2.6639864E-6,0E0,0E0,0E0,0E0,0E0,0E0,0E0,0E0,0E0,0E0,2.285421E-6,2.3484013E-6,0E0,0E0,0E0,0E0],"parents":[2147483647,0,0,1,1,2,2,3,3,4,4,5,5,6,6,7,7,8,8,10,10,11,11,13,13,15,15,16,16,17,17,19,19,23,23,24,24,35,35,36,36],"right_children":[2,4,6,8,10,12,14,16,18,-1,20,22,-1,24,-1,26,28,30,-1,32,-1,-1,-1,34,36,-1,-1,-1,-1,-1,-1,-1,-1,-1,-1,38,40,-1,-1,-1,-1],"split_conditions":[4E0,9.2E1,3.75E1,3.35E1,4.5E0,7.6E1,4E0,3.5E1,3.45E1,9.811521E-5,5.5E1,1.65E1,-1.5558959E-3,1.35E1,6.516933E-4,4.45E1,7.5E0,2.1E1,1.4228225E-4,1.55E1,3.1632185E-4,1.040578E-4,-3.0970573E-4,1.045E2,4.25E1,5.7921413E-4,-2.0992757E-5,9.112716E-4,3.5335303E-3,6.812811E-4,1.0721684E-4,7.906795E-4,4.9810056E-3,8.370281E-4,1.5134813E-4,6E1,2.5E0,3.4617307E-4,1.1023283E-4,1.6524196E-4,-1.1419773E-4],"split_indices":[7,3,2,3,2,3,6,5,5,0,2,2,0,3,0,2,2,2,0,4,0,0,0,2,5,0,0,0,0,0,0,0,0,0,0,4,6,0,0,0,0],"split_type":[0,0,0,0,0,0,0,0,0,0,0,0,0,0,0,0,0,0,0,0,0,0,0,0,0,0,0,0,0,0,0,0,0,0,0,0,0,0,0,0,0],"sum_hessian":[6.1E1,2.4E1,3.7E1,1.8E1,6E0,4E0,3.3E1,5E0,1.3E1,1E0,5E0,3E0,1E0,2.8E1,5E0,2E0,3E0,3E0,1E1,4E0,1E0,2E0,1E0,2E0,2.6E1,1E0,1E0,1E0,2E0,2E0,1E0,1E0,3E0,1E0,1E0,1.7E1,9E0,9E0,8E0,5E0,4E0],"tree_param":{"num_deleted":"0","num_feature":"18","num_nodes":"41","size_leaf_vector":"0"}},{"base_weights":[1.9719813E-3,4.9496116E-3,8.286834E-4,1.5974696E-3,9.510176E-3,1.3024862E-3,3.7858964E-4,-6.772205E-4,5.747482E-3,1.4978111E-2,1.6646981E-3,2.5920868E-3,1.0439217E-3,1.2538307E-4,1.0117803E-3,4.85565E-4,-4.4083595E-3,3.4570694E-6,2.2172928E-3,6.2936085E-4,1.5870929E-3,-1.8610556E-4,5.7694316E-4,1.9370714E-3,2.5424958E-4,-5.221367E-5,7.580302E-4,1.9536417E-3,3.2496452E-4,5.7196616E-5,-9.3507767E-4,-1.7434359E-5,9.3705655E-4,2.6750565E-3,9.2417E-4,1.342535E-3,2.1922588E-4],"categories":[],"categories_nodes":[],"categories_segments":[],"categories_sizes":[],"default_left":[1,1,1,1,1,1,1,1,0,0,1,0,1,1,1,0,0,0,0,1,1,1,1,0,0,0,0,1,0,0,0,0,1,0,0,0,0],"id":25,"left_children":[1,3,5,7,9,11,13,15,-1,-1,17,-1,19,21,23,-1,-1,-1,-1,25,27,29,31,-1,-1,-1,-1,33,-1,-1,-1,-1,35,-1,-1,-1,-1],"loss_changes":[2.0696608E-4,2.4469802E-4,9.316649E-6,1.0773222E-4,2.7535594E-4,4.629852E-6,3.8813414E-6,3.6848658E-5,0E0,0E0,3.664306E-6,0E0,3.5046942E-6,2.7798333E-6,4.4140565E-6,9.581598E-7,0E0,0E0,0E0,1.1796501E-6,3.0661886E-6,2.2402019E-6,1.7286834E-6,0E0,2.8548283E-7,0E0,1.7529965E-7,1.983848E-6,0E0,5.804036E-7,0E0,2.2505997E-8,1.1610059E-6,0E0,0E0,0E0,0E0],"parents":[2147483647,0,0,1,1,2,2,3,3,4,4,5,5,6,6,7,7,10,10,12,12,13,13,14,14,19,19,20,20,21,21,22,22,27,27,32,32],"right_children":[2,4,6,8,10,12,14,16,-1,-1,18,-1,20,22,24,-1,-1,-1,-1,26,28,30,32,-1,-1,-1,-1,34,-1,-1,-1,-1,36,-1,-1,-1,-1],"split_conditions":[2.35E1,4E0,5.55E1,1.15E1,5.25E1,1.85E1,1.5E0,7.5E0,1.7242447E-3,4.4934335E-3,4.45E1,7.7762606E-4,4E0,8E1,2.5E0,1.456695E-4,-1.3225079E-3,1.0371209E-6,6.6518784E-4,3.05E1,2E0,7.35E1,2.5E0,5.811215E-4,7.6274875E-5,-1.5664102E-5,2.2740908E-4,8.35E1,9.748936E-5,1.7158985E-5,-2.8052332E-4,-5.2303076E-6,1.02E2,8.02517E-4,2.77251E-4,4.0276052E-4,6.576777E-5],"split_indices":[2,8,3,2,4,4,11,2,0,0,5,0,8,3,8,0,0,0,0,4,11,3,8,0,0,0,0,2,0,0,0,0,3,0,0,0,0],"split_type":[0,0,0,0,0,0,0,0,0,0,0,0,0,0,0,0,0,0,0,0,0,0,0,0,0,0,0,0,0,0,0,0,0,0,0,0,0],"sum_hessian":[6.1E1,1.6E1,4.5E1,1E1,6E0,2.1E1,2.4E1,7E0,3E0,3E0,3E0,2E0,1.9E1,1.8E1,6E0,6E0,1E0,1E0,2E0,1.2E1,7E0,1.1E1,7E0,2E0,4E0,2E0,1E1,5E0,2E0,9E0,2E0,3E0,4E0,2E0,3E0,2E0,2E0],"tree_param":{"num_deleted":"0","num_feature":"18","num_nodes":"37","size_leaf_vector":"0"}},{"base_weights":[1.5212086E-3,3.270521E-3,3.3031325E-4,5.11149E-3,8.501808E-4,-1.685524E-3,6.170448E-4,1.1135638E-4,6.4650397E-3,1.670301E-3,3.912184E-4,-2.3335218E-4,-3.7471056E-3,4.5847482E-4,1.2806257E-3,9.837759E-3,3.1323773E-3,-5.1617622E-5,2.2614796E-3,3.8295984E-4,-5.664428E-4,1.5235742E-3,3.231499E-4,1.1608124E-2,1.3781488E-3,8.8176725E-4,5.839268E-3,5.716411E-4,1.4335268E-4,9.336074E-4,1.14401184E-4,4.1452647E-4,-2.1353364E-4],"categories":[],"categories_nodes":[],"categories_segments":[],"categories_sizes":[],"default_left":[1,1,1,1,1,1,1,0,1,1,0,1,0,1,0,1,1,0,0,0,0,0,1,0,0,0,0,1,1,0,0,0,0],"id":26,"left_children":[1,3,5,7,9,11,13,-1,15,17,-1,19,-1,21,-1,23,25,-1,-1,-1,-1,-1,27,-1,-1,-1,-1,29,31,-1,-1,-1,-1],"loss_changes":[1.280811E-4,1.070486E-4,2.30042E-5,9.403104E-5,3.8634E-6,1.4094458E-5,2.9904822E-6,1.5711103E-7,9.282594E-5,4.1885805E-6,4.373005E-7,1.0380759E-6,0E0,3.6875567E-6,3.8260805E-7,5.8885256E-5,3.749622E-5,0E0,0E0,0E0,1.4977627E-7,9.987975E-7,1.1243603E-6,0E0,0E0,6.139462E-7,0E0,1.713754E-6,1.7337447E-6,0E0,0E0,0E0,0E0],"parents":[2147483647,0,0,1,1,2,2,3,3,4,4,5,5,6,6,8,8,9,9,11,11,13,13,15,15,16,16,22,22,27,27,28,28],"right_children":[2,4,6,8,10,12,14,-1,16,18,-1,20,-1,22,-1,24,26,-1,-1,-1,-1,-1,28,-1,-1,-1,-1,30,32,-1,-1,-1,-1],"split_conditions":[4E0,2.35E1,3.75E1,5E0,4.1E1,7.6E1,4E0,3.3406915E-5,5.25E1,2E1,1.17365526E-4,5.95E1,-1.1241317E-3,1.35E1,3.8418773E-4,1.6E1,8.45E1,-1.5485288E-5,6.7844393E-4,1.1488796E-4,-1.6993284E-4,4.5707228E-4,3.55E1,3.4824372E-3,4.1344465E-4,2.645302E-4,1.7517805E-3,6E1,6.15E1,2.8008223E-4,3.4320357E-5,1.2435795E-4,-6.406009E-5],"split_indices":[7,2,2,2,3,3,6,0,4,5,0,3,0,3,0,2,4,0,0,0,0,0,5,0,0,0,0,4,3,0,0,0,0],"split_type":[0,0,0,0,0,0,0,0,0,0,0,0,0,0,0,0,0,0,0,0,0,0,0,0,0,0,0,0,0,0,0,0,0],"sum_hessian":[6.1E1,2.4E1,3.7E1,1.3E1,1.1E1,4E0,3.3E1,3E0,1E1,3E0,8E0,3E0,1E0,2.8E1,5E0,4E0,6E0,1E0,2E0,1E0,2E0,2E0,2.6E1,3E0,1E0,4E0,2E0,1E1,1.6E1,5E0,5E0,9E0,7E0],"tree_param":{"num_deleted":"0","num_feature":"18","num_nodes":"33","size_leaf_vector":"0"}},{"base_weights":[1.1739096E-3,2.5584078E-3,2.3216323E-4,4.00275E-3,6.601413E-4,-1.4157057E-3,4.6766855E-4,8.632243E-5,5.063019E-3,1.8131733E-3,3.904863E-4,-1.771152E-4,-3.1850338E-3,6.9708825E-4,1.3059775E-4,7.66567E-3,2.4806943E-3,1.391697E-3,4.36455E-4,3.927052E-4,-1.4783442E-4,8.996367E-3,1.1714399E-3,1.0162791E-3,5.6335926E-3,1.6554594E-3,1.6832352E-4,1.6923745E-4,9.904861E-4,9.985765E-5,1.4495254E-3],"categories":[],"categories_nodes":[],"categories_segments":[],"categories_sizes":[],"default_left":[1,1,1,1,1,1,1,0,1,0,0,0,0,1,1,1,1,1,1,0,0,0,0,1,0,0,0,0,0,0,0],"id":27,"left_children":[1,3,5,7,9,11,13,-1,15,-1,-1,-1,-1,17,19,21,23,25,27,-1,-1,-1,-1,29,-1,-1,-1,-1,-1,-1,-1],"loss_changes":[8.02445E-5,6.590127E-5,1.5409194E-5,5.7697485E-5,3.0230308E-6,1.0393247E-5,2.5382046E-6,1.5612588E-7,5.4913602E-5,0E0,9.775231E-7,8.4401705E-7,0E0,3.0133488E-6,1.1527425E-6,3.2670563E-5,2.6594767E-5,1.3347471E-6,2.2011218E-6,2.9807597E-7,5.755875E-7,0E0,0E0,2.2374716E-6,0E0,0E0,0E0,7.1852037E-7,7.336348E-7,0E0,0E0],"parents":[2147483647,0,0,1,1,2,2,3,3,4,4,5,5,6,6,8,8,13,13,14,14,15,15,16,16,17,17,18,18,23,23],"right_children":[2,4,6,8,10,12,14,-1,16,-1,-1,-1,-1,18,20,22,24,26,28,-1,-1,-1,-1,30,-1,-1,-1,-1,-1,-1,-1],"split_conditions":[4E0,2.35E1,3.75E1,5E0,2.6E1,7.6E1,9.15E1,2.5896728E-5,5.25E1,5.43952E-4,1.1714589E-4,-5.313456E-5,-9.555102E-4,3.6E1,5.55E1,1.6E1,1.9E1,8.65E1,4E0,1.1781156E-4,-4.4350327E-5,2.6989104E-3,3.5143198E-4,6.55E1,1.6900778E-3,4.9663783E-4,5.0497056E-5,5.0771236E-5,2.9714586E-4,2.9957297E-5,4.3485762E-4],"split_indices":[7,2,2,2,3,3,2,0,4,0,0,0,0,5,3,2,2,3,6,0,0,0,0,4,0,0,0,0,0,0,0],"split_type":[0,0,0,0,0,0,0,0,0,0,0,0,0,0,0,0,0,0,0,0,0,0,0,0,0,0,0,0,0,0,0],"sum_hessian":[6.1E1,2.4E1,3.7E1,1.3E1,1.1E1,4E0,3.3E1,3E0,1E1,1E0,1E1,3E0,1E0,1.9E1,1.4E1,4E0,6E0,4E0,1.5E1,7E0,7E0,3E0,1E0,5E0,1E0,3E0,1E0,1.1E1,4E0,2E0,3E0],"tree_param":{"num_deleted":"0","num_feature":"18","num_nodes":"31","size_leaf_vector":"0"}},{"base_weights":[9.161263E-4,2.0265626E-3,1.6146741E-4,3.1755737E-3,5.1716965E-4,-1.1927247E-3,3.5586426E-4,6.6921115E-5,4.017304E-3,1.5411377E-3,2.839782E-4,2.3414691E-4,-2.2220213E-3,7.0186093E-4,1.8245478E-4,5.976045E-3,2.044303E-3,-4.4782955E-5,5.6540966E-4,1.4111996E-4,1.0021244E-3,6.9721937E-3,9.957254E-4,7.888476E-4,4.788518E-3,1.6961098E-3,3.8530826E-4,7.9870224E-5,1.1233687E-3],"categories":[],"categories_nodes":[],"categories_segments":[],"categories_sizes":[],"default_left":[1,1,1,1,1,1,1,0,1,0,1,0,0,1,0,1,1,0,0,0,1,0,0,1,0,0,0,0,0],"id":28,"left_children":[1,3,5,7,9,11,13,-1,15,-1,17,-1,-1,19,-1,21,23,-1,-1,-1,25,-1,-1,27,-1,-1,-1,-1,-1],"loss_changes":[5.162882E-5,4.1715415E-5,1.0427974E-5,3.6364232E-5,2.4277174E-6,7.86365E-6,1.9119116E-6,1.5472378E-7,3.0293726E-5,0E0,1.043082E-6,8.341229E-8,6.299115E-7,1.7106504E-6,8.02972E-7,1.786329E-5,2.0339266E-5,1.6509252E-7,8.4523344E-7,1.2361352E-7,2.3429047E-6,0E0,0E0,1.3332838E-6,0E0,0E0,2.1467542E-7,0E0,0E0],"parents":[2147483647,0,0,1,1,2,2,3,3,4,4,5,5,6,6,8,8,10,10,13,13,15,15,16,16,20,20,23,23],"right_children":[2,4,6,8,10,12,14,-1,16,-1,18,-1,-1,20,-1,22,24,-1,-1,-1,26,-1,-1,28,-1,-1,-1,-1,-1],"split_conditions":[4E0,2.35E1,3.75E1,5E0,2.6E1,4.5E0,8.25E1,2.0076335E-5,5.25E1,4.6234133E-4,3.85E1,7.0244074E-5,-6.666064E-4,5.75E1,5.4736436E-5,1.6E1,1.9E1,-1.34348875E-5,1.696229E-4,4.233599E-5,5.4E1,2.0916583E-3,2.9871764E-4,6.55E1,1.4365554E-3,5.08833E-4,1.15592484E-4,2.3961069E-5,3.3701063E-4],"split_indices":[7,2,2,2,3,2,2,0,4,0,4,0,0,2,0,2,2,0,0,0,5,0,0,4,0,0,0,0,0],"split_type":[0,0,0,0,0,0,0,0,0,0,0,0,0,0,0,0,0,0,0,0,0,0,0,0,0,0,0,0,0],"sum_hessian":[6.1E1,2.4E1,3.7E1,1.3E1,1.1E1,4E0,3.3E1,3E0,1E1,1E0,1E1,2E0,2E0,1E1,2.3E1,4E0,6E0,5E0,5E0,4E0,6E0,3E0,1E0,5E0,1E0,2E0,4E0,2E0,3E0],"tree_param":{"num_deleted":"0","num_feature":"18","num_nodes":"29","size_leaf_vector":"0"}},{"base_weights":[7.211162E-4,1.6116143E-3,1.16285526E-4,2.5234222E-3,4.1353703E-4,-1.1637509E-3,2.5925296E-4,5.1870942E-5,3.192766E-3,9.856224E-4,1.133283E-4,-2.3739934E-3,3.0994415E-5,6.6330034E-4,1.6980171E-4,1.4140308E-3,4.439374E-3,-9.572506E-5,1.3779799E-3,5.670071E-5,6.127556E-4,2.9858947E-4,2.4299424E-3,5.2263737E-3,2.5218725E-4,4.334847E-4,-5.916953E-5,6.039202E-3,9.875298E-4],"categories":[],"categories_nodes":[],"categories_segments":[],"categories_sizes":[],"default_left":[1,1,1,1,1,1,1,0,1,1,0,0,0,0,1,1,1,0,0,1,0,0,0,1,0,0,0,0,0],"id":29,"left_children":[1,3,5,7,9,11,13,-1,15,17,-1,-1,-1,-1,19,21,23,-1,-1,25,-1,-1,-1,27,-1,-1,-1,-1,-1],"loss_changes":[3.3205826E-5,2.6266884E-5,7.2558396E-6,2.2994835E-5,1.949241E-6,5.8573064E-6,1.1523593E-6,1.5322347E-7,1.8113831E-5,1.8290066E-6,4.0126343E-7,0E0,5.635053E-8,7.9681286E-7,1.4682125E-6,6.073583E-6,1.8453859E-5,0E0,0E0,1.1171004E-6,6.68897E-7,4.4948106E-7,0E0,1.1263386E-5,0E0,2.682849E-7,3.7958213E-7,0E0,0E0],"parents":[2147483647,0,0,1,1,2,2,3,3,4,4,5,5,6,6,8,8,9,9,14,14,15,15,16,16,19,19,23,23],"right_children":[2,4,6,8,10,12,14,-1,16,18,-1,-1,-1,-1,20,22,24,-1,-1,26,-1,-1,-1,28,-1,-1,-1,-1,-1],"split_conditions":[4E0,2.35E1,2.15E1,5E0,4.1E1,6E1,2E1,1.5561283E-5,3.55E1,2E1,3.399849E-5,-7.1219803E-4,9.298325E-6,1.989901E-4,4E0,1E2,2.5E0,-2.8717519E-5,4.1339398E-4,2.95E1,1.8382669E-4,8.9576846E-5,7.2898273E-4,9.85E1,7.565618E-5,1.3004542E-4,-1.7750861E-5,1.8117607E-3,2.9625895E-4],"split_indices":[7,2,5,2,3,2,3,0,5,5,0,0,0,0,6,3,10,0,0,5,0,0,0,4,0,0,0,0,0],"split_type":[0,0,0,0,0,0,0,0,0,0,0,0,0,0,0,0,0,0,0,0,0,0,0,0,0,0,0,0,0],"sum_hessian":[6.1E1,2.4E1,3.7E1,1.3E1,1.1E1,3E0,3.4E1,3E0,1E1,3E0,8E0,1E0,2E0,5E0,2.9E1,5E0,5E0,1E0,2E0,2.4E1,5E0,3E0,2E0,4E0,1E0,5E0,1.9E1,3E0,1E0],"tree_param":{"num_deleted":"0","num_feature":"18","num_nodes":"29","size_leaf_vector":"0"}},{"base_weights":[5.568141E-4,1.2655472E-3,7.5889264E-5,1.9819099E-3,3.2432875E-4,-9.90361E-4,1.9557816E-4,4.018843E-5,2.5078168E-3,1.103282E-3,1.5321645E-4,-2.0179152E-3,2.4795532E-5,1.1262099E-3,3.471454E-3,3.7784578E-4,2.4340153E-3,4.0800096E-3,2.143383E-4,4.6803355E-3,8.393526E-4],"categories":[],"categories_nodes":[],"categories_segments":[],"categories_sizes":[],"default_left":[1,1,1,1,1,1,0,0,1,0,0,0,0,1,1,0,0,1,0,0,0],"id":30,"left_children":[1,3,5,7,9,11,-1,-1,13,-1,-1,-1,-1,15,17,-1,-1,19,-1,-1,-1],"loss_changes":[2.10365E-5,1.6213551E-5,5.043189E-6,1.4195521E-5,1.4304206E-6,4.222549E-6,7.9220536E-7,1.5187834E-7,1.0735457E-5,0E0,5.981856E-7,0E0,5.6609906E-8,4.9526047E-6,1.101831E-5,6.8009473E-7,0E0,5.7988E-6,0E0,0E0,0E0],"parents":[2147483647,0,0,1,1,2,2,3,3,4,4,5,5,8,8,13,13,14,14,17,17],"right_children":[2,4,6,8,10,12,-1,-1,14,-1,-1,-1,-1,16,18,-1,-1,20,-1,-1,-1],"split_conditions":[4E0,2.35E1,2.15E1,5E0,2.6E1,6E1,5.867345E-5,1.205653E-5,3.55E1,3.309846E-4,4.5964935E-5,-6.053746E-4,7.43866E-6,1.11E2,2.5E0,1.1335374E-4,7.302046E-4,9.85E1,6.4301494E-5,1.4041007E-3,2.518058E-4],"split_indices":[7,2,5,2,3,2,0,0,5,0,0,0,0,3,10,0,0,4,0,0,0],"split_type":[0,0,0,0,0,0,0,0,0,0,0,0,0,0,0,0,0,0,0,0,0],"sum_hessian":[6.1E1,2.4E1,3.7E1,1.3E1,1.1E1,3E0,3.4E1,3E0,1E1,1E0,1E1,1E0,2E0,5E0,5E0,4E0,1E0,4E0,1E0,3E0,1E0],"tree_param":{"num_deleted":"0","num_feature":"18","num_nodes":"21","size_leaf_vector":"0"}},{"base_weights":[4.287141E-4,1.0040068E-3,3.8950067E-5,1.571336E-3,2.5845566E-4,-7.555246E-4,1.54639E-4,3.1158328E-5,1.9885518E-3,9.378195E-4,1.1143901E-4,-8.678436E-5,-1.7152429E-3,4.2024525E-4,2.6459495E-5,2.914512E-3,1.0430728E-3,-9.250641E-6,6.6699303E-4,3.4305453E-3,4.2518973E-4,1.8996E-4,2.1172364E-3,1.190106E-3,2.1972656E-4],"categories":[],"categories_nodes":[],"categories_segments":[],"categories_sizes":[],"default_left":[1,1,1,1,1,1,1,0,1,0,0,0,0,1,0,1,1,0,1,0,0,0,0,0,0],"id":31,"left_children":[1,3,5,7,9,11,13,-1,15,-1,-1,-1,-1,17,-1,19,21,-1,23,-1,-1,-1,-1,-1,-1],"loss_changes":[1.3863054E-5,1.01682035E-5,3.6094866E-6,8.93425E-6,1.0940239E-6,3.0601548E-6,1.1464199E-6,1.5067795E-7,6.5901913E-6,0E0,6.109153E-7,2.2825168E-7,0E0,1.1719187E-6,6.93676E-7,4.9642294E-6,6.0124894E-6,5.885671E-8,1.3762988E-6,0E0,0E0,2.8876883E-7,0E0,0E0,2.0928508E-7],"parents":[2147483647,0,0,1,1,2,2,3,3,4,4,5,5,6,6,8,8,13,13,15,15,16,16,18,18],"right_children":[2,4,6,8,10,12,14,-1,16,-1,-1,-1,-1,18,-1,20,22,-1,24,-1,-1,-1,-1,-1,-1],"split_conditions":[4E0,2.35E1,3.75E1,5E0,2.6E1,7.6E1,8.25E1,9.347499E-6,5.25E1,2.8134586E-4,3.3431705E-5,-2.603531E-5,-5.145729E-4,5.75E1,7.937849E-6,1.6E1,8.45E1,-2.7751923E-6,5.4E1,1.0291636E-3,1.2755692E-4,5.6988003E-5,6.3517096E-4,3.5703182E-4,6.591797E-5],"split_indices":[7,2,2,2,3,3,2,0,4,0,0,0,0,2,0,2,4,0,5,0,0,0,0,0,0],"split_type":[0,0,0,0,0,0,0,0,0,0,0,0,0,0,0,0,0,0,0,0,0,0,0,0,0],"sum_hessian":[6.1E1,2.4E1,3.7E1,1.3E1,1.1E1,4E0,3.3E1,3E0,1E1,1E0,1E1,3E0,1E0,1E1,2.3E1,4E0,6E0,4E0,6E0,3E0,1E0,4E0,2E0,2E0,4E0],"tree_param":{"num_deleted":"0","num_feature":"18","num_nodes":"25","size_leaf_vector":"0"}},{"base_weights":[3.3335725E-4,7.897496E-4,2.4326539E-5,1.2326709E-3,2.0719568E-4,-6.3699484E-4,1.2086419E-4,3.0870438E-3,8.525619E-4,-6.727874E-5,-1.4579296E-3,1.6450137E-4,1.6278824E-3,1.4701486E-4,1.8946528E-3,3.6141276E-4,2.1876097E-3],"categories":[],"categories_nodes":[],"categories_segments":[],"categories_sizes":[],"default_left":[1,1,1,1,0,1,0,0,1,0,0,0,1,0,1,0,0],"id":32,"left_children":[1,3,5,7,-1,9,-1,-1,11,-1,-1,-1,13,-1,15,-1,-1],"loss_changes":[8.725223E-6,6.195236E-6,2.5030017E-6,7.2361963E-6,8.9457996E-7,2.240411E-6,7.7168204E-7,0E0,6.6672865E-6,2.2611653E-7,0E0,6.632932E-7,2.0917687E-6,0E0,1.4552352E-6,0E0,0E0],"parents":[2147483647,0,0,1,1,2,2,3,3,5,5,8,8,12,12,14,14],"right_children":[2,4,6,8,-1,10,-1,-1,12,-1,-1,-1,14,-1,16,-1,-1],"split_conditions":[4E0,2.35E1,3.75E1,3.2E1,6.215871E-5,7.6E1,3.625926E-5,9.2611316E-4,9.2E1,-2.0183623E-5,-4.373789E-4,4.9350412E-5,4.5E0,4.4104458E-5,1.55E1,1.0842383E-4,6.5628294E-4],"split_indices":[7,2,2,3,0,3,0,0,3,0,0,0,2,0,4,0,0],"split_type":[0,0,0,0,0,0,0,0,0,0,0,0,0,0,0,0,0],"sum_hessian":[6.1E1,2.4E1,3.7E1,1.3E1,1.1E1,4E0,3.3E1,1E0,1.2E1,3E0,1E0,7E0,5E0,1E0,4E0,1E0,3E0],"tree_param":{"num_deleted":"0","num_feature":"18","num_nodes":"17","size_leaf_vector":"0"}},{"base_weights":[2.5634997E-4,6.2669755E-4,5.9541903E-6,1.4870167E-3,3.920169E-4,-6.2677264E-4,7.8095705E-5,2.1831195E-4,2.260049E-3,-6.5688575E-5,1.1439994E-3,-1.2392402E-3,-9.536743E-6,3.1520924E-4,1.3677279E-3,4.3670335E-4,1.7240644E-3],"categories":[],"categories_nodes":[],"categories_segments":[],"categories_sizes":[],"default_left":[1,1,1,1,1,1,0,0,0,0,1,0,0,0,1,0,0],"id":33,"left_children":[1,3,5,7,9,11,-1,-1,-1,-1,13,-1,-1,-1,15,-1,-1],"loss_changes":[5.7457437E-6,4.4645703E-6,1.7834915E-6,4.4103535E-6,7.3030633E-6,1.5003295E-6,6.3100134E-7,3.6358847E-7,0E0,5.894082E-7,1.0522717E-6,0E0,5.7002808E-8,0E0,1.2376431E-6,0E0,7.854924E-7],"parents":[2147483647,0,0,1,1,2,2,3,3,4,4,5,5,10,10,14,14],"right_children":[2,4,6,8,10,12,-1,-1,-1,-1,14,-1,-1,-1,16,-1,-1],"split_conditions":[4E0,3.2E1,2.15E1,3.5E1,8.8E1,6E1,2.3428713E-5,6.549359E-5,6.7801477E-4,-1.9706573E-5,9.5E0,-3.7177207E-4,-2.861023E-6,9.4562776E-5,3.35E1,1.3101101E-4,5.172193E-4],"split_indices":[7,3,5,5,3,2,0,0,0,0,2,0,0,0,5,0,0],"split_type":[0,0,0,0,0,0,0,0,0,0,0,0,0,0,0,0,0],"sum_hessian":[6.1E1,2.4E1,3.7E1,4E0,2E1,3E0,3.4E1,2E0,2E0,1.3E1,7E0,1E0,2E0,2E0,5E0,2E0,3E0],"tree_param":{"num_deleted":"0","num_feature":"18","num_nodes":"17","size_leaf_vector":"0"}},{"base_weights":[1.9745673E-4,4.973674E-4,-5.049141E-6,7.965155E-4,-3.1006337E-5,1.852481E-4,-1.8557906E-4,1.821359E-3,5.200122E-4,-6.9996715E-4,-5.3630156E-5,5.299598E-5,9.794576E-4],"categories":[],"categories_nodes":[],"categories_segments":[],"categories_sizes":[],"default_left":[1,1,1,1,0,0,1,0,1,0,0,0,0],"id":34,"left_children":[1,3,5,7,-1,-1,9,-1,11,-1,-1,-1,-1],"loss_changes":[3.7679986E-6,3.9762476E-6,1.3398434E-6,3.5868316E-6,6.675495E-7,6.3497066E-7,1.3199196E-6,8.901179E-7,2.952051E-6,4.918202E-7,6.7101985E-7,4.4184142E-7,9.882247E-7],"parents":[2147483647,0,0,1,1,2,2,3,3,6,6,8,8],"right_children":[2,4,6,8,-1,-1,10,-1,12,-1,-1,-1,-1],"split_conditions":[4E0,4.45E1,5.55E1,3.2E1,-9.301902E-6,5.557443E-5,3.75E1,5.464077E-4,8.3E1,-2.0999015E-4,-1.6089047E-5,1.5898795E-5,2.938373E-4],"split_indices":[7,2,3,3,0,0,2,0,3,0,0,0,0],"split_type":[0,0,0,0,0,0,0,0,0,0,0,0,0],"sum_hessian":[6.1E1,2.4E1,3.7E1,1.5E1,9E0,1.8E1,1.9E1,2E0,1.3E1,3E0,1.6E1,7E0,6E0],"tree_param":{"num_deleted":"0","num_feature":"18","num_nodes":"13","size_leaf_vector":"0"}},{"base_weights":[1.4910872E-4,4.7041036E-4,2.7125296E-5,2.011776E-3,2.4833903E-4,-4.5145553E-5,9.0303423E-4,2.767188E-4,-4.1312972E-4,-6.92606E-5,1.1634231E-3,9.4771385E-5,1.4880499E-3],"categories":[],"categories_nodes":[],"categories_segments":[],"categories_sizes":[],"default_left":[1,1,0,0,1,1,1,0,0,0,1,0,0],"id":35,"left_children":[1,3,-1,-1,5,7,9,-1,-1,-1,11,-1,-1],"loss_changes":[2.4172355E-6,5.3193803E-6,6.043849E-7,0E0,3.1150548E-6,1.5356127E-6,1.3464532E-6,2.1519838E-8,8.4230794E-7,0E0,1.2466271E-6,0E0,0E0],"parents":[2147483647,0,0,1,1,4,4,5,5,6,6,10,10],"right_children":[2,4,-1,-1,6,8,10,-1,-1,-1,12,-1,-1],"split_conditions":[2.35E1,3.2E1,8.137589E-6,6.035328E-4,9.45E1,1.5E0,8E0,8.301565E-5,-1.2393892E-4,-2.077818E-5,1.55E1,2.8431417E-5,4.4641498E-4],"split_indices":[2,3,0,0,3,11,2,0,0,0,4,0,0],"split_type":[0,0,0,0,0,0,0,0,0,0,0,0,0],"sum_hessian":[6.1E1,1.6E1,4.5E1,1E0,1.5E1,1.1E1,4E0,6E0,5E0,1E0,3E0,1E0,2E0],"tree_param":{"num_deleted":"0","num_feature":"18","num_nodes":"13","size_leaf_vector":"0"}},{"base_weights":[1.20933975E-4,3.2488347E-4,-1.6425785E-5,5.7680265E-4,3.9041042E-6,1.7100573E-3,3.5808637E-4,1.8992026E-4,1.1880398E-3],"categories":[],"categories_nodes":[],"categories_segments":[],"categories_sizes":[],"default_left":[1,1,0,1,0,0,1,0,0],"id":36,"left_children":[1,3,-1,5,-1,-1,7,-1,-1],"loss_changes":[1.7422328E-6,2.0192695E-6,8.89619E-7,2.8577092E-6,5.383723E-7,0E0,1.5887774E-6,4.5495284E-7,0E0],"parents":[2147483647,0,0,1,1,3,3,6,6],"right_children":[2,4,-1,6,-1,-1,8,-1,-1],"split_conditions":[4E0,2.35E1,-4.927736E-6,3.2E1,1.1712314E-6,5.130172E-4,1.95E1,5.697608E-5,3.5641194E-4],"split_indices":[7,2,0,3,0,0,2,0,0],"split_type":[0,0,0,0,0,0,0,0,0],"sum_hessian":[6.1E1,2.4E1,3.7E1,1.3E1,1.1E1,1E0,1.2E1,1.1E1,1E0],"tree_param":{"num_deleted":"0","num_feature":"18","num_nodes":"9","size_leaf_vector":"0"}},{"base_weights":[9.955514E-5,2.0349026E-4,-9.866736E-5,-4.4992566E-4,2.669159E-4],"categories":[],"categories_nodes":[],"categories_segments":[],"categories_sizes":[],"default_left":[1,1,0,0,0],"id":37,"left_children":[1,3,-1,-1,-1],"loss_changes":[1.2974192E-6,1.8192682E-6,7.486941E-7,7.7078386E-7,7.249962E-7],"parents":[2147483647,0,0,1,1],"right_children":[2,4,-1,-1,-1],"split_conditions":[9.1E1,2.1E1,-2.9600209E-5,-1.349777E-4,8.0074766E-5],"split_indices":[2,5,0,0,0],"split_type":[0,0,0,0,0],"sum_hessian":[6.1E1,4E1,2.1E1,3E0,3.7E1],"tree_param":{"num_deleted":"0","num_feature":"18","num_nodes":"5","size_leaf_vector":"0"}},{"base_weights":[6.829827E-5,2.8673146E-4,-2.0592743E-5,1.1177063E-3,1.13002956E-4,-1.7896507E-4,2.2690826E-4,-9.197684E-5,-8.7320805E-4],"categories":[],"categories_nodes":[],"categories_segments":[],"categories_sizes":[],"default_left":[1,1,1,0,0,1,0,0,0],"id":38,"left_children":[1,3,5,-1,-1,7,-1,-1,-1],"loss_changes":[1.209743E-6,2.472248E-6,1.8044877E-6,3.8639973E-7,8.892655E-7,1.6106324E-6,9.562046E-7,6.961432E-7,0E0],"parents":[2147483647,0,0,1,1,2,2,5,5],"right_children":[2,4,6,-1,-1,8,-1,-1,-1],"split_conditions":[3.35E1,2.15E1,8E1,3.353119E-4,3.3900888E-5,7.65E1,6.8072484E-5,-2.7593054E-5,-2.619624E-4],"split_indices":[3,2,3,0,0,3,0,0,0],"split_type":[0,0,0,0,0,0,0,0,0],"sum_hessian":[6.1E1,1.7E1,4.4E1,2E0,1.5E1,2.7E1,1.7E1,2.5E1,2E0],"tree_param":{"num_deleted":"0","num_feature":"18","num_nodes":"9","size_leaf_vector":"0"}},{"base_weights":[5.018615E-5],"categories":[],"categories_nodes":[],"categories_segments":[],"categories_sizes":[],"default_left":[0],"id":39,"left_children":[-1],"loss_changes":[8.7662386E-7],"parents":[2147483647],"right_children":[-1],"split_conditions":[1.5055845E-5],"split_indices":[0],"split_type":[0],"sum_hessian":[6.1E1],"tree_param":{"num_deleted":"0","num_feature":"18","num_nodes":"1","size_leaf_vector":"0"}},{"base_weights":[3.5367666E-5],"categories":[],"categories_nodes":[],"categories_segments":[],"categories_sizes":[],"default_left":[0],"id":40,"left_children":[-1],"loss_changes":[8.7924406E-7],"parents":[2147483647],"right_children":[-1],"split_conditions":[1.06103E-5],"split_indices":[0],"split_type":[0],"sum_hessian":[6.1E1],"tree_param":{"num_deleted":"0","num_feature":"18","num_nodes":"1","size_leaf_vector":"0"}},{"base_weights":[2.4883017E-5],"categories":[],"categories_nodes":[],"categories_segments":[],"categories_sizes":[],"default_left":[0],"id":41,"left_children":[-1],"loss_changes":[8.810696E-7],"parents":[2147483647],"right_children":[-1],"split_conditions":[7.464905E-6],"split_indices":[0],"split_type":[0],"sum_hessian":[6.1E1],"tree_param":{"num_deleted":"0","num_feature":"18","num_nodes":"1","size_leaf_vector":"0"}},{"base_weights":[1.7542032E-5],"categories":[],"categories_nodes":[],"categories_segments":[],"categories_sizes":[],"default_left":[0],"id":42,"left_children":[-1],"loss_changes":[8.819861E-7],"parents":[2147483647],"right_children":[-1],"split_conditions":[5.2626096E-6],"split_indices":[0],"split_type":[0],"sum_hessian":[6.1E1],"tree_param":{"num_deleted":"0","num_feature":"18","num_nodes":"1","size_leaf_vector":"0"}},{"base_weights":[1.23814225E-5],"categories":[],"categories_nodes":[],"categories_segments":[],"categories_sizes":[],"default_left":[0],"id":43,"left_children":[-1],"loss_changes":[8.826618E-7],"parents":[2147483647],"right_children":[-1],"split_conditions":[3.7144268E-6],"split_indices":[0],"split_type":[0],"sum_hessian":[6.1E1],"tree_param":{"num_deleted":"0","num_feature":"18","num_nodes":"1","size_leaf_vector":"0"}},{"base_weights":[8.66094E-6],"categories":[],"categories_nodes":[],"categories_segments":[],"categories_sizes":[],"default_left":[0],"id":44,"left_children":[-1],"loss_changes":[8.831344E-7],"parents":[2147483647],"right_children":[-1],"split_conditions":[2.598282E-6],"split_indices":[0],"split_type":[0],"sum_hessian":[6.1E1],"tree_param":{"num_deleted":"0","num_feature":"18","num_nodes":"1","size_leaf_vector":"0"}},{"base_weights":[6.11909E-6],"categories":[],"categories_nodes":[],"categories_segments":[],"categories_sizes":[],"default_left":[0],"id":45,"left_children":[-1],"loss_changes":[8.8355245E-7],"parents":[2147483647],"right_children":[-1],"split_conditions":[1.8357271E-6],"split_indices":[0],"split_type":[0],"sum_hessian":[6.1E1],"tree_param":{"num_deleted":"0","num_feature":"18","num_nodes":"1","size_leaf_vector":"0"}},{"base_weights":[4.2732686E-6],"categories":[],"categories_nodes":[],"categories_segments":[],"categories_sizes":[],"default_left":[0],"id":46,"left_children":[-1],"loss_changes":[8.837706E-7],"parents":[2147483647],"right_children":[-1],"split_conditions":[1.2819806E-6],"split_indices":[0],"split_type":[0],"sum_hessian":[6.1E1],"tree_param":{"num_deleted":"0","num_feature":"18","num_nodes":"1","size_leaf_vector":"0"}},{"base_weights":[3.029262E-6],"categories":[],"categories_nodes":[],"categories_segments":[],"categories_sizes":[],"default_left":[0],"id":47,"left_children":[-1],"loss_changes":[8.837648E-7],"parents":[2147483647],"right_children":[-1],"split_conditions":[9.0877865E-7],"split_indices":[0],"split_type":[0],"sum_hessian":[6.1E1],"tree_param":{"num_deleted":"0","num_feature":"18","num_nodes":"1","size_leaf_vector":"0"}},{"base_weights":[2.0928921E-6],"categories":[],"categories_nodes":[],"categories_segments":[],"categories_sizes":[],"default_left":[0],"id":48,"left_children":[-1],"loss_changes":[8.838708E-7],"parents":[2147483647],"right_children":[-1],"split_conditions":[6.278677E-7],"split_indices":[0],"split_type":[0],"sum_hessian":[6.1E1],"tree_param":{"num_deleted":"0","num_feature":"18","num_nodes":"1","size_leaf_vector":"0"}},{"base_weights":[1.458391E-6],"categories":[],"categories_nodes":[],"categories_segments":[],"categories_sizes":[],"default_left":[0],"id":49,"left_children":[-1],"loss_changes":[8.8407234E-7],"parents":[2147483647],"right_children":[-1],"split_conditions":[4.3751731E-7],"split_indices":[0],"split_type":[0],"sum_hessian":[6.1E1],"tree_param":{"num_deleted":"0","num_feature":"18","num_nodes":"1","size_leaf_vector":"0"}},{"base_weights":[9.911676E-7],"categories":[],"categories_nodes":[],"categories_segments":[],"categories_sizes":[],"default_left":[0],"id":50,"left_children":[-1],"loss_changes":[8.841271E-7],"parents":[2147483647],"right_children":[-1],"split_conditions":[2.9735028E-7],"split_indices":[0],"split_type":[0],"sum_hessian":[6.1E1],"tree_param":{"num_deleted":"0","num_feature":"18","num_nodes":"1","size_leaf_vector":"0"}},{"base_weights":[7.1621713E-7],"categories":[],"categories_nodes":[],"categories_segments":[],"categories_sizes":[],"default_left":[0],"id":51,"left_children":[-1],"loss_changes":[8.8402624E-7],"parents":[2147483647],"right_children":[-1],"split_conditions":[2.1486515E-7],"split_indices":[0],"split_type":[0],"sum_hessian":[6.1E1],"tree_param":{"num_deleted":"0","num_feature":"18","num_nodes":"1","size_leaf_vector":"0"}},{"base_weights":[5.200986E-7],"categories":[],"categories_nodes":[],"categories_segments":[],"categories_sizes":[],"default_left":[0],"id":52,"left_children":[-1],"loss_changes":[8.841694E-7],"parents":[2147483647],"right_children":[-1],"split_conditions":[1.5602959E-7],"split_indices":[0],"split_type":[0],"sum_hessian":[6.1E1],"tree_param":{"num_deleted":"0","num_feature":"18","num_nodes":"1","size_leaf_vector":"0"}},{"base_weights":[3.5474378E-7],"categories":[],"categories_nodes":[],"categories_segments":[],"categories_sizes":[],"default_left":[0],"id":53,"left_children":[-1],"loss_changes":[8.843213E-7],"parents":[2147483647],"right_children":[-1],"split_conditions":[1.0642314E-7],"split_indices":[0],"split_type":[0],"sum_hessian":[6.1E1],"tree_param":{"num_deleted":"0","num_feature":"18","num_nodes":"1","size_leaf_vector":"0"}},{"base_weights":[3.2205736E-7],"categories":[],"categories_nodes":[],"categories_segments":[],"categories_sizes":[],"default_left":[0],"id":54,"left_children":[-1],"loss_changes":[8.8430664E-7],"parents":[2147483647],"right_children":[-1],"split_conditions":[9.6617214E-8],"split_indices":[0],"split_type":[0],"sum_hessian":[6.1E1],"tree_param":{"num_deleted":"0","num_feature":"18","num_nodes":"1","size_leaf_vector":"0"}},{"base_weights":[2.8937094E-7],"categories":[],"categories_nodes":[],"categories_segments":[],"categories_sizes":[],"default_left":[0],"id":55,"left_children":[-1],"loss_changes":[8.84292E-7],"parents":[2147483647],"right_children":[-1],"split_conditions":[8.681128E-8],"split_indices":[0],"split_type":[0],"sum_hessian":[6.1E1],"tree_param":{"num_deleted":"0","num_feature":"18","num_nodes":"1","size_leaf_vector":"0"}},{"base_weights":[2.5860726E-7],"categories":[],"categories_nodes":[],"categories_segments":[],"categories_sizes":[],"default_left":[0],"id":56,"left_children":[-1],"loss_changes":[8.842833E-7],"parents":[2147483647],"right_children":[-1],"split_conditions":[7.758218E-8],"split_indices":[0],"split_type":[0],"sum_hessian":[6.1E1],"tree_param":{"num_deleted":"0","num_feature":"18","num_nodes":"1","size_leaf_vector":"0"}},{"base_weights":[2.2784356E-7],"categories":[],"categories_nodes":[],"categories_segments":[],"categories_sizes":[],"default_left":[0],"id":57,"left_children":[-1],"loss_changes":[8.842746E-7],"parents":[2147483647],"right_children":[-1],"split_conditions":[6.835307E-8],"split_indices":[0],"split_type":[0],"sum_hessian":[6.1E1],"tree_param":{"num_deleted":"0","num_feature":"18","num_nodes":"1","size_leaf_vector":"0"}},{"base_weights":[1.9707987E-7],"categories":[],"categories_nodes":[],"categories_segments":[],"categories_sizes":[],"default_left":[0],"id":58,"left_children":[-1],"loss_changes":[8.842659E-7],"parents":[2147483647],"right_children":[-1],"split_conditions":[5.9123963E-8],"split_indices":[0],"split_type":[0],"sum_hessian":[6.1E1],"tree_param":{"num_deleted":"0","num_feature":"18","num_nodes":"1","size_leaf_vector":"0"}},{"base_weights":[1.9515714E-7],"categories":[],"categories_nodes":[],"categories_segments":[],"categories_sizes":[],"default_left":[0],"id":59,"left_children":[-1],"loss_changes":[8.842599E-7],"parents":[2147483647],"right_children":[-1],"split_conditions":[5.8547144E-8],"split_indices":[0],"split_type":[0],"sum_hessian":[6.1E1],"tree_param":{"num_deleted":"0","num_feature":"18","num_nodes":"1","size_leaf_vector":"0"}},{"base_weights":[1.9323441E-7],"categories":[],"categories_nodes":[],"categories_segments":[],"categories_sizes":[],"default_left":[0],"id":60,"left_children":[-1],"loss_changes":[8.84254E-7],"parents":[2147483647],"right_children":[-1],"split_conditions":[5.7970325E-8],"split_indices":[0],"split_type":[0],"sum_hessian":[6.1E1],"tree_param":{"num_deleted":"0","num_feature":"18","num_nodes":"1","size_leaf_vector":"0"}},{"base_weights":[1.9131168E-7],"categories":[],"categories_nodes":[],"categories_segments":[],"categories_sizes":[],"default_left":[0],"id":61,"left_children":[-1],"loss_changes":[8.8424804E-7],"parents":[2147483647],"right_children":[-1],"split_conditions":[5.7393507E-8],"split_indices":[0],"split_type":[0],"sum_hessian":[6.1E1],"tree_param":{"num_deleted":"0","num_feature":"18","num_nodes":"1","size_leaf_vector":"0"}},{"base_weights":[1.8938896E-7],"categories":[],"categories_nodes":[],"categories_segments":[],"categories_sizes":[],"default_left":[0],"id":62,"left_children":[-1],"loss_changes":[8.8424207E-7],"parents":[2147483647],"right_children":[-1],"split_conditions":[5.681669E-8],"split_indices":[0],"split_type":[0],"sum_hessian":[6.1E1],"tree_param":{"num_deleted":"0","num_feature":"18","num_nodes":"1","size_leaf_vector":"0"}},{"base_weights":[1.8746623E-7],"categories":[],"categories_nodes":[],"categories_segments":[],"categories_sizes":[],"default_left":[0],"id":63,"left_children":[-1],"loss_changes":[8.8423616E-7],"parents":[2147483647],"right_children":[-1],"split_conditions":[5.623987E-8],"split_indices":[0],"split_type":[0],"sum_hessian":[6.1E1],"tree_param":{"num_deleted":"0","num_feature":"18","num_nodes":"1","size_leaf_vector":"0"}},{"base_weights":[1.8554348E-7],"categories":[],"categories_nodes":[],"categories_segments":[],"categories_sizes":[],"default_left":[0],"id":64,"left_children":[-1],"loss_changes":[8.8423013E-7],"parents":[2147483647],"right_children":[-1],"split_conditions":[5.5663048E-8],"split_indices":[0],"split_type":[0],"sum_hessian":[6.1E1],"tree_param":{"num_deleted":"0","num_feature":"18","num_nodes":"1","size_leaf_vector":"0"}},{"base_weights":[1.8362076E-7],"categories":[],"categories_nodes":[],"categories_segments":[],"categories_sizes":[],"default_left":[0],"id":65,"left_children":[-1],"loss_changes":[8.842242E-7],"parents":[2147483647],"right_children":[-1],"split_conditions":[5.508623E-8],"split_indices":[0],"split_type":[0],"sum_hessian":[6.1E1],"tree_param":{"num_deleted":"0","num_feature":"18","num_nodes":"1","size_leaf_vector":"0"}},{"base_weights":[1.8169803E-7],"categories":[],"categories_nodes":[],"categories_segments":[],"categories_sizes":[],"default_left":[0],"id":66,"left_children":[-1],"loss_changes":[8.8421825E-7],"parents":[2147483647],"right_children":[-1],"split_conditions":[5.450941E-8],"split_indices":[0],"split_type":[0],"sum_hessian":[6.1E1],"tree_param":{"num_deleted":"0","num_feature":"18","num_nodes":"1","size_leaf_vector":"0"}},{"base_weights":[1.797753E-7],"categories":[],"categories_nodes":[],"categories_segments":[],"categories_sizes":[],"default_left":[0],"id":67,"left_children":[-1],"loss_changes":[8.842123E-7],"parents":[2147483647],"right_children":[-1],"split_conditions":[5.393259E-8],"split_indices":[0],"split_type":[0],"sum_hessian":[6.1E1],"tree_param":{"num_deleted":"0","num_feature":"18","num_nodes":"1","size_leaf_vector":"0"}},{"base_weights":[1.7785257E-7],"categories":[],"categories_nodes":[],"categories_segments":[],"categories_sizes":[],"default_left":[0],"id":68,"left_children":[-1],"loss_changes":[8.842064E-7],"parents":[2147483647],"right_children":[-1],"split_conditions":[5.3355773E-8],"split_indices":[0],"split_type":[0],"sum_hessian":[6.1E1],"tree_param":{"num_deleted":"0","num_feature":"18","num_nodes":"1","size_leaf_vector":"0"}},{"base_weights":[1.7592984E-7],"categories":[],"categories_nodes":[],"categories_segments":[],"categories_sizes":[],"default_left":[0],"id":69,"left_children":[-1],"loss_changes":[8.842004E-7],"parents":[2147483647],"right_children":[-1],"split_conditions":[5.2778955E-8],"split_indices":[0],"split_type":[0],"sum_hessian":[6.1E1],"tree_param":{"num_deleted":"0","num_feature":"18","num_nodes":"1","size_leaf_vector":"0"}},{"base_weights":[1.7400711E-7],"categories":[],"categories_nodes":[],"categories_segments":[],"categories_sizes":[],"default_left":[0],"id":70,"left_children":[-1],"loss_changes":[8.8419444E-7],"parents":[2147483647],"right_children":[-1],"split_conditions":[5.2202136E-8],"split_indices":[0],"split_type":[0],"sum_hessian":[6.1E1],"tree_param":{"num_deleted":"0","num_feature":"18","num_nodes":"1","size_leaf_vector":"0"}},{"base_weights":[1.7208438E-7],"categories":[],"categories_nodes":[],"categories_segments":[],"categories_sizes":[],"default_left":[0],"id":71,"left_children":[-1],"loss_changes":[8.841885E-7],"parents":[2147483647],"right_children":[-1],"split_conditions":[5.1625317E-8],"split_indices":[0],"split_type":[0],"sum_hessian":[6.1E1],"tree_param":{"num_deleted":"0","num_feature":"18","num_nodes":"1","size_leaf_vector":"0"}},{"base_weights":[1.7016164E-7],"categories":[],"categories_nodes":[],"categories_segments":[],"categories_sizes":[],"default_left":[0],"id":72,"left_children":[-1],"loss_changes":[8.8418255E-7],"parents":[2147483647],"right_children":[-1],"split_conditions":[5.1048495E-8],"split_indices":[0],"split_type":[0],"sum_hessian":[6.1E1],"tree_param":{"num_deleted":"0","num_feature":"18","num_nodes":"1","size_leaf_vector":"0"}},{"base_weights":[1.6823891E-7],"categories":[],"categories_nodes":[],"categories_segments":[],"categories_sizes":[],"default_left":[0],"id":73,"left_children":[-1],"loss_changes":[8.8417653E-7],"parents":[2147483647],"right_children":[-1],"split_conditions":[5.0471677E-8],"split_indices":[0],"split_type":[0],"sum_hessian":[6.1E1],"tree_param":{"num_deleted":"0","num_feature":"18","num_nodes":"1","size_leaf_vector":"0"}},{"base_weights":[1.6631618E-7],"categories":[],"categories_nodes":[],"categories_segments":[],"categories_sizes":[],"default_left":[0],"id":74,"left_children":[-1],"loss_changes":[8.841706E-7],"parents":[2147483647],"right_children":[-1],"split_conditions":[4.9894858E-8],"split_indices":[0],"split_type":[0],"sum_hessian":[6.1E1],"tree_param":{"num_deleted":"0","num_feature":"18","num_nodes":"1","size_leaf_vector":"0"}},{"base_weights":[1.6439346E-7],"categories":[],"categories_nodes":[],"categories_segments":[],"categories_sizes":[],"default_left":[0],"id":75,"left_children":[-1],"loss_changes":[8.8416465E-7],"parents":[2147483647],"right_children":[-1],"split_conditions":[4.931804E-8],"split_indices":[0],"split_type":[0],"sum_hessian":[6.1E1],"tree_param":{"num_deleted":"0","num_feature":"18","num_nodes":"1","size_leaf_vector":"0"}},{"base_weights":[1.6247073E-7],"categories":[],"categories_nodes":[],"categories_segments":[],"categories_sizes":[],"default_left":[0],"id":76,"left_children":[-1],"loss_changes":[8.841587E-7],"parents":[2147483647],"right_children":[-1],"split_conditions":[4.874122E-8],"split_indices":[0],"split_type":[0],"sum_hessian":[6.1E1],"tree_param":{"num_deleted":"0","num_feature":"18","num_nodes":"1","size_leaf_vector":"0"}},{"base_weights":[1.60548E-7],"categories":[],"categories_nodes":[],"categories_segments":[],"categories_sizes":[],"default_left":[0],"id":77,"left_children":[-1],"loss_changes":[8.8415277E-7],"parents":[2147483647],"right_children":[-1],"split_conditions":[4.8164402E-8],"split_indices":[0],"split_type":[0],"sum_hessian":[6.1E1],"tree_param":{"num_deleted":"0","num_feature":"18","num_nodes":"1","size_leaf_vector":"0"}},{"base_weights":[1.5862527E-7],"categories":[],"categories_nodes":[],"categories_segments":[],"categories_sizes":[],"default_left":[0],"id":78,"left_children":[-1],"loss_changes":[8.841468E-7],"parents":[2147483647],"right_children":[-1],"split_conditions":[4.7587584E-8],"split_indices":[0],"split_type":[0],"sum_hessian":[6.1E1],"tree_param":{"num_deleted":"0","num_feature":"18","num_nodes":"1","size_leaf_vector":"0"}},{"base_weights":[1.5670254E-7],"categories":[],"categories_nodes":[],"categories_segments":[],"categories_sizes":[],"default_left":[0],"id":79,"left_children":[-1],"loss_changes":[8.841409E-7],"parents":[2147483647],"right_children":[-1],"split_conditions":[4.7010765E-8],"split_indices":[0],"split_type":[0],"sum_hessian":[6.1E1],"tree_param":{"num_deleted":"0","num_feature":"18","num_nodes":"1","size_leaf_vector":"0"}},{"base_weights":[1.547798E-7],"categories":[],"categories_nodes":[],"categories_segments":[],"categories_sizes":[],"default_left":[0],"id":80,"left_children":[-1],"loss_changes":[8.841349E-7],"parents":[2147483647],"right_children":[-1],"split_conditions":[4.6433943E-8],"split_indices":[0],"split_type":[0],"sum_hessian":[6.1E1],"tree_param":{"num_deleted":"0","num_feature":"18","num_nodes":"1","size_leaf_vector":"0"}},{"base_weights":[1.5285707E-7],"categories":[],"categories_nodes":[],"categories_segments":[],"categories_sizes":[],"default_left":[0],"id":81,"left_children":[-1],"loss_changes":[8.8412895E-7],"parents":[2147483647],"right_children":[-1],"split_conditions":[4.5857124E-8],"split_indices":[0],"split_type":[0],"sum_hessian":[6.1E1],"tree_param":{"num_deleted":"0","num_feature":"18","num_nodes":"1","size_leaf_vector":"0"}},{"base_weights":[1.5093434E-7],"categories":[],"categories_nodes":[],"categories_segments":[],"categories_sizes":[],"default_left":[0],"id":82,"left_children":[-1],"loss_changes":[8.841229E-7],"parents":[2147483647],"right_children":[-1],"split_conditions":[4.5280306E-8],"split_indices":[0],"split_type":[0],"sum_hessian":[6.1E1],"tree_param":{"num_deleted":"0","num_feature":"18","num_nodes":"1","size_leaf_vector":"0"}},{"base_weights":[1.4901161E-7],"categories":[],"categories_nodes":[],"categories_segments":[],"categories_sizes":[],"default_left":[0],"id":83,"left_children":[-1],"loss_changes":[8.84117E-7],"parents":[2147483647],"right_children":[-1],"split_conditions":[4.4703484E-8],"split_indices":[0],"split_type":[0],"sum_hessian":[6.1E1],"tree_param":{"num_deleted":"0","num_feature":"18","num_nodes":"1","size_leaf_vector":"0"}},{"base_weights":[1.4708888E-7],"categories":[],"categories_nodes":[],"categories_segments":[],"categories_sizes":[],"default_left":[0],"id":84,"left_children":[-1],"loss_changes":[8.84111E-7],"parents":[2147483647],"right_children":[-1],"split_conditions":[4.4126665E-8],"split_indices":[0],"split_type":[0],"sum_hessian":[6.1E1],"tree_param":{"num_deleted":"0","num_feature":"18","num_nodes":"1","size_leaf_vector":"0"}},{"base_weights":[1.4516615E-7],"categories":[],"categories_nodes":[],"categories_segments":[],"categories_sizes":[],"default_left":[0],"id":85,"left_children":[-1],"loss_changes":[8.841051E-7],"parents":[2147483647],"right_children":[-1],"split_conditions":[4.3549846E-8],"split_indices":[0],"split_type":[0],"sum_hessian":[6.1E1],"tree_param":{"num_deleted":"0","num_feature":"18","num_nodes":"1","size_leaf_vector":"0"}},{"base_weights":[1.4324343E-7],"categories":[],"categories_nodes":[],"categories_segments":[],"categories_sizes":[],"default_left":[0],"id":86,"left_children":[-1],"loss_changes":[8.840991E-7],"parents":[2147483647],"right_children":[-1],"split_conditions":[4.2973028E-8],"split_indices":[0],"split_type":[0],"sum_hessian":[6.1E1],"tree_param":{"num_deleted":"0","num_feature":"18","num_nodes":"1","size_leaf_vector":"0"}},{"base_weights":[1.4132068E-7],"categories":[],"categories_nodes":[],"categories_segments":[],"categories_sizes":[],"default_left":[0],"id":87,"left_children":[-1],"loss_changes":[8.840932E-7],"parents":[2147483647],"right_children":[-1],"split_conditions":[4.2396206E-8],"split_indices":[0],"split_type":[0],"sum_hessian":[6.1E1],"tree_param":{"num_deleted":"0","num_feature":"18","num_nodes":"1","size_leaf_vector":"0"}},{"base_weights":[1.3939795E-7],"categories":[],"categories_nodes":[],"categories_segments":[],"categories_sizes":[],"default_left":[0],"id":88,"left_children":[-1],"loss_changes":[8.840872E-7],"parents":[2147483647],"right_children":[-1],"split_conditions":[4.1819387E-8],"split_indices":[0],"split_type":[0],"sum_hessian":[6.1E1],"tree_param":{"num_deleted":"0","num_feature":"18","num_nodes":"1","size_leaf_vector":"0"}},{"base_weights":[1.3747523E-7],"categories":[],"categories_nodes":[],"categories_segments":[],"categories_sizes":[],"default_left":[0],"id":89,"left_children":[-1],"loss_changes":[8.840812E-7],"parents":[2147483647],"right_children":[-1],"split_conditions":[4.124257E-8],"split_indices":[0],"split_type":[0],"sum_hessian":[6.1E1],"tree_param":{"num_deleted":"0","num_feature":"18","num_nodes":"1","size_leaf_vector":"0"}},{"base_weights":[1.355525E-7],"categories":[],"categories_nodes":[],"categories_segments":[],"categories_sizes":[],"default_left":[0],"id":90,"left_children":[-1],"loss_changes":[8.8407535E-7],"parents":[2147483647],"right_children":[-1],"split_conditions":[4.066575E-8],"split_indices":[0],"split_type":[0],"sum_hessian":[6.1E1],"tree_param":{"num_deleted":"0","num_feature":"18","num_nodes":"1","size_leaf_vector":"0"}},{"base_weights":[1.3362977E-7],"categories":[],"categories_nodes":[],"categories_segments":[],"categories_sizes":[],"default_left":[0],"id":91,"left_children":[-1],"loss_changes":[8.840694E-7],"parents":[2147483647],"right_children":[-1],"split_conditions":[4.008893E-8],"split_indices":[0],"split_type":[0],"sum_hessian":[6.1E1],"tree_param":{"num_deleted":"0","num_feature":"18","num_nodes":"1","size_leaf_vector":"0"}},{"base_weights":[1.3170704E-7],"categories":[],"categories_nodes":[],"categories_segments":[],"categories_sizes":[],"default_left":[0],"id":92,"left_children":[-1],"loss_changes":[8.840634E-7],"parents":[2147483647],"right_children":[-1],"split_conditions":[3.9512113E-8],"split_indices":[0],"split_type":[0],"sum_hessian":[6.1E1],"tree_param":{"num_deleted":"0","num_feature":"18","num_nodes":"1","size_leaf_vector":"0"}},{"base_weights":[1.2978431E-7],"categories":[],"categories_nodes":[],"categories_segments":[],"categories_sizes":[],"default_left":[0],"id":93,"left_children":[-1],"loss_changes":[8.8405744E-7],"parents":[2147483647],"right_children":[-1],"split_conditions":[3.8935294E-8],"split_indices":[0],"split_type":[0],"sum_hessian":[6.1E1],"tree_param":{"num_deleted":"0","num_feature":"18","num_nodes":"1","size_leaf_vector":"0"}},{"base_weights":[1.2786158E-7],"categories":[],"categories_nodes":[],"categories_segments":[],"categories_sizes":[],"default_left":[0],"id":94,"left_children":[-1],"loss_changes":[8.840515E-7],"parents":[2147483647],"right_children":[-1],"split_conditions":[3.8358476E-8],"split_indices":[0],"split_type":[0],"sum_hessian":[6.1E1],"tree_param":{"num_deleted":"0","num_feature":"18","num_nodes":"1","size_leaf_vector":"0"}},{"base_weights":[1.2593884E-7],"categories":[],"categories_nodes":[],"categories_segments":[],"categories_sizes":[],"default_left":[0],"id":95,"left_children":[-1],"loss_changes":[8.840455E-7],"parents":[2147483647],"right_children":[-1],"split_conditions":[3.7781653E-8],"split_indices":[0],"split_type":[0],"sum_hessian":[6.1E1],"tree_param":{"num_deleted":"0","num_feature":"18","num_nodes":"1","size_leaf_vector":"0"}},{"base_weights":[1.2401611E-7],"categories":[],"categories_nodes":[],"categories_segments":[],"categories_sizes":[],"default_left":[0],"id":96,"left_children":[-1],"loss_changes":[8.840396E-7],"parents":[2147483647],"right_children":[-1],"split_conditions":[3.7204835E-8],"split_indices":[0],"split_type":[0],"sum_hessian":[6.1E1],"tree_param":{"num_deleted":"0","num_feature":"18","num_nodes":"1","size_leaf_vector":"0"}},{"base_weights":[1.2209338E-7],"categories":[],"categories_nodes":[],"categories_segments":[],"categories_sizes":[],"default_left":[0],"id":97,"left_children":[-1],"loss_changes":[8.840336E-7],"parents":[2147483647],"right_children":[-1],"split_conditions":[3.6628016E-8],"split_indices":[0],"split_type":[0],"sum_hessian":[6.1E1],"tree_param":{"num_deleted":"0","num_feature":"18","num_nodes":"1","size_leaf_vector":"0"}},{"base_weights":[1.2017065E-7],"categories":[],"categories_nodes":[],"categories_segments":[],"categories_sizes":[],"default_left":[0],"id":98,"left_children":[-1],"loss_changes":[8.840276E-7],"parents":[2147483647],"right_children":[-1],"split_conditions":[3.6051198E-8],"split_indices":[0],"split_type":[0],"sum_hessian":[6.1E1],"tree_param":{"num_deleted":"0","num_feature":"18","num_nodes":"1","size_leaf_vector":"0"}},{"base_weights":[1.18247925E-7],"categories":[],"categories_nodes":[],"categories_segments":[],"categories_sizes":[],"default_left":[0],"id":99,"left_children":[-1],"loss_changes":[8.8402174E-7],"parents":[2147483647],"right_children":[-1],"split_conditions":[3.547438E-8],"split_indices":[0],"split_type":[0],"sum_hessian":[6.1E1],"tree_param":{"num_deleted":"0","num_feature":"18","num_nodes":"1","size_leaf_vector":"0"}}]},"name":"gbtree"},"learner_model_param":{"base_score":"5E-1","boost_from_average":"1","num_class":"0","num_feature":"18","num_target":"1"},"objective":{"name":"reg:squarederror","reg_loss_param":{"scale_pos_weight":"1"}}},"version":[1,7,2]}