{"learner":{"attributes":{"best_iteration":"99","best_ntree_limit":"100","scikit_learn":"{\"n_estimators\": 100, \"objective\": \"reg:squarederror\", \"max_depth\": null, \"max_leaves\": null, \"max_bin\": null, \"grow_policy\": null, \"learning_rate\": null, \"verbosity\": null, \"booster\": null, \"tree_method\": null, \"gamma\": null, \"min_child_weight\": null, \"max_delta_step\": null, \"subsample\": null, \"sampling_method\": null, \"colsample_bytree\": null, \"colsample_bylevel\": null, \"colsample_bynode\": null, \"reg_alpha\": null, \"reg_lambda\": null, \"scale_pos_weight\": null, \"base_score\": null, \"missing\": NaN, \"num_parallel_tree\": null, \"random_state\": null, \"n_jobs\": null, \"monotone_constraints\": null, \"interaction_constraints\": null, \"importance_type\": null, \"gpu_id\": null, \"validate_parameters\": null, \"predictor\": null, \"enable_categorical\": false, \"feature_types\": null, \"max_cat_to_onehot\": null, \"max_cat_threshold\": null, \"eval_metric\": null, \"early_stopping_rounds\": null, \"callbacks\": null, \"_estimator_type\": \"regressor\"}"},"feature_names":[],"feature_types":[],"gradient_booster":{"model":{"gbtree_model_param":{"num_parallel_tree":"1","num_trees":"100","size_leaf_vector":"0"},"tree_info":[0,0,0,0,0,0,0,0,0,0,0,0,0,0,0,0,0,0,0,0,0,0,0,0,0,0,0,0,0,0,0,0,0,0,0,0,0,0,0,0,0,0,0,0,0,0,0,0,0,0,0,0,0,0,0,0,0,0,0,0,0,0,0,0,0,0,0,0,0,0,0,0,0,0,0,0,0,0,0,0,0,0,0,0,0,0,0,0,0,0,0,0,0,0,0,0,0,0,0,0],"trees":[{"base_weights":[8.135135E1,3.888811E1,1.1271728E2,2.2552238E1,5.2597404E1,9.482547E1,1.334593E2,1.4854167E1,2.6238636E1,4.3514706E1,5.8420456E1,8.1558136E1,1.0225781E2],"categories":[],"categories_nodes":[],"categories_segments":[],"categories_sizes":[],"default_left":[1,1,1,1,1,1,0,0,0,0,0,0,0],"id":0,"left_children":[1,3,5,7,9,11,-1,-1,-1,-1,-1,-1,-1],"loss_changes":[4.39139E5,3.083914E4,5.822725E4,1.511582E3,1.5302969E3,2.112375E3,0E0,0E0,0E0,0E0,0E0,0E0,0E0],"parents":[2147483647,0,0,1,1,2,2,3,3,4,4,5,5],"right_children":[2,4,6,8,10,12,-1,-1,-1,-1,-1,-1,-1],"split_conditions":[7.5E0,3.5E0,1.25E1,1.5E0,5.5E0,9.5E0,4.0037792E1,4.45625E0,7.871591E0,1.3054412E1,1.7526138E1,2.4467442E1,3.0677345E1],"split_indices":[4,4,4,4,4,4,0,0,0,0,0,0,0],"split_type":[0,0,0,0,0,0,0,0,0,0,0,0,0],"sum_hessian":[3.32E2,1.42E2,1.9E2,6.6E1,7.6E1,1.05E2,8.5E1,2.3E1,4.3E1,3.3E1,4.3E1,4.2E1,6.3E1],"tree_param":{"num_deleted":"0","num_feature":"9","num_nodes":"13","size_leaf_vector":"0"}},{"base_weights":[5.736063E1,3.1044464E1,8.2410576E1,1.7447811E1,4.287773E1,7.17379E1,9.85474E1,1.3157478E1,2.387376E1,3.5285583E1,4.917961E1,6.249505E1,7.705453E1,1.0583593E1,1.5027316E1],"categories":[],"categories_nodes":[],"categories_segments":[],"categories_sizes":[],"default_left":[1,1,1,1,1,1,0,1,0,0,0,0,0,0,0],"id":1,"left_children":[1,3,5,7,9,11,-1,13,-1,-1,-1,-1,-1,-1,-1],"loss_changes":[2.1696138E5,2.5638312E4,2.2208375E4,1.8362988E3,2.4271562E3,3.93375E2,0E0,7.678223E1,0E0,0E0,0E0,0E0,0E0,0E0,0E0],"parents":[2147483647,0,0,1,1,2,2,3,3,4,4,5,5,7,7],"right_children":[2,4,6,8,10,12,-1,14,-1,-1,-1,-1,-1,-1,-1],"split_conditions":[8.5E0,4.5E0,1.35E1,2.5E0,6.5E0,1.05E1,2.9564222E1,1.5E0,7.1621284E0,1.0585675E1,1.4753884E1,1.8748516E1,2.311636E1,3.1750782E0,4.508195E0],"split_indices":[4,4,4,4,4,4,0,4,0,0,0,0,0,0,0],"split_type":[0,0,0,0,0,0,0,0,0,0,0,0,0,0,0],"sum_hessian":[3.32E2,1.63E2,1.69E2,7.7E1,8.6E1,1.05E2,6.4E1,4.8E1,2.9E1,4.2E1,4.4E1,4.3E1,6.2E1,2.3E1,2.5E1],"tree_param":{"num_deleted":"0","num_feature":"9","num_nodes":"15","size_leaf_vector":"0"}},{"base_weights":[4.048762E1,1.9288372E1,5.614733E1,1.1274296E1,2.601116E1,5.028215E1,7.575756E1,9.367036E0,1.5599633E1,2.1677534E1,2.8768711E1,4.4256157E1,5.653677E1,7.54081E0,1.06925125E1],"categories":[],"categories_nodes":[],"categories_segments":[],"categories_sizes":[],"default_left":[1,1,1,1,1,1,0,1,0,0,0,0,0,0,0],"id":2,"left_children":[1,3,5,7,9,11,-1,13,-1,-1,-1,-1,-1,-1,-1],"loss_changes":[1.09464375E5,7.4111445E3,1.8159062E4,4.0659766E2,2.9652734E2,3.1514062E3,0E0,3.797998E1,0E0,0E0,0E0,0E0,0E0,0E0,0E0],"parents":[2147483647,0,0,1,1,2,2,3,3,4,4,5,5,7,7],"right_children":[2,4,6,8,10,12,-1,14,-1,-1,-1,-1,-1,-1,-1],"split_conditions":[7.5E0,3.5E0,1.45E1,2.5E0,5.5E0,1.15E1,2.2727268E1,1.5E0,4.67989E0,6.5032606E0,8.630613E0,1.3276848E1,1.6961031E1,2.262243E0,3.207754E0],"split_indices":[4,4,4,4,4,4,0,4,0,0,0,0,0,0,0],"split_type":[0,0,0,0,0,0,0,0,0,0,0,0,0,0,0],"sum_hessian":[3.32E2,1.42E2,1.9E2,6.6E1,7.6E1,1.49E2,4.1E1,4.8E1,1.8E1,3.3E1,4.3E1,8E1,6.9E1,2.3E1,2.5E1],"tree_param":{"num_deleted":"0","num_feature":"9","num_nodes":"15","size_leaf_vector":"0"}},{"base_weights":[2.8576315E1,1.5384684E1,4.1134262E1,8.711494E0,2.1190708E1,3.6766087E1,5.357141E1,6.668558E0,1.1757907E1,1.76046E1,2.4146526E1,3.1197535E1,3.9187603E1,5.372827E0,7.6081347E0],"categories":[],"categories_nodes":[],"categories_segments":[],"categories_sizes":[],"default_left":[1,1,1,1,1,1,0,1,0,0,0,0,0,0,0],"id":3,"left_children":[1,3,5,7,9,11,-1,13,-1,-1,-1,-1,-1,-1,-1],"loss_changes":[5.4531875E4,6.1695312E3,7.2660625E3,4.0703467E2,4.9709766E2,5.169375E2,0E0,1.87771E1,0E0,0E0,0E0,0E0,0E0,0E0,0E0],"parents":[2147483647,0,0,1,1,2,2,3,3,4,4,5,5,7,7],"right_children":[2,4,6,8,10,12,-1,14,-1,-1,-1,-1,-1,-1,-1],"split_conditions":[8.5E0,4.5E0,1.45E1,2.5E0,6.5E0,1.05E1,1.6071424E1,1.5E0,3.5273721E0,5.2813807E0,7.243958E0,9.359261E0,1.1756281E1,1.6118482E0,2.2824404E0],"split_indices":[4,4,4,4,4,4,0,4,0,0,0,0,0,0,0],"split_type":[0,0,0,0,0,0,0,0,0,0,0,0,0,0,0],"sum_hessian":[3.32E2,1.63E2,1.69E2,7.7E1,8.6E1,1.28E2,4.1E1,4.8E1,2.9E1,4.2E1,4.4E1,4.3E1,8.5E1,2.3E1,2.5E1],"tree_param":{"num_deleted":"0","num_feature":"9","num_nodes":"15","size_leaf_vector":"0"}},{"base_weights":[2.0174994E1,9.588765E0,2.7995182E1,6.1931953E0,1.3456428E1,2.5040058E1,3.788264E1,4.747466E0,8.348113E0,2.1974436E1,2.8229708E1,3.8281393E0,5.4134808E0],"categories":[],"categories_nodes":[],"categories_segments":[],"categories_sizes":[],"default_left":[1,1,1,1,0,1,0,1,0,0,0,0,0],"id":4,"left_children":[1,3,5,7,-1,9,-1,11,-1,-1,-1,-1,-1],"loss_changes":[2.729939E4,1.794669E3,4.6321875E3,2.033711E2,0E0,8.4640625E2,0E0,9.278442E0,0E0,0E0,0E0,0E0,0E0],"parents":[2147483647,0,0,1,1,2,2,3,3,5,5,7,7],"right_children":[2,4,6,8,-1,10,-1,12,-1,-1,-1,-1,-1],"split_conditions":[7.5E0,4.5E0,1.45E1,2.5E0,4.0369287E0,1.15E1,1.1364793E1,1.5E0,2.504434E0,6.592331E0,8.468913E0,1.1484418E0,1.6240443E0],"split_indices":[4,4,4,4,0,4,0,4,0,0,0,0,0],"split_type":[0,0,0,0,0,0,0,0,0,0,0,0,0],"sum_hessian":[3.32E2,1.42E2,1.9E2,7.7E1,6.5E1,1.49E2,4.1E1,4.8E1,2.9E1,8E1,6.9E1,2.3E1,2.5E1],"tree_param":{"num_deleted":"0","num_feature":"9","num_nodes":"13","size_leaf_vector":"0"}},{"base_weights":[1.4229823E1,7.595278E0,2.0546503E1,4.4028893E0,1.0370117E1,1.835497E1,2.6788437E1,3.3798075E0,5.92716E0,8.502996E0,1.1923807E1,1.560848E1,1.9546722E1,2.7275488E0,3.8518996E0],"categories":[],"categories_nodes":[],"categories_segments":[],"categories_sizes":[],"default_left":[1,1,1,1,1,1,0,1,0,0,0,0,0,0,0],"id":5,"left_children":[1,3,5,7,9,11,-1,13,-1,-1,-1,-1,-1,-1,-1],"loss_changes":[1.3799406E4,1.4071123E3,1.8338047E3,1.01604614E2,1.5099316E2,1.1713672E2,0E0,4.5822144E0,0E0,0E0,0E0,0E0,0E0,0E0,0E0],"parents":[2147483647,0,0,1,1,2,2,3,3,4,4,5,5,7,7],"right_children":[2,4,6,8,10,12,-1,14,-1,-1,-1,-1,-1,-1,-1],"split_conditions":[8.5E0,4.5E0,1.45E1,2.5E0,6.5E0,1.05E1,8.036531E0,1.5E0,1.778148E0,2.550899E0,3.5771422E0,4.682544E0,5.864017E0,8.1826466E-1,1.1555699E0],"split_indices":[4,4,4,4,4,4,0,4,0,0,0,0,0,0,0],"split_type":[0,0,0,0,0,0,0,0,0,0,0,0,0,0,0],"sum_hessian":[3.32E2,1.63E2,1.69E2,7.7E1,8.6E1,1.28E2,4.1E1,4.8E1,2.9E1,4.2E1,4.4E1,4.3E1,8.5E1,2.3E1,2.5E1],"tree_param":{"num_deleted":"0","num_feature":"9","num_nodes":"15","size_leaf_vector":"0"}},{"base_weights":[1.0046352E1,5.3769383E0,1.4491867E1,3.6487346E0,7.952992E0,1.3333484E1,2.251307E1,2.406148E0,4.7494655E0,1.1348216E1,1.44832945E1,1.9433783E0,2.7407756E0,3.7671487E0,5.158717E0],"categories":[],"categories_nodes":[],"categories_segments":[],"categories_sizes":[],"default_left":[1,1,1,1,0,1,0,1,1,0,0,0,0,0,0],"id":6,"left_children":[1,3,5,7,-1,9,-1,11,13,-1,-1,-1,-1,-1,-1],"loss_changes":[6.8344766E3,7.011011E2,1.2793984E3,1.2534741E2,0E0,1.8032422E2,0E0,2.2615662E0,1.4710693E0,0E0,0E0,0E0,0E0,0E0,0E0],"parents":[2147483647,0,0,1,1,2,2,3,3,5,5,7,7,8,8],"right_children":[2,4,6,8,-1,10,-1,12,14,-1,-1,-1,-1,-1,-1],"split_conditions":[8.5E0,5.5E0,1.55E1,2.5E0,2.3858976E0,1.15E1,6.753921E0,1.5E0,3.5E0,3.404465E0,4.3449883E0,5.8301353E-1,8.222327E-1,1.1301447E0,1.5476152E0],"split_indices":[4,4,4,4,0,4,0,4,4,0,0,0,0,0,0],"split_type":[0,0,0,0,0,0,0,0,0,0,0,0,0,0,0],"sum_hessian":[3.32E2,1.63E2,1.69E2,9.9E1,6.4E1,1.5E2,1.9E1,4.8E1,5.1E1,5.9E1,9.1E1,2.3E1,2.5E1,1.8E1,3.3E1],"tree_param":{"num_deleted":"0","num_feature":"9","num_nodes":"15","size_leaf_vector":"0"}},{"base_weights":[7.095427E0,3.3041177E0,9.896798E0,2.0174527E0,4.3807726E0,9.118323E0,1.6096844E1,1.384657E0,2.316763E0,3.65662E0,4.8407817E0,6.920772E0,9.775064E0,1.9501668E0,2.6964858E0],"categories":[],"categories_nodes":[],"categories_segments":[],"categories_sizes":[],"default_left":[1,1,1,1,1,1,0,0,1,0,0,0,0,0,0],"id":7,"left_children":[1,3,5,7,9,11,-1,-1,13,-1,-1,-1,-1,-1,-1],"loss_changes":[3.5040469E3,1.8925903E2,7.7510156E2,9.482025E0,7.9490967E0,1.8058301E2,0E0,0E0,8.6642456E-1,0E0,0E0,0E0,0E0,0E0,0E0],"parents":[2147483647,0,0,1,1,2,2,3,3,4,4,5,5,8,8],"right_children":[2,4,6,8,10,12,-1,-1,14,-1,-1,-1,-1,-1,-1],"split_conditions":[7.5E0,3.5E0,1.55E1,1.5E0,5.5E0,9.5E0,4.8290534E0,4.1539714E-1,2.5E0,1.096986E0,1.4522345E0,2.0762317E0,2.9325194E0,5.8505005E-1,8.089458E-1],"split_indices":[4,4,4,4,4,4,0,0,4,0,0,0,0,0,0],"split_type":[0,0,0,0,0,0,0,0,0,0,0,0,0,0,0],"sum_hessian":[3.32E2,1.42E2,1.9E2,6.6E1,7.6E1,1.71E2,1.9E1,2.3E1,4.3E1,3.3E1,4.3E1,4.2E1,1.29E2,2.5E1,1.8E1],"tree_param":{"num_deleted":"0","num_feature":"9","num_nodes":"15","size_leaf_vector":"0"}},{"base_weights":[5.0094304E0,2.3433619E0,6.979265E0,1.5642303E0,3.228648E0,6.1173654E0,9.891306E0,1.2195044E0,2.0751417E0,2.87319E0,3.7309833E0,5.3412933E0,6.9280005E0,8.054349E0,1.1509241E1,9.865685E-1,1.3876182E0],"categories":[],"categories_nodes":[],"categories_segments":[],"categories_sizes":[],"default_left":[1,1,1,1,1,1,1,1,0,0,0,0,0,0,0,0,0],"id":8,"left_children":[1,3,5,7,9,11,13,15,-1,-1,-1,-1,-1,-1,-1,-1,-1],"loss_changes":[1.7324658E3,9.358447E1,4.188789E2,1.1207062E1,1.0651245E0,5.7362305E1,3.212793E1,5.4984283E-1,0E0,0E0,0E0,0E0,0E0,0E0,0E0,0E0,0E0],"parents":[2147483647,0,0,1,1,2,2,3,3,4,4,5,5,6,6,7,7],"right_children":[2,4,6,8,10,12,14,16,-1,-1,-1,-1,-1,-1,-1,-1,-1],"split_conditions":[7.5E0,4.5E0,1.45E1,2.5E0,6.5E0,1.15E1,1.55E1,1.5E0,6.225425E-1,8.61957E-1,1.119295E0,1.602388E0,2.0784001E0,2.4163048E0,3.4527724E0,2.9597056E-1,4.1628549E-1],"split_indices":[4,4,4,4,4,4,4,4,0,0,0,0,0,0,0,0,0],"split_type":[0,0,0,0,0,0,0,0,0,0,0,0,0,0,0,0,0],"sum_hessian":[3.32E2,1.42E2,1.9E2,7.7E1,6.5E1,1.49E2,4.1E1,4.8E1,2.9E1,4.2E1,2.3E1,8E1,6.9E1,2.2E1,1.9E1,2.3E1,2.5E1],"tree_param":{"num_deleted":"0","num_feature":"9","num_nodes":"17","size_leaf_vector":"0"}},{"base_weights":[3.545238E0,2.059339E0,5.3663526E0,1.4507226E0,3.1347127E0,4.8846493E0,8.229105E0,1.01504E0,1.9644265E0,4.4305944E0,5.617476E0,7.0292974E-1,1.162213E0,9.873445E-1,1.3403374E0],"categories":[],"categories_nodes":[],"categories_segments":[],"categories_sizes":[],"default_left":[1,1,1,1,0,1,0,1,0,0,0,0,1,0,0],"id":9,"left_children":[1,3,5,7,-1,9,-1,11,-1,-1,-1,-1,13,-1,-1],"loss_changes":[8.9004443E2,1.1653302E2,1.6527393E2,2.486345E1,0E0,1.836792E1,0E0,2.2606354E0,0E0,0E0,0E0,0E0,4.7157288E-2,0E0,0E0],"parents":[2147483647,0,0,1,1,2,2,3,3,5,5,7,7,12,12],"right_children":[2,4,6,8,-1,10,-1,12,-1,-1,-1,-1,14,-1,-1],"split_conditions":[9.5E0,6.5E0,1.55E1,3.5E0,9.4041383E-1,1.35E1,2.4687316E0,1.5E0,5.89328E-1,1.3291783E0,1.6852429E0,2.1087892E-1,2.5E0,2.9620337E-1,4.0210125E-1],"split_indices":[4,4,4,4,0,4,0,4,0,0,0,0,4,0,0],"split_type":[0,0,0,0,0,0,0,0,0,0,0,0,0,0,0],"sum_hessian":[3.32E2,1.84E2,1.48E2,1.19E2,6.5E1,1.29E2,1.9E1,6.6E1,5.3E1,8.4E1,4.5E1,2.3E1,4.3E1,2.5E1,1.8E1],"tree_param":{"num_deleted":"0","num_feature":"9","num_nodes":"15","size_leaf_vector":"0"}},{"base_weights":[2.5054564E0,1.4547203E0,3.7932465E0,9.138023E-1,2.0667791E0,3.4424431E0,5.883807E0,6.1808074E-1,1.1748899E0,1.6852099E0,2.4091575E0,3.1170537E0,3.9688702E0,5.00837E-1,7.0253336E-1,3.2832553E0,2.491874E0,2.8424077E0,3.8182478E0],"categories":[],"categories_nodes":[],"categories_segments":[],"categories_sizes":[],"default_left":[1,1,1,1,1,1,0,1,0,0,0,1,0,0,0,1,0,0,0],"id":10,"left_children":[1,3,5,7,9,11,-1,13,-1,-1,-1,15,-1,-1,-1,17,-1,-1,-1],"loss_changes":[4.450735E2,5.9359985E1,8.901831E1,6.994751E0,7.1752014E0,9.896973E0,0E0,1.3332176E-1,0E0,0E0,0E0,6.5057373E-1,0E0,0E0,0E0,4.241333E0,0E0,0E0,0E0],"parents":[2147483647,0,0,1,1,2,2,3,3,4,4,5,5,7,7,11,11,15,15],"right_children":[2,4,6,8,10,12,-1,14,-1,-1,-1,16,-1,-1,-1,18,-1,-1,-1],"split_conditions":[9.5E0,5.5E0,1.55E1,2.5E0,7.5E0,1.35E1,1.7651422E0,1.5E0,3.52467E-1,5.0556296E-1,7.2274727E-1,1.25E1,1.1906611E0,1.5025112E-1,2.1076001E-1,1.15E1,7.475622E-1,8.5272235E-1,1.1454744E0],"split_indices":[4,4,4,4,4,4,0,4,0,0,0,4,0,0,0,4,0,0,0],"split_type":[0,0,0,0,0,0,0,0,0,0,0,0,0,0,0,0,0,0,0],"sum_hessian":[3.32E2,1.84E2,1.48E2,9.9E1,8.5E1,1.29E2,1.9E1,4.8E1,5.1E1,4.3E1,4.2E1,8.4E1,4.5E1,2.3E1,2.5E1,6.3E1,2.1E1,3.8E1,2.5E1],"tree_param":{"num_deleted":"0","num_feature":"9","num_nodes":"19","size_leaf_vector":"0"}},{"base_weights":[1.7767732E0,1.0288005E0,2.6935396E0,5.3614986E-1,1.3750778E0,2.2997904E0,3.641906E0,4.400239E-1,6.7528397E-1,1.1404551E0,1.7032177E0,2.9922392E0,4.2069273E0,3.5684612E-1,4.998794E-1],"categories":[],"categories_nodes":[],"categories_segments":[],"categories_sizes":[],"default_left":[1,1,1,1,1,0,1,1,0,0,0,0,0,0,0],"id":11,"left_children":[1,3,5,7,9,-1,11,13,-1,-1,-1,-1,-1,-1,-1],"loss_changes":[2.2557239E2,3.0822601E1,4.7263794E1,7.460613E-1,6.37236E0,0E0,2.8291016E0,6.557369E-2,0E0,0E0,0E0,0E0,0E0,0E0,0E0],"parents":[2147483647,0,0,1,1,2,2,3,3,4,4,6,6,7,7],"right_children":[2,4,6,8,10,-1,12,14,-1,-1,-1,-1,-1,-1,-1],"split_conditions":[9.5E0,4.5E0,1.45E1,2.5E0,7.5E0,6.899371E-1,1.55E1,1.5E0,2.025852E-1,3.4213656E-1,5.1096535E-1,8.976718E-1,1.2620783E0,1.0705384E-1,1.4996383E-1],"split_indices":[4,4,4,4,4,0,4,4,0,0,0,0,0,0,0],"split_type":[0,0,0,0,0,0,0,0,0,0,0,0,0,0,0],"sum_hessian":[3.32E2,1.84E2,1.48E2,7.7E1,1.07E2,1.07E2,4.1E1,4.8E1,2.9E1,6.5E1,4.2E1,2.2E1,1.9E1,2.3E1,2.5E1],"tree_param":{"num_deleted":"0","num_feature":"9","num_nodes":"15","size_leaf_vector":"0"}},{"base_weights":[1.2562418E0,8.3755815E-1,2.0860636E0,5.007611E-1,1.2181166E0,1.8629797E0,3.0079467E0,3.5205227E-1,6.759968E-1,9.447193E-1,1.2840848E0,2.5425294E-1,3.9739618E-1],"categories":[],"categories_nodes":[],"categories_segments":[],"categories_sizes":[],"default_left":[1,1,1,1,1,0,0,1,0,0,0,0,0],"id":12,"left_children":[1,3,5,7,9,-1,-1,11,-1,-1,-1,-1,-1],"loss_changes":[1.1394794E2,2.7972137E1,1.7224213E1,2.8891048E0,6.626129E-1,0E0,0E0,1.9607925E-1,0E0,0E0,0E0,0E0,0E0],"parents":[2147483647,0,0,1,1,2,2,3,3,4,4,7,7],"right_children":[2,4,6,8,10,-1,-1,12,-1,-1,-1,-1,-1],"split_conditions":[1.15E1,6.5E0,1.55E1,3.5E0,7.5E0,5.588939E-1,9.0238404E-1,1.5E0,2.0279904E-1,2.834158E-1,3.8522545E-1,7.6275885E-2,1.19218856E-1],"split_indices":[4,4,4,4,4,0,0,4,0,0,0,0,0],"split_type":[0,0,0,0,0,0,0,0,0,0,0,0,0],"sum_hessian":[3.32E2,2.22E2,1.1E2,1.19E2,1.03E2,9.1E1,1.9E1,6.6E1,5.3E1,2.3E1,8E1,2.3E1,4.3E1],"tree_param":{"num_deleted":"0","num_feature":"9","num_nodes":"13","size_leaf_vector":"0"}},{"base_weights":[8.869616E-1,5.0927204E-1,1.3499521E0,3.1493202E-1,7.293271E-1,1.1236337E0,1.8997719E0,2.166334E-1,4.015032E-1,5.2233016E-1,7.8413934E-1,1.0515548E0,1.3575991E0,3.3356068E-1,4.726672E-1,9.804401E-1,1.2867073E0,1.1342815E0,5.8623505E-1,9.622394E-1,1.4715637E0],"categories":[],"categories_nodes":[],"categories_segments":[],"categories_sizes":[],"default_left":[1,1,1,1,1,1,0,0,1,0,0,1,0,0,0,1,0,1,0,0,0],"id":13,"left_children":[1,3,5,7,9,11,-1,-1,13,-1,-1,15,-1,-1,-1,17,-1,19,-1,-1,-1],"loss_changes":[5.754309E1,7.6819305E0,1.6406097E1,7.6400375E-1,5.6617355E-1,3.9370728E-1,0E0,0E0,9.375954E-2,0E0,0E0,1.9334412E-1,0E0,0E0,0E0,3.6408463E0,0E0,1.4853439E0,0E0,0E0,0E0],"parents":[2147483647,0,0,1,1,2,2,3,3,4,4,5,5,8,8,11,11,15,15,17,17],"right_children":[2,4,6,8,10,12,-1,-1,14,-1,-1,16,-1,-1,-1,18,-1,20,-1,-1,-1],"split_conditions":[9.5E0,5.5E0,1.45E1,2.5E0,6.5E0,1.085E2,5.699316E-1,6.499002E-2,4.5E0,1.5669906E-1,2.3524182E-1,1.35E1,4.0727976E-1,1.00068204E-1,1.4180017E-1,1.25E1,3.860122E-1,1.15E1,1.7587052E-1,2.8867182E-1,4.4146913E-1],"split_indices":[4,4,4,4,4,2,0,0,4,0,0,4,0,0,0,4,0,4,0,0,0],"split_type":[0,0,0,0,0,0,0,0,0,0,0,0,0,0,0,0,0,0,0,0,0],"sum_hessian":[3.32E2,1.84E2,1.48E2,9.9E1,8.5E1,1.07E2,4.1E1,4.8E1,5.1E1,2E1,6.5E1,8.6E1,2.1E1,2.9E1,2.2E1,7E1,1.6E1,4.9E1,2.1E1,3.5E1,1.4E1],"tree_param":{"num_deleted":"0","num_feature":"9","num_nodes":"21","size_leaf_vector":"0"}},{"base_weights":[6.297858E-1,3.9289656E-1,1.0109376E0,2.5155878E-1,5.811652E-1,8.9077985E-1,1.6092422E0,1.8718432E-1,3.6248088E-1,4.4767237E-1,6.2151384E-1,7.8649235E-1,1.0142436E0,1.1887316E-1,2.1358947E-1,9.605994E-1,4.1835645E-1,1.7856084E-1,2.3682798E-1,6.8170077E-1,1.1060102E0],"categories":[],"categories_nodes":[],"categories_segments":[],"categories_sizes":[],"default_left":[1,1,1,1,1,1,0,1,0,0,0,1,0,0,1,1,0,0,0,0,0],"id":14,"left_children":[1,3,5,7,9,11,-1,13,-1,-1,-1,15,-1,-1,17,19,-1,-1,-1,-1,-1],"loss_changes":[2.9669617E1,5.3619595E0,7.6966553E0,7.890148E-1,1.95755E-1,5.928879E-1,0E0,1.15303755E-1,0E0,0E0,0E0,3.636116E0,0E0,0E0,2.4826527E-3,9.49337E-1,0E0,0E0,0E0,0E0,0E0],"parents":[2147483647,0,0,1,1,2,2,3,3,4,4,5,5,7,7,11,11,14,14,15,15],"right_children":[2,4,6,8,10,12,-1,14,-1,-1,-1,16,-1,-1,18,20,-1,-1,-1,-1,-1],"split_conditions":[1.05E1,6.5E0,1.55E1,4.5E0,7.5E0,1.35E1,4.8277268E-1,1.5E0,1.0874427E-1,1.3430172E-1,1.8645416E-1,1.25E1,3.042731E-1,3.5661947E-2,2.5E0,1.15E1,1.2550694E-1,5.3568255E-2,7.10484E-2,2.0451024E-1,3.3180308E-1],"split_indices":[4,4,4,4,4,4,0,4,0,0,0,4,0,0,4,4,0,0,0,0,0],"split_type":[0,0,0,0,0,0,0,0,0,0,0,0,0,0,0,0,0,0,0,0,0],"sum_hessian":[3.32E2,2.06E2,1.26E2,1.19E2,8.7E1,1.07E2,1.9E1,7.7E1,4.2E1,2.3E1,6.4E1,6.2E1,4.5E1,2.3E1,5.4E1,4.1E1,2.1E1,2.5E1,2.9E1,1.6E1,2.5E1],"tree_param":{"num_deleted":"0","num_feature":"9","num_nodes":"21","size_leaf_vector":"0"}},{"base_weights":[4.4697168E-1,2.778765E-1,7.1906406E-1,1.783326E-1,4.104605E-1,6.324905E-1,1.1506081E0,1.3308394E-1,2.5626427E-1,3.1896797E-1,4.379276E-1,5.610503E-1,7.165828E-1,8.4697366E-2,1.5177837E-1,5.181646E-1,3.8785622E-1,6.851881E-1,2.9855764E-1,1.2705326E-1,1.6814753E-1,2.9488719E-1,4.599198E-1,4.8921743E-1,7.869694E-1],"categories":[],"categories_nodes":[],"categories_segments":[],"categories_sizes":[],"default_left":[1,1,1,1,1,1,0,1,0,0,1,1,0,0,1,0,1,1,0,0,0,0,0,0,0],"id":15,"left_children":[1,3,5,7,9,11,-1,13,-1,-1,15,17,-1,-1,19,-1,21,23,-1,-1,-1,-1,-1,-1,-1],"loss_changes":[1.5121353E1,2.6587734E0,4.017006E0,3.8905168E-1,8.146095E-2,2.4677658E-1,0E0,5.7700396E-2,0E0,0E0,6.016922E-2,1.8483028E0,0E0,0E0,8.9645386E-4,0E0,1.5916157E-1,4.5273972E-1,0E0,0E0,0E0,0E0,0E0,0E0,0E0],"parents":[2147483647,0,0,1,1,2,2,3,3,4,4,5,5,7,7,10,10,11,11,14,14,16,16,17,17],"right_children":[2,4,6,8,10,12,-1,14,-1,-1,16,18,-1,-1,20,-1,22,24,-1,-1,-1,-1,-1,-1,-1],"split_conditions":[1.05E1,6.5E0,1.55E1,4.5E0,7.5E0,1.35E1,3.4518242E-1,1.5E0,7.6879285E-2,9.569039E-2,8.5E0,1.25E1,2.1497484E-1,2.540921E-2,2.5E0,1.5544938E-1,9.5E0,1.15E1,8.9567296E-2,3.811598E-2,5.0444264E-2,8.846616E-2,1.3797595E-1,1.4676523E-1,2.3609084E-1],"split_indices":[4,4,4,4,4,4,0,4,0,0,4,4,0,0,4,0,4,4,0,0,0,0,0,0,0],"split_type":[0,0,0,0,0,0,0,0,0,0,0,0,0,0,0,0,0,0,0,0,0,0,0,0,0],"sum_hessian":[3.32E2,2.06E2,1.26E2,1.19E2,8.7E1,1.07E2,1.9E1,7.7E1,4.2E1,2.3E1,6.4E1,6.2E1,4.5E1,2.3E1,5.4E1,2.1E1,4.3E1,4.1E1,2.1E1,2.5E1,2.9E1,2.1E1,2.2E1,1.6E1,2.5E1],"tree_param":{"num_deleted":"0","num_feature":"9","num_nodes":"25","size_leaf_vector":"0"}},{"base_weights":[3.179879E-1,1.9774307E-1,5.1147366E-1,1.10483855E-1,2.7670768E-1,4.4910643E-1,8.22683E-1,7.752672E-2,1.3941494E-1,2.1765432E-1,3.1242523E-1,4.149853E-1,5.571634E-1,6.034732E-2,9.040283E-2,1.1938464E-1,1.5947989E-1,3.697815E-1,2.7664652E-1,4.887463E-1,3.369198E-1,2.104454E-1,3.2794124E-1,3.5108408E-1,5.599582E-1,2.1305986E-1,4.364198E-1],"categories":[],"categories_nodes":[],"categories_segments":[],"categories_sizes":[],"default_left":[1,1,1,1,1,1,0,1,1,0,1,1,0,0,0,0,0,0,1,1,1,0,0,0,0,0,0],"id":16,"left_children":[1,3,5,7,9,11,-1,13,15,-1,17,19,-1,-1,-1,-1,-1,-1,21,23,25,-1,-1,-1,-1,-1,-1],"loss_changes":[7.6463203E0,1.3957396E0,2.0955048E0,8.454013E-2,1.5979671E-1,1.6698647E-1,0E0,5.383432E-3,1.8596649E-3,0E0,3.1089783E-2,3.3053493E-1,0E0,0E0,0E0,0E0,0E0,0E0,8.039999E-2,2.1514225E-1,4.6159935E-1,0E0,0E0,0E0,0E0,0E0,0E0],"parents":[2147483647,0,0,1,1,2,2,3,3,4,4,5,5,7,7,8,8,10,10,11,11,18,18,19,19,20,20],"right_children":[2,4,6,8,10,12,-1,14,16,-1,18,20,-1,-1,-1,-1,-1,-1,22,24,26,-1,-1,-1,-1,-1,-1],"split_conditions":[1.05E1,5.5E0,1.55E1,2.5E0,7.5E0,1.45E1,2.4680491E-1,1.5E0,4.5E0,6.52963E-2,8.5E0,1.25E1,1.6714904E-1,1.8104196E-2,2.712085E-2,3.581539E-2,4.7843967E-2,1.1093445E-1,9.5E0,1.15E1,1.35E1,6.313363E-2,9.8382376E-2,1.0532523E-1,1.6798747E-1,6.391796E-2,1.3092595E-1],"split_indices":[4,4,4,4,4,4,0,4,4,0,4,4,0,0,0,0,0,0,4,4,4,0,0,0,0,0,0],"split_type":[0,0,0,0,0,0,0,0,0,0,0,0,0,0,0,0,0,0,0,0,0,0,0,0,0,0,0],"sum_hessian":[3.32E2,2.06E2,1.26E2,9.9E1,1.07E2,1.07E2,1.9E1,4.8E1,5.1E1,4.3E1,6.4E1,8.5E1,2.2E1,2.3E1,2.5E1,2.9E1,2.2E1,2.1E1,4.3E1,4.1E1,4.4E1,2.1E1,2.2E1,1.6E1,2.5E1,2.1E1,2.3E1],"tree_param":{"num_deleted":"0","num_feature":"9","num_nodes":"27","size_leaf_vector":"0"}},{"base_weights":[2.266421E-1,1.406748E-1,3.6497745E-1,8.8993944E-2,2.0955013E-1,3.2025817E-1,5.882126E-1,6.2138885E-2,1.2066608E-1,1.6468795E-1,2.2289076E-1,2.9593384E-1,3.972858E-1,4.299712E-2,7.1167596E-2,2.6389244E-1,1.9732423E-1,3.4863245E-1,2.4017215E-1,1.5018186E-1,2.3383762E-1,2.519558E-1,3.9843515E-1,1.520462E-1,3.109471E-1,2.4309431E-1,9.109497E-2],"categories":[],"categories_nodes":[],"categories_segments":[],"categories_sizes":[],"default_left":[1,1,1,1,1,1,0,1,0,0,1,1,0,0,0,0,1,1,1,0,1,0,0,0,0,0,0],"id":17,"left_children":[1,3,5,7,9,11,-1,13,-1,-1,15,17,-1,-1,-1,-1,19,21,23,-1,25,-1,-1,-1,-1,-1,-1],"loss_changes":[3.9087982E0,7.1817493E-1,1.0794487E0,9.456885E-2,1.5959978E-2,8.4783554E-2,0E0,8.519322E-3,0E0,0E0,1.6064882E-2,1.6898489E-1,0E0,0E0,0E0,0E0,4.0620446E-2,1.01831436E-1,2.3339176E-1,0E0,8.245707E-3,0E0,0E0,0E0,0E0,0E0,0E0],"parents":[2147483647,0,0,1,1,2,2,3,3,4,4,5,5,7,7,10,10,11,11,16,16,17,17,18,18,20,20],"right_children":[2,4,6,8,10,12,-1,14,-1,-1,16,18,-1,-1,-1,-1,20,22,24,-1,26,-1,-1,-1,-1,-1,-1],"split_conditions":[1.05E1,6.5E0,1.55E1,3.5E0,7.5E0,1.45E1,1.7646378E-1,1.5E0,3.6199827E-2,4.9406387E-2,8.5E0,1.25E1,1.1918574E-1,1.2899137E-2,2.135028E-2,7.916774E-2,9.5E0,1.15E1,1.35E1,4.505456E-2,1.065E2,7.558674E-2,1.1953055E-1,4.5613863E-2,9.328413E-2,7.2928295E-2,2.7328493E-2],"split_indices":[4,4,4,4,4,4,0,4,0,0,4,4,0,0,0,0,4,4,4,0,2,0,0,0,0,0,0],"split_type":[0,0,0,0,0,0,0,0,0,0,0,0,0,0,0,0,0,0,0,0,0,0,0,0,0,0,0],"sum_hessian":[3.32E2,2.06E2,1.26E2,1.19E2,8.7E1,1.07E2,1.9E1,6.6E1,5.3E1,2.3E1,6.4E1,8.5E1,2.2E1,2.3E1,4.3E1,2.1E1,4.3E1,4.1E1,4.4E1,2.1E1,2.2E1,1.6E1,2.5E1,2.1E1,2.3E1,2E1,2E0],"tree_param":{"num_deleted":"0","num_feature":"9","num_nodes":"27","size_leaf_vector":"0"}},{"base_weights":[1.615736E-1,9.1150954E-2,2.4792676E-1,5.453308E-2,1.3266999E-1,2.1945941E-1,4.2056808E-1,3.8243506E-2,6.8834156E-2,1.1156004E-1,1.511855E-1,2.0383567E-1,2.8328142E-1,3.0635199E-2,4.379566E-2,5.8677927E-2,7.908863E-2,1.8832086E-1,1.07178085E-1,2.235936E-1,1.7120582E-1,1.77921E-1,2.8350273E-1,1.0850351E-1,2.2154935E-1,1.8442684E-1,7.488823E-2],"categories":[],"categories_nodes":[],"categories_segments":[],"categories_sizes":[],"default_left":[1,1,1,1,1,1,0,1,1,0,1,1,0,0,0,0,0,0,0,1,1,1,0,0,0,0,0],"id":18,"left_children":[1,3,5,7,9,11,-1,13,15,-1,17,19,-1,-1,-1,-1,-1,-1,-1,21,23,25,-1,-1,-1,-1,-1],"loss_changes":[2.0024462E0,2.7402794E-1,6.3998413E-1,2.066338E-2,1.6747713E-2,7.1885586E-2,0E0,7.281974E-4,7.748604E-4,0E0,5.0088108E-2,3.1346798E-2,0E0,0E0,0E0,0E0,0E0,0E0,0E0,1.2467623E-1,1.1801064E-1,1.233089E-2,0E0,0E0,0E0,0E0,0E0],"parents":[2147483647,0,0,1,1,2,2,3,3,4,4,5,5,7,7,8,8,10,10,11,11,19,19,20,20,21,21],"right_children":[2,4,6,8,10,12,-1,14,16,-1,18,20,-1,-1,-1,-1,-1,-1,-1,22,24,26,-1,-1,-1,-1,-1],"split_conditions":[9.5E0,5.5E0,1.55E1,2.5E0,7.5E0,1.45E1,1.2617043E-1,1.5E0,4.5E0,3.346801E-2,8.5E0,1.25E1,8.498443E-2,9.19056E-3,1.3138698E-2,1.7603379E-2,2.372659E-2,5.649626E-2,3.2153428E-2,1.15E1,1.35E1,1.085E2,8.505082E-2,3.2551054E-2,6.6464804E-2,5.5328056E-2,2.246647E-2],"split_indices":[4,4,4,4,4,4,0,4,4,0,4,4,0,0,0,0,0,0,0,4,4,2,0,0,0,0,0],"split_type":[0,0,0,0,0,0,0,0,0,0,0,0,0,0,0,0,0,0,0,0,0,0,0,0,0,0,0],"sum_hessian":[3.32E2,1.84E2,1.48E2,9.9E1,8.5E1,1.29E2,1.9E1,4.8E1,5.1E1,4.3E1,4.2E1,1.07E2,2.2E1,2.3E1,2.5E1,2.9E1,2.2E1,2.1E1,2.1E1,6.3E1,4.4E1,3.8E1,2.5E1,2.1E1,2.3E1,3.5E1,3E0],"tree_param":{"num_deleted":"0","num_feature":"9","num_nodes":"27","size_leaf_vector":"0"}},{"base_weights":[1.1507903E-1,7.103135E-2,1.8596715E-1,4.420132E-2,1.0681057E-1,1.6299807E-1,3.0070192E-1,3.3127382E-2,6.326099E-2,8.526675E-2,1.1312197E-1,1.5067592E-1,2.0198524E-1,2.1827579E-2,3.7455887E-2,1.3439317E-1,9.9915415E-2,1.7776816E-1,1.2204149E-1,3.1163143E-2,4.1661073E-2,7.648919E-2,1.1797897E-1,1.3067672E-1,2.0172149E-1,7.742865E-2,1.5785153E-1,1.3519049E-1,2.922821E-2],"categories":[],"categories_nodes":[],"categories_segments":[],"categories_sizes":[],"default_left":[1,1,1,1,1,1,0,1,0,0,1,1,0,0,1,0,1,1,1,0,0,0,0,1,0,0,0,0,0],"id":19,"left_children":[1,3,5,7,9,11,-1,13,-1,-1,15,17,-1,-1,19,-1,21,23,25,-1,-1,-1,-1,27,-1,-1,-1,-1,-1],"loss_changes":[1.0265694E0,1.9398999E-1,2.85676E-1,2.3232192E-2,2.3200512E-3,2.1449566E-2,0E0,2.9975027E-3,0E0,0E0,4.8318505E-3,4.5021176E-2,0E0,0E0,1.5713274E-4,0E0,9.594947E-3,2.1015406E-2,5.9669256E-2,0E0,0E0,0E0,0E0,3.8331747E-3,0E0,0E0,0E0,0E0,0E0],"parents":[2147483647,0,0,1,1,2,2,3,3,4,4,5,5,7,7,10,10,11,11,14,14,16,16,17,17,18,18,23,23],"right_children":[2,4,6,8,10,12,-1,14,-1,-1,16,18,-1,-1,20,-1,22,24,26,-1,-1,-1,-1,28,-1,-1,-1,-1,-1],"split_conditions":[1.05E1,6.5E0,1.55E1,4.5E0,7.5E0,1.45E1,9.021058E-2,1.5E0,1.8978298E-2,2.5580024E-2,8.5E0,1.25E1,6.0595576E-2,6.548274E-3,2.5E0,4.0317953E-2,9.5E0,1.15E1,1.35E1,9.348943E-3,1.2498322E-2,2.2946756E-2,3.5393693E-2,1.085E2,6.051645E-2,2.3228595E-2,4.7355462E-2,4.0557146E-2,8.7684635E-3],"split_indices":[4,4,4,4,4,4,0,4,0,0,4,4,0,0,4,0,4,4,4,0,0,0,0,2,0,0,0,0,0],"split_type":[0,0,0,0,0,0,0,0,0,0,0,0,0,0,0,0,0,0,0,0,0,0,0,0,0,0,0,0,0],"sum_hessian":[3.32E2,2.06E2,1.26E2,1.19E2,8.7E1,1.07E2,1.9E1,7.7E1,4.2E1,2.3E1,6.4E1,8.5E1,2.2E1,2.3E1,5.4E1,2.1E1,4.3E1,4.1E1,4.4E1,2.5E1,2.9E1,2.1E1,2.2E1,1.6E1,2.5E1,2.1E1,2.3E1,1.5E1,1E0],"tree_param":{"num_deleted":"0","num_feature":"9","num_nodes":"29","size_leaf_vector":"0"}},{"base_weights":[8.206497E-2,5.0550338E-2,1.3278517E-1,2.7166586E-2,7.17339E-2,1.1633025E-1,2.1500245E-1,1.938277E-2,3.39789E-2,5.685581E-2,8.070162E-2,1.0757029E-1,1.4402704E-1,1.5552481E-2,2.2172928E-2,9.590461E-2,7.1266E-2,1.2705286E-1,8.699612E-2,5.4583117E-2,8.412502E-2,9.437472E-2,1.4353268E-1,5.5253115E-2,1.1246904E-1,8.723668E-2,3.4301758E-2,9.716749E-2,2.4845123E-2],"categories":[],"categories_nodes":[],"categories_segments":[],"categories_sizes":[],"default_left":[1,1,1,1,1,1,0,1,0,0,1,1,0,0,0,0,1,1,1,0,1,1,0,0,0,0,0,0,0],"id":20,"left_children":[1,3,5,7,9,11,-1,13,-1,-1,15,17,-1,-1,-1,-1,19,21,23,-1,25,27,-1,-1,-1,-1,-1,-1,-1],"loss_changes":[5.2556443E-1,1.0058892E-1,1.468041E-1,4.6439767E-3,9.821296E-3,1.0710239E-2,0E0,1.7882511E-4,0E0,0E0,2.4894774E-3,2.3418903E-2,0E0,0E0,0E0,0E0,4.847333E-3,9.072423E-3,3.017214E-2,0E0,5.733818E-4,8.869469E-4,0E0,0E0,0E0,0E0,0E0,0E0,0E0],"parents":[2147483647,0,0,1,1,2,2,3,3,4,4,5,5,7,7,10,10,11,11,16,16,17,17,18,18,20,20,21,21],"right_children":[2,4,6,8,10,12,-1,14,-1,-1,16,18,-1,-1,-1,-1,20,22,24,-1,26,28,-1,-1,-1,-1,-1,-1,-1],"split_conditions":[1.05E1,5.5E0,1.55E1,2.5E0,7.5E0,1.45E1,6.4500734E-2,1.5E0,1.0193671E-2,1.7056743E-2,8.5E0,1.25E1,4.3208115E-2,4.6657445E-3,6.651879E-3,2.8771384E-2,9.5E0,1.15E1,1.35E1,1.6374936E-2,1.065E2,1.085E2,4.3059804E-2,1.6575934E-2,3.3740714E-2,2.6171004E-2,1.0290528E-2,2.915025E-2,7.453537E-3],"split_indices":[4,4,4,4,4,4,0,4,0,0,4,4,0,0,0,0,4,4,4,0,2,2,0,0,0,0,0,0,0],"split_type":[0,0,0,0,0,0,0,0,0,0,0,0,0,0,0,0,0,0,0,0,0,0,0,0,0,0,0,0,0],"sum_hessian":[3.32E2,2.06E2,1.26E2,9.9E1,1.07E2,1.07E2,1.9E1,4.8E1,5.1E1,4.3E1,6.4E1,8.5E1,2.2E1,2.3E1,2.5E1,2.1E1,4.3E1,4.1E1,4.4E1,2.1E1,2.2E1,1.6E1,2.5E1,2.1E1,2.3E1,2E1,2E0,1.5E1,1E0],"tree_param":{"num_deleted":"0","num_feature":"9","num_nodes":"29","size_leaf_vector":"0"}},{"base_weights":[5.8520455E-2,3.5966694E-2,9.482052E-2,2.1880936E-2,5.476583E-2,8.3033666E-2,1.5372849E-1,1.625544E-2,3.1576466E-2,4.4406414E-2,5.7748295E-2,7.6810434E-2,1.0269298E-1,1.1081497E-2,1.8217606E-2,6.844191E-2,5.1089026E-2,9.0832844E-2,6.2015958E-2,3.895465E-2,6.0474563E-2,6.821397E-2,1.0212854E-1,3.9428018E-2,8.013757E-2],"categories":[],"categories_nodes":[],"categories_segments":[],"categories_sizes":[],"default_left":[1,1,1,1,1,1,0,1,0,0,1,1,0,0,0,0,1,1,1,0,0,0,0,0,0],"id":21,"left_children":[1,3,5,7,9,11,-1,13,-1,-1,15,17,-1,-1,-1,-1,19,21,23,-1,-1,-1,-1,-1,-1],"loss_changes":[2.6921773E-1,5.3615272E-2,7.5416446E-2,6.0317703E-3,1.5449524E-4,5.325377E-3,0E0,5.899891E-4,0E0,0E0,1.1321306E-3,1.2207925E-2,0E0,0E0,0E0,0E0,2.65529E-3,3.7642717E-3,1.5260175E-2,0E0,0E0,0E0,0E0,0E0,0E0],"parents":[2147483647,0,0,1,1,2,2,3,3,4,4,5,5,7,7,10,10,11,11,16,16,17,17,18,18],"right_children":[2,4,6,8,10,12,-1,14,-1,-1,16,18,-1,-1,-1,-1,20,22,24,-1,-1,-1,-1,-1,-1],"split_conditions":[1.05E1,6.5E0,1.55E1,4.5E0,7.5E0,1.45E1,4.6118546E-2,1.5E0,9.47294E-3,1.3321925E-2,8.5E0,1.25E1,3.0807894E-2,3.3244493E-3,5.465282E-3,2.0532575E-2,9.5E0,1.15E1,1.35E1,1.1686395E-2,1.814237E-2,2.0464191E-2,3.0638564E-2,1.1828406E-2,2.4041273E-2],"split_indices":[4,4,4,4,4,4,0,4,0,0,4,4,0,0,0,0,4,4,4,0,0,0,0,0,0],"split_type":[0,0,0,0,0,0,0,0,0,0,0,0,0,0,0,0,0,0,0,0,0,0,0,0,0],"sum_hessian":[3.32E2,2.06E2,1.26E2,1.19E2,8.7E1,1.07E2,1.9E1,7.7E1,4.2E1,2.3E1,6.4E1,8.5E1,2.2E1,2.3E1,5.4E1,2.1E1,4.3E1,4.1E1,4.4E1,2.1E1,2.2E1,1.6E1,2.5E1,2.1E1,2.3E1],"tree_param":{"num_deleted":"0","num_feature":"9","num_nodes":"25","size_leaf_vector":"0"}},{"base_weights":[4.1703492E-2,2.5572933E-2,6.7666665E-2,1.5469353E-2,3.905994E-2,5.921505E-2,1.0992203E-1,1.0656542E-2,2.1154333E-2,4.006033E-2,2.582762E-2,5.4779675E-2,7.322494E-2,7.89551E-3,1.19203655E-2,1.5197118E-2,2.232485E-2,3.1444006E-2,4.240837E-2,6.47999E-2,4.4210136E-2,5.5263773E-2,8.182173E-2,2.813998E-2,5.7099026E-2,1.0887146E-2,8.682569E-2],"categories":[],"categories_nodes":[],"categories_segments":[],"categories_sizes":[],"default_left":[1,1,1,1,1,1,0,1,1,1,0,1,0,0,0,0,0,0,0,1,1,0,1,0,0,0,0],"id":22,"left_children":[1,3,5,7,9,11,-1,13,15,17,-1,19,-1,-1,-1,-1,-1,-1,-1,21,23,-1,25,-1,-1,-1,-1],"loss_changes":[1.3773012E-1,2.760306E-2,3.8845956E-2,3.0578543E-3,1.3023615E-4,2.6997626E-3,0E0,1.396765E-4,3.7273392E-5,2.850294E-4,0E0,6.243378E-3,0E0,0E0,0E0,0E0,0E0,0E0,0E0,2.2957772E-3,7.713929E-3,0E0,3.669113E-3,0E0,0E0,0E0,0E0],"parents":[2147483647,0,0,1,1,2,2,3,3,4,4,5,5,7,7,8,8,9,9,11,11,19,19,20,20,22,22],"right_children":[2,4,6,8,10,12,-1,14,16,18,-1,20,-1,-1,-1,-1,-1,-1,-1,22,24,-1,26,-1,-1,-1,-1],"split_conditions":[1.05E1,6.5E0,1.55E1,3.5E0,1.16E2,1.45E1,3.297661E-2,1.5E0,4.5E0,7.5E0,7.7482862E-3,1.25E1,2.1967482E-2,2.368653E-3,3.57611E-3,4.5591355E-3,6.6974554E-3,9.433202E-3,1.2722512E-2,1.08E2,1.35E1,1.6579133E-2,1.15E1,8.441995E-3,1.7129708E-2,3.2661438E-3,2.6047708E-2],"split_indices":[4,4,4,4,2,4,0,4,4,4,0,4,0,0,0,0,0,0,0,2,4,0,4,0,0,0,0],"split_type":[0,0,0,0,0,0,0,0,0,0,0,0,0,0,0,0,0,0,0,0,0,0,0,0,0,0,0],"sum_hessian":[3.32E2,2.06E2,1.26E2,1.19E2,8.7E1,1.07E2,1.9E1,6.6E1,5.3E1,7.9E1,8E0,8.5E1,2.2E1,2.3E1,4.3E1,1.1E1,4.2E1,2E1,5.9E1,4.1E1,4.4E1,2.9E1,1.2E1,2.1E1,2.3E1,1E0,1.1E1],"tree_param":{"num_deleted":"0","num_feature":"9","num_nodes":"27","size_leaf_vector":"0"}},{"base_weights":[2.9712427E-2,1.6381573E-2,4.606475E-2,9.374666E-3,2.4338655E-2,4.070552E-2,7.8596495E-2,6.5134983E-3,1.1890485E-2,2.6675297E-2,1.6328638E-2,3.7879094E-2,5.2207615E-2,2.105817E-2,3.669704E-2,4.1762352E-2,3.1514484E-2,3.3386033E-2,5.2720584E-2,2.007814E-2,4.06847E-2,3.4805935E-2,1.2260437E-2,4.1022744E-2,6.29495E-2,4.604923E-2,2.4199486E-2],"categories":[],"categories_nodes":[],"categories_segments":[],"categories_sizes":[],"default_left":[1,1,1,1,1,1,0,0,0,1,0,1,0,0,0,1,1,1,1,0,1,0,0,0,0,0,0],"id":23,"left_children":[1,3,5,7,9,11,-1,-1,-1,13,-1,15,-1,-1,-1,17,19,21,23,-1,25,-1,-1,-1,-1,-1,-1],"loss_changes":[7.183617E-2,1.0086428E-2,2.2778124E-2,6.423695E-4,1.1740476E-3,2.2486895E-3,0E0,0E0,0E0,2.8863028E-3,0E0,1.3531446E-3,0E0,0E0,0E0,4.1144043E-3,3.9024428E-3,7.431172E-4,5.2870065E-4,0E0,1.0080859E-3,0E0,0E0,0E0,0E0,0E0,0E0],"parents":[2147483647,0,0,1,1,2,2,3,3,4,4,5,5,9,9,11,11,15,15,16,16,17,17,18,18,20,20],"right_children":[2,4,6,8,10,12,-1,-1,-1,14,-1,16,-1,-1,-1,18,20,22,24,-1,26,-1,-1,-1,-1,-1,-1],"split_conditions":[9.5E0,5.5E0,1.55E1,2.5E0,8.5E0,1.45E1,2.357895E-2,1.9540496E-3,3.5671457E-3,7.5E0,4.898592E-3,1.25E1,1.5662285E-2,6.317451E-3,1.1009113E-2,1.15E1,1.35E1,1.085E2,1.08E2,6.023442E-3,1.025E2,1.0441781E-2,3.6781312E-3,1.2306823E-2,1.888485E-2,1.381477E-2,7.259846E-3],"split_indices":[4,4,4,4,4,4,0,0,0,4,0,4,0,0,0,4,4,2,2,0,2,0,0,0,0,0,0],"split_type":[0,0,0,0,0,0,0,0,0,0,0,0,0,0,0,0,0,0,0,0,0,0,0,0,0,0,0],"sum_hessian":[3.32E2,1.84E2,1.48E2,9.9E1,8.5E1,1.29E2,1.9E1,4.8E1,5.1E1,6.4E1,2.1E1,1.07E2,2.2E1,4.3E1,2.1E1,6.3E1,4.4E1,3.8E1,2.5E1,2.1E1,2.3E1,3.5E1,3E0,1.4E1,1.1E1,1.6E1,7E0],"tree_param":{"num_deleted":"0","num_feature":"9","num_nodes":"27","size_leaf_vector":"0"}},{"base_weights":[2.121758E-2,1.28248E-2,3.4730084E-2,7.6212725E-3,1.9774783E-2,3.0432524E-2,5.6200407E-2,5.1902942E-3,1.0496352E-2,2.1740045E-2,1.731543E-2,2.838032E-2,3.8043212E-2,3.752629E-3,5.856514E-3,1.6756693E-2,2.6188243E-2,1.1653206E-2,2.1978628E-2,2.2810245E-2,3.4936562E-2,7.4157715E-3,3.926488E-2,2.296811E-2,7.7260337E-3,2.8272502E-2,1.4324882E-2,3.6148496E-2,1.5295029E-2,4.564031E-2,2.4793625E-2],"categories":[],"categories_nodes":[],"categories_segments":[],"categories_sizes":[],"default_left":[1,1,1,1,1,1,0,1,0,1,1,1,1,0,0,0,0,0,1,1,1,0,1,0,0,0,0,0,0,0,0],"id":24,"left_children":[1,3,5,7,9,11,-1,13,-1,15,17,19,21,-1,-1,-1,-1,-1,23,25,27,-1,29,-1,-1,-1,-1,-1,-1,-1,-1],"loss_changes":[3.7319288E-2,7.3353276E-3,1.00079775E-2,7.842309E-4,4.8886985E-5,6.0714036E-4,0E0,4.2195315E-5,0E0,5.5868365E-4,9.056572E-4,2.4532601E-3,4.5715272E-4,0E0,0E0,0E0,0E0,0E0,1.4690962E-4,1.9588117E-3,3.7547573E-4,0E0,6.213598E-4,0E0,0E0,0E0,0E0,0E0,0E0,0E0,0E0],"parents":[2147483647,0,0,1,1,2,2,3,3,4,4,5,5,7,7,9,9,10,10,11,11,12,12,18,18,19,19,20,20,22,22],"right_children":[2,4,6,8,10,12,-1,14,-1,16,18,20,22,-1,-1,-1,-1,-1,24,26,28,-1,30,-1,-1,-1,-1,-1,-1,-1,-1],"split_conditions":[1.05E1,6.5E0,1.55E1,3.5E0,8.5E0,1.105E2,1.6860124E-2,1.5E0,3.1489057E-3,7.5E0,9.5E0,1.35E1,1.15E1,1.1257888E-3,1.7569542E-3,5.0270082E-3,7.856473E-3,3.4959621E-3,1.065E2,1.25E1,1.08E2,2.2247315E-3,1.3E1,6.8904334E-3,2.3178102E-3,8.481751E-3,4.2974646E-3,1.0844549E-2,4.588509E-3,1.3692093E-2,7.438088E-3],"split_indices":[4,4,4,4,4,2,0,4,0,4,4,4,4,0,0,0,0,0,2,4,2,0,4,0,0,0,0,0,0,0,0],"split_type":[0,0,0,0,0,0,0,0,0,0,0,0,0,0,0,0,0,0,0,0,0,0,0,0,0,0,0,0,0,0,0],"sum_hessian":[3.32E2,2.06E2,1.26E2,1.19E2,8.7E1,1.07E2,1.9E1,6.6E1,5.3E1,4.4E1,4.3E1,8.8E1,1.9E1,2.3E1,4.3E1,2.3E1,2.1E1,2.1E1,2.2E1,5E1,3.8E1,1E0,1.8E1,2E1,2E0,2.9E1,2.1E1,3.5E1,3E0,1.1E1,7E0],"tree_param":{"num_deleted":"0","num_feature":"9","num_nodes":"31","size_leaf_vector":"0"}},{"base_weights":[1.5152883E-2,8.2538705E-3,2.3617072E-2,4.5651626E-3,1.2447091E-2,1.9327447E-2,3.408523E-2,3.1753073E-3,5.7870424E-3,1.3653212E-2,8.317774E-3,1.7859565E-2,2.5263334E-2,2.7301291E-2,4.0182494E-2,4.9702963E-3,6.600753E-3,1.0825938E-2,1.868716E-2,1.6501844E-2,2.17865E-2,7.785797E-3,2.805376E-2,1.8933715E-2,1.0224775E-2,3.3086777E-2,1.036377E-2],"categories":[],"categories_nodes":[],"categories_segments":[],"categories_sizes":[],"default_left":[1,1,1,1,1,1,1,0,1,1,0,1,1,0,0,0,0,0,0,1,0,0,1,0,0,0,0],"id":25,"left_children":[1,3,5,7,9,11,13,-1,15,17,-1,19,21,-1,-1,-1,-1,-1,-1,23,-1,-1,25,-1,-1,-1,-1],"loss_changes":[1.9250453E-2,2.804676E-3,6.03199E-3,1.5144795E-4,3.1475537E-4,4.8982725E-4,6.402284E-4,0E0,1.7512357E-6,7.227976E-4,0E0,1.2033433E-4,7.082047E-4,0E0,0E0,0E0,0E0,0E0,0E0,8.902252E-4,0E0,0E0,1.0816408E-3,0E0,0E0,0E0,0E0],"parents":[2147483647,0,0,1,1,2,2,3,3,4,4,5,5,6,6,8,8,9,9,11,11,12,12,19,19,22,22],"right_children":[2,4,6,8,10,12,14,-1,16,18,-1,20,22,-1,-1,-1,-1,-1,-1,24,-1,-1,26,-1,-1,-1,-1],"split_conditions":[9.5E0,5.5E0,1.45E1,2.5E0,8.5E0,1.105E2,1.55E1,9.5259224E-4,4.5E0,7.5E0,2.4953324E-3,1.35E1,1.15E1,8.190388E-3,1.2054749E-2,1.491089E-3,1.980226E-3,3.2477814E-3,5.6061484E-3,1.25E1,6.53595E-3,2.3357393E-3,1.3E1,5.680115E-3,3.0674327E-3,9.926033E-3,3.109131E-3],"split_indices":[4,4,4,4,4,2,4,0,4,4,0,4,4,0,0,0,0,0,0,4,0,0,4,0,0,0,0],"split_type":[0,0,0,0,0,0,0,0,0,0,0,0,0,0,0,0,0,0,0,0,0,0,0,0,0,0,0],"sum_hessian":[3.32E2,1.84E2,1.48E2,9.9E1,8.5E1,1.07E2,4.1E1,4.8E1,5.1E1,6.4E1,2.1E1,8.9E1,1.8E1,2.2E1,1.9E1,2.9E1,2.2E1,4.3E1,2.1E1,7E1,1.9E1,3E0,1.5E1,4.9E1,2.1E1,1.1E1,4E0],"tree_param":{"num_deleted":"0","num_feature":"9","num_nodes":"27","size_leaf_vector":"0"}},{"base_weights":[1.0806491E-2,6.422425E-3,1.786708E-2,3.7407638E-3,1.0006255E-2,1.568985E-2,2.8730774E-2,2.7658634E-3,5.422193E-3,1.1226993E-2,8.530357E-3,1.4461903E-2,2.036972E-2,1.7611583E-3,3.1539917E-3,8.827369E-3,1.33344475E-2,5.9363623E-3,1.0640684E-2,1.172249E-2,1.7673394E-2,5.1345825E-3,2.0901328E-2,2.6005965E-3,3.5284678E-3,1.4576975E-2,7.297169E-3,1.8373702E-2,6.9522858E-3,2.3988089E-2,1.3658524E-2,7.873535E-3,1.7475128E-2],"categories":[],"categories_nodes":[],"categories_segments":[],"categories_sizes":[],"default_left":[1,1,1,1,1,1,0,1,0,1,1,1,1,0,1,0,0,0,0,1,1,0,1,0,0,0,0,0,0,0,1,0,0],"id":26,"left_children":[1,3,5,7,9,11,-1,13,-1,15,17,19,21,-1,23,-1,-1,-1,-1,25,27,-1,29,-1,-1,-1,-1,-1,-1,-1,31,-1,-1],"loss_changes":[1.0192964E-2,1.9519664E-3,2.5531165E-3,1.8171E-4,6.277859E-5,3.260523E-4,0E0,2.4861773E-5,0E0,1.09861605E-4,1.7769658E-4,5.758088E-4,5.4663047E-5,0E0,2.22167E-6,0E0,0E0,0E0,0E0,5.3786254E-4,1.6507506E-4,0E0,9.7136945E-5,0E0,0E0,0E0,0E0,0E0,0E0,0E0,3.9041042E-5,0E0,0E0],"parents":[2147483647,0,0,1,1,2,2,3,3,4,4,5,5,7,7,9,9,10,10,11,11,12,12,14,14,19,19,20,20,22,22,30,30],"right_children":[2,4,6,8,10,12,-1,14,-1,16,18,20,22,-1,24,-1,-1,-1,-1,26,28,-1,30,-1,-1,-1,-1,-1,-1,-1,32,-1,-1],"split_conditions":[1.05E1,6.5E0,1.55E1,4.5E0,8.5E0,1.105E2,8.619233E-3,1.5E0,1.626658E-3,7.5E0,9.5E0,1.35E1,1.15E1,5.283475E-4,2.5E0,2.6482106E-3,4.0003345E-3,1.7809088E-3,3.1922052E-3,1.25E1,1.08E2,1.5403748E-3,1.3E1,7.80179E-4,1.0585404E-3,4.3730927E-3,2.1891508E-3,5.512111E-3,2.0856857E-3,7.196427E-3,1.45E1,2.3620606E-3,5.2425386E-3],"split_indices":[4,4,4,4,4,2,0,4,0,4,4,4,4,0,4,0,0,0,0,4,2,0,4,0,0,0,0,0,0,0,4,0,0],"split_type":[0,0,0,0,0,0,0,0,0,0,0,0,0,0,0,0,0,0,0,0,0,0,0,0,0,0,0,0,0,0,0,0,0],"sum_hessian":[3.32E2,2.06E2,1.26E2,1.19E2,8.7E1,1.07E2,1.9E1,7.7E1,4.2E1,4.4E1,4.3E1,8.8E1,1.9E1,2.3E1,5.4E1,2.3E1,2.1E1,2.1E1,2.2E1,5E1,3.8E1,1E0,1.8E1,2.5E1,2.9E1,2.9E1,2.1E1,3.5E1,3E0,1.1E1,7E0,4E0,3E0],"tree_param":{"num_deleted":"0","num_feature":"9","num_nodes":"33","size_leaf_vector":"0"}},{"base_weights":[7.730172E-3,4.853274E-3,1.3440244E-2,2.6525578E-3,7.3458967E-3,1.1750595E-2,2.054062E-2,1.9667333E-3,3.834924E-3,1.50853675E-2,1.0281121E-2,1.2548367E-3,2.24162E-3,3.1525984E-3,4.3996177E-3,5.207062E-3,1.2484343E-2,1.850495E-3,2.5058747E-3,1.0292689E-2,1.4228489E-2,1.1503331E-2,6.433487E-3],"categories":[],"categories_nodes":[],"categories_segments":[],"categories_sizes":[],"default_left":[1,1,1,1,0,1,0,1,1,0,1,0,1,0,0,0,1,0,0,1,0,0,0],"id":27,"left_children":[1,3,5,7,-1,9,-1,11,13,-1,15,-1,17,-1,-1,-1,19,-1,-1,21,-1,-1,-1],"loss_changes":[5.405057E-3,1.2037931E-3,1.0903198E-3,8.976518E-5,0E0,2.9573962E-4,0E0,1.2451055E-5,2.6978669E-6,0E0,6.8400474E-4,0E0,1.0475051E-6,0E0,0E0,0E0,2.938835E-5,0E0,0E0,3.8124155E-5,0E0,0E0,0E0],"parents":[2147483647,0,0,1,1,2,2,3,3,5,5,7,7,8,8,10,10,12,12,16,16,19,19],"right_children":[2,4,6,8,-1,10,-1,12,14,-1,16,-1,18,-1,-1,-1,20,-1,-1,22,-1,-1,-1],"split_conditions":[1.15E1,6.5E0,1.55E1,4.5E0,2.203769E-3,1.25E1,6.162186E-3,1.5E0,5.5E0,4.5256102E-3,1.35E1,3.7645103E-4,2.5E0,9.4577955E-4,1.3198854E-3,1.5621186E-3,1.45E1,5.551485E-4,7.517625E-4,1.025E2,4.268547E-3,3.4509995E-3,1.9300461E-3],"split_indices":[4,4,4,4,0,4,0,4,4,0,4,0,4,0,0,0,4,0,0,2,0,0,0],"split_type":[0,0,0,0,0,0,0,0,0,0,0,0,0,0,0,0,0,0,0,0,0,0,0],"sum_hessian":[3.32E2,2.22E2,1.1E2,1.19E2,1.03E2,9.1E1,1.9E1,7.7E1,4.2E1,2.5E1,6.6E1,2.3E1,5.4E1,2.2E1,2E1,2.1E1,4.5E1,2.5E1,2.9E1,2.3E1,2.2E1,1.6E1,7E0],"tree_param":{"num_deleted":"0","num_feature":"9","num_nodes":"23","size_leaf_vector":"0"}},{"base_weights":[5.494716E-3,3.4243579E-3,9.604583E-3,1.8896897E-3,5.1622023E-3,8.3959E-3,1.4684295E-2,1.2985058E-3,2.5882015E-3,5.852339E-3,4.558563E-3,7.431752E-3,1.1709113E-2,8.9383125E-4,1.489726E-3,2.1696652E-3,3.1425839E-3,4.1772523E-3,7.413691E-3,2.1348433E-3,5.808904E-3,5.607605E-3,8.925023E-3,1.32459E-2,7.940292E-3,1.4455694E-3,4.875183E-3,5.9212134E-3,7.7056885E-4,8.010864E-3,3.714128E-3,9.23072E-3,3.9424896E-3,4.4372557E-3,1.0334015E-2],"categories":[],"categories_nodes":[],"categories_segments":[],"categories_sizes":[],"default_left":[1,1,1,1,1,1,0,1,1,1,1,1,1,0,0,0,0,0,0,1,1,1,1,0,1,0,0,0,0,0,0,0,0,0,0],"id":28,"left_children":[1,3,5,7,9,11,-1,13,15,17,19,21,23,-1,-1,-1,-1,-1,-1,25,27,29,31,-1,33,-1,-1,-1,-1,-1,-1,-1,-1,-1,-1],"loss_changes":[2.8005727E-3,5.849891E-4,5.5822544E-4,4.6193047E-5,1.6647624E-5,2.0686816E-4,0E0,3.853027E-6,5.7112193E-6,8.672429E-5,1.6942725E-4,1.5152432E-4,4.8691873E-6,0E0,0E0,0E0,0E0,0E0,0E0,3.450716E-5,1.7505605E-5,1.3406517E-4,2.3010653E-5,0E0,2.1227752E-5,0E0,0E0,0E0,0E0,0E0,0E0,0E0,0E0,0E0,0E0],"parents":[2147483647,0,0,1,1,2,2,3,3,4,4,5,5,7,7,8,8,9,9,10,10,11,11,12,12,19,19,20,20,21,21,22,22,24,24],"right_children":[2,4,6,8,10,12,-1,14,16,18,20,22,24,-1,-1,-1,-1,-1,-1,26,28,30,32,-1,34,-1,-1,-1,-1,-1,-1,-1,-1,-1,-1],"split_conditions":[1.15E1,6.5E0,1.55E1,3.5E0,8.5E0,1.105E2,4.405289E-3,1.5E0,5.5E0,7.5E0,9.5E0,1.35E1,1.3E1,2.681494E-4,4.469178E-4,6.508996E-4,9.427752E-4,1.2531758E-3,2.2241073E-3,1.145E2,1.21E2,1.25E1,1.08E2,3.9737704E-3,1.45E1,4.3367085E-4,1.462555E-3,1.776364E-3,2.3117066E-4,2.4032593E-3,1.1142384E-3,2.769216E-3,1.182747E-3,1.3311767E-3,3.1002045E-3],"split_indices":[4,4,4,4,4,2,0,4,4,4,4,4,4,0,0,0,0,0,0,2,2,4,2,0,4,0,0,0,0,0,0,0,0,0,0],"split_type":[0,0,0,0,0,0,0,0,0,0,0,0,0,0,0,0,0,0,0,0,0,0,0,0,0,0,0,0,0,0,0,0,0,0,0],"sum_hessian":[3.32E2,2.22E2,1.1E2,1.19E2,1.03E2,9.1E1,1.9E1,6.6E1,5.3E1,4.4E1,5.9E1,7.3E1,1.8E1,2.3E1,4.3E1,3.3E1,2E1,2.3E1,2.1E1,2.1E1,3.8E1,3.5E1,3.8E1,1.1E1,7E0,1.8E1,3E0,3.7E1,1E0,1.4E1,2.1E1,3.5E1,3E0,4E0,3E0],"tree_param":{"num_deleted":"0","num_feature":"9","num_nodes":"35","size_leaf_vector":"0"}},{"base_weights":[3.9359056E-3,2.4396058E-3,6.9065266E-3,1.3419708E-3,3.6826502E-3,5.5033E-3,9.080796E-3,9.812942E-4,1.9650126E-3,4.1712443E-3,3.2548269E-3,7.7593876E-3,4.0774876E-3,7.4562402E-3,1.0494995E-2,7.8300555E-4,1.2724559E-3,2.9745102E-3,5.2871704E-3,1.5792847E-3,4.1165473E-3,5.7678223E-3,9.602229E-3,2.650868E-3,5.215327E-3,1.0335821E-3,3.7765503E-3,4.297892E-3,1.455307E-3,-1.18255615E-4,2.0192463E-3],"categories":[],"categories_nodes":[],"categories_segments":[],"categories_sizes":[],"default_left":[1,1,1,1,1,1,1,1,0,1,1,1,1,0,0,0,0,0,0,1,1,0,0,0,0,0,0,0,1,0,0],"id":29,"left_children":[1,3,5,7,9,11,13,15,-1,17,19,21,23,-1,-1,-1,-1,-1,-1,25,27,-1,-1,-1,-1,-1,-1,-1,29,-1,-1],"loss_changes":[1.4633159E-3,2.9932125E-4,2.8868578E-4,2.5037734E-5,8.162693E-6,1.9353419E-4,1.8239487E-5,3.506917E-6,4.6643254E-7,4.4369255E-5,8.0129714E-5,4.0039653E-5,5.9221697E-5,0E0,0E0,1.8313767E-7,0E0,0E0,0E0,2.2475797E-5,1.2566743E-5,0E0,0E0,0E0,0E0,0E0,0E0,0E0,3.7883628E-6,0E0,0E0],"parents":[2147483647,0,0,1,1,2,2,3,3,4,4,5,5,6,6,7,7,9,9,10,10,11,11,12,12,19,19,20,20,28,28],"right_children":[2,4,6,8,10,12,14,16,-1,18,20,22,24,-1,-1,-1,-1,-1,-1,26,28,-1,-1,-1,-1,-1,-1,-1,30,-1,-1],"split_conditions":[1.15E1,6.5E0,1.45E1,4.5E0,8.5E0,1.25E1,1.55E1,2.5E0,5.895038E-4,7.5E0,9.5E0,1.08E2,1.35E1,2.2368722E-3,3.1484987E-3,2.3490167E-4,3.8173678E-4,8.9235307E-4,1.5861512E-3,1.145E2,1.085E2,1.7303467E-3,2.8806687E-3,7.952604E-4,1.5645981E-3,3.1007465E-4,1.1329651E-3,1.2893677E-3,1E1,-3.5476685E-5,6.0577394E-4],"split_indices":[4,4,4,4,4,4,4,4,0,4,4,2,4,0,0,0,0,0,0,2,2,0,0,0,0,0,0,0,3,0,0],"split_type":[0,0,0,0,0,0,0,0,0,0,0,0,0,0,0,0,0,0,0,0,0,0,0,0,0,0,0,0,0,0,0],"sum_hessian":[3.32E2,2.22E2,1.1E2,1.19E2,1.03E2,6.9E1,4.1E1,7.7E1,4.2E1,4.4E1,5.9E1,2.5E1,4.4E1,2.2E1,1.9E1,4.8E1,2.9E1,2.3E1,2.1E1,2.1E1,3.8E1,1.4E1,1.1E1,2.1E1,2.3E1,1.8E1,3E0,3.5E1,3E0,1E0,2E0],"tree_param":{"num_deleted":"0","num_feature":"9","num_nodes":"31","size_leaf_vector":"0"}},{"base_weights":[2.8127807E-3,1.738591E-3,4.945497E-3,7.855511E-4,2.4931508E-3,3.9518084E-3,6.4838952E-3,5.531895E-4,9.894004E-4,1.9586736E-3,2.7527043E-3,5.606725E-3,2.9078166E-3,5.310722E-3,7.50885E-3,3.772389E-3,2.3329416E-3,4.151408E-3,6.9586434E-3,1.893477E-3,3.7164688E-3,1.169378E-3,2.929492E-3,4.179113E-3,2.2687912E-3,7.372404E-4,2.9296875E-3,2.987912E-3,3.5476685E-4],"categories":[],"categories_nodes":[],"categories_segments":[],"categories_sizes":[],"default_left":[1,1,1,1,1,1,1,0,0,0,1,1,1,0,0,0,1,0,0,0,1,1,1,0,0,0,0,0,0],"id":30,"left_children":[1,3,5,7,9,11,13,-1,-1,-1,15,17,19,-1,-1,-1,21,-1,-1,-1,23,25,27,-1,-1,-1,-1,-1,-1],"loss_changes":[7.542854E-4,1.584065E-4,1.440614E-4,4.189351E-6,1.1810276E-5,1.04637E-4,1.0625343E-5,4.793783E-7,0E0,0E0,2.5869347E-5,2.226606E-5,2.9874092E-5,0E0,0E0,0E0,3.822174E-5,0E0,0E0,0E0,6.592687E-6,1.45754275E-5,4.8061775E-6,0E0,0E0,0E0,0E0,0E0,0E0],"parents":[2147483647,0,0,1,1,2,2,3,3,4,4,5,5,6,6,10,10,11,11,12,12,16,16,20,20,21,21,22,22],"right_children":[2,4,6,8,10,12,14,-1,-1,-1,16,18,20,-1,-1,-1,22,-1,-1,-1,24,26,28,-1,-1,-1,-1,-1,-1],"split_conditions":[1.15E1,5.5E0,1.45E1,2.5E0,7.5E0,1.25E1,1.55E1,1.6595685E-4,2.9682013E-4,5.876021E-4,8.5E0,1.08E2,1.35E1,1.5932167E-3,2.252655E-3,1.1317168E-3,9.5E0,1.2454225E-3,2.087593E-3,5.6804315E-4,1.025E2,1.145E2,1.21E2,1.253734E-3,6.806374E-4,2.2117213E-4,8.789063E-4,8.963736E-4,1.0643006E-4],"split_indices":[4,4,4,4,4,4,4,0,0,0,4,2,4,0,0,0,4,0,0,0,2,2,2,0,0,0,0,0,0],"split_type":[0,0,0,0,0,0,0,0,0,0,0,0,0,0,0,0,0,0,0,0,0,0,0,0,0,0,0,0,0],"sum_hessian":[3.32E2,2.22E2,1.1E2,9.9E1,1.23E2,6.9E1,4.1E1,4.8E1,5.1E1,4.3E1,8E1,2.5E1,4.4E1,2.2E1,1.9E1,2.1E1,5.9E1,1.4E1,1.1E1,2.1E1,2.3E1,2.1E1,3.8E1,1.6E1,7E0,1.8E1,3E0,3.7E1,1E0],"tree_param":{"num_deleted":"0","num_feature":"9","num_nodes":"29","size_leaf_vector":"0"}},{"base_weights":[2.0118318E-3,1.1499147E-3,3.4008478E-3,5.5415154E-4,1.6908998E-3,2.7605102E-3,4.6310425E-3,2.531608E-4,6.407701E-4,1.1226109E-3,1.8072996E-3,2.3677282E-3,4.215465E-3,3.7928042E-3,5.3634644E-3,2.1472508E-3,1.4185472E-3,2.1416158E-3,2.8259277E-3,4.9045268E-3,1.5808105E-3,1.5560786E-3,2.6945635E-3,8.6871063E-4,1.8828019E-3,2.6474E-3,1.3545643E-3,5.276329E-4,2.2716522E-3,2.085368E-3,-1.6276042E-4],"categories":[],"categories_nodes":[],"categories_segments":[],"categories_sizes":[],"default_left":[1,1,1,1,1,1,1,0,0,0,1,1,1,0,0,1,1,1,0,0,0,0,0,1,1,0,0,0,0,0,0],"id":31,"left_children":[1,3,5,7,9,11,13,-1,-1,-1,15,17,19,-1,-1,21,23,25,-1,-1,-1,-1,-1,27,29,-1,-1,-1,-1,-1,-1],"loss_changes":[3.9476238E-4,6.577888E-5,8.725899E-5,2.4449182E-6,5.1151437E-6,3.916613E-5,5.4429984E-6,0E0,3.131354E-7,0E0,8.583826E-6,1.2003002E-6,2.3109344E-5,0E0,0E0,1.0367075E-5,9.59602E-6,1.6715901E-5,9.787473E-7,0E0,0E0,9.0550384E-7,0E0,9.328669E-6,9.869727E-6,0E0,0E0,0E0,0E0,0E0,0E0],"parents":[2147483647,0,0,1,1,2,2,3,3,4,4,5,5,6,6,10,10,11,11,12,12,15,15,16,16,17,17,23,23,24,24],"right_children":[2,4,6,8,10,12,14,-1,-1,-1,16,18,20,-1,-1,22,24,26,-1,-1,-1,-1,-1,28,30,-1,-1,-1,-1,-1,-1],"split_conditions":[1.05E1,5.5E0,1.45E1,1.5E0,6.5E0,1.105E2,1.55E1,7.594824E-5,1.9223103E-4,3.3678327E-4,8.5E0,1.35E1,1.3E1,1.1378413E-3,1.6090394E-3,7.5E0,9.5E0,1.25E1,8.4777834E-4,1.4713581E-3,4.7424316E-4,4.6682358E-4,8.083691E-4,1.145E2,1.065E2,7.9422E-4,4.063693E-4,1.5828987E-4,6.814957E-4,6.256104E-4,-4.882813E-5],"split_indices":[4,4,4,4,4,2,4,0,0,0,4,4,4,0,0,4,4,4,0,0,0,0,0,2,2,0,0,0,0,0,0],"split_type":[0,0,0,0,0,0,0,0,0,0,0,0,0,0,0,0,0,0,0,0,0,0,0,0,0,0,0,0,0,0,0],"sum_hessian":[3.32E2,2.06E2,1.26E2,9.9E1,1.07E2,8.5E1,4.1E1,2.3E1,7.6E1,2E1,8.7E1,6.9E1,1.6E1,2.2E1,1.9E1,4.4E1,4.3E1,5E1,1.9E1,1.2E1,4E0,2.3E1,2.1E1,2.1E1,2.2E1,2.9E1,2.1E1,1.8E1,3E0,2E1,2E0],"tree_param":{"num_deleted":"0","num_feature":"9","num_nodes":"31","size_leaf_vector":"0"}},{"base_weights":[1.4387165E-3,8.7172247E-4,2.5648512E-3,4.6619575E-4,1.331256E-3,2.2594617E-3,3.8414001E-3,3.2675572E-4,7.082917E-4,1.5319824E-3,1.1585236E-3,1.8976573E-3,3.5496762E-3,1.1100769E-3,1.9226074E-3,6.4503064E-4,1.4184805E-3,1.5294817E-3,2.1888537E-3,8.937291E-4,1.9683838E-3,3.7584806E-4,1.7623901E-3,1.4983283E-3,3.452301E-4,2.2501627E-3,9.685863E-4,2.289242E-3,7.381439E-4,-5.226135E-4,8.087158E-4],"categories":[],"categories_nodes":[],"categories_segments":[],"categories_sizes":[],"default_left":[1,1,1,1,1,1,0,0,0,1,1,1,0,1,0,1,1,1,1,0,0,0,0,0,1,0,0,0,0,0,0],"id":32,"left_children":[1,3,5,7,9,11,-1,-1,-1,13,15,17,-1,19,-1,21,23,25,27,-1,-1,-1,-1,-1,29,-1,-1,-1,-1,-1,-1],"loss_changes":[2.1038845E-4,4.0936124E-5,3.459328E-5,3.819505E-6,1.8310384E-6,3.6210055E-5,0E0,5.9531976E-7,2.1136657E-9,5.2820687E-6,7.094197E-6,4.5858324E-6,0E0,2.6974267E-6,0E0,5.95463E-6,2.824905E-6,1.2372686E-5,3.989946E-6,0E0,0E0,0E0,0E0,0E0,2.0315783E-6,0E0,0E0,0E0,0E0,0E0,0E0],"parents":[2147483647,0,0,1,1,2,2,3,3,4,4,5,5,9,9,10,10,11,11,13,13,15,15,16,16,17,17,18,18,24,24],"right_children":[2,4,6,8,10,12,-1,-1,-1,14,16,18,-1,20,-1,22,24,26,28,-1,-1,-1,-1,-1,30,-1,-1,-1,-1,-1,-1],"split_conditions":[1.15E1,6.5E0,1.55E1,4.5E0,8.5E0,1.105E2,1.1524201E-3,9.802672E-5,2.1248752E-4,7.5E0,9.5E0,1.35E1,1.0649029E-3,1.17E2,5.767823E-4,1.145E2,1.085E2,1.25E1,1.08E2,2.6811875E-4,5.9051515E-4,1.12754424E-4,5.2871706E-4,4.494985E-4,1E1,6.750488E-4,2.905759E-4,6.8677263E-4,2.2144319E-4,-1.5678407E-4,2.4261475E-4],"split_indices":[4,4,4,4,4,2,0,0,0,4,4,4,0,2,0,2,2,4,2,0,0,0,0,0,3,0,0,0,0,0,0],"split_type":[0,0,0,0,0,0,0,0,0,0,0,0,0,0,0,0,0,0,0,0,0,0,0,0,0,0,0,0,0,0,0],"sum_hessian":[3.32E2,2.22E2,1.1E2,1.19E2,1.03E2,9.1E1,1.9E1,7.7E1,4.2E1,4.4E1,5.9E1,7.3E1,1.8E1,2.3E1,2.1E1,2.1E1,3.8E1,3.5E1,3.8E1,2E1,3E0,1.8E1,3E0,3.5E1,3E0,1.4E1,2.1E1,3.5E1,3E0,1E0,2E0],"tree_param":{"num_deleted":"0","num_feature":"9","num_nodes":"31","size_leaf_vector":"0"}},{"base_weights":[1.0274193E-3,6.2276213E-4,1.8311234E-3,2.6849748E-4,9.034372E-4,1.4664786E-3,2.3952667E-3,8.551443E-4,1.4967918E-3,2.1890493E-3,1.016405E-3,2.1254595E-3,3.1483967E-3,6.345423E-4,9.6150185E-4,1.6528538E-3,2.0217896E-4,1.6235352E-3,2.7135212E-3,6.9184735E-4,1.2715658E-3,1.5945435E-3,2.6916503E-3,1.3691295E-3,7.8419276E-4,1.5581916E-3,5.0354004E-4,2.6743035E-4,1.0219374E-3],"categories":[],"categories_nodes":[],"categories_segments":[],"categories_sizes":[],"default_left":[1,1,1,0,1,1,1,1,1,1,1,1,0,0,1,0,0,0,0,0,1,0,0,0,1,0,0,0,0],"id":33,"left_children":[1,3,5,-1,7,9,11,13,15,17,19,21,-1,-1,23,-1,-1,-1,-1,-1,25,-1,-1,-1,27,-1,-1,-1,-1],"loss_changes":[1.0715949E-4,2.1931053E-5,1.9321364E-5,9.786631E-7,2.2732274E-6,2.0539752E-5,1.8426072E-6,2.1350206E-6,1.2821474E-6,3.306006E-6,2.8469221E-6,5.9284357E-6,0E0,0E0,4.4916014E-6,0E0,0E0,0E0,0E0,0E0,4.498652E-6,0E0,0E0,0E0,6.6067223E-6,0E0,0E0,0E0,0E0],"parents":[2147483647,0,0,1,1,2,2,4,4,5,5,6,6,7,7,8,8,9,9,10,10,11,11,14,14,20,20,24,24],"right_children":[2,4,6,-1,8,10,12,14,16,18,20,22,-1,-1,24,-1,-1,-1,-1,-1,26,-1,-1,-1,28,-1,-1,-1,-1],"split_conditions":[1.15E1,5.5E0,1.45E1,8.0549245E-5,1.185E2,1.25E1,1.095E2,7.5E0,9.5E0,1.08E2,1.35E1,1.55E1,9.4451907E-4,1.903627E-4,8.5E0,4.9585616E-4,6.065369E-5,4.8706058E-4,8.1405643E-4,2.0755421E-4,1.025E2,4.7836304E-4,8.0749515E-4,4.1073887E-4,9.5E0,4.674575E-4,1.5106202E-4,8.022911E-5,3.065812E-4],"split_indices":[4,4,4,0,2,4,2,4,4,2,4,4,0,0,4,0,0,0,0,0,2,0,0,0,4,0,0,0,0],"split_type":[0,0,0,0,0,0,0,0,0,0,0,0,0,0,0,0,0,0,0,0,0,0,0,0,0,0,0,0,0],"sum_hessian":[3.32E2,2.22E2,1.1E2,9.9E1,1.23E2,6.9E1,4.1E1,1.16E2,7E0,2.5E1,4.4E1,3.3E1,8E0,4E1,7.6E1,6E0,1E0,1.4E1,1.1E1,2.1E1,2.3E1,1.9E1,1.4E1,2.1E1,5.5E1,1.6E1,7E0,1.8E1,3.7E1],"tree_param":{"num_deleted":"0","num_feature":"9","num_nodes":"29","size_leaf_vector":"0"}},{"base_weights":[7.373764E-4,4.4316347E-4,1.3218098E-3,1.8918992E-4,6.4440694E-4,1.0571071E-3,1.7315092E-3,8.2327395E-5,2.86249E-4,6.0656946E-4,1.1172295E-3,1.5807519E-3,7.310655E-4,1.5281228E-3,2.307468E-3,4.4845953E-4,6.8288035E-4,1.167806E-3,1.965205E-3,4.9521704E-4,9.167989E-4,1.1451722E-3,1.936849E-3,9.758689E-4,5.555834E-4,1.1201747E-3,3.7002563E-4,1.8792403E-4,7.247925E-4],"categories":[],"categories_nodes":[],"categories_segments":[],"categories_sizes":[],"default_left":[1,1,1,1,1,1,1,0,0,1,0,1,1,1,0,0,1,0,0,0,1,0,0,0,1,0,0,0,0],"id":34,"left_children":[1,3,5,7,9,11,13,-1,-1,15,-1,17,19,21,-1,-1,23,-1,-1,-1,25,-1,-1,-1,27,-1,-1,-1,-1],"loss_changes":[5.667287E-5,1.127573E-5,1.0207397E-5,1.0136314E-6,1.540735E-6,1.0795455E-5,1.3938843E-6,2.2958156E-7,0E0,1.1054253E-6,6.2555773E-7,1.832741E-6,1.5172063E-6,3.1037198E-6,0E0,0E0,2.3296598E-6,0E0,0E0,0E0,2.2543172E-6,0E0,0E0,0E0,3.347628E-6,0E0,0E0,0E0,0E0],"parents":[2147483647,0,0,1,1,2,2,3,3,4,4,5,5,6,6,9,9,11,11,12,12,13,13,16,16,20,20,24,24],"right_children":[2,4,6,8,10,12,14,-1,-1,16,-1,18,20,22,-1,-1,24,-1,-1,-1,26,-1,-1,-1,28,-1,-1,-1,-1],"split_conditions":[1.15E1,5.5E0,1.45E1,2.5E0,1.185E2,1.25E1,1.095E2,2.469822E-5,8.587471E-5,7.5E0,3.3516885E-4,1.08E2,1.35E1,1.55E1,6.922404E-4,1.3453787E-4,8.5E0,3.503418E-4,5.8956153E-4,1.4856512E-4,1.025E2,3.4355166E-4,5.810547E-4,2.9276067E-4,9.5E0,3.360524E-4,1.1100769E-4,5.6377212E-5,2.1743776E-4],"split_indices":[4,4,4,4,2,4,2,0,0,4,0,2,4,4,0,0,4,0,0,0,2,0,0,0,4,0,0,0,0],"split_type":[0,0,0,0,0,0,0,0,0,0,0,0,0,0,0,0,0,0,0,0,0,0,0,0,0,0,0,0,0],"sum_hessian":[3.32E2,2.22E2,1.1E2,9.9E1,1.23E2,6.9E1,4.1E1,4.8E1,5.1E1,1.16E2,7E0,2.5E1,4.4E1,3.3E1,8E0,4E1,7.6E1,1.4E1,1.1E1,2.1E1,2.3E1,1.9E1,1.4E1,2.1E1,5.5E1,1.6E1,7E0,1.8E1,3.7E1],"tree_param":{"num_deleted":"0","num_feature":"9","num_nodes":"29","size_leaf_vector":"0"}},{"base_weights":[5.2888546E-4,3.1510598E-4,9.536056E-4,1.6160011E-4,4.8919825E-4,7.6293945E-4,1.2486776E-3,1.1432355E-3,5.2625866E-4,1.0932473E-3,1.6971164E-3,8.4025064E-4,1.4266968E-3,8.117676E-4,1.3956706E-3],"categories":[],"categories_nodes":[],"categories_segments":[],"categories_sizes":[],"default_left":[1,1,1,0,0,1,1,1,0,1,0,0,0,0,0],"id":35,"left_children":[1,3,5,-1,-1,7,9,11,-1,13,-1,-1,-1,-1,-1],"loss_changes":[2.993473E-5,5.880438E-6,5.2922187E-6,8.8977936E-7,7.5791286E-7,5.698974E-6,1.072076E-6,1.0342119E-6,7.8133144E-7,1.7613238E-6,9.321302E-7,0E0,0E0,0E0,0E0],"parents":[2147483647,0,0,1,1,2,2,5,5,6,6,7,7,9,9],"right_children":[2,4,6,-1,-1,8,10,12,-1,14,-1,-1,-1,-1,-1],"split_conditions":[1.15E1,6.5E0,1.45E1,4.8480037E-5,1.4675948E-4,1.25E1,1.095E2,1.08E2,1.578776E-4,1.55E1,5.0913496E-4,2.520752E-4,4.2800905E-4,2.4353029E-4,4.1870118E-4],"split_indices":[4,4,4,0,0,4,2,2,0,4,0,0,0,0,0],"split_type":[0,0,0,0,0,0,0,0,0,0,0,0,0,0,0],"sum_hessian":[3.32E2,2.22E2,1.1E2,1.19E2,1.03E2,6.9E1,4.1E1,2.5E1,4.4E1,3.3E1,8E0,1.4E1,1.1E1,1.9E1,1.4E1],"tree_param":{"num_deleted":"0","num_feature":"9","num_nodes":"15","size_leaf_vector":"0"}},{"base_weights":[3.7748893E-4,2.2225316E-4,6.859582E-4,8.5048676E-5,3.3110956E-4,5.447388E-4,9.049915E-4,3.0328473E-4,6.966591E-4,8.26909E-4,3.6960177E-4],"categories":[],"categories_nodes":[],"categories_segments":[],"categories_sizes":[],"default_left":[1,1,1,0,1,1,0,0,0,0,0],"id":36,"left_children":[1,3,5,-1,7,9,-1,-1,-1,-1,-1],"loss_changes":[1.5793401E-5,3.3024753E-6,2.9404437E-6,6.5040075E-7,1.0499607E-6,3.1536656E-6,7.2127295E-7,7.804774E-7,7.854692E-7,5.730053E-7,9.144078E-7],"parents":[2147483647,0,0,1,1,2,2,4,4,5,5],"right_children":[2,4,6,-1,8,10,-1,-1,-1,-1,-1],"split_conditions":[1.15E1,5.5E0,1.45E1,2.5514604E-5,1.185E2,1.25E1,2.7149747E-4,9.098542E-5,2.0899774E-4,2.480727E-4,1.1088054E-4],"split_indices":[4,4,4,0,2,4,0,0,0,0,0],"split_type":[0,0,0,0,0,0,0,0,0,0,0],"sum_hessian":[3.32E2,2.22E2,1.1E2,9.9E1,1.23E2,6.9E1,4.1E1,1.16E2,7E0,2.5E1,4.4E1],"tree_param":{"num_deleted":"0","num_feature":"9","num_nodes":"11","size_leaf_vector":"0"}},{"base_weights":[2.658317E-4,1.4365929E-4,4.6286997E-4,1.3579183E-5,2.0445154E-4,3.8583996E-4,7.617187E-4,3.1932016E-4,7.5480144E-4],"categories":[],"categories_nodes":[],"categories_segments":[],"categories_sizes":[],"default_left":[1,1,1,0,0,1,0,0,0],"id":37,"left_children":[1,3,5,-1,-1,7,-1,-1,-1],"loss_changes":[7.949693E-6,1.6341514E-6,2.6296802E-6,3.5213736E-7,6.723062E-7,2.2869317E-6,4.6769037E-7,6.246555E-7,0E0],"parents":[2147483647,0,0,1,1,2,2,5,5],"right_children":[2,4,6,-1,-1,8,-1,-1,-1],"split_conditions":[1.05E1,3.5E0,1.105E2,4.073755E-6,6.1335464E-5,1.55E1,2.2851562E-4,9.579605E-5,2.2644045E-4],"split_indices":[4,4,2,0,0,4,0,0,0],"split_type":[0,0,0,0,0,0,0,0,0],"sum_hessian":[3.32E2,2.06E2,1.26E2,6.6E1,1.4E2,1.02E2,2.4E1,8.8E1,1.4E1],"tree_param":{"num_deleted":"0","num_feature":"9","num_nodes":"9","size_leaf_vector":"0"}},{"base_weights":[1.8752158E-4,1.329259E-4,4.105788E-4,1.1001342E-4,3.9827256E-4,4.3426998E-4,-2.2379558E-4,4.9562597E-5,1.7889615E-4,1.8801007E-5,5.488078E-4,4.1510843E-4,1.2231123E-4,-1.4455695E-4,1.8657338E-4,2.565384E-4,-0E0],"categories":[],"categories_nodes":[],"categories_segments":[],"categories_sizes":[],"default_left":[1,1,1,1,1,0,0,0,1,0,0,0,1,0,1,0,0],"id":38,"left_children":[1,3,5,7,9,-1,-1,-1,11,-1,-1,-1,13,-1,15,-1,-1],"loss_changes":[4.0006853E-6,1.5916366E-6,1.0740769E-6,1.0279739E-6,1.1892828E-6,4.897538E-7,0E0,4.87899E-7,1.4996897E-6,2.851032E-8,2.2526456E-7,0E0,1.6561747E-6,0E0,1.0051278E-6,0E0,0E0],"parents":[2147483647,0,0,1,1,2,2,3,3,4,4,8,8,12,12,14,14],"right_children":[2,4,6,8,10,-1,-1,-1,12,-1,-1,-1,14,-1,16,-1,-1],"split_conditions":[1.35E1,1.175E2,1.245E2,7.5E0,6E0,1.30281E-4,-6.713867E-5,1.48687795E-5,8.5E0,5.6403023E-6,1.6464235E-4,1.2453254E-4,9.5E0,-4.3367087E-5,1.25E1,7.696152E-5,-0E0],"split_indices":[4,2,2,4,4,0,0,0,4,0,0,0,4,0,4,0,0],"split_type":[0,0,0,0,0,0,0,0,0,0,0,0,0,0,0,0,0],"sum_hessian":[3.32E2,2.68E2,6.4E1,2.48E2,2E1,6.2E1,2E0,1.33E2,1.15E2,6E0,1.4E1,2.1E1,9.4E1,1.8E1,7.6E1,5.5E1,2.1E1],"tree_param":{"num_deleted":"0","num_feature":"9","num_nodes":"17","size_leaf_vector":"0"}},{"base_weights":[1.3164715E-4,7.475438E-5,2.4475923E-4],"categories":[],"categories_nodes":[],"categories_segments":[],"categories_sizes":[],"default_left":[1,0,0],"id":39,"left_children":[1,-1,-1],"loss_changes":[2.1246447E-6,8.269484E-7,9.931314E-7],"parents":[2147483647,0,0],"right_children":[2,-1,-1],"split_conditions":[1.15E1,2.2426315E-5,7.342777E-5],"split_indices":[4,0,0],"split_type":[0,0,0],"sum_hessian":[3.32E2,2.22E2,1.1E2],"tree_param":{"num_deleted":"0","num_feature":"9","num_nodes":"3","size_leaf_vector":"0"}},{"base_weights":[9.118616E-5,6.558144E-5,2.670288E-4,1.6784668E-4,6.12047E-4,1.3389587E-3,2.5431314E-5],"categories":[],"categories_nodes":[],"categories_segments":[],"categories_sizes":[],"default_left":[1,0,1,0,1,0,0],"id":40,"left_children":[1,-1,3,-1,5,-1,-1],"loss_changes":[1.4817876E-6,9.281074E-7,1.3344948E-6,8.113217E-7,3.8037088E-6,0E0,0E0],"parents":[2147483647,0,0,2,2,4,4],"right_children":[2,-1,4,-1,6,-1,-1],"split_conditions":[1.45E1,1.9674431E-5,1.095E2,5.0354007E-5,1.55E1,4.0168763E-4,7.6293945E-6],"split_indices":[4,0,2,0,4,0,0],"split_type":[0,0,0,0,0,0,0],"sum_hessian":[3.32E2,2.91E2,4.1E1,3.3E1,8E0,3E0,5E0],"tree_param":{"num_deleted":"0","num_feature":"9","num_nodes":"7","size_leaf_vector":"0"}},{"base_weights":[6.4861306E-5,-1.4177959E-4,8.065008E-5],"categories":[],"categories_nodes":[],"categories_segments":[],"categories_sizes":[],"default_left":[1,0,0],"id":41,"left_children":[1,-1,-1],"loss_changes":[1.0978827E-6,0E0,7.2020066E-7],"parents":[2147483647,0,0],"right_children":[2,-1,-1],"split_conditions":[1.5E0,-4.2533877E-5,2.4195026E-5],"split_indices":[4,0,0],"split_type":[0,0,0],"sum_hessian":[3.32E2,2.3E1,3.09E2],"tree_param":{"num_deleted":"0","num_feature":"9","num_nodes":"3","size_leaf_vector":"0"}},{"base_weights":[4.517495E-5],"categories":[],"categories_nodes":[],"categories_segments":[],"categories_sizes":[],"default_left":[0],"id":42,"left_children":[-1],"loss_changes":[7.8375825E-7],"parents":[2147483647],"right_children":[-1],"split_conditions":[1.3552486E-5],"split_indices":[0],"split_type":[0],"sum_hessian":[3.32E2],"tree_param":{"num_deleted":"0","num_feature":"9","num_nodes":"1","size_leaf_vector":"0"}},{"base_weights":[3.0248373E-5],"categories":[],"categories_nodes":[],"categories_segments":[],"categories_sizes":[],"default_left":[0],"id":43,"left_children":[-1],"loss_changes":[7.847136E-7],"parents":[2147483647],"right_children":[-1],"split_conditions":[9.0745125E-6],"split_indices":[0],"split_type":[0],"sum_hessian":[3.32E2],"tree_param":{"num_deleted":"0","num_feature":"9","num_nodes":"1","size_leaf_vector":"0"}},{"base_weights":[2.1267224E-5],"categories":[],"categories_nodes":[],"categories_segments":[],"categories_sizes":[],"default_left":[0],"id":44,"left_children":[-1],"loss_changes":[7.4042646E-7],"parents":[2147483647],"right_children":[-1],"split_conditions":[6.3801676E-6],"split_indices":[0],"split_type":[0],"sum_hessian":[3.32E2],"tree_param":{"num_deleted":"0","num_feature":"9","num_nodes":"1","size_leaf_vector":"0"}},{"base_weights":[1.5035406E-5],"categories":[],"categories_nodes":[],"categories_segments":[],"categories_sizes":[],"default_left":[0],"id":45,"left_children":[-1],"loss_changes":[7.887453E-7],"parents":[2147483647],"right_children":[-1],"split_conditions":[4.510622E-6],"split_indices":[0],"split_type":[0],"sum_hessian":[3.32E2],"tree_param":{"num_deleted":"0","num_feature":"9","num_nodes":"1","size_leaf_vector":"0"}},{"base_weights":[9.9262315E-6],"categories":[],"categories_nodes":[],"categories_segments":[],"categories_sizes":[],"default_left":[0],"id":46,"left_children":[-1],"loss_changes":[8.528403E-7],"parents":[2147483647],"right_children":[-1],"split_conditions":[2.9778696E-6],"split_indices":[0],"split_type":[0],"sum_hessian":[3.32E2],"tree_param":{"num_deleted":"0","num_feature":"9","num_nodes":"1","size_leaf_vector":"0"}},{"base_weights":[8.528655E-6],"categories":[],"categories_nodes":[],"categories_segments":[],"categories_sizes":[],"default_left":[0],"id":47,"left_children":[-1],"loss_changes":[8.7079826E-7],"parents":[2147483647],"right_children":[-1],"split_conditions":[2.5585964E-6],"split_indices":[0],"split_type":[0],"sum_hessian":[3.32E2],"tree_param":{"num_deleted":"0","num_feature":"9","num_nodes":"1","size_leaf_vector":"0"}},{"base_weights":[7.4060113E-6],"categories":[],"categories_nodes":[],"categories_segments":[],"categories_sizes":[],"default_left":[0],"id":48,"left_children":[-1],"loss_changes":[8.8535575E-7],"parents":[2147483647],"right_children":[-1],"split_conditions":[2.2218035E-6],"split_indices":[0],"split_type":[0],"sum_hessian":[3.32E2],"tree_param":{"num_deleted":"0","num_feature":"9","num_nodes":"1","size_leaf_vector":"0"}},{"base_weights":[6.283368E-6],"categories":[],"categories_nodes":[],"categories_segments":[],"categories_sizes":[],"default_left":[0],"id":49,"left_children":[-1],"loss_changes":[9.0003107E-7],"parents":[2147483647],"right_children":[-1],"split_conditions":[1.8850104E-6],"split_indices":[0],"split_type":[0],"sum_hessian":[3.32E2],"tree_param":{"num_deleted":"0","num_feature":"9","num_nodes":"1","size_leaf_vector":"0"}},{"base_weights":[6.0084344E-6],"categories":[],"categories_nodes":[],"categories_segments":[],"categories_sizes":[],"default_left":[0],"id":50,"left_children":[-1],"loss_changes":[9.0364307E-7],"parents":[2147483647],"right_children":[-1],"split_conditions":[1.8025304E-6],"split_indices":[0],"split_type":[0],"sum_hessian":[3.32E2],"tree_param":{"num_deleted":"0","num_feature":"9","num_nodes":"1","size_leaf_vector":"0"}},{"base_weights":[5.7335014E-6],"categories":[],"categories_nodes":[],"categories_segments":[],"categories_sizes":[],"default_left":[0],"id":51,"left_children":[-1],"loss_changes":[9.07262E-7],"parents":[2147483647],"right_children":[-1],"split_conditions":[1.7200505E-6],"split_indices":[0],"split_type":[0],"sum_hessian":[3.32E2],"tree_param":{"num_deleted":"0","num_feature":"9","num_nodes":"1","size_leaf_vector":"0"}},{"base_weights":[5.4585685E-6],"categories":[],"categories_nodes":[],"categories_segments":[],"categories_sizes":[],"default_left":[0],"id":52,"left_children":[-1],"loss_changes":[9.1326757E-7],"parents":[2147483647],"right_children":[-1],"split_conditions":[1.6375706E-6],"split_indices":[0],"split_type":[0],"sum_hessian":[3.32E2],"tree_param":{"num_deleted":"0","num_feature":"9","num_nodes":"1","size_leaf_vector":"0"}},{"base_weights":[5.183635E-6],"categories":[],"categories_nodes":[],"categories_segments":[],"categories_sizes":[],"default_left":[0],"id":53,"left_children":[-1],"loss_changes":[9.261017E-7],"parents":[2147483647],"right_children":[-1],"split_conditions":[1.5550905E-6],"split_indices":[0],"split_type":[0],"sum_hessian":[3.32E2],"tree_param":{"num_deleted":"0","num_feature":"9","num_nodes":"1","size_leaf_vector":"0"}},{"base_weights":[4.908702E-6],"categories":[],"categories_nodes":[],"categories_segments":[],"categories_sizes":[],"default_left":[0],"id":54,"left_children":[-1],"loss_changes":[9.390252E-7],"parents":[2147483647],"right_children":[-1],"split_conditions":[1.4726107E-6],"split_indices":[0],"split_type":[0],"sum_hessian":[3.32E2],"tree_param":{"num_deleted":"0","num_feature":"9","num_nodes":"1","size_leaf_vector":"0"}},{"base_weights":[4.633769E-6],"categories":[],"categories_nodes":[],"categories_segments":[],"categories_sizes":[],"default_left":[0],"id":55,"left_children":[-1],"loss_changes":[9.52038E-7],"parents":[2147483647],"right_children":[-1],"split_conditions":[1.3901308E-6],"split_indices":[0],"split_type":[0],"sum_hessian":[3.32E2],"tree_param":{"num_deleted":"0","num_feature":"9","num_nodes":"1","size_leaf_vector":"0"}},{"base_weights":[4.3588357E-6],"categories":[],"categories_nodes":[],"categories_segments":[],"categories_sizes":[],"default_left":[0],"id":56,"left_children":[-1],"loss_changes":[9.651402E-7],"parents":[2147483647],"right_children":[-1],"split_conditions":[1.3076508E-6],"split_indices":[0],"split_type":[0],"sum_hessian":[3.32E2],"tree_param":{"num_deleted":"0","num_feature":"9","num_nodes":"1","size_leaf_vector":"0"}},{"base_weights":[4.0839027E-6],"categories":[],"categories_nodes":[],"categories_segments":[],"categories_sizes":[],"default_left":[0],"id":57,"left_children":[-1],"loss_changes":[9.783319E-7],"parents":[2147483647],"right_children":[-1],"split_conditions":[1.2251709E-6],"split_indices":[0],"split_type":[0],"sum_hessian":[3.32E2],"tree_param":{"num_deleted":"0","num_feature":"9","num_nodes":"1","size_leaf_vector":"0"}},{"base_weights":[3.8089695E-6],"categories":[],"categories_nodes":[],"categories_segments":[],"categories_sizes":[],"default_left":[0],"id":58,"left_children":[-1],"loss_changes":[9.916128E-7],"parents":[2147483647],"right_children":[-1],"split_conditions":[1.1426908E-6],"split_indices":[0],"split_type":[0],"sum_hessian":[3.32E2],"tree_param":{"num_deleted":"0","num_feature":"9","num_nodes":"1","size_leaf_vector":"0"}},{"base_weights":[3.5340363E-6,-6.972949E-5,4.459987E-5],"categories":[],"categories_nodes":[],"categories_segments":[],"categories_sizes":[],"default_left":[1,0,0],"id":59,"left_children":[1,-1,-1],"loss_changes":[1.0049829E-6,2.3432733E-7,6.728115E-7],"parents":[2147483647,0,0],"right_children":[2,-1,-1],"split_conditions":[6.5E0,-2.0918847E-5,1.3379961E-5],"split_indices":[4,0,0],"split_type":[0,0,0],"sum_hessian":[3.32E2,1.19E2,2.13E2],"tree_param":{"num_deleted":"0","num_feature":"9","num_nodes":"3","size_leaf_vector":"0"}},{"base_weights":[8.648938E-7],"categories":[],"categories_nodes":[],"categories_segments":[],"categories_sizes":[],"default_left":[0],"id":60,"left_children":[-1],"loss_changes":[7.7954917E-7],"parents":[2147483647],"right_children":[-1],"split_conditions":[2.5946815E-7],"split_indices":[0],"split_type":[0],"sum_hessian":[3.32E2],"tree_param":{"num_deleted":"0","num_feature":"9","num_nodes":"1","size_leaf_vector":"0"}},{"base_weights":[8.648938E-7],"categories":[],"categories_nodes":[],"categories_segments":[],"categories_sizes":[],"default_left":[0],"id":61,"left_children":[-1],"loss_changes":[7.7954917E-7],"parents":[2147483647],"right_children":[-1],"split_conditions":[2.5946815E-7],"split_indices":[0],"split_type":[0],"sum_hessian":[3.32E2],"tree_param":{"num_deleted":"0","num_feature":"9","num_nodes":"1","size_leaf_vector":"0"}},{"base_weights":[8.648938E-7],"categories":[],"categories_nodes":[],"categories_segments":[],"categories_sizes":[],"default_left":[0],"id":62,"left_children":[-1],"loss_changes":[7.7954917E-7],"parents":[2147483647],"right_children":[-1],"split_conditions":[2.5946815E-7],"split_indices":[0],"split_type":[0],"sum_hessian":[3.32E2],"tree_param":{"num_deleted":"0","num_feature":"9","num_nodes":"1","size_leaf_vector":"0"}},{"base_weights":[8.648938E-7],"categories":[],"categories_nodes":[],"categories_segments":[],"categories_sizes":[],"default_left":[0],"id":63,"left_children":[-1],"loss_changes":[7.7954917E-7],"parents":[2147483647],"right_children":[-1],"split_conditions":[2.5946815E-7],"split_indices":[0],"split_type":[0],"sum_hessian":[3.32E2],"tree_param":{"num_deleted":"0","num_feature":"9","num_nodes":"1","size_leaf_vector":"0"}},{"base_weights":[8.648938E-7],"categories":[],"categories_nodes":[],"categories_segments":[],"categories_sizes":[],"default_left":[0],"id":64,"left_children":[-1],"loss_changes":[7.7954917E-7],"parents":[2147483647],"right_children":[-1],"split_conditions":[2.5946815E-7],"split_indices":[0],"split_type":[0],"sum_hessian":[3.32E2],"tree_param":{"num_deleted":"0","num_feature":"9","num_nodes":"1","size_leaf_vector":"0"}},{"base_weights":[8.648938E-7],"categories":[],"categories_nodes":[],"categories_segments":[],"categories_sizes":[],"default_left":[0],"id":65,"left_children":[-1],"loss_changes":[7.7954917E-7],"parents":[2147483647],"right_children":[-1],"split_conditions":[2.5946815E-7],"split_indices":[0],"split_type":[0],"sum_hessian":[3.32E2],"tree_param":{"num_deleted":"0","num_feature":"9","num_nodes":"1","size_leaf_vector":"0"}},{"base_weights":[8.648938E-7],"categories":[],"categories_nodes":[],"categories_segments":[],"categories_sizes":[],"default_left":[0],"id":66,"left_children":[-1],"loss_changes":[7.7954917E-7],"parents":[2147483647],"right_children":[-1],"split_conditions":[2.5946815E-7],"split_indices":[0],"split_type":[0],"sum_hessian":[3.32E2],"tree_param":{"num_deleted":"0","num_feature":"9","num_nodes":"1","size_leaf_vector":"0"}},{"base_weights":[8.648938E-7],"categories":[],"categories_nodes":[],"categories_segments":[],"categories_sizes":[],"default_left":[0],"id":67,"left_children":[-1],"loss_changes":[7.7954917E-7],"parents":[2147483647],"right_children":[-1],"split_conditions":[2.5946815E-7],"split_indices":[0],"split_type":[0],"sum_hessian":[3.32E2],"tree_param":{"num_deleted":"0","num_feature":"9","num_nodes":"1","size_leaf_vector":"0"}},{"base_weights":[8.648938E-7],"categories":[],"categories_nodes":[],"categories_segments":[],"categories_sizes":[],"default_left":[0],"id":68,"left_children":[-1],"loss_changes":[7.7954917E-7],"parents":[2147483647],"right_children":[-1],"split_conditions":[2.5946815E-7],"split_indices":[0],"split_type":[0],"sum_hessian":[3.32E2],"tree_param":{"num_deleted":"0","num_feature":"9","num_nodes":"1","size_leaf_vector":"0"}},{"base_weights":[8.648938E-7],"categories":[],"categories_nodes":[],"categories_segments":[],"categories_sizes":[],"default_left":[0],"id":69,"left_children":[-1],"loss_changes":[7.7954917E-7],"parents":[2147483647],"right_children":[-1],"split_conditions":[2.5946815E-7],"split_indices":[0],"split_type":[0],"sum_hessian":[3.32E2],"tree_param":{"num_deleted":"0","num_feature":"9","num_nodes":"1","size_leaf_vector":"0"}},{"base_weights":[8.648938E-7],"categories":[],"categories_nodes":[],"categories_segments":[],"categories_sizes":[],"default_left":[0],"id":70,"left_children":[-1],"loss_changes":[7.7954917E-7],"parents":[2147483647],"right_children":[-1],"split_conditions":[2.5946815E-7],"split_indices":[0],"split_type":[0],"sum_hessian":[3.32E2],"tree_param":{"num_deleted":"0","num_feature":"9","num_nodes":"1","size_leaf_vector":"0"}},{"base_weights":[8.648938E-7],"categories":[],"categories_nodes":[],"categories_segments":[],"categories_sizes":[],"default_left":[0],"id":71,"left_children":[-1],"loss_changes":[7.7954917E-7],"parents":[2147483647],"right_children":[-1],"split_conditions":[2.5946815E-7],"split_indices":[0],"split_type":[0],"sum_hessian":[3.32E2],"tree_param":{"num_deleted":"0","num_feature":"9","num_nodes":"1","size_leaf_vector":"0"}},{"base_weights":[8.648938E-7],"categories":[],"categories_nodes":[],"categories_segments":[],"categories_sizes":[],"default_left":[0],"id":72,"left_children":[-1],"loss_changes":[7.7954917E-7],"parents":[2147483647],"right_children":[-1],"split_conditions":[2.5946815E-7],"split_indices":[0],"split_type":[0],"sum_hessian":[3.32E2],"tree_param":{"num_deleted":"0","num_feature":"9","num_nodes":"1","size_leaf_vector":"0"}},{"base_weights":[8.648938E-7],"categories":[],"categories_nodes":[],"categories_segments":[],"categories_sizes":[],"default_left":[0],"id":73,"left_children":[-1],"loss_changes":[7.7954917E-7],"parents":[2147483647],"right_children":[-1],"split_conditions":[2.5946815E-7],"split_indices":[0],"split_type":[0],"sum_hessian":[3.32E2],"tree_param":{"num_deleted":"0","num_feature":"9","num_nodes":"1","size_leaf_vector":"0"}},{"base_weights":[8.648938E-7],"categories":[],"categories_nodes":[],"categories_segments":[],"categories_sizes":[],"default_left":[0],"id":74,"left_children":[-1],"loss_changes":[7.7954917E-7],"parents":[2147483647],"right_children":[-1],"split_conditions":[2.5946815E-7],"split_indices":[0],"split_type":[0],"sum_hessian":[3.32E2],"tree_param":{"num_deleted":"0","num_feature":"9","num_nodes":"1","size_leaf_vector":"0"}},{"base_weights":[8.648938E-7],"categories":[],"categories_nodes":[],"categories_segments":[],"categories_sizes":[],"default_left":[0],"id":75,"left_children":[-1],"loss_changes":[7.7954917E-7],"parents":[2147483647],"right_children":[-1],"split_conditions":[2.5946815E-7],"split_indices":[0],"split_type":[0],"sum_hessian":[3.32E2],"tree_param":{"num_deleted":"0","num_feature":"9","num_nodes":"1","size_leaf_vector":"0"}},{"base_weights":[8.648938E-7],"categories":[],"categories_nodes":[],"categories_segments":[],"categories_sizes":[],"default_left":[0],"id":76,"left_children":[-1],"loss_changes":[7.7954917E-7],"parents":[2147483647],"right_children":[-1],"split_conditions":[2.5946815E-7],"split_indices":[0],"split_type":[0],"sum_hessian":[3.32E2],"tree_param":{"num_deleted":"0","num_feature":"9","num_nodes":"1","size_leaf_vector":"0"}},{"base_weights":[8.648938E-7],"categories":[],"categories_nodes":[],"categories_segments":[],"categories_sizes":[],"default_left":[0],"id":77,"left_children":[-1],"loss_changes":[7.7954917E-7],"parents":[2147483647],"right_children":[-1],"split_conditions":[2.5946815E-7],"split_indices":[0],"split_type":[0],"sum_hessian":[3.32E2],"tree_param":{"num_deleted":"0","num_feature":"9","num_nodes":"1","size_leaf_vector":"0"}},{"base_weights":[8.648938E-7],"categories":[],"categories_nodes":[],"categories_segments":[],"categories_sizes":[],"default_left":[0],"id":78,"left_children":[-1],"loss_changes":[7.7954917E-7],"parents":[2147483647],"right_children":[-1],"split_conditions":[2.5946815E-7],"split_indices":[0],"split_type":[0],"sum_hessian":[3.32E2],"tree_param":{"num_deleted":"0","num_feature":"9","num_nodes":"1","size_leaf_vector":"0"}},{"base_weights":[8.648938E-7],"categories":[],"categories_nodes":[],"categories_segments":[],"categories_sizes":[],"default_left":[0],"id":79,"left_children":[-1],"loss_changes":[7.7954917E-7],"parents":[2147483647],"right_children":[-1],"split_conditions":[2.5946815E-7],"split_indices":[0],"split_type":[0],"sum_hessian":[3.32E2],"tree_param":{"num_deleted":"0","num_feature":"9","num_nodes":"1","size_leaf_vector":"0"}},{"base_weights":[8.648938E-7],"categories":[],"categories_nodes":[],"categories_segments":[],"categories_sizes":[],"default_left":[0],"id":80,"left_children":[-1],"loss_changes":[7.7954917E-7],"parents":[2147483647],"right_children":[-1],"split_conditions":[2.5946815E-7],"split_indices":[0],"split_type":[0],"sum_hessian":[3.32E2],"tree_param":{"num_deleted":"0","num_feature":"9","num_nodes":"1","size_leaf_vector":"0"}},{"base_weights":[8.648938E-7],"categories":[],"categories_nodes":[],"categories_segments":[],"categories_sizes":[],"default_left":[0],"id":81,"left_children":[-1],"loss_changes":[7.7954917E-7],"parents":[2147483647],"right_children":[-1],"split_conditions":[2.5946815E-7],"split_indices":[0],"split_type":[0],"sum_hessian":[3.32E2],"tree_param":{"num_deleted":"0","num_feature":"9","num_nodes":"1","size_leaf_vector":"0"}},{"base_weights":[8.648938E-7],"categories":[],"categories_nodes":[],"categories_segments":[],"categories_sizes":[],"default_left":[0],"id":82,"left_children":[-1],"loss_changes":[7.7954917E-7],"parents":[2147483647],"right_children":[-1],"split_conditions":[2.5946815E-7],"split_indices":[0],"split_type":[0],"sum_hessian":[3.32E2],"tree_param":{"num_deleted":"0","num_feature":"9","num_nodes":"1","size_leaf_vector":"0"}},{"base_weights":[8.648938E-7],"categories":[],"categories_nodes":[],"categories_segments":[],"categories_sizes":[],"default_left":[0],"id":83,"left_children":[-1],"loss_changes":[7.7954917E-7],"parents":[2147483647],"right_children":[-1],"split_conditions":[2.5946815E-7],"split_indices":[0],"split_type":[0],"sum_hessian":[3.32E2],"tree_param":{"num_deleted":"0","num_feature":"9","num_nodes":"1","size_leaf_vector":"0"}},{"base_weights":[8.648938E-7],"categories":[],"categories_nodes":[],"categories_segments":[],"categories_sizes":[],"default_left":[0],"id":84,"left_children":[-1],"loss_changes":[7.7954917E-7],"parents":[2147483647],"right_children":[-1],"split_conditions":[2.5946815E-7],"split_indices":[0],"split_type":[0],"sum_hessian":[3.32E2],"tree_param":{"num_deleted":"0","num_feature":"9","num_nodes":"1","size_leaf_vector":"0"}},{"base_weights":[8.648938E-7],"categories":[],"categories_nodes":[],"categories_segments":[],"categories_sizes":[],"default_left":[0],"id":85,"left_children":[-1],"loss_changes":[7.7954917E-7],"parents":[2147483647],"right_children":[-1],"split_conditions":[2.5946815E-7],"split_indices":[0],"split_type":[0],"sum_hessian":[3.32E2],"tree_param":{"num_deleted":"0","num_feature":"9","num_nodes":"1","size_leaf_vector":"0"}},{"base_weights":[8.648938E-7],"categories":[],"categories_nodes":[],"categories_segments":[],"categories_sizes":[],"default_left":[0],"id":86,"left_children":[-1],"loss_changes":[7.7954917E-7],"parents":[2147483647],"right_children":[-1],"split_conditions":[2.5946815E-7],"split_indices":[0],"split_type":[0],"sum_hessian":[3.32E2],"tree_param":{"num_deleted":"0","num_feature":"9","num_nodes":"1","size_leaf_vector":"0"}},{"base_weights":[8.648938E-7],"categories":[],"categories_nodes":[],"categories_segments":[],"categories_sizes":[],"default_left":[0],"id":87,"left_children":[-1],"loss_changes":[7.7954917E-7],"parents":[2147483647],"right_children":[-1],"split_conditions":[2.5946815E-7],"split_indices":[0],"split_type":[0],"sum_hessian":[3.32E2],"tree_param":{"num_deleted":"0","num_feature":"9","num_nodes":"1","size_leaf_vector":"0"}},{"base_weights":[8.648938E-7],"categories":[],"categories_nodes":[],"categories_segments":[],"categories_sizes":[],"default_left":[0],"id":88,"left_children":[-1],"loss_changes":[7.7954917E-7],"parents":[2147483647],"right_children":[-1],"split_conditions":[2.5946815E-7],"split_indices":[0],"split_type":[0],"sum_hessian":[3.32E2],"tree_param":{"num_deleted":"0","num_feature":"9","num_nodes":"1","size_leaf_vector":"0"}},{"base_weights":[8.648938E-7],"categories":[],"categories_nodes":[],"categories_segments":[],"categories_sizes":[],"default_left":[0],"id":89,"left_children":[-1],"loss_changes":[7.7954917E-7],"parents":[2147483647],"right_children":[-1],"split_conditions":[2.5946815E-7],"split_indices":[0],"split_type":[0],"sum_hessian":[3.32E2],"tree_param":{"num_deleted":"0","num_feature":"9","num_nodes":"1","size_leaf_vector":"0"}},{"base_weights":[8.648938E-7],"categories":[],"categories_nodes":[],"categories_segments":[],"categories_sizes":[],"default_left":[0],"id":90,"left_children":[-1],"loss_changes":[7.7954917E-7],"parents":[2147483647],"right_children":[-1],"split_conditions":[2.5946815E-7],"split_indices":[0],"split_type":[0],"sum_hessian":[3.32E2],"tree_param":{"num_deleted":"0","num_feature":"9","num_nodes":"1","size_leaf_vector":"0"}},{"base_weights":[8.648938E-7],"categories":[],"categories_nodes":[],"categories_segments":[],"categories_sizes":[],"default_left":[0],"id":91,"left_children":[-1],"loss_changes":[7.7954917E-7],"parents":[2147483647],"right_children":[-1],"split_conditions":[2.5946815E-7],"split_indices":[0],"split_type":[0],"sum_hessian":[3.32E2],"tree_param":{"num_deleted":"0","num_feature":"9","num_nodes":"1","size_leaf_vector":"0"}},{"base_weights":[8.648938E-7],"categories":[],"categories_nodes":[],"categories_segments":[],"categories_sizes":[],"default_left":[0],"id":92,"left_children":[-1],"loss_changes":[7.7954917E-7],"parents":[2147483647],"right_children":[-1],"split_conditions":[2.5946815E-7],"split_indices":[0],"split_type":[0],"sum_hessian":[3.32E2],"tree_param":{"num_deleted":"0","num_feature":"9","num_nodes":"1","size_leaf_vector":"0"}},{"base_weights":[8.648938E-7],"categories":[],"categories_nodes":[],"categories_segments":[],"categories_sizes":[],"default_left":[0],"id":93,"left_children":[-1],"loss_changes":[7.7954917E-7],"parents":[2147483647],"right_children":[-1],"split_conditions":[2.5946815E-7],"split_indices":[0],"split_type":[0],"sum_hessian":[3.32E2],"tree_param":{"num_deleted":"0","num_feature":"9","num_nodes":"1","size_leaf_vector":"0"}},{"base_weights":[8.648938E-7],"categories":[],"categories_nodes":[],"categories_segments":[],"categories_sizes":[],"default_left":[0],"id":94,"left_children":[-1],"loss_changes":[7.7954917E-7],"parents":[2147483647],"right_children":[-1],"split_conditions":[2.5946815E-7],"split_indices":[0],"split_type":[0],"sum_hessian":[3.32E2],"tree_param":{"num_deleted":"0","num_feature":"9","num_nodes":"1","size_leaf_vector":"0"}},{"base_weights":[8.648938E-7],"categories":[],"categories_nodes":[],"categories_segments":[],"categories_sizes":[],"default_left":[0],"id":95,"left_children":[-1],"loss_changes":[7.7954917E-7],"parents":[2147483647],"right_children":[-1],"split_conditions":[2.5946815E-7],"split_indices":[0],"split_type":[0],"sum_hessian":[3.32E2],"tree_param":{"num_deleted":"0","num_feature":"9","num_nodes":"1","size_leaf_vector":"0"}},{"base_weights":[8.648938E-7],"categories":[],"categories_nodes":[],"categories_segments":[],"categories_sizes":[],"default_left":[0],"id":96,"left_children":[-1],"loss_changes":[7.7954917E-7],"parents":[2147483647],"right_children":[-1],"split_conditions":[2.5946815E-7],"split_indices":[0],"split_type":[0],"sum_hessian":[3.32E2],"tree_param":{"num_deleted":"0","num_feature":"9","num_nodes":"1","size_leaf_vector":"0"}},{"base_weights":[8.648938E-7],"categories":[],"categories_nodes":[],"categories_segments":[],"categories_sizes":[],"default_left":[0],"id":97,"left_children":[-1],"loss_changes":[7.7954917E-7],"parents":[2147483647],"right_children":[-1],"split_conditions":[2.5946815E-7],"split_indices":[0],"split_type":[0],"sum_hessian":[3.32E2],"tree_param":{"num_deleted":"0","num_feature":"9","num_nodes":"1","size_leaf_vector":"0"}},{"base_weights":[8.648938E-7],"categories":[],"categories_nodes":[],"categories_segments":[],"categories_sizes":[],"default_left":[0],"id":98,"left_children":[-1],"loss_changes":[7.7954917E-7],"parents":[2147483647],"right_children":[-1],"split_conditions":[2.5946815E-7],"split_indices":[0],"split_type":[0],"sum_hessian":[3.32E2],"tree_param":{"num_deleted":"0","num_feature":"9","num_nodes":"1","size_leaf_vector":"0"}},{"base_weights":[8.648938E-7],"categories":[],"categories_nodes":[],"categories_segments":[],"categories_sizes":[],"default_left":[0],"id":99,"left_children":[-1],"loss_changes":[7.7954917E-7],"parents":[2147483647],"right_children":[-1],"split_conditions":[2.5946815E-7],"split_indices":[0],"split_type":[0],"sum_hessian":[3.32E2],"tree_param":{"num_deleted":"0","num_feature":"9","num_nodes":"1","size_leaf_vector":"0"}}]},"name":"gbtree"},"learner_model_param":{"base_score":"5E-1","boost_from_average":"1","num_class":"0","num_feature":"9","num_target":"1"},"objective":{"name":"reg:squarederror","reg_loss_param":{"scale_pos_weight":"1"}}},"version":[1,7,2]}